template<typename T> float tf_dc_unpredict(T* vals_in) {
  static float bias1[128] = {
0.032143,-1.964946,0.430494,-0.979881,-3.731754,-1.956528,-0.984720,1.865489,
-1.666446,0.145192,-4.625807,-3.376120,-0.677918,0.983179,-4.076480,1.283926,
0.556699,-4.718586,-2.110648,0.355350,-0.627665,-3.335798,-5.078679,1.721071,
0.716193,2.465315,1.237686,0.023432,2.951252,-1.275928,-1.039626,0.630882,
-0.956160,-1.119077,-1.163074,1.749911,0.009242,1.034008,-0.383308,-4.454434,
0.800714,0.356316,1.954965,0.491555,-4.531363,-0.492848,-3.514247,-1.950757,
0.910706,0.877940,-2.904362,0.842366,-0.027681,0.677271,-1.449402,2.622719,
0.531170,3.241552,3.782408,-0.762819,3.140989,0.806858,-2.943588,3.212104,
-0.471970,-5.954254,-1.884522,-4.564498,0.748426,1.113106,-3.030396,0.462868,
0.653859,-0.321156,0.445175,0.432795,-5.515439,-2.809294,0.111699,-2.624179,
0.401608,0.072904,0.854617,0.144904,0.667722,-1.881231,-3.343510,0.002250,
-1.899595,-3.330642,-0.149347,0.260158,-0.431407,2.006988,0.682315,2.330012,
-0.149369,-5.440850,0.053488,-0.062138,-0.766872,0.700324,0.167172,2.749265,
0.589353,1.826934,0.039614,0.887687,0.895125,0.939282,-2.768525,0.985371,
-0.385615,-6.235746,0.850294,0.507857,0.394653,-3.903018,-3.744322,-1.289403,
-1.726539,-2.745355,-1.056554,-0.911759,0.768175,1.934026,1.116895,-2.421017 };
  static float weights1[][128] = { {
-0.021419,-0.011702,-0.194907,0.166381,-0.110950,0.145936,-0.030391,-0.116214,
0.140408,-0.021481,-0.035391,-0.187909,0.033354,-0.039623,0.198975,0.024631,
0.007061,0.179788,0.117675,0.241502,0.021037,0.011570,-0.200995,0.121868,
0.185076,-0.032250,0.305507,-0.136813,-0.234859,-0.066965,0.007672,-0.012782,
0.061167,-0.124915,-0.263111,-0.156539,0.012635,0.074298,-0.085150,0.028203,
0.124296,-0.040301,-0.074362,0.129534,0.299169,-0.090452,-0.056899,-0.021750,
-0.053497,-0.106670,-0.266172,-0.068161,-0.113222,0.156486,0.176324,-0.124910,
-0.040381,0.015740,0.152828,-0.078814,0.056222,0.126808,0.284138,-0.117531,
-0.178323,0.246663,-0.033046,-0.454499,0.228891,-0.182281,-0.044288,0.173856,
-0.035865,0.209871,-0.061102,0.126216,-0.268269,-0.134241,0.069877,-0.018055,
-0.024938,0.221553,-0.027091,-0.003825,0.084041,0.070591,0.018246,-0.147226,
0.205005,0.076984,-0.048697,-0.230509,-0.087169,0.123243,0.050430,-0.142624,
-0.015525,-0.043498,0.093691,-0.118359,-0.099748,0.029672,0.002531,-0.179116,
-0.182630,-0.200093,0.073912,0.069001,0.008049,0.057653,0.000348,0.000397,
-0.056898,0.299632,0.094657,0.004918,-0.062498,0.024368,0.083002,0.230521,
0.195143,-0.180589,0.146882,-0.186089,0.005502,0.036197,0.069023,-0.333616}
,
{
0.103930,-0.140910,0.089802,-0.178942,0.039722,0.105220,0.149621,0.145011,
0.088708,0.039414,0.119321,0.443459,-0.006042,-0.150192,-0.174832,-0.007239,
0.009665,-0.090521,0.070678,-0.141543,0.079291,0.099951,0.381582,-0.008551,
0.071209,0.007839,-0.224018,-0.185038,0.266257,0.334644,-0.080170,-0.181023,
-0.210833,0.115683,0.329729,0.065753,-0.211176,0.229401,0.070769,-0.251465,
-0.219456,0.000165,0.005602,0.020332,-0.117155,0.085405,-0.215911,-0.333793,
0.199049,-0.181275,-0.064296,0.239452,0.089727,0.197201,0.026809,0.194807,
0.154146,-0.075419,0.001196,-0.000360,-0.077946,-0.178606,-0.320678,0.023910,
0.198969,0.245760,-0.051539,0.108927,-0.189691,-0.192240,0.375527,0.171860,
-0.169470,-0.216579,0.152053,-0.028217,0.038563,0.237057,-0.043585,0.167864,
-0.037304,-0.150042,0.021375,-0.215782,0.215526,-0.010972,0.023741,0.213077,
-0.179895,0.051848,0.027409,0.178802,-0.070472,-0.114460,-0.124826,0.113332,
0.027282,-0.265762,-0.099304,-0.223211,0.041819,-0.284733,0.225856,0.016859,
0.110793,0.235626,0.012116,-0.010829,-0.045387,-0.050000,-0.090975,-0.031336,
0.135271,-0.059634,-0.019063,-0.150129,0.075507,-0.106275,0.198502,-0.196284,
-0.373960,-0.060295,-0.390185,-0.167301,0.175671,0.109316,0.041247,-0.004482}
,
{
-0.261440,0.056852,-0.196643,-0.039906,0.234977,-0.046725,0.102295,0.034556,
-0.229704,0.072238,-0.406418,-0.154172,-0.098448,-0.026054,0.134356,0.180391,
-0.172858,0.176511,-0.090473,0.088290,0.100672,0.242311,-0.109633,-0.391393,
-0.097751,-0.079813,0.160949,0.014901,-0.260674,0.049162,-0.200158,0.195977,
-0.008760,-0.087813,-0.348667,0.086120,-0.079171,0.070673,0.004579,0.101300,
-0.401674,-0.040548,-0.154842,-0.065182,0.019338,-0.255694,-0.354077,0.739144,
0.033609,-0.192618,0.125666,0.116431,0.041218,0.012627,0.007534,-0.289302,
0.133963,0.133245,-0.496778,-0.168063,0.356706,0.154281,0.082209,0.067845,
-0.064109,-0.071410,0.163110,-0.037594,0.411195,-0.089852,-0.293522,0.059411,
-0.048556,0.334748,-0.071583,-0.143980,-0.210970,-0.115913,0.137124,-0.024018,
-0.102666,-0.021411,-0.157801,0.195020,0.041536,0.173695,0.260944,-0.491059,
0.105770,-0.065002,-0.025366,0.090091,0.145041,0.114001,0.020233,0.035535,
0.094793,0.064101,0.176856,0.068041,-0.156137,-0.144829,0.169898,-0.174586,
0.204751,-0.265233,-0.061009,0.278511,0.069224,0.008955,0.077213,0.239367,
-0.171993,-0.174914,-0.134685,-0.192827,0.148490,0.454539,-0.060609,0.139826,
0.051109,0.085155,0.070794,0.063683,-0.082736,-0.467130,-0.042047,0.082368}
,
{
-0.063744,0.176176,0.155660,-0.057739,-0.000608,0.067034,-0.106232,0.019963,
0.249236,-0.374432,0.190761,0.069748,0.267341,0.159501,-0.216174,-0.125553,
-0.132924,-0.179554,0.231928,-0.245464,-0.058268,-0.051886,0.287459,0.054034,
0.113310,0.446986,0.168128,-0.000071,0.340622,-0.093328,0.239439,0.062446,
-0.053110,-0.498708,0.184329,0.174562,-0.118455,0.091553,-0.229024,-0.217797,
0.061038,-0.228670,0.483734,-0.025406,0.001737,0.181072,0.469815,-0.120662,
-0.090000,-0.074601,-0.343177,-0.131124,0.051497,-0.001378,-0.295117,0.339752,
0.225839,-0.184229,-0.096713,0.302756,0.063718,0.026034,-0.401287,-0.103917,
0.266000,-0.002246,-0.083856,0.101677,-0.043461,-0.099103,-0.093348,-0.007310,
0.432063,0.279761,-0.002346,-0.124705,0.159216,0.113795,-0.108097,-0.038858,
0.352377,0.017552,-0.088068,-0.001564,0.142933,0.023447,-0.230465,0.418881,
-0.017528,0.042882,0.071138,-0.105433,-0.130743,-0.089685,-0.101921,0.113954,
-0.139248,-0.056745,-0.097723,-0.059633,-0.103427,-0.036830,-0.239342,-0.199606,
-0.040995,-0.124917,0.168127,-0.152186,0.237687,-0.056360,-0.020698,0.021539,
0.108745,-0.028590,-0.082906,-0.355675,-0.266341,-0.453490,0.180236,0.202390,
-0.055479,-0.155670,-0.060459,-0.298177,0.003991,0.003445,-0.065640,-0.181424}
,
{
-0.014026,0.289288,-0.307668,0.048661,0.125765,-0.060206,-0.200357,0.005454,
0.211850,0.485183,-0.082831,-0.053850,-0.523583,-0.187159,0.392806,0.204975,
-0.154518,-0.146360,-0.192574,0.081638,0.202400,-0.364950,-0.207536,0.490493,
0.178285,0.658956,-0.047632,0.368193,-0.370773,0.094124,-0.224352,-0.044313,
0.069514,0.263693,-0.144202,-0.286236,0.197882,0.034367,0.055826,0.022411,
0.056009,-0.334650,-0.107907,0.001723,-0.166464,-0.055587,-0.557852,0.277037,
0.128440,-0.140569,-0.128558,0.170859,-0.136403,-0.234195,-0.053055,0.104045,
-0.259721,-0.279448,-0.485306,0.154717,0.309360,0.047433,0.089926,0.348236,
-0.100694,-0.317439,-0.314039,0.139981,-0.497452,0.152133,-0.085054,0.132362,
-0.382083,0.183606,-0.181379,0.049577,-0.157523,-0.312912,0.471344,0.062921,
0.011329,0.224320,0.106925,0.039162,0.296095,0.037021,-0.068761,-0.104329,
0.110368,-0.213637,0.486173,0.144103,0.024130,-0.258727,-0.050432,-0.238706,
0.315476,0.369540,-0.242446,0.106364,0.153099,-0.118199,-0.332377,0.027754,
0.045124,-0.387618,-0.091957,0.348224,0.241673,-0.269322,0.027387,-0.160419,
-0.238844,0.049433,-0.257605,-0.102946,0.175207,0.350054,0.045276,0.065906,
-0.205889,0.283367,0.201089,0.257886,-0.311676,-0.369676,0.153424,-0.075164}
,
{
0.415258,-0.747147,0.445355,-0.235126,0.240038,0.135716,0.216178,0.182823,
-0.163593,0.472750,-0.227081,-0.268600,0.337914,-0.223430,0.304910,-0.101190,
0.025027,-0.409581,0.057861,0.334640,0.050189,0.340916,0.037931,-0.052408,
-0.222521,-0.120930,-0.046998,0.248996,0.074425,-0.020960,-0.024345,0.095955,
-0.320906,-0.054592,0.175034,-0.307142,-0.199682,0.007539,-0.366704,-0.004507,
0.668236,0.342684,0.008565,-0.105347,0.196281,-0.098638,0.351558,-0.045253,
0.574611,0.176126,-0.419943,0.367442,0.178452,0.399854,0.157772,-0.161934,
-0.116500,0.071457,0.565691,0.101502,0.215794,0.095634,0.295738,-0.207187,
-0.232303,0.310789,0.130703,0.212324,0.197625,-0.293074,-0.190103,-0.052390,
-0.052399,-0.294241,-0.190942,-0.331037,-0.220601,0.272780,-0.355544,-0.028095,
-0.088989,-0.348012,0.107262,-0.176280,-0.560769,-0.000015,0.133799,-0.094032,
-0.051904,0.406796,-0.344703,0.124829,0.339204,-0.027131,-0.056189,0.454700,
-0.729473,-0.134376,-0.058633,0.569610,0.100285,0.103691,0.031033,0.123337,
0.236686,-0.148759,-0.056396,-0.589575,-0.068159,-0.217481,0.183995,0.632507,
-0.191899,0.310843,-0.512716,-0.290838,-0.155648,-0.351557,0.178979,0.255284,
-0.060355,-0.259779,-0.132367,-0.469410,0.146186,-0.080647,0.481864,-0.071470}
,
{
-0.384138,0.119482,-0.257681,-0.080327,0.580356,-0.028836,0.150994,-0.220039,
-0.257237,-0.353966,0.207412,0.361199,-0.146588,0.021811,-0.006510,0.079517,
-0.036412,0.021171,-0.185864,-0.608454,0.293072,-0.257797,-0.050824,0.044825,
-0.175621,0.207479,-0.882012,0.300837,-0.256694,-0.063414,0.153444,-0.135315,
0.693831,0.010880,0.160223,-0.358854,-0.022871,0.844696,0.101800,0.166868,
0.222126,-0.244275,-0.298362,-0.110924,-0.260788,0.289456,-0.178862,0.357477,
0.331506,-0.125505,0.055491,-0.152882,0.094975,-0.182353,0.061934,0.050273,
-0.199057,-0.095045,-0.246419,-0.032101,0.013715,0.119643,0.423713,-0.278305,
-0.341937,-0.340603,0.105202,-0.373722,-0.356536,0.262325,-0.146080,-0.056055,
-0.053182,0.695207,-0.111233,-0.286825,0.154745,-0.085995,0.276284,-0.119909,
-0.181363,-0.484860,0.174786,0.228897,-0.001550,0.587424,0.165314,0.005839,
-0.230862,-0.584497,-0.173825,0.431561,0.353010,-0.136797,0.002913,-0.480145,
0.106734,0.407242,-0.304526,0.481369,-0.264997,0.337144,0.252142,-0.242669,
0.063347,0.335871,-0.175982,-0.025933,-0.021241,-0.000535,0.200044,-0.429141,
0.428752,-0.083081,-0.053660,0.053111,0.194807,0.037688,-0.003351,0.537658,
0.435251,0.123504,-0.060924,0.055151,-0.341263,0.261183,-0.181487,-0.128720}
,
{
0.296001,0.256244,-0.281572,-0.350124,-0.006588,-0.099146,0.533990,0.006627,
0.494231,0.497927,0.344001,0.239005,0.105954,0.001537,-0.202195,0.076892,
-0.217111,0.102638,0.600421,0.386676,0.108545,0.049815,-0.301884,-0.328928,
0.302406,-0.599797,-0.961251,-0.083636,0.346313,0.241298,0.324628,-0.010595,
-0.299318,-0.357151,-0.363805,0.003101,0.065873,0.183279,-0.177223,0.042549,
-0.488411,0.207329,-0.391418,-0.379218,0.378859,-0.258686,-0.123250,-0.298298,
-0.493998,-0.173360,0.064889,0.420085,0.311456,-0.088672,0.630232,0.501940,
0.236717,-0.416896,-0.221639,-0.203225,0.418319,0.548965,-0.337974,0.048517,
-0.272846,0.011978,-0.054785,-0.014656,0.191715,-0.405286,-0.247876,-0.157815,
-0.194452,-0.068790,0.107183,0.006499,-0.158611,0.081916,-0.706681,-0.111183,
0.099743,0.500699,-0.040010,0.849946,0.269548,-0.292848,0.039256,-0.167215,
-0.242474,-0.344220,-0.315569,0.278482,0.244507,0.014749,-0.274276,-0.063610,
0.175227,-0.120260,-0.064554,-0.694679,-0.074449,0.473518,0.071082,-0.958362,
-0.041775,-0.640164,0.185834,0.041502,-0.170125,0.393225,-0.210920,0.446375,
-0.073541,-0.225746,-0.212039,-0.086364,-0.184543,0.203235,0.062973,0.118070,
-0.024023,-0.054947,-0.533612,0.063177,0.117544,0.286128,0.313048,0.023275}
,
{
0.027712,-0.030112,0.465954,-0.216921,-0.070860,-0.091395,-0.276601,-0.104781,
0.068614,-0.310652,-0.316303,-0.126516,0.077057,0.003769,-0.283503,-0.036703,
-0.093288,-0.192627,-0.117192,-0.131699,-0.092972,0.199589,0.089566,-0.059198,
-0.092533,0.046604,-0.146527,-0.074794,0.011413,0.140828,0.366569,-0.102328,
0.056970,0.150529,0.163045,-0.160243,0.106719,-0.061321,0.140175,0.136968,
-0.033780,0.003263,0.027612,-0.078669,-0.417287,0.161270,0.192703,-0.268719,
-0.153207,0.152492,0.011733,0.019708,-0.070199,0.057191,0.158595,0.145182,
0.284671,0.093517,0.064440,0.155396,0.033522,0.095694,-0.232839,0.031776,
0.225089,0.086986,-0.003909,0.562975,-0.223060,0.275933,0.024301,-0.233007,
-0.127607,-0.101285,0.125589,-0.104734,0.255126,-0.129368,-0.251260,0.089932,
0.071723,-0.209468,0.051756,0.065876,-0.193641,-0.264559,0.294186,0.271912,
-0.151855,-0.194349,-0.285590,0.477672,0.024630,-0.099236,0.097688,-0.163698,
-0.069918,-0.150474,-0.356971,0.180534,0.217985,0.087970,-0.233404,0.032092,
-0.177457,0.134261,0.164299,0.112241,-0.017676,0.065826,-0.021196,-0.003000,
-0.056646,-0.141817,-0.283556,0.197048,0.170954,-0.002896,-0.027019,-0.243240,
-0.253377,0.093996,0.004573,0.221758,-0.011356,-0.067978,-0.075944,0.140358}
,
{
-0.009206,0.140416,-0.352749,0.315224,0.213824,-0.028977,0.053182,-0.236445,
-0.199054,-0.117641,-0.134126,-0.185809,0.172614,-0.146363,0.234322,-0.184563,
0.031409,0.294131,0.065641,-0.011761,0.066653,-0.072080,-0.233696,0.295154,
-0.398685,-0.283060,0.047048,0.192417,-0.068949,-0.107533,0.075712,0.032668,
-0.090952,0.057484,-0.070060,-0.150551,-0.044849,-0.183646,-0.030489,-0.071893,
0.198044,-0.000606,-0.096022,-0.159228,0.033707,-0.051047,0.141350,0.115597,
0.037029,0.104944,0.449875,-0.041072,0.439768,-0.066967,0.199302,0.054235,
0.199758,0.125117,0.009228,-0.285198,-0.014516,0.040381,0.135361,0.113810,
0.107682,-0.139922,-0.077082,-0.401331,-0.068888,0.067353,-0.150262,0.225915,
0.007091,0.172155,-0.057673,0.049258,-0.244465,-0.211805,-0.028929,0.396986,
0.016688,-0.194612,-0.102040,0.126690,-0.100723,-0.178874,-0.063018,-0.390569,
0.127511,0.325514,0.135133,-0.241623,0.213311,0.296222,0.051787,0.115535,
0.286230,0.183068,0.008491,-0.038693,-0.177698,-0.054355,-0.080177,0.138592,
-0.139153,-0.115176,0.351672,0.120904,0.122343,-0.134929,-0.193360,-0.114641,
-0.181775,0.222580,0.026435,0.209001,-0.085390,-0.054295,0.017481,0.274364,
0.145154,-0.524077,-0.221103,0.181067,0.003238,0.061430,-0.238400,-0.378203}
,
{
-0.067796,0.349981,0.196187,-0.116000,0.548465,0.015506,-0.237436,0.613918,
0.181424,0.369879,0.038554,0.149431,0.067070,-0.066365,-0.364556,0.080037,
0.114919,0.215051,0.011508,0.016162,0.129359,0.083708,0.104723,-0.047592,
-0.313724,-0.188991,-0.148735,0.026942,0.211859,0.031590,0.234328,0.092569,
0.000163,0.066367,0.533575,-0.021210,0.320483,0.211367,-0.134319,-0.081045,
0.307452,-0.205662,0.246165,0.126312,-0.389644,0.146230,0.252994,-0.138089,
-0.147569,-0.059257,-0.162768,0.431340,0.105830,0.095420,-0.007010,-0.026523,
-0.161333,-0.292602,-0.007805,0.131544,-0.190140,0.153409,0.053706,0.041799,
0.306380,-0.076817,0.003215,0.105464,0.095151,-0.024294,0.538061,0.032375,
-0.158980,-0.354540,0.095088,0.089108,-0.012622,0.030819,0.160463,0.359933,
-0.316069,-0.002268,-0.063793,-0.418781,0.249645,0.095852,-0.236171,0.083243,
-0.307689,-0.229211,-0.024621,0.360531,-0.015124,-0.157445,-0.048763,-0.215052,
-0.175041,0.676881,-0.298246,-0.103556,-0.373441,0.133349,-0.239124,-0.213817,
0.326500,-0.245141,0.179288,0.063014,-0.060014,-0.218631,0.071486,0.359762,
0.395057,-0.372862,-0.604725,-0.126526,-0.303683,-0.377482,-0.093453,0.106636,
-0.264511,-0.387939,-0.012211,0.165565,0.284328,-0.068178,0.196115,-0.209627}
,
{
-0.177598,-0.589773,-0.629528,0.238111,-0.194670,0.324553,-0.123875,0.022398,
-0.046353,0.246073,0.042237,-0.166582,0.392949,-0.110741,-0.020707,-0.056658,
-0.261334,0.358184,0.075637,0.107452,-0.403740,-0.033491,0.076618,0.213104,
0.285275,-0.219026,0.480489,-0.079581,-0.141400,0.003028,0.085534,-0.129589,
-0.046976,-0.045498,-0.408875,0.356528,-0.103234,0.497460,-0.162205,0.340749,
-0.259330,0.005864,0.285257,-0.419694,-0.210581,-0.062717,0.197153,0.540183,
0.131792,0.066748,0.593778,-0.456450,0.035693,0.190284,-0.046316,0.034768,
0.140113,0.027102,-0.237577,-0.238093,0.086002,0.456080,-0.027744,0.021300,
0.107235,-0.127158,-0.035903,-0.118551,-0.133600,-0.139509,0.315655,0.031886,
0.247347,-0.374916,0.207033,-0.075239,0.084741,-0.110088,-0.277602,0.027185,
0.328919,-0.167154,0.036269,-0.059428,0.230032,0.078470,0.086444,0.136664,
-0.545288,0.096764,0.141688,-0.172930,-0.229829,0.252446,0.393653,0.142347,
0.194891,0.064705,0.029544,0.057900,-0.278087,-0.050509,-0.011254,0.301916,
-0.054658,-0.087115,-0.068835,0.289517,0.009181,-0.117181,0.155474,0.286646,
0.195828,-0.064723,0.108298,0.113938,0.172273,0.168010,0.242583,-0.159818,
-0.042517,0.209412,0.041235,-0.243108,-0.685802,-0.326470,0.523704,-0.410678}
,
{
0.019789,0.496744,0.345511,-0.032253,-0.260373,-0.298651,0.146094,-0.062679,
0.235210,-0.118151,0.245295,-0.268095,0.612802,0.189237,-0.097957,0.269872,
-0.068237,0.390770,0.094649,0.266800,-0.587642,0.174483,-0.034837,0.104431,
-0.008733,0.323812,-0.541373,0.246744,0.200352,-0.147339,0.349649,0.201695,
0.107762,-0.331691,-0.388002,0.440985,0.242986,0.265145,0.429058,-0.175322,
0.129609,-0.061349,0.493387,0.099999,0.241734,-0.602870,0.447572,0.093991,
-0.261179,0.192896,-0.243458,0.081698,-0.093303,-0.512394,-0.039264,-0.245325,
0.274263,0.234298,0.203720,-0.199949,0.307016,0.189776,-0.696389,-0.050820,
-0.341982,0.145485,-0.368427,0.099251,-0.408109,-0.456073,0.271903,-0.198798,
0.387461,-0.408473,0.001614,0.012244,-0.104256,0.442611,-0.167296,0.275207,
-0.030440,0.386946,0.039050,0.081712,-0.099889,0.664935,0.174390,0.000344,
0.020120,-0.548645,-0.021457,0.216435,0.299456,0.168136,-0.137565,0.468716,
-0.104294,0.121831,0.215431,-0.043015,0.151855,-0.076053,0.640926,-0.441356,
0.091342,0.367056,-0.378643,-0.335247,-0.202678,-0.187073,-0.344224,-0.348550,
0.184458,0.248488,0.237085,0.335660,-0.153648,0.159107,-0.069920,0.435820,
0.367535,-0.585272,0.324290,0.359882,-0.081313,-0.616746,-0.362550,0.511859}
,
{
-0.422542,0.419750,-0.362508,0.152676,-0.106882,0.275509,0.092349,0.231085,
-0.104254,-0.024181,0.059087,-0.494749,-0.151415,0.343139,-0.184414,-0.210978,
0.250848,0.437929,0.035146,0.378395,-0.282165,0.051356,-0.041528,-0.574092,
-0.131810,0.433908,0.427503,-0.175051,0.383727,-0.365445,0.173557,0.654551,
0.251140,-0.712920,-0.650882,-0.178193,0.256643,0.304939,-0.094152,0.048517,
-0.316419,0.411726,-0.200678,-0.136077,0.292811,0.270516,0.156501,-0.284943,
0.331560,-0.134567,0.041175,0.290998,0.303616,0.087061,0.003249,-0.314633,
-0.085746,-0.406724,0.006970,-0.070631,0.216168,0.477369,-0.270457,-0.027564,
0.130084,0.175114,-0.081665,0.205768,-0.178352,-0.614112,-0.108243,-0.322763,
-0.277513,-0.050487,-0.018564,-0.161624,-0.447434,-0.376029,-0.225262,0.046324,
0.291744,0.122337,-0.506159,-0.104814,-0.066334,-0.671898,0.424917,-0.331164,
-0.289882,-0.595539,-0.445500,-0.020874,-0.127252,-0.037956,-0.077205,0.020371,
0.273743,0.218948,0.251786,0.316514,-0.068249,-0.774132,-0.119577,0.120788,
0.122382,-0.689041,-0.213960,0.066225,-0.385047,-0.173956,0.020419,0.317695,
0.462055,-0.035857,-0.010816,0.292463,0.450900,0.093031,-0.187838,-0.338674,
0.071364,-0.452880,0.486949,-0.308226,0.038126,-0.038854,-0.345575,0.042110}
,
{
0.258575,-0.288958,0.115031,-0.327649,-0.117841,0.460847,-0.022155,0.262641,
-0.018009,-0.151966,0.906152,-0.471467,-0.095921,0.241725,0.436511,0.398651,
0.058330,0.141649,0.073097,0.087621,0.165300,0.246237,0.056871,-0.317628,
0.093599,-0.120748,0.025931,0.175407,0.101028,0.191539,0.335882,0.270747,
-0.880752,0.302134,0.190695,-0.213098,0.388973,0.186356,-0.246089,-0.029698,
-0.221298,-0.276164,0.025163,-0.220032,-0.096005,-0.094537,0.473660,0.538182,
-0.428714,0.162141,-0.379599,-0.515200,-0.565239,0.207290,-0.759957,0.399220,
0.362368,-0.473633,-0.182001,0.440643,-0.464434,-0.023851,-0.110552,-0.204715,
0.226989,0.312954,0.323891,0.146645,-0.472917,0.805965,-0.268262,-0.122251,
-0.486166,-0.719866,-0.131023,-0.019335,-0.248712,0.152353,-0.213027,-0.773910,
-0.329432,-0.011976,-0.002578,0.159730,0.043539,0.189265,0.336365,0.120433,
0.543991,0.563316,0.569575,-0.030630,-0.392111,0.463749,-0.109884,-0.315227,
-0.003573,0.107362,0.194346,0.240845,-0.340592,-0.439982,-0.357193,0.526037,
-0.423467,0.269429,-0.583696,0.234725,0.434111,0.009942,0.234057,0.362351,
0.002762,0.748919,0.018611,0.103223,0.286143,0.406348,0.293351,-0.208631,
-0.553500,0.174383,-0.283249,-0.471380,-0.313399,0.005765,0.629103,-0.486125}
,
{
-0.131156,-0.263889,0.205089,-0.316249,0.805993,0.394007,0.790214,-0.508301,
0.244913,0.016280,-0.424477,-0.284942,0.298604,0.036632,-0.366543,0.323514,
0.244284,-0.369438,-0.051831,0.260092,-0.300781,-0.345685,-0.312441,-0.907969,
0.442518,0.170495,-0.352381,-0.489332,0.527067,-0.489297,-0.164870,0.020962,
-1.115384,-0.665056,-0.515202,0.106068,-0.580945,0.096272,0.097570,-0.234986,
0.246142,-0.016320,0.064942,-0.414655,0.165926,-0.501868,-0.027505,-0.168993,
0.332004,0.232475,0.127858,-0.095092,-0.020787,0.386232,-0.150376,0.006257,
0.138521,-0.839965,-0.448761,-0.313613,-0.360120,0.059948,-0.027015,0.220073,
-0.607811,0.870866,-0.440286,0.203650,0.564581,0.488591,0.443880,0.095507,
0.350062,0.141458,-0.085524,0.291629,-0.244681,-0.146876,1.055219,0.212044,
-0.302872,-0.023408,0.185026,0.013063,0.156556,0.123795,0.570490,0.162445,
-0.494559,0.202865,-0.335223,0.175401,-0.139430,0.245020,0.131050,0.155883,
-0.166587,-0.138840,0.629348,-0.226361,-0.073425,0.321497,-0.585726,0.119295,
-0.094146,0.255738,0.329773,-0.427146,0.265831,-0.151206,0.152257,-0.208097,
0.218631,-0.521673,0.026859,-0.002417,0.027385,-0.010133,-0.075640,0.198330,
-0.014806,-0.645349,0.183583,0.597352,-0.208426,-0.028117,-0.551083,-0.121378}
,
{
0.306787,-0.104184,-0.205055,0.339650,0.007975,0.050576,0.287523,-0.034525,
-0.111031,-0.110941,0.223348,-0.006802,-0.172315,-0.208476,0.139298,0.088827,
0.117626,0.128199,0.077902,-0.128192,0.105344,0.186199,-0.013553,0.321637,
0.404208,-0.108980,0.084813,-0.026859,0.142595,-0.058149,-0.062253,0.136588,
-0.036470,-0.209126,-0.030421,-0.088257,0.069787,0.022549,0.234646,-0.101145,
-0.041818,-0.067162,0.023913,0.094647,0.205664,0.018442,-0.221023,-0.145977,
0.136419,-0.040979,0.174044,-0.045230,-0.030601,0.053539,-0.001371,-0.102219,
-0.050491,-0.036270,0.080716,-0.246844,-0.004461,-0.028309,0.215179,0.002792,
-0.032061,-0.261609,-0.393256,-0.253232,0.103973,0.191240,-0.144751,0.180186,
0.004861,-0.024624,-0.218812,-0.148406,0.343497,-0.025058,0.042948,0.226508,
-0.063672,0.136951,0.007035,0.055253,0.135837,-0.223272,-0.195485,0.027292,
0.113272,-0.161428,0.101674,-0.258152,-0.304583,0.171473,-0.112296,0.021490,
-0.052580,0.337977,0.261270,-0.296909,-0.118471,0.189662,-0.130346,-0.250930,
0.017696,0.064834,-0.289634,0.172646,-0.074399,0.101006,0.040350,0.019067,
0.126437,-0.007867,0.370226,-0.294472,0.142028,-0.044022,-0.175562,0.315408,
0.132012,0.059668,-0.273469,-0.067175,-0.183391,-0.379716,-0.179812,0.067322}
,
{
-0.284469,0.116314,0.037024,-0.031323,0.219002,-0.125012,0.063125,-0.150363,
-0.052325,0.223675,0.252845,0.013687,0.115461,-0.214238,0.223275,0.364876,
0.126656,-0.251579,-0.094992,0.085687,-0.063967,-0.105559,-0.157131,0.014436,
-0.157968,-0.228402,-0.174375,-0.321123,0.263464,0.014940,0.278419,0.068479,
0.097940,-0.473865,0.197094,0.247046,-0.070407,0.058051,0.305089,0.035664,
0.297341,-0.069121,0.298011,0.072530,0.151386,-0.039999,-0.283671,-0.020882,
0.229871,0.138232,-0.159934,-0.158298,-0.415922,-0.258132,-0.071930,-0.240637,
-0.015523,0.092411,0.265624,0.137871,0.669372,0.038754,-0.126285,-0.333527,
-0.136596,0.366194,0.182977,0.265391,0.312398,-0.130780,0.251995,-0.365806,
0.121070,-0.140446,0.015637,-0.121451,0.514581,-0.106817,0.162865,-0.105619,
-0.175623,0.116738,-0.175888,-0.035353,-0.251456,0.126439,0.197131,0.155379,
0.095841,0.059540,0.128301,0.048437,0.220091,-0.265748,0.357761,0.157195,
-0.099482,0.376756,-0.624812,-0.118315,0.193408,-0.164345,0.346716,0.438730,
0.040655,-0.040284,0.212013,-0.056084,-0.082944,-0.117120,-0.121088,-0.070406,
0.149231,0.179458,0.216436,-0.006075,0.221355,0.019316,0.011983,-0.364893,
-0.505277,-0.124882,0.046500,0.136397,0.302045,-0.144124,0.234558,0.365683}
,
{
0.365086,0.306805,-0.181343,-0.026853,0.455681,0.198000,-0.142107,0.203097,
-0.267395,0.328294,0.278798,-0.437079,-0.217353,0.214619,0.090499,-0.407536,
0.210739,0.244598,-0.139719,0.079014,-0.061929,0.037482,0.065495,0.296391,
0.264310,0.100283,0.150863,0.019276,-0.060912,0.002945,-0.493395,-0.146036,
0.322394,-0.305675,-0.527315,-0.345788,-0.126076,-0.011946,-0.085232,-0.171741,
-0.047769,0.336345,-0.519122,-0.111969,0.065486,0.272069,-0.002770,0.272813,
0.035438,0.038182,0.179133,-0.140699,0.088413,-0.081560,0.325249,0.037631,
-0.240841,0.065698,-0.314709,0.131338,0.217185,0.124870,0.223780,0.177028,
0.158638,-0.130146,-0.499915,-0.709436,-0.266088,0.020099,-0.049840,0.157235,
0.049655,0.484776,0.063428,0.668067,-0.314747,0.308021,-0.377312,0.100092,
0.047772,-0.293158,-0.531862,-0.196502,0.068847,-0.061386,0.000938,-0.329970,
0.198667,-0.052228,0.252546,0.163127,0.100574,-0.451088,0.216815,0.147998,
-0.404843,0.003331,-0.024943,0.020795,-0.520067,-0.089175,0.110941,0.314584,
0.167431,-0.464416,-0.014662,-0.541946,-0.145687,-0.093437,-0.033420,-0.401493,
0.069001,0.200350,-0.068531,0.208428,-0.038140,0.279337,-0.138016,0.238936,
0.493526,0.087980,0.128632,0.074576,-0.380584,-0.104621,0.150970,-0.488182}
,
{
-0.101359,0.021712,0.609592,0.162299,0.064850,0.254516,-0.033471,-0.268180,
-0.050800,0.424681,0.120171,-0.250274,0.220360,0.052835,0.220790,0.134496,
0.558897,0.036509,0.336194,-0.050643,-0.210894,0.443419,-0.067930,0.541877,
-0.018220,0.075982,0.107732,-0.613951,-0.171061,0.081373,-0.001895,-0.375297,
-0.314378,0.069903,0.364919,0.579630,-0.304992,-0.059912,-0.309261,0.384776,
0.078501,0.279307,0.355041,0.101068,0.173023,-0.154830,0.015677,-0.057140,
-0.202218,0.098685,0.111072,0.090069,0.162839,0.178421,0.013800,0.287468,
-0.011344,0.102196,0.547748,-0.149068,-0.308721,0.454208,-0.200066,-0.301226,
0.220345,0.095708,0.335827,0.187041,-0.025262,-0.095017,-0.112874,-0.085736,
0.213690,-0.255206,0.013499,-0.035179,0.004236,-0.081362,0.137970,0.007776,
0.462725,0.742869,0.358307,-0.194074,-0.014757,-0.135977,0.080537,0.521692,
-0.039065,-0.164089,-0.382029,-0.080594,-0.430775,-0.143585,-0.166922,0.219378,
-0.361384,0.066652,0.096297,-0.131054,0.360627,-0.435286,-0.103565,0.585877,
-0.009459,0.684560,-0.211329,-0.387393,0.150313,0.100471,0.037906,0.088894,
-0.378812,0.222703,0.258861,-0.067001,-0.285361,0.167810,-0.041329,-0.195460,
-0.272797,-0.151610,-0.261958,-0.787699,-0.132960,-0.181787,-0.140329,-0.106692}
,
{
-0.196797,0.359951,0.032508,0.087672,-0.108242,0.199464,0.332633,0.161683,
-0.185742,0.804410,0.693391,0.313270,-0.037227,-0.192461,-0.252120,-0.128006,
0.335479,0.360055,-0.233540,-0.020246,-0.165898,-0.193350,-0.367443,-0.293876,
0.102941,0.437296,-0.689396,0.053633,-0.015764,-0.125248,0.169805,0.023854,
-0.063618,-0.295771,-0.314440,-0.092617,-0.048585,0.337090,0.202331,0.079162,
0.096112,0.011791,0.303574,0.308555,-0.189223,0.124340,-0.256604,-0.196614,
0.452788,0.166084,-0.068829,-0.463690,-0.045129,-0.238721,0.119440,-0.314125,
-0.178468,-0.002471,-0.433436,0.189104,-0.198780,0.300624,-0.697032,0.653308,
-0.014305,0.252527,0.343128,0.010789,0.523318,-0.002971,-0.173915,-0.556703,
0.147226,0.215217,0.357985,0.119175,0.223949,-0.259667,0.189624,0.722178,
0.081595,-0.483332,-0.381785,-0.047546,0.160960,0.760248,0.203382,0.165463,
-0.560310,0.425952,0.053219,-0.606375,0.009522,-0.299879,-0.101261,0.679131,
-0.142291,0.125048,-0.041002,-0.111315,0.061084,-0.038675,0.470288,0.805159,
0.025235,0.414828,-0.376995,0.218853,0.039242,0.063508,0.032730,0.214736,
0.396019,0.263532,0.237247,0.079710,0.012752,-0.215720,0.379396,0.016472,
-0.122306,0.288725,0.352201,-0.225122,-0.489991,-0.041602,0.353155,0.107192}
,
{
-0.051176,0.866971,-0.390878,0.402064,-0.628284,0.285974,-0.158697,0.009861,
0.124431,0.474428,-0.255315,-0.128150,0.066601,0.468106,-0.018101,0.044411,
0.153828,-0.441044,0.055589,-0.027123,-0.456162,-0.160835,0.737242,-0.069394,
0.439156,0.937840,0.104253,-0.576221,0.015998,-0.496628,-0.249162,0.251692,
0.635990,0.119608,-0.084131,-0.050755,-0.055912,-0.205291,-1.277860,-0.402021,
-0.400554,0.240385,-0.219924,-0.611677,-0.154267,0.076556,0.199144,0.036702,
0.759786,-0.273270,-0.214815,0.044463,0.425824,-0.070102,0.071830,-0.241543,
0.056268,0.445625,-0.267647,0.186050,-0.313514,0.516820,-0.009381,-0.156294,
-0.199595,-0.111261,0.095696,0.004715,-0.328025,-0.158415,-0.097431,0.254303,
-0.301512,-0.168768,-0.145758,-0.853105,0.221335,0.194745,0.797849,-0.287938,
0.135389,0.448166,-0.065288,-0.668332,-0.514974,0.172187,-0.060997,-0.414081,
-0.438546,-0.010244,0.070835,-0.776836,0.315535,0.106518,0.125544,0.715969,
-0.420900,0.159430,-0.667909,0.105433,-0.761381,0.119386,-0.382094,-0.123350,
-0.267126,0.383821,0.142083,-0.175935,0.382758,-0.258748,-0.342811,-0.294760,
0.417206,-0.079634,-0.349417,-0.146541,-0.166767,0.126926,-0.438660,-0.350184,
-0.199887,-0.009622,-0.472179,0.232468,-1.032198,0.316268,-0.085379,-0.128458}
,
{
0.068163,-0.029130,-0.263474,0.533815,-0.231602,-0.061086,-0.620064,0.786458,
0.408916,0.891653,0.222206,0.443849,0.389911,-0.042218,0.434062,-0.228210,
0.436855,0.349733,-0.648078,-0.033691,-0.060155,-0.020724,-0.373860,0.374536,
0.000572,-0.295981,-0.006023,-0.074077,-0.045107,0.429768,-0.070919,0.282093,
0.007939,-0.315008,-0.193963,-0.388651,-0.044318,-0.176467,-0.032528,0.293096,
-0.359821,-0.499730,0.065122,0.420236,-0.220620,-0.161319,-0.101767,-0.414968,
0.544657,0.284471,0.540599,-0.260025,-0.234779,0.017087,1.001307,-0.454620,
0.237146,0.807599,0.582201,-0.222913,-0.801777,0.041452,0.388098,1.116627,
-0.156839,0.117798,-0.623298,-0.104586,-0.337758,-0.350907,-0.631393,0.258215,
0.923076,0.057617,-0.030466,0.064890,0.297477,0.232865,0.257000,-0.555716,
0.191963,-0.137755,0.060104,-0.100773,-0.114799,-0.433707,0.071415,0.284250,
-0.581005,0.060923,0.224749,0.387751,-0.345764,-0.291943,-0.410660,0.349758,
-0.152764,0.153061,0.148888,-0.172563,0.107809,-0.137554,0.220610,-0.564633,
0.203029,-0.003503,-0.047571,0.295111,0.192617,0.069632,-0.060021,-0.126590,
-0.992053,0.133797,-0.410541,-0.068503,-0.100148,0.346221,0.138858,0.220591,
-0.395937,0.243830,1.376297,-0.192019,0.053294,0.670123,-0.224450,-0.025130}
,
{
-0.142472,-0.141547,-0.007760,0.162115,0.187671,-0.298555,0.215795,-0.145897,
-0.266764,0.322170,0.281152,0.216158,-0.010310,0.199422,-0.121410,0.107588,
0.484762,0.473799,-0.901923,-0.460621,0.019862,-0.213701,0.193840,0.914202,
0.411508,-0.293418,-0.042238,-0.465755,0.382301,-0.386336,-0.055973,0.442068,
0.009353,0.640188,-0.021903,0.075309,-0.545262,0.058383,-0.124627,-0.042407,
0.429930,-0.235337,-0.430829,0.138335,0.145671,-0.256024,-0.374210,-0.385082,
0.308327,0.317368,-0.624187,-0.034144,-0.016313,0.001398,-0.066587,0.591798,
-0.020548,-0.238199,-0.387769,-0.580679,0.851241,0.356439,-0.276982,-0.034321,
-0.099236,0.655875,0.228673,0.103207,-0.228004,-0.563376,-0.255109,-0.551197,
-0.515061,0.020564,-0.002153,-0.293157,0.123253,0.585466,0.085107,-0.123665,
0.085411,0.059986,0.028529,0.535152,-0.169136,-0.112497,-0.497866,0.071992,
0.087797,0.234228,-0.566709,-0.044099,0.025109,-0.365039,-0.202833,0.133567,
-0.144839,0.196477,-0.566433,0.097600,-0.173547,-0.191812,0.824225,-0.168649,
-0.045015,0.196194,0.192540,0.509966,0.035928,-0.433192,0.171817,-0.826336,
0.225025,0.206963,0.176963,0.096767,-0.568658,0.558387,0.262009,-0.451331,
-0.170899,0.398755,0.657046,0.434307,0.230333,0.616382,-0.872572,0.502692}
,
{
-0.079182,-0.284426,0.304349,-0.406024,-0.045426,0.006921,-0.045766,0.136526,
0.156930,0.089212,0.160977,0.037125,0.240594,0.298720,-0.251120,0.040970,
0.156744,-0.016239,-0.086560,0.370417,-0.258076,0.405528,0.032036,-0.156504,
0.007903,-0.099814,0.082907,-0.101126,-0.110994,0.162949,0.466173,0.142265,
-0.201412,0.258410,-0.002191,0.006249,-0.159943,-0.185009,-0.274883,0.020084,
-0.194845,-0.035859,0.139325,0.430136,-0.016480,-0.007030,0.107110,-0.415880,
0.101483,-0.003532,-0.195499,0.252836,-0.191043,0.080012,-0.168271,-0.354369,
-0.022048,-0.297335,0.091785,0.214066,-0.686033,0.181146,-0.432985,0.192559,
-0.033037,0.238698,-0.121329,0.291497,0.114621,-0.019872,0.222190,0.152168,
-0.185115,0.009073,-0.154555,0.172810,0.028764,0.048370,-0.114008,0.393289,
-0.102444,-0.199616,-0.061660,-0.209998,-0.184689,-0.153440,0.382619,-0.005873,
-0.208344,0.087717,0.132468,-0.085059,0.257183,0.004256,0.210349,-0.123490,
0.095434,-0.254651,-0.138187,-0.035423,0.075329,0.273099,0.391625,0.262762,
-0.024341,0.252718,-0.060264,-0.003973,0.062137,-0.454269,0.016801,-0.085108,
0.140237,-0.020152,-0.015548,0.316043,-0.249278,0.102851,0.171502,-0.187453,
-0.151020,-0.057159,0.031830,-0.261905,0.466106,-0.081729,0.156015,0.158879}
,
{
0.055395,0.398364,0.051099,0.348445,0.006947,0.031708,0.163250,-0.149235,
0.042738,0.310432,-0.134933,0.247354,-0.047522,0.061319,-0.121017,0.072107,
-0.179711,-0.196556,-0.315280,0.135482,0.131540,-0.192736,0.031429,-0.469903,
0.363487,-0.143447,0.084107,-0.141726,0.111038,0.077399,-0.065764,-0.156989,
0.109662,-0.146509,0.086088,0.299814,0.184445,-0.185441,-0.133358,0.026514,
0.059269,0.305356,0.028556,0.010070,0.048862,0.117798,-0.432306,-0.273078,
0.168708,-0.229011,-0.155191,0.043860,0.241911,-0.093912,-0.225556,0.282524,
0.080362,0.065014,-0.065541,0.072833,-0.069443,0.406773,-0.176611,-0.038320,
0.199456,-0.169832,-0.371314,-0.236619,0.322918,-0.430066,-0.129068,0.410732,
0.143877,0.114845,0.268099,-0.111039,0.314960,-0.063116,0.094450,0.018860,
-0.154801,-0.459246,-0.598011,-0.205608,-0.356762,0.152299,-0.626684,-0.457667,
-0.279009,0.011063,-0.142559,0.173132,-0.095790,-0.228514,-0.249872,-0.667846,
0.142288,-0.070163,-0.007098,-0.158017,-0.005935,-0.126515,0.222166,-0.827812,
-0.190837,0.044111,0.086312,-0.226674,0.002572,0.146871,0.301608,0.303463,
-0.408247,-0.139267,0.248130,-0.477634,0.075975,0.149672,-0.001982,0.488751,
-0.077344,0.180312,0.242595,-0.083212,-0.198031,0.539693,0.184906,0.199704}
,
{
0.373550,-0.320794,-0.001496,-0.141251,-0.627970,-0.122821,-0.555349,0.193954,
0.231775,-0.147416,-0.591297,-0.060783,0.281388,0.194948,-0.084036,-0.270686,
-0.123301,0.165683,-0.153148,-0.321441,-0.149109,0.106213,-0.191171,0.301237,
0.287005,0.370243,-0.131180,0.214934,-0.560687,-0.213261,-0.227982,-0.054208,
0.115294,-0.291241,0.333356,-0.209665,-0.027884,-0.184747,-0.102987,-0.353374,
0.235589,0.058904,0.298742,-0.228172,-0.144003,-0.014108,0.064069,0.151734,
0.195210,0.006381,-0.198512,0.005546,-0.207708,0.217452,-0.056410,0.066275,
0.029377,0.596584,0.315324,-0.175395,-0.024368,-0.140129,-0.132927,-0.765263,
0.049234,0.281535,-0.037572,-0.075479,0.023942,-0.275016,-0.283518,0.076071,
0.080166,-0.328518,0.005047,-0.577364,0.134917,0.004578,0.140632,-0.044384,
0.078326,0.003980,-0.387460,0.101466,0.148405,-0.461920,-0.034738,-0.218003,
0.046549,-0.463077,0.185729,-0.139755,0.106801,0.007452,-0.240791,0.080335,
-0.011713,-0.180412,0.029088,0.386074,0.036577,-0.127214,0.093766,-0.254492,
-0.030200,-0.227361,0.074274,0.389622,0.308738,0.025533,0.396614,0.397594,
-0.261326,0.100710,-0.086509,0.256372,-0.366215,-0.177262,0.028478,-0.032934,
0.090756,0.000657,0.179456,0.168151,0.229875,0.165312,-0.195719,0.500695}
,
{
0.536328,0.115094,-0.038526,0.287954,-0.266637,0.139844,0.389166,0.052642,
-0.272546,0.257074,-0.209892,-0.178889,0.060126,-0.054793,0.175495,-0.200193,
-0.032284,0.256230,0.147136,0.085387,-0.025512,0.191038,-0.224391,0.084012,
0.068501,0.089196,0.162725,-0.370719,0.196393,0.589721,-0.435688,0.459477,
-0.236582,-0.383022,0.008635,0.167335,-0.601725,0.052799,-0.161441,-0.053719,
-0.199059,0.066078,0.102445,0.547450,0.050631,0.038174,0.445677,-0.355970,
0.075926,0.156201,-0.131389,0.007898,0.510652,-0.210291,0.373170,0.105402,
0.209411,-0.634049,0.228172,-0.307603,0.012539,0.022910,0.124188,0.110082,
-0.578899,0.256504,-0.813225,-0.323295,0.220361,-0.561849,-0.375385,-0.040384,
0.263133,0.695905,-0.265881,-0.328717,-0.375611,-0.009642,-0.590961,0.033380,
-0.001138,-0.339315,-0.287598,0.298530,0.273455,-0.566305,-0.201537,-0.108922,
0.186115,0.354181,-0.060351,-0.125294,-0.268310,0.737329,0.265428,0.363551,
-0.333002,-0.242035,-0.521213,0.075023,-0.059078,0.050586,0.407956,-0.113614,
0.005953,0.221179,-0.099201,-0.207448,0.151081,-0.211477,0.318217,0.027830,
0.189769,0.362156,-0.062577,-0.112522,0.688670,0.050721,-0.037769,0.242918,
0.203765,0.403107,-0.391936,0.018748,-0.428476,0.336723,-0.090004,0.102033}
,
{
-0.304734,0.087661,-0.060909,0.691136,0.143857,0.181988,1.000525,-0.387595,
0.397958,0.021556,-0.021271,0.085370,-0.097605,0.011635,-0.329430,0.286864,
0.411162,0.040096,0.107528,0.005234,-0.225804,-0.129814,0.402690,-0.440327,
0.349643,0.069377,-0.686244,-0.158616,0.035943,-0.154886,0.471263,0.006636,
0.242558,-0.180480,0.141182,-0.767966,-0.124501,-0.248235,-0.175876,0.183029,
0.166663,-0.252032,-0.577837,-0.314725,0.036724,-0.138916,0.266251,-0.031236,
-0.259169,-0.473030,-0.114637,-0.221426,0.181747,-0.034860,-0.624221,-0.433890,
-0.029127,0.396260,-0.014688,0.610445,0.505787,0.111748,0.304641,0.309339,
-0.286032,-0.293728,-0.521788,-0.022733,0.216601,0.010595,-0.223823,0.128926,
0.356181,-0.335721,-0.330407,-0.036482,-0.417965,-0.041178,0.622789,-0.012517,
0.050903,-0.200154,-0.156897,-0.790077,-0.134234,-0.181084,-0.378303,-0.272578,
-0.349321,0.018088,0.505202,-1.004561,-0.259763,-0.652787,-0.079233,0.038848,
-0.004750,0.426777,-0.702897,-0.117859,0.146027,0.527911,-0.481033,-0.187387,
0.361429,0.040107,-0.404657,0.301695,0.140827,0.124013,0.109376,0.091709,
-0.037483,0.112698,-0.233092,-0.129058,0.145769,-0.273968,0.215399,0.217921,
-0.323421,0.604492,0.143996,-0.266255,0.186267,-0.312840,-0.222427,-0.152998}
,
{
-0.534325,0.607084,0.153358,0.041268,0.827851,-0.203892,-0.677363,0.048662,
-0.090134,0.021128,-0.153232,0.080244,0.185527,0.293490,0.345524,-0.012765,
0.022736,0.155454,-0.387811,0.150887,0.516740,0.820596,-0.007847,0.212889,
-0.092275,-0.472464,0.207968,-0.133939,-0.537775,-0.045620,-0.046039,0.354344,
0.386987,-0.222775,-0.455130,0.017405,0.027818,-0.282207,0.528548,0.215472,
-0.483245,-0.496178,-0.056905,0.099481,-0.255829,0.148313,-0.451532,0.137873,
-0.237923,-0.282108,0.448749,-0.052875,0.270159,0.237104,0.388833,-0.419956,
-0.236077,-0.228681,0.413049,-0.511234,-0.461977,-0.717105,0.275149,0.186473,
-0.574273,-0.732877,0.432834,0.139842,-0.373025,0.047782,0.789169,0.164804,
-0.025525,-0.364716,-0.219324,0.099269,0.180443,0.199820,0.200597,-0.043926,
0.199506,0.113648,-0.055401,-0.438298,-0.617916,0.301022,-0.334077,-0.067290,
-0.032725,0.035792,0.058586,0.002005,0.170804,-0.085774,0.240960,-0.634383,
0.110783,-0.084175,-0.326284,0.351677,-0.296986,-0.366495,-0.393660,-0.606704,
0.173965,-0.321192,0.276000,-0.591184,-0.447456,0.311647,0.420676,0.076656,
-0.193456,-0.275814,-0.260026,-0.467706,-0.064817,0.272208,-0.070921,0.509520,
0.256288,-0.097272,0.248383,-0.471097,-0.351325,-0.081971,-0.486284,-0.371337}
,
{
0.250008,0.020889,0.023466,-0.226838,0.028600,-0.096092,0.398881,-0.323699,
-0.022402,0.279143,0.064024,-0.487595,-0.538695,0.170857,0.127451,0.088228,
0.249282,-0.626794,0.282595,-0.120199,0.053399,-0.497652,-0.458471,-0.060002,
0.047014,0.183054,0.589069,0.213645,-0.266880,-0.842723,-0.048406,0.136487,
-0.376963,-0.610150,-0.218611,-0.116068,0.552232,0.343279,-0.276808,-0.507649,
-0.488690,0.035097,-0.324227,-0.621156,-0.591607,0.086330,-0.288171,-0.612433,
0.388617,-0.109048,0.286222,-0.308426,-0.226051,0.240695,-0.748652,0.146171,
-0.047716,0.421523,0.807910,-0.221561,0.112929,0.232331,-0.594081,0.661320,
0.868526,-0.660134,0.159385,0.474316,0.114558,-0.240684,0.000927,-0.076632,
0.431280,-0.512912,0.030365,-0.145822,0.204018,-0.743055,0.089135,0.558136,
0.472986,0.698936,-0.115572,-0.295985,-0.190240,0.213313,-0.860629,0.882839,
-0.383326,0.319690,-0.505138,-0.054497,0.595268,0.353014,-0.109028,0.616061,
-0.095658,-0.123113,0.109498,-0.799673,0.488595,-0.085314,-0.271583,0.157349,
0.299473,-0.248118,0.333504,-0.099371,-0.035328,-0.046400,-0.195099,-0.740240,
-0.188632,-0.185587,-0.191435,-0.245947,-0.084827,-1.106983,0.437933,-1.094518,
-0.193932,-0.038549,-0.106316,-0.135315,-0.016705,0.027463,0.947361,-0.543536}
,
{
0.345952,-0.654200,-0.793269,-0.007642,0.592956,0.098926,-0.155377,0.241503,
0.184299,0.458441,-0.451794,-0.347585,-0.142910,0.332061,0.152240,0.331261,
-0.203895,0.006371,-0.612327,0.129881,0.302423,-0.187526,-0.080344,0.853443,
-0.097563,0.158948,0.424725,-0.288633,0.181380,0.673002,0.090678,-0.157882,
-0.607457,0.282171,0.474402,-0.465340,0.258852,0.354075,0.409688,0.480668,
0.035198,0.552507,-0.584083,-0.144314,0.076102,-0.103664,-0.329687,0.726044,
-0.260603,0.143215,-0.818122,0.229965,0.151792,0.072590,-0.056204,-0.022243,
0.205510,-0.115651,0.539815,0.365917,0.536258,0.271179,0.408265,-0.742846,
0.071786,0.373920,0.826011,0.210498,-0.131563,-0.080606,-0.080576,0.125293,
0.457990,-1.000144,0.186625,0.260900,-0.305888,-0.148378,0.102307,-0.571335,
0.681414,-0.351989,0.298104,-0.633408,-0.282755,0.015444,-0.435087,-0.235115,
0.305934,-0.271995,0.580712,-0.344218,0.489328,0.468866,0.115615,-0.237799,
0.606081,-0.350457,0.022680,-0.800739,0.356312,-0.567591,-0.396698,-0.348924,
0.819796,-0.562000,0.106747,-0.162653,0.206595,0.307803,-0.206058,-0.211408,
-0.077300,-0.047856,0.139124,-0.592849,0.017647,-0.469798,-0.366946,0.067960,
0.197043,-0.584854,-0.282777,-0.045216,0.727960,0.364688,-0.217342,-0.338408}
,
{
-0.024935,-0.280549,0.013314,-0.248412,-0.089876,-0.452262,0.003984,0.153329,
0.173648,0.354781,0.062104,0.013950,-0.314874,0.246935,0.425030,-0.060669,
0.121240,0.040516,-0.233636,0.065855,0.244180,0.199879,0.236293,-0.169382,
0.339544,-0.090502,0.216907,-0.143785,-0.259551,-0.091479,-0.148589,0.416474,
-0.191950,0.194812,0.004918,0.305879,-0.178101,-0.007416,0.144811,0.064235,
0.002483,0.043196,0.005824,0.549187,-0.020862,-0.185085,-0.163391,0.061479,
-0.269112,-0.195594,-0.032741,-0.326823,0.160229,0.005053,-0.159611,0.058584,
-0.042389,0.127221,-0.033365,0.181483,-0.278795,0.130922,0.402562,-0.234839,
-0.032001,-0.553343,0.367058,-0.259410,-0.030982,0.124182,-0.061866,0.069967,
0.052687,-0.128846,0.144869,0.214700,-0.340043,-0.040743,-0.311240,0.285447,
-0.261065,0.608123,-0.262435,0.021576,-0.312992,0.275753,-0.706436,0.097542,
-0.034675,0.202019,-0.312946,0.252789,-0.065026,-0.048789,-0.094412,-0.317114,
-0.119146,0.016010,-0.014669,-0.071704,0.291632,0.047367,0.230140,0.121549,
-0.009501,-0.396663,-0.265271,-0.057361,-0.026017,0.161170,0.173872,0.167594,
-0.041670,-0.181540,0.428807,-0.024920,-0.034183,0.203355,-0.015026,0.455283,
-0.225824,0.192066,-0.012000,-0.007921,-0.213117,-0.020636,0.034421,-0.328054}
,
{
0.269320,-0.130577,0.171475,0.398560,-0.159309,-0.300830,0.084268,-0.391822,
0.355124,-0.068303,0.115621,-0.400740,-0.052871,-0.366017,0.318458,0.375088,
0.276428,-0.155547,0.381703,-0.341680,-0.020168,0.077008,-0.114888,0.107655,
-0.033943,-0.356007,-0.790998,-0.041764,-0.164286,0.001940,0.477388,-0.063412,
-0.607664,0.452469,0.335891,-0.026942,-0.006165,0.011956,0.209140,-0.314297,
-0.432157,0.434063,-0.256962,0.029867,0.377779,-0.272799,0.788701,-0.256155,
0.214653,0.102009,-0.166841,-0.210334,-0.103335,-0.385493,0.632696,-0.553863,
0.112397,0.166855,-0.182394,-0.551925,-0.265539,-0.210873,0.201231,0.152196,
-0.507834,-0.056402,0.598223,0.315691,0.502416,0.186020,0.187687,-0.056272,
-0.290114,-0.146920,-0.298763,-0.790542,-0.082972,-0.683826,-0.002640,0.269783,
-0.044735,-0.062053,0.002161,0.231257,-0.303463,-0.047432,0.351415,0.272735,
0.221664,0.016422,0.288847,-0.087339,-0.198981,-0.117578,-0.243771,-0.143895,
0.102498,0.156439,0.198868,0.100746,-0.202642,-0.457735,0.246393,0.347059,
0.190641,-0.368340,0.317751,0.247986,0.132787,0.285919,-0.341277,0.493181,
0.047159,-0.224887,-0.248370,0.065928,-0.125376,0.153584,0.323771,-0.105913,
0.295488,-0.204244,-0.118051,-0.300782,-0.163750,-0.461414,-0.022606,0.361553}
,
{
0.237208,0.606292,-0.475036,0.438268,0.187304,-0.189358,-0.010993,0.353895,
0.495417,-0.090327,0.291944,-0.030870,-0.133173,-0.155019,-0.110870,-0.268357,
-0.324531,-0.419006,0.211634,0.027477,0.032257,0.096521,-0.128685,-0.080059,
-0.201375,-0.265270,-0.345161,-0.376010,0.498478,-0.099526,-0.627863,0.088728,
-0.008441,-0.108582,0.327821,-0.065327,-0.334454,0.086005,-0.299086,0.119804,
0.202458,-0.006272,-0.136461,-0.327196,0.334460,0.348228,-0.447575,-0.134524,
-0.125304,0.030903,-0.068440,-0.448137,-0.010643,0.018325,0.214236,0.537565,
0.134561,-0.108029,-0.209026,-0.148704,-0.349986,-0.388588,0.198959,-0.142584,
0.082193,-0.086621,-0.356621,-0.183287,-0.100294,-0.152269,0.235489,0.464018,
0.375286,-0.314388,0.096861,-0.287176,-0.108419,0.325960,0.112140,0.230314,
0.350149,-0.134504,-0.166956,0.232097,0.086083,-0.544249,-0.360861,-0.166857,
-0.305369,0.797531,-0.642897,0.248913,0.242173,0.127856,0.255312,0.020801,
0.370691,-0.099359,-0.275340,-0.109579,-0.213792,0.181276,-0.010333,-0.377322,
0.203857,0.128751,0.180870,-0.072007,0.493680,0.105215,0.076463,0.005428,
0.117378,-0.076873,-0.618904,0.005597,-0.671395,-0.503673,-0.566921,0.782163,
-0.372689,0.092861,0.505682,0.093247,-0.007189,0.228393,-0.207826,-0.099989}
,
{
0.484918,0.190835,0.266247,0.263669,-0.279953,0.357611,0.272351,0.904933,
0.056893,-0.184693,0.611329,-0.185585,-0.026631,0.244715,0.329944,-0.034708,
-0.007398,0.831667,0.014804,-0.060623,-0.218597,0.251300,0.162894,-0.550409,
-0.425196,0.304153,-0.090877,-0.321897,0.048894,0.076684,0.451764,0.050455,
0.184524,-0.146871,0.534511,-0.276109,0.144441,0.427842,-0.135086,0.293269,
0.219755,-0.126145,0.324104,-0.595054,-0.196156,0.442416,0.213307,-0.335143,
0.119941,-0.092838,-0.212679,-0.273525,-0.446397,-0.191328,-0.077223,-0.730760,
0.059121,-0.338914,-0.307270,-1.250568,0.165568,-0.399849,-0.093289,-0.202774,
-0.003052,-0.257322,0.178536,0.036803,-0.583928,-0.076171,0.365171,0.267069,
-0.210984,-0.371031,0.075824,-0.463955,0.500595,-0.194731,0.367328,0.359169,
-0.201360,-0.107492,0.204014,-0.203712,-0.759627,0.205020,-0.191525,0.081701,
0.423744,0.222810,-0.397166,-0.093294,-0.189766,-0.575227,-0.115279,-0.099825,
0.070483,0.042574,-0.098964,-0.764726,0.142761,-0.282321,0.250760,0.124854,
0.098351,-0.174724,0.332044,-0.081285,-0.429798,0.088733,0.716203,-0.205754,
-0.486698,-0.056434,-0.056902,0.181674,-0.000715,0.277317,0.142645,0.362278,
0.403727,-0.532806,0.295342,-0.346057,0.150551,-0.069075,-0.403062,-0.222958}
,
{
0.607619,0.476962,0.335023,-0.106186,-0.285880,-0.037938,-0.812929,-0.057891,
-0.139962,-0.046382,0.270369,0.746533,0.350946,-0.120653,-0.069932,-0.013807,
0.042330,-0.560529,0.751037,-0.535207,0.011250,0.404033,0.119137,0.015860,
-0.462925,0.062992,0.303778,0.362890,0.229165,-0.013916,-0.073513,0.326591,
0.065209,-0.468070,0.296809,-0.359445,0.124036,-0.526268,0.253344,0.045399,
-0.315570,-0.047477,0.051633,0.394791,0.056841,0.158983,-0.081700,0.209797,
0.324384,0.142660,0.167316,-0.099013,-0.273218,-0.498482,-0.182007,0.205249,
0.158767,0.007850,-0.242333,-0.259969,0.256071,0.267154,0.367238,-0.006277,
-0.178970,-0.082190,0.571817,0.474277,-0.204167,0.497323,-0.056837,0.215073,
0.511284,0.062293,0.167545,-0.730551,-0.103946,0.183186,0.383663,-0.051794,
-0.172183,0.528931,0.126002,0.226117,-0.823668,0.082173,-0.156537,-0.416808,
-0.286981,0.121219,-0.600867,-0.418980,-0.452000,-0.277248,0.486938,-0.470513,
-0.337304,0.146788,0.555329,0.310272,0.150398,-0.531703,0.041235,0.185652,
0.170521,-0.695979,0.171349,0.047837,0.223129,-0.373146,0.430830,0.161971,
-0.373079,-0.179803,-0.200509,0.215887,0.695517,0.024567,0.321660,0.389879,
0.204008,0.124880,0.071615,-0.756230,0.666876,-0.057009,-0.072069,0.236309}
,
{
0.172826,0.141651,0.237256,0.175621,0.041423,-0.363451,-0.132724,-0.198734,
0.151980,-0.389841,-0.356790,-0.503290,-0.034146,0.285450,0.074262,0.224177,
-0.201220,0.125642,-0.580152,0.319461,-0.167624,-0.136109,-0.579105,-0.035559,
-0.001511,-0.131785,0.033898,-0.102812,-0.110980,0.090878,0.656506,0.609875,
0.279563,-0.346336,-0.315496,-0.004016,-0.187862,0.253860,0.215401,-0.265226,
-0.156667,0.032670,-0.230280,0.040887,-0.127762,-0.088517,-0.210284,0.486582,
0.292489,0.047870,-0.235930,0.123745,-0.398121,-0.022702,-0.451337,0.168694,
0.158206,0.431603,0.379951,0.513216,0.159442,-0.417746,0.763317,0.079136,
-0.144229,0.645257,-0.099725,-1.044268,-0.155361,-0.458053,-0.690827,-0.739538,
0.166900,-0.265268,-0.450167,0.205377,-0.438612,0.117624,-0.312955,-0.073005,
0.186571,0.491079,-0.065352,-0.147971,0.304547,0.322853,-0.309541,-0.265889,
0.166119,0.394699,-0.197482,-0.360657,0.065952,0.258683,0.173004,0.101847,
0.207816,0.368486,0.525898,0.049543,-0.150869,-0.416633,-0.223897,-0.044460,
0.139512,0.010212,-0.013253,0.052538,-0.192497,-0.022146,0.306263,0.497368,
-0.851805,-0.480371,-0.111584,0.164902,-0.014513,-0.279321,0.389891,0.207322,
-0.553248,-0.285200,-0.178130,-0.125888,0.052604,-0.048305,0.239872,0.034104}
,
{
-0.056177,-0.266778,-0.098025,-0.404367,0.069528,-0.412186,0.643687,-0.184520,
-0.754845,-0.016253,-0.152146,0.062281,-0.299417,-0.024148,-0.481006,-0.130102,
-0.012462,1.350585,0.432862,-0.058328,0.009538,0.000711,0.088926,-0.332225,
-0.155513,0.160620,-0.675909,0.171128,0.037810,0.102071,-0.029057,-0.590536,
1.256868,-0.276372,-0.590134,-0.089206,0.242791,-0.061485,-0.311240,-0.526487,
0.116518,0.282694,0.246547,0.707183,0.188006,-0.354529,0.520525,0.716940,
0.315820,0.006138,-0.180727,0.477208,-0.169485,0.044783,-0.433829,0.279353,
-0.172040,-0.660308,0.199090,0.228189,0.054584,0.201373,-0.057746,0.111285,
-0.471163,-0.529562,-0.088643,0.588866,-0.106350,0.352983,-0.036733,-0.353948,
0.141724,0.012634,0.134580,0.030114,-0.038066,0.004585,-1.002118,0.539097,
-0.202092,0.828623,0.342441,0.093721,0.304200,-0.583916,0.031284,0.422400,
-0.100127,-0.852954,-0.006095,-0.107167,0.630035,-0.402777,-0.416083,0.321626,
0.434116,-0.310594,-0.328832,0.583607,0.838774,0.207348,0.009575,-0.153454,
-0.035868,1.193397,-0.063879,0.107729,-0.307750,-0.192324,0.263502,-0.112620,
0.118256,0.225440,-0.409746,0.526917,0.190862,-0.211235,0.503062,0.370629,
-0.370386,0.397867,-0.159104,-0.129848,-0.456895,0.049394,0.352194,0.295233}
,
{
-0.390597,0.508925,-0.580350,0.388311,0.234967,-0.493790,0.162960,-0.005601,
0.067541,0.156300,0.747982,0.006288,-0.133826,0.259349,-0.538359,-0.014169,
-0.009316,-0.147176,-0.021785,0.223065,0.058958,0.517717,0.553883,-0.581759,
-0.215224,0.851034,0.683832,0.755300,-0.020477,-0.185563,-0.020805,-0.432942,
-0.208688,-0.423757,-0.088621,-0.504090,-0.430349,0.146619,0.366083,-0.032638,
0.031059,-0.266344,0.136434,0.240686,-0.131965,-0.170480,0.666842,0.059088,
0.437274,0.153061,-0.165380,-0.645291,0.125727,0.084792,0.499562,0.126842,
0.047691,0.425869,0.069388,-0.796790,0.122071,-0.079168,0.223476,0.319823,
-0.179634,0.062612,-0.199615,-0.080990,0.576164,0.151831,-0.592092,-0.177950,
0.603516,-0.556396,-0.053769,-0.144307,0.080367,-0.289774,-0.211290,-0.172014,
-0.162679,-0.004479,-0.483426,-0.146544,-0.142034,-0.511262,0.221599,0.161833,
0.016979,-0.092671,-0.548978,0.312637,0.290816,-0.449676,-0.277979,-0.068569,
-0.692666,-0.240506,-0.790681,0.279889,0.845811,-0.515865,0.100474,0.174322,
-0.150858,0.277825,-0.452666,0.144833,0.275218,0.031307,-0.241544,-0.095119,
-0.542332,0.011292,-0.257154,0.240598,-0.651608,-0.774471,0.819488,-0.334112,
0.071781,-0.124837,0.602460,0.462163,0.210477,0.661214,0.390256,0.601286}
,
{
0.078347,-0.328107,-0.356566,0.069252,-0.296655,0.141942,-0.275201,-0.493710,
-0.231745,-0.467056,0.197239,0.240197,0.124002,-0.130079,0.332489,0.138280,
-0.005605,-0.242720,0.125914,-0.177601,-0.076287,-0.233014,0.174521,0.137243,
-0.161664,-0.198961,-0.272646,-0.109553,0.343432,0.430844,0.065213,-0.349797,
0.004098,0.572625,0.069483,0.068584,0.485148,0.220139,-0.304606,-0.006995,
-0.011625,-0.082373,0.011366,-0.191642,-0.255848,0.121335,-0.187258,0.064693,
0.123910,0.189828,-0.290996,0.143137,-0.376701,0.182077,-0.366490,0.383014,
0.032757,-0.279625,-0.272151,-0.063067,-0.346097,-0.293102,-0.278411,0.443005,
0.226727,-0.013657,-0.548929,0.019430,0.022518,0.089763,0.260873,-0.086293,
-0.417531,-0.040288,-0.298712,0.059430,-0.447133,0.416699,0.223798,-0.220100,
0.228162,-0.568733,0.340478,-0.176620,-0.077630,0.459777,0.580452,0.103339,
-0.119217,0.208827,0.295447,-0.459393,0.437089,0.030016,0.056069,-0.023344,
-0.220877,-0.138819,0.212188,0.006054,0.180474,0.167382,-0.096458,-0.276152,
0.044136,-0.036663,0.189540,-0.073775,0.004856,-0.092521,0.276681,0.215114,
0.193390,-0.051447,-0.128227,-0.263865,-0.198387,0.100340,-0.057542,0.015125,
0.033742,0.016175,0.023970,-0.435549,0.226584,-0.627564,0.264264,0.270700}
,
{
0.468128,-0.020622,0.034388,0.524156,-0.165482,-0.403833,-0.387780,-0.264196,
-0.562954,0.082090,0.309143,0.058327,-0.384879,0.239349,0.167281,-0.247004,
0.055429,-0.150760,0.077487,-0.022148,-0.081106,-0.033297,-0.381852,0.218181,
0.536560,-0.084511,-0.137835,-0.292418,0.020649,-0.246462,-0.551024,0.440224,
0.481433,-0.019421,0.092321,0.032151,-0.291961,-0.395919,0.190007,-0.339400,
0.405983,-0.134002,-0.125961,0.334445,0.194219,-0.021138,0.053533,-0.323340,
0.266569,-0.377132,0.412472,-0.116576,-0.115106,0.193727,0.493948,-0.047726,
-0.106082,0.741475,0.265478,-0.096610,0.070333,-0.332152,-0.240231,0.047948,
0.085514,0.115360,0.040953,-0.176792,-0.173731,0.307394,0.123903,0.185963,
-0.170794,0.212941,0.069199,-0.746090,0.241783,0.275080,0.314712,0.050771,
0.436514,0.855864,0.268197,-0.030717,-0.406845,-0.219801,-0.266987,0.071601,
-0.412708,0.458451,0.109181,-0.028163,-0.298647,-0.094946,0.218040,0.233612,
0.254657,0.028547,0.190760,-0.179197,0.035113,0.220708,0.091623,-0.348583,
-0.055307,0.289960,0.111728,0.069172,-0.646170,-0.042356,0.435685,-0.168758,
0.099245,0.416739,-0.305280,0.264552,0.297195,-0.019988,0.275145,0.114435,
0.068478,-0.440716,0.033889,0.087242,-0.035206,0.010144,0.347957,-0.009600}
,
{
0.116421,0.635182,0.812841,-0.026046,0.259054,-0.846531,0.269679,0.856909,
0.399050,-0.056845,-0.349615,-0.252403,-0.243079,0.021694,0.168666,0.232314,
0.289704,-0.145820,-0.070990,-0.272401,-0.482727,-0.022934,-0.244461,0.479105,
0.535877,-0.162975,-0.084741,-0.212170,-0.011216,-0.015524,0.314554,0.113808,
0.301912,0.438231,-0.129862,0.735627,0.138611,0.188603,-0.486037,0.186864,
0.212995,-0.017992,-0.583299,-0.308749,0.117784,-0.142564,0.379207,-0.681645,
-0.239636,0.181188,-0.142241,-0.028147,-0.146176,-0.031614,-0.142999,-0.868749,
0.160336,-0.578724,-0.332557,-0.062771,-0.395653,-0.065115,0.032840,-0.409740,
-0.003978,0.509579,-0.367226,-0.050648,-0.339823,0.618969,-0.319145,-0.172935,
-0.026187,-0.313786,-0.017147,0.297446,0.200556,-0.155742,0.308582,0.276052,
-0.218261,-0.052092,-0.590881,0.686711,-0.181471,0.287627,0.585436,0.429549,
0.097827,0.388610,0.527144,-0.067162,0.051434,0.667507,0.026153,-0.060052,
-0.038573,0.005291,-0.146081,-0.020343,-0.207299,0.065634,0.200725,0.300515,
-0.434876,0.302015,0.331696,0.367200,-0.562905,0.236724,0.396994,-0.209144,
1.219798,-0.027777,-0.187256,-0.127623,-0.188696,-0.307106,0.196897,0.051676,
-0.178058,-0.345731,0.042671,0.054738,-0.021494,0.446912,0.090976,-0.021691}
,
{
-0.308265,-0.074730,0.780864,0.353713,0.506223,-0.495099,-0.235604,0.203051,
0.356208,0.010611,0.065387,-0.075171,0.365038,-0.255407,0.155363,-0.038965,
0.140156,0.292120,-0.366107,0.241416,0.144767,0.292332,-0.430219,0.639254,
-0.205309,0.205238,-0.021510,0.695416,-0.496240,-0.144276,0.280220,-0.157641,
0.176530,-0.096291,0.515719,0.156073,0.064737,0.085144,-0.364291,0.318593,
-0.693062,0.271473,0.349072,0.241880,-0.082332,0.261925,-0.148521,0.452719,
-0.106606,-0.023291,0.244797,0.319081,-0.204571,0.354531,0.568268,-0.013150,
-0.313600,-0.193268,0.010105,0.191765,0.482423,-0.692285,0.598091,0.052437,
0.052414,0.468311,0.506645,-0.114849,-0.206042,0.415036,0.045910,-0.284665,
-0.413742,-0.152650,0.195590,-0.436232,-0.013634,0.055307,0.059980,0.262307,
0.141114,-0.183064,-0.079883,0.020802,-0.446011,0.389917,-0.287853,-0.391413,
-0.012543,0.080473,0.256624,-0.285446,-0.285977,-0.454308,0.077781,-0.361644,
0.524595,-0.051839,-0.135958,-0.644587,-0.132794,0.343994,0.338407,-0.139291,
0.234370,-0.360688,-0.222735,-0.546339,0.190298,-0.113251,-0.006337,0.001212,
0.185965,-1.056783,0.335147,-0.495403,0.377088,0.579634,-0.196201,1.140939,
-0.584947,0.042000,-0.005128,-0.505327,-0.094183,-0.039782,0.202203,0.326148}
,
{
-0.167243,-0.309466,-0.286454,0.667075,-0.462200,-0.374180,0.545709,0.777797,
-0.291467,-0.467131,0.104121,0.250772,0.049576,0.090158,-0.356704,0.410651,
0.112187,0.433246,-0.036511,0.451771,-0.538248,0.243897,-0.187995,-0.631594,
-0.040295,-0.009884,1.036872,-0.133522,-0.361950,-0.659422,-0.072325,-0.273639,
-0.996888,-0.523686,0.248915,-0.071525,-0.137182,0.644862,0.939476,0.417924,
-0.184496,0.272021,0.023690,-0.656888,-0.169429,0.243478,-0.443847,0.059859,
-0.197152,0.285812,-0.468234,-0.186025,-0.009616,0.270960,0.002117,-0.031414,
-0.330848,0.283670,-0.012123,0.244420,0.405875,0.168684,-0.789126,0.043453,
-0.285653,-0.208573,-0.442006,0.261670,-0.082378,-0.029323,0.344238,-0.165985,
0.028966,0.315722,-0.078210,-0.551050,-0.169372,0.419396,0.156526,0.038204,
-0.413192,0.654789,-0.372012,-0.029343,-0.897425,-1.117025,-0.349505,0.116737,
0.213213,0.252684,-0.101578,-0.860823,0.280348,0.170925,-0.186769,0.404218,
-0.118689,-0.394673,-0.284864,0.072498,0.076531,-0.345302,0.133208,-0.095409,
-0.298891,-0.267699,-0.052993,0.092842,-0.253950,0.048639,-0.526193,-0.022085,
0.182728,0.043725,0.098072,-0.472042,-0.312420,-0.219242,-0.381799,-0.644354,
-0.054677,-0.774300,0.111269,-0.051940,0.462521,0.019787,0.201293,0.116993}
,
{
-0.095344,-0.864800,-0.562575,-0.019429,-0.141321,0.362824,-0.240018,-0.057081,
0.078095,-0.574359,-0.070559,0.099605,-0.171132,-0.015276,-0.002418,0.251879,
0.137370,-0.528611,-0.254372,0.210117,-0.326537,-0.148295,-0.062645,-0.597013,
-0.048565,-0.170174,0.146242,0.267125,0.169662,-0.466556,-0.458214,0.040331,
0.235963,0.127978,-0.177087,-0.042547,0.068187,-0.380571,-0.304924,0.116656,
-0.410463,0.111375,-0.544106,-0.443108,0.273618,-0.006320,0.086089,-0.752987,
-0.165800,0.119670,-0.561755,-0.003672,0.297530,0.041220,0.224213,-0.324311,
0.051060,0.037670,-0.033368,-0.209778,-0.025883,0.041166,0.434662,-0.221829,
-0.268981,-0.260035,0.210174,0.173322,0.197907,-0.169340,0.070357,-0.839662,
-0.024227,0.414350,-0.124526,-0.254985,0.157408,-0.378151,0.449049,-0.503857,
-0.368077,-0.152552,-0.310769,-0.178102,-0.410752,-0.188783,-0.161541,-0.395674,
0.213669,-0.351759,0.172068,-0.836438,0.102596,-0.296019,-0.108839,0.712216,
-0.057538,-0.573398,-0.121138,-0.328831,-0.389072,-0.303584,-0.223080,0.702145,
-0.009024,0.640799,0.009687,0.036529,-0.045476,-0.250069,0.588968,-0.459330,
-0.129887,0.143426,-0.154908,-0.298308,0.176761,0.110779,0.054552,-0.192118,
0.393565,-0.002467,0.060683,0.460589,0.224538,-0.180817,0.277785,0.302957}
,
{
0.456340,0.395423,0.368355,-0.544448,0.592269,-0.427939,-0.083595,-0.588417,
-0.101041,-0.273818,0.053212,0.094750,0.567415,-0.235739,-0.256578,0.002364,
0.618317,-0.016388,0.050299,-0.191431,-0.240055,0.137057,-0.060733,-0.304544,
-0.185240,0.372927,0.304758,-0.176002,-0.166674,0.261273,-0.244323,0.154160,
0.381690,0.373611,0.716566,0.302427,0.084380,-0.042147,-0.149837,-0.000851,
-0.015515,0.191077,-0.280027,-0.341857,0.128374,0.396099,0.935962,-0.091464,
-0.101322,0.009216,0.885087,-0.100453,0.436413,0.033472,0.130316,0.414941,
-0.197253,-0.588365,-0.477965,-0.170370,0.042022,-0.347094,0.110961,-0.299461,
0.172167,0.561162,-0.137084,-0.215332,0.653953,0.050233,0.532715,-0.137995,
-0.216092,0.160582,0.037942,-0.153906,-0.217617,0.305510,0.057025,0.079478,
0.415101,-0.305521,-0.432701,0.206370,0.036483,0.427072,-0.840008,0.229191,
-0.250939,-0.489177,0.475947,-0.209583,0.466905,0.019737,-0.098864,-0.092740,
0.163481,0.239456,0.548216,0.321959,0.115128,-0.374561,-0.523587,-0.471975,
0.011213,0.623137,0.159883,0.352210,0.373032,0.159549,-0.219904,-0.252810,
0.405424,0.384635,-0.320228,0.087623,-0.204214,0.314075,0.267919,-0.177621,
-0.277789,0.756163,-0.080332,0.437228,0.124226,0.162138,-0.383155,-0.454854}
,
{
-0.411952,-0.151315,0.166065,-0.290244,-0.274771,0.046446,0.229420,-0.513923,
-0.070309,0.418797,0.331418,-0.568696,-0.633531,0.503739,-0.446791,0.002281,
-0.104356,0.464516,0.062745,-0.043551,-0.243172,-0.243812,-0.984627,0.079551,
-0.024836,-0.060580,-0.016710,-0.095160,-0.730011,-0.041930,0.060494,0.349951,
-0.540759,0.546249,-0.168502,-0.292313,0.031712,0.004351,-0.143937,-0.196965,
0.508721,-0.409405,0.098419,-0.001085,-0.336179,-0.480116,0.007469,-0.379506,
-0.320271,-0.256000,-0.028149,-0.305353,-0.103875,-0.243569,-0.337081,0.025796,
-0.289173,-0.274940,-0.476686,0.090375,-0.234124,-0.014309,-0.229182,-0.658669,
0.213295,-0.110799,-0.001788,0.208343,-0.040752,0.439042,-0.349020,0.117525,
-0.286010,-0.513001,0.144692,0.607329,-0.020548,-0.428980,0.254551,-0.121667,
0.430760,-0.119038,0.149750,0.013096,0.045916,0.106160,-0.833256,0.306324,
-0.397032,-0.079814,-0.034435,0.152099,0.381863,-0.120059,-0.447841,0.645356,
0.224101,-0.466871,-0.071277,0.576795,0.222512,-0.102368,0.070573,-0.062332,
0.101487,-0.475879,-0.281871,-0.193113,-0.143490,0.056099,0.518001,-0.189510,
-0.426608,0.164657,0.116288,0.473190,0.150444,0.143077,-0.271407,-0.620922,
-0.028982,0.785173,-0.327527,-0.030745,-0.540845,-0.573645,-0.226758,-0.044834}
,
{
-0.076621,-0.103714,-0.446684,0.511230,-0.240973,-0.049327,0.219083,0.209225,
-0.482782,-0.146863,0.053594,-0.273740,-0.075592,0.004540,0.102659,-0.367103,
0.305528,-0.375081,-0.564440,-0.147742,0.291849,-0.031680,-0.300534,0.446022,
-0.058941,0.280016,-0.249088,-0.141284,-0.244167,0.150096,-0.309493,-0.201448,
0.193801,0.304055,0.363917,-0.589279,-0.213336,0.181469,0.226390,-0.030107,
0.053198,0.330488,-0.274579,0.361270,-0.061236,0.402518,0.150545,-0.342411,
0.134175,-0.141572,0.049829,-0.022698,0.011727,-0.341346,-0.274710,-0.430722,
0.230177,0.055188,0.166243,-0.409433,-0.181892,-0.077154,0.174488,0.306439,
-0.390957,-0.107019,0.283728,-0.149691,0.187715,-0.091668,-0.190843,-0.003830,
0.723153,-0.042032,0.112346,0.389204,-0.336069,0.044268,0.351353,-0.408824,
0.056000,-0.900745,0.384991,0.119108,-0.105255,0.093754,-0.317144,-0.010477,
-0.346743,0.087615,-0.012747,0.453967,-0.271990,-0.268831,-0.102041,-0.666638,
-0.263419,0.125639,-0.017617,0.293925,-0.039474,0.252435,0.299171,0.361246,
-0.179319,0.276604,-0.108234,0.120421,-0.172681,0.156627,0.585708,-0.036773,
0.232819,-0.054243,0.236287,0.149340,0.442763,0.090834,-0.011273,0.181272,
0.159144,0.331585,-0.027393,0.101469,-0.644595,-0.067816,0.213538,-0.104367}
,
{
0.096976,0.312213,-0.327751,0.265632,0.464070,0.213392,-0.456740,-0.480785,
-0.007660,0.422760,-0.183249,-0.426393,-0.259053,-0.003091,0.445405,0.111584,
-0.193461,0.146280,-0.151564,0.075202,-0.121695,0.356368,0.322266,-0.192683,
-0.213890,0.029604,-0.599173,0.453919,-0.149327,0.102963,-0.985993,-0.215751,
-0.833197,0.122987,0.555250,-0.197534,-0.163922,0.536851,-0.207415,0.052566,
0.154570,-0.169333,0.858827,-0.364904,0.003475,0.509818,0.061296,-0.121069,
0.386712,-0.252863,0.144984,-0.004412,0.281607,-0.260703,0.038900,-0.126474,
0.066270,-0.264213,-0.115735,-0.425249,-0.430531,0.012374,-0.044179,0.442334,
0.184403,0.379226,0.255787,0.140528,1.276195,0.182421,0.412461,0.043369,
-0.011864,0.033208,-0.525792,-0.059393,-0.397407,-0.052067,-0.155667,-0.076671,
-0.432396,0.250389,0.034174,0.345043,0.336990,0.214956,0.175865,-0.524464,
-0.595503,-0.098179,0.017043,-0.030622,0.140470,-0.163356,-0.138229,-0.143367,
-0.069747,0.245888,0.331646,0.208028,-0.568908,-0.095897,0.625821,0.487444,
0.061939,0.254672,0.167436,0.317359,0.686409,0.053022,-0.062344,-0.583679,
-0.565215,-0.139266,0.156600,0.090260,-0.213732,0.261331,-0.055402,0.986332,
0.535746,0.204974,0.630148,-0.181965,-0.122882,0.026027,-0.220836,0.539918}
,
{
0.199379,0.609053,0.229789,0.458555,0.254496,0.256958,0.279443,0.457570,
0.094451,0.477546,-0.181247,-0.287101,0.185674,0.145006,-0.256904,0.178680,
0.150920,-0.851635,0.191172,-0.111482,0.097444,-0.094023,0.015736,-0.138250,
-0.154869,-0.503098,-0.199654,0.337041,-0.497006,0.393996,-0.481170,-0.304700,
-0.292704,-0.078074,0.071910,-0.394639,-0.065330,0.292075,-0.248588,-0.052443,
-0.059641,-0.303715,0.180269,0.347865,-0.307477,-0.036708,0.045803,0.853258,
0.262437,-0.336033,0.469000,-0.054754,-0.425260,-0.072171,-0.013865,0.417077,
-0.181194,0.148883,-0.055317,0.203874,-0.467983,-0.413469,-0.184355,-0.065233,
0.176467,-0.012731,0.294908,0.484667,-0.134551,0.112658,-0.438573,0.310961,
-0.685425,0.356219,0.117011,-0.391855,-1.141811,-0.837006,0.317085,-0.742051,
0.518998,-0.946490,-0.185498,0.113055,-0.514889,0.143340,-0.778889,0.290572,
0.468096,-0.251751,-0.210176,-0.469712,0.617285,0.546772,0.340507,0.361350,
0.645662,0.323543,0.733229,0.235571,0.707767,-0.225025,0.240916,-0.011740,
-0.037651,-0.016474,-0.177622,0.349796,-0.282175,0.044071,0.250591,-0.083410,
-0.742814,0.025901,-0.132531,-0.877760,0.264904,-0.554859,-0.354499,-0.044309,
-0.151834,-0.238664,0.287629,0.071598,0.803893,-0.037710,-0.044740,0.029269}
,
{
0.149161,0.182061,0.461172,-0.641567,-0.169974,-0.252111,-0.428917,0.007926,
-0.426713,0.485387,-0.281352,-0.228285,0.015944,0.078536,-0.404528,0.023856,
0.251434,-0.082518,-0.379960,-0.522573,0.434482,-0.251821,-0.421169,-0.153025,
0.139638,-0.085435,-0.217345,-0.231937,0.080253,0.076430,-0.508701,0.059236,
0.665901,-0.249250,0.263424,-0.313985,-0.012443,0.501011,-0.041533,0.002914,
-0.215441,0.223160,0.323289,0.054813,0.272280,0.176777,0.596326,-0.048378,
-0.096368,0.186924,0.448898,0.015591,-0.139203,0.119612,0.226853,-0.100836,
-0.158499,-1.059462,0.423357,-0.157127,-0.495861,-0.737486,0.175317,-0.437012,
0.694983,0.039232,0.305123,-0.543754,0.143048,-0.338984,-0.461514,0.429768,
-0.401214,-0.328561,0.064744,-0.100524,-0.602408,-0.196202,-0.169113,-0.578401,
-0.021744,-0.351392,0.568619,0.241160,-0.442708,-0.230100,-0.021932,-0.197117,
-0.122885,-0.332073,0.013134,0.308807,0.088188,-0.241279,-0.176992,-0.114340,
-0.243197,-0.088000,-0.028485,-0.561560,0.548764,0.133135,-0.041343,-0.234345,
-0.021463,0.098031,0.652403,0.101982,-0.355984,0.365410,-0.475196,0.065445,
-0.305108,-0.205738,-0.141359,0.208792,-0.165151,0.137385,0.402543,0.663549,
-0.102446,-0.029886,0.183123,0.465828,-0.336057,0.194059,-0.278246,0.359829}
,
{
0.053427,0.525975,-0.161546,0.050832,-0.066959,-0.226445,0.065428,0.021046,
0.065980,0.388815,0.015934,0.275172,0.473309,0.031661,0.143961,0.157679,
0.151108,-0.149826,-0.252347,0.355145,0.713725,0.021075,-0.175588,0.476879,
0.391620,-0.090966,0.065199,0.258219,0.335094,-0.270871,-0.398403,0.022569,
0.134440,-0.463195,-0.456191,0.097980,-0.164294,-0.429250,0.076401,0.499611,
-0.072860,-0.028578,-0.549623,0.059458,0.083884,0.166653,0.043887,-0.078398,
0.390170,-0.179674,-0.986081,0.250017,-0.185624,-0.183384,-0.062240,-0.094138,
-0.279378,1.220639,0.578472,0.790309,0.597264,0.382141,-0.373464,0.232857,
-0.327212,0.120433,-0.313059,0.056036,0.238959,-0.111746,0.158811,-0.889123,
0.255611,0.591878,0.000180,0.232685,0.247418,0.537850,-0.129114,-0.088968,
0.233587,-0.238311,-0.066038,0.246236,0.162121,0.317915,0.813831,0.495841,
0.083155,0.068199,-0.246559,-0.781241,-0.045075,-0.312898,0.189554,-0.096400,
-0.082711,-0.077449,0.448605,-0.080086,0.233747,-0.207976,0.382387,-0.561410,
-0.148857,0.569031,0.205884,0.038720,0.290201,-0.043690,0.023961,0.068280,
0.114529,-0.440262,-0.176737,0.494139,-0.137731,-0.723374,-0.064607,-0.318332,
-0.005847,-0.113852,-0.319458,-0.556949,0.111389,0.543751,-0.163836,-0.465395}
,
{
0.159457,-0.238789,-0.418803,-0.401233,0.146394,-0.538004,-0.034298,-0.044790,
-0.154715,-0.027482,-0.176103,0.162257,-0.036746,0.228648,-0.551368,-0.266828,
-0.133119,0.173827,-0.358402,-0.462941,0.362715,0.119582,-0.266977,-0.421016,
-0.365933,0.001390,0.522145,-0.284438,0.061876,0.041817,-0.357422,-0.338514,
-0.243753,0.118313,-0.113143,0.075960,-0.174691,0.075061,-0.319498,-0.461719,
0.049561,-0.209464,0.629182,-0.150188,0.196699,-0.203366,0.314902,-0.537038,
-0.283187,0.076421,0.325925,0.106982,-0.164342,-0.110814,0.261027,-0.111328,
-0.033490,0.120763,-0.195829,-0.072349,0.146716,0.220969,0.133965,0.441337,
0.351741,0.506986,-0.161836,0.181933,-0.047712,-0.213193,-0.490805,1.047936,
0.809992,-0.231196,-0.066042,0.127574,0.448408,0.145604,0.036558,0.254767,
0.355597,-0.055518,-0.194892,0.020916,-0.421813,0.073709,-0.316191,-0.034186,
0.256067,0.211232,0.119283,-0.394738,0.043580,-0.023171,-0.031661,0.176052,
-0.150219,0.060686,0.653150,-0.291142,-0.305827,0.007014,0.014316,0.235111,
-0.060704,0.090009,-0.123147,-0.130256,-0.087609,0.389133,-0.494443,0.392002,
-0.010765,0.132605,-0.030874,-0.243317,0.054873,0.076337,-0.469779,-0.145241,
-0.040245,-0.403328,-0.280729,-0.224264,-0.001747,-0.141357,0.454830,-0.380493}
,
{
0.493788,-0.467763,-0.021704,0.162251,-0.138254,-0.320377,0.394876,0.332110,
0.389899,0.169777,-0.101059,-0.262277,-0.017357,-0.189213,0.085640,0.098414,
-0.233517,-0.149951,0.097886,-0.292609,0.835406,-0.202280,-0.198484,0.034866,
0.103780,0.089369,0.223632,0.118421,0.206668,-0.098198,-0.378265,0.302502,
0.184800,0.064436,-0.030155,0.429743,0.353100,0.073357,0.351546,-0.313167,
-0.248686,0.502550,0.056562,0.457013,0.110722,0.347369,-0.493158,0.012378,
-0.021400,0.143831,0.401265,0.100930,-0.079235,0.069757,0.574125,0.284573,
0.077498,0.109363,0.408121,-0.099499,0.422732,0.359572,-0.151030,0.263709,
0.428325,-0.470881,-0.326615,-1.003751,-0.173308,0.355588,0.137569,0.353117,
0.200906,0.420904,0.158609,0.241913,-0.409444,0.537799,-0.108833,-0.172545,
0.447235,0.427844,-0.169429,0.245067,0.133704,-0.578168,0.122119,-0.013385,
-0.063592,0.332190,0.067598,0.034787,-0.248704,-0.087113,0.351360,-0.245558,
0.187285,-0.378578,-0.203006,-0.268044,-0.191449,0.128220,0.201487,-0.034177,
-0.035331,0.092069,0.181964,0.051689,0.510767,-0.013886,0.058302,0.124279,
-0.195905,-0.101870,0.325782,-0.313829,-0.320208,0.189153,0.153133,0.357146,
0.068068,-0.313087,-0.126026,-0.460154,-0.242332,0.361079,0.009420,-0.328471}
,
{
-0.079704,0.100374,0.098142,0.290494,-0.432444,-0.207751,0.988387,-0.159807,
0.062003,-0.115617,-0.111528,0.677211,0.421882,0.490040,0.278857,0.179978,
0.312058,-0.194838,0.629055,-0.042185,-0.442865,-0.036894,-0.120393,0.145726,
0.140533,0.437717,-0.116669,-0.017890,0.332904,0.137659,0.732603,0.185217,
-0.140055,0.082409,0.334125,0.076321,0.108186,-0.100426,-0.026473,-0.107879,
0.306914,-0.644387,0.186462,-0.263418,0.214227,0.205844,0.183052,-0.377875,
0.479116,0.280696,0.147047,0.208613,0.144568,0.551570,-0.556564,0.487725,
-0.001307,-0.245708,0.177277,1.105585,-0.348247,0.520860,-0.150469,-0.254224,
0.340720,0.326517,0.107460,0.416004,0.235480,0.038118,0.153651,0.334311,
-0.159390,0.345102,0.486938,-0.006014,0.026191,-0.050691,0.451336,-0.436577,
-0.084341,-0.337646,0.206558,0.525172,-0.247938,1.173149,-0.146607,0.333496,
-0.946180,-0.082697,0.410357,0.009139,0.541278,0.391656,0.439175,0.043323,
0.205142,0.415366,-0.471601,0.347317,0.354902,0.191938,-0.094024,-0.282758,
0.312191,-0.352446,0.315089,0.250067,0.193740,0.315474,0.748620,0.206004,
0.889183,-0.341555,0.165488,0.047741,0.368259,0.758161,-0.173255,-0.627001,
0.496277,0.236711,-0.066748,0.126905,0.310563,-0.029354,-0.543122,-0.123004}
,
{
-0.321609,-0.062334,0.033281,-0.038929,-0.249382,0.362195,-0.418760,0.018453,
-0.469341,0.262472,-0.064447,-0.235863,0.427478,0.150257,-0.517814,0.077983,
-0.035206,-0.493037,-0.129289,-0.541732,0.153382,-0.237220,-0.227785,0.130872,
0.005378,-0.482518,-0.340106,-0.157992,0.324124,0.048493,-0.275441,-0.598415,
-0.081086,0.090873,0.004456,-0.232526,-0.231651,0.596328,-0.342915,0.110522,
-0.196505,-0.140243,-0.342162,0.400447,0.135983,-0.381291,0.251694,0.214183,
0.012764,-0.055237,0.033299,0.494546,0.498715,0.382893,-0.496185,0.282399,
0.044743,-0.657472,-0.101248,0.352094,-0.322737,0.104764,0.433225,0.215206,
0.055391,0.391747,-0.192502,0.156303,-0.307059,-0.061015,-0.010430,0.054219,
-0.308265,0.523168,-0.205091,0.092181,0.064876,-0.094407,-0.190766,-0.390638,
-0.417891,0.910117,0.041286,-0.076223,-0.146413,-0.263363,-0.216634,0.480483,
-0.312076,0.202935,0.037245,-0.739485,-0.074568,0.049844,0.291425,-0.230005,
0.021965,-0.040042,0.415160,-0.361880,-0.015476,-0.189610,0.164678,-0.123971,
-0.311714,-0.527507,-0.527367,0.096759,-0.078958,0.269892,-0.123346,0.333033,
0.035013,-0.146887,-0.137256,0.201163,0.480995,-0.039069,-0.192280,0.472503,
-0.334312,-0.095290,-0.172878,-0.062121,-0.467527,0.133327,-0.208384,-0.110513}
,
{
-0.321409,0.326546,0.157425,0.544162,-0.075915,0.270053,0.796181,-0.260514,
0.261522,-0.650721,-0.483594,-0.210903,-0.013830,-0.090585,0.028734,0.304784,
0.365880,0.351449,-0.503446,-0.068967,0.281709,0.046410,-0.371941,0.268993,
0.318625,0.345953,-0.129177,0.114684,-0.050182,0.370576,0.109085,0.268307,
0.011142,-0.661893,0.238232,0.182832,0.223915,0.059654,-0.724339,-0.192621,
-0.215873,0.214782,0.319443,-0.468829,0.323820,-0.107706,0.105398,0.069530,
0.117167,0.314382,0.071167,0.035863,-0.365205,0.229348,0.161865,-0.134840,
-0.205576,0.910714,-0.558468,0.064242,0.109386,0.090742,-0.212918,0.147022,
0.269634,0.043510,0.055210,0.359309,0.199615,0.255800,0.008466,-0.033260,
0.082120,-0.229408,-0.020938,0.564507,-0.131855,-0.000297,0.058102,1.001420,
0.258312,0.403702,0.177742,-0.450683,0.083005,-0.252087,-0.136238,-0.511709,
0.154284,0.104483,-0.138944,0.202767,-0.202475,-0.092922,-0.139486,-0.063061,
0.134544,-0.334350,0.183032,0.295860,0.057242,0.182536,-0.140352,-0.199039,
0.266779,-0.315307,-0.018057,0.589916,0.115550,-0.184107,-0.520105,-0.031828,
-0.053270,-0.290876,0.170303,-0.438319,0.242575,-0.498455,0.079122,0.009387,
0.509941,0.394092,0.142551,-0.052948,-0.642585,-0.640568,-0.290357,-0.094927}
,
{
-0.103887,0.072721,0.399842,0.228436,-0.291044,0.527488,0.488984,0.222478,
0.019277,0.542345,-0.042059,0.073027,0.533031,-0.253434,-0.019997,-0.077815,
-0.093283,0.470568,-0.163438,0.374992,-0.063440,0.139815,-0.260697,0.630254,
0.477792,0.307604,0.021363,-0.253258,0.316765,0.788256,-0.765622,0.641766,
-0.325032,0.361796,-0.724163,-0.338905,-0.323713,-0.278838,0.176119,0.258434,
-0.356810,0.068551,-0.174165,0.197230,0.149611,-0.345000,-0.173632,0.075402,
0.218971,0.344046,0.128107,-0.045966,0.071837,-0.237236,-0.162396,0.158067,
-0.098485,-1.052844,-0.074218,0.249758,-0.120518,0.470846,-0.170262,0.780108,
-0.445792,0.545599,-0.562301,0.381813,-0.125148,-0.218773,-0.019285,0.090099,
0.099782,0.347427,-0.030794,-0.065230,-0.385681,0.227568,-0.383056,0.190531,
0.267445,0.130639,-0.653926,0.091138,-0.349708,0.213848,0.752287,-0.043807,
0.286937,-0.359854,-0.037844,0.222549,0.327397,-0.189870,0.275871,-0.364830,
-0.127034,0.675158,-0.030016,0.018874,-0.234555,0.532857,-0.112866,-0.369921,
0.095025,-0.488940,0.541886,-0.668737,-0.031476,-0.204918,-0.341751,0.132437,
0.660045,0.093603,-0.444891,-0.781393,-0.478037,-0.491335,-0.131915,-0.770292,
0.148805,0.273824,0.219723,0.084705,0.045126,-0.161124,-0.178573,0.096562}
,
{
-0.061455,0.923272,-0.150255,0.237875,0.160675,-0.149766,-0.331602,0.381495,
0.445014,0.728629,0.414777,-0.440891,-0.263814,-0.070879,0.261807,-0.022794,
-0.187252,-0.172241,-0.608096,-0.130607,1.248048,-0.061705,-0.067591,-0.386297,
0.163557,-0.270325,-0.490012,-0.146159,0.001857,0.099035,-0.093190,0.049386,
0.917937,-0.607526,-0.497923,-0.332487,0.082773,0.116498,0.058592,-0.833079,
0.238217,-0.448584,0.162350,-0.304944,0.497809,-0.004390,-0.176850,-0.364659,
-0.064373,-0.072819,-0.208617,0.347247,-0.076612,-0.595852,-0.031850,-0.036999,
0.043001,0.430366,0.302973,0.182223,0.517364,-0.517299,-0.113341,0.233533,
-0.123046,-0.058460,-0.197233,-0.697245,-0.105957,-0.561590,-0.342921,-0.396180,
-0.113242,-1.215420,0.019872,0.076570,-0.487584,0.398562,0.006874,-0.651841,
-0.223697,-0.367158,-0.237982,-0.161774,-0.071690,-0.335366,-0.432592,0.577222,
-0.229024,-0.496429,0.224666,0.243276,-0.458096,-0.635974,-0.124819,0.480431,
0.191543,0.171278,-0.501199,-0.521442,0.201771,0.246872,-0.225327,0.257917,
-0.420123,0.374691,0.412329,0.107876,-0.392011,-0.034165,0.333366,-0.234353,
-0.446573,0.217690,0.092335,0.800675,-0.387147,-0.546033,-0.234567,0.583385,
-0.719858,1.058161,0.139279,-0.087972,-0.402904,0.133059,0.427110,0.286585}
,
{
0.013628,-0.173948,0.548718,-0.307337,-0.150243,-0.061861,0.602866,0.277835,
-0.170448,0.096095,-0.388641,-0.092029,0.000976,-0.001366,-0.112986,0.024541,
-0.057941,0.136041,0.810616,-0.114646,-0.561086,0.699144,-0.183635,0.087191,
0.277530,0.654921,0.101144,0.237841,0.363014,0.317495,-0.034547,0.253435,
0.136009,0.374031,0.532495,0.404427,0.366201,0.269450,-0.131221,0.276528,
0.047002,-0.069726,0.731191,0.175091,-0.252552,-0.108796,-0.153191,-0.261202,
0.117840,0.025312,-1.235229,0.346007,-0.257457,-0.091439,0.251609,0.014117,
0.068971,0.062924,0.815293,-0.468539,0.114665,0.149282,0.309347,0.664887,
0.557394,-0.393177,0.663582,0.044667,0.142462,0.185415,-0.705510,-0.357580,
-0.037053,-0.136049,-0.339444,0.660463,0.004646,-0.261486,-0.504664,0.149196,
0.154926,-0.218943,0.864901,0.365998,-0.793235,-0.331238,0.532731,-0.195851,
0.256938,0.160926,0.267246,0.131988,-0.098336,0.021950,-0.118918,-0.161115,
0.228333,0.077387,-0.476735,-0.279985,0.085847,-0.612823,-0.094356,-0.361282,
-0.225113,-0.093181,0.324915,0.185898,0.134659,-0.102180,0.161941,0.244679,
-0.116415,0.028299,-0.067716,-1.153072,0.152240,-0.486737,-0.131997,-0.424951,
0.494791,0.055616,0.134363,0.664829,-0.652969,0.222546,0.106490,-0.320907}
,
{
0.382269,0.913306,0.428508,-0.206145,0.427082,0.449297,-0.836751,0.288857,
0.269443,-0.051766,-0.051232,1.009532,0.073340,-0.019676,0.307662,-0.233231,
-0.143513,-1.038716,0.198368,-0.376416,-0.108161,0.160212,0.852392,-0.099200,
0.079838,-0.530683,-0.821798,0.510957,0.545949,0.170500,-0.045640,0.184594,
-0.124648,0.514186,0.053580,0.410020,0.129272,-0.196286,0.045169,0.287200,
0.006823,0.032443,-0.343709,-0.359653,0.004714,0.324951,0.046203,0.088918,
0.131373,0.205984,-0.016484,0.319097,0.531048,-0.288001,0.502149,0.484241,
0.088646,0.454522,-0.264702,0.024539,0.111131,-0.243742,0.043202,-0.620352,
-0.390958,0.191007,-0.371135,-0.234098,0.322291,0.082948,0.302887,-0.339841,
0.019371,-0.436678,0.163061,-0.053276,0.150287,0.819525,-0.405329,0.008907,
0.012059,-0.387260,-0.236470,0.466639,-0.081421,0.820816,-0.291036,0.060849,
-0.141737,-0.282332,0.431874,0.390027,0.550869,0.028291,0.104556,0.271710,
0.155498,-0.053681,-0.432296,-0.075689,0.202194,0.054287,-0.070240,-0.023088,
-0.009165,0.025981,-0.182073,0.248839,0.006565,0.378691,0.336120,-0.642272,
0.691708,0.133205,-0.034856,0.622275,-0.576833,0.448382,0.138850,-0.930939,
0.120966,0.398157,0.214538,-0.034480,-0.161491,0.222291,0.824738,0.062562}
,
{
-0.079265,0.421485,-0.193939,0.263327,-0.217590,0.691517,-0.532927,-0.001050,
0.162378,0.764090,0.201244,0.176365,0.652545,0.277996,0.398911,-0.008113,
-0.051439,0.094100,0.006610,0.423921,0.181237,-0.014742,0.236878,0.451271,
0.218155,0.293153,-0.131179,0.126350,0.689594,0.290710,-0.282439,0.828122,
0.419463,0.001953,-0.749249,0.157079,0.375221,-0.448124,-0.124674,0.270534,
-0.130007,-0.103725,-0.405787,-0.847895,-0.491389,0.400946,0.019937,0.163074,
0.424261,0.034928,0.424726,0.098781,0.269408,0.354292,-0.074981,-0.218524,
0.099633,0.154754,0.853825,-0.194225,0.054489,0.639468,0.474597,-0.194951,
-0.324896,-0.626796,-0.264339,-0.149782,0.385188,-0.581167,0.899413,0.114657,
-0.004931,0.036880,0.229709,0.413532,0.039986,0.566180,0.239192,-0.622255,
-0.148480,-0.005683,0.144931,0.157472,0.379525,-0.519900,0.438073,0.237338,
-0.134761,0.288428,0.122159,-0.339035,0.049813,0.204955,0.310048,-0.146905,
0.372377,-0.379629,-0.178289,-0.551957,0.356755,0.162074,-0.051148,-0.439774,
-0.065608,-0.585656,0.182164,0.342527,0.090041,0.158537,0.393316,-0.035416,
-0.232993,0.126439,0.397723,0.179911,0.440945,-0.070638,-0.285144,0.403340,
0.486026,-0.225982,0.191157,-0.739026,-1.038959,-0.152589,0.272679,0.020484}
,
{
-0.495646,0.158140,0.074431,-0.253679,0.367125,0.115087,-0.236028,-0.203603,
-0.261757,0.304488,0.705330,0.169080,0.492956,-0.008979,-0.399137,-0.111856,
0.086505,-0.022660,-0.673792,-0.289509,-0.573322,-0.371357,0.431360,-1.057052,
-0.071621,0.157523,-0.707177,0.638753,0.811110,-0.150952,-0.041954,0.208261,
0.228225,-0.313941,0.507804,-0.372466,-0.022808,-0.344353,-0.123442,-0.043657,
-0.248898,-0.147521,0.409682,-0.087141,0.530579,0.196418,-0.151895,-0.266609,
0.170385,-0.300039,-0.425135,-0.036454,-0.572126,-0.015673,-0.818927,-0.073079,
-0.102136,0.265400,0.194667,-0.804038,-0.136179,0.034670,-0.319358,-0.196527,
-0.207210,-0.294045,-0.361097,-0.167890,0.230350,0.393285,0.411823,-0.164647,
-0.307068,-0.385993,0.112965,0.075577,-0.231890,0.891682,-0.670608,-0.164110,
-0.203722,-0.296150,-0.274640,-0.310627,-0.408960,-0.002305,-0.447697,-0.206403,
0.340483,-0.720283,-0.239040,0.791560,0.058065,-0.462567,-0.337935,0.462635,
0.053492,-0.070310,-0.837546,-0.564585,0.775257,-0.550969,-0.074319,0.156417,
-0.235472,0.652075,-0.294262,-0.050631,-0.226566,-0.077263,0.227738,-0.218519,
0.630742,-0.047151,0.174580,-0.288681,-0.055820,0.013385,0.254515,-0.336707,
-0.390597,0.561378,-0.313548,-0.574720,-0.378670,-0.543120,0.059350,0.658807}
,
{
0.084052,0.134351,-0.014090,-0.011530,0.196296,0.353319,-0.128276,0.160633,
0.145773,-0.273913,0.145581,-0.015693,0.158761,0.366521,-0.100106,-0.442470,
0.243335,-0.433540,0.299837,0.091295,-0.216743,0.021663,-0.179472,-0.099197,
0.358398,0.000821,-0.196311,-0.277166,-0.112350,0.034737,0.250427,-0.214312,
-0.063297,0.241712,0.255150,0.102840,-0.058593,-0.195151,0.111498,0.154368,
-0.250419,-0.216644,-0.029786,-0.180375,-0.446795,-0.350196,-0.046742,-0.175985,
-0.009457,0.260661,0.236947,0.266233,-0.215864,-0.354440,-0.140309,0.176174,
0.226610,-0.054536,-0.183599,0.277845,-0.261464,0.063517,0.032714,-0.134725,
0.216507,-0.142709,0.307692,0.491803,-0.098868,-0.244149,0.110124,-0.325646,
-0.031550,-0.162283,-0.080611,-0.171863,0.076054,-0.281193,0.209329,0.066163,
-0.344233,-0.209879,-0.000611,0.052142,-0.203716,0.219274,-0.043218,-0.004170,
-0.197871,-0.238023,0.385070,-0.087691,0.280438,-0.168951,-0.226969,0.153289,
0.276952,0.057911,-0.215737,0.119949,-0.159989,-0.123929,0.047604,0.032098,
0.358797,0.088552,0.261393,-0.255166,0.076699,0.282413,0.114313,0.013795,
0.280981,-0.002054,0.069693,0.216829,0.211284,0.204705,0.145428,-0.246434,
0.164650,0.221942,0.094075,0.214712,0.322486,0.064035,-0.022908,-0.081797}
,
{
-0.000975,-0.095521,0.131531,-0.203367,0.052653,-0.210744,0.031263,0.135608,
-0.136938,-0.045190,0.023240,0.289560,-0.039656,-0.090070,-0.233063,-0.205594,
0.106194,-0.225485,-0.105019,-0.139674,0.206033,-0.056948,0.294967,0.048492,
0.027209,-0.266966,-0.347186,0.015862,0.196569,0.183280,0.278609,0.087958,
0.042753,-0.175337,0.223941,-0.138450,0.039645,-0.118993,-0.058971,-0.370661,
-0.234776,0.332225,-0.035897,0.302555,-0.319112,0.349335,0.019271,-0.079708,
-0.089313,0.242278,0.242067,0.027910,0.083682,-0.152842,-0.218005,0.127941,
0.045126,0.020853,-0.074240,-0.239762,0.096439,0.214788,-0.457386,0.095220,
0.245894,-0.081445,-0.226872,-0.213578,-0.014889,0.047860,-0.261343,0.051905,
-0.126618,-0.004625,-0.204009,-0.046247,0.275105,0.170427,-0.135446,0.107263,
-0.003821,0.014445,0.096564,-0.030966,-0.224356,0.056140,-0.149541,0.040971,
0.004202,0.021931,0.042088,-0.021113,0.073148,-0.153229,0.132726,0.301717,
-0.149961,-0.311378,-0.271913,-0.004638,0.103513,-0.299149,-0.251079,-0.002896,
0.229450,0.198284,0.098506,-0.133380,0.022591,-0.005252,-0.231270,0.061309,
0.121627,0.136052,0.018061,-0.002407,0.054481,0.242608,0.071270,-0.161193,
-0.024152,0.229159,-0.234668,-0.024207,-0.049184,0.274409,-0.420458,0.127961}
,
{
0.277057,0.354895,-0.158402,-0.218357,0.107783,-0.137075,-0.252488,0.079390,
0.168032,0.012665,-0.073355,0.260174,0.000012,0.058935,-0.010090,-0.217070,
0.065880,0.138662,0.053368,-0.021229,0.029935,0.046806,0.223411,-0.104721,
-0.140485,-0.199417,-0.327378,0.403448,0.290346,0.003025,-0.073495,-0.167444,
-0.113562,0.173003,0.241271,-0.187985,0.293826,-0.127896,0.148634,-0.262986,
0.375657,0.190403,-0.111482,0.158909,0.337757,0.021813,-0.005696,-0.182292,
0.058849,0.201539,-0.558252,-0.059692,0.176818,-0.183106,-0.211225,0.007223,
-0.002170,-0.109293,-0.212817,-0.008062,-0.004953,-0.245986,-0.154170,0.041979,
-0.010720,0.092968,0.128274,-0.165019,0.075785,0.067397,0.043091,0.000186,
0.040475,-0.050239,-0.066751,-0.245612,-0.138293,0.346278,0.250745,-0.024601,
0.049954,-0.171145,-0.210219,-0.281432,0.076695,0.276648,0.007728,0.132354,
-0.238922,-0.328752,-0.061481,-0.143138,0.312982,-0.138034,-0.110605,0.165130,
-0.124988,-0.299504,0.001311,0.533674,0.224109,-0.257826,-0.054543,0.034780,
0.109550,-0.140332,0.115481,0.109335,-0.083121,0.195197,-0.226207,0.011219,
0.006151,0.228445,-0.108808,0.129338,-0.307713,0.387162,-0.085495,-0.309866,
-0.130568,-0.097997,-0.357054,-0.353274,0.069284,-0.255142,0.093415,-0.158757}
,
{
-0.053158,0.210662,0.293559,-0.118034,0.316523,0.108625,0.225072,-0.016112,
-0.377648,-0.062820,0.026465,0.135110,-0.008842,-0.180380,0.104793,0.026288,
0.079798,-0.036869,-0.071554,-0.069716,-0.181773,-0.061553,0.068672,0.205068,
-0.081381,0.467506,-0.080333,0.068825,0.332761,-0.030727,0.438207,-0.007761,
-0.404079,-0.058599,0.077375,-0.233215,-0.037495,-0.419463,0.086472,-0.105658,
-0.246139,-0.306070,0.161184,-0.058377,0.050790,0.025271,-0.252927,0.201146,
-0.119309,-0.055705,-0.140804,0.224820,-0.018328,0.221762,0.046106,0.186229,
0.027010,0.182363,0.506904,0.164727,0.126008,-0.290380,0.025114,-0.020739,
-0.126293,-0.124523,0.002310,-0.017552,-0.088787,0.246837,0.039576,-0.236174,
-0.056424,0.100865,0.119928,-0.268956,0.182478,0.208149,-0.116048,-0.208021,
-0.380159,0.199614,-0.006342,-0.046345,-0.212127,-0.211209,-0.112580,-0.262104,
-0.047031,-0.061263,0.109608,-0.091737,-0.016570,-0.173202,0.243863,0.620371,
0.159820,-0.073652,0.116971,0.581523,0.075265,-0.107295,0.412697,0.010461,
0.259846,0.408894,-0.072917,0.223792,-0.041898,-0.184732,-0.124462,-0.207867,
0.010491,0.129302,-0.021807,-0.081842,-0.100689,0.501545,-0.114973,-0.287063,
-0.215784,-0.391023,-0.137866,-0.217496,-0.058711,0.192099,0.203425,-0.293151}
,
{
0.292473,0.131483,0.084200,0.070119,0.383441,-0.005491,0.047201,-0.117068,
0.030096,-0.588938,-0.212342,0.406134,-0.192285,-0.164181,-0.064556,-0.232178,
0.221106,0.160061,0.066227,0.029531,0.503296,0.359851,-0.002960,-0.108162,
0.052897,0.253356,-0.144508,0.015750,-0.369147,0.383608,-0.022308,-0.238968,
0.026813,0.387750,0.363002,0.397669,0.073155,-0.103800,-0.280535,0.008606,
-0.115142,0.132289,0.652179,-0.046583,0.088853,0.545185,-0.080926,0.142145,
0.030599,-0.199110,0.045665,0.131035,-0.097539,0.036520,-0.053783,0.514322,
0.013710,0.400281,0.141433,-0.485950,0.049107,-0.341939,-0.357661,-0.098228,
-0.147296,0.199507,0.057377,0.010083,0.410723,-0.031262,0.339800,0.033288,
-0.231658,-0.194315,0.196146,-0.033788,0.301882,0.241032,0.196015,0.313336,
-0.401894,0.097423,-0.138944,0.174990,-0.208083,0.004258,0.132911,-0.446966,
-0.150565,-0.239034,0.137730,0.159214,0.131423,-0.073196,-0.074242,0.346035,
0.092433,0.082033,0.064771,0.650564,0.070153,0.244933,0.097801,0.204981,
-0.284282,-0.336676,-0.004392,-0.014907,0.224954,0.029880,0.048883,-0.240386,
0.192266,0.267280,-0.058913,0.196692,0.213311,0.208790,-0.063198,-0.303577,
-0.023401,-0.075223,-0.681854,-0.139748,-0.010066,-0.386728,0.342396,0.307822}
,
{
0.499408,0.524023,0.039174,-0.440936,0.004234,0.044428,-0.348205,-0.170175,
0.081974,-0.367367,-0.236167,0.481920,-0.015559,-0.247834,-0.021020,0.106922,
-0.111972,0.124409,-0.006614,0.196309,-0.189002,0.317222,0.288700,-0.342260,
0.242301,-0.193881,0.258586,-0.197807,-0.019280,0.492813,0.119474,0.297320,
0.275327,-0.283202,-0.067774,0.164125,-0.243655,-0.250713,-0.130699,0.036795,
0.353107,0.031874,0.450075,0.214819,0.098931,0.084648,-0.016151,-0.157821,
-0.047978,0.101803,-0.093288,0.017599,-0.055540,0.073853,0.124363,0.349472,
-0.070592,0.218074,0.254550,0.010982,0.115412,-0.040167,0.127006,0.003789,
-0.070686,0.088204,0.011006,-0.474140,0.233440,-0.105682,0.118572,-0.151914,
-0.147054,-0.059868,-0.102360,-0.190285,0.345180,-0.131571,0.125900,0.378946,
-0.197055,0.128528,-0.187698,-0.181240,0.226473,-0.165878,0.219537,0.356465,
0.006505,0.417243,0.199866,0.084917,0.063180,-0.228627,-0.016221,-0.125295,
0.233977,0.209203,0.216635,-0.224609,0.217946,-0.203238,0.024215,-0.548664,
-0.084457,0.068011,-0.104810,-0.085957,-0.032168,0.238157,0.117039,0.080605,
0.450966,-0.133758,-0.283931,-0.090518,0.021289,0.148729,0.058779,-0.062462,
0.157605,-0.193746,-0.141469,0.388188,-0.295532,-0.203830,-0.059873,-0.107605}
,
{
-0.344390,0.068632,-0.246776,-0.049228,-0.456964,-0.160236,-0.527807,-0.040554,
0.069940,-0.239950,0.011768,-0.292077,0.276468,-0.189165,0.038334,-0.093127,
0.219929,-0.100679,0.136613,0.095520,-0.003159,0.427400,-0.093823,-0.098343,
0.096633,0.709346,-0.030328,0.440730,0.086004,0.025580,-0.398762,-0.035359,
-0.849956,-0.047611,-0.580786,-0.420030,-0.288874,-0.457506,0.081413,-0.223990,
0.105821,-0.510691,0.220900,0.272730,0.405399,0.402914,0.132386,-0.247160,
-0.105732,-0.244060,-0.430318,0.321818,-0.040938,0.202943,-0.225196,-0.544796,
-0.205667,0.035591,0.108330,0.256535,-0.072518,-0.278239,0.071215,-0.038120,
0.346915,-0.024945,-0.054708,-0.063798,-0.214753,-0.299037,-0.194348,0.048823,
-0.465302,-0.761966,0.112714,0.041508,-0.233984,-0.111963,-0.328588,-0.377917,
-0.309990,-0.292328,0.493262,0.268936,-0.061718,0.301297,0.092790,0.171966,
-0.019468,0.058502,-0.237413,-0.071337,0.090553,-0.160873,0.330607,0.251518,
-0.119499,0.185207,0.262572,-0.131538,0.181791,-0.047796,-0.014544,-0.191378,
0.211874,0.317057,0.296092,-0.071602,-0.103618,0.034757,-0.253325,0.592691,
0.299767,-0.064472,-0.052816,-0.555098,-0.219013,-0.489380,0.125214,-0.167854,
-0.454423,-0.406003,0.083616,0.134247,0.395472,0.316486,-0.612296,-0.152127}
,
{
-0.297470,-0.137257,0.191411,0.070997,-0.125759,0.158753,-1.267121,-0.233563,
0.314442,0.434753,-0.312250,-0.119774,-0.455273,-0.375124,0.428466,0.070155,
-0.133725,-0.035744,0.058326,-0.255498,0.128210,0.416438,-0.092884,0.298470,
0.309775,-0.188110,0.260352,0.187861,-0.112599,0.473545,0.358525,0.045280,
-0.410634,0.146954,-0.390256,0.311689,-0.019153,0.032644,-0.690996,0.051203,
-0.370648,-0.051725,-0.550061,-0.088596,-0.043911,0.523163,-0.095877,0.810839,
0.390040,0.140411,-0.028906,-0.140979,0.136858,-0.270743,0.066232,0.398785,
-0.123685,-0.227055,-0.179060,-0.131967,-0.339720,-0.635863,0.174335,0.386750,
-0.317804,0.077668,-0.660675,0.145438,-0.046452,0.015505,-0.002078,-0.078370,
-0.975527,0.350371,0.158690,-0.819821,-0.509794,0.045805,0.446414,-0.205594,
-0.064015,-0.312880,0.095192,-0.559159,-0.286096,0.021230,-0.263283,0.247937,
-0.249986,-0.529775,0.127873,-0.160052,-0.397394,-0.082702,-0.036799,0.142717,
-0.302198,0.204397,0.325368,-0.262812,0.239151,0.475516,-0.370416,0.159189,
0.047163,-0.212167,-0.341299,-0.037424,0.311613,0.109044,0.417149,-0.373721,
0.358083,-0.616824,0.351796,-0.013783,-0.205890,0.049252,0.075214,0.040763,
0.383020,-0.441685,0.236566,-0.073415,0.201013,-0.003813,0.191690,0.058304}
,
{
-0.270043,-0.327463,-0.054584,-0.241667,-0.006432,-0.515078,0.031861,-0.196613,
-0.349328,0.375591,0.232160,-0.358048,0.069185,-0.290546,0.103838,0.312435,
0.178808,0.362190,-0.687448,-0.245154,0.559466,-0.145008,-0.052354,0.034328,
-0.498629,-0.080623,0.227856,0.580291,0.272216,-0.178095,-0.564131,0.386668,
0.098393,-0.334976,-0.122926,-0.386100,0.349820,0.351543,-0.110463,-0.058570,
0.511106,0.527337,0.320644,0.400459,0.429158,0.591022,0.370859,0.482029,
0.035911,-0.421755,-0.561488,-0.448276,0.116349,0.169413,0.245381,-0.448622,
-0.430546,0.318685,-0.131075,-0.184315,0.236548,0.135053,-0.230749,0.194437,
-0.473385,0.008027,-0.361063,-0.382263,-0.123584,0.490334,-0.411547,0.370034,
-0.053425,-0.259951,0.136069,0.456513,-0.005121,0.351565,-0.021806,-0.113457,
0.447895,0.246410,-0.262706,0.076338,0.385481,0.076090,0.197283,-0.204098,
0.147000,0.703901,-0.245311,0.231199,-0.398394,0.086920,0.244220,-0.072600,
-0.458573,0.359408,0.135498,-0.279075,0.673716,0.015417,-0.304049,-0.151944,
0.065014,-0.027297,-0.597764,0.231600,0.203529,-0.447514,-0.104000,-0.167581,
0.049597,0.010412,0.042285,-0.112869,-0.135802,-0.067946,-0.527601,0.221964,
-0.107476,-0.297931,-0.187506,-0.225912,-0.431111,-0.065797,0.059074,0.356634}
,
{
-0.316948,0.003207,-0.275331,0.137991,-1.023990,0.479277,0.137876,-0.207222,
-0.188776,0.199836,-0.031072,-0.097467,0.003260,0.279494,0.315603,0.190969,
-0.049943,0.007091,0.095582,0.040113,-0.268138,-0.081287,-0.249751,0.046582,
-0.131920,0.158912,-0.011342,0.104024,-0.103535,-0.094842,-0.297072,0.119129,
0.007001,0.154578,-0.247438,-0.275800,-0.144072,0.044213,-0.155149,0.186245,
0.077191,0.069183,-0.035621,-0.270669,0.404191,-0.532487,0.214285,0.040746,
0.030630,0.051594,-0.100339,-0.001410,0.186145,0.311912,0.292377,-0.083607,
0.068075,0.242863,0.068207,0.065954,0.519302,0.150317,0.427596,-0.142887,
-0.280519,-0.120530,-0.114038,0.302633,-0.223086,-0.026194,0.269280,0.630878,
0.172574,-0.244280,-0.228047,-0.148899,-0.140993,-0.287966,0.182639,0.400142,
-0.083599,0.227256,0.215285,-0.088933,-0.305105,0.114924,0.397931,-0.122953,
-0.332853,0.050875,-0.147550,-0.285264,-0.300015,0.186637,-0.289476,-0.087409,
-0.032304,0.254968,0.122904,0.056328,-0.344538,-0.001008,0.285407,0.055756,
-0.050637,-0.272112,-0.147984,-0.172234,-0.022692,-0.047546,0.315652,-0.169189,
0.070944,0.166811,0.135577,-0.157543,-0.002832,-0.138064,-0.642478,0.474175,
0.058529,-0.091985,-0.156334,-0.048440,0.466878,0.120140,0.011272,-0.020677}
,
{
-0.162321,-0.176615,-0.373413,0.028835,-0.587284,0.069580,-0.073282,-0.001890,
-0.457616,-0.122915,0.134917,-0.230647,0.112539,0.004426,-0.301083,-0.064975,
-0.192921,-0.126659,-0.242351,0.190411,0.089683,0.060648,-0.031925,-0.117603,
-0.003492,0.051844,-0.103495,-0.443951,-0.579570,0.220666,0.094914,-0.375231,
0.207738,0.245852,0.150267,0.185526,0.009192,0.304181,-0.190226,0.505240,
-0.051783,0.165661,-0.150048,-0.050132,0.026637,-0.161615,-0.545838,0.007389,
-0.333788,-0.139322,0.455509,-0.093413,0.354247,0.025466,-0.004226,-0.055734,
-0.256529,0.296115,0.350266,-0.163096,-0.167388,0.051333,0.078236,0.014648,
0.079474,-0.232828,-0.105592,0.279120,0.059189,0.086348,0.775786,0.285680,
0.012339,0.452105,0.135230,0.049449,-0.476734,-0.456623,0.244777,0.400513,
0.217674,-0.111321,0.249123,-0.291329,-0.108160,0.013240,0.185300,-0.307706,
0.027810,0.252143,-0.074160,0.020034,-0.116735,-0.163134,0.216386,0.034707,
0.126200,-0.082615,0.311067,-0.331076,0.227039,0.252609,-0.202762,-0.394160,
-0.154885,-0.362043,0.210507,-0.112371,-0.184169,-0.218421,-0.206255,-0.011461,
-0.203419,0.001619,0.001027,0.050933,0.127578,-0.592384,0.165818,0.220357,
0.479932,-0.242987,0.530301,-0.027681,-0.293896,0.122894,-0.122831,0.189974}
,
{
-0.059287,0.162042,-0.238587,0.277480,0.357523,0.210688,-0.252489,-0.217309,
-0.136374,0.425511,0.246082,-0.083088,-0.132151,-0.102412,-0.038756,0.150453,
-0.139407,-0.125377,0.163081,0.260016,-0.116699,-0.086769,-0.058766,-0.648918,
-0.024057,-0.274747,-0.243196,0.019207,-0.198570,-0.135335,0.051964,0.149570,
0.292945,-0.232376,-0.115411,-0.341358,0.191744,-0.091287,0.177467,-0.244907,
-0.282331,-0.298892,0.213276,0.635941,-0.134662,-0.017146,-0.398986,-0.194090,
0.210252,0.047320,0.116159,-0.126626,-0.265723,-0.132725,0.372609,-0.392757,
-0.137836,0.054605,0.071984,0.273050,-0.093165,-0.012439,0.401427,0.269330,
0.202330,0.430374,-0.018728,0.517742,-0.389038,0.225969,0.597645,-0.352522,
0.484194,0.275889,0.225880,0.349399,0.467397,-0.052606,0.556930,0.147298,
0.093789,0.066353,0.237668,-0.148456,0.463941,0.303162,-0.078665,-0.440571,
0.044073,0.585089,0.297247,-0.131044,-0.219796,-0.131146,0.129496,0.142397,
0.037293,0.313083,0.640516,-0.219870,-0.123849,0.355878,0.240880,-0.366036,
-0.117258,0.158163,0.064185,-0.165222,-0.116753,0.207647,0.138017,0.254331,
-0.387847,-0.021833,-0.416591,-0.416077,-0.167998,-0.368071,-0.003096,-0.170723,
-0.020590,-0.324416,-0.018288,-0.553005,-0.325694,-0.133576,-0.054170,0.059406}
,
{
0.388599,0.046904,-0.613848,-0.322369,0.083120,-0.290899,0.453657,0.644652,
0.245946,0.117432,-0.333083,0.038542,-0.387306,0.237926,0.100209,0.271502,
0.033193,0.040598,-0.324542,0.472850,0.056304,0.032064,0.372772,0.248222,
-0.355310,0.158979,0.157004,-0.415880,-0.226942,-0.025535,-0.059887,-0.267467,
-0.070986,0.030813,0.530306,-0.142982,-0.248083,0.010960,0.265741,-0.100981,
0.342525,0.235428,-0.442814,0.195135,0.156678,-0.125245,0.049864,-0.118504,
-0.090800,-0.043419,0.126677,-0.054744,0.292373,0.439330,0.061637,0.081794,
0.234162,0.292074,-0.269476,-0.120966,0.375305,0.395483,0.139383,-0.144741,
0.057123,0.144369,0.137792,-0.345801,0.054575,0.531259,0.146477,0.444338,
-0.351638,-0.044353,-0.128619,0.423151,-0.245390,-0.480206,-0.167158,0.204908,
-0.086446,0.492578,0.379959,-0.484928,-0.249629,0.005596,0.005982,-0.286544,
0.453317,-0.125437,-0.038063,0.288829,-0.309153,0.492848,-0.347857,0.511723,
0.256092,0.059408,-0.372908,0.200520,-0.302649,-0.027090,-0.314102,-0.059645,
0.312355,-0.131504,0.115333,0.310564,-0.184432,0.044691,0.300132,0.058221,
-0.092995,0.305024,0.065989,-0.670991,-0.489004,0.090997,-0.354547,0.020989,
-0.157518,0.171146,-0.321074,0.054049,-0.434361,-0.078707,-0.400834,-0.044721}
,
{
-0.095269,-0.232638,0.665626,-0.118714,-0.107461,0.186059,0.040745,1.002964,
0.141004,0.138189,-0.011189,0.147639,-0.316307,0.402032,-0.164928,0.319337,
-0.082274,-0.349848,-0.361852,0.037779,0.048318,0.270561,-0.110428,-0.545531,
-0.477533,0.042958,-0.666400,-0.371172,-0.297368,-0.092176,-0.213827,-0.112707,
0.176788,0.800151,0.613689,-0.267179,0.346312,-0.282758,-0.305093,0.082240,
0.412382,0.389091,0.182721,-0.113679,0.568002,0.039283,-0.482091,-0.220996,
-0.119609,-0.160579,0.387405,0.425444,-0.188312,0.020240,-0.225580,-0.202050,
-0.126221,0.210383,0.688423,0.166127,-0.212944,-0.087706,-0.642333,0.357511,
-0.154291,0.223089,-0.194577,-0.346622,0.529662,0.284030,-0.209013,-0.141897,
0.215601,-0.137395,0.044832,0.182154,-0.378434,-0.351263,0.191958,-0.508639,
-0.111230,-0.098414,0.060114,0.008530,-0.000544,-0.112841,0.581003,-0.118374,
-0.304581,0.010841,0.147981,0.121983,-0.057021,0.077731,-0.279828,0.250623,
0.422850,-0.330497,-0.276569,-0.358463,-0.024619,-0.641524,-0.076617,-0.813830,
-0.145906,0.218927,-0.156300,0.485656,0.542469,-0.219331,-0.477726,-0.282663,
-0.751284,-0.786033,0.095799,0.530493,0.141565,-0.139261,-0.025572,-0.530251,
-0.348540,0.134178,-0.282512,0.701372,-0.225952,0.134443,-0.027213,-0.583088}
,
{
0.165734,0.080225,-0.564042,-0.399805,-0.419152,0.116085,0.143881,-0.331012,
0.488180,0.271287,0.042266,-0.015382,0.359744,-0.057822,0.113987,0.166114,
0.556257,-0.169353,0.271130,0.009902,-0.022912,0.290653,-0.195478,-0.020370,
-0.106954,-0.237859,0.140892,0.193500,-0.676703,-0.197406,0.731727,0.474474,
-0.341376,0.146718,-0.155119,-0.548164,0.338371,0.045880,-0.150920,0.049389,
-0.168095,-0.312522,0.390293,0.010745,0.123694,0.115114,0.356340,-0.267956,
-0.423171,0.462268,0.135020,-0.242706,0.003539,0.108050,-0.019767,-0.086381,
0.597549,0.189855,-0.380561,0.109290,0.322559,-0.364873,0.308086,-0.259392,
0.170048,-0.016069,0.514151,-0.137039,-0.476167,-0.121908,-0.092432,-0.084554,
-0.188606,0.192578,0.342952,-0.444783,-0.088487,-1.143064,-0.084610,0.203389,
-0.002006,-0.358696,0.159835,0.201445,0.443595,-0.079963,-0.421593,-0.455579,
-0.129291,0.235995,-0.080972,-0.439772,0.360305,-0.087490,-0.451088,-0.898466,
-0.246466,0.889158,0.546983,0.259097,0.478055,0.349790,0.714240,-0.167671,
-0.173131,-0.235611,-0.265106,0.135506,0.362888,-0.048426,-0.293460,-0.076259,
-0.280819,-0.443515,0.415552,-0.522479,-0.165615,-0.778330,-0.069507,-0.409687,
0.196805,0.008083,0.335148,-0.393664,-0.473419,0.014857,0.103653,-0.013412}
,
{
0.076852,0.047882,-0.202365,-0.191422,0.092064,0.024179,-0.113767,0.645762,
0.087863,-0.506655,-0.171584,-0.334594,0.506134,0.290848,0.303899,0.059926,
0.242524,0.327339,0.269446,0.788375,0.102907,-0.086263,0.312548,-0.007013,
0.267907,0.002677,0.663123,0.274339,-0.246335,-0.623577,-0.422395,-0.492301,
-0.538430,0.176754,0.195582,-0.084078,-0.192328,-0.373204,0.537210,0.118099,
0.021566,-0.145849,0.500102,0.528559,-0.174126,0.832784,0.311210,-0.544795,
-0.079030,0.285565,0.076931,-0.345181,0.090392,-0.035439,0.486030,-0.930851,
-0.013367,0.202223,-0.004538,0.602871,-0.121643,-0.143781,-0.737127,-0.028919,
-0.183248,-0.309161,0.062005,0.484552,-0.029490,-0.078775,-0.132521,-0.209414,
0.033108,0.110548,-0.324628,0.181342,-0.001242,-0.211239,-0.030169,-0.900068,
0.077339,0.104760,-0.019543,-0.119400,0.491511,0.514375,-0.222876,0.371770,
0.302923,0.312154,-0.278416,-0.303756,0.164910,-0.128574,-0.258021,-0.029306,
