template<typename T> void tf_predict_luma(T* vals_in, float* vals_out) {
  static float bias[64] = {
0.145513,0.031383,-0.016702,0.028157,0.025611,0.005150,0.003972,0.040595,
0.005339,0.010561,-0.005448,0.016274,-0.014827,0.001589,-0.015278,-0.015539,
-0.014824,-0.004824,0.031562,-0.004464,-0.016357,-0.012437,0.013203,0.002692,
-0.031648,-0.033550,0.006106,0.004232,-0.002427,-0.004615,-0.000180,-0.002144,
0.032394,-0.031902,0.009875,0.013672,-0.008082,0.001518,-0.001896,-0.013088,
0.007873,-0.011588,0.009642,-0.008270,0.011942,0.001835,0.013563,-0.003748,
-0.009202,0.010372,-0.027902,0.003624,-0.010468,-0.004416,0.003517,-0.000992,
0.007884,0.000034,-0.008831,-0.011728,0.004920,-0.002318,-0.005711,-0.000511 };
  static float weight[][64] = { {
-0.626077,-0.063068,-0.015863,-0.011185,0.003578,0.001368,-0.000954,0.000929,
-0.026741,-0.014217,-0.002637,-0.004710,-0.002320,-0.000938,0.000472,-0.000668,
0.002601,-0.004835,-0.000608,-0.003107,0.000071,-0.001131,-0.000788,0.000709,
0.004074,-0.005934,-0.003404,-0.002218,-0.000782,-0.000082,0.000801,-0.000436,
0.010433,-0.002952,-0.000787,0.000152,0.000495,0.000522,0.000180,-0.000416,
0.004601,-0.003206,0.000038,-0.000379,-0.000741,0.000070,-0.000048,0.000097,
0.002380,-0.000971,0.000212,-0.001127,-0.000475,0.000223,-0.001043,0.000319,
0.002332,-0.001028,-0.000310,-0.000078,0.000123,-0.000197,0.000516,0.000023}
,
{
0.625058,0.178429,0.066096,0.052744,0.010862,0.005811,0.005060,-0.003780,
-0.041864,0.021645,0.011626,0.011196,0.013953,0.003829,-0.003736,0.003270,
-0.053123,-0.017578,-0.004272,0.003569,0.000933,0.004617,0.002897,-0.007589,
-0.036271,0.002945,-0.002007,0.002120,-0.000907,-0.001602,0.003651,0.000968,
-0.031973,-0.003984,0.004544,-0.001202,-0.001333,0.003229,0.001249,0.001394,
-0.010905,-0.003945,-0.005140,-0.000129,0.000487,-0.000428,0.000314,-0.001789,
-0.014675,0.004129,-0.001249,0.005125,-0.001259,-0.000080,-0.001056,0.001639,
-0.010112,-0.002408,0.000967,0.000985,-0.001868,0.000206,-0.000419,-0.001030}
,
{
-0.626524,-0.130331,-0.047118,-0.034568,-0.011560,-0.005560,-0.000592,0.009388,
0.050729,-0.037097,-0.013368,-0.019002,-0.008487,0.003101,-0.001915,0.001517,
0.070211,0.011174,-0.002476,0.000900,-0.006844,-0.012897,-0.003812,-0.002704,
0.046007,-0.000378,-0.007073,-0.005509,-0.006376,-0.003208,0.009400,0.000874,
0.036252,0.005724,-0.000067,-0.002408,0.000522,0.001136,0.001981,-0.004726,
0.014715,0.008460,0.002487,-0.003293,-0.000016,0.000708,-0.003718,-0.002104,
0.006486,0.003041,0.000576,0.006740,0.004338,0.002291,0.001909,0.000625,
0.007575,-0.000419,0.004150,-0.000343,-0.000930,0.001592,0.000566,0.002998}
,
{
0.578179,0.171548,0.033286,0.038734,0.018378,0.014995,-0.003859,0.001217,
-0.053986,0.007773,0.030074,0.011503,0.007067,0.003893,0.010453,-0.003635,
-0.081281,-0.026776,0.011236,0.006016,0.010015,0.004431,0.009123,0.005805,
-0.084202,-0.023188,-0.000385,-0.000521,0.005823,0.000902,0.002840,-0.003113,
-0.047314,-0.012758,-0.000009,0.004666,-0.005277,0.004165,0.006428,0.007936,
-0.029051,0.003710,-0.002882,-0.007158,0.000904,0.000008,0.002111,0.000193,
-0.023844,-0.002633,0.000192,-0.000755,0.000536,-0.001553,-0.003376,-0.004955,
0.002911,-0.005375,-0.001409,0.004911,-0.000609,-0.003026,0.000983,-0.001006}
,
{
-0.635550,-0.113974,-0.036897,-0.077510,-0.007953,0.007925,0.005847,-0.006178,
0.118460,-0.026129,-0.008070,0.018593,0.000835,-0.020582,-0.009937,0.003210,
0.082723,0.003464,-0.018619,0.003508,-0.003919,0.004090,0.003602,-0.005002,
0.072870,0.015473,0.000684,0.002946,-0.000383,0.001280,0.002039,-0.000597,
0.058679,0.023015,0.006691,0.019101,-0.004402,-0.007337,0.001264,-0.000682,
0.032393,0.010215,-0.004010,0.000109,0.003230,-0.000967,0.000385,0.000756,
0.008308,0.000458,-0.003536,0.001364,0.003057,-0.005438,0.002816,0.005734,
0.002878,-0.007451,0.003139,0.004587,-0.002230,0.000109,-0.002547,-0.000798}
,
{
0.503510,0.108209,0.060698,0.026055,0.008119,-0.003194,0.027043,0.003749,
-0.116180,-0.030642,-0.000342,0.027225,0.011612,0.001390,0.006608,0.014096,
-0.082075,-0.005726,0.028323,-0.002760,0.004191,0.002741,0.001461,0.010284,
-0.072018,0.028576,-0.011376,-0.009255,-0.001307,-0.001556,0.001440,-0.008879,
-0.042051,0.003666,-0.004408,0.006226,-0.002913,0.003215,-0.000415,-0.001175,
-0.022431,-0.016838,0.000449,0.002054,0.000278,0.007800,0.004346,-0.001721,
-0.000223,-0.004224,-0.011676,0.001104,0.001754,0.001048,-0.003829,-0.003148,
0.012542,0.001900,0.001223,-0.005663,0.001906,0.000334,0.000634,0.000402}
,
{
-0.420908,-0.115261,-0.039761,-0.045312,-0.026580,-0.005168,0.002732,0.026843,
0.073707,0.002252,0.042050,-0.036030,-0.011810,-0.003329,0.008496,-0.004050,
0.052354,0.016158,-0.017219,0.011579,0.015122,0.013316,0.006762,0.006859,
0.065784,0.017463,0.005655,0.002537,0.011681,0.009554,-0.008062,-0.001901,
0.021160,0.001401,-0.004533,-0.000427,-0.012436,-0.004782,-0.003780,-0.001976,
0.021333,0.009049,-0.005047,0.000976,0.009436,-0.000355,-0.002507,-0.000752,
0.018906,-0.004930,0.011150,-0.002555,-0.007528,-0.008997,-0.001542,0.006902,
-0.007135,-0.004348,-0.000904,-0.005009,-0.001191,-0.004468,0.009298,-0.000754}
,
{
0.256553,0.086237,0.030706,0.008741,0.014700,-0.011039,0.014254,-0.006290,
-0.108692,-0.055783,-0.049479,0.037556,0.001199,-0.007480,-0.017852,-0.002939,
0.007330,-0.006417,0.001631,-0.011715,0.011026,0.001543,-0.020608,-0.016815,
-0.029987,-0.004750,-0.018247,-0.006351,-0.028598,-0.005717,-0.004808,0.007859,
-0.011233,-0.014520,0.006450,0.003125,-0.005842,-0.011844,-0.003934,0.001229,
-0.009765,0.010882,0.009312,-0.004441,-0.005261,-0.010518,-0.012811,-0.008329,
-0.012292,-0.007380,0.005409,0.007034,0.004911,0.008825,0.005945,-0.000403,
-0.001305,0.000025,-0.002722,0.001989,-0.003571,-0.009327,0.003690,0.012795}
,
{
0.503654,0.002395,-0.021059,-0.015860,-0.013194,-0.009225,-0.006882,-0.002948,
0.159862,0.020901,-0.006343,0.000742,0.002328,0.004281,-0.001032,0.001427,
0.066192,0.022849,-0.002352,0.002072,-0.001113,-0.000991,0.000189,-0.001441,
0.045589,0.008229,0.004766,-0.000501,0.004275,0.000742,0.000914,-0.002076,
0.019305,0.010240,0.009839,0.001071,-0.000269,-0.000839,-0.001254,0.000699,
0.011863,0.010002,0.007621,0.001135,0.000590,0.000656,0.000059,0.001176,
-0.000330,0.005902,0.000602,0.002834,-0.000254,-0.001060,0.000786,-0.001171,
0.001470,0.000776,0.000212,-0.002251,0.001608,-0.001559,-0.000091,-0.002307}
,
{
-0.315695,-0.113600,-0.014755,-0.032748,0.015181,-0.004320,-0.000438,-0.005862,
-0.121729,-0.044069,-0.007676,-0.011294,-0.017496,0.000459,0.000937,0.001249,
-0.022019,-0.001219,0.017504,-0.004900,-0.002540,-0.005145,-0.004564,0.002283,
-0.015026,-0.019503,0.004372,0.002919,-0.006106,-0.000868,0.005377,0.000758,
0.002454,-0.012451,0.000010,0.002712,-0.006945,0.001459,0.002675,-0.002568,
-0.003790,0.001449,-0.000577,-0.001832,0.004324,0.002676,-0.003685,-0.003275,
0.014737,-0.001779,0.005105,-0.004572,0.004066,0.002046,-0.003143,-0.002222,
0.012641,0.000314,0.001735,-0.010186,0.004101,-0.002686,0.001234,-0.002519}
,
{
0.290701,0.078323,0.008776,0.007400,0.005254,0.007079,-0.012741,-0.005870,
0.074664,0.034942,0.011993,0.007379,0.018450,0.006197,-0.001979,-0.001372,
-0.007078,0.023646,0.018836,-0.000431,0.001648,0.002621,-0.009310,0.006472,
-0.016552,-0.004827,0.012609,0.002654,-0.000374,0.004414,0.004198,-0.001407,
-0.000361,0.000614,-0.014275,-0.000102,-0.008595,0.002141,-0.005931,0.000959,
0.000404,-0.008056,-0.001309,0.000333,0.002308,0.001191,-0.001689,0.001427,
-0.005218,0.004817,-0.004348,0.012487,-0.002570,-0.000770,-0.000741,-0.005170,
-0.001532,0.002110,-0.002378,0.002515,-0.005048,-0.003430,-0.003366,-0.002792}
,
{
-0.201740,-0.099281,-0.042759,-0.019475,0.005974,0.008050,0.008313,0.009368,
-0.129917,-0.019248,-0.042280,0.011761,-0.036061,-0.010120,-0.002552,0.001710,
0.010034,0.008054,0.015398,-0.006157,-0.023554,-0.007393,-0.003696,-0.015233,
0.012462,-0.012054,0.000787,-0.005619,-0.005600,0.002900,0.007080,0.004101,
0.014079,-0.004056,0.013093,-0.005247,0.013948,-0.012495,-0.010905,-0.001719,
0.003622,-0.005643,0.007237,0.002188,-0.000746,-0.005432,0.002391,-0.004378,
0.013879,0.003103,0.000670,0.000798,-0.007255,-0.006503,0.005668,-0.001502,
0.003125,-0.000282,0.004130,0.001870,0.004456,0.000776,0.002239,-0.000370}
,
{
0.233267,0.041713,0.014235,-0.012087,-0.019223,0.002557,0.001651,-0.009827,
0.090265,0.030866,-0.011467,0.002351,0.031327,0.006664,0.000973,-0.001864,
-0.007427,-0.000131,-0.017814,0.002192,0.010618,-0.008472,0.002518,-0.010812,
-0.005572,-0.007123,0.001113,0.011080,-0.001413,-0.000060,-0.002487,0.006006,
-0.018131,-0.010342,-0.006506,0.002862,-0.006220,0.007597,0.002435,0.002212,
-0.018107,-0.011940,0.001891,0.001995,0.007440,-0.003994,0.004155,0.002751,
-0.007583,0.000554,-0.001743,0.004039,-0.003755,0.005283,-0.002358,0.002761,
-0.006660,-0.007398,-0.001961,-0.009722,-0.000936,-0.003900,-0.007069,0.004809}
,
{
-0.119828,-0.036341,-0.039135,-0.015672,-0.003274,-0.028408,-0.024740,0.020594,
-0.129920,0.007832,-0.032529,0.008090,-0.018943,0.010726,0.004556,0.014219,
0.023873,-0.018809,-0.005557,-0.016246,-0.008631,-0.025264,0.003916,0.004386,
0.038394,-0.029135,0.013382,-0.003698,0.002649,0.004025,-0.009852,-0.003210,
0.018718,0.016684,-0.021965,-0.008547,0.005749,0.002074,0.004460,0.019768,
0.033783,-0.000305,0.002671,0.010311,0.021211,0.005786,0.007618,-0.001002,
-0.000195,0.009025,-0.000106,0.001188,-0.006286,-0.005130,0.016178,-0.007348,
-0.002084,0.004803,0.006599,-0.015337,-0.001031,0.004950,-0.001244,0.005409}
,
{
0.123468,0.016339,-0.046080,0.017164,-0.042709,-0.033922,-0.015621,0.005858,
0.111758,-0.094907,0.003647,0.039587,0.012852,-0.047628,-0.018969,-0.019291,
0.035803,0.014925,-0.027496,-0.007571,-0.012112,0.004569,0.001180,-0.006287,
-0.004107,-0.029180,0.000376,0.009017,0.007677,-0.004507,-0.001729,0.000597,
0.033521,-0.085528,0.026534,-0.007308,0.004659,-0.009927,0.005536,0.005498,
-0.005568,-0.001978,-0.004720,-0.006885,-0.001099,-0.000919,0.010590,-0.006846,
-0.004338,0.011485,0.010150,-0.000865,-0.014667,-0.005976,-0.018523,-0.005469,
0.000028,-0.018679,0.001907,0.006887,-0.002290,-0.003372,0.001804,-0.005199}
,
{
0.072293,-0.027873,-0.030645,-0.022042,0.025880,0.005169,-0.010157,-0.001720,
-0.044118,0.040582,0.023344,0.017959,0.017955,-0.020660,0.013767,0.011335,
-0.040949,-0.025465,0.003049,0.031243,-0.009395,0.013253,-0.007535,-0.004557,
0.018557,0.000699,0.021768,0.024368,0.006782,0.033135,0.016826,0.004316,
0.031185,-0.000677,-0.030091,-0.019076,0.007476,0.006865,0.001631,-0.002057,
-0.011372,-0.004575,-0.003191,-0.026009,-0.007211,0.005040,-0.000795,-0.002408,
-0.007277,-0.014281,0.008515,0.004249,0.002354,0.000474,-0.011970,-0.010788,
-0.011795,0.005667,-0.016891,-0.013477,0.002925,0.007049,-0.003522,0.000680}
,
{
-0.518197,-0.024486,0.018799,0.027982,0.020958,0.010831,0.005067,0.001688,
-0.109253,-0.027458,0.012927,0.010380,0.005029,-0.002676,-0.006649,0.002467,
-0.065511,-0.014283,-0.002569,0.006974,0.004095,-0.004424,-0.005261,-0.001921,
-0.056297,0.003044,-0.010178,0.009144,0.006197,-0.001248,-0.000051,0.000870,
-0.015333,-0.003563,-0.003207,-0.002925,-0.000765,-0.000937,0.001394,0.001681,
-0.016605,-0.002532,-0.002718,0.008720,-0.002128,-0.001096,0.000180,0.000988,
-0.014058,0.004732,-0.006324,0.007089,-0.000784,0.000642,0.001474,-0.004520,
0.004625,-0.004059,-0.000445,0.002764,-0.000146,0.003938,-0.002702,-0.000753}
,
{
0.342734,0.109176,0.010022,0.008084,0.000847,-0.009716,-0.002916,0.012317,
0.070767,0.027573,-0.006170,-0.005611,0.002017,0.001388,0.001843,-0.003592,
0.039858,0.008976,0.009644,0.001685,-0.010159,-0.003566,-0.001936,0.006642,
0.025625,0.034407,0.010440,-0.000858,-0.002163,-0.010009,-0.002838,-0.002881,
0.006293,0.022582,-0.004234,-0.007999,0.001777,-0.005764,0.007458,0.011427,
0.005451,0.008659,-0.005012,0.007186,0.002510,0.009609,0.003555,0.003851,
-0.013251,-0.003831,-0.000094,0.001026,0.010561,-0.001807,-0.001737,0.003558,
-0.005026,0.001923,-0.000313,-0.003492,-0.000298,0.001369,0.002606,0.000439}
,
{
-0.265513,-0.094765,0.000249,-0.012470,-0.005975,0.000834,0.002898,0.007491,
-0.025883,-0.019830,0.035586,-0.003319,0.000116,-0.008719,-0.005878,0.002845,
0.017168,0.001755,-0.002126,-0.009730,-0.005367,-0.006139,0.002318,-0.001582,
-0.011212,-0.010403,0.013576,0.009584,0.004506,0.006301,-0.007583,-0.006196,
-0.011333,-0.006134,0.001814,-0.003777,0.001373,0.008306,0.000041,0.008809,
0.005488,0.004993,-0.007453,-0.006888,-0.001506,-0.000159,0.010087,-0.003571,
0.005412,-0.004172,-0.000307,-0.005133,0.003360,-0.005988,0.006317,-0.012040,
0.002725,-0.002842,0.004966,-0.003961,0.010175,0.006502,-0.001599,0.001371}
,
{
0.147650,0.058139,0.016310,-0.006573,0.011042,-0.013841,-0.002135,0.004096,
0.026444,0.006692,-0.005604,0.009972,-0.000089,0.003383,-0.011648,0.001347,
-0.041797,0.019045,-0.016802,0.007340,0.023476,-0.013387,0.012264,-0.003129,
-0.013408,0.001200,-0.010394,0.007365,-0.000620,-0.012676,-0.000713,0.008232,
-0.012192,-0.000938,-0.002640,-0.000768,-0.008974,-0.005126,0.022373,-0.002734,
-0.011381,-0.007843,-0.006370,-0.004813,0.007754,0.016503,-0.008942,0.002007,
0.002123,0.007384,-0.002304,0.001545,-0.015211,0.011994,-0.000333,0.014420,
0.004282,-0.000061,0.006607,-0.002456,-0.001858,-0.002354,0.003824,-0.002661}
,
{
-0.231375,-0.023554,-0.010859,-0.037803,0.008889,-0.014209,0.001564,-0.000825,
-0.022899,0.010760,-0.024340,-0.007814,-0.003352,-0.014894,-0.001624,-0.004185,
0.069472,0.017676,-0.007956,0.050961,0.002223,-0.004627,0.010002,0.003935,
0.058555,-0.011419,0.004761,0.005411,-0.017551,-0.000897,-0.009662,-0.003867,
0.016415,-0.005192,0.022414,0.008301,-0.003805,-0.012556,0.012051,0.000888,
0.030784,0.010279,0.001802,0.003452,-0.000347,-0.006284,-0.007930,0.005925,
0.019110,-0.004870,-0.008290,-0.007308,0.001036,-0.001717,0.007218,0.005009,
0.016475,0.006344,0.007492,0.011048,0.000982,0.008306,-0.005594,0.004986}
,
{
0.111804,0.009219,0.041789,0.029707,0.000035,0.027201,-0.005564,0.012566,
-0.043733,-0.024880,-0.009953,0.020447,0.012349,-0.003290,-0.001963,-0.029731,
-0.082325,-0.048798,-0.039945,-0.046141,-0.006599,0.016920,0.006961,0.018223,
0.010285,-0.010889,0.015686,-0.023012,-0.013817,0.005896,-0.003348,0.005931,
-0.028270,-0.001978,-0.018786,0.004599,-0.025484,-0.019464,-0.008566,-0.018698,
-0.031075,0.010743,-0.014448,-0.015117,0.013916,0.001004,0.003363,-0.001431,
0.006048,-0.004222,0.003539,0.029064,0.001376,0.004082,0.002153,0.001748,
0.017503,-0.003157,0.009216,0.007272,-0.002104,-0.001333,0.004446,0.009491}
,
{
-0.276268,0.016712,-0.024313,0.001578,-0.023792,-0.004725,0.018185,-0.000827,
-0.012550,0.003098,-0.012188,0.028352,0.022181,0.003513,-0.002221,-0.009231,
-0.007616,0.022189,-0.017850,0.018284,0.005468,0.017384,0.001047,-0.012821,
0.038191,0.038765,0.031155,-0.010442,0.022048,-0.020426,0.026882,-0.020308,
0.068319,0.007540,0.019464,0.005537,-0.029085,-0.020371,-0.015039,-0.011669,
0.016529,0.029965,0.004759,0.001678,0.022395,-0.011566,0.002321,-0.011664,
-0.011048,0.011825,-0.017394,0.002982,-0.005434,-0.010454,-0.007966,0.023855,
0.022324,-0.009073,0.003887,-0.009717,-0.002280,-0.002493,0.026018,-0.021484}
,
{
0.091418,0.109300,-0.036819,0.097743,0.010698,-0.022236,0.003036,-0.013523,
-0.064810,0.078974,-0.027281,0.007561,-0.020324,-0.001257,0.010148,0.009058,
-0.048702,0.049524,0.029269,0.047857,-0.014480,-0.007356,-0.003293,-0.008879,
0.062843,-0.039446,0.015519,0.013376,-0.016376,0.015588,-0.023667,0.009773,
0.046806,-0.018536,0.010588,-0.038741,0.009361,0.033270,-0.009666,0.006980,
-0.000006,0.006289,-0.013177,-0.012222,0.013278,-0.010731,0.010204,-0.002342,
-0.002907,-0.013895,0.013425,-0.014254,-0.004916,-0.018513,-0.001693,-0.023030,
-0.005401,0.024852,-0.012864,-0.005396,0.009487,-0.010425,-0.000850,-0.015731}
,
{
0.466429,-0.002218,-0.048453,-0.029075,-0.025378,-0.016280,-0.009992,-0.007288,
0.129977,0.021803,-0.016400,-0.006245,-0.018745,-0.010311,-0.001757,0.001549,
0.070666,0.027357,0.019058,0.007022,-0.000719,0.000044,-0.002391,-0.003520,
0.054179,0.000973,0.003210,-0.003455,-0.003055,-0.005082,0.007871,-0.001308,
0.027981,0.007792,0.005548,0.000338,-0.009973,-0.007076,-0.000373,0.001249,
0.018871,-0.010043,0.003175,0.003342,0.002707,0.003296,0.003011,0.003271,
0.020634,-0.006849,0.000153,0.008180,0.002206,-0.003578,0.002563,0.002956,
0.004821,-0.001779,0.001324,0.001031,-0.003996,0.000077,0.003382,-0.000748}
,
{
-0.232242,-0.101552,-0.012815,0.005876,-0.001069,0.008236,-0.014234,-0.004697,
-0.078273,-0.037072,0.023940,0.013727,-0.010283,0.007216,0.008435,-0.003861,
-0.022857,-0.014190,0.007412,-0.010851,0.000732,0.001935,0.004576,-0.009905,
-0.021417,-0.018010,-0.009696,-0.001175,0.012402,0.006648,-0.000637,0.005782,
-0.010689,0.004597,-0.004881,-0.004092,-0.000026,0.009060,-0.008596,-0.007314,
0.002506,0.000822,0.001268,-0.001015,0.007769,-0.007523,0.000817,-0.005799,
0.000689,0.001622,-0.004520,0.004552,-0.002265,0.001374,-0.003578,-0.005244,
0.001239,-0.002656,-0.007932,0.013531,-0.002628,-0.000441,-0.003508,-0.001856}
,
{
0.137199,0.009501,0.012060,-0.002276,-0.004655,-0.008756,-0.014307,0.001702,
0.048020,-0.004444,0.007045,0.014740,-0.025663,-0.006971,-0.005351,-0.004966,
0.011669,0.007083,0.012577,0.001010,0.008218,-0.006970,-0.017000,-0.000292,
-0.001486,-0.005810,0.004032,0.009727,-0.006293,0.005695,-0.002495,-0.004304,
0.006164,-0.005838,0.004624,-0.005512,-0.010122,0.016463,-0.005927,-0.000906,
0.011902,-0.007774,-0.010340,-0.006805,0.008115,-0.003704,0.010057,-0.010062,
-0.008111,-0.017419,-0.008822,0.004959,0.006434,-0.002569,-0.005265,0.002896,
0.009342,-0.004514,-0.007493,-0.001482,0.001017,-0.008027,0.003478,-0.008157}
,
{
-0.027393,-0.009701,0.032590,0.025303,0.008467,0.015397,0.009535,-0.002518,
-0.079610,-0.031689,0.017267,0.000305,-0.020588,-0.013290,0.000259,-0.006006,
-0.007832,-0.020455,0.002548,0.028307,-0.000394,0.018479,0.004438,0.003523,
0.011224,0.028738,0.039819,0.001894,0.015616,0.003461,-0.011643,-0.010161,
0.003164,-0.016180,-0.012886,0.000461,0.001802,0.002131,0.001473,0.000785,
0.008974,-0.000939,-0.001134,0.007760,-0.013617,-0.002412,0.006826,0.002739,
-0.007212,-0.005727,-0.004308,-0.012248,0.000837,-0.006033,-0.002665,-0.000106,
0.005140,0.000765,0.007421,-0.002647,0.002351,0.002715,0.003368,0.000195}
,
{
-0.024165,-0.022849,0.000711,0.018303,-0.025189,0.002081,-0.009367,0.001274,
-0.127930,-0.014099,-0.002285,-0.029105,-0.005699,-0.010964,0.004612,0.014899,
-0.035407,-0.028404,-0.019539,-0.018618,-0.002549,0.002348,-0.002971,-0.015062,
0.016097,0.014391,-0.006215,0.005947,0.018063,0.012260,-0.010225,-0.001242,
-0.015951,-0.009379,-0.010758,0.010187,-0.006283,-0.006009,0.004172,0.007261,
-0.023543,-0.020466,0.001746,-0.000236,0.002748,-0.006176,0.014076,-0.008525,
-0.002939,-0.028577,-0.000474,0.000980,0.006466,-0.004566,-0.001581,-0.016798,
0.011962,-0.011947,0.005943,-0.022310,-0.002000,0.012545,-0.015779,-0.005471}
,
{
-0.049278,-0.063396,-0.021989,-0.026595,-0.001609,-0.050475,-0.006835,0.002736,
0.004281,-0.115082,0.020869,0.006827,0.053884,0.040291,-0.003634,0.006332,
0.044366,-0.001085,-0.011613,-0.002714,0.011874,-0.032870,-0.020021,0.023095,
0.008209,0.047445,-0.012718,0.051507,0.000580,0.000045,-0.007456,-0.000774,
0.023061,0.029962,0.000249,0.032801,-0.006263,-0.003719,-0.018678,0.003747,
0.030368,-0.014272,-0.001152,-0.022512,-0.027750,-0.006765,0.013962,-0.003436,
0.029786,0.024632,0.000698,-0.005260,-0.009979,-0.000219,-0.000154,-0.002636,
-0.004976,-0.004239,-0.014499,-0.002687,0.007391,0.004513,-0.003325,0.020131}
,
{
0.162736,0.000613,-0.035157,0.017476,-0.046743,0.032289,0.020741,-0.021740,
-0.140653,-0.122507,-0.033886,0.002475,0.017082,0.027188,-0.012975,-0.022229,
-0.009914,-0.020537,0.049134,-0.069622,-0.038759,0.004051,0.052352,-0.022177,
-0.078719,0.005987,-0.054944,-0.069389,-0.027521,-0.029061,0.023209,0.002098,
-0.056370,0.063640,0.020222,0.014733,0.033944,0.040968,-0.035633,0.012478,
-0.037387,0.001888,-0.002649,0.033348,-0.007198,0.010471,0.012058,-0.017312,
-0.039450,-0.019112,-0.021296,-0.023075,-0.013551,-0.005710,-0.020142,0.015443,
0.008645,-0.045669,-0.011392,0.000770,-0.007533,0.032523,-0.003344,0.030106}
,
{
-0.140974,-0.157907,0.089989,0.068783,0.019630,-0.016401,-0.033960,-0.012825,
-0.152880,-0.046567,0.037695,-0.001460,-0.158455,0.029663,0.044783,0.020161,
0.045491,0.071000,0.018960,-0.106201,0.046995,-0.010718,-0.002271,-0.006079,
0.013005,0.031913,-0.047409,-0.024874,0.036868,0.032336,0.013834,-0.028168,
0.042239,0.008018,0.015977,0.046239,0.038893,0.002261,0.011713,0.000889,
0.048441,0.006862,-0.037315,-0.018062,-0.027919,0.004361,0.031321,0.015276,
-0.019008,0.014102,-0.007720,-0.016175,0.010652,-0.000689,0.015539,-0.007557,
-0.009151,-0.015564,-0.011870,0.003082,-0.000193,0.007306,-0.005577,0.027832}
,
{
-0.489652,-0.009017,0.019919,0.029769,0.025080,0.022229,0.008847,0.002420,
-0.107563,-0.035145,0.022013,-0.001169,0.007566,0.000249,0.005746,0.000898,
-0.059282,-0.029582,0.007870,0.004070,0.004391,0.003925,-0.000587,-0.004712,
-0.044106,-0.019250,-0.004637,0.013367,0.003764,-0.001104,-0.000803,0.000932,
-0.022838,0.010416,-0.001951,-0.014357,-0.002610,0.001530,-0.000537,0.005881,
-0.010408,0.001731,0.001823,-0.002870,-0.001701,0.003528,0.004419,0.000481,
-0.022009,0.004119,-0.001905,0.006652,-0.005005,-0.002697,-0.002606,0.000436,
-0.000404,0.000340,0.001005,-0.004161,0.002537,0.005476,0.001622,0.004461}
,
{
0.270591,0.143314,0.005551,-0.008986,-0.034392,-0.031272,-0.015009,-0.005072,
0.059300,0.058026,-0.004865,-0.019412,-0.022548,-0.008656,0.007910,-0.001740,
0.027332,0.014219,0.038801,0.012256,0.007526,-0.014579,-0.006048,-0.000212,
0.025224,0.014684,0.000229,0.010900,-0.001993,0.003975,-0.015745,0.007016,
0.003601,0.016603,0.004190,0.013050,-0.011515,-0.004725,0.002460,-0.005534,
0.000390,0.006879,0.008226,0.000222,0.003786,-0.008562,-0.005816,-0.013022,
-0.004723,-0.003703,-0.005024,0.007052,-0.012409,0.003810,0.003805,-0.001225,
-0.012188,-0.001050,0.001842,-0.001704,0.002139,0.010566,-0.004858,0.006662}
,
{
-0.235821,-0.041071,0.024868,0.052157,0.043146,0.003006,0.004785,0.011275,
-0.046861,-0.050698,-0.029590,0.009478,0.002723,0.007671,-0.009387,0.004509,
-0.045751,-0.036432,0.034740,-0.004471,-0.001275,0.002849,-0.003802,-0.008821,
-0.025499,0.010747,-0.018244,-0.006279,-0.002173,-0.012844,0.005984,0.003026,
-0.004869,0.020674,0.002611,-0.009860,-0.004603,0.009369,-0.010151,-0.006102,
0.037408,-0.007293,0.026646,-0.003967,-0.004787,0.006898,0.004489,-0.007391,
-0.006210,-0.005446,0.005557,0.002074,-0.004264,0.000227,-0.000519,-0.001838,
0.016751,0.011923,0.012226,-0.007626,0.000497,-0.004574,-0.000014,0.005229}
,
{
-0.011459,0.067364,-0.029200,-0.040468,-0.012094,-0.011056,-0.053962,-0.012725,
-0.045006,0.033302,-0.049825,-0.039673,0.004529,-0.006326,-0.008864,-0.007665,
-0.031690,-0.022723,-0.008110,0.006270,-0.003529,-0.010471,-0.006093,-0.000057,
-0.001174,-0.051869,-0.006541,-0.022144,-0.014293,0.011315,-0.029058,0.011102,
-0.009316,-0.012412,-0.027145,0.009858,-0.020194,0.003855,-0.009619,0.003416,
0.006299,0.000248,0.000454,0.014914,0.006989,-0.010195,-0.011982,0.002132,
-0.007099,-0.010075,-0.017746,0.000961,0.014660,-0.004008,0.014402,-0.011515,
0.009160,-0.011031,-0.003467,0.001403,-0.012511,-0.012280,-0.009451,-0.015498}
,
{
0.015396,0.021190,0.015073,-0.002777,0.062876,-0.002075,0.028507,-0.026812,
0.031696,0.063628,0.006045,0.021261,0.035734,0.034600,-0.004277,-0.016960,
0.006394,-0.037201,0.037780,-0.039516,-0.021793,0.029981,-0.010659,0.016096,
-0.005399,-0.012717,-0.015985,-0.000166,-0.000242,0.003659,0.019492,0.024526,
0.010675,-0.014918,-0.016002,-0.002784,0.026183,0.026386,-0.004425,0.012597,
0.023379,-0.000267,0.016219,0.034080,-0.030355,0.023464,-0.006937,-0.003697,
0.023679,-0.020757,0.005126,0.012117,0.002156,-0.011945,0.000388,-0.010599,
-0.033348,0.005355,-0.029901,-0.009605,-0.007786,0.010153,0.013082,0.010930}
,
{
-0.256402,-0.133403,-0.142708,0.055793,0.034719,0.012258,0.001513,0.012817,
-0.136122,0.056223,-0.075269,-0.008482,-0.005393,0.002247,0.045587,0.009744,
-0.002085,0.085344,-0.021441,-0.011059,0.065617,0.012872,-0.026596,-0.012256,
-0.040587,0.027000,0.042512,-0.045156,-0.019968,0.024564,-0.001395,-0.005837,
-0.050596,-0.065560,0.021158,0.005618,-0.032824,0.027356,0.013379,-0.031418,
0.017809,-0.006284,0.003482,-0.026217,0.041102,-0.002223,-0.008168,-0.017328,
0.006664,0.000911,0.022787,0.009273,-0.024301,0.005260,-0.016521,0.043811,
0.016355,-0.008065,0.008864,0.000069,-0.009236,-0.018902,0.011384,-0.002974}
,
{
0.347474,0.109769,-0.119870,-0.008287,0.124041,0.024021,0.103272,-0.009106,
-0.120178,0.146858,0.039180,-0.029763,-0.037961,0.000677,-0.054404,-0.063481,
-0.111442,-0.211280,0.017882,-0.020743,0.077548,0.028405,0.005531,0.010864,
-0.029712,-0.005407,-0.073406,-0.057567,-0.049919,-0.049037,0.009012,0.012230,
-0.080495,-0.039306,-0.059801,0.034721,-0.007890,0.024506,0.076154,-0.006267,
0.066891,0.019147,0.043246,-0.023230,0.014361,0.056485,0.004556,0.005128,
0.096629,-0.051492,0.058554,0.005214,-0.029006,-0.013571,-0.001672,0.015062,
-0.017242,0.013195,-0.002047,-0.009194,-0.004255,0.011156,0.010854,0.003038}
,
{
-0.143821,-0.108036,-0.035683,0.075221,-0.077052,0.025043,-0.020242,0.039564,
0.001663,-0.221456,-0.044708,0.014705,-0.011489,0.048226,0.030667,-0.022871,
0.153219,-0.074813,0.091657,0.001611,-0.068262,-0.038496,-0.002179,0.007604,
-0.031461,-0.057903,-0.072213,0.017864,0.021050,0.025793,-0.011618,-0.039482,
0.027699,-0.038205,-0.008177,0.004577,0.027156,-0.022273,0.016590,0.049453,
0.013697,-0.022602,-0.044939,0.013559,0.045472,-0.079097,-0.004100,0.002706,
-0.050098,-0.011615,-0.034309,0.037274,-0.029062,-0.019037,0.014060,0.023738,
-0.029308,-0.027844,-0.016444,-0.002720,0.007292,0.020485,0.029376,-0.004041}
,
{
0.361394,0.006771,-0.032986,-0.042884,-0.014910,-0.008408,-0.011317,0.013943,
0.087058,0.017709,-0.011917,-0.012423,-0.007819,-0.004196,-0.003364,0.005282,
0.044063,0.020659,0.006866,-0.005539,-0.002123,-0.008829,-0.004057,0.000678,
0.066671,-0.008823,0.002744,-0.009098,0.005565,-0.010894,0.000918,-0.000159,
0.003026,-0.002951,0.015674,-0.005038,-0.002556,0.003422,-0.004223,0.002214,
0.017498,-0.004337,-0.003716,0.001354,0.009557,0.002452,0.001247,0.001820,
0.006754,0.005730,0.001034,0.002020,0.006192,-0.005738,-0.001463,-0.003361,
0.004612,-0.010308,-0.004942,-0.009347,-0.002037,-0.001326,0.002947,0.000267}
,
{
-0.159343,-0.140787,0.026471,-0.035673,0.019983,-0.006000,-0.006490,0.001040,
-0.039223,-0.062175,0.003366,-0.000297,0.018449,-0.011733,0.005589,-0.019877,
-0.014456,-0.014747,-0.021882,-0.010930,0.003872,-0.015400,0.008704,-0.000539,
-0.025091,-0.045063,0.017349,0.005262,-0.016453,-0.014853,0.008123,0.006047,
-0.023257,-0.006412,-0.007980,-0.003957,-0.006250,0.012324,-0.005750,0.007461,
0.004376,0.015240,-0.007573,-0.016651,0.000725,-0.008850,0.006029,-0.002053,
-0.004212,-0.008323,0.000762,0.001187,-0.013710,-0.000889,-0.000333,0.002767,
-0.001211,-0.011609,0.007934,0.000293,-0.004975,-0.004066,0.000513,0.006009}
,
{
0.147492,0.052043,-0.029512,-0.019281,-0.025993,-0.057027,-0.005358,-0.003305,
-0.099022,-0.014277,0.029845,0.021231,-0.007372,-0.005831,-0.008718,-0.008323,
0.022779,0.024623,0.020910,0.005022,-0.019657,-0.022675,0.014041,-0.007749,
0.021000,0.032011,-0.006420,-0.004074,0.015153,-0.003448,0.008607,-0.002762,
0.012474,-0.010043,0.006693,-0.012741,0.006687,0.005782,0.002047,-0.001102,
-0.009974,-0.010611,-0.006042,0.007421,-0.005580,0.015667,0.014391,0.012286,
-0.009187,-0.012896,-0.012134,0.008981,-0.001549,-0.001412,-0.011328,-0.005519,
-0.019490,-0.007324,-0.001482,-0.001991,0.004946,-0.003780,-0.000444,0.008583}
,
{
-0.041034,-0.028951,0.043193,0.079047,-0.001795,0.017088,0.014565,0.023520,
-0.006529,-0.003073,0.008513,0.016152,-0.007963,-0.001655,0.027877,0.015851,
-0.010496,-0.031703,-0.057818,0.009646,-0.021614,0.009446,0.013805,0.004875,
0.043844,-0.024818,0.019781,-0.038954,-0.016344,-0.016631,0.011271,0.001497,
-0.001210,-0.002448,0.011093,-0.002534,0.008926,-0.018243,-0.011459,-0.019923,
-0.001988,-0.033397,0.017292,0.021361,0.003363,0.007656,0.007917,0.013293,
-0.008314,0.024142,-0.005580,-0.028355,0.021641,0.005602,-0.005648,0.003814,
0.030334,0.031238,-0.006754,-0.000103,0.022087,0.011703,-0.016418,0.004521}
,
{
-0.105383,-0.061001,-0.003836,-0.022525,-0.009558,-0.024686,0.001671,0.003603,
0.010433,-0.052285,-0.064603,-0.012167,-0.036157,-0.042319,-0.024271,0.032060,
0.053111,0.105786,-0.020354,-0.029826,0.015233,-0.032529,-0.000873,-0.006870,
-0.012140,0.063804,-0.052652,0.047111,-0.011886,-0.014848,0.044764,-0.013205,
0.039269,0.020070,-0.015067,-0.015497,-0.012399,0.026246,-0.002715,-0.019626,
-0.014576,-0.023435,-0.037059,-0.000314,0.042221,0.023590,0.003971,-0.007266,
0.004242,-0.003925,0.029000,0.014706,0.004262,-0.000300,0.010929,0.004877,
0.002596,0.003030,0.001849,0.000248,0.019025,0.002335,0.002058,-0.015606}
,
{
0.195208,-0.012588,0.019529,-0.140395,0.025667,-0.030580,-0.009468,0.003500,
0.146987,-0.274038,-0.058195,-0.000908,0.020239,0.041163,-0.007871,0.009457,
-0.187899,0.111706,-0.075722,0.079002,0.051097,0.035996,0.003241,-0.030159,
-0.026907,-0.016783,0.022550,0.078196,0.035487,0.025324,-0.022633,0.002730,
0.031876,0.007280,0.050310,0.003912,0.018056,-0.010313,0.064578,-0.016123,
0.018516,0.012177,-0.005454,-0.002017,-0.022271,0.048099,0.007353,0.013660,
-0.000613,0.066890,0.023925,-0.015826,0.012691,0.037830,-0.017066,0.001898,
0.001151,0.005045,0.006545,0.006975,-0.011496,-0.008164,-0.001507,0.004532}
,
{
0.008424,-0.098548,-0.200900,0.015995,0.014484,-0.002205,-0.077966,-0.057191,
0.046875,-0.278139,0.097156,0.262023,0.092708,-0.009297,0.009244,-0.004929,
-0.050179,0.220600,-0.069754,-0.083443,0.076815,0.065578,0.040461,0.018008,
-0.104824,0.159066,-0.068543,-0.094090,0.121794,-0.030325,-0.045190,0.045969,
0.197817,0.065111,0.147209,0.099892,-0.118810,-0.112880,0.006746,-0.016152,
0.076008,0.010193,0.046929,-0.050555,-0.039793,0.004806,-0.001622,-0.021045,
-0.129132,0.020445,0.001666,0.018897,-0.035928,0.065482,0.030181,0.037816,
-0.043154,-0.050941,-0.005429,-0.039523,0.034892,0.034774,-0.015846,-0.032423}
,
{
-0.519743,-0.631416,0.005191,-0.066030,-0.020780,0.086748,0.085376,0.018746,
-0.247049,-0.118037,0.065905,-0.096487,0.086521,0.005281,0.031576,-0.081496,
-0.158626,-0.125484,-0.016192,0.011600,-0.103646,0.000138,-0.056944,-0.085739,
-0.179320,-0.088761,-0.035055,-0.014888,0.051281,0.029056,-0.006484,0.022014,
-0.017077,-0.038209,0.059121,0.131518,0.057540,-0.036745,0.028955,-0.008232,
-0.206995,-0.074515,-0.148690,-0.000184,-0.019655,0.021369,0.011713,-0.005757,
-0.029810,-0.015717,0.012085,0.005302,0.062406,0.057958,0.010109,-0.031723,
0.039054,-0.015471,0.006528,0.019792,-0.038067,-0.030820,-0.038201,-0.032011}
,
{
-0.284202,0.013225,0.038178,-0.001827,-0.003614,-0.003323,-0.008379,0.000895,
-0.038197,0.005113,0.003001,0.007111,0.023504,0.012443,-0.003852,0.009187,
-0.031899,0.008565,-0.003442,-0.006115,-0.005991,-0.008386,0.008324,0.007695,
-0.060193,0.010761,0.014312,-0.004247,-0.017953,0.002747,-0.011027,0.000829,
-0.021062,0.004638,0.007405,0.005208,-0.012450,-0.003799,0.011015,0.007702,
-0.014059,0.000463,0.004693,0.000346,0.010740,-0.000474,-0.000726,0.000923,
-0.019890,0.001313,-0.002720,0.008339,-0.012876,0.000285,0.005912,-0.000983,
-0.006112,0.014784,0.006770,0.009015,0.003858,-0.008796,-0.002637,-0.009953}
,
{
0.056679,0.020489,-0.007197,-0.001871,-0.030783,-0.002038,0.007375,0.012751,
0.029594,-0.001500,0.011024,-0.005369,-0.003669,-0.015883,-0.020845,0.009175,
0.014358,-0.002037,-0.019158,0.012485,-0.005488,0.020122,-0.008660,-0.003433,
0.001161,0.041492,-0.026117,-0.011909,0.003882,-0.016194,-0.012125,0.003645,
-0.031089,0.001560,0.020759,-0.006323,0.005059,-0.003793,0.004072,0.010542,
-0.003239,-0.000564,0.007950,0.005529,0.011783,0.006569,0.004289,-0.002772,
0.021024,-0.001580,0.007449,-0.002481,-0.011313,0.002148,-0.000250,-0.011580,
0.027269,0.017711,-0.008786,0.002902,-0.005089,-0.001787,-0.001746,-0.009889}
,
{
-0.002130,0.139165,-0.076050,-0.027276,-0.044214,0.028938,-0.028732,-0.002149,
0.028908,0.073091,-0.075857,0.004489,0.021617,-0.000069,0.009860,0.001152,
-0.025244,0.122605,-0.014891,0.002073,0.016382,-0.012699,-0.021467,0.000996,
-0.050059,-0.021253,0.031177,-0.013136,0.009077,0.017371,0.012568,-0.008219,
-0.009876,0.000761,0.001638,-0.000185,0.019312,-0.017983,-0.009001,-0.003768,
-0.017888,0.016288,0.037810,0.037703,0.004203,-0.017855,0.003205,0.013805,
0.030040,-0.042905,0.026245,-0.003298,0.020974,0.002076,-0.006304,0.012824,
-0.006176,-0.004161,0.000784,0.004261,-0.014235,0.015968,0.000650,0.000758}
,
{
0.104771,0.065319,-0.039860,0.040177,-0.094984,-0.009749,0.032431,0.004283,
0.002100,0.045333,0.122963,0.088410,-0.066104,-0.019669,-0.035548,-0.023741,
-0.011133,0.033226,0.068277,-0.046870,0.009850,-0.008241,0.015610,-0.024780,
0.050499,-0.012923,-0.081315,0.065597,-0.027209,-0.022016,0.026972,-0.031992,
0.023787,-0.006772,-0.009576,-0.003184,0.025421,-0.010267,-0.011271,-0.001418,
0.042471,0.043203,0.055451,-0.003340,-0.028077,-0.017067,0.012051,-0.007286,
0.040288,0.002005,0.052454,0.009286,-0.014519,-0.001568,-0.011561,-0.004273,
0.060269,0.023367,-0.041317,-0.021924,-0.027578,0.014909,0.023442,0.012973}
,
{
-0.183440,0.032424,-0.298444,-0.023357,0.099704,-0.048881,-0.011320,-0.065176,
-0.245375,-0.162216,0.027723,0.053554,0.045831,0.073926,0.010511,-0.003813,
0.196333,0.213405,-0.065392,0.062788,0.040884,-0.020692,0.028732,-0.026671,
0.016982,-0.009032,-0.060437,0.012666,-0.086834,0.052024,-0.039013,0.031195,
0.010057,0.018960,-0.026958,0.054857,0.014374,0.009050,0.023382,-0.006394,
-0.011297,-0.087749,0.009372,0.028368,0.001620,-0.010398,0.015150,0.018485,
-0.017307,0.022399,0.011789,-0.008109,-0.001532,0.009247,-0.001729,-0.007870,
-0.016071,0.028788,0.020057,-0.060016,-0.000212,0.080972,0.018985,0.020617}
,
{
0.092089,-0.547115,-0.206543,0.139636,-0.081720,-0.091403,0.095418,0.010075,
-0.505538,-0.360361,-0.203734,0.174693,0.169453,0.065338,0.035137,-0.012497,
-0.128815,-0.266528,0.128945,0.168812,-0.032398,0.037749,-0.044114,-0.011952,
0.241691,0.269154,-0.071783,-0.036470,-0.092725,0.088031,-0.048599,-0.043709,
-0.118206,-0.101059,-0.198158,0.040163,0.103550,-0.004776,-0.030286,-0.028318,
0.046598,0.016816,0.017716,-0.028327,0.122062,-0.018156,-0.015606,-0.027831,
-0.203555,-0.088246,0.015502,0.020552,-0.022875,-0.024468,-0.015740,0.002251,
-0.063814,0.003805,-0.008183,0.031957,-0.004109,0.015506,0.012670,-0.011481}
,
{
-0.535826,-0.258217,0.075813,-0.168041,-0.005255,0.186449,0.044034,0.000318,
0.112439,-0.293376,-0.282679,-0.030702,-0.163680,-0.009806,0.003779,-0.039237,
0.431174,0.539636,0.198740,-0.133137,0.121294,0.046939,0.002300,-0.060087,
-0.281561,-0.116610,-0.036110,0.067487,0.159857,0.017950,-0.023005,0.026964,
0.129167,0.039949,0.141259,-0.040726,-0.053897,0.043016,0.019505,0.026432,
-0.015161,-0.062225,-0.034102,0.006678,-0.038841,0.065928,0.049360,-0.005541,
0.014413,0.118094,-0.092350,-0.040568,-0.032036,-0.026904,-0.064931,-0.030337,
-0.092007,-0.002195,-0.013966,0.003189,-0.042376,-0.034036,0.015011,0.012027}
,
{
0.254402,0.222737,0.393664,-0.284255,-0.190614,-0.138273,0.011108,0.014380,
-0.341616,-0.399923,0.583287,-0.350757,0.047120,0.024170,-0.017031,-0.054624,
-0.418623,0.046190,-0.147615,-0.197206,-0.006348,-0.035157,-0.050161,0.048487,
-0.242503,0.115848,-0.124250,0.006713,0.004661,-0.107302,-0.002631,-0.033364,
-0.273797,0.089444,0.136693,-0.019997,0.001139,-0.019723,-0.021455,0.015411,
0.060082,-0.021307,0.006158,0.005784,0.051577,-0.024088,-0.040463,0.005343,
0.110120,0.154648,0.023566,-0.002684,-0.109946,-0.043331,0.030578,0.031309,
0.040425,-0.010573,-0.035555,0.017231,-0.032620,0.035735,0.036196,0.010264}
,
{
0.153011,-0.075235,-0.032981,-0.000007,0.004051,-0.001094,0.003702,-0.013957,
0.027554,-0.000885,-0.024267,-0.009629,-0.005268,-0.028362,-0.004766,-0.011068,
0.042874,-0.010123,0.027066,-0.006089,-0.006652,0.011939,-0.003357,-0.001493,
0.053501,-0.003586,0.000359,0.000046,0.019993,0.011429,-0.006098,0.011681,
0.036560,-0.004890,-0.026677,0.013896,-0.002435,-0.003685,-0.000073,0.003558,
-0.022440,0.008185,-0.001870,-0.015539,0.002747,-0.010614,-0.000806,-0.001334,
0.025597,-0.007840,0.008707,-0.001338,0.014428,-0.002342,-0.002111,-0.001150,
-0.001757,-0.006156,0.002605,-0.002761,-0.004041,0.004323,0.000571,-0.007459}
,
{
-0.008120,-0.010675,0.027579,0.024674,0.011463,0.006646,-0.014691,0.010985,
0.052220,0.061541,-0.039664,0.011012,-0.022873,0.001758,-0.010283,-0.024523,
0.043572,0.013457,0.032106,0.005111,-0.000133,-0.014498,-0.014206,0.009612,
0.067235,0.002579,-0.024573,-0.012805,0.021497,-0.009025,-0.004904,-0.011217,
-0.006822,0.010251,-0.040307,0.006224,-0.001924,-0.010454,0.027056,0.023052,
0.032721,-0.014660,-0.028428,0.008791,0.014157,0.014777,0.006394,0.006295,
0.027190,-0.005856,-0.005692,0.025560,0.011783,-0.002790,-0.021552,0.011953,
-0.017990,0.008898,0.028727,-0.008187,0.014054,0.002074,0.013171,0.009708}
,
{
0.029840,-0.045446,-0.106793,0.010822,-0.089223,-0.002018,0.000175,0.001612,
-0.134763,0.077838,0.003904,0.030756,0.030718,0.025464,0.010016,0.012291,
0.030365,-0.070570,-0.001170,-0.011087,0.013710,-0.014404,0.000677,-0.022171,
0.018458,-0.032965,0.001261,-0.032152,-0.021201,-0.008491,-0.015780,-0.002177,
-0.086629,0.021221,-0.014034,0.018696,-0.065880,-0.002153,0.002043,-0.004593,
-0.014159,0.033175,0.001063,0.004918,0.015200,0.023456,0.011651,-0.009297,
-0.040652,0.004840,0.000066,0.024662,0.030906,-0.003996,-0.002693,-0.003865,
0.022025,-0.010476,-0.004552,-0.000247,0.012000,-0.005714,0.014903,-0.004468}
,
{
0.009554,0.229653,0.017336,0.049768,0.078757,0.038759,0.014855,-0.011647,
-0.055736,0.057976,-0.221782,-0.008478,-0.044218,-0.056436,-0.037846,-0.016437,
0.011204,-0.002232,0.162212,-0.121938,-0.062952,0.020193,0.018964,-0.004190,
0.044596,0.082475,-0.005958,-0.089581,0.039828,0.005457,-0.033791,-0.005125,
-0.020236,-0.041048,0.056040,0.067203,-0.004040,-0.032277,0.047682,-0.003599,
-0.042184,-0.056634,0.026518,0.003238,0.001279,0.031174,0.010316,0.026473,
-0.051183,-0.073056,-0.024133,-0.037772,-0.032577,0.023048,-0.028052,0.009197,
0.054901,-0.035926,0.009550,0.031694,0.041756,-0.022680,-0.000995,-0.006221}
,
{
0.252449,-0.167252,-0.013101,-0.026005,-0.032391,-0.198626,0.025736,-0.018504,
0.320709,-0.360224,0.047329,-0.068727,0.029076,0.157006,0.042176,0.036012,
-0.142545,-0.021868,0.134000,-0.015622,0.016259,-0.084709,0.018789,0.043442,
-0.152567,-0.030170,0.051971,-0.167084,0.007781,0.083756,0.026857,0.007313,
-0.048924,-0.033086,0.003640,-0.007779,-0.003077,-0.027704,0.049120,0.021577,
-0.020555,0.016011,-0.090701,-0.005302,-0.033724,-0.021101,0.023251,0.046758,
0.075064,-0.040667,-0.048845,0.026967,0.032046,-0.001053,0.016181,-0.027851,
-0.004752,-0.024493,0.006712,0.027121,0.004409,-0.050019,0.001266,-0.026492}
,
{
0.219406,-0.005689,-0.024286,-0.063293,-0.020363,-0.097690,0.115964,-0.016228,
0.293199,-0.109759,0.311595,0.104176,-0.005099,-0.036223,0.019615,0.028110,
0.079762,0.088433,-0.133716,-0.207571,-0.005265,-0.097644,0.023216,-0.027466,
0.223942,-0.127572,0.115104,-0.124605,0.002164,0.026300,0.033258,-0.000074,
0.073627,0.084864,0.012343,0.145797,0.049262,0.011093,0.027327,-0.001140,
0.067096,0.016055,0.013289,-0.054631,-0.062933,-0.008911,0.000611,-0.002251,
0.070311,0.098833,0.102772,0.048327,-0.009597,-0.021138,-0.018587,0.014106,
0.103955,0.063009,-0.020911,0.050864,0.001924,-0.013295,0.032769,-0.030347}
,
{
-0.167851,-0.220012,-0.390872,0.033421,0.122175,0.011658,0.044070,0.028454,
-0.244328,0.013046,0.074404,0.017725,-0.028178,-0.022859,0.031261,0.025553,
-0.020554,0.192416,-0.055393,-0.099136,-0.076052,-0.081882,0.013848,-0.037391,
0.141346,-0.128737,-0.136081,-0.029371,0.041170,0.065749,-0.030706,-0.036071,
0.064753,-0.096438,0.050608,0.011758,0.076750,0.007249,0.008804,-0.006528,
0.008556,0.069974,-0.016172,0.031206,0.024776,-0.024103,-0.011014,-0.040251,
0.051321,0.067823,0.026098,0.040499,-0.067489,0.003113,0.014670,0.026166,
-0.027806,0.049782,-0.019161,0.003034,-0.021767,0.046419,0.055784,0.021420}
,
{
0.566655,-0.015859,0.110351,0.052910,0.014465,0.035203,-0.015154,0.094685,
-0.106478,0.086362,0.032901,-0.031259,0.047338,-0.042003,-0.006084,0.017516,
-0.286271,0.136837,-0.217678,-0.141685,-0.033191,-0.074818,-0.014174,-0.007621,
0.371036,-0.020281,0.016344,-0.029665,-0.006266,0.043241,-0.038782,-0.004790,
0.137424,0.005115,0.000800,-0.039720,0.039631,0.001635,0.005790,-0.024189,
-0.023633,0.040730,-0.047879,0.012006,0.004751,-0.029995,0.004782,0.014957,
-0.046509,-0.066924,0.004095,-0.069373,-0.049153,0.032520,0.023237,-0.033708,
-0.018784,0.033285,-0.011619,0.000744,0.002799,0.025825,-0.022950,0.019064}
,
{
0.813188,-0.007898,-0.019920,-0.002459,-0.012826,-0.001882,-0.004437,-0.000724,
0.080941,0.001065,-0.007296,0.000243,0.000411,-0.000282,0.000052,-0.000982,
0.031368,0.004755,-0.001068,0.001298,-0.000204,-0.000501,0.000018,0.000145,
0.031075,0.002569,0.000443,0.001266,-0.001100,-0.000229,-0.000584,0.000825,
0.011396,-0.000851,0.001919,-0.000368,0.000931,0.001186,-0.000492,-0.000246,
0.008853,0.001192,-0.000628,0.000542,0.000756,-0.000487,0.000991,-0.000248,
0.003616,0.002091,-0.001475,0.000114,-0.000709,-0.000222,0.000281,-0.000019,
0.002082,-0.000063,-0.000464,0.000611,0.000886,0.000417,0.000468,0.000002}
,
{
0.581103,0.838214,0.029854,0.067395,-0.002186,0.010744,0.005292,0.001701,
-0.054371,0.112103,-0.001908,0.004622,-0.003090,0.000135,-0.000228,0.000456,
-0.053984,0.050185,0.007334,0.000672,0.000950,-0.002658,-0.004390,0.000996,
-0.041140,0.035606,0.008792,-0.001388,-0.000746,0.001161,-0.002460,0.003988,
-0.024014,0.009055,0.000281,-0.000680,-0.000261,-0.003919,0.000071,-0.000269,
-0.016869,0.009174,0.004635,0.003581,0.006513,0.001801,0.000943,-0.000330,
-0.008854,0.001238,-0.000710,0.000849,0.000115,0.000336,0.000970,0.001278,
0.003531,0.006050,-0.000968,-0.003383,0.001054,0.000430,0.000042,-0.000261}
,
{
0.678727,0.008131,0.736212,0.002775,0.018120,-0.001513,0.007633,-0.005998,
-0.034133,-0.012207,0.134100,0.009956,-0.000994,-0.001490,0.000647,-0.000505,
-0.071096,-0.006680,0.048774,0.000897,0.001906,0.003550,-0.004632,-0.000826,
-0.065350,-0.002179,0.036760,0.003297,0.002820,0.000510,-0.002146,-0.000253,
-0.036802,0.001652,0.023403,-0.001262,-0.000176,-0.001043,-0.002150,0.000857,
-0.006086,-0.007739,0.010782,0.001491,-0.002325,-0.001027,-0.001611,-0.001216,
-0.020156,0.001912,0.008908,0.002124,-0.003425,0.003577,-0.000987,-0.001269,
-0.005324,-0.008995,0.002321,-0.000396,-0.000314,0.003595,0.002155,0.000768}
,
{
0.580356,0.041494,0.039671,0.641552,-0.018838,0.017001,-0.006593,0.010631,
-0.080605,-0.026059,0.003896,0.111492,0.016429,-0.003471,0.005153,-0.007966,
-0.100125,-0.008162,-0.014339,0.031914,0.003978,-0.010418,0.005951,0.004564,
-0.075510,-0.011691,-0.001541,0.046960,0.005819,-0.007601,0.004137,0.003126,
-0.043295,-0.004934,0.006963,0.021750,0.004762,0.006305,-0.000478,-0.008367,
-0.019555,-0.005965,0.007219,0.007366,0.003005,0.000040,-0.006388,0.000412,
-0.012679,-0.008191,-0.002392,0.000248,0.001496,0.000541,0.002570,-0.002351,
0.003127,0.002217,-0.000696,0.000005,-0.001233,-0.001937,-0.000092,0.001621}
,
{
0.665802,0.026505,0.038437,0.046030,0.576667,0.002195,-0.008068,-0.010217,
-0.033888,0.011438,0.012998,-0.003086,0.100490,0.009363,0.001950,-0.008118,
-0.086531,0.010543,-0.011820,-0.016439,0.032823,0.004322,0.004260,-0.002319,
-0.078374,0.011571,0.000960,-0.014234,0.027266,0.003162,0.007589,-0.002981,
-0.075348,0.003403,-0.009644,-0.007464,0.014104,0.003183,-0.000848,0.001709,
-0.022982,0.003369,-0.010066,-0.002340,0.000881,-0.004307,-0.006516,-0.004808,
-0.020747,-0.004754,0.002888,0.001062,-0.001381,-0.004053,-0.002526,-0.001077,
-0.011465,-0.008272,0.001448,0.001770,0.001399,0.000075,0.001850,0.002129}
,
{
0.514389,0.015061,0.024227,0.048543,0.036695,0.459877,-0.018032,0.003813,
-0.056640,-0.011982,0.023010,-0.005826,-0.017045,0.108703,-0.025652,0.001665,
-0.085052,-0.008193,0.003626,-0.003849,0.015853,0.034008,0.001506,0.008914,
-0.076514,-0.018017,-0.008659,-0.005106,-0.004573,0.011151,0.005624,0.003063,
-0.048503,0.002707,0.010048,-0.010905,-0.002237,0.006258,-0.000597,0.009037,
-0.014046,0.003557,0.003222,-0.004067,-0.000893,0.008760,0.001514,0.003360,
-0.016404,-0.005211,-0.002458,0.005960,-0.006128,0.001608,-0.003409,-0.007779,
0.002386,-0.004791,0.004442,0.003051,-0.004468,0.000242,-0.002762,0.003898}
,
{
0.517300,0.027291,0.029056,0.018657,0.065532,0.010178,0.411739,0.002297,
-0.129051,-0.007341,-0.003570,-0.047230,-0.017958,0.004613,0.089600,0.014719,
-0.093201,0.005711,-0.002246,-0.004955,0.001869,-0.011190,0.034450,-0.000249,
-0.072543,-0.011082,-0.005840,0.008055,-0.012758,-0.003445,0.010166,-0.000526,
-0.036394,0.020458,0.009706,0.019632,-0.004404,-0.005585,0.007259,-0.003909,
-0.035124,0.007864,0.007714,-0.006812,0.001981,0.008521,0.012073,0.005650,
-0.009247,-0.013317,-0.001555,-0.000978,0.014597,0.001102,0.000243,0.006163,
-0.000405,0.002726,-0.000504,0.000574,-0.001318,-0.007416,-0.002750,-0.000081}
,
{
0.182645,-0.030743,-0.059262,0.056127,0.037341,-0.033045,0.026710,0.410876,
-0.091087,0.001499,-0.009573,-0.010869,0.002439,-0.007816,-0.010878,0.109132,
-0.024175,0.024622,0.035754,0.012758,-0.011277,-0.014884,0.010328,0.022293,
0.007011,-0.006269,0.005531,-0.028346,0.007278,0.002998,-0.014445,0.005301,
-0.005306,-0.012616,0.003529,-0.001363,-0.006707,-0.018785,-0.013370,0.006676,
-0.005045,-0.010582,0.006272,-0.000625,-0.008401,-0.014613,-0.001891,-0.001592,
-0.008042,-0.008338,0.002878,-0.002317,0.001380,0.000039,-0.003498,-0.005136,
0.003789,-0.006718,-0.011434,-0.000029,0.003719,0.004313,0.002229,0.002558}
,
{
-0.723480,0.049425,0.088683,0.017892,0.046741,0.005721,0.014013,0.002797,
-0.222054,0.001746,0.021731,0.003612,0.009199,-0.005829,0.002360,-0.000166,
-0.107290,-0.016670,0.012542,-0.003586,0.008721,-0.001366,-0.004986,-0.003543,
-0.089465,0.002468,-0.006730,0.000675,0.003250,-0.000862,0.001508,-0.001073,
-0.052728,-0.000757,-0.009108,-0.003596,-0.002118,-0.002349,-0.000994,-0.003036,
-0.027422,0.000728,0.000686,0.000217,-0.000446,-0.001070,-0.000276,-0.002664,
-0.009696,-0.006035,-0.003241,-0.000827,-0.002890,0.001125,-0.002157,-0.001464,
-0.002973,0.001635,-0.001294,-0.003192,-0.000726,0.000966,0.000463,-0.000095}
,
{
-0.284623,-0.903183,-0.034831,-0.007296,0.001089,0.010698,-0.000469,0.006251,
-0.107460,-0.228601,-0.007959,-0.004766,-0.001108,0.017699,-0.001385,0.000367,
-0.007254,-0.110724,-0.000203,-0.009357,0.006836,0.008664,0.001141,0.003638,
-0.014326,-0.091152,0.002196,0.002590,-0.001310,0.001599,-0.000346,-0.008294,
-0.003351,-0.030282,-0.006554,-0.008376,-0.001376,0.001462,0.003223,0.002112,
0.000798,-0.025104,0.001291,0.006014,-0.003808,0.003294,0.004959,0.004692,
0.002519,-0.007826,0.002427,0.001039,-0.001531,-0.003219,-0.002253,-0.000511,
-0.001525,-0.001062,0.004197,0.001321,-0.001465,0.000021,-0.002616,0.000504}
,
{
-0.288049,0.049904,-0.739310,-0.016143,0.016437,0.000742,0.006730,0.000675,
-0.112557,0.014279,-0.210655,-0.026870,0.002920,-0.013586,-0.006932,0.005166,
-0.036826,-0.009659,-0.108727,-0.002126,0.013497,0.008340,0.007793,0.007192,
0.018822,-0.002158,-0.104266,0.006051,-0.001420,0.002438,0.015012,0.001915,
-0.007780,-0.008347,-0.047054,-0.000690,-0.000450,0.013643,0.006251,0.004476,
0.004396,-0.005173,-0.030747,0.012319,0.005829,0.003229,0.002640,0.001463,
0.008918,-0.001957,-0.005486,0.006441,-0.001534,-0.001538,-0.002130,0.001597,
-0.000926,-0.007013,-0.004237,0.001884,0.003155,-0.002795,0.000805,-0.006395}
,
{
-0.202032,0.086913,0.013511,-0.559507,-0.023610,0.014293,-0.009203,-0.014902,
-0.103959,0.025065,0.009568,-0.155953,-0.009433,-0.022161,-0.004484,-0.004545,
0.015321,-0.009409,-0.019796,-0.091959,0.010004,0.014946,-0.010667,0.002755,
0.010569,0.011347,0.000049,-0.076982,0.004355,-0.002694,-0.007451,-0.001982,
0.009388,0.008103,-0.014486,-0.031764,-0.003888,-0.001975,-0.004728,-0.000563,
0.006938,-0.004092,-0.009433,-0.027015,-0.009872,-0.003877,0.002660,0.004680,
-0.013929,0.008381,-0.001232,-0.016749,-0.004660,0.004285,-0.004039,-0.002574,
0.008368,-0.001312,0.000831,0.004281,-0.000805,0.001480,-0.007089,-0.000868}
,
{
-0.208026,-0.014182,-0.032591,0.003940,-0.382879,0.033366,0.010671,0.014736,
-0.058808,-0.011668,0.011940,0.021703,-0.148705,-0.016807,0.014704,0.013688,
0.031094,0.031524,0.023680,-0.007163,-0.054169,0.012481,-0.011284,0.010288,
0.029013,-0.005824,0.024346,-0.017375,-0.050902,0.002043,-0.001168,0.001671,
0.023922,-0.007264,0.005226,0.004080,-0.019253,0.001142,-0.002694,0.001297,
0.003433,0.002470,0.022737,-0.008614,-0.022400,-0.000398,0.004710,0.003377,
0.014996,0.003134,-0.014604,-0.005441,0.001368,-0.002189,-0.002035,-0.003371,
0.016673,0.001860,-0.002610,0.000070,-0.001419,-0.002316,-0.002270,0.005095}
,
{
-0.177827,0.085959,0.022800,-0.028109,0.003472,-0.385342,-0.013185,0.031732,
-0.011818,0.034581,0.000727,-0.020681,0.024478,-0.143047,-0.029096,-0.002553,
0.053735,-0.037937,-0.015643,0.045027,-0.003910,-0.040234,-0.015496,-0.006036,
0.037527,0.029934,-0.022772,0.012372,0.001796,-0.054038,-0.006875,0.002107,
0.032056,0.000725,0.015690,0.012773,-0.023166,-0.003865,0.003069,-0.011346,
0.020058,0.005446,0.010427,0.009547,0.001098,-0.001153,-0.010411,-0.005485,
0.038002,-0.024125,-0.001359,0.009091,0.012513,-0.006598,-0.002901,0.005170,
-0.028631,-0.002533,-0.000048,-0.000839,0.003934,0.000722,0.001043,0.013950}
,
{
-0.080680,-0.086544,0.073304,0.042064,-0.068390,-0.028192,-0.379903,-0.004710,
-0.026501,0.034555,0.044153,-0.008839,0.006504,0.024051,-0.165779,-0.027224,
0.018492,0.001066,-0.024361,-0.008765,-0.001783,0.003595,-0.047130,-0.006511,
0.001256,-0.014264,-0.013755,-0.009889,0.013148,-0.001524,-0.031944,-0.013559,
-0.005867,-0.019187,-0.007795,0.004953,0.013906,0.015082,-0.011847,0.001940,
0.024241,-0.013293,0.030178,0.002073,-0.005715,0.010089,-0.011987,-0.009289,
0.014438,0.000604,0.009735,0.016826,-0.021405,0.007914,-0.001776,-0.002223,
-0.006181,-0.006633,0.006285,0.004860,0.006920,0.003100,0.003313,0.004567}
,
{
0.073510,0.139426,-0.023899,0.125576,0.036295,-0.031556,0.028420,-0.306437,
-0.044702,0.041579,0.045067,0.038928,-0.013527,0.012597,-0.003832,-0.198203,
-0.060558,-0.030537,0.002982,0.001393,-0.041613,0.001936,0.002961,-0.016548,
-0.038449,-0.021556,0.031913,0.017749,-0.018875,0.001955,-0.026408,-0.025050,
-0.048833,0.000835,-0.045550,0.022091,0.019876,-0.018029,-0.012468,-0.003718,
-0.003001,0.009394,0.001346,-0.025930,0.011876,-0.013954,-0.000700,0.004308,
0.016005,0.006763,0.007006,0.010138,0.016482,-0.000817,0.002537,0.005769,
-0.013620,-0.019059,-0.016390,0.010064,0.005724,0.001094,0.002006,0.003884}
,
{
0.769179,-0.038871,-0.100398,-0.012734,-0.040542,-0.005724,-0.014459,0.002136,
0.198634,-0.021822,-0.026676,-0.025576,-0.028915,-0.001360,0.001905,-0.002716,
0.114497,0.000377,-0.011194,-0.002045,-0.015985,0.005676,-0.005819,0.000757,
0.098958,0.003507,0.011637,-0.008086,-0.002820,0.007785,0.005891,0.000048,
0.040972,0.002081,0.011321,-0.002614,0.001961,-0.002826,-0.007502,-0.001137,
0.027991,0.006974,-0.000125,0.005110,-0.002902,0.000563,0.001044,0.001556,
0.017279,0.006342,0.001790,-0.000739,0.006961,-0.003175,0.000626,-0.001221,
0.011665,0.000856,-0.003517,-0.006670,-0.002714,-0.004406,-0.001256,-0.002056}
,
{
0.310171,0.936466,0.045680,-0.015891,0.012101,0.010270,0.000687,-0.011310,
0.023623,0.210360,0.019019,-0.029953,0.002946,-0.007573,0.001001,0.007203,
0.007074,0.109405,-0.005075,0.005183,0.002474,0.012829,0.000494,-0.008436,
-0.002064,0.062131,0.006163,-0.000877,-0.004420,0.006628,-0.000155,-0.000993,
-0.011717,0.019591,0.008678,0.016460,-0.000747,-0.002246,0.001748,-0.005260,
0.003422,0.028705,0.011263,0.006184,-0.003322,-0.004845,-0.001206,-0.006389,
0.002200,0.007175,0.000750,-0.003567,0.000212,0.005963,-0.002046,0.008099,
0.001387,-0.000470,0.000381,0.006174,0.000470,0.003638,0.001695,0.000939}
,
{
0.276296,-0.018534,0.742116,0.027881,0.000982,-0.005637,0.000664,0.008612,
0.068139,-0.024114,0.214554,0.013209,-0.006828,-0.003162,0.010700,-0.004070,
-0.014216,0.004076,0.124718,-0.007968,-0.004491,0.000052,0.003486,0.011177,
-0.012179,0.012561,0.100027,0.008813,-0.009191,-0.002624,-0.007390,-0.005290,
-0.003883,0.001932,0.045252,0.011655,-0.010308,-0.005144,-0.003965,-0.002974,
0.020665,0.000820,0.032490,-0.004746,0.003287,0.000883,-0.003509,-0.008098,
0.003035,-0.002429,0.000301,0.000761,0.001945,0.000532,-0.000012,-0.001784,
-0.008912,-0.004689,-0.001109,0.006677,0.002545,-0.000072,-0.001653,0.000866}
,
{
0.196863,-0.125195,0.016307,0.485373,0.016867,0.000129,0.001065,0.001451,
0.052140,-0.058148,-0.023064,0.148010,0.019214,-0.000118,0.002234,-0.007444,
-0.000953,0.017116,0.030011,0.084476,-0.020816,0.024046,-0.002524,0.011456,
-0.037624,-0.026924,-0.008915,0.076856,0.022401,0.010535,-0.008310,-0.005346,
-0.000123,-0.000704,0.007495,0.044173,0.019429,-0.007271,-0.001849,0.014896,
-0.020957,0.000256,-0.000078,0.005556,-0.011265,-0.000672,0.005121,-0.002397,
-0.002451,0.006026,-0.004687,-0.000621,-0.000237,-0.015376,0.001403,-0.015084,
-0.000177,0.010658,-0.002015,0.012602,0.003791,-0.005556,-0.002918,-0.004528}
,
{
0.179760,0.010776,-0.011355,0.006799,0.358076,0.006919,0.009947,-0.007121,
-0.042415,-0.005445,-0.004062,-0.024928,0.124220,0.020932,-0.008558,0.008582,
-0.016351,0.037580,-0.017795,0.005561,0.070432,-0.018013,-0.003067,-0.005766,
-0.027869,0.001549,0.003661,0.000443,0.056847,0.013895,0.005037,0.006670,
-0.057061,-0.000755,-0.006759,0.006657,0.026081,0.001532,0.012915,-0.005683,
-0.026389,-0.012643,-0.011458,-0.001321,0.014467,-0.002270,0.003505,-0.013403,
0.000067,0.004045,0.008066,-0.002173,-0.009394,-0.004954,-0.000058,0.000317,
-0.006864,-0.013301,-0.004617,-0.001252,0.000624,0.008847,-0.007334,-0.003999}
,
{
0.139203,-0.013089,0.026407,0.042906,-0.006467,0.315689,0.015670,0.001734,
-0.029037,-0.096980,0.016530,0.014407,-0.033429,0.086803,0.018185,-0.024581,
0.017936,0.037065,-0.049906,0.017520,0.009249,0.044582,-0.012556,-0.000654,
-0.040515,-0.018302,0.012472,-0.033576,0.020946,0.033489,-0.025063,0.002818,
-0.014318,0.016074,-0.005780,-0.029151,-0.015671,0.023831,0.003759,0.010561,
-0.008115,0.003397,-0.003789,-0.028581,-0.000580,0.038733,0.028364,0.014035,
-0.010818,-0.020199,0.020836,-0.015484,-0.014976,0.003465,-0.009578,-0.020724,
0.001401,-0.009559,-0.002656,0.007706,-0.015880,0.016187,-0.007518,0.005878}
,
{
-0.003551,0.023012,-0.104292,-0.065021,0.020521,-0.096727,0.263024,-0.009232,
0.078094,0.066189,-0.083206,-0.076962,0.025889,0.020196,0.105291,0.030886,
0.029235,-0.046713,0.056663,0.013362,-0.011796,0.010411,0.047051,-0.018724,
-0.009621,-0.016763,-0.018172,0.037779,0.015960,-0.009340,0.025532,0.013681,
0.040586,-0.027936,-0.014755,0.002045,-0.014614,0.015431,0.004220,-0.011029,
-0.030514,-0.011587,-0.002713,0.021551,0.015384,-0.021954,0.025211,-0.003865,
-0.003014,-0.005378,0.004329,-0.003908,0.003173,-0.012869,0.024819,-0.014420,
-0.033625,0.007937,0.000393,0.000254,0.014305,0.018915,-0.017737,-0.005654}
,
{
-0.048060,-0.128733,-0.024493,0.047852,-0.050236,-0.006949,0.036933,0.345447,
-0.119762,0.048900,0.050840,-0.000441,0.002727,-0.007999,-0.045521,0.153079,
-0.010661,0.023377,0.006841,-0.007559,0.003292,-0.006706,0.013699,-0.000661,
-0.056079,0.008527,0.030092,0.022450,0.016596,0.005515,-0.009486,0.006677,
0.012438,0.038502,0.034461,-0.015627,-0.011898,0.006125,-0.027011,0.013456,
-0.041226,-0.025847,-0.010298,0.024663,0.029134,0.008493,0.013088,-0.006193,
0.016895,-0.018370,-0.003420,0.016382,0.008747,-0.023804,-0.010713,-0.021944,
0.012656,0.016850,-0.010777,-0.019993,0.004437,-0.007733,-0.010795,-0.011418}
,
{
-0.749210,0.077651,0.147250,0.031336,0.063209,0.016161,0.017247,-0.004652,
-0.197633,0.002959,0.067879,0.016008,0.029910,0.001568,0.002127,0.004971,
-0.132990,-0.016217,-0.019827,0.008170,-0.000238,0.000275,0.003677,0.002021,
-0.122294,0.000443,-0.005277,0.010830,0.007176,-0.003576,0.002806,-0.004564,
-0.057620,0.000037,-0.015267,-0.009932,0.004393,0.000388,0.002013,-0.000604,
-0.034516,0.005233,0.004534,-0.003756,0.001464,-0.002775,-0.000028,-0.000702,
-0.009776,-0.002857,0.001116,-0.000737,0.005898,0.000113,-0.000158,-0.000450,
-0.007200,-0.005876,-0.010843,-0.000863,-0.001359,0.000799,-0.002111,0.001213}
,
{
-0.194987,-0.971424,-0.038588,0.028513,-0.031718,0.035569,-0.009820,0.002095,
-0.048719,-0.270484,-0.002019,0.014205,0.007170,0.007785,0.016237,-0.001744,
0.004131,-0.123743,-0.028202,-0.000870,0.003348,0.003368,-0.001466,0.008695,
-0.026195,-0.086076,-0.017959,0.010327,-0.005390,0.010425,-0.007975,0.008109,
-0.015939,-0.046520,0.009991,0.005324,0.007701,0.017002,0.007355,0.004637,
-0.002057,-0.021865,-0.003434,-0.009575,0.008168,0.002027,0.000949,-0.007358,
0.010193,-0.006433,-0.000026,-0.010714,-0.000519,-0.000251,0.003800,-0.003643,
0.012244,0.001869,-0.001981,0.005616,0.002705,0.002127,-0.001816,0.001080}
,
{
-0.128772,0.068458,-0.719733,-0.004597,0.024828,0.009173,0.011911,0.003195,
-0.022563,-0.021122,-0.217594,-0.002752,0.012858,0.000941,0.003204,0.002735,
-0.029029,-0.015634,-0.098425,-0.010685,-0.001875,-0.001594,-0.004990,0.000105,
-0.029189,-0.007175,-0.113201,-0.008367,0.014783,-0.007363,0.004166,0.003056,
0.012381,-0.007428,-0.050079,0.011469,-0.000097,-0.016422,0.004574,-0.004035,
-0.019916,-0.010368,-0.030173,-0.007624,-0.004060,0.001734,-0.004086,0.000364,
0.006679,-0.005308,-0.012719,0.005062,-0.002088,0.003774,-0.004258,0.002823,
0.014543,-0.000485,0.000016,0.004868,-0.004404,-0.003585,0.002950,0.002882}
,
{
-0.066036,0.128665,-0.009984,-0.455502,-0.011701,-0.011336,-0.000539,0.007308,
-0.028433,0.043844,-0.004108,-0.152596,-0.015921,0.011960,0.007844,0.007560,
0.042031,0.059758,0.021144,-0.137925,-0.008483,0.013068,0.000081,0.004314,
-0.000597,0.009909,0.000151,-0.092788,-0.001924,-0.001425,-0.002523,-0.001654,
0.006701,0.008287,-0.018009,-0.062040,0.008127,0.002524,-0.004251,-0.004577,
0.004516,0.004962,-0.001877,-0.022576,-0.010804,0.006306,0.003756,-0.002209,
0.008815,0.006026,-0.002958,-0.005528,0.002937,-0.000184,0.000506,-0.002071,
0.003147,-0.016266,0.003888,0.000795,-0.003495,-0.002671,-0.008452,0.003785}
,
{
0.006309,0.019959,0.088592,0.088816,-0.239065,0.016267,0.011720,-0.027733,
0.082329,0.045180,0.075896,0.016861,-0.135755,0.011032,0.011056,-0.004968,
0.051339,-0.000290,-0.022185,0.036545,-0.080494,-0.001101,-0.000631,0.000239,
0.017293,0.003968,0.021667,0.035961,-0.073780,-0.005619,-0.012482,-0.012651,
0.023295,-0.004378,-0.014843,-0.025229,-0.037754,0.005760,0.015334,0.012001,
0.000169,-0.017300,0.005788,0.007580,-0.036957,-0.013972,-0.000265,0.001015,
0.013744,0.011387,0.009635,0.008685,-0.008007,-0.009001,0.013163,-0.001518,
0.036819,0.010180,-0.001578,0.011720,0.002902,0.001319,-0.005016,0.007977}
,
{
0.083055,0.118219,0.013146,-0.061643,0.007174,-0.238902,-0.006651,-0.016718,
-0.084037,0.022688,-0.112647,0.055195,0.059868,-0.091639,0.018195,0.002814,
-0.019694,0.038080,-0.059771,0.018265,0.020597,-0.052630,-0.022126,0.008293,
0.067272,0.013484,0.029839,-0.016417,-0.017029,-0.058635,0.009381,0.019496,
0.043054,0.033454,0.003317,0.031315,-0.005272,-0.024549,0.004980,-0.000408,
0.016428,0.002645,-0.019561,0.043663,-0.014973,-0.007778,-0.004286,0.005337,
-0.007799,0.006358,-0.020278,0.001930,-0.003393,-0.011058,-0.002871,-0.001167,
-0.010580,-0.014006,0.003974,0.017831,-0.024231,-0.003446,-0.006605,-0.003894}
,
{
0.343692,-0.027015,0.011921,0.029728,-0.047046,-0.036653,-0.200721,-0.019180,
-0.058390,-0.043037,-0.078279,0.159273,0.006973,-0.021165,-0.079695,0.029187,
-0.026208,-0.005858,-0.037458,-0.027589,-0.013541,0.039011,-0.098198,-0.024441,
-0.051783,0.035124,0.012162,0.004338,0.011706,0.004444,-0.020564,-0.026343,
-0.086038,-0.013060,0.005941,0.057994,0.008000,0.015257,-0.007538,-0.009832,
-0.044207,0.005364,-0.009850,-0.041746,0.018884,-0.001558,-0.015766,-0.013201,
0.046580,0.015599,0.025202,-0.019715,0.020660,0.000824,0.000140,0.023477,
-0.021392,-0.001904,0.022286,0.006290,0.000078,0.023856,0.013993,0.030893}
,
{
0.193247,0.069659,-0.146407,-0.032969,-0.084256,0.007571,-0.036575,-0.187003,
0.133363,0.207257,0.035000,-0.107550,-0.000822,-0.015926,0.001381,-0.045834,
0.142152,0.032235,0.016326,-0.075450,-0.063785,0.054159,0.024547,-0.036043,
-0.084699,-0.076883,-0.028553,0.036690,0.041692,0.010350,-0.026823,-0.014828,
0.035420,0.020280,-0.010705,-0.054540,0.037438,0.004787,-0.021940,0.008091,
0.054372,-0.016844,-0.061104,0.052292,-0.039064,-0.022847,-0.018329,-0.005528,
0.054666,-0.002627,0.007077,-0.011582,0.004218,0.003377,-0.014793,-0.028647,
-0.004148,-0.013182,-0.037551,0.008002,0.004791,0.000287,-0.005829,0.012242}
,
{
0.896415,-0.083944,-0.163694,-0.055094,-0.093120,-0.010307,-0.017275,0.004329,
0.252604,-0.006778,-0.053064,-0.010208,-0.044584,0.004743,-0.004338,-0.008225,
0.165530,0.004268,-0.018967,-0.006204,-0.018674,0.001993,0.002972,-0.009744,
0.111540,0.003739,0.011165,-0.014215,-0.005276,-0.001951,-0.005116,0.000645,
0.041738,0.009844,0.003734,0.013057,-0.006823,0.008031,0.000947,-0.007494,
0.021151,0.016715,0.010839,-0.002203,0.006937,-0.000939,-0.003450,-0.000900,
-0.002056,0.007341,0.007109,-0.002333,0.002393,0.001864,0.003376,0.002791,
0.006362,0.001084,-0.001671,-0.000362,0.002482,0.000419,-0.000177,0.002728}
,
{
0.293790,1.047021,0.010472,-0.048815,0.006062,-0.018263,-0.006435,-0.019289,
0.101141,0.267254,0.025996,-0.017927,-0.004316,0.002837,-0.007955,-0.001262,
0.013791,0.123288,-0.010582,-0.007937,0.001294,-0.002580,0.000638,-0.001569,
0.026504,0.105263,0.003804,0.005820,0.001055,-0.009814,0.003139,0.001045,
0.032086,0.034202,-0.001513,0.017161,-0.015698,-0.013718,0.000439,0.002961,
0.006418,0.021228,-0.004173,-0.001444,0.006679,-0.008012,-0.012684,-0.008144,
-0.001141,-0.005395,0.006412,0.004738,0.004808,0.009310,-0.007586,0.008305,
0.005285,0.014047,0.004849,0.012300,-0.006987,-0.005839,0.009127,-0.004861}
,
{
0.243882,-0.068875,0.858384,0.000407,-0.029915,0.011229,0.006356,-0.021110,
0.038605,0.006738,0.239232,0.003653,-0.028519,-0.024500,-0.001190,0.011073,
0.014634,0.004778,0.117394,0.021741,-0.022944,0.008358,-0.027201,-0.001640,
-0.007324,0.007721,0.109958,0.000510,-0.040484,-0.013055,-0.004580,-0.006860,
0.006223,0.027827,0.042264,-0.018580,-0.006640,-0.009688,0.013825,-0.000517,
0.016025,-0.012507,0.012506,0.018319,0.006298,0.004230,-0.004935,0.008229,
0.009125,0.011351,0.010429,0.016639,0.004276,0.004228,0.010928,0.009704,
-0.002682,0.001500,-0.003474,0.003774,-0.004603,0.010332,-0.002749,0.004234}
,
{
0.039061,-0.124135,0.005301,0.549677,0.007185,-0.003567,-0.009529,0.018234,
0.014621,-0.084411,0.003795,0.190543,0.022189,0.002097,0.014177,-0.023642,
0.020930,-0.007819,0.002697,0.162462,0.007423,-0.015985,0.014435,0.000526,
-0.006924,-0.024781,-0.023186,0.111672,-0.009250,0.005111,0.005903,-0.004361,
0.008865,0.007163,0.011143,0.042010,0.013611,0.014784,0.001720,0.007866,
0.003889,-0.003398,-0.016648,0.034843,0.007282,0.002224,0.010818,0.002156,
0.023386,0.016594,-0.003611,0.015372,-0.005502,-0.001406,0.005248,-0.009204,
-0.020094,-0.008371,-0.015384,0.008149,-0.004856,0.001499,-0.008972,-0.004346}
,
{
0.085937,-0.029742,-0.134958,-0.064333,0.336703,0.004415,-0.005078,0.007065,
-0.024718,-0.074520,-0.024148,-0.048557,0.144144,-0.028990,-0.000529,0.006067,
-0.048719,-0.092043,-0.036787,-0.010592,0.084230,-0.022842,0.009605,-0.002779,
-0.069609,0.053346,-0.025966,-0.015159,0.098603,0.003041,0.000094,0.006942,
-0.067068,-0.000155,-0.024617,0.049254,0.075343,-0.018132,-0.018131,-0.000368,
0.019615,0.035305,-0.018186,-0.008517,0.026603,0.014830,-0.009589,-0.004296,
-0.032634,-0.025582,0.007308,0.002574,0.008686,0.008779,-0.009180,0.017982,
0.025980,-0.000343,-0.009325,0.017215,0.008272,0.003029,0.012657,0.006867}
,
{
-0.172801,-0.152809,-0.038448,0.010253,-0.038742,0.233425,0.065209,0.010709,
0.038479,-0.180164,-0.016951,0.044360,-0.020006,0.177281,0.039349,-0.014728,
-0.001165,0.001842,0.128821,-0.009472,-0.022152,0.048604,0.025858,-0.026811,
-0.059520,-0.041334,-0.007991,-0.002479,0.015815,0.015395,-0.010606,-0.008546,
0.025882,0.030574,0.082916,-0.063485,0.030320,-0.007880,-0.012752,-0.016570,
0.032168,-0.015901,0.002998,0.007011,-0.006900,0.011187,-0.019029,-0.013033,
0.012211,0.040896,-0.049355,-0.006621,0.013069,0.005866,-0.008402,0.015613,
-0.025885,-0.013111,0.008526,-0.016560,0.028502,-0.005696,0.010741,0.021495}
,
{
0.149155,-0.218633,0.086284,0.024593,0.117581,0.029350,0.080477,0.007984,
-0.083420,0.013756,-0.126066,-0.114453,0.010641,-0.098684,0.022775,-0.051400,
-0.073362,0.109063,0.043215,-0.112781,0.107219,-0.076765,-0.000059,0.001046,
-0.029542,-0.024535,-0.032176,0.037418,0.146190,-0.004138,0.042634,-0.038337,
-0.122406,0.101850,0.011976,0.072308,-0.072843,-0.008091,0.014471,0.009140,
0.043540,-0.114385,0.021397,-0.013380,-0.080618,0.022505,0.045097,-0.023248,
-0.039554,0.022242,0.055957,0.051175,-0.033529,0.001355,0.000484,0.005427,
-0.005014,-0.024517,0.035155,-0.027557,-0.024177,-0.003662,-0.029654,-0.015325}
,
{
-0.133220,0.377926,-0.223552,0.214259,0.171785,0.246537,0.033092,0.138453,
-0.108691,0.103467,0.051488,0.068744,-0.058402,0.086075,-0.042107,0.057516,
-0.243746,-0.205271,0.013916,0.006523,0.026178,0.002841,0.009934,0.045544,
-0.153988,-0.154248,0.038794,0.047290,-0.039074,-0.036296,-0.003506,0.015728,
-0.053796,-0.007301,-0.005877,-0.103800,-0.053394,0.036875,-0.002481,-0.003034,
-0.079832,0.049512,-0.014966,-0.024418,0.049489,-0.019700,0.013099,-0.018746,
0.003138,0.054612,0.030201,0.030660,-0.032040,0.029842,0.024983,0.000920,
-0.024758,0.037399,-0.011174,-0.047238,-0.039111,-0.007115,-0.026839,-0.018751}
,
{
-0.694734,0.114136,0.152529,0.056653,0.051724,0.010488,0.021384,0.004732,
-0.240914,0.001807,0.056271,0.008174,0.043738,0.006903,-0.000775,0.000927,
-0.142633,0.004333,-0.021518,-0.000354,0.013742,-0.002553,-0.002280,-0.001467,
-0.101083,-0.029125,-0.008328,-0.006608,-0.009083,0.004790,-0.004678,0.003274,
-0.026621,-0.009567,-0.014141,0.001635,-0.000859,-0.002298,0.003475,0.000143,
-0.026518,-0.008216,-0.001378,0.003670,-0.002790,-0.002591,-0.000841,0.004950,
-0.007022,0.005905,-0.002644,0.001393,0.005526,0.003664,-0.002178,-0.003368,
-0.010427,0.011224,0.007594,-0.002415,-0.003666,-0.000605,-0.010005,0.006798}
,
{
-0.207687,-0.974086,0.000832,0.048799,-0.008993,0.029834,-0.015113,-0.000945,
-0.056852,-0.250718,-0.035882,0.023216,-0.016476,0.007654,-0.002044,-0.023784,
0.006400,-0.113420,0.021526,-0.013879,0.018698,0.004731,-0.014189,-0.004453,
-0.026701,-0.114170,0.013606,-0.022855,-0.010469,0.008489,0.009537,0.003343,
0.011904,-0.041666,0.004139,-0.022922,0.015830,0.006773,-0.001934,0.001366,
-0.011749,-0.015797,0.014994,0.006020,-0.005516,0.002890,0.010366,-0.004496,
0.001094,-0.000832,-0.021858,-0.006152,0.005092,-0.003949,0.002091,0.001521,
-0.021406,-0.002164,-0.014860,-0.001559,-0.005755,0.011086,0.007405,0.008332}
,
{
-0.204623,0.125631,-0.685622,-0.004109,0.044502,0.004419,0.021474,-0.001379,
-0.016229,-0.087758,-0.278889,-0.006958,0.022233,-0.032157,0.000936,-0.003175,
-0.036198,-0.004356,-0.144379,-0.011108,0.027053,0.014867,0.014287,-0.007817,
-0.009249,0.035204,-0.096512,-0.011955,0.019087,-0.005182,0.009743,-0.011074,
0.003544,-0.020873,-0.033855,0.018586,-0.003553,-0.001520,-0.006126,0.001313,
0.013209,0.005069,-0.001907,0.003927,-0.010724,-0.005250,-0.010502,-0.017035,
0.000706,0.002991,-0.001144,0.004696,0.004425,0.005309,-0.000098,0.004234,
-0.000488,0.002381,-0.013077,0.005567,0.001303,-0.004358,-0.001816,0.000987}
,
{
-0.059435,0.096842,0.032189,-0.486659,-0.026997,0.044432,0.008488,-0.012774,
-0.057730,0.076032,0.022221,-0.232904,-0.016744,0.002303,-0.001711,0.010340,
0.016788,0.080905,0.047825,-0.152453,-0.010595,0.036361,0.006027,0.000751,
0.047806,0.022499,-0.020103,-0.091883,0.010179,0.010377,-0.009766,0.009829,
0.002562,-0.015219,0.003417,-0.047817,-0.002597,-0.020449,-0.012363,0.007244,
0.007126,0.007871,-0.013942,-0.028476,-0.000598,-0.009345,-0.009359,-0.019384,
-0.011952,-0.021050,0.016608,0.008913,0.003518,0.015486,0.000365,0.009326,
0.017221,0.024679,0.010597,-0.018275,0.003836,-0.002168,0.010013,-0.013977}
,
{
0.126442,0.097542,-0.065830,0.040986,-0.331998,-0.061217,-0.019246,-0.031020,
0.178005,-0.014019,-0.002403,0.008013,-0.168932,-0.035583,-0.009430,0.004084,
0.057004,-0.115352,-0.048048,0.002610,-0.090095,0.012111,0.017731,0.040079,
0.021644,0.084881,0.070103,-0.021867,-0.095070,-0.030789,0.013563,-0.025951,
-0.002970,-0.022427,0.042000,-0.010099,-0.074219,0.010224,0.016827,-0.010165,
-0.019462,0.019473,0.027975,-0.021048,-0.032987,-0.000533,0.000772,-0.017432,
0.014825,0.004563,0.031166,-0.016007,-0.018881,-0.006703,-0.017705,0.016838,
0.008112,0.010533,-0.007457,-0.004318,-0.023341,-0.027698,0.009609,0.004333}
,
{
0.005333,0.334857,-0.001566,0.135308,0.069446,-0.163455,0.027609,0.005249,
-0.083479,0.183557,-0.149436,0.046985,0.049884,-0.120998,0.045849,0.028096,
0.251647,0.129679,-0.224934,0.018149,0.026458,-0.109340,-0.015791,0.014364,
0.047778,-0.021831,0.130284,0.114828,0.007040,-0.077357,-0.009909,-0.018424,
0.058474,0.005873,0.083972,0.005520,-0.052632,-0.051174,-0.032235,0.007624,
0.037326,0.030561,0.054201,0.012686,0.000455,-0.049396,-0.007765,0.024863,
-0.008920,-0.044669,-0.006405,-0.006411,-0.007643,0.000532,0.024771,-0.001736,
-0.042999,-0.008804,0.023899,-0.044698,-0.029257,0.016514,-0.014264,0.007450}
,
{
-0.258163,-0.206902,-0.233219,0.018005,0.155837,0.074231,-0.157727,-0.012154,
0.208294,-0.305902,-0.024071,0.129481,-0.135516,-0.041474,-0.059881,-0.052716,
0.361839,-0.078515,-0.028006,0.180655,-0.136892,0.053730,0.043072,-0.046054,
0.007762,-0.048216,0.015751,0.105847,0.011650,0.003579,-0.033382,-0.006856,
-0.124107,-0.170624,-0.021928,-0.061028,0.026751,0.081896,-0.051780,-0.041925,
0.107841,0.067240,0.100540,-0.001186,0.008760,0.000419,0.006709,0.005973,
-0.046294,-0.005286,-0.043095,-0.077517,-0.001986,-0.042765,-0.011818,-0.005062,
-0.027247,-0.014681,0.033432,0.020186,0.043342,-0.010177,0.031586,0.020033}
,
{
0.059181,0.676074,0.226819,-0.214635,-0.003445,-0.012097,-0.010792,-0.047674,
0.450002,0.048433,-0.139745,-0.028332,-0.005388,-0.042111,0.034759,-0.144164,
0.835871,0.432100,0.202557,-0.095034,-0.114428,-0.031613,0.009485,-0.029165,
0.288664,-0.018453,-0.132175,0.013915,-0.071685,0.014313,-0.072076,-0.030524,
0.163443,-0.131034,-0.143700,0.099276,0.065836,-0.061485,-0.000694,-0.051677,
0.166139,-0.067208,0.036284,0.019596,-0.033449,0.066016,0.049328,0.006120,
0.020266,-0.067155,-0.017382,0.034565,0.087218,0.019889,-0.047644,0.025899,
-0.100380,-0.033733,-0.044720,0.030272,-0.000072,-0.023015,-0.020939,0.009111}
,
{
0.580126,-0.101642,-0.137259,-0.060366,-0.061031,0.009351,-0.022797,0.000178,
0.218179,-0.053339,-0.031344,0.002100,-0.026965,0.005000,0.002727,-0.002541,
0.101886,0.004836,0.013341,-0.017876,0.010097,-0.005364,-0.001897,-0.001607,
0.057718,0.015042,0.012653,0.001351,0.009388,0.000665,0.001629,-0.003370,
0.026758,0.012055,-0.006408,-0.011472,-0.004144,-0.002726,-0.003292,-0.003308,
0.021654,0.016581,0.011762,-0.010100,-0.003345,0.005968,-0.011344,-0.005059,
0.014378,0.008727,0.008182,-0.004619,0.001687,0.011281,-0.006632,0.003161,
-0.000504,0.010911,-0.009223,-0.008111,0.002605,-0.001040,0.006256,-0.000398}
,
{
0.179819,0.733354,-0.037821,-0.030589,0.022898,-0.013541,0.015527,0.007250,
-0.002298,0.193326,0.006179,-0.017879,-0.002068,-0.026959,-0.002911,0.010484,
0.062196,0.063707,-0.029387,-0.031434,-0.009918,-0.001648,-0.003615,-0.006982,
-0.002886,0.083138,-0.005759,0.001156,0.019925,0.001058,-0.003516,-0.002103,
0.004200,0.034865,-0.010773,-0.002636,-0.000239,-0.003636,-0.004756,0.003313,
0.001676,-0.027074,-0.000052,0.001997,-0.000183,0.016406,-0.001095,0.000869,
0.010056,0.007174,-0.003146,-0.009267,0.004320,-0.000134,-0.000922,-0.005417,
-0.008728,-0.007121,0.013944,-0.000621,-0.002549,0.007434,0.006715,0.000358}
,
{
0.068602,-0.007850,0.554962,0.024734,-0.010955,0.005667,-0.036499,0.004877,
-0.023555,-0.024442,0.226210,-0.015790,-0.003315,0.006899,0.009960,-0.001961,
0.041976,0.011739,0.160511,0.020674,-0.028283,0.019996,-0.020450,0.009845,
0.035570,-0.001389,0.059489,-0.010749,-0.009670,-0.001151,0.012597,-0.008442,
-0.023289,-0.016638,0.023292,-0.002885,-0.001454,-0.004046,-0.010618,0.018476,
0.003367,-0.021289,0.018902,0.016946,0.003421,-0.013999,-0.002962,0.002554,
-0.016426,0.006797,0.001956,0.006084,0.021317,0.008981,0.001357,-0.003364,
0.016156,-0.014130,0.005107,-0.015631,0.010385,-0.004916,-0.002760,-0.006202}
,
{
-0.052618,-0.247577,0.039826,0.419459,0.031338,-0.053059,-0.017636,-0.054076,
-0.125702,-0.027672,-0.060794,0.238883,0.059928,-0.077887,-0.023814,-0.006517,
-0.063306,-0.122887,-0.134729,0.050212,0.020534,0.017637,0.055756,0.016437,
0.035631,0.009075,-0.018219,0.019504,0.044455,-0.033085,0.023541,-0.023034,
0.030067,0.049533,-0.035509,0.036985,-0.012317,-0.015032,0.001898,-0.004178,
0.054117,-0.035450,0.042552,0.006050,-0.031818,-0.023145,-0.035416,0.010018,
0.034983,-0.003345,0.013550,0.032929,-0.013625,0.008094,-0.012946,0.021122,
0.004167,-0.015798,-0.002253,-0.029203,0.003786,-0.029168,0.014767,-0.010508}
,
{
-0.209052,-0.069269,-0.017004,0.048176,0.291535,-0.044441,-0.078373,-0.002836,
0.085125,0.038260,-0.088006,-0.001269,0.081613,-0.022429,0.020344,-0.010956,
0.232930,-0.081145,-0.123080,-0.012520,0.161451,-0.004265,-0.027570,-0.036980,
0.093797,-0.182467,0.032109,0.042204,0.012228,-0.004474,0.028111,-0.000973,
-0.072307,0.024286,0.063013,-0.005705,0.021857,-0.027688,-0.005764,0.015801,
-0.035501,-0.041385,-0.072529,0.038233,-0.023163,-0.021167,0.000217,-0.008115,
-0.032455,-0.002187,-0.019260,0.003761,-0.044471,0.010089,-0.000515,0.002951,
0.059421,0.009637,-0.034644,-0.002523,0.005685,0.028902,-0.004528,0.005129}
,
{
-0.173034,-0.058784,-0.142772,-0.040143,0.135270,0.270146,0.016649,-0.063851,
-0.192210,-0.041503,-0.008153,-0.148564,0.089968,0.257538,-0.021617,-0.053054,
0.165936,-0.311322,-0.093067,-0.011733,-0.048835,0.027167,-0.064089,0.043761,
0.168213,-0.036730,0.187669,-0.075014,-0.017923,-0.030355,0.021510,-0.018909,
0.311395,0.175369,-0.006138,0.075342,0.078454,0.072339,0.015048,-0.010237,
-0.010966,-0.005356,-0.108494,-0.010248,-0.013410,0.001758,-0.076148,0.003657,
-0.043847,-0.060024,0.055870,-0.036695,0.055013,0.025147,0.026064,0.002568,
-0.118913,0.086087,0.026019,0.039881,0.048973,0.004262,0.009531,0.017628}
,
{
-0.093795,0.385883,0.083318,-0.280465,-0.098296,0.010466,0.099780,0.134287,
0.206990,0.396827,0.262695,-0.169189,-0.121343,0.014599,0.068517,-0.098582,
0.162519,0.010224,-0.008140,-0.141051,-0.032690,-0.055585,0.088095,0.040164,
-0.057120,-0.152872,-0.215261,-0.184502,0.119996,0.046731,0.042368,0.032946,
0.118518,0.115098,-0.090286,0.164375,-0.096637,-0.022631,0.036576,-0.070319,
0.014647,-0.070927,0.015228,0.062634,-0.080998,-0.057194,-0.077468,-0.008106,
-0.091248,-0.002887,-0.015137,-0.030904,0.016248,-0.018903,0.056109,-0.007799,
-0.039522,0.052264,-0.029336,0.025037,-0.025072,0.046792,0.027728,0.059931}
,
{
0.999236,-0.147388,-0.012528,-0.134111,-0.086249,-0.063130,-0.061721,-0.005410,
0.371523,-0.124871,-0.134565,-0.284528,0.128816,0.128263,0.028735,0.046181,
-0.146154,-0.362304,-0.229192,0.049757,-0.065190,0.056915,0.117367,0.017126,
-0.043297,0.041058,0.137414,-0.077452,0.007966,0.030051,-0.067590,0.001435,
-0.129705,0.078696,0.135640,0.097227,0.021030,-0.018224,0.119441,-0.027175,
-0.032059,0.027212,0.079213,0.013799,0.000190,0.009058,0.052104,0.009505,
0.086541,-0.056198,0.049083,-0.035442,-0.058121,-0.023366,-0.031683,-0.016741,
0.001502,-0.017036,-0.025460,0.009700,-0.042900,0.034882,0.034615,-0.005456}
,
{
-0.291440,0.125260,0.071810,0.029477,0.011513,0.002125,-0.006577,0.000740,
-0.085602,0.045630,0.017391,0.010268,0.010431,-0.011930,0.009545,-0.000764,
-0.073141,0.000213,-0.000424,-0.010805,-0.000209,0.014502,0.011556,-0.002094,
-0.039238,-0.008379,0.008625,-0.000698,0.016245,-0.009188,0.014965,-0.001597,
-0.002574,0.000293,0.016377,-0.012450,0.013557,0.005568,-0.012060,0.006003,
-0.015785,0.005935,-0.019098,0.004789,-0.013372,-0.004024,0.004169,-0.007452,
0.023255,0.012878,-0.008162,-0.006675,-0.006081,-0.004012,-0.004354,-0.009143,
-0.006521,0.015461,-0.002838,-0.003901,-0.001190,0.002544,-0.004329,-0.000412}
,
{
-0.110088,-0.265478,0.038855,-0.008106,0.022848,-0.018813,-0.011869,-0.009959,
0.019581,-0.109787,0.043505,-0.019275,-0.006906,0.004145,-0.002980,-0.005714,
0.031095,-0.022687,0.023940,0.029669,-0.050442,0.006337,-0.019103,-0.018031,
-0.028806,-0.025420,-0.010498,0.016783,0.002612,0.007797,0.003931,0.003673,
0.032166,-0.014606,0.015090,0.023730,-0.003211,0.008995,-0.004768,-0.010802,
-0.017346,-0.009685,0.002166,0.016723,-0.027556,-0.004239,-0.008713,0.010173,
-0.021528,-0.003351,-0.006427,-0.012507,0.005150,0.009911,-0.002626,-0.002800,
-0.000665,0.001809,0.011378,-0.021033,0.009923,-0.005898,0.000869,0.004311}
,
{
0.030486,0.064869,-0.175746,0.045181,-0.028760,-0.010285,0.051529,0.013355,
0.159681,0.005953,-0.133450,0.013641,0.051899,-0.003195,0.024279,-0.007765,
0.032613,0.031329,-0.074845,0.072877,-0.031249,-0.003699,-0.007648,-0.013940,
0.016671,0.001244,-0.104372,-0.019281,0.005195,0.024251,-0.003829,0.003148,
0.033768,-0.021470,0.020719,-0.017762,0.008819,-0.007059,0.010952,-0.029501,
0.006565,-0.006703,-0.028435,-0.041472,-0.003511,-0.002583,0.007043,-0.000711,
-0.012098,-0.019900,-0.031181,-0.021061,0.009732,-0.004020,-0.002911,0.016470,
0.015263,0.022582,0.004354,-0.001059,-0.005125,-0.003769,-0.000686,0.017939}
,
{
-0.169970,0.073158,-0.071878,-0.216099,-0.062083,-0.112926,-0.006550,0.030076,
0.109061,-0.011388,0.185233,-0.138506,-0.040669,-0.041577,0.006118,-0.025769,
-0.096247,0.156654,0.114347,-0.063508,-0.041104,0.032089,-0.013891,-0.000956,
-0.034897,0.024892,0.010117,-0.070434,-0.023498,0.028793,-0.028784,0.015228,
0.031730,-0.046907,0.024452,0.049111,0.034779,-0.001859,0.002308,-0.007043,
0.000985,0.016214,-0.045444,0.019864,-0.019841,0.001046,0.011640,-0.011171,
0.013180,-0.054830,-0.043103,-0.010629,0.033708,0.024360,0.005692,-0.006079,
-0.032205,0.013770,-0.028271,0.044351,0.045547,0.006320,-0.009114,0.015288}
,
{
0.662416,0.013023,-0.228841,-0.264230,0.047976,-0.071740,-0.036113,0.044831,
0.129344,-0.285848,-0.112894,-0.085767,-0.019931,-0.011981,0.098719,-0.099409,
0.023820,0.252655,-0.146421,0.017206,0.014140,0.107281,0.034767,-0.006167,
-0.117426,-0.019329,0.089520,0.050053,-0.035924,-0.059798,-0.003830,0.017122,
-0.005509,-0.108614,0.054330,-0.039070,0.017481,-0.053513,-0.035091,-0.002652,
-0.029339,-0.079485,0.028875,0.081180,-0.000185,0.036802,-0.026729,-0.011633,
-0.034744,-0.095016,0.020031,-0.018411,-0.059174,-0.039442,-0.004825,0.007444,
0.020217,0.099606,0.059660,0.036609,-0.027396,0.025307,-0.014035,0.020753}
,
{
0.303098,0.036170,-0.170540,-0.264982,0.194666,0.017912,-0.045384,-0.084039,
0.053353,-0.007362,0.111505,-0.117351,0.001460,-0.061645,0.045458,-0.033091,
-0.094315,0.197971,-0.185951,-0.073170,-0.079903,0.075467,0.100103,-0.011143,
-0.162177,-0.148088,0.071872,0.069646,0.036891,-0.009517,0.023862,-0.017619,
-0.053060,0.103510,0.158312,0.076842,-0.014089,0.047830,-0.057993,-0.018776,
-0.070388,0.089157,0.091888,0.099063,-0.070996,0.052642,-0.046681,-0.025911,
0.035123,0.019261,0.017096,-0.013075,-0.019157,-0.074192,-0.009388,-0.016163,
0.049406,0.021470,-0.017023,0.005860,-0.011515,0.023237,-0.011205,0.029037}
,
{
0.008260,0.450650,-0.334152,-0.153661,-0.052530,0.114884,-0.100641,-0.126978,
-0.022523,-0.024547,-0.232500,-0.006397,-0.123636,-0.086829,-0.091885,-0.068437,
-0.356821,0.030121,-0.279411,-0.003594,-0.023303,0.159248,-0.055869,0.092070,
-0.111361,-0.151129,-0.033390,-0.023300,-0.043631,-0.079434,0.059307,-0.019037,
-0.185527,-0.078179,-0.052003,-0.086454,0.026250,-0.027181,0.012773,0.048824,
-0.184771,-0.001468,-0.027527,0.018703,0.054558,0.090172,0.048408,0.034851,
0.041659,-0.039361,-0.001882,0.004927,-0.017081,-0.041081,-0.054033,-0.009106,
-0.106634,0.157383,0.010290,0.000295,0.054693,0.015051,-0.004472,-0.027112}
,
{
-0.073984,-0.251843,0.115550,0.078711,0.011027,0.033972,0.033310,0.087215,
0.134685,-0.200048,-0.095109,0.031881,0.018334,-0.043822,0.022292,-0.005782,
0.122837,-0.077636,-0.043466,-0.011438,0.082835,-0.023197,-0.002892,0.064629,
-0.121425,0.106010,-0.050135,-0.170361,-0.041876,-0.043883,-0.018836,-0.007060,
0.073102,0.077494,-0.153196,-0.044363,-0.031437,-0.035569,0.015505,0.012343,
-0.112862,-0.067274,-0.070951,-0.017115,-0.031402,0.024013,0.002791,-0.002764,
-0.000447,0.065065,-0.051034,0.016284,-0.002272,-0.005552,-0.024766,0.021717,
-0.049715,-0.003751,-0.003289,0.076783,0.028837,-0.041327,0.004983,0.006011}
,
{
0.013462,-0.016236,0.008217,-0.012566,0.003673,-0.005651,0.003438,-0.001069,
-0.001978,0.007011,0.003759,0.001601,0.000258,0.001069,0.000143,0.001509,
-0.000881,0.003210,-0.000809,0.000653,0.000084,-0.000074,0.000363,-0.000733,
-0.002093,0.002212,0.000748,0.000244,0.000937,-0.000336,-0.000041,-0.000297,
-0.000102,0.002250,-0.000528,0.001425,0.000255,-0.000551,-0.000218,-0.000704,
-0.001844,0.000227,-0.000612,-0.000150,-0.000176,0.000054,-0.000235,0.000149,
0.000521,0.000133,0.000643,-0.000106,-0.000504,0.000133,0.000385,-0.000103,
-0.000737,0.000063,-0.000154,-0.000255,0.000043,0.000038,-0.000691,0.000142}
,
{
0.006756,-0.002781,0.013547,-0.003053,0.008015,-0.003655,0.005851,-0.008021,
0.002508,-0.008056,0.010602,-0.000934,0.005422,-0.002054,-0.003118,0.006067,
-0.001045,-0.000747,-0.002895,-0.001668,-0.001456,0.007403,0.000248,-0.006444,
-0.003532,-0.000968,0.000919,-0.001274,-0.000083,0.000357,0.000751,0.000296,
-0.007061,-0.000484,-0.006718,0.002323,-0.001908,-0.001285,0.000476,-0.002326,
0.002818,-0.001558,-0.002273,-0.000311,0.001231,0.000467,-0.001652,-0.001286,
-0.002371,-0.000068,-0.000638,0.003549,-0.000007,0.002044,0.001374,0.002670,
0.003452,-0.003007,-0.001177,-0.000613,0.000304,0.001870,0.000124,0.001325}
,
{
0.007717,-0.011489,0.000280,0.002497,0.011654,-0.008023,0.009066,-0.004597,
-0.002544,-0.012422,0.002729,-0.000984,-0.006509,-0.003117,0.006370,-0.003135,
0.009087,-0.005970,0.002139,0.009825,-0.000805,-0.006413,0.002902,0.007334,
-0.001159,0.006416,0.011454,-0.002610,-0.007584,0.001423,0.000314,0.000390,
-0.003891,0.006220,-0.002948,0.000025,-0.006629,0.000787,0.001940,0.001284,
-0.000593,0.000815,0.001398,-0.005303,0.000845,-0.000765,0.000126,0.000905,
0.002280,-0.000956,0.001100,0.002396,-0.002862,-0.000283,0.002307,-0.001573,
-0.002123,-0.002035,-0.001210,-0.000999,-0.000380,0.000478,-0.000067,0.001489}
,
{
0.001404,-0.003256,-0.017001,0.014103,0.024551,-0.006269,0.002711,0.004686,
0.011576,-0.023691,0.002697,-0.017917,0.000810,0.006323,0.003721,-0.007123,
-0.006402,0.012590,0.001197,-0.023663,-0.002275,0.000620,-0.005432,-0.017660,
-0.009953,-0.014181,0.000399,0.002783,-0.010059,0.000854,-0.010176,0.004253,
-0.005811,-0.002960,0.002989,-0.017101,0.002825,0.000571,0.000566,-0.005697,
0.001819,-0.001088,0.000300,-0.003908,-0.005119,-0.001148,0.008720,0.008430,
0.010083,-0.001697,0.004854,-0.003944,-0.001914,-0.000128,-0.003833,0.001081,
0.000727,0.002333,-0.003562,-0.002342,0.000906,-0.003145,0.000483,-0.000675}
,
{
-0.000491,0.028927,0.014694,-0.051968,0.012959,0.016421,-0.016638,-0.003514,
0.035234,-0.020355,0.021271,0.008815,0.007702,0.001612,0.002663,0.003446,
0.013110,-0.012101,0.012071,0.001306,-0.002818,-0.014087,-0.012357,0.006209,
-0.008277,0.016038,-0.002971,0.004594,0.001371,-0.005614,-0.004350,0.002730,
-0.010370,-0.005016,-0.009529,0.010145,0.008237,-0.000113,0.002185,-0.000116,
-0.002493,-0.006557,-0.005222,0.000930,0.000127,0.002375,0.003960,0.003225,
-0.004961,-0.001791,-0.002376,0.003375,0.000891,0.001657,-0.001215,-0.002355,
0.011208,0.003025,0.000841,0.003731,-0.000582,-0.000582,-0.003222,-0.001142}
,
{
0.017525,0.015245,-0.000319,0.018488,-0.025367,0.012059,0.007071,0.019523,
0.000907,0.020332,0.030655,0.002766,-0.000126,-0.006312,0.002835,0.001876,
-0.015598,-0.006755,0.003417,-0.001429,0.011821,-0.010709,0.000722,-0.003129,
-0.004874,0.002035,-0.001186,0.000698,-0.001553,-0.001397,-0.000749,-0.000196,
0.007345,-0.027916,-0.011913,-0.007093,0.011525,-0.016590,-0.001635,0.002563,
0.018510,-0.012811,0.004977,0.005708,0.000380,-0.003100,-0.008488,-0.001814,
-0.015578,0.001646,-0.005268,0.000121,-0.006260,0.000706,-0.010020,-0.001332,
0.001059,0.000694,0.000792,0.000996,-0.001888,-0.004345,0.000010,-0.001777}
,
{
0.005827,0.007223,0.004184,0.003826,-0.002306,0.003368,-0.017776,-0.017423,
0.020269,-0.025938,0.018854,0.001836,0.009800,0.006256,0.001023,0.010082,
-0.020598,0.004095,-0.012512,0.000135,-0.005631,0.009696,-0.006677,-0.013099,
-0.006203,-0.012974,-0.007248,0.017839,0.020223,0.004374,0.015925,0.014942,
-0.002126,0.006162,0.010662,-0.018521,-0.007828,0.007953,-0.009930,-0.004130,
-0.002219,0.017940,0.012783,-0.004000,-0.004042,-0.000177,0.007627,-0.001168,
-0.008592,0.015609,-0.008644,-0.003234,-0.004130,-0.002544,-0.007372,-0.003360,
-0.003596,-0.008934,-0.006882,-0.002414,-0.003680,-0.001446,-0.003431,0.000642}
,
{
0.045217,-0.008108,-0.029497,0.005927,0.017358,0.007836,0.001935,0.021503,
-0.039717,0.002111,-0.009845,-0.007834,0.010096,0.000952,0.011229,0.012774,
-0.014649,-0.022372,-0.016107,0.014915,0.024287,-0.000852,0.000313,0.003330,
0.008843,0.015086,-0.003336,0.010958,0.022579,0.002579,-0.002511,-0.001384,
0.008731,0.003258,-0.013062,-0.002901,-0.001263,-0.016149,-0.005259,-0.001169,
0.000865,-0.000997,0.000957,0.015256,-0.011088,-0.006385,0.003124,0.004800,
0.000399,0.008548,-0.013444,-0.010615,0.012000,-0.000628,-0.000174,0.015060,
-0.008076,-0.011667,-0.002806,-0.002022,0.001844,0.001551,0.005888,0.004673}
,
{
-0.049942,0.056637,-0.047979,0.040090,-0.013108,0.015167,-0.004455,-0.002484,
0.004496,-0.016721,-0.005374,0.003633,-0.003423,0.001883,-0.001876,0.002893,
0.004967,0.002372,-0.006673,0.007020,-0.002694,0.005979,0.002761,-0.000808,
0.007703,-0.007704,-0.001897,0.001952,-0.002600,0.001584,0.000621,-0.002659,
-0.009801,-0.005983,-0.002945,-0.000619,-0.002160,0.001293,0.000800,0.002389,
0.001770,0.001393,-0.000810,0.003985,0.000455,0.001753,-0.000046,-0.000376,
-0.001031,-0.001428,-0.000227,0.003710,0.002024,-0.001207,0.001152,-0.000666,
-0.005001,-0.001931,-0.000655,-0.004033,-0.000474,-0.000865,-0.001108,-0.000342}
,
{
-0.024973,0.077390,-0.058108,0.034959,-0.022106,0.014889,-0.005462,0.002185,
-0.021831,0.011023,-0.005589,0.017933,-0.005390,0.005407,-0.006538,-0.002497,
-0.005083,-0.005433,0.007186,0.000720,-0.006896,0.001293,-0.006849,0.003320,
-0.000526,0.002238,-0.003716,-0.003520,-0.005058,0.002170,0.001890,0.001499,
0.018104,0.002755,0.005607,-0.002735,0.001135,0.001772,-0.002695,-0.000328,
-0.006753,-0.000679,-0.000363,0.007317,-0.007534,-0.000315,0.007299,0.007994,
-0.005618,0.009919,-0.003874,-0.001591,-0.000507,-0.001846,0.000939,-0.000842,
-0.001543,-0.000808,0.003887,0.002604,0.001939,0.000599,-0.002310,0.000019}
,
{
-0.043229,0.057886,-0.048314,-0.001461,-0.028433,0.010018,0.000184,0.006407,
-0.007270,0.000093,-0.035208,-0.004151,-0.001088,0.004251,-0.000300,0.008334,
-0.009131,-0.008099,-0.000084,0.001567,-0.016203,-0.000240,-0.004007,-0.001961,
0.001747,-0.011186,0.005947,0.014120,-0.001801,0.001253,0.006849,0.002550,
0.004670,0.001550,0.014077,0.001448,0.000520,0.005765,-0.007567,0.006398,
0.004666,-0.000273,-0.004412,-0.006557,0.006723,-0.002441,0.002300,-0.005783,
-0.003880,-0.002574,-0.000361,-0.000956,0.000852,-0.003647,-0.001226,-0.003179,
-0.002006,-0.000208,0.001848,-0.002437,-0.003646,-0.004387,-0.004479,0.000284}
,
{
-0.015095,0.006079,-0.039827,0.050471,-0.012756,-0.023759,-0.004030,-0.005785,
0.030714,0.027675,0.003417,-0.007159,-0.016913,-0.012283,-0.009213,-0.004663,
0.008082,0.014845,-0.005498,-0.002243,-0.000799,-0.001349,0.004709,-0.001188,
-0.017836,0.003748,0.010801,0.000324,-0.005762,0.002428,-0.002134,-0.001785,
-0.026367,-0.026244,0.007472,0.002982,-0.007861,0.007226,0.006216,-0.002808,
-0.018888,-0.002570,0.003604,0.001679,-0.003735,0.005915,-0.008257,-0.002407,
0.007072,-0.008271,0.006110,-0.005717,-0.000611,0.003902,-0.000581,0.004847,
-0.001294,-0.007221,0.007440,-0.001584,0.000828,-0.001332,0.005389,0.000503}
,
{
-0.043668,0.044819,-0.009653,0.018188,0.000456,0.007111,0.013087,-0.001545,
0.027585,0.004607,-0.006644,0.010638,-0.015138,0.024535,-0.004953,0.001609,
-0.003850,-0.007524,-0.015284,0.026343,0.001292,-0.024149,0.004241,0.003002,
-0.030266,0.015916,-0.005756,-0.004267,-0.016749,-0.006188,0.004065,-0.010126,
-0.016592,-0.015333,-0.000234,0.004467,-0.010101,-0.003185,0.000690,-0.012831,
0.005835,0.003224,0.005132,-0.002553,-0.010376,-0.001267,-0.010700,-0.005804,
-0.004030,-0.006770,0.003291,0.013570,0.001613,0.001467,-0.003314,0.007752,
0.008142,-0.000764,0.000464,0.002173,0.005519,-0.002345,0.007670,0.005365}
,
{
-0.007309,0.090709,-0.004428,-0.030664,-0.023673,0.023031,0.015660,-0.009236,
-0.009753,0.035388,0.006932,-0.007717,0.015922,0.010804,-0.012625,-0.000844,
-0.040417,-0.006093,0.021900,0.006018,0.000389,-0.016204,-0.000172,-0.010940,
0.006332,-0.004338,-0.009940,0.025265,0.004607,0.000223,0.021631,-0.000520,
0.031118,-0.004931,-0.006342,-0.003963,-0.011981,-0.009638,0.000644,-0.005061,
0.000184,0.001987,-0.009664,-0.008922,0.016382,-0.006725,-0.005453,0.001598,
-0.015626,-0.003646,-0.011270,0.017541,0.008441,0.009382,0.002114,0.008253,
-0.010247,0.001764,0.000049,-0.000301,-0.000678,-0.005160,-0.002779,0.009512}
,
{
-0.074183,0.007349,-0.047616,-0.015669,-0.047001,0.024706,-0.018007,0.015208,
0.038267,-0.054600,0.031238,-0.000702,-0.007000,-0.009238,-0.012840,0.007585,
0.054962,-0.003806,-0.002619,0.010940,0.005276,0.003921,0.005322,0.011024,
-0.025665,0.020240,0.019798,-0.008648,0.012077,0.009522,0.000108,0.001354,
0.000162,0.014665,-0.020476,0.024689,0.011012,0.013499,0.006380,0.018113,
-0.003627,-0.006541,-0.021812,0.007193,0.001496,0.002867,0.002024,-0.005872,
-0.013998,0.002331,-0.022144,0.005180,-0.005287,-0.007875,-0.002412,-0.010256,
0.007533,-0.009948,-0.010690,-0.004470,0.000573,-0.003089,-0.009008,-0.005395}
,
{
0.028941,0.033508,-0.015934,-0.000947,0.021711,0.003887,-0.003546,-0.037406,
0.019118,-0.001079,0.010613,-0.013927,0.015889,-0.034744,-0.012791,0.003563,
0.045341,-0.085363,0.019455,0.033515,0.009125,-0.021160,-0.015991,0.023213,
0.017134,0.015012,0.005714,-0.020206,-0.010026,0.009690,0.012647,0.004552,
0.012206,-0.009967,-0.003915,0.011537,0.001065,0.009360,0.014686,-0.008067,
-0.024511,0.006451,-0.002577,0.018216,-0.006287,-0.003387,0.003171,-0.011630,
0.018093,0.003641,-0.001194,-0.005128,-0.013710,0.003590,0.012572,0.005871,
0.014489,-0.014265,0.011292,-0.000216,0.012276,0.020059,0.004905,-0.001541}
,
{
0.046973,-0.051692,0.037610,-0.036739,0.016954,-0.013685,-0.000028,-0.006194,
0.002385,0.008755,0.014412,-0.002885,0.011958,0.005677,0.001918,-0.004045,
0.016796,0.011939,-0.010778,-0.008714,0.012988,-0.000006,0.006597,0.000965,
0.000404,-0.006079,-0.015325,0.000200,0.012491,0.006605,0.001719,-0.002574,
0.004714,-0.007796,-0.006744,0.003236,-0.000490,0.001142,0.001898,-0.003961,
0.008768,-0.005945,0.009098,0.003278,-0.000368,-0.000057,-0.003056,-0.001818,
-0.001760,-0.004715,0.001483,0.006458,-0.004021,0.000841,-0.000377,-0.002823,
0.003397,-0.002373,0.000581,-0.002083,0.001996,-0.000463,0.001249,-0.001767}
,
{
0.080641,-0.050282,0.056858,-0.038222,0.007344,-0.032962,0.002670,-0.000756,
0.037323,-0.031765,0.005327,-0.019077,-0.000422,-0.013159,-0.001861,0.001214,
0.004984,-0.010144,0.017332,0.003077,0.015710,-0.010617,-0.001156,-0.003815,
-0.016668,-0.009039,0.007043,0.007666,0.002318,0.007715,0.002024,0.002209,
0.019225,0.006420,0.014097,-0.000973,-0.003612,0.005221,0.004214,0.000822,
0.001382,0.004352,0.000054,-0.009080,0.009361,0.001499,0.007874,-0.004058,
-0.009402,-0.004961,-0.010919,0.000381,-0.007467,-0.003235,0.001032,0.003222,
-0.002125,-0.004684,-0.000098,-0.001192,0.001244,-0.001398,0.002603,0.000716}
,
{
0.073600,-0.092586,0.087638,-0.032449,0.000048,-0.022107,0.011086,-0.012738,
0.033979,-0.015004,0.025244,-0.011533,0.025184,-0.007715,0.003810,0.005901,
0.021933,-0.009584,0.005735,0.001251,0.006250,-0.007043,0.002977,-0.001543,
-0.014326,0.005628,-0.007143,-0.008117,0.011580,-0.006835,0.012155,0.002979,
-0.005515,0.008747,-0.022831,0.010311,-0.003445,0.006447,0.002848,-0.011393,
-0.015244,0.002261,-0.002333,0.001175,-0.005789,0.002432,-0.000664,0.001148,
0.020344,0.008668,0.005674,-0.006314,-0.003629,0.010505,0.005722,0.013580,
-0.000370,-0.007545,0.003874,-0.002731,0.002307,0.001839,0.009499,-0.000168}
,
{
0.003896,-0.083013,0.050487,-0.042037,0.016484,-0.007443,0.002740,0.001503,
0.004001,-0.042733,0.007583,-0.005966,-0.001630,-0.016098,-0.002720,0.007723,
0.005428,-0.004760,-0.005513,-0.009976,-0.001581,-0.001493,-0.000401,-0.004757,
0.005114,-0.007752,-0.002726,-0.009256,-0.010937,-0.004052,0.007260,0.005748,
-0.002980,-0.006055,0.005415,-0.007854,0.007285,-0.005323,0.002721,-0.007342,
0.018690,0.018415,0.023338,0.002327,0.008269,-0.023341,-0.025565,-0.015509,
0.008911,0.007629,-0.003622,0.003584,0.000419,0.003854,-0.000675,0.005238,
0.002544,-0.005151,-0.000382,0.000383,0.004189,-0.013325,0.003372,-0.001648}
,
{
0.043614,-0.036959,0.049861,-0.049817,-0.003908,0.001027,-0.016137,0.009429,
-0.047784,-0.000387,-0.059100,-0.023564,0.014670,-0.013317,-0.022510,-0.000597,
0.018039,-0.043989,0.033845,0.022137,0.006046,-0.018088,-0.017226,0.002543,
0.024102,-0.008064,0.002161,0.014159,0.007272,-0.010774,-0.003890,0.006405,
0.009378,-0.002418,0.013798,-0.006452,0.009402,-0.005035,-0.008477,0.021811,
-0.009731,-0.021934,-0.008339,0.023469,0.019082,0.003209,0.023364,-0.002620,
-0.009036,0.001428,-0.010210,0.010852,0.007086,-0.005579,-0.002079,-0.012894,
-0.003731,-0.003015,-0.002716,-0.010768,-0.003727,0.002064,-0.005295,-0.018032}
,
{
0.053160,-0.033621,-0.004880,-0.008548,-0.063662,-0.000541,-0.011494,0.000707,
0.023266,-0.024409,-0.021048,-0.011595,0.044260,-0.001518,-0.010380,-0.005350,
0.018585,0.045522,-0.005880,-0.014518,-0.034823,-0.008773,0.005112,0.013675,
-0.003045,-0.021706,0.000521,-0.009870,0.013441,0.007375,-0.017071,-0.019234,
-0.000176,-0.013980,0.022893,0.012598,0.016200,-0.007754,0.009022,-0.000837,
-0.004270,-0.001256,-0.028585,-0.006821,-0.011169,-0.002766,0.002697,0.000475,
0.023396,0.000189,0.018832,0.012339,-0.015099,-0.001170,-0.000632,-0.002548,
0.017209,-0.013764,-0.004344,0.001958,0.003655,-0.006850,0.006076,-0.012477}
,
{
-0.079516,-0.029235,0.036347,0.025534,-0.002842,-0.002285,-0.002993,0.002693,
0.067497,-0.006277,0.001596,0.003918,0.023357,-0.023773,-0.027887,0.010668,
0.026009,0.032712,-0.025114,-0.012462,-0.005118,-0.006590,-0.000888,0.037638,
0.029013,-0.011852,0.067641,-0.024170,-0.005546,0.010371,-0.029759,0.001515,
-0.014543,0.021718,-0.025104,-0.030835,0.037542,-0.009797,-0.035488,0.005849,
0.028101,-0.017648,-0.005219,-0.007274,-0.014021,0.011871,-0.014790,-0.013153,
0.029590,0.029245,0.008344,0.017508,0.013692,-0.005468,0.005090,0.002082,
-0.019677,-0.023369,0.004173,0.021575,0.006083,-0.002396,0.008183,0.012044}
,
{
0.159018,0.048617,0.013053,0.005655,0.026398,0.001684,-0.021484,0.001518,
-0.034554,0.088259,-0.009908,-0.020914,-0.036264,0.027062,-0.004632,0.005590,
-0.048681,-0.006670,-0.087278,0.011254,0.049263,-0.013344,0.010553,0.002634,
0.004652,0.048704,-0.028583,-0.023760,-0.022536,-0.005375,0.014906,-0.012056,
-0.025245,-0.030405,-0.048004,0.016674,-0.001715,0.019211,0.006026,0.010319,
-0.004545,0.001954,0.010778,0.027746,-0.009564,-0.002735,0.004693,-0.013121,
-0.024437,-0.016598,0.021759,-0.006346,0.008302,-0.001128,-0.003616,-0.006230,
0.018661,-0.013817,-0.005431,0.004743,-0.014887,0.009057,-0.005892,-0.016955}
,
{
-0.072513,0.117368,-0.050636,0.047382,-0.023311,0.021866,-0.003068,0.009514,
-0.002689,0.011816,-0.031490,0.002721,-0.019028,0.004764,-0.005242,-0.003619,
-0.011346,-0.014922,0.020377,-0.002731,-0.002888,0.005759,-0.003826,0.000567,
-0.002387,-0.007256,0.011087,-0.004507,-0.005686,-0.000318,-0.000523,0.001374,
0.009510,-0.004327,0.004669,-0.001042,0.004070,0.003960,-0.000422,-0.000758,
0.004020,-0.002092,-0.006447,-0.004440,0.008625,0.000197,0.000805,-0.002809,
0.014129,-0.005011,-0.011877,-0.001847,-0.002028,0.004932,-0.000612,0.002830,
0.005295,0.000134,-0.003262,-0.004915,0.002126,0.005267,0.000831,0.004040}
,
{
-0.060045,0.082135,-0.071264,0.024719,-0.029779,0.018193,-0.005988,0.021188,
-0.037728,0.031449,-0.033615,0.026916,0.007889,0.005838,-0.006297,0.001397,
-0.008002,-0.005842,0.024033,0.000795,-0.017818,0.007180,0.003812,0.002267,
-0.014490,0.002339,0.011077,-0.012854,-0.007479,0.006379,-0.000012,0.006205,
-0.012797,-0.018518,-0.008118,0.014299,-0.002426,-0.001210,-0.002459,0.008524,
0.004062,-0.009398,0.001294,-0.000199,-0.006463,0.006366,0.007920,-0.001702,
-0.004927,-0.005915,0.014802,0.001672,-0.008351,0.000687,0.000010,-0.003536,
0.016696,0.001461,0.002499,0.003058,-0.001081,0.001598,0.001971,-0.000918}
,
{
-0.083237,0.089792,-0.036879,0.037963,-0.045814,0.005621,-0.002631,0.010088,
0.021342,0.007673,-0.029793,0.009310,-0.007167,0.010172,-0.010294,-0.002790,
-0.010293,0.002134,0.001853,0.014977,0.003877,0.009140,0.019443,0.001581,
0.007859,0.005438,-0.021903,0.003446,-0.001738,-0.008351,-0.007130,0.004027,
-0.022381,-0.024944,-0.014111,-0.001452,0.002278,0.002502,0.003881,-0.006178,
-0.025770,0.008937,-0.015124,0.002116,0.004440,0.008260,-0.014159,0.009491,
-0.003265,0.003725,-0.007275,0.010201,0.001779,-0.000765,0.001189,0.002648,
-0.004403,-0.009903,-0.001651,0.003976,-0.005717,-0.000470,0.001341,0.010841}
,
{
-0.032309,0.078763,-0.055794,0.043633,-0.032977,0.001196,-0.006473,-0.011057,
0.025657,0.048107,-0.008583,-0.000046,0.007125,0.007323,0.006549,0.014424,
-0.039718,0.008401,-0.035102,0.007618,-0.003997,0.015261,0.000636,0.016094,
-0.010106,-0.005755,-0.009018,0.025851,0.000771,-0.000302,-0.001396,-0.009807,
-0.031868,0.002979,0.004516,0.003704,-0.006063,-0.013065,-0.012887,-0.010570,
-0.008974,-0.013386,-0.005964,-0.002406,0.001619,-0.000842,-0.010281,-0.009692,
0.001552,0.002348,-0.004210,0.001651,0.009422,0.003434,-0.001289,0.010636,
-0.001505,-0.007593,0.008832,-0.001399,0.006698,-0.003584,0.014981,0.010958}
,
{
-0.114285,0.103975,-0.042203,-0.012581,0.019790,-0.026789,0.007207,0.009408,
-0.054698,0.038084,-0.048029,-0.003220,-0.015430,0.005967,-0.009381,0.002216,
-0.045284,-0.032196,0.038281,0.015266,-0.003732,0.005740,0.007098,-0.015555,
0.038388,0.046546,0.008297,0.013676,-0.014981,0.004212,-0.006229,-0.005690,
0.011229,0.004555,-0.021561,0.018568,-0.038211,-0.017973,0.002668,0.020661,
0.010743,0.004667,-0.013810,-0.016371,-0.009444,0.010502,0.000191,0.008315,
-0.009802,-0.022944,0.012429,0.011418,-0.012392,-0.003149,-0.027722,0.017090,
0.003612,-0.003918,0.014372,-0.006297,-0.003742,-0.006181,0.005380,0.008176}
,
{
-0.047926,-0.039367,-0.025630,0.034104,-0.051275,0.027829,-0.009471,0.009716,
-0.007062,-0.017222,0.072373,0.008141,0.006579,-0.001397,0.026058,-0.024594,
-0.031361,0.077994,-0.030195,0.004644,-0.024056,-0.010222,-0.012042,0.008992,
-0.033843,-0.007734,-0.029092,-0.011619,-0.003694,0.020416,-0.012728,-0.010106,
-0.023653,0.012921,-0.001021,-0.038529,0.009825,-0.016264,-0.009377,-0.006053,
0.030133,0.023988,0.007121,-0.002211,0.023457,0.006069,0.001523,-0.019619,
-0.032685,0.032953,0.001243,0.003839,0.003789,-0.010460,0.022101,-0.005511,
0.009328,-0.003961,0.017494,0.008677,0.006336,-0.004644,-0.006048,-0.001959}
,
{
-0.299330,0.063605,0.113865,0.089400,-0.058064,0.057824,0.011502,-0.001060,
0.181523,0.050322,0.082920,0.011154,-0.030798,-0.007690,-0.017693,-0.023213,
0.040022,0.067703,-0.114495,-0.003019,-0.011341,0.024190,0.023969,-0.011809,
0.063558,0.070917,-0.077356,0.000119,0.025607,-0.025150,-0.009995,-0.022778,
0.024137,-0.019428,0.021734,0.018854,0.013048,0.010875,-0.009379,0.008127,
-0.027433,0.063251,-0.055845,-0.031845,-0.023362,-0.001221,0.005452,0.006646,
-0.009495,0.014369,-0.024957,-0.006208,-0.014181,0.012390,-0.011810,0.007431,
-0.013038,0.020462,-0.003784,0.017604,0.025629,-0.006334,-0.002340,0.005366}
,
{
0.024773,0.353914,0.017377,-0.024319,0.097518,-0.035720,-0.013336,-0.014274,
0.051708,0.040538,-0.057438,0.104507,0.059866,-0.017813,-0.019659,-0.017593,
-0.043531,-0.047698,0.018510,-0.072737,-0.021096,0.007579,-0.018985,-0.005203,
0.012178,-0.068845,0.026459,0.018079,-0.070764,0.019279,0.009697,0.004174,
-0.077115,0.040090,0.025599,0.018961,-0.003252,0.035519,-0.009639,0.001035,
-0.020155,-0.000806,0.029740,0.014748,-0.006530,0.037785,0.006565,-0.002212,
-0.030030,-0.026440,-0.030470,-0.020412,-0.003520,0.032185,-0.006664,-0.017670,
