template<typename T> void tf_predict_chroma1(T* vals_in, float* vals_out) {
  static float bias[64] = { 
-0.038568,0.053989,0.005571,-0.003297,-0.009048,0.001868,-0.002619,0.001984,
0.057445,-0.051410,-0.006722,-0.007922,0.003061,0.000371,0.001139,-0.002948,
-0.008671,-0.004513,0.010528,-0.003672,-0.011859,-0.002125,-0.000644,-0.001873,
0.000901,0.000593,0.001026,-0.000243,-0.004163,0.002478,0.000728,-0.000551,
0.000139,0.000781,-0.000169,-0.000319,-0.001059,-0.002132,0.002177,-0.001155,
0.000290,0.001202,-0.002397,-0.000097,-0.000657,0.002033,0.000399,0.002101,
0.000277,0.000862,0.000260,0.002240,0.001915,-0.000292,-0.000203,0.001512,
0.003706,0.001616,0.000986,-0.000303,0.001582,0.001765,-0.000462,0.000111 };
  static float weight[][64] = { {
-0.000232,-0.001959,-0.000353,0.000444,0.000576,-0.000261,0.000349,-0.000245,
-0.000435,-0.001179,-0.000290,0.000275,0.000127,-0.000111,0.000307,-0.000147,
-0.000279,0.000564,-0.000116,0.000016,0.000153,-0.000092,0.000094,0.000177,
0.000004,0.000368,0.000201,-0.000206,-0.000117,0.000276,0.000279,-0.000269,
0.000011,-0.000195,-0.000073,0.000030,0.000146,0.000027,-0.000224,-0.000324,
-0.000054,0.000133,0.000164,-0.000084,0.000009,0.000089,-0.000079,-0.000235,
0.000084,0.000283,-0.000019,0.000049,-0.000213,0.000037,0.000283,0.000297,
0.000041,-0.000312,-0.000073,-0.000229,0.000254,0.000029,0.000039,0.000169}
,
{
0.004390,-0.001673,-0.004650,-0.001864,-0.000374,0.000500,0.000450,-0.001065,
0.000923,-0.000140,-0.003156,-0.002138,0.000560,0.000543,0.000867,-0.000911,
0.000536,-0.000480,0.000207,-0.000232,0.000428,0.000340,-0.000180,0.000728,
-0.000005,0.000731,-0.000080,0.000167,0.002042,0.001123,0.000090,-0.000559,
-0.000889,0.001604,0.000614,-0.000261,-0.001004,-0.000117,-0.000108,-0.000997,
0.000513,0.001001,-0.001189,0.000518,0.000587,0.000712,-0.000182,-0.000522,
0.001635,0.000401,-0.001248,0.000995,0.001606,0.000823,0.000329,0.000691,
0.001277,0.000138,-0.000313,-0.000285,0.001087,0.000376,0.000385,0.000368}
,
{
0.011615,0.007468,-0.001242,-0.000263,0.001763,-0.000191,0.002514,-0.003243,
-0.002893,0.001661,0.003129,0.005260,0.001020,-0.000645,0.002369,-0.002856,
0.001597,0.002039,-0.000193,0.001272,-0.004303,0.000014,-0.000974,0.000170,
-0.001818,-0.001043,-0.001089,0.001186,-0.003512,0.002418,0.001145,-0.000732,
-0.000453,0.001591,0.000690,-0.000263,-0.001892,-0.001507,0.002691,-0.002259,
0.000291,0.001533,-0.003974,-0.000873,0.000724,0.000875,-0.000042,0.000850,
0.003735,0.000922,0.000267,0.001439,0.004052,0.000900,-0.000184,0.001862,
0.005832,-0.000087,0.000317,-0.000376,0.002011,0.001942,-0.000048,0.000127}
,
{
0.001799,0.006669,0.002318,-0.006274,-0.002392,0.000088,-0.002609,0.003977,
0.002369,0.004062,0.002627,-0.003746,-0.001504,-0.000704,-0.000408,-0.000905,
0.003243,-0.002608,-0.002942,0.001575,-0.002341,-0.000134,-0.000488,-0.000203,
0.000218,-0.003027,-0.001495,0.000348,-0.002875,-0.000095,-0.000324,0.002104,
-0.002209,0.001115,0.001673,-0.001464,-0.003127,-0.000186,0.001769,0.000489,
-0.000727,-0.002303,-0.002028,-0.000484,-0.000634,-0.002136,-0.002029,0.001108,
0.000165,-0.001023,0.003064,-0.000984,-0.000321,-0.000766,-0.001541,-0.001111,
0.004082,-0.000891,0.001734,0.001595,-0.001394,0.003192,-0.002646,-0.001799}
,
{
0.006612,0.006875,0.003588,0.004169,0.004257,0.002309,-0.002976,-0.006160,
-0.005022,0.003769,0.001347,0.004410,-0.000228,0.003297,0.001646,-0.001740,
0.006293,0.008430,0.000609,0.000771,-0.002200,-0.000999,-0.001750,-0.001341,
0.002497,-0.005631,-0.001758,0.004428,0.000281,0.001005,0.000812,-0.000863,
-0.002834,0.000852,0.000373,0.003503,-0.002161,-0.002152,0.003290,-0.001293,
0.003349,0.001146,-0.004431,-0.001394,-0.000527,0.000602,0.000732,0.001596,
-0.000904,0.000818,0.002767,0.000002,0.003277,-0.001414,0.000020,0.001661,
-0.001780,0.001019,0.001497,-0.000686,0.001195,0.000457,-0.001874,0.000403}
,
{
0.010769,-0.011040,-0.005073,0.005871,0.000369,0.000577,-0.000320,0.000709,
-0.016410,0.000308,0.000441,0.004894,0.005571,0.000102,-0.000426,-0.000726,
0.000061,-0.004776,-0.000325,0.000173,-0.009816,-0.001911,0.001672,0.001814,
0.005703,0.000624,0.003583,0.000068,-0.006238,0.000825,-0.000981,-0.002016,
-0.003146,0.000184,-0.001159,-0.002174,0.001456,-0.000670,-0.004198,-0.000739,
-0.003973,-0.000262,0.002902,0.001605,0.001019,0.003080,0.000936,-0.002466,
-0.006165,0.002252,-0.004058,0.000861,-0.001276,0.002356,0.002872,0.000957,
0.000099,-0.002530,-0.002814,-0.002758,-0.000054,0.000580,0.002491,0.002690}
,
{
0.013985,0.001110,0.001082,-0.003545,-0.005862,0.001343,0.000873,-0.006950,
-0.022842,-0.001931,-0.001697,-0.002652,0.003582,0.001286,-0.002774,0.001203,
-0.010158,0.005423,-0.003998,-0.000128,-0.001113,0.003211,-0.000937,-0.002975,
0.003871,0.005833,0.001438,0.000807,-0.004852,-0.002781,-0.000465,0.001855,
-0.002732,-0.001577,-0.000654,0.003250,0.001577,-0.001076,0.001918,0.004246,
-0.000266,0.000045,-0.003030,-0.002305,-0.001068,-0.002318,0.000964,0.003565,
-0.003684,-0.001263,0.004123,-0.003856,0.000492,-0.004854,-0.001866,-0.002106,
0.000062,0.002030,0.001147,0.001477,-0.003197,0.000689,-0.001632,-0.002182}
,
{
0.003902,0.014696,0.001805,0.009900,-0.011304,-0.002858,-0.007113,0.003498,
0.012980,0.010849,0.002939,0.003847,-0.007501,-0.002091,0.003136,-0.001470,
-0.003128,-0.011140,-0.008468,-0.000090,-0.005049,0.001098,0.000373,0.000771,
-0.016261,-0.006399,-0.003095,-0.001336,-0.004780,0.003762,0.001720,-0.002741,
-0.004116,-0.005571,0.002462,-0.003306,-0.002379,-0.000268,0.001765,-0.003980,
-0.001958,0.004328,0.000275,0.000621,0.000168,0.004387,-0.000455,-0.001114,
0.007181,0.002625,-0.001903,0.004342,0.002527,0.003893,0.001558,0.002788,
0.009333,0.000472,-0.000694,-0.001461,0.003264,-0.001630,0.003644,0.002850}
,
{
-0.001549,-0.003564,-0.001186,-0.000991,0.000201,0.000059,-0.002042,0.001292,
-0.007549,-0.000723,-0.002710,-0.000839,0.000418,-0.000403,0.000592,-0.000961,
-0.005576,-0.000621,0.000822,-0.000455,-0.000561,0.000164,-0.000369,-0.000028,
0.002863,-0.000615,-0.001119,-0.000629,-0.000781,0.000791,0.000527,-0.000462,
-0.000871,0.000279,0.001055,-0.000843,-0.000835,-0.000270,0.001118,-0.000671,
0.000398,0.000065,-0.000576,0.000359,-0.000111,-0.000020,-0.000389,0.000328,
0.000376,0.000687,0.000069,0.000426,0.001201,0.000782,0.000089,0.000242,
0.000582,0.000139,0.000263,-0.000312,0.000426,0.000424,-0.000171,-0.000411}
,
{
-0.005767,0.006271,0.007202,-0.001427,-0.001236,0.001021,-0.004570,0.007629,
0.005848,0.001877,0.000653,0.004848,0.003546,-0.002736,0.000359,-0.002459,
0.006044,0.001142,0.000809,0.003268,-0.004597,0.001125,-0.002516,-0.001368,
0.001105,0.003816,-0.001021,0.000702,-0.004715,0.000370,0.004030,0.002069,
-0.001718,0.000715,0.004894,-0.004599,-0.008279,-0.001781,0.005061,0.000233,
-0.000295,-0.002169,-0.007434,0.001066,-0.001484,-0.004705,-0.003673,0.002872,
-0.002980,0.000455,0.004554,-0.002122,0.003026,-0.002402,-0.002489,-0.001056,
0.007995,0.000601,0.005270,0.001699,-0.001400,0.004387,-0.006986,-0.005099}
,
{
0.003791,-0.000245,0.001623,0.002525,0.001027,-0.001412,0.000676,0.002278,
-0.002478,0.000557,-0.000522,0.000722,-0.000227,-0.000025,0.000520,0.000145,
0.000293,-0.003701,-0.004857,-0.001039,0.001987,0.000947,0.002736,0.002028,
0.005160,-0.003700,-0.001379,-0.000983,0.002220,0.000863,-0.001008,-0.001955,
-0.001200,0.000944,-0.001812,0.002498,0.006161,0.000381,-0.003470,-0.001453,
-0.000428,0.001347,0.005978,-0.001053,-0.000218,0.002694,0.001248,-0.002800,
-0.003183,0.000961,-0.004072,0.001382,-0.002987,0.002574,0.002607,0.001715,
-0.005153,-0.002297,-0.003659,-0.002197,0.001273,-0.000723,0.004010,0.002898}
,
{
0.003610,0.002587,-0.004394,-0.000302,0.004169,0.000332,-0.003951,0.007674,
0.002314,0.009674,0.005129,-0.006831,-0.003105,-0.001124,0.001910,-0.001741,
0.014707,-0.001352,0.001237,0.000316,-0.001983,-0.001426,-0.000086,-0.000234,
0.008601,-0.006625,-0.002047,-0.000638,-0.002257,0.002304,0.001007,-0.000102,
-0.004575,-0.004586,-0.000328,-0.001822,-0.000794,0.000040,0.002493,-0.002163,
-0.000749,-0.000276,-0.000071,0.002690,0.001236,-0.000313,-0.003087,0.000684,
0.002864,0.001006,0.000920,0.002543,0.001802,0.002269,-0.000436,0.000476,
-0.000969,-0.000661,0.001181,-0.000225,0.001198,0.002563,-0.001061,-0.000504}
,
{
0.004066,-0.015599,0.005976,0.000232,-0.002062,0.000805,-0.002042,-0.003840,
0.002059,-0.005922,0.002145,0.002427,-0.001205,0.002337,0.000027,-0.000346,
-0.008922,0.002006,0.004400,-0.002087,-0.002620,-0.002404,-0.001278,-0.000840,
0.001246,0.004259,-0.002344,-0.000475,-0.000987,-0.000894,-0.001516,-0.000608,
0.005625,-0.006695,-0.000406,0.000510,0.002943,-0.002249,0.000770,-0.000257,
-0.003088,0.001332,0.000848,-0.002290,-0.000823,0.001717,0.003706,0.001354,
0.006450,-0.000169,0.000252,0.000287,0.001388,0.000249,0.000127,0.000996,
0.003218,0.000999,-0.000304,-0.000759,0.000008,-0.002222,0.001721,0.001803}
,
{
-0.023081,-0.008715,-0.001626,0.004493,0.000881,0.000974,0.004158,-0.007044,
0.006455,0.003118,0.004953,-0.000257,0.003708,0.000280,0.001132,-0.001427,
0.005779,0.010067,-0.004571,0.001292,-0.005312,0.000611,0.002152,0.003531,
-0.006272,-0.006412,0.003973,0.008164,-0.003881,0.000624,0.000020,-0.004314,
0.002021,-0.002957,-0.002952,0.005677,0.008913,0.000733,-0.007095,-0.000405,
0.001280,0.002862,0.003865,-0.000769,0.001054,0.001341,0.000868,-0.004263,
-0.003195,0.004000,-0.003152,-0.001833,-0.003070,-0.003131,0.005705,0.003207,
0.005115,-0.001457,-0.002134,-0.005070,0.000214,0.001070,0.000293,0.004032}
,
{
0.004453,-0.008377,-0.021411,0.001901,0.010993,-0.000923,0.012892,-0.004170,
-0.008610,0.006471,0.003152,-0.001493,-0.000870,-0.002638,0.002185,-0.001536,
0.008864,-0.008916,0.004373,0.003250,0.005903,-0.001224,0.001139,0.004825,
-0.004215,0.004053,0.008042,0.004573,0.002033,0.001934,-0.000488,-0.000623,
0.008261,0.006188,-0.004230,0.005568,0.002741,-0.000670,-0.002997,-0.001763,
0.004176,0.000704,0.002054,0.000592,-0.001241,-0.002203,-0.003164,-0.003271,
0.002553,0.000735,-0.001579,-0.001433,0.001706,-0.003043,0.002259,0.001778,
0.008504,-0.004366,0.001089,-0.001077,-0.000557,0.004885,-0.004431,-0.000136}
,
{
0.004359,-0.008363,0.001974,0.008355,0.002026,-0.002951,-0.010022,0.008798,
-0.005540,0.014540,-0.019677,-0.001348,-0.002038,-0.000180,0.000416,0.000833,
-0.007701,-0.008450,-0.003448,0.002607,0.002256,0.002793,0.002544,0.003442,
-0.005071,-0.014094,0.003345,0.004207,0.009111,0.002003,-0.001032,-0.001407,
-0.013299,-0.000796,-0.000145,-0.002330,-0.003233,0.003490,-0.007878,-0.001592,
0.002417,0.001202,0.004589,0.000812,0.003068,0.002205,0.000486,-0.004767,
0.001961,-0.000864,-0.007654,0.003803,-0.003284,0.005429,0.000215,-0.000407,
-0.012412,-0.001462,-0.003465,0.000901,0.003469,-0.002598,0.007004,0.002436}
,
{
0.002944,0.005238,0.001110,0.000019,-0.004864,0.000860,-0.003406,0.001375,
0.006172,0.002773,0.002450,0.001777,0.001586,-0.001577,-0.000118,-0.001376,
-0.005354,-0.002313,-0.001983,0.001176,-0.001130,0.001132,-0.001935,-0.001347,
-0.005042,-0.001260,-0.003117,0.000010,-0.002218,-0.000145,0.001966,0.001689,
0.000307,0.000747,0.003146,-0.002905,-0.004861,-0.001113,0.003106,0.000906,
-0.000385,-0.001233,-0.005339,-0.000142,-0.000633,-0.002891,-0.000934,0.002100,
-0.000498,-0.000363,0.003799,-0.002158,0.001916,-0.002046,-0.002043,-0.001079,
0.003281,0.000302,0.002663,0.001469,-0.001212,0.002353,-0.003986,-0.003116}
,
{
0.007219,-0.000730,-0.000217,0.006108,0.003869,-0.001254,0.004845,-0.003459,
0.005038,-0.002808,-0.003139,0.000262,-0.002538,0.004233,-0.000408,0.003857,
-0.002589,0.007123,0.005322,-0.002745,0.004855,-0.001492,0.001449,0.002468,
-0.002807,0.005699,0.005703,-0.000732,0.006423,-0.000584,-0.002589,-0.004017,
0.001993,-0.002473,-0.005091,0.005154,0.007493,0.001619,-0.006263,-0.000414,
0.001367,0.002137,0.009392,0.000379,0.000439,0.005677,0.005200,-0.004257,
0.004647,0.000801,-0.006404,0.002338,-0.002320,0.002503,0.004169,0.001731,
-0.006851,0.001058,-0.004735,-0.002912,0.002164,-0.007423,0.007631,0.006291}
,
{
0.002242,-0.008546,-0.005066,-0.008889,0.001585,-0.001264,-0.000415,-0.015034,
-0.009751,-0.001418,0.002112,-0.009317,-0.005080,0.009073,-0.003714,0.007614,
-0.001049,0.000569,-0.004975,-0.002967,0.004773,-0.003388,0.002230,0.002844,
-0.008116,0.000258,0.009331,0.003965,0.003401,-0.004543,-0.007070,-0.002625,
0.003821,-0.008438,-0.004531,0.006244,0.006486,0.002486,-0.009044,0.002963,
0.002515,0.000969,0.009340,-0.002127,-0.000611,0.003985,0.007848,-0.004989,
0.005662,-0.002205,-0.006749,-0.000572,-0.007298,0.000149,0.002736,-0.000851,
-0.010814,0.000020,-0.005050,-0.001237,-0.000474,-0.009900,0.006326,0.005049}
,
{
-0.002236,0.008591,0.001424,-0.002790,-0.002954,0.000773,-0.006182,0.006595,
0.010526,-0.001336,0.011418,-0.001974,-0.000642,-0.000292,0.001974,-0.002537,
0.004729,0.001526,-0.006750,-0.001437,-0.003788,0.000662,0.000146,0.000874,
-0.002605,0.000628,-0.008378,0.000549,-0.003759,0.001957,0.001428,-0.001013,
-0.007109,-0.002581,0.002420,-0.003934,-0.005524,0.000460,0.000969,-0.002749,
-0.001364,-0.001604,-0.002016,-0.000639,0.000254,0.000312,-0.002782,-0.000278,
0.007641,0.001854,0.000674,0.002048,0.001491,0.003522,0.000376,0.001492,
0.004979,-0.002704,-0.000610,-0.000951,0.001615,0.002855,-0.000622,-0.000672}
,
{
0.000405,-0.013668,0.003684,-0.005080,-0.001051,-0.002898,0.004043,0.005683,
-0.002151,-0.000677,-0.008364,0.003297,0.003443,-0.003241,0.002064,-0.004508,
0.010055,-0.001427,0.002571,0.002246,-0.003382,-0.004960,0.000940,0.004419,
0.012528,-0.005011,0.007438,-0.004074,-0.003901,0.001715,0.001661,-0.000536,
0.012130,0.002252,0.000806,0.000763,0.003489,0.000066,-0.000117,-0.003318,
-0.005511,-0.002689,-0.000030,0.002369,-0.000192,-0.001490,-0.005711,-0.003356,
0.004032,0.001653,-0.001645,-0.000068,-0.000996,0.000754,0.002320,0.002000,
0.002267,-0.003129,0.001301,-0.001890,-0.000192,0.007090,-0.003398,-0.000072}
,
{
-0.012218,-0.008498,0.021138,-0.014814,0.010044,-0.004689,0.001375,-0.014452,
0.004738,-0.001372,-0.006494,0.002288,-0.005543,-0.002454,-0.001623,-0.000967,
-0.012985,-0.023457,-0.016741,-0.004157,-0.006620,0.007984,-0.003495,-0.005206,
-0.002781,-0.009547,-0.006902,-0.002661,-0.011256,-0.001974,0.002242,0.002870,
-0.016671,-0.005521,0.003831,-0.003118,-0.006146,-0.001619,0.007566,0.003936,
0.001282,-0.001699,-0.008252,-0.000516,-0.001122,-0.005361,0.001540,0.006509,
-0.003825,-0.001579,0.008464,-0.006921,0.003107,-0.004809,-0.005120,-0.004332,
0.006287,0.004654,0.003297,0.004663,-0.003703,0.002311,-0.002642,-0.006440}
,
{
0.032376,-0.007478,0.019445,-0.008436,0.009055,0.002581,-0.008620,0.002614,
-0.009098,-0.018504,-0.017171,0.011453,-0.000213,-0.000287,0.000692,0.003486,
-0.018940,-0.009599,-0.003624,0.002298,0.010958,-0.001174,0.001321,0.000735,
0.001966,-0.005290,0.006226,-0.005145,0.013709,0.001838,-0.000704,0.002143,
-0.000487,0.005802,-0.004418,-0.001859,-0.005128,0.002940,-0.006557,0.001191,
0.006163,0.004655,0.003881,0.001799,0.005176,0.003403,0.000832,-0.002795,
0.005515,-0.004733,-0.002868,0.002513,-0.002806,0.001789,-0.002758,-0.001708,
-0.011137,0.001810,-0.003180,0.004202,0.002340,-0.005391,0.007212,0.002560}
,
{
0.004678,0.011912,0.001195,-0.002528,-0.008840,0.000314,-0.001969,-0.001385,
0.016290,-0.004777,-0.013136,-0.007698,0.008453,0.005923,-0.000219,-0.003847,
0.032720,-0.021272,-0.017370,0.000596,-0.022846,0.002045,-0.005119,0.003610,
0.010680,-0.002522,-0.000846,0.000714,-0.017338,0.000691,-0.003485,-0.009322,
0.009873,-0.017030,0.004491,0.001391,0.004254,-0.011054,0.004118,-0.002352,
-0.004226,0.000102,-0.004792,0.003933,-0.003725,0.006128,0.011428,-0.001023,
-0.013655,0.008523,-0.005644,0.003016,0.009002,-0.000456,0.007081,0.002816,
0.016129,0.005030,0.002061,-0.009345,0.000424,0.001307,-0.002062,0.005851}
,
{
0.011626,0.008795,0.003280,-0.001743,-0.001106,-0.001939,0.000128,0.000237,
0.004353,0.006733,0.002492,0.003419,-0.000776,0.001748,-0.001890,0.001787,
0.001099,-0.007561,0.001615,-0.000148,0.000201,0.000058,0.000592,-0.000488,
-0.001082,-0.003676,0.000021,0.001420,0.001743,-0.002118,-0.001700,0.000260,
-0.002837,-0.001527,-0.000412,0.001204,0.003019,0.000054,-0.001459,0.001548,
-0.000410,0.000065,0.003290,-0.000538,-0.000313,0.000798,0.002133,-0.000058,
0.000297,-0.000886,0.000004,-0.000418,-0.002096,-0.000585,0.000258,-0.000791,
0.000582,0.000839,-0.001152,-0.000033,-0.001166,-0.001784,0.001552,0.001239}
,
{
-0.011455,-0.002863,-0.006002,0.006139,-0.003253,0.001611,0.006784,-0.003548,
-0.009188,-0.007811,-0.008536,-0.000326,0.000623,0.004892,-0.001766,0.004881,
-0.012965,0.005630,0.007309,-0.000577,0.007239,-0.003317,0.005292,0.002997,
-0.000801,0.001698,0.005566,0.000108,0.011467,-0.002442,-0.007944,-0.000303,
0.011559,0.000958,-0.006216,0.009507,0.012263,0.002832,-0.010411,0.001291,
-0.003202,0.002279,0.013140,-0.000950,0.000267,0.004426,0.004081,-0.005248,
-0.006566,-0.003071,-0.007819,-0.000673,-0.008209,-0.000460,0.003171,0.001399,
-0.013929,-0.004442,-0.006128,-0.001443,0.000143,-0.006113,0.006179,0.006318}
,
{
-0.003816,-0.001830,0.000573,-0.004496,0.000513,-0.000120,-0.005302,0.003175,
-0.003930,0.002703,-0.006031,0.002390,0.005975,-0.004020,0.001022,-0.004627,
-0.000034,0.009464,0.002874,0.005824,-0.006142,0.002168,-0.003089,-0.000959,
-0.002702,0.005813,-0.003038,-0.000283,-0.006686,0.001947,0.004214,0.000775,
0.001202,0.000602,0.004157,-0.001717,-0.004274,-0.002583,0.005799,-0.000635,
0.000916,-0.002653,-0.007804,0.001911,-0.000276,-0.004096,-0.001856,0.003025,
-0.007016,0.001519,0.005527,-0.002604,0.004567,-0.002869,-0.001513,-0.000458,
0.009319,0.002169,0.004652,0.000846,-0.000418,0.006037,-0.006881,-0.004252}
,
{
0.025607,0.013449,-0.009018,0.002491,-0.004461,0.006816,-0.018246,0.011104,
-0.000959,-0.005576,-0.002296,-0.001518,0.004659,0.001084,-0.000861,-0.003037,
0.002650,-0.012756,-0.000340,0.003505,-0.007033,0.000375,-0.004227,-0.003154,
-0.003410,-0.003080,-0.006842,-0.002409,-0.008764,-0.000208,0.006423,0.001451,
-0.011711,0.000193,0.002792,-0.003139,-0.007386,-0.004173,0.005788,0.001336,
0.004914,-0.003208,-0.010984,0.002035,-0.002672,-0.005747,-0.002729,0.003874,
-0.005089,0.001735,0.007547,-0.002768,0.004112,-0.006340,-0.003186,-0.002420,
0.009520,0.001986,0.007587,0.001836,-0.002592,0.006410,-0.009044,-0.006146}
,
{
0.005611,-0.015979,0.009035,0.001940,0.007378,-0.000290,0.007873,-0.004843,
-0.007330,-0.004221,-0.004014,0.003674,-0.002771,0.004732,-0.003162,0.001893,
0.006486,-0.000353,-0.007137,-0.000398,0.004211,-0.002284,-0.000816,-0.000528,
-0.000495,0.006766,0.012698,-0.001545,0.002017,-0.003793,-0.002906,0.001709,
0.006060,-0.008437,-0.000334,0.005090,0.004715,-0.001508,0.001040,0.002555,
-0.005848,-0.002765,0.001246,0.001057,-0.003622,-0.002771,-0.000493,0.000653,
-0.004629,-0.001489,0.002037,-0.002936,-0.002237,-0.005609,-0.000166,-0.001759,
-0.002136,-0.000085,0.003745,0.000005,-0.004392,0.000482,-0.005109,-0.001207}
,
{
0.007731,0.012367,0.017480,-0.022121,-0.004996,-0.002821,0.008708,-0.021968,
0.011925,0.006800,-0.016086,-0.017028,-0.011807,0.002806,-0.006754,0.003352,
0.014617,-0.000041,-0.016111,-0.002554,-0.002620,-0.003750,-0.000921,-0.001136,
-0.002360,-0.003746,0.010292,-0.001824,-0.008057,-0.009718,-0.004323,0.003136,
-0.000438,-0.009457,-0.002169,0.004860,0.013923,-0.003582,0.006035,0.007081,
-0.007291,-0.006448,0.002514,-0.002364,-0.006212,-0.003923,0.003820,0.004126,
-0.005298,-0.003802,0.005326,-0.007834,-0.003819,-0.007549,-0.001810,-0.004499,
0.007841,0.005134,0.003731,0.002014,-0.010699,0.002501,-0.004560,-0.002044}
,
{
-0.029438,0.008877,-0.026684,0.002808,0.002692,0.001762,0.000358,-0.004766,
-0.001236,0.018953,-0.010727,-0.015166,-0.001885,0.000943,0.000096,0.002237,
0.002833,0.001775,0.012115,-0.009233,-0.004593,0.002687,0.007190,-0.002620,
-0.020377,-0.021323,0.005780,0.015335,0.002686,0.002373,-0.001990,0.000517,
-0.000607,-0.014234,-0.007622,0.004653,0.002431,0.007459,-0.005912,0.000716,
-0.002976,0.007049,0.000775,-0.001930,0.003498,0.003369,-0.001021,0.002170,
-0.004412,-0.003563,-0.005611,0.002315,-0.002363,0.000948,-0.000472,0.001192,
-0.011626,0.002088,-0.003786,0.001265,0.002510,-0.006187,0.006567,0.002127}
,
{
0.048442,-0.007722,-0.002478,-0.019087,-0.002147,0.000457,-0.004507,-0.000310,
-0.036747,0.005712,-0.019212,-0.020656,-0.001745,0.004297,-0.006528,-0.000224,
0.013355,0.022504,0.019625,-0.002863,-0.011979,-0.001330,-0.008807,-0.005442,
0.003889,0.001539,0.001965,0.001483,-0.014938,-0.008062,-0.003169,0.000951,
0.009575,-0.009343,0.000502,0.005535,0.008682,-0.013440,0.012860,0.004732,
-0.002377,-0.005201,-0.003382,-0.002912,-0.015214,-0.005718,0.004706,0.007697,
-0.011990,-0.000365,0.006711,-0.009199,0.002535,-0.011946,-0.002025,-0.001515,
0.006971,0.007199,0.013795,-0.000020,-0.008219,0.000319,-0.009888,-0.003618}
,
{
0.002593,-0.010842,-0.008508,0.001882,0.002243,0.002390,-0.003779,0.004040,
-0.000423,-0.003041,0.003253,-0.001853,0.000271,-0.001311,0.002009,-0.002365,
-0.001514,0.002590,-0.006620,-0.000604,-0.000762,-0.000055,-0.002305,0.001795,
-0.001421,0.004721,-0.003601,-0.004003,-0.002262,0.001383,0.002669,-0.002320,
0.000937,0.000009,0.003705,-0.003838,-0.005252,-0.001851,0.003388,-0.002012,
0.002966,-0.000907,-0.004505,0.000846,0.000364,-0.001820,0.000152,-0.000210,
-0.001447,0.003036,0.001589,0.001390,0.004633,0.000747,0.000221,0.000249,
-0.000119,0.000742,0.002869,-0.001519,0.000823,0.002279,-0.004059,-0.002048}
,
{
-0.005667,-0.007549,0.001983,-0.003790,-0.004268,-0.002756,-0.006982,-0.000566,
-0.007234,0.001883,0.002828,0.000228,-0.000233,-0.002689,-0.000978,-0.000715,
0.002229,-0.004431,0.000409,-0.002069,-0.000388,0.000997,-0.000131,-0.001246,
0.011159,-0.004318,-0.003620,-0.000410,-0.004119,-0.001544,0.000843,0.002143,
0.003372,0.000558,0.002660,-0.003313,-0.002860,-0.001071,0.000598,0.002059,
-0.000525,-0.001222,-0.002856,-0.000475,-0.001468,-0.002762,-0.001784,0.001183,
-0.001317,-0.000838,0.002281,-0.004249,-0.002094,-0.002685,-0.001456,-0.000844,
0.002908,-0.001113,0.000727,0.001167,-0.002537,0.002820,-0.002603,-0.002616}
,
{
-0.003311,0.001657,-0.001385,0.000197,-0.000862,0.000502,-0.000789,0.000161,
-0.006300,-0.004554,-0.005613,-0.006757,0.000730,-0.000642,0.001320,-0.003243,
-0.018100,-0.000016,0.007169,0.004041,-0.007364,-0.000168,-0.000338,0.002053,
-0.007931,0.007769,0.008016,-0.000200,-0.006002,0.002482,0.001355,0.000103,
0.009018,0.001126,-0.000073,-0.001365,-0.003471,-0.000490,0.002095,-0.002152,
-0.000691,-0.001524,-0.002143,0.001418,0.001369,-0.001346,-0.003197,-0.000733,
0.001366,0.001092,-0.000254,0.002361,0.002529,0.003191,-0.000092,-0.000169,
0.000259,-0.000060,0.000556,-0.000082,0.000114,0.006137,-0.003050,-0.001664}
,
{
-0.014374,-0.005678,0.003040,-0.011685,-0.003287,0.001073,-0.006320,0.007002,
0.017940,0.030338,0.013763,0.002452,0.000009,0.004490,-0.002629,0.005236,
-0.006023,-0.000438,-0.004021,0.005229,0.000663,0.000419,0.000505,0.002713,
0.005814,-0.008936,-0.005510,-0.000218,0.003489,-0.001858,-0.000979,-0.002643,
0.000467,-0.002819,-0.000399,0.002305,0.005152,-0.001175,-0.012383,0.002876,
0.005303,0.004008,0.005749,0.000049,0.000076,0.003019,0.006760,-0.006587,
0.001732,-0.000600,-0.006750,-0.001331,-0.003660,-0.004106,0.002669,-0.000848,
-0.006999,-0.001085,-0.002701,-0.001735,0.000170,-0.007954,0.003841,0.004491}
,
{
-0.033395,-0.001557,0.023815,-0.001740,-0.004351,-0.004365,-0.006245,0.009317,
-0.026406,-0.003084,0.006419,-0.001450,-0.001589,-0.003764,0.001738,-0.000014,
-0.008937,0.019532,-0.003842,-0.000324,0.003947,0.003659,0.004721,0.004888,
-0.018773,-0.006667,-0.014895,0.005424,-0.000153,0.001600,0.002495,-0.002605,
0.012043,-0.009788,0.002184,-0.000331,0.006694,0.001260,-0.004367,-0.001864,
-0.007195,0.003441,0.007119,0.001346,0.001152,0.004590,0.000274,-0.005925,
-0.001583,0.001778,-0.008876,0.003582,0.000161,0.007105,0.002905,0.001257,
0.009079,-0.004308,-0.006545,-0.002700,0.002705,-0.001469,0.008716,0.003413}
,
{
-0.011688,0.017012,-0.012590,-0.000308,-0.006720,-0.002212,0.003489,0.009172,
0.006445,0.005075,0.014490,-0.003993,0.000846,0.004663,0.003601,-0.001342,
-0.010600,0.017207,0.003549,0.000430,-0.011824,0.005753,-0.001234,-0.000688,
-0.008656,-0.000448,-0.002334,-0.001244,0.003323,0.004794,0.003443,-0.002633,
-0.007893,0.000791,0.007026,-0.003453,-0.007438,0.000549,0.006776,-0.003278,
0.008034,0.006417,-0.006546,-0.000033,0.003665,0.003722,0.002591,0.001083,
0.005193,0.001312,-0.000287,0.006356,0.005222,0.004671,-0.000698,0.000857,
-0.002903,0.008482,-0.000517,0.000457,0.004560,-0.002345,0.004855,0.000198}
,
{
0.040498,-0.013413,0.026099,0.004893,0.010114,0.008640,0.010041,-0.005471,
-0.080689,0.019722,0.053538,0.002364,-0.014071,0.020504,-0.002894,0.007568,
0.009190,-0.037517,-0.016185,0.008279,0.011767,0.003627,-0.003893,-0.006925,
-0.033427,-0.018865,0.006709,-0.000813,0.015489,0.001228,-0.003180,0.002783,
-0.001316,-0.003958,-0.010438,0.022549,-0.001383,0.006932,0.008180,0.004980,
0.012548,0.001400,-0.007470,-0.003184,0.002718,-0.000177,0.003678,0.006294,
0.021785,-0.006339,0.000895,0.008298,0.009326,-0.001343,-0.006629,-0.006098,
0.001662,0.017006,0.004302,0.008320,0.003833,-0.014493,0.002142,-0.007102}
,
{
-0.066999,-0.025434,0.016786,-0.006667,0.017162,0.006598,-0.016026,-0.011437,
0.105105,0.030021,0.042155,0.025199,-0.003613,0.002721,-0.006860,0.000693,
0.000682,0.004811,0.025479,0.007394,0.007878,0.002613,-0.000756,0.000451,
-0.019258,-0.024380,-0.009409,0.001687,0.003340,-0.009216,-0.000398,0.004212,
-0.019876,-0.021065,-0.002065,0.004634,0.004841,-0.002690,-0.013277,0.007622,
0.002326,-0.002575,-0.002566,-0.007086,0.000736,-0.003416,-0.004047,-0.003982,
0.008006,-0.001396,0.006955,-0.018835,-0.017307,-0.015028,-0.000852,-0.004642,
0.016222,-0.003679,0.003778,0.003803,-0.010512,0.006521,-0.007399,-0.001077}
,
{
0.013451,0.009427,0.005692,-0.001688,-0.001340,0.001819,0.002913,-0.003371,
-0.006034,0.004816,-0.005072,0.005319,0.000135,0.001150,-0.002848,0.001426,
0.011848,-0.002053,-0.006577,0.001374,-0.000404,0.000005,-0.001016,-0.001477,
0.004498,-0.005975,-0.000119,0.001090,-0.000530,-0.003281,-0.002395,0.003337,
-0.002792,0.001550,-0.000506,0.001231,-0.000055,-0.001083,0.000325,0.003517,
-0.002644,-0.002316,-0.002063,-0.001427,-0.001601,-0.002536,0.001081,0.001812,
-0.001869,-0.003411,0.001700,-0.002932,-0.002524,-0.003732,-0.002667,-0.002200,
-0.000553,-0.000093,0.001544,0.002930,-0.002939,0.000131,-0.002244,-0.001954}
,
{
-0.003522,0.014706,0.012900,-0.001931,0.002593,-0.001586,0.001803,-0.010592,
-0.005883,0.010478,-0.002074,-0.005592,-0.000441,0.002210,-0.001269,0.000114,
0.004398,0.005211,-0.007890,-0.001601,-0.003731,0.001418,-0.001076,-0.000642,
0.009386,-0.006696,0.004666,0.001723,0.000142,-0.001636,-0.003772,0.001621,
-0.001210,-0.002421,-0.000857,-0.000409,-0.002047,-0.000024,0.000429,0.002628,
-0.000862,-0.000064,-0.002526,-0.001432,0.001168,0.000985,0.003117,0.001458,
-0.004550,-0.002126,0.001619,-0.002563,0.000637,-0.001031,-0.001721,-0.001221,
-0.003571,0.002133,-0.001121,0.002282,-0.000972,-0.000636,0.001920,0.000487}
,
{
0.023714,-0.015623,-0.010836,0.013995,0.005535,0.004780,0.003766,-0.004256,
-0.009920,-0.003033,0.007473,-0.001640,-0.000641,0.002983,0.002302,0.000956,
0.001411,0.000678,0.005243,-0.004452,-0.001392,-0.002598,0.002283,0.002677,
0.003777,0.008410,0.005770,0.003619,0.002809,0.001268,-0.004264,0.002087,
0.023393,0.002361,-0.004726,0.004505,0.003429,0.000700,-0.004439,-0.000438,
-0.007202,0.004437,0.000199,-0.000886,0.003447,0.004682,0.000831,-0.003461,
-0.002865,-0.003113,-0.002289,-0.000752,-0.001221,0.000584,0.000883,0.002062,
-0.005060,-0.003328,-0.005124,0.000326,0.001177,-0.004058,0.004726,0.005137}
,
{
0.038525,0.007603,-0.007829,-0.017508,-0.003865,-0.005862,0.004245,0.004621,
-0.001279,-0.001852,0.018270,-0.004661,0.000387,-0.000096,0.001456,-0.005203,
0.037870,0.008950,-0.001930,-0.005991,0.001924,-0.000926,-0.001575,-0.005173,
-0.026161,-0.010051,0.000802,0.000320,-0.001802,-0.000886,0.005316,0.003114,
-0.007697,-0.007106,0.005746,-0.004816,-0.010663,-0.000349,0.007988,-0.000827,
-0.002086,-0.001490,-0.008372,0.001449,-0.000662,-0.004376,-0.005708,0.006147,
-0.008078,0.001212,0.010473,-0.005655,-0.004116,-0.004170,-0.002377,0.000166,
-0.010250,0.001933,0.004344,0.001025,-0.002547,0.006251,-0.006938,-0.004814}
,
{
0.009208,0.010390,-0.009583,0.005947,0.010106,-0.001932,0.013890,-0.003331,
-0.020028,-0.023974,0.010450,-0.012585,-0.013196,0.009343,-0.004198,0.008048,
0.019605,-0.003146,-0.012811,-0.003161,0.009453,0.003155,-0.002007,0.006141,
-0.004936,-0.008369,-0.004001,0.012125,0.015988,-0.005932,-0.001854,-0.003248,
-0.012622,0.003809,-0.006383,0.007778,0.007779,-0.006141,-0.010494,0.003779,
0.009985,0.003942,0.010400,-0.001286,-0.006069,0.004297,0.013632,-0.009106,
-0.019556,-0.002375,-0.010656,-0.000325,-0.004105,-0.004087,0.002973,-0.000330,
-0.026509,-0.001141,0.000410,-0.002000,-0.001874,-0.011059,0.006081,0.006901}
,
{
0.012150,0.000768,0.000870,-0.010845,-0.001472,-0.002742,-0.010170,0.009691,
-0.047350,0.002703,0.020467,0.005471,-0.016795,-0.005206,-0.002152,0.002669,
0.048452,0.010322,-0.009107,-0.002779,0.002017,-0.001832,0.002724,-0.000487,
-0.016324,-0.003917,-0.001844,-0.019418,-0.006684,-0.002108,0.000169,0.002766,
0.005207,0.013236,-0.009912,-0.006475,-0.000695,0.000664,-0.007883,0.002005,
-0.008673,-0.002672,-0.000131,0.000668,0.002904,0.000565,-0.002435,-0.001405,
-0.002516,-0.001001,0.002145,-0.002271,-0.009788,-0.000456,-0.000126,-0.002365,
-0.012611,-0.007386,-0.003605,0.000245,-0.003982,0.003848,-0.001875,0.001647}
,
{
0.008243,-0.034041,-0.076521,-0.028559,0.012320,0.005747,0.002219,0.002651,
-0.069894,-0.022857,0.032114,-0.010192,0.007411,0.003748,-0.002652,0.002712,
0.071033,-0.003956,0.005077,0.008482,0.007851,-0.007486,-0.016756,-0.001410,
0.027427,0.017783,0.000916,0.007374,0.019985,-0.003359,-0.009130,0.003673,
-0.027662,-0.003905,0.010484,-0.018421,-0.003120,-0.010443,0.011782,0.001201,
0.007162,-0.001471,-0.010640,0.006005,-0.013232,-0.007812,0.013265,0.004259,
-0.006490,-0.004081,0.001702,-0.003227,0.009928,-0.003209,-0.003500,-0.002348,
0.014161,0.007135,0.014931,-0.000800,-0.002524,-0.007773,-0.011860,-0.004007}
,
{
0.097924,0.043758,0.009567,0.014647,0.025445,-0.009289,-0.023460,0.009579,
0.048338,0.013119,0.000802,-0.015288,-0.004983,-0.004180,0.000930,-0.002103,
-0.066893,-0.000850,-0.013713,-0.027485,0.001644,0.012048,0.016127,0.001854,
-0.033722,0.032583,-0.017157,-0.010564,-0.001016,0.003018,-0.003241,-0.003397,
0.008580,-0.035657,-0.016722,0.028238,0.031177,0.016813,0.000218,-0.007542,
0.007443,-0.010109,0.023959,-0.002117,0.006273,0.001201,-0.010798,0.001453,
0.010118,0.008081,0.000432,0.003573,-0.004267,0.009321,0.005407,-0.000087,
-0.013632,0.003080,-0.003563,-0.000828,0.003795,-0.002436,0.008428,-0.001133}
,
{
0.016007,0.005430,-0.006333,0.001204,0.000801,-0.002614,0.002180,0.003014,
-0.002797,0.009423,0.001192,0.001127,0.002157,-0.004089,0.000565,-0.000852,
-0.016239,0.003514,0.002525,-0.001467,-0.000234,-0.001209,0.000403,0.002991,
-0.003649,-0.010102,-0.000926,0.000412,0.003187,0.001542,-0.000877,-0.000076,
0.000465,-0.000045,-0.000290,-0.002359,0.000661,-0.000108,-0.000721,-0.000536,
0.000555,0.001167,0.001140,0.001010,-0.000309,0.000915,-0.000109,-0.002313,
0.002812,0.000236,-0.003021,0.000334,0.000946,0.001672,0.001473,0.000188,
0.001296,0.000070,-0.000104,-0.001238,-0.000483,0.001433,0.000143,0.001180}
,
{
0.001534,-0.011469,0.004984,-0.003255,-0.000630,-0.004797,0.000408,-0.000503,
0.007689,-0.003013,0.002432,0.001238,0.001372,-0.002170,0.000693,-0.000870,
0.009297,-0.002487,0.005042,-0.006577,-0.004288,-0.001283,-0.000589,0.003475,
-0.003454,0.008421,0.006202,-0.005638,-0.004664,-0.000038,-0.000244,-0.003424,
0.010902,0.002069,-0.001924,-0.001799,0.000778,-0.002845,-0.000571,-0.001975,
0.007079,0.000351,0.004793,-0.001089,-0.001486,0.004466,0.005294,-0.003412,
0.002299,0.002494,-0.004344,0.001140,-0.000119,0.003936,0.002547,0.002104,
0.007363,0.000299,-0.002380,-0.002190,0.001258,-0.002105,0.003313,0.003266}
,
{
0.007634,-0.020125,0.013900,-0.003259,-0.012682,0.000414,0.009170,-0.009060,
0.024076,0.006921,-0.005937,0.011562,-0.005584,0.003440,-0.002075,0.004912,
-0.007789,-0.004182,0.016688,-0.008502,0.023620,0.002884,-0.001004,-0.003798,
-0.009991,0.001150,-0.001271,0.005589,0.021243,-0.004792,-0.004659,0.000731,
0.021966,0.020613,-0.000122,0.004141,0.003377,-0.003956,0.003012,0.003617,
0.001837,0.002128,-0.001067,-0.000209,-0.002400,-0.003820,0.005125,0.004023,
0.005079,-0.002478,0.002064,-0.005395,0.001018,-0.008536,-0.000815,-0.001666,
0.010534,0.004266,0.001912,-0.000062,-0.003684,-0.003599,-0.004172,-0.000766}
,
{
-0.000670,0.027164,0.008558,-0.032185,-0.008416,-0.004398,0.004359,-0.000119,
0.021773,-0.010855,-0.000301,0.008255,-0.002385,-0.006285,-0.000365,0.003848,
-0.000033,0.010419,0.003573,-0.000553,0.016039,0.000653,0.005792,0.003144,
-0.011227,-0.001793,0.000918,-0.007012,0.014666,-0.003439,-0.002072,-0.001110,
-0.011249,-0.002718,0.000529,0.005794,0.010353,0.006654,-0.015549,-0.001006,
-0.000427,-0.001819,0.011408,-0.003802,0.002683,0.001077,-0.000526,-0.006672,
0.020890,-0.001288,-0.002026,-0.002049,-0.011717,0.000823,0.004200,0.003363,
-0.006204,-0.011162,-0.006716,-0.002586,0.001012,-0.002260,0.002074,0.004234}
,
{
0.023786,-0.092990,-0.001997,0.027945,0.031622,-0.005682,0.022006,-0.016026,
0.008600,-0.027978,0.003659,0.009960,-0.004928,0.009529,-0.005691,0.007597,
-0.034684,-0.020532,-0.003874,-0.018551,0.000499,0.001452,0.009029,-0.000691,
-0.010586,-0.012258,0.003044,0.012079,0.019249,-0.004919,-0.003638,0.002618,
0.010028,-0.004002,-0.005347,0.013600,0.011043,0.008148,-0.010965,0.004681,
-0.014379,0.000298,0.011227,0.000733,0.004263,0.002064,-0.000598,-0.002695,
0.008594,-0.006294,-0.003737,-0.000227,-0.011432,-0.000514,-0.000006,-0.003905,
-0.019860,0.000075,-0.010737,0.002649,-0.003022,-0.005281,0.006120,0.003288}
,
{
-0.047013,-0.035160,-0.014484,-0.003179,0.015531,0.008263,-0.015260,0.021824,
-0.071428,-0.030276,-0.020488,0.005090,-0.006126,-0.019218,0.007183,-0.008202,
0.033493,-0.021844,0.006561,0.015529,-0.014033,-0.014055,-0.013496,-0.007842,
0.018500,-0.020013,-0.015186,-0.004300,0.000159,0.007846,-0.002743,0.001965,
-0.007995,0.025096,0.012544,-0.023091,-0.015708,-0.015149,0.023009,-0.008756,
0.019825,-0.001701,-0.016137,0.013531,-0.003407,-0.005459,0.000840,0.016309,
0.003201,-0.001302,0.002893,0.007596,0.029293,0.004426,-0.010561,0.001176,
-0.004730,0.006311,0.012107,0.002319,0.003648,0.004194,-0.008749,-0.007990}
,
{
-0.023387,-0.008777,-0.043166,-0.015912,0.011208,0.014715,-0.001729,0.011489,
-0.019538,0.008878,-0.038027,0.001718,-0.001996,-0.009419,-0.001013,0.003165,
-0.029492,-0.031625,0.008336,0.008682,-0.006200,-0.005504,0.001194,0.009884,
0.031950,-0.005865,-0.008147,-0.018935,-0.006888,0.003134,0.003427,0.002401,
-0.003895,-0.018648,0.004930,-0.002344,-0.020267,0.009475,0.001616,-0.001883,
-0.000479,-0.008641,-0.006284,0.015683,-0.001148,-0.008663,-0.006408,-0.008618,
0.023501,-0.003046,-0.001827,0.007636,-0.000178,0.005662,-0.001960,-0.003292,
0.001989,-0.002108,0.003597,0.006746,0.004406,0.003451,-0.005193,-0.009415}
,
{
0.024276,-0.056959,0.055406,-0.008419,-0.000063,-0.006479,-0.001116,-0.041473,
0.081113,-0.001916,0.011535,0.005639,0.002627,-0.003024,-0.012867,0.009251,
-0.097140,-0.026947,-0.035107,0.018147,-0.010237,0.000661,0.004082,-0.006736,
-0.038112,-0.040921,0.017391,0.024633,0.005923,-0.013805,-0.015613,0.013799,
0.004431,-0.016761,0.009641,0.015976,0.010079,-0.006394,-0.006078,0.015614,
-0.002522,-0.000623,0.007897,0.006671,-0.012038,0.003607,0.010983,0.005675,
-0.004604,-0.014783,-0.001139,-0.017376,-0.017215,-0.017043,-0.001747,-0.003957,
-0.007181,0.003162,-0.000510,0.006237,-0.013367,-0.006695,0.003043,0.007169}
,
{
-0.012225,-0.003763,0.006261,0.003512,0.000892,0.000170,0.000774,0.006287,
0.004358,0.009257,0.003033,0.005026,-0.000332,-0.001933,-0.000161,0.001072,
-0.005875,0.011726,0.006614,0.000572,0.004122,-0.000703,0.001575,0.000432,
0.010858,0.003244,-0.000425,-0.002334,0.003865,0.000890,0.000610,0.002224,
0.000082,-0.001485,-0.000152,0.000568,-0.000387,0.001712,-0.003295,0.000798,
-0.003511,0.000856,0.000003,0.000227,0.001274,-0.001174,-0.003107,-0.001706,
-0.009030,-0.002020,-0.001951,0.000743,-0.000646,0.000801,-0.001137,-0.001348,
-0.008543,-0.000479,-0.000591,0.001745,0.000044,-0.001217,0.000329,-0.001195}
,
{
0.012733,0.009742,-0.007553,-0.031208,-0.005909,0.000909,-0.005140,-0.001532,
-0.039542,-0.012593,0.013419,-0.000777,-0.000075,0.005803,-0.004140,0.000385,
0.008064,-0.007482,0.004731,0.003625,-0.010665,-0.001400,-0.004110,-0.001500,
-0.008144,-0.008791,-0.001209,-0.003692,-0.013175,-0.004035,0.001649,-0.000881,
-0.004174,0.005152,0.003047,-0.000889,-0.005130,-0.003757,0.000947,0.002456,
0.001912,-0.003149,0.000558,0.001494,-0.004107,-0.002765,0.001652,0.001263,
0.013744,0.001347,0.000842,-0.003467,-0.000977,-0.005580,-0.000259,-0.001924,
0.018503,0.004049,0.004513,0.000139,-0.003606,0.000615,-0.004499,-0.002392}
,
{
0.007867,-0.001844,0.003652,0.005154,0.007956,0.001284,0.003990,-0.002010,
-0.001291,0.017390,-0.024401,-0.008775,-0.002356,0.002956,0.004281,-0.003535,
-0.019060,-0.011269,-0.001342,0.001435,-0.007777,0.000610,0.004931,-0.000562,
-0.011151,0.007915,0.001719,0.009525,0.000624,0.004289,-0.000197,-0.005402,
0.002440,-0.024936,0.001474,0.001049,0.007462,-0.000477,0.002626,-0.006513,
0.008290,0.003360,0.001603,0.000224,0.000179,0.006672,-0.000580,0.002037,
0.000807,0.005044,-0.002097,0.004350,0.003838,0.002938,0.004533,0.005807,
-0.022633,-0.001043,-0.002687,-0.005652,0.003185,0.001131,0.003816,0.005552}
,
{
0.032417,-0.063267,0.010324,0.017746,0.019753,-0.001456,0.005365,-0.007842,
-0.006551,0.027043,0.002872,-0.030728,0.002705,-0.009549,0.007459,-0.005304,
0.036661,0.004870,0.012440,-0.021706,-0.001735,-0.014856,-0.001418,0.008489,
-0.004161,-0.009532,0.008503,0.007372,-0.001388,0.006143,-0.008183,-0.005532,
0.008993,-0.004921,-0.009167,-0.004715,0.016611,-0.005460,-0.006695,-0.007323,
-0.001035,0.005588,-0.003203,-0.005824,0.000811,0.008139,0.004725,-0.006608,
-0.003547,0.005055,-0.010180,0.004067,0.004856,0.004830,0.007929,0.009506,
0.002889,-0.007924,-0.003150,-0.009385,0.005005,-0.000233,-0.000328,0.009920}
,
{
-0.000999,-0.075304,0.018169,-0.038101,-0.024812,-0.006421,-0.045715,-0.001630,
-0.068156,0.033729,0.008633,-0.010995,0.018352,-0.003328,0.001322,-0.014194,
-0.041829,-0.022191,-0.048911,-0.016978,-0.038278,-0.000187,0.003840,-0.001655,
0.037480,0.018215,-0.009198,-0.009010,-0.019649,0.003156,0.015693,0.000905,
0.018036,-0.036307,-0.001725,-0.014785,-0.012969,-0.000582,0.010890,-0.008038,
0.005384,-0.019187,-0.012145,0.000413,0.002183,-0.008374,-0.023365,0.006664,
0.006582,0.006462,0.017835,-0.000479,0.001006,0.004864,-0.004165,-0.000026,
0.001567,-0.003756,0.005194,0.004423,-0.001617,0.022413,-0.010407,-0.010969}
,
{
-0.066001,0.022030,0.019746,0.065649,0.003296,-0.000999,0.022305,0.007345,
0.011699,0.004702,-0.017461,-0.015636,-0.005482,0.006246,0.006820,-0.002331,
0.079419,0.017666,0.006340,-0.024150,0.010207,-0.001853,0.010832,0.007047,
-0.042596,0.001922,0.003114,0.007003,0.018801,0.007887,0.012440,-0.016137,
0.012336,-0.020262,-0.024989,0.025312,0.036451,0.006399,-0.008814,-0.011714,
-0.011768,-0.000340,0.013396,-0.007016,0.002876,0.006037,-0.000692,-0.009586,
0.001550,0.012846,-0.003699,0.010605,-0.004525,0.007743,0.015833,0.009579,
-0.010350,0.002499,-0.007774,-0.013581,0.011283,-0.001716,0.012989,0.008190}
,
{
0.146737,0.090395,0.091092,0.016385,-0.004003,0.000783,-0.000694,-0.008688,
-0.020055,-0.011438,0.011411,-0.011007,-0.007861,-0.009064,-0.001579,0.003392,
0.004675,0.024431,0.015895,-0.000923,-0.002137,-0.010716,-0.006321,-0.006345,
-0.039208,0.007349,0.013276,0.004346,-0.015119,-0.000404,-0.007447,0.003526,
0.003708,0.004026,-0.002831,0.006235,0.002406,-0.004932,0.005851,-0.000041,
0.006759,-0.007259,0.002344,0.001724,-0.008074,-0.002630,0.002384,0.006371,
0.001899,-0.005483,0.007411,-0.004198,-0.007146,-0.002822,-0.004345,-0.000076,
0.015753,0.002833,0.006543,0.003199,-0.001449,-0.007320,-0.012214,-0.004946}
,
{
-0.088262,-0.083586,0.050729,-0.034762,-0.013807,-0.005237,0.016776,-0.012745,
-0.024735,-0.015849,-0.029938,-0.000767,-0.008500,0.013505,-0.006546,0.017951,
-0.001081,0.029859,-0.007350,0.007126,0.012889,-0.018386,-0.005054,-0.007785,
-0.021140,0.001810,-0.005439,0.011732,0.032259,-0.005383,-0.022283,0.001561,
0.002446,-0.004247,-0.011538,-0.008204,0.002124,0.001719,-0.006099,0.007300,
-0.004615,0.010073,0.007713,-0.000075,0.005645,0.006513,0.022397,0.005741,
0.010975,-0.008147,-0.008766,0.005669,-0.005322,0.006776,-0.001939,-0.005480,
-0.028571,0.011871,-0.009394,0.001130,0.001189,-0.032941,0.019033,0.004294}
,
{
-0.001112,0.001273,-0.000765,0.000394,-0.000373,0.000052,-0.000518,0.000120,
-0.002813,0.002760,0.001640,-0.000427,-0.000089,0.000096,-0.000376,0.000311,
-0.000127,-0.000962,-0.000176,-0.000130,0.000031,-0.000006,-0.000192,-0.000127,
0.001281,-0.000431,-0.000323,0.000099,0.000413,-0.000475,-0.000314,0.000254,
-0.000204,-0.000244,0.000060,0.000260,0.000180,-0.000128,0.000065,0.000515,
-0.000274,-0.000191,-0.000087,-0.000035,-0.000192,-0.000249,0.000218,0.000163,
-0.000153,-0.000293,0.000115,-0.000375,0.000059,-0.000307,-0.000225,-0.000314,
-0.000407,0.000236,0.000196,0.000174,-0.000367,-0.000222,-0.000211,-0.000196}
,
{
-0.006594,-0.005121,0.001631,0.002447,-0.000436,-0.000331,0.000625,0.001458,
0.000974,0.001348,0.001063,0.000267,0.001344,-0.000912,0.000005,-0.000805,
0.001806,-0.000370,-0.000172,0.000369,-0.000354,-0.000133,-0.000667,-0.001197,
-0.002187,0.000687,-0.001803,-0.000712,-0.000423,0.000056,0.001396,0.001512,
0.002075,0.001167,0.000367,-0.000451,-0.001319,-0.000575,0.001943,0.000371,
0.000522,0.000005,-0.003427,-0.000250,-0.000324,-0.001011,-0.001463,0.001478,
-0.001600,-0.000842,0.002248,-0.000573,0.000683,-0.001330,-0.001560,-0.000495,
0.000473,-0.000136,0.001647,0.001235,-0.000633,0.001757,-0.001245,-0.001353}
,
{
-0.001180,0.003503,0.004582,0.003300,-0.001559,-0.001240,0.000787,-0.001714,
-0.000979,0.002802,-0.002634,0.002987,-0.000053,0.001287,-0.001640,0.001912,
0.001042,0.003584,0.002990,-0.000367,0.000999,0.000840,0.000549,0.000632,
-0.001593,-0.003475,0.001049,0.001504,0.004187,-0.001774,-0.001220,-0.000954,
-0.003649,0.001562,-0.001742,0.001501,0.002684,-0.000342,-0.003378,0.001562,
0.001239,0.000339,0.002801,-0.000367,0.000562,0.001119,0.003308,-0.001396,
0.001867,-0.000329,-0.002719,0.000072,-0.001371,-0.000134,0.000794,-0.000595,
-0.004954,0.000956,-0.001200,-0.000459,-0.000382,-0.002137,0.002382,0.001508}
,
{
0.001923,0.003723,0.001913,0.006785,-0.002248,-0.000020,0.000833,-0.004460,
-0.008524,-0.002441,-0.007992,-0.003486,-0.002205,-0.001270,0.001935,-0.000246,
-0.008234,-0.001071,0.006267,-0.000191,0.004517,-0.000996,0.001429,0.001757,
0.005385,-0.001109,0.006339,-0.000188,0.005162,0.002231,-0.001030,-0.000308,
-0.003426,0.003364,-0.002214,0.002500,0.001221,0.001324,-0.001716,-0.001928,
0.000244,0.002941,0.000796,0.000011,0.002631,0.002507,0.000144,-0.002466,
0.001631,-0.000995,-0.003301,0.002812,0.000933,0.002419,0.000458,0.001423,
-0.002787,-0.000889,-0.002384,0.000051,0.002512,-0.001100,0.003129,0.002334}
,
{
-0.009697,0.002479,-0.004016,0.011546,-0.006616,0.001888,-0.004953,-0.002742,
0.005512,0.001346,-0.004450,0.002970,0.003633,0.001798,0.002328,-0.003332,
-0.002480,-0.009839,0.002531,-0.001134,-0.003750,0.001261,-0.001552,-0.002276,
0.013617,-0.001795,-0.003353,0.001066,-0.003173,0.002481,0.001197,0.000369,
-0.006684,-0.002724,0.000873,-0.000959,-0.004750,-0.001315,0.005093,-0.001622,
0.000462,0.002965,-0.004037,-0.002103,0.000861,0.002650,0.000295,0.003147,
0.004222,0.000211,0.001899,0.001733,0.005282,0.001944,-0.001932,0.001659,
0.006640,0.001524,-0.000043,0.001053,0.002301,0.001968,0.001492,0.000296}
,
{
0.002992,0.004860,0.004445,-0.001870,-0.003389,-0.000835,0.002817,-0.002034,
0.006816,-0.004318,-0.010509,-0.001808,-0.003669,-0.004706,0.003113,-0.002449,
-0.009382,-0.002769,-0.009583,-0.003715,-0.000658,0.001513,0.002763,-0.000996,
0.001742,0.000225,-0.008033,-0.000626,-0.004549,0.004880,0.004304,-0.001612,
-0.000806,-0.003097,0.003676,-0.004738,-0.004274,0.001768,-0.000312,-0.004359,
0.003475,0.002768,-0.000477,0.000032,0.004242,0.003232,-0.003483,-0.000279,
0.007163,0.002255,-0.001245,0.004469,0.000574,0.004229,0.000383,0.002037,
0.003462,-0.002218,-0.002528,-0.000613,0.003677,0.002398,0.003931,0.001283}
,
{
-0.002828,-0.011183,-0.005483,-0.004944,0.009615,0.000280,0.001465,-0.006272,
0.005091,0.001524,-0.007897,-0.004956,0.003640,-0.000837,-0.001132,0.000643,
-0.007321,-0.004288,-0.001204,-0.001305,0.007849,0.003143,0.001544,-0.001490,
0.005650,-0.001073,-0.001169,0.003896,0.006049,-0.001789,-0.003317,0.005698,
-0.004663,0.007882,-0.001384,0.003731,-0.001836,0.003335,0.003121,0.002411,
-0.003549,-0.000899,-0.000102,-0.001720,0.001717,-0.002109,-0.002807,0.002863,
0.002910,-0.005187,0.001277,-0.001174,0.000560,0.001138,-0.004528,-0.002817,
0.005554,0.001412,-0.002045,0.004530,-0.001346,0.001279,0.000150,-0.002822}
,
{
0.004953,-0.006436,0.001862,-0.005387,-0.000048,0.003204,-0.001123,0.005362,
-0.012630,-0.005472,-0.003275,-0.009304,-0.003231,-0.000294,0.000388,-0.000928,
-0.010395,0.008498,0.001875,-0.005482,-0.003900,-0.001854,-0.000748,-0.000439,
-0.006155,0.008059,-0.004232,-0.004369,-0.004442,0.000937,0.000676,-0.000739,
0.001932,0.005044,0.001742,-0.007177,-0.006257,-0.000077,0.001640,-0.000932,
0.001684,0.000881,-0.000322,0.002155,0.000354,0.000369,-0.000377,-0.000169,
0.006661,0.001185,0.000218,0.001804,0.000760,0.001490,-0.000726,-0.000113,
0.006699,0.001564,0.000666,0.000160,0.000300,-0.000535,0.000248,-0.001121}
,
{
-0.000578,-0.001057,0.002338,-0.001302,-0.001473,-0.001723,0.002279,0.000550,
0.005308,0.004654,-0.000770,0.001186,0.000037,0.000451,-0.000902,0.000832,
-0.008738,0.003823,0.001280,-0.000027,0.000975,0.000032,0.000902,-0.000038,
-0.001152,-0.001300,0.002309,0.000237,0.001014,-0.000747,-0.000125,0.000044,
0.000041,0.001963,-0.000628,0.000593,0.000922,-0.000053,-0.000985,0.000612,
0.000359,0.000673,0.001835,0.000011,-0.000398,0.000876,0.000626,-0.000301,
-0.002882,-0.000463,-0.001621,0.000236,-0.001170,-0.000160,0.000165,-0.000394,
0.000247,0.000487,-0.000708,0.000028,-0.000527,-0.000658,0.001478,0.000656}
,
{
0.005248,0.009050,-0.003827,0.004353,0.000665,-0.001544,0.004809,-0.003609,
0.006600,-0.001262,0.009406,0.004867,-0.001139,0.003290,-0.000698,0.002113,
0.003100,-0.002452,-0.006176,-0.001751,0.000375,-0.000688,0.001058,0.000911,
0.004986,-0.003087,0.000177,0.001675,0.003487,-0.000839,-0.002846,-0.001243,
-0.001770,-0.000418,-0.003824,0.003569,0.004865,0.001182,-0.003478,-0.000080,
-0.000618,0.001814,0.005900,-0.001070,0.000153,0.003760,0.003271,-0.001641,
0.002869,-0.000684,-0.004283,0.001867,-0.001015,0.001915,0.001685,0.001091,
-0.006131,0.000274,-0.003245,-0.001131,0.001179,-0.004551,0.004713,0.003758}
,
{
0.001536,0.004165,-0.004572,0.006155,0.001137,-0.002807,0.007301,-0.008830,
0.006468,-0.005549,0.003808,-0.000466,-0.002330,0.003644,-0.003443,0.005790,
-0.005912,-0.002221,-0.006338,0.000070,0.006154,0.000960,0.002796,0.002345,
-0.002110,0.001985,0.000869,0.000670,0.004419,-0.003059,-0.004608,-0.001262,
0.002899,-0.000492,-0.003549,0.004970,0.009187,0.002740,-0.008743,0.003281,
0.000998,0.000213,0.008953,-0.000173,0.000875,0.000746,0.004282,-0.003895,
-0.000377,-0.001526,-0.006062,-0.000196,-0.004988,-0.000636,0.002434,-0.002118,
-0.010311,0.000301,-0.003769,-0.001038,-0.001110,-0.006113,0.003827,0.002268}
,
{
0.000191,-0.000956,-0.009277,0.002755,-0.004000,-0.001054,-0.002005,0.004299,
0.009723,-0.007338,0.005230,-0.000787,0.004578,-0.002029,0.002818,-0.005233,
-0.002836,-0.007869,-0.005492,0.000474,-0.007516,-0.000290,-0.001212,-0.004177,
0.001041,0.000473,-0.001509,-0.001621,-0.005317,0.003194,0.000547,0.006274,
0.003059,-0.000630,0.004700,-0.003070,-0.009087,0.000726,0.011060,-0.001425,
-0.000371,0.000182,-0.011794,-0.000977,0.001280,-0.002361,-0.006298,0.006824,
0.003996,-0.003212,0.009184,0.001163,0.006955,0.000029,-0.006414,-0.000003,
0.007756,-0.000696,0.002867,0.005303,0.000614,0.007043,-0.004753,-0.004558}
,
{
0.011598,-0.003880,0.000543,0.004466,-0.000305,-0.002491,0.003527,-0.006966,
0.001543,0.002751,-0.004773,-0.003148,-0.001469,0.002020,-0.002145,0.003191,
0.001539,-0.002248,0.005178,-0.002993,0.002100,0.002022,0.001629,0.000993,
0.006658,0.004758,0.002262,-0.000852,0.001661,-0.001924,-0.001246,-0.002671,
-0.000303,-0.000085,-0.003460,0.001506,0.002975,0.000631,-0.004343,0.001206,
0.002465,0.000567,0.005892,0.000234,-0.000276,0.002645,0.004118,-0.002581,
0.001984,0.000543,-0.004327,0.000263,-0.003706,0.000480,0.002020,-0.000584,
-0.007970,0.001293,-0.002779,-0.001046,0.000030,-0.005483,0.004599,0.002168}
,
{
-0.034086,-0.009525,-0.015769,0.002042,0.007591,0.002172,0.005779,-0.005397,
0.021394,0.019427,0.003295,-0.003884,0.000680,-0.005310,0.004776,-0.003619,
-0.003615,0.005210,0.003342,0.003540,0.004274,0.001746,0.000720,0.002580,
0.004396,-0.003583,-0.001093,-0.000135,0.001615,0.004583,-0.000523,-0.001738,
-0.001916,0.001999,-0.003632,0.001885,0.002772,0.001828,0.004161,-0.004437,
-0.004640,0.002611,0.000615,0.002522,0.001123,0.001233,-0.002820,-0.000857,
-0.002547,0.002455,-0.002067,0.004894,0.007382,0.004548,0.002373,0.003270,
0.006893,-0.002318,-0.001613,-0.002528,0.003547,0.002391,0.000130,0.001047}
,
{
-0.003799,0.000320,-0.013231,-0.000978,-0.008061,0.001599,-0.011495,0.007371,
-0.007617,0.002544,-0.011363,0.001979,0.002201,-0.001043,0.001905,0.001836,
0.001317,0.003738,-0.011054,0.005926,0.015587,0.001207,0.004358,-0.000980,
0.004802,-0.000315,-0.001350,0.007646,0.005689,0.002880,0.001979,0.001539,
0.004786,-0.000360,-0.002749,-0.000298,-0.001541,0.005954,-0.002412,-0.000231,
-0.002325,0.002284,0.003909,0.000011,0.004232,0.003373,-0.003745,-0.001946,
0.008110,-0.002726,-0.001468,0.005630,-0.002596,0.004898,-0.002209,-0.000136,
0.002731,-0.002180,-0.005479,0.003162,0.004035,-0.003989,0.007705,0.001414}
,
{
0.025359,0.003068,-0.016881,0.007827,0.013998,-0.000838,0.005485,-0.000005,
0.014072,-0.003434,-0.007383,0.000088,-0.000481,-0.006716,0.003918,-0.005283,
0.018012,-0.007851,-0.003122,-0.003477,-0.005162,-0.004049,-0.000803,-0.001935,
-0.005620,0.000760,-0.004269,-0.000681,-0.002146,0.004179,0.001020,-0.002366,
0.012218,0.001638,0.001291,-0.000926,-0.001010,-0.003816,0.003524,-0.005931,
0.006590,0.003826,-0.004727,-0.001356,0.003789,0.005487,0.001532,0.003237,
0.000624,0.002553,0.000199,0.005329,0.007389,0.002828,0.001069,0.004661,
0.016397,-0.000931,-0.002886,-0.003006,0.003829,0.007149,0.002374,0.004435}
,
{
-0.002465,-0.008929,0.002133,0.000217,0.000626,0.000997,-0.001268,0.000040,
0.004842,-0.000196,-0.008319,-0.002177,-0.000553,0.000754,0.000133,0.000665,
0.000970,0.008605,0.004464,-0.001712,0.006019,-0.000805,0.000230,0.000413,
-0.002563,0.002630,0.003429,0.000124,0.004237,0.000021,0.000013,-0.000096,
0.002391,0.000790,-0.001797,0.000251,-0.000113,0.000753,-0.001922,-0.000203,
-0.000258,0.000624,0.001676,-0.000405,0.000475,0.001028,0.000191,-0.001252,
0.002260,-0.000561,-0.000553,0.000848,-0.001158,0.000566,0.000026,0.000395,
-0.000533,-0.001037,-0.001209,0.000192,0.000783,-0.000661,0.001550,0.001155}
,
{
-0.013446,0.009127,0.005547,0.001563,0.005010,-0.003599,0.006816,-0.006908,
-0.000304,0.004474,-0.008549,-0.002370,-0.002471,0.002195,-0.001365,0.005456,
-0.001047,0.004038,0.009117,-0.005545,0.012436,-0.002575,0.003357,0.003105,
-0.002380,-0.006083,0.006398,0.000326,0.012319,-0.002317,-0.005901,-0.001160,
0.001813,-0.001960,-0.006169,0.007210,0.011640,0.002671,-0.008203,0.001555,
-0.001878,0.002236,0.010929,-0.001867,0.000050,0.004475,0.004661,-0.005214,
-0.002247,-0.002540,-0.006438,0.000385,-0.006781,0.000850,0.003327,0.000937,
-0.010216,-0.002561,-0.005524,-0.001528,0.000269,-0.007177,0.006669,0.005904}
,
{
-0.005311,-0.011326,-0.000182,-0.003270,-0.003681,0.001159,-0.004280,0.005639,
-0.005182,0.004607,0.004841,-0.000702,0.001938,-0.001659,0.001577,-0.002967,
-0.004904,-0.008197,-0.003965,-0.000863,-0.002932,0.001866,0.000074,-0.004870,
0.003287,-0.003973,-0.004917,-0.001299,-0.000042,0.001887,0.000590,0.004216,
-0.006537,-0.002053,0.001078,-0.001894,-0.002700,0.000912,0.006576,-0.000319,
-0.002687,0.001181,-0.005866,-0.002040,0.001148,-0.000322,-0.004658,0.005294,
0.003894,-0.002138,0.006687,0.000621,0.003467,0.000356,-0.003931,0.000122,
-0.001307,-0.001075,0.000315,0.003496,0.000860,0.003154,-0.000023,-0.001572}
,
{
-0.025835,-0.004337,-0.010302,-0.007051,-0.001033,-0.000590,-0.005510,0.006831,
0.002676,-0.011542,-0.011761,0.000850,0.000620,-0.005875,0.002874,-0.005628,
-0.008244,-0.003419,0.003492,-0.001113,-0.007191,0.000130,-0.002277,0.003121,
-0.001205,0.000217,0.002855,-0.005457,-0.008431,0.003600,0.005261,-0.003063,
0.000561,0.002367,0.002878,-0.005184,-0.005662,-0.004411,0.003045,-0.003378,
0.000084,0.000141,-0.006197,0.003533,0.000537,-0.000811,-0.001375,-0.001394,
-0.000412,0.005258,-0.000319,0.001106,0.006877,0.000191,0.002197,0.001504,
0.012876,0.001856,0.003540,-0.002524,0.001038,0.005729,-0.004553,-0.001630}
,
{
0.013376,-0.007710,-0.002647,-0.004704,0.007702,0.000470,-0.000546,-0.002014,
-0.006984,-0.002597,-0.004313,-0.001549,0.001205,-0.002636,0.004398,-0.005448,
0.014430,-0.004496,-0.000249,0.002544,-0.006016,-0.001284,-0.002044,0.001461,
0.013351,0.001206,-0.006282,-0.000047,-0.003309,0.005985,0.001071,-0.000998,
0.000953,0.005506,0.004527,-0.002415,-0.005346,-0.003799,0.003321,-0.004790,
0.001209,0.000164,-0.008741,0.000729,0.000450,-0.001279,-0.003430,0.000022,
0.000376,0.001966,0.000813,0.001017,0.005260,0.001220,0.000134,0.002375,
0.012526,-0.001811,0.002475,-0.001006,0.003280,0.006001,-0.004203,-0.001357}
,
{
0.003187,-0.008461,0.009248,-0.016840,-0.002312,0.001828,-0.003474,0.009804,
0.013641,-0.006859,0.010622,0.003209,0.005697,-0.001449,0.000762,-0.001133,
0.013986,-0.000006,-0.006422,0.001780,-0.001232,0.000652,-0.001805,-0.000838,
0.007198,-0.003542,-0.012704,-0.002937,-0.001361,0.001624,0.002977,0.001719,
0.014690,-0.007203,0.004469,-0.005268,-0.007175,0.000524,0.001560,0.000535,
0.001181,0.001465,-0.006198,0.000982,0.003591,-0.002680,-0.001202,0.001790,
-0.007267,-0.001905,0.001982,0.001265,0.005952,-0.000586,-0.003768,-0.001302,
0.007541,0.001128,0.002064,0.002001,0.001136,0.001745,-0.002068,-0.004271}
,
{
-0.043653,0.014475,0.022232,-0.025453,0.008258,-0.002311,0.009611,-0.007021,
-0.009368,0.005093,-0.017268,-0.007280,-0.001904,-0.001651,0.001468,-0.001748,
0.011354,0.015391,0.022778,-0.004636,-0.001126,-0.010061,0.003363,0.009203,
-0.000008,-0.003274,0.003266,-0.006630,-0.000309,0.000803,-0.008283,-0.000694,
0.005182,0.006455,-0.003263,0.007430,0.014792,-0.000515,-0.005934,-0.003765,
-0.005823,-0.001154,0.010365,-0.001078,-0.001203,0.002373,0.000722,-0.007463,
-0.004121,-0.000111,-0.011144,0.003251,-0.003110,0.005539,0.005144,0.004305,
0.001119,-0.007593,-0.001667,-0.003354,0.001316,0.000543,0.000470,0.005025}
,
{
-0.024848,-0.026434,-0.006316,0.027484,-0.019778,0.004816,-0.012319,0.001929,
-0.017502,0.002968,0.001489,-0.003371,0.003408,0.000898,0.001226,-0.000593,
0.015279,0.006947,-0.001876,-0.002492,-0.003447,-0.000986,-0.007142,-0.003081,
-0.001465,0.001917,0.002734,0.007224,0.002711,0.003346,0.006353,0.000543,
-0.009424,-0.001527,-0.001631,-0.004590,-0.016572,-0.005236,0.002370,0.000117,
0.003550,0.003490,-0.011257,0.002798,-0.003480,-0.002979,0.001618,0.003283,
0.000788,-0.000640,0.004839,-0.001092,0.005981,-0.008091,-0.003234,-0.000731,
-0.016604,0.002244,0.008764,0.002142,0.001090,-0.001920,-0.005950,-0.002993}
,
{
0.011636,-0.010358,0.000550,0.002195,-0.000633,0.001255,0.002830,-0.002830,
-0.001572,0.003208,-0.002549,0.001453,0.001325,0.000941,-0.000966,0.001587,
0.012592,0.005045,0.000860,0.001075,0.002206,-0.000870,0.001641,0.000250,
0.004859,0.003778,0.002675,0.000583,0.003229,-0.001042,-0.002295,0.001293,
0.001584,0.001985,-0.002276,0.003705,0.003138,0.001272,-0.002445,0.001218,
-0.000838,0.000340,0.001451,-0.000590,0.000563,0.000181,-0.000228,-0.000474,
-0.001076,-0.001789,-0.001605,-0.000589,-0.001737,-0.000979,-0.000141,-0.000345,
-0.003323,-0.001499,-0.001339,0.000604,-0.000548,-0.001400,0.000896,0.000655}
,
{
-0.009254,0.006709,-0.006246,-0.001099,0.003249,0.001119,-0.001847,0.003654,
0.001677,0.002717,0.001781,0.001871,-0.000200,0.001290,0.000054,-0.000540,
-0.005398,0.009578,0.001305,0.003054,-0.001516,-0.001067,0.000095,-0.000838,
0.006056,0.001660,-0.000300,-0.001696,-0.000977,0.000253,0.000394,0.000094,
0.000295,0.001626,0.000548,0.001766,-0.001298,0.000560,-0.000884,-0.000371,
0.001511,0.000736,0.000513,0.000034,-0.000420,0.000433,-0.000380,0.000285,
-0.002375,-0.000078,0.001331,-0.000997,-0.001720,-0.001329,-0.000104,0.000527,
-0.003956,0.000247,0.000213,0.000650,0.000348,-0.000673,0.000526,0.000803}
,
{
-0.013913,-0.012415,-0.006719,0.000948,0.001165,0.002467,-0.008708,0.011310,
0.007046,-0.003070,0.005520,-0.000751,0.004181,-0.007139,-0.001228,-0.001564,
0.001377,-0.001512,-0.000585,0.001611,0.000814,0.001247,-0.001301,-0.001320,
-0.010797,0.001684,-0.009655,0.002272,-0.000559,-0.002026,0.004395,0.002330,
-0.004565,0.003380,0.003083,-0.009653,-0.008256,-0.000350,0.005409,0.001501,
-0.002880,-0.006794,-0.006317,0.003750,0.000681,-0.008341,-0.005826,0.003062,
-0.001977,0.001381,0.004484,-0.002014,0.002015,-0.000258,-0.002731,-0.003749,
0.006918,0.000828,0.004933,0.000996,-0.003613,0.006087,-0.008048,-0.008252}
,
{
0.012292,0.013385,-0.012633,0.000844,0.000280,0.006266,-0.013892,0.003121,
0.007946,0.022296,-0.004179,-0.009133,0.005939,0.001424,-0.001566,-0.002485,
0.009063,-0.005845,0.008792,0.005206,-0.006311,-0.002340,-0.006072,-0.003450,
0.003838,-0.000980,0.001244,0.000455,-0.006815,-0.002868,0.002653,0.003457,
-0.001061,-0.002469,0.004463,-0.003999,-0.008872,-0.003941,0.008293,0.002704,
-0.006480,-0.008111,-0.010124,0.003052,-0.005452,-0.010960,-0.005477,0.005413,
-0.004132,0.000382,0.009953,-0.007120,0.001293,-0.008495,-0.003643,-0.003239,
0.011204,0.001947,0.010623,0.001906,-0.005464,0.006806,-0.014541,-0.009229}
,
{
0.016560,0.007829,-0.012418,0.000218,-0.002071,-0.002627,0.003135,0.010954,
0.029703,-0.003080,-0.020274,0.005689,0.000846,-0.001780,0.003501,0.000507,
-0.016597,0.003234,-0.002218,0.000847,0.011361,-0.002225,0.003067,0.001034,
0.007622,0.005080,0.011041,0.001636,0.008539,0.003933,-0.000289,-0.000261,
0.000819,0.000024,-0.003652,0.004709,0.001236,0.002960,-0.005255,-0.003474,
0.000208,0.008999,0.002712,-0.000763,0.004031,0.007227,0.001403,-0.004211,
0.008498,-0.001949,-0.004733,0.007075,-0.001787,0.004181,0.000730,0.003477,
-0.011808,-0.004108,-0.006562,-0.000323,0.005721,-0.004314,0.008383,0.006731}
,
{
-0.026532,0.015704,0.027992,-0.004596,0.006183,0.000651,-0.002934,-0.018354,
-0.031268,0.014549,0.003425,-0.025327,0.003159,-0.003460,-0.000513,-0.003749,
-0.022668,0.000161,-0.001739,0.005084,0.000126,0.003886,-0.002236,0.003646,
-0.021136,-0.000547,-0.006859,0.000772,-0.000963,-0.002279,0.002389,-0.000687,
-0.011246,-0.001833,0.002953,0.001688,0.001767,-0.001675,0.001581,-0.000264,
0.000097,-0.007591,-0.001528,-0.005183,-0.001900,-0.001217,0.000625,-0.000714,
0.009220,0.003052,0.004216,-0.006207,-0.000375,0.001725,0.002330,-0.000176,
-0.007730,-0.000038,-0.000311,-0.002277,-0.003183,0.005368,-0.003872,-0.000379}
,
{
0.015193,0.015962,-0.020225,-0.008940,0.011567,-0.004411,-0.028305,0.013144,
0.012473,0.011948,0.002718,-0.019567,-0.007692,0.002347,-0.002598,-0.002020,
0.011324,0.005447,0.002991,-0.021482,0.009292,0.001001,0.000743,-0.000648,
-0.018068,0.014362,0.002001,-0.011516,0.010913,-0.001497,0.002701,-0.002271,
-0.009722,0.016907,0.005826,-0.018341,-0.005562,0.002136,0.003252,0.002742,
0.010283,-0.001943,-0.001828,0.008104,-0.000378,-0.000192,-0.000043,-0.000191,
-0.002219,0.002869,0.004935,-0.003271,-0.003198,-0.001521,-0.000456,-0.003238,
0.014309,0.006662,0.000646,0.000427,-0.002360,0.001512,0.001322,-0.002873}
,
{
0.035253,0.039198,0.011247,-0.010938,0.005780,-0.004979,-0.014758,0.016232,
-0.022227,-0.002781,0.016260,0.002463,-0.005867,0.002615,0.012899,-0.009267,
-0.018327,-0.046724,-0.003014,-0.014194,-0.017736,0.000116,-0.007230,0.008607,
-0.011444,-0.018357,0.000742,-0.025996,-0.023876,0.016850,0.010177,-0.018711,
-0.002773,0.005211,0.005812,-0.011958,-0.002161,-0.009909,0.000617,-0.015875,
0.005890,0.016209,-0.001660,0.001588,0.000888,0.015809,0.009220,-0.010350,
-0.002538,0.016648,-0.014597,0.018574,0.020997,0.011823,0.012938,0.013776,
0.018295,-0.000308,-0.002774,-0.014796,0.014754,-0.001012,0.007586,0.011787}
,
{
0.002916,0.001421,0.000730,-0.005526,-0.005025,0.000206,-0.004774,0.002754,
0.004276,-0.001663,-0.001680,0.000482,-0.001620,0.000275,0.001454,-0.001553,
-0.004679,-0.001758,0.004485,-0.000997,-0.004649,0.000754,-0.000111,0.000146,
-0.006324,-0.001237,-0.002658,-0.000239,-0.004309,0.002052,0.002222,-0.001677,
0.003465,-0.002106,0.000374,-0.001530,-0.002206,-0.000000,0.001364,-0.001690,
0.000117,0.000864,-0.000350,0.000534,0.000518,0.000902,-0.000194,0.000009,
0.002234,0.002123,-0.000374,0.002052,0.001772,0.002045,0.000693,0.001116,
-0.000215,0.001912,-0.000791,-0.001111,0.001985,0.000208,0.000647,0.000098}
,
{
-0.005321,-0.006945,0.010294,0.007160,-0.000383,0.003926,0.001011,-0.003666,
0.004593,-0.017113,-0.004644,-0.003783,-0.002920,0.000863,0.001311,0.000437,
-0.004983,0.012529,0.005916,-0.003810,0.005034,-0.000311,0.001369,-0.000303,
-0.003910,-0.002205,0.005234,0.001290,0.003940,0.001610,-0.002627,-0.000296,
-0.001982,-0.000554,-0.003858,0.002208,0.002099,0.001230,-0.002898,-0.000698,
0.000037,0.002621,0.001324,-0.001505,0.003630,0.003572,0.000513,-0.000412,
0.003682,-0.000614,-0.003018,0.002346,0.000277,0.002532,0.000823,0.001438,
-0.005271,-0.000903,-0.003962,-0.000342,0.002432,-0.001869,0.004232,0.003480}
,
{
0.014574,0.013183,-0.001598,0.001283,-0.006465,0.002265,-0.005964,0.006190,
-0.005155,-0.012108,-0.021138,-0.003787,0.004204,-0.006484,0.002952,-0.006456,
0.002913,0.007120,-0.008899,0.000689,-0.004637,-0.001805,-0.001188,-0.004096,
0.000084,0.005760,-0.012582,-0.003324,-0.006945,0.004079,0.004645,0.004593,
0.007575,0.006021,0.007436,-0.004262,-0.005483,-0.001679,0.006396,-0.003386,
-0.003966,-0.003369,-0.012397,0.001744,0.000330,-0.007818,-0.010954,0.005420,
-0.008345,0.000746,0.008001,-0.001841,0.001827,-0.002380,-0.002812,0.000396,
0.007433,-0.004618,0.006251,0.001217,-0.000434,0.010497,-0.012066,-0.006782}
,
{
-0.001003,-0.005607,-0.011532,0.009899,0.004706,-0.000364,0.012256,0.000609,
0.004056,-0.007214,0.005993,0.003728,-0.001905,0.000535,0.000808,0.004480,
0.000679,-0.000859,0.006044,-0.001242,0.015666,0.001111,0.008686,0.002671,
-0.004821,0.004031,-0.001292,-0.004951,0.014702,0.000337,-0.004356,0.000969,
0.000521,0.001234,-0.007697,0.009941,0.013714,0.007093,-0.008077,-0.000689,
0.000775,0.007102,0.016132,-0.001310,0.001434,0.007813,0.001077,-0.005376,
-0.003473,-0.004240,-0.008003,0.005111,-0.004376,0.003422,0.001685,0.002557,
-0.012111,-0.005686,-0.009574,0.000426,0.002797,-0.007890,0.012630,0.007665}
,
{
0.014801,0.016678,-0.021917,-0.004389,0.000127,0.002188,-0.009599,0.004748,
-0.006382,0.012060,0.014732,-0.000322,0.002884,0.000221,-0.001972,0.000385,
0.019396,0.015701,0.007206,-0.005906,0.005068,0.002836,-0.003963,-0.005057,
-0.006457,0.003408,-0.005162,0.002621,-0.001376,-0.002332,0.003776,0.001783,
-0.002459,0.003756,0.001295,-0.002771,-0.008762,0.000095,0.008216,0.003021,
0.001346,-0.003726,-0.005657,0.001441,-0.002684,-0.005341,-0.002895,0.005340,
0.006689,0.000938,0.009521,-0.003006,0.000594,-0.004964,-0.003824,-0.004048,
0.009834,0.006142,0.007003,0.003270,-0.003026,0.000085,-0.005341,-0.007092}
,
{
-0.010670,-0.013287,-0.003210,-0.003449,-0.005491,0.005010,-0.018629,0.000139,
-0.002177,0.008669,0.003627,0.004303,-0.001602,-0.004820,-0.001405,-0.007852,
0.013685,-0.019690,-0.018827,0.005609,0.003644,-0.002270,-0.013152,-0.008957,
-0.029768,-0.001139,0.000458,0.002530,0.001638,-0.003649,0.005738,0.002368,
-0.016721,0.019680,0.000583,-0.008260,-0.009469,-0.013536,0.015703,0.001787,
-0.003458,-0.006896,-0.011014,-0.004592,-0.011871,-0.007770,-0.002395,0.012544,
-0.003799,0.002647,0.019559,-0.017207,0.003820,-0.016291,-0.003463,0.000315,
0.038168,0.003340,0.017968,0.001518,-0.008438,0.014258,-0.018776,-0.006076}
,
{
0.000445,0.031058,-0.030210,0.001845,0.003053,-0.003334,0.012563,0.009185,
-0.074399,0.015235,0.000598,-0.008365,0.002601,0.004730,-0.001641,0.011125,
0.016299,0.023092,0.003896,-0.003259,-0.008458,-0.015426,0.006196,0.004208,
0.001911,-0.019135,0.024149,-0.003698,0.002601,-0.000162,-0.012114,0.000527,
0.012944,0.017478,0.001647,-0.003116,-0.002282,0.008997,-0.011259,0.000573,
0.008054,0.007059,0.013182,0.007240,0.007541,0.007158,0.004800,-0.007206,
-0.009842,-0.007209,-0.012093,0.012466,-0.005928,0.006477,-0.000160,-0.001336,
-0.003390,-0.000740,-0.010060,0.001576,0.003712,-0.012762,0.014488,0.005439}
,
{
-0.066123,-0.044946,-0.026097,0.036527,-0.012065,-0.002969,0.010456,-0.000431,
-0.037142,0.001686,0.003353,-0.028287,0.009567,0.000043,0.006588,-0.001233,
0.006196,0.005523,0.001690,-0.013016,-0.010966,-0.014450,0.001779,0.006916,
-0.006527,-0.026312,-0.006977,-0.004958,-0.009725,0.009383,-0.004608,-0.003468,
-0.011123,-0.013125,0.002900,0.002954,0.013054,0.003740,-0.001043,-0.008320,
-0.006797,0.002262,-0.000151,-0.000926,0.003054,0.003344,0.000802,-0.006414,
-0.002607,0.000034,-0.012701,0.015728,0.007713,0.011649,0.003693,0.005522,
0.021758,-0.002275,-0.003459,-0.004285,0.010028,-0.008464,0.003190,0.002167}
,
{
0.004336,-0.005067,0.004318,-0.000473,0.005981,-0.000130,0.000652,-0.001500,
0.002218,-0.004693,0.005163,-0.003363,-0.002482,0.000502,0.001146,-0.001282,
0.009811,-0.004286,0.007189,-0.001928,-0.002930,-0.000083,-0.000153,-0.001112,
0.001978,0.000183,-0.002087,0.002332,-0.003734,0.000989,0.000072,0.000061,
0.003271,-0.003920,0.001314,-0.002305,-0.002220,-0.000529,0.002213,-0.001287,
0.000818,0.000150,-0.002837,-0.001459,0.001173,0.000500,-0.000791,0.001602,
0.001873,0.000589,0.002050,0.000974,0.000262,0.001102,-0.000598,0.000539,
0.004676,0.000115,0.000336,0.000123,0.000753,0.001702,-0.000009,-0.000067}
,
{
-0.014688,0.030073,0.002201,-0.006362,-0.012300,-0.000978,0.003422,0.000411,
-0.010556,-0.003811,-0.004171,0.004793,-0.000803,0.000348,0.002557,-0.002625,
-0.032933,0.008574,0.004890,-0.000104,-0.001523,0.001506,-0.002740,-0.002323,
0.015700,-0.001200,0.000424,-0.000174,-0.000791,0.002271,0.002317,-0.000121,
-0.006704,-0.003723,0.000674,0.000529,-0.002872,-0.001329,0.004171,-0.001615,
-0.002329,0.001912,-0.006274,0.000403,0.001163,-0.000555,-0.000140,0.002775,
-0.000521,0.001828,0.005722,0.000069,0.004064,-0.002665,-0.000011,0.000973,
-0.001730,0.000162,0.001885,-0.000837,0.000720,0.002703,-0.002526,-0.000005}
,
{
-0.011502,0.005774,-0.006156,-0.003599,0.012968,0.001047,-0.004789,0.014315,
0.007982,-0.005063,0.002963,0.000441,-0.000711,-0.003129,0.001589,-0.002363,
-0.002577,-0.003416,-0.009057,0.000919,0.011083,0.002363,-0.000297,-0.000925,
0.002819,-0.005249,0.001758,0.001600,0.000727,0.001958,0.009927,0.001700,
-0.002917,0.004433,0.002360,-0.004077,-0.007631,0.002107,0.001365,0.000169,
0.005625,0.000766,-0.006336,0.002094,0.002218,-0.003145,-0.006186,0.000415,
0.002078,0.000203,0.003661,0.001059,0.002348,-0.000032,-0.002684,-0.000971,
0.001762,0.000263,0.001354,0.002997,0.001207,0.005823,-0.000417,-0.004148}
,
{
-0.015606,0.017907,-0.007542,-0.009099,-0.000068,0.005126,0.003295,0.007962,
0.005972,0.017940,0.002209,-0.012806,-0.001002,0.004465,0.003930,-0.002276,
-0.013134,0.000390,0.000641,-0.001039,-0.004552,-0.003685,-0.002530,0.002430,
0.005699,-0.006530,-0.003530,-0.000808,0.002909,0.004507,0.004070,-0.001699,
-0.010209,-0.004820,-0.001368,-0.002036,-0.002004,-0.002542,0.003505,-0.004885,
-0.005667,0.004074,-0.005905,-0.000138,0.000302,0.001787,-0.001359,-0.001505,
0.008013,0.000590,-0.003826,0.008788,0.009908,0.003420,0.000276,0.003451,
-0.007631,-0.000905,0.002111,-0.001109,0.004731,0.000896,0.000122,0.001422}
,
{
0.019382,-0.025981,-0.023038,-0.002904,-0.002530,-0.003595,0.001135,0.005645,
0.025344,-0.005837,0.004567,-0.001259,0.005191,-0.005599,0.006481,-0.010719,
-0.007916,-0.007884,0.020710,0.006165,-0.012607,0.006055,-0.007219,0.000532,
0.009078,0.000785,0.008648,0.003395,-0.007172,0.006327,0.005166,0.002406,
0.000867,-0.003595,0.006949,-0.003607,-0.011611,-0.009372,0.010684,-0.005827,
-0.014257,0.002371,-0.010945,0.002145,-0.002667,0.000001,-0.007013,0.003196,
0.002975,0.003049,0.004146,-0.001475,0.011965,0.002105,-0.001076,0.005019,
0.020608,-0.000835,0.005957,-0.000313,0.002154,0.014207,-0.005518,-0.000225}
,
{
-0.007432,0.027782,0.002794,-0.011209,-0.008021,-0.013309,0.001502,-0.005838,
-0.013182,0.015925,-0.010244,-0.029265,0.003988,-0.003202,-0.005319,0.017042,
-0.025152,0.005741,0.048855,-0.005627,0.022386,0.009263,0.017251,0.006206,
-0.014820,0.015401,0.005988,0.012037,0.026389,-0.004685,-0.007016,0.000323,
0.033913,-0.021863,-0.019969,0.018720,0.022308,0.016422,-0.019899,0.006525,
-0.011859,0.007951,0.028423,-0.008008,0.009194,0.014700,0.008799,-0.012031,
-0.012478,-0.011266,-0.026960,0.016847,-0.009690,0.020180,0.002562,-0.002265,
-0.034468,-0.005459,-0.024048,0.001316,0.005697,-0.020891,0.031212,0.012578}
,
{
0.034366,0.023605,0.042030,-0.056031,-0.009231,-0.005246,0.026467,-0.007851,
0.088334,0.010307,0.112880,-0.018983,-0.004828,0.008177,0.002968,0.007949,
0.005670,-0.048383,0.041278,-0.006640,0.021889,-0.001342,0.009589,0.005832,
0.016549,0.023536,-0.012781,0.000094,0.023071,0.001616,0.003193,-0.013629,
-0.026951,-0.031562,-0.022563,0.032960,0.044758,0.006221,-0.018604,-0.003543,
0.001260,0.010263,0.022265,-0.013913,0.011729,0.018793,0.014192,-0.012305,
-0.008981,0.008535,-0.020796,0.011135,-0.006378,0.012262,0.017881,0.008561,
-0.016737,0.002971,-0.022516,-0.012643,0.012448,-0.019513,0.024525,0.018950}
,
{
-0.049952,0.077612,-0.072298,-0.012215,-0.011093,-0.000277,-0.003394,0.001831,
-0.004104,0.013232,0.023136,0.005593,0.021572,-0.004549,0.003624,0.000801,
0.006478,-0.003957,-0.004240,0.037173,0.008712,0.001187,-0.002853,0.002683,
-0.066669,0.017349,0.006011,-0.015938,0.014955,0.001441,-0.001644,-0.001053,
0.003294,0.006550,0.001519,0.007340,0.024380,0.005898,0.002626,-0.002602,
-0.012069,-0.005198,0.011037,0.012935,-0.005738,-0.006717,0.000336,-0.001266,
-0.000195,0.000564,0.006474,-0.002191,0.002148,0.001454,0.002368,0.002055,
0.000199,-0.002362,0.002680,-0.002405,0.001264,-0.005459,-0.007009,-0.004812}
,
{
0.000937,0.013365,0.001989,0.002206,-0.005039,-0.001274,-0.000402,0.000611,
-0.004041,0.003297,0.000254,0.001590,0.001670,-0.002424,-0.003345,0.004546,
-0.006319,0.013469,-0.001115,0.000620,0.006776,0.001092,0.001377,0.000645,
0.005616,0.001754,0.005328,-0.002804,0.001796,-0.003664,-0.000322,0.000211,
0.003238,0.001279,-0.003007,0.001330,0.002355,0.001370,-0.005538,0.003847,
0.001825,-0.001541,0.002587,0.000793,0.000536,-0.001428,0.001639,-0.002099,
0.001907,-0.000886,-0.002411,-0.002444,-0.004142,-0.002299,0.000608,-0.002500,
0.000956,0.000121,-0.001550,0.000587,-0.002164,-0.002973,0.000841,-0.000476}
,
{
0.004083,-0.006396,0.003772,0.011771,0.004392,-0.002310,0.002331,-0.001398,
0.013374,0.004707,0.005001,0.000431,-0.002461,-0.000155,-0.001165,0.002392,
0.001136,-0.006572,0.011710,0.000133,0.003789,0.001361,0.000334,-0.002091,
-0.002408,-0.001655,0.002823,0.000491,0.006517,-0.001461,-0.001675,0.002724,
0.020600,0.004427,0.001535,0.000173,-0.001613,0.001566,0.001032,0.001455,
0.003159,0.001093,0.000975,-0.002179,0.000951,-0.001730,0.002112,0.001854,
0.002041,-0.003765,-0.001111,0.001125,-0.000558,0.001713,-0.003059,-0.002228,
0.003970,0.001268,-0.001740,0.003073,-0.000410,-0.004519,0.001781,-0.001961}
,
{
0.010403,-0.018736,0.028389,0.017933,0.002231,-0.007777,-0.002999,-0.001048,
-0.012078,0.002098,0.017327,0.012303,-0.004400,-0.002076,0.002157,-0.001781,
0.003090,-0.038831,0.010409,0.001150,0.000511,0.006004,-0.000069,0.006258,
-0.016067,-0.008406,-0.003060,0.000078,-0.006408,0.002427,0.002652,-0.008945,
-0.004648,0.007954,-0.002801,0.001665,0.005288,-0.003965,-0.004220,-0.003332,
-0.003046,0.008056,0.006782,0.000516,0.001780,0.010114,0.007959,-0.007203,
0.001347,0.007075,-0.012478,0.006797,0.007529,0.006571,0.007336,0.004332,
-0.000504,0.003470,-0.006883,-0.006906,0.005047,-0.002531,0.009957,0.008275}
,
{
0.018347,-0.019564,-0.002867,0.029107,-0.008698,-0.004938,0.001997,-0.017304,
0.015239,0.020146,0.009134,0.014495,0.002780,0.002261,-0.008962,0.008132,
-0.003365,-0.014891,0.002133,-0.011685,0.012698,0.000743,0.003606,-0.009665,
-0.021641,-0.000456,0.001080,-0.013254,0.008200,-0.010992,-0.011778,0.013548,
-0.011094,0.006817,-0.011861,-0.010396,-0.005019,0.005864,0.003874,0.010636,
-0.009832,-0.007171,-0.000598,-0.000631,0.004253,-0.007482,-0.000977,0.011044,
0.001815,-0.013690,0.006242,-0.003234,-0.003588,-0.002102,-0.012312,-0.010292,
-0.017648,0.001055,-0.000137,0.010923,-0.008777,-0.001308,-0.000739,-0.007967}
,
{
0.079850,0.005386,0.034327,0.005633,0.009460,-0.007338,0.007188,-0.007089,
-0.020629,0.068812,0.013803,0.001242,-0.014817,0.001545,0.002378,-0.000145,
-0.002428,0.029841,0.015648,-0.035222,-0.016664,-0.000499,-0.002688,0.012146,
0.020287,0.004434,0.015978,-0.016738,-0.014390,0.003418,0.003631,-0.012585,
-0.015419,-0.021887,-0.009657,0.000029,0.018542,-0.006682,-0.008208,-0.004420,
0.001549,0.009820,0.002697,-0.001181,-0.002037,0.011248,0.014191,-0.011616,
0.009579,0.007785,-0.017927,0.007273,0.005141,0.001939,0.011029,0.006377,
-0.019446,0.003231,-0.001155,-0.009495,0.004778,-0.005739,0.010721,0.013865}
,
{
0.061729,-0.002810,-0.027954,-0.001159,0.016209,-0.008261,0.008124,0.001555,
-0.034894,0.007934,0.013976,-0.037781,-0.012405,0.007981,-0.003822,0.008213,
0.046051,-0.021150,-0.001695,-0.006213,0.018428,-0.014003,0.008209,0.006286,
-0.059708,-0.022137,0.016121,0.013056,0.018101,-0.004275,-0.018534,-0.001548,
0.013910,-0.015896,-0.021464,0.017111,0.015619,0.004854,-0.016049,-0.000329,
-0.003633,-0.002158,0.030780,-0.010336,0.001623,0.005854,0.003585,-0.008634,
0.016707,-0.003365,-0.012867,0.000722,-0.021161,0.001495,0.004694,0.001477,
-0.008468,-0.002547,-0.005987,-0.001224,0.000031,-0.007723,0.009060,0.009298}
,
{
0.097027,-0.102203,0.028808,-0.014536,-0.040439,-0.003887,0.012358,-0.005757,
0.070881,-0.022287,-0.050917,-0.002710,-0.002571,0.001022,0.003804,0.007124,
-0.028644,-0.091185,0.041500,-0.030962,0.015133,-0.005169,-0.008614,0.012944,
0.030175,-0.002062,0.010244,-0.000033,0.015888,-0.000008,-0.001908,-0.013353,
-0.007027,-0.004544,-0.035361,0.010309,0.022348,-0.003154,-0.008755,-0.004463,
0.003376,-0.001444,0.018995,-0.009548,-0.007789,0.005558,0.018707,-0.012063,
0.003483,0.009804,-0.016825,0.006128,-0.008864,0.004624,0.013441,0.007030,
-0.003902,0.000441,0.001104,-0.012706,0.004786,-0.022750,0.006891,0.011092}
,
{
-0.038055,-0.037757,0.006953,-0.012333,-0.012120,-0.000875,-0.022073,0.002541,
0.061077,0.013470,0.081141,-0.025047,-0.002618,-0.001730,0.003570,-0.008090,
-0.068507,0.008814,-0.000438,-0.012764,-0.014302,-0.025684,-0.012903,-0.002260,
-0.007685,0.003728,-0.018623,-0.002345,-0.012712,0.004605,0.009137,0.001035,
0.042763,-0.028038,0.008294,-0.010556,-0.018485,-0.015464,0.011210,0.000184,
-0.007923,-0.001327,-0.028963,-0.003106,-0.004274,-0.010051,0.002003,0.005063,
-0.003097,0.003762,0.014169,-0.004803,0.012727,-0.009706,-0.003967,-0.001774,
0.038618,0.005001,0.018767,0.001179,-0.001977,0.007591,-0.016634,-0.011000}
,
{
-0.006950,0.007678,0.002426,-0.002658,-0.004828,0.001925,-0.001671,-0.003082,
0.006555,-0.008160,0.003468,-0.005040,-0.000382,0.000106,0.001349,-0.002135,
-0.006837,0.002720,-0.001045,-0.002398,0.001817,-0.000447,-0.002325,-0.001425,
0.004436,-0.000793,-0.000377,0.001296,0.000229,0.000226,0.001132,0.002289,
0.004454,0.003925,0.001008,0.000129,-0.001580,-0.001804,0.004470,-0.000216,
0.002489,0.000734,-0.005978,-0.002028,-0.000436,-0.001581,-0.001336,0.001804,
-0.002897,-0.000875,0.004144,-0.001533,0.003490,-0.001913,-0.002454,0.000153,
-0.003590,-0.001441,0.002682,0.001903,-0.000514,0.002177,-0.002001,-0.001379}
,
{
-0.022431,0.007860,0.017137,-0.004065,-0.006078,0.000542,0.004198,0.005907,
-0.012563,-0.027678,0.007204,0.001483,-0.005214,-0.004724,0.001785,-0.001370,
0.048392,0.011840,0.013560,0.001828,0.004961,-0.001720,-0.003956,0.001152,
0.000841,-0.000424,0.001378,-0.000799,0.000172,-0.000548,0.001667,0.002920,
-0.008939,0.006030,0.000451,0.009059,0.005753,-0.008338,0.003459,-0.000219,
-0.006131,0.000734,-0.007603,-0.001641,-0.004610,-0.003295,-0.000265,-0.000360,
-0.003320,-0.001558,0.007225,-0.005944,-0.001747,-0.010371,0.000771,0.001773,
-0.005224,-0.001415,0.008097,-0.000517,-0.002910,0.004112,-0.010292,0.000931}
,
{
-0.001566,0.005063,0.019006,0.012236,-0.010770,-0.001927,-0.010639,0.005047,
0.007862,-0.012771,-0.003251,-0.004491,0.005774,-0.002346,0.000776,-0.000084,
-0.014392,0.003400,-0.000857,-0.011731,-0.000185,0.002682,0.002022,0.001163,
-0.000120,-0.008082,0.000719,0.005277,-0.003925,0.000869,-0.002969,-0.000399,
0.002840,-0.001899,-0.001491,-0.002187,0.002763,0.000687,0.001691,-0.001039,
0.002184,0.002262,0.008349,-0.003428,-0.001309,0.005823,0.003811,-0.000596,
-0.002436,-0.000523,-0.010076,0.006478,0.001946,0.011565,0.000699,0.001890,
-0.001337,-0.000525,-0.005551,-0.001132,0.002845,-0.006542,0.010469,0.002839}
,
{
-0.069263,0.023357,0.008125,-0.032689,-0.035031,0.001032,0.009343,-0.006821,
0.005537,-0.005915,0.018878,-0.010311,0.000932,0.006908,-0.000598,0.005107,
0.022300,-0.012846,-0.028864,0.003684,-0.012929,-0.002255,0.002517,0.000586,
0.010052,-0.015868,0.009301,0.015377,0.003416,-0.000799,-0.012096,-0.006080,
0.007530,-0.002863,0.004809,0.005249,0.012067,0.002483,-0.002436,-0.001857,
-0.014491,0.003827,0.008192,-0.000458,-0.002351,0.009771,0.006725,-0.000491,
0.014201,0.003112,-0.002477,-0.003018,-0.008009,0.000748,0.008424,0.004457,
-0.006001,0.002399,-0.004638,-0.008400,0.000091,-0.008786,0.007069,0.010739}
,
{
0.221796,0.023958,0.045943,-0.050402,-0.026650,0.004826,-0.001526,0.004065,
-0.058349,-0.002078,-0.011205,0.010400,0.013273,-0.001297,0.003721,-0.003731,
0.009309,-0.023344,-0.037096,-0.017986,0.013812,0.013535,-0.007374,0.002406,
0.040622,0.000231,-0.002390,-0.006172,0.014428,0.004500,0.005182,-0.001932,
-0.019895,0.007244,0.016946,-0.003818,-0.013809,-0.006900,-0.000546,-0.001110,
0.003542,0.011403,-0.014167,-0.002310,-0.003928,-0.002218,0.001571,-0.002386,
0.013870,0.002282,0.003079,-0.002598,0.009806,-0.009508,0.000002,0.001316,
-0.003446,-0.000823,0.009247,-0.001243,0.001264,0.003712,-0.007932,0.000424}
,
{
0.007349,0.053533,0.040901,-0.000801,0.013279,-0.013545,0.005631,-0.014660,
-0.069122,-0.007564,-0.009850,0.014361,-0.004166,0.014218,-0.004443,0.020406,
0.011416,-0.001985,-0.036283,-0.022260,0.006689,0.002064,-0.008385,-0.004663,
0.020588,-0.034958,0.025914,-0.004841,0.021433,-0.007595,-0.018624,-0.004594,
-0.027961,0.023085,0.000675,0.008829,0.016790,-0.014384,-0.010503,0.004569,
0.027435,0.004615,0.007961,-0.010950,-0.006468,0.010041,0.024970,0.001442,
0.005671,-0.007808,0.000011,0.001472,-0.005464,-0.008549,0.002708,0.001819,
-0.022003,0.008170,-0.003584,-0.003019,0.001923,-0.027796,0.006373,0.012445}
,
{
0.017096,0.086358,-0.004702,-0.001086,0.015168,0.005463,-0.005452,0.012370,
0.070690,-0.003694,-0.003204,-0.002856,-0.000784,-0.004637,0.007862,-0.011976,
0.011614,-0.012906,-0.033228,0.002965,-0.030002,0.002012,-0.013422,0.000400,
-0.008617,0.011496,-0.004067,-0.022193,-0.018124,0.009034,0.002997,-0.005753,
-0.022634,0.010415,0.005422,0.003538,0.004545,-0.010243,0.019674,-0.009239,
0.018869,0.001003,-0.009918,0.001830,-0.001330,-0.003985,-0.001530,0.006107,
-0.013191,0.012266,0.012683,-0.000482,0.024168,-0.005269,0.005498,0.007090,
0.024829,0.001091,0.013663,-0.006122,0.004975,0.016334,-0.010734,-0.000080}
,
{
0.021411,0.113836,0.006558,-0.056865,-0.004891,0.000365,-0.010657,0.003268,
0.013535,0.016472,0.002787,0.012148,0.011920,-0.000337,-0.002747,0.001078,
0.053583,-0.036901,0.003551,0.040330,0.000929,-0.000595,-0.002744,-0.007907,
-0.016867,-0.005942,0.021613,0.012636,0.000224,-0.005273,0.005212,0.004940,
-0.012172,0.040481,0.016035,0.016123,0.000878,-0.005849,-0.003883,0.004832,
0.023028,-0.004292,-0.005998,0.001480,-0.002419,-0.008650,-0.004781,0.006527,
-0.001171,-0.000290,0.014310,-0.014513,-0.015927,-0.017445,-0.000843,-0.003209,
-0.006549,0.004202,0.006507,0.002976,-0.006603,0.004719,-0.010271,-0.004176}
,
{
0.001363,-0.001160,0.000312,-0.000255,0.000265,-0.000464,0.000094,-0.000078,
0.000220,0.000539,0.000549,-0.000334,-0.000130,-0.000312,0.000145,-0.000140,
0.000848,-0.000277,-0.000403,0.000066,-0.000545,0.000007,0.000109,-0.000139,
-0.001007,-0.000369,-0.000325,0.000095,-0.000359,0.000209,0.000162,0.000096,
-0.000065,-0.000551,0.000129,-0.000260,-0.000297,0.000106,0.000237,-0.000173,
-0.000187,0.000070,-0.000078,0.000145,0.000078,0.000099,-0.000190,0.000120,
0.000396,-0.000052,0.000178,0.000265,0.000189,0.000222,-0.000093,0.000083,
-0.000279,-0.000038,-0.000063,0.000125,0.000170,0.000062,0.000160,-0.000036}
,
{
-0.000419,0.005224,-0.002842,-0.001419,0.000353,0.001504,-0.001458,-0.002504,
-0.004079,-0.003065,-0.001977,0.000028,0.001636,-0.000040,-0.000088,-0.000514,
-0.000214,0.000145,0.000193,0.000519,-0.001653,0.000947,-0.000921,-0.000658,
0.001311,0.000888,-0.002031,0.001263,-0.003008,0.000061,0.000853,0.000402,
0.000826,0.002021,0.001501,-0.000841,-0.001947,-0.000636,0.001505,0.000355,
-0.000221,-0.000396,-0.003219,-0.000403,-0.000562,-0.001294,-0.000688,0.000982,
0.000215,0.000028,0.000982,-0.000610,0.000900,-0.000877,-0.000947,-0.000551,
0.002804,0.000401,0.001391,0.000693,-0.000296,0.000539,-0.001588,-0.001615}
,
{
0.010900,0.006502,0.000050,-0.002140,0.000707,0.000859,0.001000,-0.005957,
-0.010608,-0.001549,-0.004032,-0.005546,-0.001567,0.000751,-0.001674,0.001087,
-0.000656,-0.003358,-0.002697,0.001902,0.001931,-0.000159,0.000539,0.001491,
0.004915,-0.001756,-0.000535,0.000477,-0.000231,-0.002017,-0.002219,-0.000034,
-0.001217,0.001108,0.000252,0.002136,0.002710,-0.000145,-0.000728,0.001386,
-0.000843,-0.002358,0.001288,0.000164,-0.000258,-0.001806,0.000587,-0.001158,
-0.001345,-0.000125,-0.001474,-0.001414,-0.001115,-0.000583,0.000286,-0.001707,
-0.000850,0.000898,-0.000265,0.000216,-0.001791,0.000333,-0.001305,-0.001059}
,
{
-0.004131,0.013529,0.000517,-0.002943,0.001029,-0.000702,0.002852,-0.000021,
-0.006562,0.001494,-0.002050,0.003755,-0.002741,0.000412,0.000157,0.001074,
0.005901,0.000479,-0.001031,-0.003090,0.001460,-0.001228,0.000569,0.000655,
0.001530,-0.003719,0.000129,0.000693,0.001316,-0.000413,-0.002448,-0.000279,
-0.004658,-0.000316,-0.000819,0.001385,0.002776,0.000255,-0.002483,-0.000287,
-0.001133,0.001346,0.001938,-0.002160,0.000201,0.002282,0.002131,-0.000826,
0.001752,-0.000804,-0.001891,0.000504,-0.001908,0.000876,0.000777,0.001275,
-0.002857,-0.000439,-0.002091,-0.000636,0.000897,-0.002946,0.002594,0.002738}
,
{
0.012628,-0.000639,-0.004314,0.007118,-0.000566,-0.000240,-0.004940,-0.005638,
-0.000990,0.004317,-0.002536,0.000727,0.003355,-0.001518,-0.000009,-0.000982,
-0.006859,0.003848,-0.004248,-0.004191,-0.003130,-0.000075,0.000569,-0.001024,
0.005034,-0.000815,-0.004285,0.001404,-0.002192,-0.000884,-0.001615,0.002416,
-0.003338,-0.005589,-0.000127,-0.001206,-0.001836,0.000847,0.003498,0.000240,
-0.006087,-0.001791,-0.000286,-0.000428,0.000268,-0.000010,-0.001837,0.002312,
0.006730,-0.001198,0.001197,0.000120,0.001509,0.002808,-0.001872,-0.000316,
0.008041,-0.000285,-0.000930,0.001748,-0.000737,0.001258,-0.000146,-0.001182}
,
{
0.022873,0.007322,0.007751,-0.004455,0.004431,0.000672,0.004857,0.001554,
-0.015576,-0.004590,0.009779,-0.001579,-0.004092,-0.001009,0.002422,-0.001955,
0.012516,-0.001665,0.005392,0.000337,-0.005726,-0.004233,0.000351,0.002493,
-0.001960,-0.001264,0.001757,-0.001583,-0.002984,0.002740,0.002697,-0.003196,
0.005855,-0.005209,0.000316,-0.000583,-0.000233,-0.001818,-0.001779,-0.003480,
0.001652,0.001864,0.000908,0.001557,0.000789,0.002902,-0.000558,-0.002717,
0.004570,0.003368,-0.003046,0.001485,0.000169,0.001673,0.003014,0.002788,
0.002142,-0.000785,-0.000453,-0.003000,0.002036,0.001463,0.001171,0.002421}
,
{
-0.012930,-0.004728,-0.009710,-0.009059,0.006850,-0.001440,0.005685,-0.007383,
-0.008907,-0.000840,-0.002992,-0.004070,0.001913,0.001128,-0.004755,0.005311,
0.000982,0.006469,0.008390,-0.001217,0.008267,-0.001224,0.000989,0.001186,
0.006038,0.002571,0.004674,0.002694,0.008703,-0.005735,-0.004598,0.002992,
0.006467,0.001017,-0.003772,0.005099,0.005949,0.003495,-0.006881,0.004667,
-0.003248,-0.005120,0.006855,-0.001956,-0.002420,-0.003483,0.001193,-0.002290,
-0.000957,-0.004354,-0.002115,-0.004502,-0.010428,-0.002383,-0.000277,-0.003436,
-0.008097,-0.001427,0.000098,0.002165,-0.003578,-0.005151,-0.001400,-0.000909}
,
{
-0.013275,-0.011052,-0.001017,0.023696,-0.004496,0.001492,-0.011022,0.002625,
0.014206,0.005999,-0.001498,0.005671,0.005977,0.001964,-0.003162,0.001326,
0.015582,0.010276,-0.001289,0.002053,0.011263,0.002612,-0.000486,-0.002554,
-0.007558,0.000610,0.003568,0.005997,0.007256,-0.003597,0.000063,0.003435,
-0.002798,0.007637,-0.000632,0.003347,0.000048,0.001273,-0.000349,0.004886,
0.000295,-0.002270,-0.004004,-0.001571,0.000665,-0.005325,-0.001607,0.001933,
-0.000651,-0.003683,0.004125,-0.004296,-0.002609,-0.005314,-0.003247,-0.003835,
0.000473,0.002673,0.002165,0.003686,-0.002756,0.000537,-0.003453,-0.004457}
,
{
-0.001526,0.002544,0.003146,-0.001958,-0.001453,0.000577,-0.001226,0.002339,
-0.000500,-0.000455,0.002493,0.001244,0.001157,-0.000906,0.000929,-0.001781,
0.006036,-0.003912,-0.001780,0.000199,-0.001603,0.000444,0.000079,0.000043,
-0.004285,0.002082,-0.000686,-0.000376,-0.001232,0.001192,0.001482,-0.000228,
0.000305,0.001807,0.000754,-0.001630,-0.002625,-0.000253,0.001027,-0.000962,
0.000293,0.000413,-0.002713,0.000242,0.000421,-0.000005,-0.001195,0.000259,
0.000587,0.000860,0.000753,0.000490,0.001399,0.000113,-0.000014,0.000625,
0.001259,-0.000185,0.000200,-0.000233,0.000521,0.002231,-0.000516,-0.000409}
,
{
0.003855,-0.000356,0.004663,-0.001205,-0.001245,0.001253,-0.001503,0.000439,
0.004705,-0.001984,-0.003889,-0.003007,-0.000171,0.001050,-0.000974,0.000172,
0.002474,0.003607,-0.002943,0.000419,0.001726,-0.001536,-0.001521,-0.000219,
0.002250,0.000838,0.003846,-0.000027,0.000694,-0.001710,0.001072,0.000580,
-0.001611,0.001672,0.000617,0.000126,-0.001532,-0.000946,0.001428,0.000990,
-0.000031,-0.003319,-0.001402,0.000349,-0.001506,-0.003439,-0.001468,0.000707,
-0.000709,0.000414,0.003300,-0.002832,-0.000858,-0.002954,-0.000431,-0.001363,
0.001324,0.000532,0.003394,0.000238,-0.002295,0.001728,-0.005030,-0.002668}
,
{
0.005616,0.010020,-0.002784,-0.004172,0.002651,-0.004547,0.010600,-0.009521,
-0.004292,-0.002735,0.007625,0.003652,-0.002643,0.003116,-0.001988,0.004506,
-0.001964,0.001045,0.001805,-0.001377,0.005164,-0.000101,0.001606,0.000261,
0.006601,-0.001567,0.005812,0.001052,0.004043,-0.002817,-0.004682,0.001184,
0.003821,-0.005430,-0.003776,0.007201,0.008479,0.002677,-0.004954,0.002585,
-0.002442,0.001328,0.008013,-0.003340,0.000006,0.002859,0.004291,-0.001373,
-0.001543,-0.003634,-0.003227,-0.000025,-0.003840,0.000503,0.000051,-0.000187,
-0.010174,-0.000441,-0.004488,0.001109,0.000075,-0.006003,0.005608,0.003235}
,
{
0.010791,0.018209,-0.004836,-0.002271,-0.002487,0.001392,-0.002611,0.003345,
-0.006101,-0.005266,0.001831,0.007349,0.000683,0.002525,0.000189,0.000243,
-0.004023,-0.014177,-0.007992,0.002869,0.002654,-0.001402,0.001828,0.000558,
-0.001598,-0.008946,0.000824,0.001395,0.002601,0.000307,-0.000553,0.000720,
-0.003253,-0.000682,-0.001787,0.003394,0.003412,0.001417,-0.002986,0.000070,
-0.000173,0.002488,0.000623,-0.001496,0.002361,0.000871,0.000221,-0.000708,
0.000566,-0.001557,-0.002327,0.001238,-0.001345,0.000383,0.000090,0.000710,
-0.003064,-0.000929,-0.001651,0.000386,0.001409,-0.000978,0.002240,0.001335}
,
{
0.000751,0.006913,0.012164,0.006881,0.000776,-0.000890,0.008293,-0.007194,
-0.000225,0.000175,0.004072,-0.001626,-0.000714,0.003350,-0.002726,0.004542,
-0.009777,0.002579,0.002089,-0.003130,0.010056,-0.003019,0.002754,0.002155,
-0.006764,-0.002671,0.010819,-0.001826,0.009291,-0.002962,-0.004291,-0.000116,
-0.004449,0.002447,-0.004699,0.004411,0.006713,0.002413,-0.009401,0.002251,
0.000601,0.001306,0.008328,-0.000366,0.000073,0.002840,0.003812,-0.004913,
0.000254,-0.002330,-0.005008,-0.000877,-0.008389,-0.001060,0.002369,-0.000452,
-0.009010,-0.002355,-0.004152,-0.000569,-0.001261,-0.004631,0.005084,0.004094}
,
{
0.009004,-0.009795,-0.012690,-0.001278,0.013394,-0.003066,0.003413,0.002201,
-0.005200,0.000058,0.002483,-0.002747,-0.001674,-0.001532,0.003026,0.000092,
0.001544,-0.011491,0.002724,-0.000517,0.008498,0.002464,0.000648,0.001156,
0.004686,-0.007971,-0.009055,0.007049,0.005699,0.003122,0.002835,-0.002588,
-0.002298,0.004238,0.000459,-0.001320,-0.000567,0.003141,0.002116,-0.002390,
-0.000596,0.003232,0.001155,0.000771,0.001968,0.000726,0.000062,-0.001491,
0.004633,0.001715,-0.002707,0.005022,0.002574,0.004458,0.000867,0.000868,
0.007942,0.002109,-0.002724,-0.001422,0.003904,-0.003060,0.003492,-0.000599}
,
{
-0.010362,0.039343,-0.016998,-0.004682,0.000730,0.002450,-0.005743,0.002610,
-0.011045,-0.005940,-0.004144,-0.001808,0.005494,-0.002387,0.001851,-0.001345,
-0.017697,0.009512,-0.007311,-0.000401,0.009545,-0.002160,0.002825,0.003863,
0.000975,0.011028,0.004148,-0.009640,0.006394,0.001670,-0.001483,0.000485,
0.013346,0.007918,-0.004357,0.004384,0.005726,0.000595,-0.003954,-0.002533,
-0.000989,-0.002004,0.005349,0.001628,-0.000312,0.000218,-0.003260,-0.003979,
0.000154,0.000269,-0.001977,0.001795,-0.001265,0.001660,0.002773,0.001949,
-0.006352,-0.007560,-0.002108,-0.002700,0.000500,0.002623,-0.001468,0.002233}
,
{
0.001659,0.001718,-0.035878,-0.006677,-0.002783,0.000701,0.004971,-0.009923,
0.013605,0.000435,-0.004686,-0.003782,0.009055,-0.000329,0.000007,-0.000206,
0.009630,0.019308,0.009791,-0.002371,0.003721,0.000034,-0.001444,-0.003753,
0.010161,0.006012,0.002055,0.000902,0.003268,0.001281,-0.001690,0.001282,
0.007009,0.000004,-0.002086,-0.001380,-0.001301,0.000172,0.004183,0.000363,
-0.001298,0.000195,-0.000250,0.000788,0.000471,-0.000582,0.001265,0.004162,
-0.006781,-0.001110,0.002650,-0.000737,0.001477,-0.000202,-0.002520,-0.001442,
0.006936,0.003816,0.001275,0.002096,-0.000249,-0.001663,0.000868,-0.001683}
,
{
0.001130,0.002301,-0.004220,0.002735,0.000131,-0.000122,-0.003287,-0.002236,
-0.001628,0.010076,0.000327,-0.002258,0.000613,0.000779,-0.001246,0.000454,
0.001435,-0.006305,0.004626,-0.001161,-0.002811,-0.000361,-0.001717,-0.000646,
0.001261,0.000576,0.000988,0.000478,-0.002633,-0.001556,0.000319,0.000604,
0.000838,-0.000659,0.000227,-0.000212,-0.001495,-0.001568,0.001257,0.002035,
0.000621,-0.001271,-0.002771,-0.000430,-0.000795,-0.001759,0.000746,0.000793,
-0.000990,-0.000566,0.001848,-0.002287,-0.000386,-0.002224,-0.001326,-0.001421,
0.001807,0.002140,0.001924,0.001330,-0.001507,-0.000306,-0.001680,-0.001857}
,
{
-0.011006,0.001145,-0.002233,-0.004441,0.002103,-0.001516,0.006204,0.003099,
0.001849,-0.004947,-0.000613,-0.000669,-0.002036,0.002906,-0.000640,0.003442,
0.001279,0.012836,-0.004548,-0.002231,0.007980,-0.002086,0.004062,-0.000742,
-0.005610,-0.003776,0.002827,-0.000567,0.008558,0.000075,-0.001800,-0.001062,
0.001694,-0.000853,-0.004352,0.002874,0.005872,0.003844,-0.004617,-0.000595,
0.000884,0.002611,0.008589,-0.000074,0.000953,0.003889,0.000393,-0.001732,
-0.000707,-0.001031,-0.003895,0.002465,-0.005543,0.002279,0.001563,0.000483,
-0.010481,-0.000910,-0.004325,-0.000510,0.001276,-0.004995,0.006339,0.003734}
,
{
-0.005889,0.000973,0.003599,0.001158,0.002050,-0.000213,-0.008502,0.008523,
-0.000909,0.010233,-0.000130,0.003312,0.000173,0.000583,0.001474,-0.003895,
0.003433,-0.000307,-0.000546,0.002182,-0.007616,0.002843,-0.002145,-0.000599,
0.003584,0.006154,0.002181,0.002744,-0.008032,0.003370,0.004537,-0.002596,
-0.005669,-0.000112,0.003813,-0.005223,-0.008348,-0.002900,0.006558,-0.001869,
0.003599,0.000512,-0.005493,0.002409,0.000481,-0.000466,-0.000919,0.001551,
-0.001738,0.003886,0.002349,0.000511,0.004951,0.000582,-0.000316,0.000076,
0.004405,0.003494,0.002741,-0.000619,0.001106,0.004311,-0.001217,-0.002342}
,
{
-0.012117,-0.007431,0.003901,-0.003026,0.002527,0.001618,0.001922,-0.004272,
0.007025,0.004203,-0.010294,-0.000310,-0.001651,0.003581,-0.002104,0.003568,
0.001423,0.004895,-0.008197,-0.002644,0.001419,-0.001307,0.000807,0.000543,
-0.002955,-0.000867,0.002292,0.002327,0.004319,-0.001701,-0.000718,-0.001197,
-0.001413,0.002347,-0.002590,0.003114,0.004907,-0.000252,-0.004275,0.001376,
0.001532,0.000017,0.006183,-0.000335,-0.002462,0.000997,0.002673,-0.002498,
-0.002637,0.000064,-0.001599,-0.001555,-0.003862,-0.002724,0.001987,-0.000199,
-0.008366,0.000994,0.000508,-0.000896,-0.000963,-0.004430,0.000950,0.002200}
,
{
-0.004734,0.004930,-0.003431,-0.011823,-0.000537,-0.000450,0.011294,0.003853,
0.008257,-0.003951,-0.008901,-0.000278,-0.000112,-0.001460,-0.001287,0.002469,
0.001641,-0.006864,0.000933,0.000647,0.007987,-0.003726,0.003168,0.001344,
0.004241,0.007002,0.003678,-0.004452,0.009855,-0.001071,-0.001645,0.000274,
0.012476,0.004582,-0.002382,0.002322,0.006622,0.003466,-0.002555,-0.000790,
-0.003244,-0.002305,0.006956,0.004078,0.001216,-0.001121,-0.002543,-0.001732,
0.001646,-0.001083,-0.004467,0.002724,-0.002423,0.002091,0.000960,-0.001319,
-0.002386,-0.001960,-0.002229,-0.000857,-0.000830,-0.000536,0.000936,0.000047}
,
{
0.009917,0.000710,-0.007968,0.011695,-0.001806,0.000097,0.004520,-0.007706,
0.016520,-0.004588,0.003279,0.000677,-0.002867,0.000375,0.002022,-0.003045,
-0.016883,-0.016414,0.005313,0.006082,-0.008830,-0.000177,0.001431,0.001165,
-0.004498,0.002930,-0.000491,-0.001054,-0.007782,0.001233,0.000512,0.000659,
0.012116,-0.004040,0.004098,0.003194,0.000117,0.001056,-0.000862,-0.001214,
0.004370,0.000339,-0.000562,-0.001583,0.001283,-0.000745,-0.002978,-0.000375,
0.004219,0.000534,0.002607,-0.002801,-0.001199,-0.001066,0.000786,0.002066,
0.006416,-0.003983,-0.001352,0.000051,0.000366,0.003429,-0.002109,-0.000204}
,
{
-0.014422,0.027849,-0.001821,-0.004267,-0.004607,-0.007190,0.002825,-0.004178,
0.014020,-0.014686,-0.011357,0.009230,0.007621,-0.005522,-0.002730,-0.000995,
-0.050182,-0.004367,-0.012616,0.000444,0.001096,-0.003082,-0.000260,0.001443,
-0.006597,0.004414,0.001192,0.003030,-0.002234,-0.003568,-0.000505,0.004268,
0.021946,-0.008389,-0.002242,-0.003962,-0.000461,-0.002008,-0.000239,0.001365,
-0.007479,-0.005662,0.002773,-0.001892,-0.005335,-0.002624,-0.004605,-0.001442,
0.011740,-0.001888,-0.000598,-0.005114,-0.008013,0.000646,-0.002051,-0.001949,
0.016190,-0.004694,0.001172,0.001137,-0.005472,0.004517,-0.001847,-0.002692}
,
{
0.002247,-0.010890,0.017764,0.021252,0.004877,0.007117,-0.018633,0.003091,
0.001788,0.009625,0.012422,0.001723,-0.002477,0.001164,-0.001356,-0.004181,
-0.005748,-0.006642,0.001642,-0.001613,-0.006844,-0.000576,-0.003845,-0.010147,
-0.014883,-0.001227,-0.013600,0.001907,-0.006676,-0.002107,0.008160,0.005902,
-0.006571,-0.005606,0.009152,-0.008396,-0.013956,-0.000799,0.015414,0.002654,
-0.003087,-0.005884,-0.016862,-0.000472,-0.000822,-0.014013,-0.009801,0.012785,
0.006642,-0.000106,0.018881,-0.007411,0.002879,-0.009989,-0.009177,-0.005827,
0.010660,0.009848,0.013425,0.007313,-0.005595,0.009128,-0.014343,-0.014720}
,
{
0.009705,0.001066,-0.003690,0.003324,-0.000536,-0.000110,0.003836,0.000124,
-0.001512,-0.004488,0.000655,0.003408,-0.001394,0.000976,-0.000724,0.001155,
0.000474,0.001384,0.001158,-0.001611,0.001261,-0.000491,0.001113,0.000803,
0.001561,-0.002753,-0.000640,-0.000596,0.002379,-0.000418,-0.000371,-0.001605,
-0.001532,0.000762,-0.002482,0.002825,0.004208,0.000157,-0.001611,0.000082,
-0.000271,0.000740,0.003266,0.000280,-0.000478,0.000835,0.001006,-0.001366,
-0.003618,0.000764,-0.002709,0.001277,-0.000154,-0.000259,0.001644,0.000020,
-0.003015,0.000776,-0.000964,-0.001590,-0.000281,-0.001201,0.001537,0.001215}
,
{
-0.010924,0.006600,-0.006421,0.003704,-0.000354,-0.000199,-0.003301,-0.002959,
-0.015675,0.009566,-0.006535,-0.001116,0.002459,-0.000827,-0.000067,-0.000966,
0.005616,0.008512,0.002044,0.000141,0.001250,0.001962,-0.003472,-0.000453,
-0.007456,-0.002625,-0.001973,0.000272,0.000016,-0.000079,0.000633,0.000284,
0.003962,0.002808,0.001412,-0.004119,-0.005197,-0.001326,0.005052,0.000454,
-0.000429,-0.001565,-0.002859,0.000891,-0.001928,-0.001758,0.001096,0.001809,
-0.003016,0.000273,0.001549,-0.000333,0.005751,0.000970,-0.001627,-0.001317,
0.000832,0.002781,0.002678,0.000947,-0.000792,0.000458,-0.001450,-0.002778}
,
{
0.004784,-0.000202,-0.005126,0.001002,0.002484,-0.000547,-0.003327,0.003448,
0.017974,0.005199,0.005194,-0.004153,0.000509,0.000546,0.002588,-0.001086,
-0.007983,-0.007158,-0.002677,-0.001677,0.008630,0.001781,0.000798,0.002080,
-0.001336,-0.000995,0.002506,-0.003350,0.003725,0.002464,0.000743,-0.000016,
-0.001404,0.000467,-0.001431,-0.000668,-0.001523,0.003097,-0.000430,-0.001993,
0.004339,0.002735,0.001547,0.001241,0.001864,0.001295,-0.000910,-0.002439,
0.007163,-0.001174,-0.001221,0.003199,0.001030,0.001714,-0.000671,0.001285,
-0.000020,-0.001290,-0.001918,0.001254,0.002880,0.000123,0.002689,0.000389}
,
{
-0.018163,-0.022227,0.002680,-0.008157,-0.001644,0.000755,-0.002835,0.000133,
0.013579,-0.005013,-0.002426,-0.002029,-0.002307,0.000287,-0.002786,-0.000455,
0.015491,0.004353,-0.010151,0.002943,0.000368,0.003200,-0.004228,-0.003922,
-0.007312,-0.000661,0.005288,0.006490,-0.007914,-0.003081,0.004486,0.002662,
-0.011185,0.002774,0.001951,0.002549,-0.004695,-0.005625,0.002231,0.004667,
0.004518,-0.001968,-0.011406,-0.005177,-0.005089,-0.005351,-0.000724,0.003658,
-0.001250,-0.000376,0.009321,-0.008822,-0.001977,-0.010637,-0.002382,-0.002228,
-0.002058,0.000833,0.006982,0.002124,-0.005552,0.004465,-0.008859,-0.004169}
,
{
-0.011979,0.009019,0.013081,-0.004520,0.004466,0.002444,0.002904,-0.002087,
0.013254,-0.011215,-0.012218,0.000359,-0.005708,0.009374,0.000270,0.004020,
0.002099,0.010053,0.008153,0.001462,0.003893,0.002341,0.000548,0.000585,
0.004722,-0.002069,0.010266,0.004054,0.003067,0.002387,-0.001438,-0.008573,
-0.010237,-0.000866,-0.007724,0.007646,0.006086,-0.001034,-0.006814,-0.000048,
0.008734,0.010877,0.005505,-0.001304,-0.001831,0.009843,0.009557,-0.004358,
-0.008693,0.003421,-0.006263,0.003966,0.001316,-0.002868,0.006321,0.003876,
-0.014465,0.002075,-0.003646,-0.004902,0.004412,-0.010497,0.010758,0.009761}
,
{
-0.019014,0.004157,0.003390,0.017080,-0.011359,-0.007016,0.001379,-0.007519,
0.004376,-0.000726,-0.005453,0.007837,-0.001172,0.005203,-0.000954,0.001078,
0.043318,0.022430,-0.032136,0.000401,-0.015796,-0.000273,-0.001437,-0.001140,
-0.010992,-0.004420,-0.000726,0.006190,-0.008866,-0.000546,-0.005900,-0.007408,
-0.011081,0.000634,0.003826,0.003309,0.009346,-0.008103,0.002440,-0.000827,
-0.004421,0.003944,0.001862,-0.005447,-0.008107,0.006683,0.010810,0.002087,
-0.015680,0.004502,-0.003506,-0.000240,-0.003729,0.000111,0.006072,0.003576,
-0.009231,0.004601,0.001205,-0.006757,0.000051,-0.006604,0.002005,0.008912}
,
{
0.033423,0.030459,0.031452,0.001939,0.008325,-0.001128,0.010548,0.005725,
0.054594,0.009621,-0.015278,0.004238,0.003179,-0.001597,0.002080,-0.003873,
-0.033500,-0.017102,0.003790,-0.006689,0.000788,-0.000299,0.003237,0.003855,
0.016189,0.007823,-0.006811,-0.002688,0.007221,0.002577,0.001602,-0.003554,
-0.004930,-0.002019,0.008772,-0.004128,-0.002524,0.004211,-0.005566,-0.003732,
0.004430,0.002408,-0.002971,0.001160,0.005949,0.001694,-0.001743,-0.003425,
0.003332,0.003973,-0.007625,0.006668,0.003953,0.006820,0.003736,0.001282,
0.008302,-0.003686,-0.003810,-0.004562,0.001574,0.004603,0.001259,0.000648}
,
{
-0.053621,-0.007649,-0.024329,0.006430,0.039560,0.002662,-0.008390,-0.000968,
0.034515,0.014398,-0.002996,-0.009229,-0.005902,0.002770,-0.001047,-0.000569,
-0.006533,-0.006345,0.005804,0.000818,0.000286,-0.006706,-0.001792,-0.003046,
0.004127,-0.003671,-0.007548,0.002921,0.009900,-0.001100,-0.002186,0.002640,
0.003966,0.011022,-0.002573,-0.010348,-0.011616,0.002290,0.004833,0.000431,
0.004749,-0.000820,-0.004679,0.001962,-0.001616,-0.003974,-0.002755,0.003748,
0.013100,-0.001444,0.006457,-0.003425,-0.000692,-0.001702,-0.004640,-0.002836,
-0.005313,0.001314,0.004756,0.003021,-0.002753,0.003673,-0.003950,-0.004414}
,
{
-0.002803,0.002487,0.001725,-0.005595,-0.003448,0.001430,0.000146,0.000684,
