template<typename T> void tf_predict_chroma2(T* vals_in, float* vals_out) {
  static float bias[64] = { 
-0.006335,-0.056796,0.004368,-0.019306,-0.000927,-0.000232,0.000553,-0.001058,
-0.037732,0.022677,0.004613,-0.000785,-0.001088,-0.004833,0.001308,-0.004656,
0.007463,0.002371,0.003972,0.003818,0.001836,-0.003628,0.000666,-0.005266,
-0.004172,-0.000490,0.001185,-0.001211,-0.000954,0.003793,-0.005703,0.005084,
-0.000834,-0.003076,0.001737,-0.002563,-0.010445,0.005302,-0.002352,-0.001809,
-0.002273,0.000536,-0.002891,0.000406,-0.004283,-0.002342,0.002354,0.000897,
0.004268,-0.000337,-0.002322,0.005425,0.009856,-0.006468,-0.001907,-0.004405,
0.000534,-0.004822,-0.004764,-0.003945,0.004819,-0.004771,-0.004346,0.003889 };
  static float weight[][64] = { {
0.001820,0.000595,0.000001,-0.000525,-0.000692,0.000428,-0.000133,-0.000191,
-0.000163,-0.001638,-0.000159,0.000146,-0.000113,-0.000026,-0.000005,0.000075,
0.000893,0.000115,0.000728,0.000139,-0.000124,-0.000376,-0.000544,0.000273,
0.000170,0.000294,-0.000250,0.000281,0.000283,-0.000378,0.000160,-0.000485,
0.000083,-0.000118,0.000304,-0.000021,0.000029,-0.000203,0.000164,0.000183,
-0.000310,0.000098,0.000056,0.000069,0.000338,0.000355,-0.000180,-0.000402,
-0.000080,-0.000280,0.000267,-0.000460,-0.000180,0.000274,0.000267,0.000112,
0.000552,0.000130,0.000376,0.000169,-0.000387,-0.000013,0.000228,-0.000229}
,
{
-0.003108,-0.000630,0.000394,-0.001612,-0.003539,0.000389,0.000454,-0.000746,
0.003318,-0.002239,-0.003725,-0.003985,-0.000614,-0.000087,-0.000043,-0.000610,
-0.001726,-0.000139,-0.000466,-0.001419,0.000157,0.000425,0.000585,-0.000635,
0.000575,-0.000241,0.000420,-0.000804,-0.001196,0.001131,-0.000872,0.000635,
-0.000031,-0.000034,-0.000851,-0.000331,0.001783,0.000496,-0.000373,-0.000756,
-0.001510,0.000059,-0.000567,-0.000181,-0.000100,-0.000457,0.000621,0.000522,
-0.000352,0.000919,-0.000717,0.000492,0.000838,-0.000951,-0.000629,-0.000250,
-0.000890,-0.000919,-0.000534,-0.000433,0.000547,-0.000775,-0.000679,0.000829}
,
{
0.005936,0.000413,0.003442,0.004703,-0.002162,-0.005452,-0.000056,-0.000459,
-0.007679,-0.001294,-0.002439,-0.006645,0.000547,-0.001696,0.000073,0.000806,
-0.001029,-0.000660,-0.001029,-0.000077,0.000052,0.001109,0.002899,-0.001847,
0.003148,-0.001903,0.000774,0.002896,-0.000873,0.002086,-0.001974,0.003593,
0.000759,-0.000370,0.000037,-0.000243,0.002055,0.003166,0.000222,-0.000863,
-0.003198,0.001458,-0.000834,0.000506,-0.002559,-0.001671,0.002959,0.002292,
0.000181,0.001798,-0.000833,0.002083,0.003027,-0.002085,-0.001457,-0.002412,
-0.003221,-0.001087,-0.002768,-0.002849,0.003632,-0.000003,-0.001196,0.002607}
,
{
0.013579,0.004302,-0.006877,-0.002232,0.004805,0.005765,0.001469,0.001729,
-0.005593,-0.008715,0.004381,0.001768,0.001435,-0.000638,-0.000703,0.000156,
-0.005291,-0.001830,0.006245,-0.002442,0.000605,0.001224,0.000852,-0.001547,
-0.002537,0.000026,-0.003684,0.001232,-0.003404,0.001571,-0.001532,0.001516,
0.001473,0.000720,-0.000044,-0.000033,-0.002407,-0.002331,0.000466,0.000157,
-0.000409,0.002316,0.000450,0.000527,-0.003821,-0.000338,-0.000893,0.000679,
0.000821,0.001446,-0.000845,0.002163,0.003610,-0.002413,-0.000703,-0.002573,
-0.000089,-0.000440,-0.002185,-0.001732,0.002161,-0.000123,-0.000310,0.001719}
,
{
0.012872,0.010977,0.003367,-0.005821,-0.003552,-0.006877,-0.000265,-0.001468,
0.006585,0.006611,-0.001231,0.006131,0.005433,-0.000578,0.000462,-0.001001,
-0.014824,-0.003894,0.005986,0.003499,0.000462,0.000712,0.002904,-0.001484,
-0.009221,0.000437,0.002129,0.001001,0.001222,0.003816,-0.003094,0.004416,
-0.001322,-0.000094,-0.003834,0.000983,0.009287,0.003176,-0.000223,-0.002062,
0.000964,-0.000503,0.000656,0.000461,-0.003009,-0.001515,0.002796,0.001612,
-0.003169,-0.001150,-0.002016,0.002287,0.004572,-0.003772,-0.002219,-0.003809,
-0.006854,-0.003693,-0.003437,-0.003943,0.004060,-0.002923,-0.000967,0.003415}
,
{
0.024435,0.019886,0.008761,-0.001940,0.010082,-0.005216,0.001100,-0.006288,
0.000675,-0.007340,0.005317,0.000211,-0.001952,-0.003450,0.001484,-0.004913,
-0.009563,0.001486,-0.003500,-0.003630,-0.001251,-0.001202,0.004519,-0.001803,
-0.012653,-0.002847,-0.000118,-0.003618,-0.003774,0.002459,-0.003020,0.003970,
-0.000743,-0.000294,0.004048,0.000753,-0.018446,0.007272,-0.001247,-0.001791,
-0.003240,-0.002082,-0.002984,-0.003030,-0.000332,-0.002101,0.005468,0.000701,
-0.004752,-0.003250,-0.003369,0.001535,-0.002537,-0.001460,-0.002474,-0.002244,
-0.003475,-0.002679,-0.002226,-0.002482,0.001699,-0.003328,-0.003038,0.002866}
,
{
0.019139,-0.001010,-0.000643,0.002485,0.012528,0.000052,-0.004548,0.001282,
0.010240,-0.008617,-0.001592,-0.006217,-0.005296,0.003586,-0.001878,-0.000100,
0.000386,-0.002934,0.004715,-0.000408,-0.000729,-0.002375,0.001386,0.001252,
-0.004730,-0.010117,0.000858,-0.000552,-0.001022,0.001788,-0.002377,0.001539,
-0.000215,0.000603,0.001691,0.001443,0.019191,-0.003607,0.000360,-0.002237,
-0.000185,-0.001583,0.000950,-0.000304,-0.006757,0.000843,-0.001969,-0.000801,
0.004781,-0.001138,-0.001555,-0.000899,0.000342,-0.002768,-0.003065,-0.004390,
-0.001202,-0.001195,-0.003398,-0.001906,0.003608,-0.000604,0.001553,0.003073}
,
{
-0.014663,0.000597,-0.022501,-0.009220,-0.005185,-0.000970,-0.003884,0.005402,
0.013215,-0.009018,-0.003210,-0.006108,0.000530,-0.000271,0.001014,0.001066,
0.013058,0.002026,-0.006991,0.009079,0.001066,-0.002200,-0.004005,-0.000366,
0.013551,0.000439,-0.000711,-0.002191,0.002364,-0.002526,0.000840,-0.003881,
0.001026,0.004577,0.002321,-0.001618,0.009325,-0.000302,-0.000859,0.001365,
0.004296,0.000004,-0.001015,0.001432,0.004372,0.000685,-0.001005,-0.000386,
0.002223,0.000115,0.000987,-0.000812,0.001219,0.001788,0.001706,0.002507,
0.002901,0.001648,0.003586,0.001288,-0.003154,0.001029,-0.000650,-0.000863}
,
{
-0.004708,-0.000198,-0.001874,-0.000355,-0.001245,-0.000373,0.000238,-0.000204,
0.004889,-0.002080,0.001856,0.002205,-0.000303,-0.001139,0.000326,-0.000496,
-0.002825,-0.003581,-0.000454,-0.001522,0.000182,0.000567,0.000391,-0.001196,
-0.002448,-0.002262,-0.001131,0.000365,-0.000522,0.000715,-0.000899,0.000894,
-0.000004,-0.000379,-0.002460,-0.000438,-0.001807,0.001219,-0.000238,-0.000358,
0.001125,0.000363,-0.000797,0.000091,-0.000093,-0.000724,0.001462,0.000694,
-0.000564,0.000800,-0.000549,0.001228,0.001558,-0.000887,-0.000479,-0.000508,
-0.000589,-0.000814,-0.000695,-0.000948,0.000740,-0.000995,-0.001284,0.001019}
,
{
0.008641,-0.003562,0.002993,0.005809,-0.002485,-0.002329,-0.000047,0.000022,
-0.004321,-0.003761,-0.007088,-0.000966,-0.001038,-0.005338,0.000107,-0.003060,
-0.005078,0.004696,-0.005289,-0.003985,0.000696,0.002182,0.004672,-0.005699,
0.004735,0.004120,0.003386,-0.001308,0.000994,0.009415,-0.007489,0.008761,
0.000552,0.003516,-0.008410,0.002345,-0.006934,0.006098,0.000902,-0.003439,
0.004086,0.000391,-0.001373,-0.000761,-0.005987,-0.003028,0.005665,0.004230,
-0.002966,-0.000883,-0.005102,0.006109,0.011516,-0.009106,-0.003497,-0.009134,
-0.003491,-0.006557,-0.007458,-0.008860,0.007619,-0.006251,-0.003517,0.008605}
,
{
-0.003492,0.001436,0.006603,0.007170,-0.001643,-0.002639,0.000277,-0.000698,
0.009681,0.004110,0.006008,0.001253,-0.001459,0.002127,-0.000883,0.000971,
0.005778,0.009179,0.009308,-0.003828,0.000295,-0.000384,-0.001870,0.003197,
0.002746,-0.000925,-0.002865,0.001090,-0.001324,-0.004197,0.004219,-0.004283,
0.001911,-0.000954,-0.000399,-0.001000,0.002866,-0.003485,-0.001106,0.000762,
-0.000724,-0.001072,0.001232,-0.001449,0.002226,0.000557,-0.003262,-0.001282,
0.000412,-0.001656,0.002189,-0.002974,-0.007764,0.005273,0.001614,0.004815,
0.003963,0.002706,0.003324,0.004392,-0.003604,0.003268,0.002933,-0.004512}
,
{
-0.002563,0.007987,0.007527,-0.008046,-0.001622,0.015970,0.000108,0.004564,
0.012174,0.000991,0.007239,0.002610,0.000716,-0.004515,0.000847,-0.001916,
0.007846,0.003249,0.001775,0.005425,0.001195,-0.001061,0.000418,-0.003220,
0.000839,-0.007011,0.000970,0.005436,0.006372,0.000408,-0.001763,0.000282,
-0.000225,0.000851,-0.000365,0.000448,-0.011012,0.002453,-0.002307,-0.000390,
0.000429,0.002349,-0.002634,-0.001299,0.000315,-0.002954,0.003188,0.001894,
-0.001991,0.001609,-0.001518,0.002607,0.003331,-0.001594,0.000720,0.000389,
-0.002202,-0.001963,-0.000360,-0.000678,-0.000132,-0.002242,-0.003131,0.000976}
,
{
-0.004030,0.000051,0.004995,0.001880,0.003934,-0.005258,-0.000819,0.000360,
0.002649,-0.003400,-0.006827,-0.000485,0.002143,0.000107,0.002201,0.001467,
0.007960,0.005615,-0.003121,-0.003905,-0.001465,0.001950,0.000793,0.002675,
-0.000531,-0.002132,-0.005061,0.006153,-0.007032,-0.001030,0.001763,0.000228,
0.001436,0.001157,0.003514,0.000252,-0.002782,0.003181,0.000083,0.000388,
0.000405,-0.000793,0.002408,0.000918,0.002295,-0.000026,-0.000131,-0.000526,
0.002222,-0.000147,0.002085,-0.000874,-0.003992,0.003680,0.000035,0.001679,
0.004465,0.002997,0.000452,0.001040,0.000337,0.004112,0.001915,-0.001048}
,
{
-0.014093,-0.019040,0.003686,0.000835,-0.002385,-0.010920,0.003755,-0.003959,
0.005167,0.000092,0.005067,-0.001586,-0.001967,0.007073,-0.004020,0.000250,
0.011493,-0.002892,0.004153,0.004742,-0.002191,-0.001954,-0.006729,0.003362,
0.000208,0.000537,0.001130,-0.003478,0.010577,-0.006040,0.001570,-0.006306,
0.001465,0.004209,-0.003955,0.004992,0.011187,-0.005256,0.000779,0.003328,
-0.004194,-0.001593,0.001954,0.001325,0.000174,0.003148,-0.005084,-0.004912,
0.002514,-0.005584,0.001801,-0.005012,-0.009905,0.003763,0.000853,0.001914,
0.001964,0.002860,0.003438,0.002869,-0.005089,0.002689,0.002524,-0.002438}
,
{
-0.004616,-0.001091,-0.001256,0.002634,-0.012185,0.005557,0.005490,-0.001424,
-0.009597,-0.002882,0.019389,-0.006590,-0.002714,0.003591,-0.004591,0.004258,
0.015884,-0.014210,-0.000504,-0.001738,-0.002554,0.000686,-0.006453,0.002822,
0.009315,0.000761,0.000972,-0.003329,0.002426,-0.003631,0.002012,-0.002985,
-0.002164,-0.002970,0.005649,0.003444,0.007044,0.002126,0.005045,0.003281,
-0.005345,0.000340,0.001346,0.001103,0.000280,0.005968,-0.006270,-0.003515,
-0.000105,0.001670,0.002182,-0.004345,0.001395,0.000634,0.000400,0.000956,
-0.004329,0.002859,0.001929,0.000638,-0.001726,0.003030,0.003297,-0.001398}
,
{
-0.005398,-0.009964,-0.013617,0.010395,-0.003382,0.006716,-0.001272,0.006466,
0.003245,-0.013082,0.023683,-0.003729,0.001572,0.003835,0.002356,0.000494,
0.012634,-0.007610,0.000935,0.008673,0.001626,-0.003590,-0.002614,0.001055,
0.005722,-0.006181,0.004152,-0.000550,0.012506,-0.006185,0.005503,-0.004040,
-0.002275,-0.005292,0.016703,-0.001517,0.014981,-0.011184,-0.001731,0.006758,
-0.001335,0.002331,0.000302,0.001466,-0.000986,0.000953,-0.003492,-0.002973,
0.003564,0.003619,0.002700,0.000737,-0.006561,0.005826,0.006201,0.003359,
0.006445,0.007443,0.003703,0.005671,-0.004699,0.008019,-0.002377,-0.007782}
,
{
-0.003030,0.001444,0.000055,0.002067,-0.001320,-0.002098,-0.001760,-0.000840,
0.003102,0.007146,0.001547,0.002717,0.000421,-0.002670,-0.000026,-0.001591,
0.000961,0.005754,-0.000260,-0.003556,-0.000065,0.000382,0.002427,-0.002148,
0.003013,-0.000159,0.000188,0.001502,-0.001605,0.004438,-0.004194,0.004861,
0.001536,0.000630,-0.004268,0.001034,-0.002641,0.003353,0.000876,-0.001861,
0.000766,0.000359,-0.000241,-0.000206,-0.004110,-0.000906,0.001976,0.001623,
-0.000843,-0.000229,-0.002707,0.003087,0.005591,-0.004854,-0.002508,-0.005750,
-0.001207,-0.003054,-0.004381,-0.005310,0.004303,-0.003469,-0.001322,0.004973}
,
{
-0.014397,0.012984,0.002403,-0.003494,0.001124,0.005176,0.000647,0.001445,
-0.002412,0.004342,-0.005108,0.000645,0.001665,0.004976,0.000419,0.001774,
-0.004609,0.003168,0.001060,0.003865,-0.001720,-0.002782,-0.006354,0.006667,
0.000561,-0.007512,-0.001489,-0.007058,0.003141,-0.009344,0.007560,-0.009968,
0.001477,-0.001370,0.006374,-0.003322,0.002594,-0.004904,0.000424,0.003589,
-0.004538,-0.000290,0.000173,0.000660,0.009638,0.004729,-0.006081,-0.005873,
0.002575,0.000154,0.004933,-0.006948,-0.010547,0.009041,0.004657,0.009621,
0.006187,0.005556,0.009287,0.009082,-0.009531,0.003640,0.003472,-0.009232}
,
{
-0.016878,-0.002277,0.013896,0.000279,0.005432,-0.004347,0.001325,0.000375,
0.014597,-0.002508,-0.003793,0.013751,-0.000918,0.006871,0.000983,0.004505,
-0.006947,0.006863,0.001026,-0.005160,-0.001793,-0.003410,-0.006948,0.009560,
0.003941,-0.003983,0.000791,-0.006351,-0.013341,-0.009449,0.010302,-0.009458,
-0.007206,-0.003216,0.001255,-0.003418,0.010786,-0.009093,0.000909,0.005043,
-0.005113,-0.001362,0.003976,0.002675,0.009168,0.006675,-0.009452,-0.007976,
0.007288,0.000587,0.007884,-0.009888,-0.011257,0.010655,0.005815,0.010362,
0.010130,0.008884,0.008884,0.011037,-0.008364,0.006963,0.006969,-0.009995}
,
{
0.013914,-0.001283,-0.011343,0.001029,0.003132,0.001862,0.001453,0.002322,
-0.005678,0.001125,-0.001876,0.000908,0.000982,-0.005643,0.002079,-0.000163,
-0.016499,-0.006748,-0.003066,0.000806,0.001454,0.002130,0.002583,-0.003765,
-0.009414,-0.001581,-0.005629,0.007124,-0.002475,0.002976,-0.003210,0.002930,
0.002178,0.000141,0.005257,-0.000150,-0.008121,0.001344,-0.000758,-0.001265,
-0.000616,0.001935,-0.001591,-0.000020,-0.000519,-0.002144,0.004208,0.003161,
-0.001181,-0.000046,-0.001375,0.002469,0.005485,-0.003173,-0.001276,-0.002539,
0.001528,-0.002391,-0.002107,-0.002766,0.003058,-0.001452,-0.001960,0.003940}
,
{
0.002332,0.010430,-0.008705,-0.002195,-0.007148,-0.002596,0.001063,0.006752,
-0.001777,-0.009460,0.000376,0.003128,0.007656,-0.001316,-0.003691,0.004194,
0.002567,0.003403,-0.010885,0.003635,-0.000428,0.002774,-0.005031,0.001795,
0.002647,-0.001935,0.002559,-0.001190,0.006292,-0.003968,0.002717,-0.001658,
0.001517,-0.004439,0.001258,-0.005031,-0.008605,0.004443,0.003272,0.003058,
0.000216,0.002982,-0.000099,0.002734,0.004575,0.004597,-0.002383,-0.002447,
-0.000441,0.005611,0.003655,-0.003457,0.000818,0.001585,0.001857,0.004073,
0.002811,0.003683,0.002510,0.001633,-0.002289,0.002346,0.002022,-0.002087}
,
{
-0.001751,-0.007209,-0.014225,0.014878,-0.014626,0.013691,0.008425,-0.010158,
0.013748,0.004966,0.003253,-0.002834,0.007160,0.002957,-0.001420,0.003464,
-0.010502,0.006817,0.010021,-0.005095,0.001027,0.002984,0.007110,-0.002559,
0.013740,-0.005569,0.002032,0.003006,-0.019935,0.008532,-0.006158,0.008970,
0.009680,-0.006633,0.004834,0.004442,0.013999,0.004519,0.002664,-0.003682,
-0.005969,0.002712,0.001011,0.001880,-0.009808,-0.003084,0.000671,0.004215,
0.002417,0.003840,-0.002363,0.004319,0.008823,-0.006438,-0.004293,-0.009123,
-0.007231,-0.003666,-0.008729,-0.006536,0.010458,-0.001002,0.001200,0.007669}
,
{
-0.006948,-0.030806,-0.034675,0.012901,0.018055,0.000352,-0.001202,0.001283,
0.000534,-0.001730,0.003243,-0.004841,-0.003104,-0.002587,0.004831,-0.000714,
0.011962,0.017109,-0.005305,0.022866,0.000262,-0.007755,-0.007558,-0.001270,
-0.011212,-0.019130,-0.001525,-0.001838,0.018740,-0.008107,0.005597,-0.008735,
0.008931,-0.007035,0.011216,-0.004094,0.005358,-0.005730,0.001589,0.011096,
-0.004603,-0.004264,-0.001549,0.003868,0.006770,0.003234,-0.002487,-0.005250,
0.005809,0.000589,0.002855,0.000800,0.000608,0.007203,0.009735,0.005448,
0.005750,0.005939,0.009831,0.006562,-0.009965,0.003784,-0.004042,-0.008821}
,
{
0.029626,0.013406,0.030165,-0.001702,0.008912,-0.010662,-0.004487,-0.000409,
0.002301,0.008285,-0.002481,0.031185,0.010934,0.010006,-0.002535,0.000491,
0.025558,0.004555,0.005056,-0.008703,0.001433,0.008676,0.012559,-0.000952,
-0.001626,0.001830,-0.000011,-0.003381,-0.019614,0.005599,-0.001010,0.009929,
-0.000590,0.014359,-0.003257,-0.002256,-0.009703,0.006182,-0.006293,-0.009825,
0.010432,0.005137,0.001264,-0.002033,-0.003475,-0.005332,0.002912,0.005344,
-0.012996,0.002423,-0.002338,0.003218,-0.004148,-0.003017,-0.006728,0.003031,
-0.016585,-0.004496,-0.008204,0.001780,0.008100,-0.003116,0.000907,0.000316}
,
{
-0.002807,0.001099,-0.002270,-0.001731,0.001133,0.000786,0.000159,0.001910,
-0.002340,-0.001457,-0.001505,-0.001679,0.000954,0.002292,-0.000156,0.000381,
0.002218,-0.000651,-0.000201,0.000791,-0.000796,-0.000254,-0.002726,0.004127,
-0.003166,-0.004501,0.000962,0.000527,-0.000061,-0.004063,0.003449,-0.003755,
0.000842,-0.000100,0.004891,0.000064,0.002209,-0.003116,0.000130,0.000848,
-0.000856,-0.000757,0.002200,-0.000666,0.003139,0.002684,-0.003430,-0.003327,
0.000024,-0.001528,0.002304,-0.003810,-0.006470,0.004244,0.000863,0.003162,
0.002572,0.003088,0.002770,0.003616,-0.003125,0.002220,0.002772,-0.003611}
,
{
0.007559,0.011924,0.004040,-0.009891,-0.007555,-0.005175,-0.000781,0.001129,
0.002487,0.006769,0.012842,-0.002667,-0.004455,0.007649,-0.001839,0.001045,
0.008915,-0.002644,0.002395,0.006206,-0.001831,-0.003887,-0.009639,0.010224,
-0.007789,-0.008324,0.000504,-0.002517,0.012560,-0.014187,0.011879,-0.013513,
-0.005326,0.001704,0.002674,-0.001001,0.009477,-0.010064,0.000307,0.006496,
0.000869,-0.004066,0.003949,-0.000295,0.009027,0.006232,-0.010020,-0.008696,
0.002799,-0.003084,0.006764,-0.010454,-0.019208,0.012834,0.006535,0.011949,
0.007284,0.010648,0.011002,0.011932,-0.013008,0.008702,0.005676,-0.013721}
,
{
0.003098,-0.003888,-0.006067,0.006606,-0.005764,-0.003766,0.001180,-0.002504,
0.006502,0.000367,-0.006661,-0.000328,0.002914,-0.005043,-0.001639,-0.000244,
-0.007161,-0.008751,-0.005475,-0.002462,0.000262,0.003678,0.004064,-0.005572,
0.001100,0.000082,0.002355,0.003888,0.004081,0.007591,-0.006699,0.008985,
-0.001683,-0.001254,-0.001012,0.003234,-0.009209,0.007864,0.002161,-0.002117,
-0.001395,-0.000566,-0.002135,-0.000444,-0.007899,-0.002174,0.005786,0.003716,
-0.002373,-0.000405,-0.004015,0.005293,0.010812,-0.008318,-0.003371,-0.009070,
-0.005035,-0.005403,-0.007292,-0.008603,0.007735,-0.004296,-0.003136,0.007799}
,
{
-0.010391,-0.003733,-0.004894,-0.001769,-0.002546,0.005208,-0.003106,0.002502,
-0.005271,-0.001302,-0.011253,0.010648,0.006609,-0.007861,0.000692,-0.003595,
-0.006557,-0.011330,-0.001890,0.002022,0.002303,0.000947,0.010102,-0.008690,
-0.004272,0.003486,0.000673,0.008174,0.005024,0.009171,-0.010501,0.012958,
-0.004640,-0.001712,0.005052,0.001345,-0.008677,0.005657,-0.001921,-0.003964,
0.001338,0.000222,-0.003215,0.000423,-0.011737,-0.004805,0.010678,0.005584,
-0.001221,-0.002376,-0.006188,0.007290,0.012114,-0.010705,-0.004602,-0.011665,
-0.010024,-0.007971,-0.011711,-0.009375,0.012594,-0.006568,-0.006534,0.010929}
,
{
-0.003416,-0.007963,-0.015838,0.011872,-0.001888,-0.005597,-0.004628,0.000786,
0.008924,-0.015011,-0.010708,0.008894,0.012773,0.003746,-0.003278,0.001582,
-0.021476,-0.008798,-0.017297,0.002711,-0.000352,0.002230,-0.002267,0.005858,
-0.002258,0.002596,0.003104,-0.005677,0.003625,-0.004425,0.004667,-0.002398,
-0.005385,0.002249,-0.009295,0.000592,-0.001660,-0.000110,0.000806,-0.001916,
0.004677,-0.001625,0.001489,0.000587,0.003471,0.004758,-0.004970,-0.004685,
-0.002241,0.001632,0.002890,-0.007579,-0.006739,0.003934,-0.002732,0.004332,
-0.002197,0.001959,0.000478,0.005852,-0.000889,0.000395,0.005057,-0.003819}
,
{
-0.011250,0.002501,0.018259,-0.005384,0.003582,-0.000333,0.010102,-0.000088,
0.003888,0.000576,0.018412,0.001577,-0.003429,0.004591,-0.001745,0.006603,
0.004077,-0.001608,0.010555,-0.022194,-0.000179,0.006255,0.000477,0.007842,
0.001182,-0.001088,0.000876,-0.007772,-0.020106,-0.001532,0.009045,0.001024,
-0.000271,0.008444,0.002182,0.001974,-0.003365,0.005960,0.001353,-0.003530,
0.001547,-0.006002,0.005661,0.002717,0.002806,0.003476,-0.002818,0.000071,
0.003748,0.002940,0.006304,-0.004309,-0.007335,0.004758,-0.004905,0.008749,
-0.000875,0.006461,-0.000021,0.007154,0.001934,0.005762,0.006793,-0.004743}
,
{
0.009770,-0.004494,-0.002011,-0.004572,-0.004461,0.005541,0.001156,0.000884,
-0.004534,0.002993,0.028980,0.004572,-0.005054,0.001671,0.006350,-0.004689,
-0.008205,0.007939,-0.014530,0.008072,-0.003781,-0.010614,-0.015878,-0.000749,
-0.023259,0.024237,0.005343,0.002657,0.012606,-0.012742,-0.000146,-0.012616,
-0.011387,-0.003160,-0.000370,0.007326,0.015308,0.002733,-0.002796,0.013939,
0.012323,-0.007551,-0.003385,0.004329,-0.001482,0.003247,-0.000280,-0.008233,
-0.004223,-0.001578,-0.000052,-0.003330,-0.010413,0.009066,0.005582,0.000023,
-0.000922,0.009014,0.011983,0.005574,-0.015029,0.007465,-0.005850,-0.001555}
,
{
-0.022938,-0.040905,0.023850,0.033641,0.017058,-0.019134,-0.011994,0.000337,
0.026008,-0.011504,0.012071,0.018787,-0.008107,-0.005970,0.002793,0.002447,
-0.020578,0.016893,-0.000289,-0.029253,0.001922,-0.000992,0.003569,-0.001094,
0.008338,0.010291,-0.005608,0.002039,-0.017687,-0.000719,0.003618,0.005389,
-0.011885,0.006348,-0.003726,0.000089,-0.012689,0.008671,0.001036,-0.000855,
0.006890,-0.008020,0.002284,0.001047,-0.003622,-0.000532,-0.000577,0.004453,
0.002588,-0.005183,-0.000338,0.002928,0.007367,-0.002556,-0.000592,0.002771,
-0.015256,0.001827,-0.002020,-0.002263,0.003416,0.002641,0.000111,0.000039}
,
{
-0.012092,0.005506,0.010645,-0.000832,0.000508,-0.000267,-0.001747,0.000840,
-0.000126,0.004073,-0.001875,0.004548,0.001783,-0.004007,0.000148,0.002419,
0.000211,0.004023,0.003979,-0.002737,0.001201,0.003416,0.004424,-0.004389,
0.001844,0.003698,-0.001310,0.004089,-0.004587,0.005955,-0.002960,0.006063,
-0.002977,-0.001223,-0.003852,-0.001884,-0.009915,0.006223,0.000876,-0.002106,
-0.000463,0.000883,0.000077,0.000565,-0.001735,-0.002439,0.002977,0.004816,
-0.000830,0.001616,-0.001572,0.005685,0.010922,-0.004274,-0.001642,-0.002520,
-0.001363,-0.002910,-0.003439,-0.004425,0.004924,-0.001828,-0.000951,0.004511}
,
{
-0.003132,-0.001970,-0.001834,0.005373,-0.001062,0.000427,-0.000349,-0.002633,
0.000470,-0.005849,0.002487,-0.000554,0.004465,-0.002801,0.000322,-0.005694,
0.005055,0.006209,-0.002697,-0.000230,-0.000270,-0.002269,-0.000202,-0.003060,
0.005660,0.001825,-0.007276,0.000168,-0.002832,0.004801,-0.006303,0.002871,
0.002326,0.003539,-0.005439,0.002806,0.009340,0.001760,0.000650,-0.002111,
0.005563,0.000842,-0.000225,-0.002049,-0.005162,-0.001243,0.000984,0.001151,
-0.002547,-0.002932,-0.004928,0.002881,0.004094,-0.005913,-0.003501,-0.007045,
-0.000584,-0.003496,-0.004143,-0.007156,0.003185,-0.003912,-0.001942,0.006916}
,
{
-0.001432,-0.003543,0.009685,0.003553,0.001022,-0.003341,0.005518,-0.000888,
0.005081,0.007925,-0.005755,0.010047,0.002890,-0.001542,-0.000744,0.000231,
0.008490,-0.000590,0.004626,0.000911,0.001348,0.002097,0.005206,-0.006598,
0.013824,0.001666,0.003461,-0.005112,0.000577,0.005308,-0.004974,0.007000,
0.003231,-0.002172,0.000589,-0.000110,-0.001004,0.001855,-0.001000,-0.001039,
-0.001563,0.000978,-0.002691,-0.000043,-0.006021,-0.004032,0.004569,0.005564,
-0.007560,0.002105,-0.002827,0.007377,0.008661,-0.006249,-0.002287,-0.003739,
-0.004400,-0.003290,-0.005428,-0.004711,0.005668,-0.001434,-0.004002,0.004911}
,
{
-0.008030,-0.007512,-0.003839,0.006356,-0.000150,-0.004766,-0.003027,0.003613,
0.006529,-0.019962,0.007720,0.001740,-0.002867,0.001573,0.001547,-0.001259,
0.010611,0.008434,-0.000578,0.003117,-0.002923,-0.003878,-0.007146,0.007967,
-0.010008,-0.006720,-0.010130,0.008792,0.012436,-0.010989,0.008157,-0.010503,
0.005705,0.000422,0.000622,0.001661,-0.006330,-0.002525,-0.000566,0.004138,
0.001167,-0.003046,0.000302,-0.001027,0.010464,0.005802,-0.003764,-0.010221,
0.007189,-0.006064,0.005606,-0.011258,-0.014608,0.011843,0.005810,0.005813,
0.000688,0.005928,0.008694,0.008477,-0.009739,0.002957,0.002560,-0.009508}
,
{
-0.007438,0.006318,0.011218,-0.005234,-0.007331,0.008531,0.000341,-0.000328,
0.007365,0.013075,0.017734,-0.004661,0.009895,0.000392,0.000906,0.002725,
0.008125,0.009444,0.009474,-0.002612,0.002281,0.006077,0.008075,-0.002639,
0.002976,-0.002761,-0.007906,0.015135,0.003050,0.004311,0.003399,0.001197,
0.004809,0.008136,-0.000916,-0.000052,-0.000486,-0.005643,-0.001922,-0.002179,
-0.000115,-0.002406,0.001518,-0.003415,0.000567,-0.006433,-0.000847,0.006811,
-0.006805,-0.004956,-0.001191,0.005191,0.000027,0.001827,0.002078,0.005146,
0.006974,-0.001169,0.000459,0.001615,0.000543,0.002200,0.001046,-0.004011}
,
{
-0.001052,0.044063,0.002990,-0.007158,-0.008517,0.020720,0.015118,-0.000454,
-0.018045,-0.007173,-0.018903,0.010351,0.019449,-0.004092,0.001850,0.000646,
-0.016790,-0.009497,-0.025688,-0.003971,0.002386,0.004745,-0.001111,-0.006140,
-0.019195,0.011695,0.004427,0.003981,-0.022738,0.002298,-0.001658,0.000816,
-0.008570,-0.005458,0.019747,-0.007733,-0.016279,0.001809,-0.003104,-0.001287,
0.000200,0.005221,-0.006593,-0.000724,0.006339,-0.002245,0.005561,0.001685,
-0.005626,-0.002955,-0.001750,0.001694,0.006217,0.000524,0.001005,0.004184,
-0.000652,-0.003688,0.001267,0.005329,-0.000329,-0.006068,-0.004280,0.002508}
,
{
0.005780,0.032834,-0.071274,-0.056054,-0.029499,-0.002145,-0.009760,0.001420,
0.019918,-0.023911,-0.041637,-0.040401,-0.014041,-0.002237,0.008900,-0.003541,
-0.005737,0.006803,-0.015112,-0.016056,0.003706,-0.000253,0.008893,-0.006979,
0.000650,-0.023716,-0.016134,0.006721,0.007922,0.006217,-0.002598,0.007525,
-0.006901,0.009505,-0.001798,-0.003084,0.003103,-0.008246,-0.009272,-0.006769,
0.001877,-0.004773,-0.003748,0.003891,-0.002737,-0.007847,0.008903,0.003924,
-0.014497,-0.005472,-0.001949,0.005634,0.004453,-0.001510,-0.005037,-0.000111,
-0.005660,-0.006401,-0.007403,0.004479,0.008500,-0.007663,-0.007825,0.000389}
,
{
0.017083,0.023058,0.025311,-0.014103,-0.000886,0.008224,-0.002435,-0.002942,
-0.110881,-0.025427,-0.004368,0.005238,0.000411,0.004118,-0.008873,-0.007886,
-0.002443,-0.025792,0.003479,0.007160,-0.001245,-0.014219,-0.014895,0.005747,
0.025844,-0.011284,0.017505,-0.001462,0.001354,-0.003671,-0.005638,-0.012801,
0.024770,0.005724,0.010917,0.000736,0.011583,0.004477,0.011567,0.006016,
-0.001602,-0.008727,0.001664,0.003973,-0.000273,0.015267,-0.008191,-0.013259,
0.010308,-0.011143,-0.001710,-0.012495,0.008654,-0.005967,0.002081,-0.006837,
0.006948,-0.000003,0.009380,-0.003788,-0.011060,-0.007735,0.002497,0.005867}
,
{
-0.013534,-0.006549,-0.007035,0.000311,-0.000812,0.002444,-0.001915,0.000879,
-0.003528,-0.002471,0.003102,-0.000850,0.001802,0.000153,0.000258,-0.000755,
-0.002393,-0.004170,-0.003303,-0.000827,-0.000519,-0.001800,-0.000315,0.002259,
-0.006162,0.006009,-0.002071,0.003949,0.001457,0.000051,0.000045,0.000413,
0.001071,0.000299,0.001130,0.001615,0.009311,-0.001482,0.000805,-0.000350,
-0.001175,-0.001294,0.002808,0.001188,-0.003958,0.001344,-0.001948,-0.001512,
0.000390,-0.001084,-0.000046,-0.001910,-0.003546,-0.000288,-0.001500,-0.002155,
-0.001258,0.000889,-0.001873,-0.000420,0.001573,0.001188,0.001797,0.000010}
,
{
0.010062,0.004576,-0.005693,-0.006939,0.000563,-0.011060,0.001663,-0.003686,
0.012402,-0.003540,-0.013262,0.005803,0.003113,0.002556,0.001037,0.001205,
-0.001987,0.010170,-0.001190,-0.005528,-0.000835,-0.000077,0.004245,0.003084,
-0.010208,0.009970,0.004424,-0.001795,-0.012927,0.001237,0.000900,0.002169,
0.001550,0.001077,0.003842,-0.000569,0.009631,-0.002201,0.002023,-0.001642,
-0.000047,0.002912,0.004034,0.000846,-0.004422,0.000202,-0.004890,0.000223,
0.003544,0.005082,-0.000364,0.000628,-0.000915,-0.000083,-0.002988,-0.001707,
-0.001485,0.000837,-0.002510,0.000199,0.003475,0.002070,0.003503,-0.000897}
,
{
-0.035235,0.010826,0.005939,0.018185,0.004568,-0.004830,-0.000978,-0.004395,
0.012177,-0.003984,-0.003337,0.009468,0.000208,0.002720,0.001150,-0.000064,
0.005961,-0.007349,-0.004416,0.006254,0.000334,-0.003878,-0.003479,0.000052,
0.006212,0.014910,-0.007826,-0.003416,0.002268,-0.003229,0.001812,-0.005206,
-0.005368,-0.001902,0.002277,-0.003924,0.011805,-0.002426,0.000102,0.003803,
-0.006130,-0.000605,0.001883,0.002495,0.003013,0.000278,-0.005858,-0.001477,
-0.000659,-0.001210,-0.000582,0.001704,0.002281,0.001031,0.002959,0.002196,
0.001660,-0.000019,0.004162,0.000621,-0.004817,0.000220,0.000595,-0.003924}
,
{
-0.051315,-0.008313,-0.010572,-0.006597,0.007038,0.005549,-0.001965,-0.001860,
-0.000419,-0.007986,-0.018757,-0.017815,-0.001947,-0.001458,-0.003892,-0.011581,
-0.007874,-0.010962,-0.001336,0.002291,-0.001576,-0.004079,-0.001978,-0.004941,
0.005892,0.012058,-0.007551,-0.009796,-0.014462,0.011020,-0.013052,0.004013,
-0.006556,0.006680,-0.007473,-0.001749,0.001645,0.004964,0.002711,-0.006803,
0.004716,-0.000286,0.000285,-0.001802,-0.004034,0.002735,0.002220,0.000511,
0.008664,-0.002717,-0.010205,-0.000370,0.010363,-0.013734,-0.009748,-0.012183,
0.003349,-0.011242,-0.007025,-0.010775,0.005804,-0.014294,-0.002348,0.014307}
,
{
0.020348,-0.000939,0.015906,-0.021083,-0.006331,-0.004593,0.005293,0.005240,
-0.015229,0.014195,0.008259,-0.014480,-0.018052,0.007563,0.004686,0.007797,
0.006087,-0.004757,0.009577,-0.003373,-0.001418,-0.001762,-0.001388,0.009322,
0.008198,0.000681,-0.001959,0.015711,0.005257,-0.009648,0.016369,-0.007395,
-0.000510,0.001463,0.023058,0.000843,0.002741,-0.007480,-0.000231,0.005737,
-0.005940,0.004062,0.005652,-0.001873,0.008522,0.000982,-0.008653,-0.002079,
0.000583,0.000414,0.009329,-0.000967,-0.002556,0.014015,0.010775,0.011788,
0.004736,0.011275,0.010736,0.010665,-0.009152,0.012958,0.007106,-0.016828}
,
{
-0.020912,-0.012123,-0.013527,-0.002599,0.018630,-0.002446,0.001328,0.005874,
0.032766,0.027819,-0.015677,-0.015209,-0.002802,-0.007477,-0.000696,-0.003978,
-0.031148,-0.019734,0.018338,-0.023558,-0.001935,-0.005256,0.002689,-0.001436,
0.038590,0.025987,0.007229,-0.000533,0.004754,0.000260,-0.003576,0.000978,
-0.005119,-0.010671,-0.016364,-0.000386,-0.005202,0.006506,0.001213,0.001135,
0.007799,-0.009104,-0.002279,-0.005917,-0.000939,-0.000564,0.003193,0.003003,
0.009668,-0.003315,-0.002480,0.002813,0.000317,-0.000941,-0.000403,-0.004459,
0.002474,0.001447,0.001810,-0.006852,-0.000799,0.002649,-0.001228,0.004725}
,
{
0.032005,0.077562,-0.007615,-0.029323,-0.010896,-0.014637,-0.007332,-0.007794,
-0.022821,0.010151,-0.004500,0.003248,-0.005369,-0.008977,0.007643,0.000017,
0.035922,0.060715,-0.006413,-0.007441,0.001115,0.007281,0.015996,-0.004862,
0.031084,0.002734,-0.006428,0.000181,0.015196,0.006462,-0.002822,0.018547,
0.020884,0.015392,-0.020397,-0.001568,-0.016062,0.016199,-0.005445,-0.002728,
0.000333,-0.007365,-0.003575,-0.001256,-0.007782,-0.010315,0.009854,0.009832,
0.000096,0.006278,-0.004488,0.015664,0.013066,-0.005097,-0.006305,-0.006557,
-0.003363,-0.000927,-0.011781,-0.011035,0.012193,0.001311,-0.006444,0.005575}
,
{
-0.048126,0.116995,0.061566,-0.011638,-0.011197,-0.004189,0.011377,0.022605,
-0.089418,0.063442,0.056760,0.015314,0.028108,0.008059,-0.008824,0.013369,
0.000140,0.101188,0.000654,0.001903,0.005048,0.019567,0.014132,0.010264,
-0.018577,0.013484,0.008481,-0.006768,0.037542,0.004000,0.008614,-0.004985,
-0.015114,0.002421,0.001758,0.006909,-0.018618,-0.026304,0.004469,-0.011431,
-0.013993,0.016168,-0.000105,-0.017941,0.015235,-0.001004,0.004171,-0.003203,
-0.012190,-0.008692,0.007098,-0.010230,-0.001609,0.006909,0.010922,0.000401,
0.009925,-0.007762,0.008181,0.004308,-0.003420,-0.003811,0.012601,-0.011648}
,
{
-0.010626,-0.001196,-0.004996,-0.000374,-0.003503,-0.000771,-0.000840,-0.000601,
0.006993,-0.013783,-0.002451,-0.007498,-0.001885,0.000853,-0.000946,0.001189,
0.006613,-0.004642,-0.002657,0.004884,-0.000607,0.002252,0.000382,-0.002117,
0.003132,0.003819,0.001996,-0.002398,0.004294,0.001998,0.001607,0.001068,
-0.001979,-0.002550,0.001831,-0.000201,-0.004569,0.003129,-0.000558,-0.001471,
0.002336,0.000131,-0.002010,-0.002192,0.001782,-0.002426,-0.000196,0.003081,
-0.001586,-0.000979,-0.000956,0.003901,0.004593,-0.000493,-0.000086,0.001136,
0.001250,-0.000947,0.000433,-0.000605,-0.000191,-0.000449,-0.000698,-0.001064}
,
{
0.008272,0.000071,0.005832,-0.001872,-0.001657,-0.003055,0.001930,-0.000246,
0.004830,0.006763,-0.002177,0.012911,0.007831,0.002029,-0.001603,0.004794,
-0.015508,0.006860,0.000777,-0.004885,-0.000127,0.003413,0.003198,0.000789,
0.013010,-0.002688,-0.000893,-0.011565,-0.013483,-0.000372,0.005396,-0.001103,
-0.003014,-0.003737,0.006301,-0.005417,-0.003865,-0.003339,0.002415,-0.001913,
-0.001815,-0.000223,0.000252,-0.000903,0.005360,0.000706,-0.003101,0.001776,
-0.000341,-0.002878,0.001350,-0.000087,-0.001153,0.002781,0.002240,0.005905,
0.003547,-0.000626,0.002931,0.003504,-0.001035,-0.001016,0.003208,-0.004976}
,
{
0.010850,0.010003,-0.015781,-0.000442,0.002454,-0.007645,-0.009701,-0.006251,
0.019825,0.015428,-0.001883,0.001110,0.000226,0.003644,-0.003006,0.000624,
0.015703,0.002458,0.002869,-0.002217,-0.000919,0.001585,-0.000290,0.005660,
0.000416,-0.003365,-0.002402,0.004503,-0.002479,-0.001698,0.005141,-0.001106,
-0.008646,-0.003668,0.002616,0.005094,0.004076,-0.001128,-0.000004,-0.002644,
-0.002079,-0.002368,0.004099,-0.001451,-0.000957,0.001787,-0.004272,-0.001625,
-0.000845,-0.001452,0.000937,-0.005180,-0.004891,0.001929,-0.002446,0.003451,
-0.008969,0.000486,-0.000008,0.004569,-0.000404,-0.000474,0.005511,-0.003144}
,
{
0.026579,0.015819,-0.002206,-0.007847,0.002965,0.001424,0.001616,-0.001874,
0.006328,0.005023,-0.019693,-0.005562,-0.001452,0.002338,-0.005409,-0.002455,
0.074379,-0.025742,-0.009895,0.001443,-0.003291,-0.012515,-0.021171,0.013018,
0.015443,-0.025284,-0.010289,-0.009593,0.006214,-0.013837,0.003691,-0.022779,
0.011907,0.005487,0.004150,0.000673,0.022332,-0.015239,0.008179,0.007385,
-0.009848,-0.006298,0.004231,-0.000589,0.011535,0.013813,-0.015491,-0.015240,
0.007390,-0.008740,0.005114,-0.018312,-0.011722,0.007684,0.008147,0.004548,
0.014496,0.007419,0.015566,0.003472,-0.018069,0.004065,0.009257,-0.004745}
,
{
0.000681,0.018282,0.011141,0.014183,-0.002542,-0.009655,0.007103,0.002298,
-0.034034,0.013386,-0.012708,-0.007660,-0.000085,0.011066,-0.002740,-0.002913,
0.017453,0.003287,-0.005598,0.005113,-0.006361,-0.005430,-0.013619,0.010773,
0.044367,0.032922,0.006806,-0.001215,-0.006002,-0.013195,0.005921,-0.019927,
0.009015,0.012314,0.000462,-0.004334,0.020116,-0.020238,0.002666,0.005412,
-0.021846,0.002946,0.003142,0.001818,0.017034,0.014353,-0.011609,-0.014045,
0.003900,0.006844,0.005152,-0.017074,-0.022586,0.007706,0.003213,0.013387,
0.031926,0.006725,0.015738,0.013738,-0.017479,0.000260,0.004578,-0.008804}
,
{
-0.069511,-0.009339,0.023419,0.044201,-0.023429,0.002945,0.000208,-0.007384,
0.125430,0.035280,-0.005263,0.013339,0.005411,-0.019301,0.002652,0.001433,
-0.027276,-0.022572,0.015627,-0.006845,0.000321,0.006344,0.017101,-0.016842,
-0.020114,0.011594,0.003091,0.026848,-0.007817,0.012487,-0.002152,0.011440,
0.006457,0.010004,-0.014720,0.002848,-0.024276,0.018152,-0.006117,-0.012104,
0.010642,0.007521,-0.013004,-0.009490,-0.008263,-0.023259,0.014085,0.028237,
-0.018150,0.009863,-0.010099,0.023376,0.003129,-0.004481,-0.008420,-0.001314,
-0.002707,-0.004899,-0.004870,-0.009649,0.007397,-0.002036,-0.012131,0.004932}
,
{
-0.051793,-0.041429,-0.034065,0.014013,-0.038204,0.000679,0.002898,-0.024876,
0.073155,0.002369,0.023653,0.008557,-0.042278,0.002762,0.004550,-0.004275,
0.060994,0.013081,-0.026216,-0.008865,0.002967,0.006998,0.012324,-0.009979,
-0.015638,-0.029339,-0.027449,0.013269,0.014130,0.016507,0.000577,0.011574,
0.005618,0.012298,-0.000075,-0.004479,-0.009963,-0.023202,-0.009594,-0.012217,
-0.014597,0.013434,-0.001522,0.002830,-0.003727,-0.005661,0.001148,0.008482,
-0.002683,0.015239,-0.004869,0.008703,0.007907,-0.007179,-0.011105,0.004318,
0.015866,-0.012599,-0.006435,0.001342,0.011097,-0.014780,-0.004638,-0.001350}
,
{
0.015870,0.055015,-0.048228,0.022634,0.034325,-0.014196,-0.006468,0.007145,
-0.052754,-0.011495,-0.030121,0.036227,-0.004804,0.002427,0.010500,0.005058,
0.048435,0.069422,-0.009378,-0.052240,-0.003074,-0.014123,-0.007221,0.013658,
0.000808,0.026636,-0.031705,-0.002139,-0.049780,-0.018440,0.008867,0.001245,
-0.012475,-0.010793,0.019559,0.016516,0.024561,0.020105,-0.001627,0.019599,
0.004141,-0.017781,0.011109,0.007394,-0.011811,0.004152,-0.015330,-0.005510,
0.010201,-0.004186,0.008349,-0.004210,-0.032343,0.017857,0.001011,0.003014,
0.025420,0.020507,-0.004264,0.005857,0.000060,0.025793,0.009895,-0.005404}
,
{
0.004340,0.003070,-0.003351,-0.004069,-0.002916,0.000817,-0.000260,0.000818,
-0.006154,-0.005985,0.003893,-0.001710,0.003091,-0.003173,0.001651,-0.003122,
0.008395,0.007571,-0.016522,0.002999,-0.000179,-0.001342,-0.003507,-0.002194,
-0.008181,0.017765,0.001159,0.000803,0.013182,-0.000228,-0.000252,-0.001665,
-0.002223,0.003245,-0.006569,0.000989,0.001993,-0.000740,-0.000767,0.001240,
0.000909,-0.001591,-0.000383,-0.000246,0.000845,-0.001258,0.000441,0.000045,
-0.000170,-0.001465,-0.001260,0.002215,0.001254,0.000437,0.000296,-0.000909,
0.000083,-0.000211,0.001076,-0.001206,-0.002205,-0.000220,-0.002154,-0.001146}
,
{
-0.010246,0.006522,0.019493,0.000610,0.008012,-0.001471,0.002610,-0.001046,
0.004896,0.001089,0.003671,-0.000186,-0.003602,0.002248,-0.000742,-0.007162,
-0.025853,-0.002443,0.010128,-0.001707,-0.001177,-0.001431,0.001269,-0.001402,
0.005654,0.015035,-0.001044,0.003814,-0.009691,0.004904,-0.005487,0.004391,
0.002781,0.001406,0.004068,0.002415,-0.001703,0.001512,-0.000140,-0.005867,
0.005075,0.001639,0.001071,-0.000860,-0.003096,0.001260,0.001725,-0.001319,
0.003220,0.000241,-0.003774,-0.001540,0.003804,-0.006457,-0.005992,-0.005365,
0.003927,-0.005808,-0.006916,-0.002970,0.006605,-0.008863,-0.001295,0.005193}
,
{
0.008334,0.010227,0.026002,-0.004522,-0.008949,-0.009561,0.001819,-0.000614,
-0.012300,-0.016104,0.005269,0.003028,0.002740,0.003501,-0.001059,0.005173,
0.006036,0.011356,-0.006741,-0.010949,0.001933,0.011986,0.008052,0.002003,
0.015132,0.021598,-0.001128,0.006410,-0.005195,-0.003528,0.008224,0.000611,
0.000189,0.007773,-0.000619,-0.000344,-0.017098,0.000726,-0.005505,0.000900,
-0.001483,0.008032,0.000483,0.000052,0.005368,-0.003906,0.002989,0.002427,
0.006517,0.008574,0.004569,-0.000048,-0.011442,0.008198,0.001098,0.008056,
-0.001559,0.004813,0.002372,0.006288,-0.001613,0.008448,0.001687,-0.007137}
,
{
-0.031836,0.015387,-0.029350,-0.040471,-0.017543,-0.008572,-0.007975,-0.012956,
0.029319,-0.019931,-0.030099,0.006500,-0.003359,-0.002462,-0.005611,-0.003549,
-0.011612,-0.017962,0.008259,0.025435,-0.007024,-0.005081,-0.008138,0.000835,
-0.004117,-0.031648,-0.009510,0.005757,0.010016,0.002371,-0.006632,-0.007020,
0.002263,-0.011271,-0.000534,0.002460,0.004281,0.008192,0.004329,0.000884,
0.001102,-0.009376,-0.000767,-0.003662,0.005855,-0.000207,-0.002962,-0.001010,
-0.005598,-0.014646,-0.001935,-0.003994,-0.000385,-0.000786,-0.001634,-0.001209,
-0.007907,-0.001727,0.004044,-0.008153,-0.005110,0.003309,0.001650,0.006499}
,
{
-0.022802,0.022075,0.023861,0.054673,-0.023802,0.008205,0.003213,0.005960,
0.075378,0.009229,-0.022607,0.013020,0.016206,-0.021971,-0.000024,-0.003464,
-0.013736,0.043887,0.003641,-0.058908,-0.005146,0.011536,0.013437,-0.011840,
-0.023237,0.008429,-0.002748,0.006488,-0.044474,0.018982,-0.019681,0.015123,
-0.004111,0.016359,-0.003663,0.003105,-0.015107,0.009819,0.003757,-0.008588,
0.014312,0.003561,-0.003562,0.000849,-0.010403,-0.005335,0.013862,0.011393,
-0.000697,0.003776,-0.009892,0.007372,0.014456,-0.016205,-0.010792,-0.019369,
0.010518,-0.018272,-0.013638,-0.018219,0.015336,-0.018689,-0.004272,0.019366}
,
{
-0.127834,0.025077,0.026304,-0.035867,-0.002663,-0.006357,-0.019598,-0.021321,
0.007894,0.001423,-0.004653,-0.018755,-0.013158,0.005198,-0.000071,0.004669,
-0.077010,0.022611,0.035129,0.044733,0.000623,0.004907,-0.012921,0.013485,
0.019138,0.000438,-0.022947,-0.004963,0.002069,-0.016466,0.014156,-0.011273,
-0.002353,0.019065,0.013056,-0.008900,-0.008495,0.002353,0.004252,0.020308,
0.002988,-0.001560,0.009702,0.008785,0.012478,0.014169,-0.007969,-0.021538,
-0.007304,-0.001330,0.014564,-0.015113,-0.027392,0.021933,0.014527,0.015759,
0.020331,0.017692,0.010331,0.015662,-0.015112,0.018365,0.006579,-0.016065}
,
{
-0.018703,-0.082219,-0.011051,-0.024971,0.008726,0.003503,-0.005516,0.015123,
0.025480,0.025235,-0.016926,-0.050608,-0.026572,-0.009175,0.003836,0.000823,
0.029202,0.007948,-0.001685,-0.027863,-0.002668,-0.011926,-0.007225,-0.002317,
-0.011156,-0.014479,-0.005544,0.008659,0.008350,-0.001829,-0.007256,-0.003813,
0.005187,-0.005592,-0.012775,0.008294,0.007660,-0.000417,0.002012,0.003041,
-0.017652,-0.022179,-0.005487,0.002954,-0.004054,0.001694,0.004650,-0.000167,
0.007206,-0.012017,-0.002752,-0.000745,-0.008248,-0.004893,0.001309,-0.007878,
-0.008777,0.000090,0.004572,-0.006159,-0.005965,0.001856,-0.003198,0.007601}
,
{
0.091771,0.123816,-0.011222,0.004582,-0.028060,0.006727,-0.007278,0.016178,
0.052444,0.023857,0.048135,0.022409,-0.001867,0.011528,0.006607,0.008167,
-0.073753,-0.056792,-0.025217,0.002955,-0.000778,0.006737,0.005769,0.015524,
0.028743,-0.007913,0.011024,-0.009946,-0.003171,-0.015320,0.016359,-0.007269,
-0.005257,0.024344,-0.000558,-0.002385,0.009758,-0.017688,-0.013914,-0.000658,
0.000439,-0.007547,0.000089,-0.000532,0.009946,-0.005363,-0.001837,-0.005292,
0.001901,-0.003277,0.011759,-0.009896,-0.040706,0.024849,0.001436,0.017183,
0.002101,0.010302,0.004901,0.022039,-0.004255,0.012556,0.007003,-0.017252}
,
{
0.000812,-0.000351,0.000894,-0.000099,0.000680,-0.000269,0.000292,0.000141,
0.000832,0.002514,-0.000124,-0.000641,-0.000160,0.000089,-0.000054,-0.000178,
0.000513,-0.000128,-0.000870,-0.000266,-0.000066,0.000046,0.000083,-0.000015,
0.000784,-0.000528,0.000162,0.000420,-0.000049,0.000202,-0.000170,0.000126,
-0.000014,0.000160,-0.000254,0.000086,0.000723,0.000006,0.000017,-0.000183,
-0.000333,-0.000262,0.000169,-0.000046,-0.000451,-0.000057,-0.000199,0.000078,
0.000410,0.000172,-0.000345,0.000123,-0.000246,-0.000213,-0.000340,-0.000257,
0.000079,-0.000047,-0.000282,-0.000245,0.000151,0.000027,0.000020,0.000200}
,
{
0.001634,-0.000921,0.003519,-0.002167,-0.001527,-0.004154,-0.000666,-0.000929,
-0.002335,-0.004207,0.003661,-0.003370,0.001143,-0.001499,0.000447,-0.001172,
-0.000832,0.001481,-0.000631,-0.003884,-0.000131,-0.000161,0.000595,-0.000963,
-0.001485,0.001249,-0.000769,0.002526,-0.000684,0.002363,-0.001506,0.002112,
-0.000683,0.000562,0.000972,-0.000245,-0.002967,0.002419,0.000219,-0.000655,
0.001432,-0.000090,-0.000108,0.000080,-0.001830,-0.000283,0.001036,0.000359,
-0.000742,0.000187,-0.001008,0.001343,0.003025,-0.001996,-0.001152,-0.002255,
-0.001771,-0.001347,-0.001648,-0.001847,0.001685,-0.001481,-0.000835,0.001774}
,
{
0.003597,-0.007249,-0.001346,0.004677,-0.001794,0.000692,0.000200,0.000929,
0.002368,-0.003931,0.004250,-0.003791,-0.001415,0.001409,0.001032,0.000494,
0.004857,-0.000108,0.000767,0.002013,-0.000931,-0.000282,-0.000351,0.002112,
-0.001029,-0.000034,-0.001615,-0.000114,0.001366,-0.002615,0.002310,-0.001865,
-0.000213,-0.002386,0.001953,0.000283,0.004719,-0.000201,-0.000793,0.001046,
-0.002108,-0.000394,0.000492,-0.000326,0.002082,0.000502,-0.000121,-0.001195,
0.000766,0.000257,0.001614,-0.001382,-0.005793,0.004089,0.001033,0.002967,
0.001084,0.002875,0.002440,0.002578,-0.002238,0.002967,0.000565,-0.002563}
,
{
-0.004773,-0.004621,0.005830,-0.006156,-0.000554,-0.000308,0.000320,0.002456,
-0.001993,0.006145,0.000923,0.001514,0.004278,0.000054,0.000800,-0.000111,
0.004022,0.002599,-0.008193,0.001303,-0.000211,-0.000884,-0.001297,0.000324,
-0.003377,0.002400,-0.001207,-0.003453,0.002536,-0.001961,0.002366,-0.001264,
0.000777,-0.000942,-0.000768,-0.000278,0.006373,0.000949,-0.001302,0.000937,
-0.000478,-0.000249,-0.000796,-0.000339,0.003250,-0.000572,-0.000129,-0.000085,
-0.001221,0.001880,0.001187,-0.000143,-0.001479,0.002634,0.001075,0.003162,
-0.001984,0.001105,0.001910,0.002225,-0.002029,0.000716,-0.000468,-0.002774}
,
{
0.000452,-0.000540,-0.002122,-0.000424,-0.000501,0.005930,-0.000038,0.001450,
0.013936,0.008578,0.002986,0.003666,0.001372,-0.000356,0.002032,-0.001489,
0.004399,0.012896,0.002061,-0.002617,0.000137,0.000325,0.005911,-0.003963,
-0.013895,-0.000974,0.000527,-0.001033,-0.007297,0.006205,-0.005264,0.005764,
0.000623,0.001221,-0.001533,-0.000741,0.006830,0.002122,-0.000698,-0.003748,
0.002564,-0.000296,-0.000630,0.000720,-0.003879,-0.003392,0.003880,0.004438,
-0.001013,-0.001049,-0.003898,0.004472,0.005665,-0.005017,-0.003328,-0.004427,
-0.001407,-0.004491,-0.004926,-0.004401,0.005799,-0.003326,-0.002968,0.005320}
,
{
-0.002462,-0.001413,-0.015263,0.009687,-0.007773,-0.001090,0.000746,-0.007104,
-0.008301,-0.011317,0.008545,-0.001886,-0.002964,-0.006062,0.001853,-0.003472,
-0.000254,0.004334,0.009209,-0.008082,0.000231,-0.000651,0.001184,-0.005939,
0.001329,0.001525,-0.003333,0.003608,-0.004960,0.003029,-0.002556,0.001116,
-0.001973,-0.000541,-0.000144,-0.002182,-0.010080,0.003894,-0.003625,-0.001887,
-0.003162,0.002797,-0.004888,-0.003901,0.002922,-0.003526,0.005259,0.003585,
0.002840,0.000313,-0.002456,0.004693,0.007002,-0.001830,0.001089,-0.000187,
-0.000506,-0.004600,0.001224,-0.002371,-0.000355,-0.004129,-0.004417,0.002064}
,
{
0.000453,0.003630,0.002622,-0.008970,0.004192,0.000271,0.000494,0.001610,
-0.003986,0.000428,0.005549,0.002876,0.004145,0.003170,-0.001085,0.004026,
0.013030,0.019132,0.004153,0.002853,0.002136,0.002661,0.001754,0.001190,
0.002628,-0.000228,-0.006181,0.003150,-0.006376,0.000891,-0.000122,-0.000359,
0.002603,0.003514,-0.006563,-0.001177,0.024406,-0.005319,0.003036,-0.000047,
0.001096,0.002046,0.003722,0.003453,-0.003103,-0.000299,-0.003401,0.002775,
-0.000361,0.004407,-0.000020,-0.001298,-0.001624,-0.001152,-0.001466,0.000329,
0.000851,0.000919,-0.001270,-0.000245,0.001340,0.002734,0.003221,0.000546}
,
{
-0.015454,0.013984,0.011460,-0.005975,-0.001208,0.002337,0.002027,-0.005333,
0.019577,0.009329,0.009992,0.009019,-0.003488,-0.007119,0.003274,-0.002474,
-0.003854,0.000433,-0.002037,-0.007887,0.002487,0.000755,0.001832,-0.005265,
-0.004458,-0.002887,-0.000256,0.001206,-0.007053,0.001981,-0.001880,0.003216,
-0.000076,0.004042,-0.011125,-0.000989,-0.023936,0.010680,-0.002498,-0.002021,
-0.003801,0.002691,-0.003161,-0.000408,0.005786,-0.003098,0.005726,0.003684,
-0.000124,0.004467,-0.002341,0.005713,0.004856,-0.001565,-0.001532,0.001525,
-0.004767,-0.002565,0.000257,-0.001462,0.000419,-0.005703,-0.004620,0.002613}
,
{
-0.009114,0.003792,-0.001045,0.001041,0.001085,-0.002325,0.000161,-0.001098,
-0.005116,0.001933,0.003181,-0.000998,0.000833,0.000913,0.000012,-0.000847,
0.000202,0.002593,-0.000614,0.000121,-0.000297,-0.000432,0.000103,-0.000274,
-0.001608,0.003852,-0.002272,-0.002922,-0.001225,-0.000414,0.000986,-0.000462,
0.000690,-0.000379,0.001450,-0.000912,-0.001282,-0.000332,-0.000852,0.000019,
0.000924,-0.000302,-0.000530,-0.000547,0.000630,-0.000436,0.000542,0.000348,
-0.001202,-0.000862,-0.000004,0.000296,-0.001190,0.001024,0.000281,0.001285,
-0.000033,0.000427,0.000773,0.001272,-0.000855,0.000191,-0.000613,-0.001197}
,
{
-0.001803,-0.003188,0.006446,-0.000177,-0.003116,-0.002995,0.001101,0.000546,
0.000960,-0.001527,-0.002482,-0.003257,-0.001761,0.004661,0.000227,0.001774,
-0.005231,0.003143,0.006324,-0.000940,-0.000513,-0.001009,-0.003414,0.004526,
-0.003077,-0.002091,-0.002987,0.000211,-0.000106,-0.004740,0.005219,-0.006335,
0.000580,-0.000077,0.008104,-0.002278,0.007232,-0.004963,-0.000352,0.000883,
-0.003944,-0.000110,0.001670,0.000730,0.004980,0.002501,-0.004648,-0.003324,
0.001729,-0.000735,0.003270,-0.004578,-0.006593,0.005713,0.002638,0.005532,
0.004690,0.003074,0.005125,0.005823,-0.004786,0.003071,0.003190,-0.006116}
,
{
0.009940,0.000468,0.002752,-0.003248,-0.002030,-0.004617,0.000642,0.000434,
0.004155,0.009092,-0.003425,-0.004395,-0.000164,0.008396,-0.001401,0.002456,
0.003657,-0.009234,0.005588,0.001798,-0.000971,-0.003090,-0.006774,0.008854,
-0.001209,-0.005703,0.003161,0.002160,-0.003898,-0.010136,0.007976,-0.010404,
-0.000804,-0.001726,0.009472,-0.001158,0.015141,-0.007989,0.000483,0.002940,
-0.006935,-0.000425,0.002084,0.001561,0.004958,0.005784,-0.007761,-0.007328,
0.005813,0.001155,0.005789,-0.011072,-0.014659,0.009515,0.002457,0.008759,
0.005164,0.006617,0.007581,0.010322,-0.007967,0.006615,0.005581,-0.009253}
,
{
-0.003602,-0.008980,0.000387,0.001582,-0.000196,-0.002166,-0.001155,-0.000342,
0.009268,0.001112,0.000928,0.000883,0.000937,-0.002826,-0.000260,0.000257,
0.000916,0.001516,0.001711,-0.005749,0.000838,0.004250,0.007400,-0.005382,
-0.000515,0.004399,0.001152,-0.001433,-0.008483,0.007809,-0.006221,0.009884,
0.001331,0.003032,-0.004406,0.000688,-0.005635,0.005775,-0.000190,-0.003178,
0.002119,0.002430,-0.001551,0.000305,-0.007255,-0.003225,0.004380,0.004558,
-0.003187,0.002262,-0.003760,0.006208,0.013057,-0.008505,-0.003733,-0.007861,
-0.008536,-0.005636,-0.007824,-0.006943,0.008874,-0.005121,-0.002507,0.007203}
,
{
-0.018854,0.007200,-0.000928,-0.002405,-0.002280,-0.007118,0.002803,-0.000696,
0.005211,-0.006516,-0.001207,0.005515,-0.004026,0.003233,0.000860,0.002181,
0.003800,0.005556,0.011044,0.002871,0.000258,-0.002743,-0.004993,0.002375,
0.011802,-0.007380,-0.000309,-0.000436,-0.005287,-0.007428,0.005129,-0.007182,
-0.000365,-0.000521,0.002416,-0.003043,0.008568,-0.004962,-0.000404,0.002203,
-0.003340,0.002336,0.000300,0.001339,0.005666,0.003364,-0.005374,-0.003308,
0.006243,0.002007,0.003411,-0.003717,-0.004558,0.006903,0.003271,0.006799,
0.006089,0.003937,0.005851,0.006198,-0.005266,0.002311,0.002120,-0.005642}
,
{
0.011436,0.017513,0.020553,0.002810,0.009097,-0.009458,-0.000215,-0.005733,
-0.000626,-0.000156,-0.003554,0.003336,0.001015,-0.000607,-0.001896,0.006104,
0.008646,-0.007452,-0.006880,0.006648,0.001632,0.004650,0.002104,-0.001176,
0.001344,-0.004926,0.000487,-0.000010,0.009127,0.000747,0.000828,0.000974,
0.001264,0.002036,-0.004344,0.002485,0.001746,0.000860,-0.000706,-0.000759,
-0.002601,-0.000042,-0.001650,0.000068,0.000317,-0.003501,-0.001415,0.004578,
-0.004749,0.001842,0.000457,0.001497,0.004166,-0.000565,0.000572,0.003003,
-0.004829,-0.000056,-0.000727,0.000062,0.000799,0.002681,0.001914,0.000751}
,
{
0.001142,0.002717,0.018377,-0.017912,-0.002205,-0.005619,-0.004099,0.002930,
0.002903,-0.021691,-0.002919,-0.004316,-0.002823,-0.001887,0.003161,-0.002527,
-0.003108,-0.011637,0.000240,0.004542,-0.000988,-0.006963,-0.004736,-0.000866,
-0.003349,-0.007865,-0.005437,0.001993,0.004893,-0.001685,0.001437,-0.007186,
-0.004043,-0.005191,0.007472,-0.001056,0.004834,-0.006443,-0.001767,0.001116,
-0.003845,-0.000570,-0.003943,-0.001644,0.005829,0.000309,-0.001376,-0.001176,
0.005645,-0.007477,0.000552,-0.000837,-0.001516,0.001965,0.004184,0.002765,
0.011254,-0.001058,0.005883,0.002911,-0.006210,-0.001655,-0.001699,-0.003362}
,
{
0.010447,0.039853,-0.006865,-0.005781,-0.015853,0.001399,0.004393,-0.004064,
-0.022386,-0.012637,0.002830,0.006175,0.003821,-0.005781,0.002165,-0.002662,
0.000402,0.021506,0.012809,-0.001997,-0.001277,0.001187,0.008297,-0.009860,
-0.004592,-0.000125,0.001863,0.006771,-0.011820,0.006693,-0.007338,0.008556,
-0.007923,0.001774,-0.005886,-0.004371,-0.015085,0.010097,-0.005582,-0.001695,
-0.003340,0.005223,-0.005866,-0.001449,-0.003927,-0.008813,0.012856,0.009746,
-0.002921,0.002655,-0.003546,0.009288,0.009319,-0.004813,-0.001988,-0.002121,
-0.005955,-0.005530,-0.004578,-0.004553,0.006134,-0.002958,-0.007614,0.006301}
,
{
0.001547,-0.008756,-0.004317,0.000060,0.004306,0.000837,0.000208,0.000824,
-0.000226,-0.001746,0.002273,-0.002080,-0.000232,0.000241,0.000845,0.000276,
0.004136,-0.005231,-0.002236,0.000763,-0.000274,-0.001430,-0.001703,0.001752,
0.000575,0.004515,-0.003800,-0.002810,0.001735,-0.002805,0.002627,-0.002959,
-0.002010,0.000073,0.000708,-0.000810,0.003017,-0.003026,-0.000444,0.001478,
0.000203,-0.000836,0.000398,0.000469,0.002059,0.000571,-0.001423,-0.001556,
-0.000337,-0.001041,0.001857,-0.001369,-0.003487,0.002963,0.001874,0.002337,
0.001880,0.001707,0.002162,0.002459,-0.002372,0.002164,0.000769,-0.003173}
,
{
0.002624,0.003654,-0.007202,-0.006665,-0.001037,0.000794,-0.000093,0.002892,
-0.000068,0.003250,-0.001574,-0.004489,-0.001896,0.007195,-0.001301,0.002777,
0.002721,-0.006865,-0.002767,0.012528,-0.001782,-0.004589,-0.011016,0.009681,
0.002006,-0.007582,0.002805,-0.008105,0.006362,-0.013006,0.011227,-0.014118,
0.000399,-0.002293,0.009464,-0.002281,0.013473,-0.010843,0.002421,0.006461,
-0.003575,-0.002476,0.003216,0.000697,0.009788,0.007334,-0.011999,-0.008742,
0.003657,-0.001418,0.006746,-0.009669,-0.013156,0.011576,0.006626,0.010425,
0.010678,0.009709,0.011950,0.010139,-0.012833,0.007367,0.006787,-0.012152}
,
{
0.000975,-0.002712,-0.000489,-0.003028,-0.004666,0.006285,-0.002850,-0.000952,
0.002489,-0.012020,0.002506,0.003933,-0.000186,-0.003265,0.002189,-0.002054,
0.005361,0.005675,0.001437,0.001369,0.001480,0.000598,0.004488,-0.002665,
-0.010005,-0.001509,0.002278,0.001041,0.001122,0.004068,-0.004157,0.004746,
0.000709,-0.001195,0.003334,0.001167,-0.005642,0.000916,-0.001692,-0.002544,
0.001725,0.001126,-0.000540,-0.001088,-0.004800,-0.003184,0.002768,0.002397,
-0.001970,-0.000019,-0.002878,0.003326,0.004365,-0.004047,-0.002886,-0.004417,
-0.003336,-0.003474,-0.004772,-0.003743,0.004666,-0.003532,-0.002199,0.004070}
,
{
-0.002226,-0.010707,-0.000797,0.008705,-0.004571,-0.002574,-0.002414,0.001585,
0.000673,-0.004174,0.008970,0.003723,0.000467,-0.007558,-0.000468,-0.002565,
0.006856,0.010827,-0.001024,-0.009085,0.000267,0.003186,0.005795,-0.008288,
0.000970,0.002590,0.000245,-0.003443,-0.007733,0.008099,-0.007164,0.010065,
-0.001409,0.001805,-0.009782,-0.001589,-0.017354,0.012138,-0.001072,-0.003121,
0.001861,0.001788,-0.002933,-0.000851,-0.004131,-0.004325,0.007777,0.006505,
0.000718,0.004581,-0.004763,0.008089,0.013184,-0.007574,-0.004434,-0.005547,
-0.005437,-0.005563,-0.006911,-0.008476,0.007714,-0.005935,-0.005425,0.008773}
,
{
0.004092,0.012398,0.009840,0.009753,-0.010913,-0.007460,0.001662,-0.003138,
-0.006785,0.008521,0.001653,0.000053,0.008114,-0.006301,-0.001789,0.000307,
0.001334,0.015189,0.005179,-0.007087,0.002033,0.002053,0.003780,-0.004540,
0.002243,0.001254,0.001304,0.006310,-0.002220,0.005797,-0.005039,0.006411,
-0.008812,0.001964,-0.013517,0.001167,0.001431,0.004978,0.000066,-0.001984,
-0.003023,0.002760,-0.001186,-0.000749,-0.005561,-0.003429,0.002714,0.004156,
-0.000067,0.004247,-0.002931,0.004928,0.012518,-0.006389,-0.002110,-0.006304,
-0.008005,-0.003847,-0.005721,-0.007727,0.005816,-0.001577,-0.001697,0.006425}
,
{
-0.003811,0.011870,0.005026,0.008162,-0.011552,-0.000346,-0.002956,-0.000746,
0.008982,0.017431,-0.003693,-0.008974,-0.000036,-0.002349,0.001464,0.000433,
0.017895,0.019965,0.020054,-0.008042,0.000757,0.005205,0.005262,-0.007266,
-0.012253,-0.000143,0.005032,0.012683,-0.004544,0.008377,-0.005327,0.009312,
-0.001278,0.006661,-0.000050,0.002891,-0.018193,0.012240,-0.001018,-0.001950,
0.003154,0.001126,-0.002661,-0.001782,-0.001816,-0.005076,0.008078,0.005081,
-0.005614,0.000234,-0.003572,0.009695,0.013035,-0.005360,-0.001315,-0.007321,
-0.005603,-0.004804,-0.005462,-0.008043,0.006401,-0.002047,-0.005290,0.006414}
,
{
0.038195,-0.010931,-0.024485,0.004739,-0.009029,-0.005988,0.002524,-0.000923,
-0.002167,-0.021065,0.024210,-0.006832,0.003448,0.001309,-0.001896,0.007835,
0.007349,-0.009482,-0.002467,0.021145,-0.002108,-0.006922,-0.011734,0.013167,
0.013324,0.002777,0.010636,0.003103,0.015636,-0.014879,0.011064,-0.013614,
-0.010019,-0.001048,-0.001527,0.004426,0.016697,-0.003578,0.004262,0.009657,
-0.005099,-0.007235,0.005134,0.003627,0.003367,0.006385,-0.013344,-0.006062,
0.002569,-0.000586,0.009124,-0.009037,-0.017280,0.012500,0.007277,0.008029,
0.002903,0.014919,0.011325,0.005798,-0.013450,0.015975,0.008606,-0.011522}
,
{
-0.020058,0.044464,-0.008471,-0.014960,0.007577,-0.004949,-0.002476,0.002924,
-0.011319,-0.009969,0.012398,-0.007376,-0.005277,-0.008715,0.002653,-0.013100,
-0.003946,-0.009848,-0.018433,-0.000595,-0.001899,-0.012349,-0.001058,-0.006278,
0.013430,0.001464,0.001585,-0.000184,0.009535,0.006420,-0.011661,0.004599,
-0.000718,0.005445,0.005109,0.002263,0.011229,-0.004593,-0.003600,0.000122,
0.015997,0.007445,-0.004570,0.003605,-0.012067,-0.004101,0.009216,-0.001682,
0.004086,-0.001482,-0.007381,0.002204,0.003837,-0.008512,-0.002917,-0.015000,
-0.000334,-0.006283,-0.009318,-0.007536,0.005402,-0.007984,-0.009278,0.009691}
,
{
0.010315,0.001215,-0.000939,-0.004929,-0.009283,-0.001794,-0.000049,-0.002763,
0.003376,-0.003002,0.005980,-0.001735,-0.001436,0.002387,-0.000709,-0.000706,
-0.001728,-0.002718,-0.000457,0.002237,-0.001043,-0.002464,-0.003141,0.002831,
-0.001376,-0.000365,0.001665,-0.001651,0.003056,-0.001759,0.001084,-0.003586,
0.000621,0.000262,0.000256,0.001140,0.006156,-0.002408,0.000605,0.000545,
0.000934,-0.001150,0.001626,0.000056,0.000512,0.001623,-0.002465,-0.002383,
0.000428,-0.000437,0.000407,-0.003491,-0.004696,0.001441,0.000160,0.000731,
0.000108,0.001493,0.002132,0.001562,-0.002885,0.001329,0.001826,-0.001421}
,
{
0.000318,0.003885,-0.001136,-0.001434,0.006528,-0.001093,-0.000005,0.002347,
-0.005003,-0.000325,0.003458,0.000694,-0.002059,0.002536,-0.000621,0.000229,
0.007986,-0.005561,-0.004963,-0.000280,-0.001254,-0.002376,-0.004395,0.002757,
-0.005588,-0.000796,0.001091,0.001551,0.006194,-0.004473,0.001783,-0.004584,
-0.000593,0.001365,-0.000018,-0.000104,-0.000380,-0.001464,0.001574,0.002553,
0.002927,0.000051,0.000683,0.001691,0.004210,0.003772,-0.002826,-0.004182,
0.002504,-0.000673,0.002199,-0.004270,-0.004278,0.002699,0.002169,0.002553,
0.000567,0.002339,0.003887,0.002716,-0.004226,0.000350,0.001114,-0.002832}
,
{
0.011917,0.001539,0.010701,0.007410,0.007290,-0.002481,-0.007138,-0.000435,
-0.003339,0.012719,0.006007,-0.004634,-0.000297,-0.011528,0.000579,-0.004380,
0.001139,0.004357,-0.002522,-0.001980,0.001326,0.006725,0.010543,-0.009323,
0.000400,0.002343,0.002346,0.005629,0.009178,0.013551,-0.008459,0.013455,
-0.002321,0.000718,-0.013987,0.003861,-0.020429,0.010421,-0.000281,-0.006511,
0.007262,-0.000976,-0.003644,-0.004528,-0.007964,-0.007944,0.012360,0.010831,
-0.005203,-0.001445,-0.008045,0.010459,0.012768,-0.010387,-0.006410,-0.009907,
-0.005753,-0.008958,-0.010247,-0.010839,0.010189,-0.008248,-0.005770,0.010947}
,
{
-0.022741,-0.008147,0.005029,0.006392,0.006629,0.004548,-0.000475,0.001995,
-0.000013,-0.016582,-0.002283,0.013124,0.007572,-0.005849,-0.002752,-0.006629,
-0.007100,0.015747,-0.005622,-0.004357,0.001428,0.002141,0.008127,-0.006491,
0.008139,0.009620,0.001643,-0.001222,0.005161,0.012741,-0.010806,0.012438,
-0.004464,0.005320,-0.020016,0.003832,-0.003951,0.005280,0.000860,-0.006090,
0.009213,0.001761,-0.000196,-0.000927,-0.013492,-0.005155,0.006787,0.006212,
-0.001861,0.001937,-0.009024,0.006819,0.009821,-0.013474,-0.008225,-0.013176,
-0.004816,-0.009093,-0.013425,-0.012145,0.011815,-0.008837,-0.004431,0.012411}
,
{
-0.003631,0.000226,-0.015172,0.014237,0.008582,-0.001453,0.000366,0.002319,
-0.022403,-0.009497,0.019358,0.002330,-0.000418,0.002644,-0.001703,0.000913,
0.001223,0.005098,-0.003170,-0.004522,-0.001804,-0.000997,-0.007228,0.004157,
-0.009436,0.004775,0.001214,-0.016161,0.009201,-0.011193,0.008700,-0.009689,
0.000916,-0.005743,0.005188,-0.003840,-0.012942,-0.002262,-0.002837,0.004500,
0.001076,-0.000175,-0.002112,0.000275,0.014005,0.003553,-0.004512,-0.005741,
0.001674,-0.002819,0.005433,-0.006022,-0.008309,0.011221,0.007428,0.011867,
0.007472,0.004757,0.009319,0.010486,-0.009708,0.002771,0.001819,-0.010229}
,
{
-0.013671,0.031276,-0.022733,-0.036308,0.009270,0.007959,0.006571,-0.003203,
0.015825,-0.011713,-0.001504,0.006625,0.002180,0.007727,-0.005301,0.003544,
0.014185,0.000285,0.012320,0.006684,0.000600,0.010038,0.002231,0.006643,
-0.000371,0.013506,0.007056,0.007603,-0.008782,0.003238,-0.000465,-0.000993,
0.004810,0.000200,0.021830,-0.000554,0.022601,-0.005078,0.009909,-0.003720,
0.001447,0.001777,0.006762,-0.000520,-0.000066,0.007951,-0.009830,-0.004023,
0.000802,-0.001133,0.001180,-0.005656,-0.000384,-0.004834,-0.003673,-0.002872,
-0.003205,-0.002328,-0.000236,-0.003751,0.002258,-0.002188,0.009727,-0.000276}
,
{
-0.027765,0.012625,0.008220,-0.014297,0.013671,0.004800,-0.014282,0.019136,
-0.023811,0.013124,-0.003899,-0.011447,-0.011035,0.000631,-0.000416,-0.000716,
-0.019573,0.030055,0.012026,-0.029561,0.000759,-0.001843,0.005827,-0.010354,
-0.008318,0.000186,-0.005490,0.000449,-0.027705,0.007826,-0.008701,0.005697,
-0.009376,0.006365,0.015804,-0.009093,-0.010295,0.004400,-0.001347,-0.001003,
0.009063,0.011848,-0.005027,-0.002481,-0.003131,-0.004181,0.002783,0.006889,
0.006044,-0.000424,-0.005467,0.013535,0.020256,-0.011378,0.000239,-0.008857,
-0.004572,-0.008962,-0.002424,-0.009168,0.005029,-0.007565,-0.006078,0.008529}
,
{
-0.054134,-0.011117,-0.014557,-0.000200,0.013580,0.000983,-0.004330,0.011386,
0.011505,0.014305,-0.019130,-0.019920,-0.003478,-0.005325,0.005200,-0.009134,
-0.017696,0.020124,0.013475,-0.011971,-0.000036,-0.006637,0.013131,-0.013121,
0.012519,-0.012534,-0.003326,-0.006909,-0.019387,0.010797,-0.009202,0.010686,
0.004748,-0.001891,0.010101,-0.001677,-0.030349,0.006357,-0.014957,-0.016512,
0.015296,0.008032,-0.010204,-0.008515,0.002897,-0.013728,0.020644,0.011302,
-0.010256,-0.009650,-0.007001,0.012361,0.012829,-0.005522,-0.006810,-0.005035,
-0.013252,-0.016959,-0.008199,-0.004123,0.010724,-0.015454,-0.009806,0.006645}
,
{
0.002558,-0.008451,-0.003438,-0.001202,0.010160,0.002315,0.002041,0.001922,
-0.002582,-0.000215,-0.001137,0.001831,-0.000188,-0.000514,-0.000150,-0.000602,
-0.002256,-0.002726,0.000778,0.000864,0.001277,0.000176,0.000483,-0.002092,
0.006404,-0.004279,0.003454,0.001832,0.004284,0.001657,-0.003796,0.000867,
0.000729,0.000944,-0.003234,0.001527,0.001909,0.000141,-0.000453,-0.001417,
-0.000180,0.000243,-0.000458,-0.000132,-0.001140,-0.000874,0.000989,0.000981,
0.000290,-0.001659,-0.001767,0.001385,0.002916,-0.002920,-0.000991,-0.002283,
0.000957,-0.002695,-0.001374,-0.002554,0.001580,-0.001968,-0.001053,0.003350}
,
{
-0.007676,0.010291,0.004392,-0.002157,-0.012024,0.004049,-0.000948,-0.001175,
-0.007525,-0.000003,0.003642,0.001710,-0.004436,0.001294,0.001510,-0.001906,
-0.002435,-0.002316,0.002138,0.009586,0.000422,-0.003542,0.000169,-0.001321,
0.006836,-0.001188,0.002062,-0.005172,0.005143,-0.000855,-0.001729,-0.000871,
-0.001458,0.000328,0.000003,0.001081,0.014513,-0.001616,-0.002140,0.000572,
0.002517,-0.001246,0.000368,-0.000066,-0.003847,-0.003031,-0.000381,0.001949,
0.001447,0.000788,-0.001790,0.002998,-0.001059,-0.000833,-0.000200,-0.000593,
0.001770,-0.000135,-0.000779,-0.001209,-0.000248,0.002779,-0.001931,0.000446}
,
{
-0.006133,-0.004079,-0.001766,0.003870,-0.007394,0.004054,-0.001263,-0.002766,
0.004253,0.014668,0.016976,0.002074,0.007499,-0.011052,-0.003285,-0.006883,
-0.009366,0.007022,0.015772,0.001912,0.000101,-0.000569,0.000279,-0.003523,
-0.001666,0.009781,-0.000090,0.014116,0.017034,0.005784,-0.009594,0.004186,
-0.009031,0.001412,-0.007249,0.004437,-0.003653,0.002571,0.000297,-0.001835,
0.000982,-0.001438,-0.003727,-0.000982,-0.007415,-0.000938,0.007453,0.000434,
-0.001829,-0.004617,-0.005413,-0.002484,0.002733,-0.008885,-0.003809,-0.009948,
-0.006018,-0.007274,-0.006461,-0.007519,0.004173,-0.008382,-0.003890,0.010248}
,
{
0.024070,0.011054,0.011133,-0.012695,-0.007092,0.004199,-0.000400,0.002517,
0.003444,-0.013074,0.008452,-0.006960,-0.003606,0.010314,0.000026,0.008212,
-0.001539,0.003174,0.010914,0.005927,-0.001720,-0.001284,-0.014458,0.011577,
-0.010122,-0.000300,-0.006023,0.002602,0.014106,-0.020048,0.017570,-0.020054,
0.000721,0.001270,0.010842,-0.002520,0.009341,-0.010865,-0.000146,0.010201,
-0.004621,-0.000116,0.001694,0.001855,0.017804,0.008040,-0.012968,-0.010334,
0.000364,-0.002784,0.011820,-0.011889,-0.019003,0.018442,0.012202,0.019749,
0.003425,0.014238,0.018447,0.017278,-0.018984,0.012237,0.007353,-0.019357}
,
{
-0.006168,-0.016682,0.009583,0.006343,-0.009354,-0.000167,-0.014220,-0.004601,
-0.023057,-0.005460,-0.019851,0.000380,-0.004025,-0.002198,0.001953,-0.005236,
-0.010203,-0.007812,0.009660,0.008824,0.002776,-0.002259,0.006385,-0.004201,
-0.010545,0.003270,0.004509,-0.003325,-0.001861,0.009045,-0.007634,0.007817,
-0.000213,0.001833,0.004447,-0.001274,-0.005241,0.001204,-0.001915,-0.007234,
0.000229,0.003757,0.000377,0.001790,-0.006950,-0.003874,0.005346,0.002983,
0.001477,0.001105,-0.004601,0.002075,0.004767,-0.007939,-0.007309,-0.005575,
-0.002608,-0.008739,-0.009805,-0.003683,0.009868,-0.010570,-0.002071,0.006781}
,
{
-0.005103,0.031365,-0.035187,-0.002384,-0.007763,0.008051,0.005357,-0.000487,
0.031673,0.033372,-0.027442,-0.007770,-0.007320,-0.004370,-0.002625,0.000526,
-0.033817,-0.007200,-0.007317,-0.017626,0.001591,-0.001742,0.007298,-0.005608,
-0.001436,0.018119,-0.015168,0.003321,-0.028362,0.014251,-0.015981,0.013368,
0.008324,-0.001224,0.010139,0.001069,0.003032,0.013878,0.008168,-0.003716,
0.007336,-0.003004,-0.000480,0.001199,-0.016944,-0.000565,0.006621,0.003832,
-0.002171,-0.010304,-0.007555,0.004408,0.026369,-0.017736,-0.003508,-0.025208,
-0.024327,-0.010200,-0.013966,-0.020128,0.015824,-0.010027,-0.002675,0.018939}
,
{
-0.053324,-0.032190,0.011910,0.014077,0.004510,0.006861,-0.007637,0.006595,
0.046275,-0.016456,0.002841,-0.000181,-0.007476,0.000219,0.008741,-0.001277,
-0.021900,-0.022685,0.001004,0.045780,-0.004148,-0.005975,-0.015462,0.002376,
0.008504,0.006097,-0.009602,-0.016221,0.032480,-0.013688,0.013546,-0.013484,
-0.004841,-0.015963,-0.002741,-0.008566,-0.002011,-0.009030,-0.005720,0.014056,
0.001033,-0.006706,0.001088,0.004248,0.012690,0.002584,-0.010197,-0.006592,
-0.003344,-0.000001,0.006671,-0.001506,-0.007969,0.015014,0.010187,0.016490,
0.005970,0.011336,0.013400,0.017321,-0.015515,0.006277,-0.001711,-0.017033}
,
{
-0.051769,-0.017136,0.008754,-0.032259,-0.023385,0.004894,-0.002060,-0.000169,
0.024140,-0.039575,-0.000795,0.000767,-0.009323,-0.001864,0.001400,0.007946,
0.042662,-0.028000,-0.002545,0.040807,0.010445,0.008458,0.002412,-0.000667,
0.006969,-0.007867,0.010859,-0.012788,0.036101,-0.007376,0.008129,0.000742,
-0.003066,0.009685,0.002152,0.005756,-0.013205,-0.004036,-0.005061,0.007150,
-0.000886,-0.004897,-0.003392,-0.000889,0.008171,-0.003076,0.001119,-0.000915,
-0.026112,-0.000037,0.006222,0.003258,0.001263,0.002146,0.011027,0.007463,
-0.004900,0.007186,0.002883,0.006293,-0.002799,0.012142,-0.004558,-0.011065}
,
{
0.012070,-0.005495,0.004885,-0.005733,0.000333,-0.000907,-0.001832,0.000737,
0.006176,-0.002033,-0.006995,-0.004137,-0.003187,-0.002340,0.000991,0.000730,
-0.009214,-0.002398,0.006834,-0.006281,0.000459,0.001649,0.004103,-0.003025,
-0.006539,-0.006812,0.005961,0.001599,-0.007950,0.002949,-0.001466,0.003421,
-0.008532,0.003699,-0.005300,-0.000479,-0.002281,0.002879,-0.000737,-0.001226,
0.003984,0.001751,-0.000967,-0.000979,-0.001175,-0.002828,0.003358,0.004717,
-0.000276,0.002400,-0.000978,0.003190,0.004982,-0.001379,-0.000778,-0.000562,
-0.003559,-0.001729,-0.001810,-0.001358,0.002859,-0.000379,-0.001303,0.001938}
,
{
0.001517,-0.000937,-0.001021,0.001820,0.008106,-0.001784,-0.001843,0.000277,
-0.013785,0.005507,0.012136,0.010352,0.001320,0.001964,-0.000538,0.001341,
0.019983,0.000171,-0.000337,-0.006382,0.000156,0.001409,0.002961,0.000995,
-0.000195,-0.000852,-0.004026,-0.000253,-0.002511,0.001105,-0.001248,0.003040,
0.001839,-0.002291,-0.005096,-0.000163,-0.001329,0.002683,-0.001233,-0.001662,
0.000578,0.001149,0.000180,0.000351,-0.001716,0.000366,0.001431,-0.000709,
0.000879,0.001645,0.000305,-0.000849,0.002308,-0.001885,-0.002489,-0.001710,
-0.002720,-0.002057,-0.003387,-0.000350,0.004011,-0.000552,0.000759,0.001631}
,
{
0.012964,-0.017400,0.015425,-0.008285,0.007809,0.000581,-0.004214,-0.000620,
-0.027245,0.009538,0.006869,-0.011277,-0.001718,-0.008650,0.003716,-0.004819,
0.008052,0.010879,0.001024,-0.004686,-0.000109,-0.000123,0.001039,-0.010890,
0.002884,0.006972,-0.010734,-0.011032,0.005639,0.006545,-0.007063,0.006876,
0.007043,0.002854,-0.008453,-0.003066,-0.014657,0.007459,-0.000733,0.000070,
0.009947,0.002393,-0.004642,-0.000931,-0.002846,-0.004149,0.006022,0.004427,
-0.011806,0.002991,-0.004901,0.011551,0.017254,-0.007910,-0.000085,-0.006940,
-0.003300,-0.005483,-0.004419,-0.008873,0.004882,-0.006151,-0.008368,0.007105}
,
{
-0.027488,-0.025117,0.010022,0.011902,-0.000960,-0.001749,-0.005090,0.006924,
-0.033005,0.003943,0.010189,-0.000028,0.002249,-0.009895,0.004163,0.000471,
0.001911,-0.001727,0.005303,0.006838,0.004865,0.004350,0.004977,-0.007314,
-0.003562,-0.002320,0.006057,0.004528,0.009404,0.001701,0.001355,0.005518,
0.004145,-0.001257,-0.005955,-0.004352,-0.021620,0.003566,-0.004106,-0.000334,
0.002782,0.000675,-0.004274,0.000056,0.003411,-0.006340,0.005931,0.006365,
0.000768,0.005624,-0.000774,0.009730,0.011456,-0.001990,0.001296,0.001221,
-0.000925,-0.000944,-0.002049,-0.000971,0.002558,-0.002038,-0.006905,-0.000576}
,
{
-0.014522,-0.022387,0.025447,0.018740,-0.002363,0.001088,0.005243,-0.003183,
-0.023778,-0.008282,-0.026814,0.004128,0.007984,-0.008460,-0.001778,-0.009978,
0.015367,-0.000853,-0.023022,-0.000116,-0.000880,0.005903,0.008287,-0.014345,
-0.008498,-0.001470,0.002130,-0.003145,0.008809,0.014660,-0.013777,0.014416,
-0.002759,0.001882,-0.016613,0.003942,-0.013501,0.014428,0.000008,-0.008662,
0.008683,0.005515,-0.005428,-0.004444,-0.010581,-0.009305,0.013663,0.012407,
-0.004665,0.009206,-0.014095,0.015953,0.018300,-0.017290,-0.010478,-0.014270,
-0.004660,-0.012664,-0.014453,-0.016794,0.013034,-0.012639,-0.012332,0.014952}
,
{
0.003701,-0.013701,0.038257,-0.022157,0.000375,0.004447,0.013250,0.000438,
0.031601,0.017047,0.029562,-0.037461,-0.012986,0.013264,0.007469,0.004096,
0.024133,0.003422,-0.051461,0.024058,-0.007257,-0.009057,-0.013859,0.009994,
0.005268,-0.010387,0.001900,0.005377,0.019346,-0.019913,0.021820,-0.018352,
0.006417,0.005414,0.014608,-0.011974,0.022583,-0.015775,-0.002179,0.017093,
-0.008093,0.012298,0.004154,-0.001988,0.012014,0.002863,-0.017893,-0.007039,
-0.006949,0.019450,0.010583,-0.003184,-0.023075,0.024438,0.014984,0.026591,
0.019121,0.024505,0.020484,0.021749,-0.022122,0.024577,0.006337,-0.023182}
,
{
-0.017026,-0.012986,0.147063,0.029875,-0.013971,-0.017225,0.003482,0.012503,
-0.028050,0.006427,-0.016274,-0.031820,-0.018459,0.015336,-0.008512,0.008357,
0.029784,0.072482,-0.002365,-0.022749,-0.001851,-0.013265,-0.009154,0.018089,
0.026278,-0.042163,0.065190,-0.004810,-0.001691,-0.019964,0.016777,-0.015607,
0.004291,0.020057,-0.033851,-0.002947,0.022070,0.000617,-0.002595,0.000570,
-0.002500,-0.021185,0.009879,0.005450,0.011356,0.008201,-0.014190,-0.009331,
-0.005595,-0.017715,0.012530,-0.017061,-0.031668,0.019612,0.000965,0.020465,
0.011029,0.014316,0.013110,0.014138,-0.014627,0.016891,0.015357,-0.013409}
,
{
0.006413,-0.037864,-0.024650,0.001115,0.002738,-0.015786,-0.016433,-0.009511,
-0.058912,-0.045029,-0.009358,-0.004945,-0.004661,0.000850,-0.000685,-0.000169,
0.019833,0.006346,0.000760,-0.033514,-0.001303,-0.000077,-0.010476,0.008821,
0.011741,-0.005147,-0.004258,0.014253,-0.008682,-0.004180,0.003109,-0.008946,
-0.017977,-0.005791,0.002923,0.002880,0.001741,-0.019137,0.005937,0.003683,
0.000791,-0.004274,0.008611,0.001858,0.009297,0.010906,-0.003334,-0.014019,
0.006976,-0.006344,0.009060,-0.013671,-0.010210,0.001849,0.009454,0.003464,
0.018977,0.005267,0.006416,0.004447,-0.008008,0.000839,0.006132,-0.004471}
,
{
0.008696,0.002503,-0.000157,-0.001564,-0.001167,-0.000686,-0.000503,-0.000496,
0.002006,-0.001723,0.005111,0.002899,0.001857,0.001447,0.000477,-0.000171,
0.007428,0.011088,-0.004087,0.001660,-0.002895,-0.001806,-0.001851,0.002334,
-0.003937,0.001789,-0.010868,-0.006971,0.002396,-0.002887,0.002709,-0.003061,
0.006983,-0.002155,0.003313,0.000428,-0.000002,-0.002019,0.000687,0.001018,
-0.000208,-0.000779,-0.000747,-0.000758,0.000464,0.001858,-0.001166,-0.002534,
-0.000027,-0.003600,0.000913,-0.003768,-0.006778,0.003156,0.000883,0.001196,
0.002378,0.001840,0.002062,0.002875,-0.002411,0.001263,0.001043,-0.002584}
,
{
0.005561,0.013772,-0.001623,0.010500,-0.008265,0.004164,0.002668,0.001891,
-0.014332,-0.001182,-0.005595,-0.002272,0.000327,0.000053,0.002353,0.000291,
-0.001028,0.005312,-0.008501,0.001464,-0.001193,0.001336,-0.000931,0.002027,
-0.017467,0.001378,-0.003445,-0.001744,-0.007614,0.000229,0.003519,-0.000469,
-0.002946,0.004114,-0.000034,-0.001562,0.006960,-0.002031,0.001286,-0.000896,
0.005293,-0.000620,0.002018,-0.000696,0.000700,0.000446,-0.001758,0.000112,
-0.002654,0.000962,0.000131,-0.000840,-0.004918,0.003574,-0.000114,0.001966,
-0.001233,0.001996,0.000514,0.002178,-0.000661,0.002053,0.002308,-0.002845}
,
{
0.005308,0.022790,-0.019965,-0.004991,0.001541,0.002762,0.009346,-0.000506,
-0.008763,-0.001714,-0.016874,-0.001787,-0.000357,0.003691,0.001014,0.001463,
0.013640,0.022586,-0.004336,-0.011492,-0.002141,-0.000682,0.001377,-0.007134,
0.025767,-0.026562,0.006921,0.000602,-0.011650,0.001387,-0.003018,-0.001906,
0.015123,-0.001534,-0.003882,0.000654,0.005782,0.002502,-0.007573,-0.006627,
0.005170,0.004416,-0.004275,-0.003037,0.002154,-0.008725,0.004468,0.009278,
-0.003178,0.004253,-0.002759,0.006020,-0.001996,0.000729,-0.002789,0.003585,
0.005431,-0.004823,0.000720,-0.000548,0.000656,-0.000647,-0.003237,0.002781}
,
{
-0.028941,0.030025,-0.008563,-0.004934,0.008523,-0.011104,-0.009735,-0.004580,
-0.000695,-0.001013,0.009112,0.002302,-0.001013,0.000636,0.003148,0.001485,
0.008196,0.030633,-0.016599,-0.017846,0.001557,0.009567,0.007770,0.003046,
-0.003808,-0.001264,-0.000981,0.003237,-0.018128,0.004798,0.007040,0.006438,
-0.000037,-0.000391,0.000718,0.001289,-0.012956,0.005235,-0.000589,-0.005746,
0.004813,0.002947,0.006267,-0.001835,0.001225,-0.001575,0.001002,0.004060,
-0.003984,0.015396,0.003075,0.001271,-0.002664,0.003142,-0.004651,0.006988,
0.009783,0.004540,-0.002711,0.005851,0.004816,0.003845,0.002663,-0.005495}
,
{
0.021202,0.064762,0.003309,0.004399,-0.020009,-0.003966,-0.015918,0.010726,
0.025663,0.010722,-0.015144,0.001515,-0.004510,0.006216,0.005250,0.007122,
-0.010667,-0.035649,-0.012742,0.004331,-0.001528,-0.003812,0.001909,0.001396,
0.018787,-0.012265,-0.019010,-0.002725,-0.004262,-0.005026,0.009792,0.000997,
-0.004043,-0.014665,0.009204,-0.008185,-0.007075,0.002334,-0.005194,0.003345,
-0.005266,-0.003453,-0.000251,0.002467,0.001090,-0.002589,-0.001869,0.001361,
0.005837,0.000647,0.004894,0.004742,-0.002863,0.008470,0.005998,0.009832,
0.002284,0.007902,0.005853,0.008246,-0.004333,0.009821,-0.000021,-0.009805}
,
{
-0.001350,0.002497,-0.022635,-0.009804,-0.024923,0.018715,0.008801,-0.005167,
-0.012319,-0.020084,0.005022,0.027765,-0.015505,0.010885,-0.004199,0.006274,
-0.029914,0.037832,-0.026838,0.033741,-0.002303,-0.015143,-0.024899,0.016027,
0.053133,0.017087,0.006098,-0.035062,0.006438,-0.018956,0.014270,-0.028571,
-0.002459,-0.000531,-0.007118,0.015115,0.009840,-0.014973,0.008413,0.014753,
-0.000571,-0.008432,0.004602,0.004963,0.016280,0.016325,-0.020313,-0.017071,
0.007364,-0.008060,0.012570,-0.019411,-0.008730,0.017154,0.016526,0.013427,
0.021667,0.016898,0.026082,0.013746,-0.026869,0.013028,0.011760,-0.014026}
,
{
-0.021216,-0.005800,-0.023310,-0.010997,0.013881,0.011319,-0.000606,0.012851,
-0.048734,0.000565,0.016175,-0.035524,-0.003403,0.003686,0.001608,0.007154,
0.035392,0.018110,-0.005748,0.027368,0.003167,-0.010526,-0.015506,0.014314,
-0.021185,-0.012172,0.025000,0.001735,0.015115,-0.017879,0.015796,-0.015586,
0.017678,0.009748,0.041822,-0.013055,0.018054,-0.029490,0.006474,0.017133,
-0.003331,-0.005200,0.003923,0.004784,0.010040,0.012937,-0.013069,-0.015349,
0.010867,-0.008167,0.012880,-0.016545,-0.013055,0.014104,0.019249,0.012499,
0.006138,0.017415,0.013913,0.017524,-0.015139,0.015068,0.008043,-0.018021}
,
{
0.120168,0.043344,-0.042797,0.008166,0.009940,-0.002546,0.028383,-0.013067,
-0.079701,0.010499,-0.035448,-0.014704,-0.017204,0.003765,0.000491,-0.001480,
-0.006370,-0.044317,-0.023015,0.019251,-0.000375,-0.004463,0.013039,-0.012802,
0.022490,0.001199,0.017225,-0.008003,-0.015350,0.014517,-0.011296,0.016290,
0.041488,0.017199,0.013400,-0.013432,-0.004650,0.014371,0.000368,-0.006506,
-0.011158,-0.019877,-0.003152,0.014266,-0.013775,-0.006863,0.004057,0.005261,
-0.004376,-0.004059,-0.009374,0.009991,0.014056,-0.016478,-0.011397,-0.012729,
-0.036777,-0.011603,-0.019304,-0.008109,0.020119,-0.013217,-0.006165,0.012606}
,
{
-0.003402,-0.008135,0.001900,-0.004717,-0.002562,0.002043,0.001538,0.000218,
-0.005968,-0.004335,-0.002245,0.004878,0.002498,-0.003643,0.001485,0.001416,
0.006369,0.000354,-0.001517,0.001536,0.002217,0.002088,0.005111,-0.002093,
0.004677,-0.004587,-0.002354,0.002218,-0.000514,0.002994,-0.000616,0.005786,
0.006513,0.002413,0.001299,-0.000791,-0.002905,0.003616,-0.000010,-0.001491,
-0.000132,0.002089,-0.000992,0.000452,-0.002684,-0.001506,0.002794,0.002690,
-0.000930,0.003569,-0.000926,0.003865,0.007569,-0.002831,-0.000958,-0.002878,
-0.000938,-0.001329,-0.003976,-0.002631,0.005546,-0.001400,-0.001559,0.001895}
,
{
0.017699,-0.004506,-0.003911,-0.008026,-0.009096,0.002130,0.000459,-0.005800,
-0.030520,0.002864,0.009082,-0.002351,0.001342,-0.003072,-0.004291,-0.003475,
-0.015602,0.002438,0.008164,0.010405,0.000323,-0.000973,0.001276,-0.000618,
-0.018137,0.019046,-0.003989,-0.005091,0.008390,0.003500,-0.002479,0.004097,
-0.006992,0.000493,-0.004465,0.000038,-0.003325,0.007438,0.001688,0.001267,
0.004877,-0.006627,0.000446,-0.000219,-0.008037,-0.000402,0.003313,0.000431,
0.001433,-0.010820,-0.003100,0.000412,0.006034,-0.004381,-0.000220,-0.008664,
-0.006824,-0.004202,-0.004395,-0.007522,0.002385,-0.004326,-0.000518,0.003248}
,
{
-0.013529,0.021572,-0.011125,0.002717,-0.006333,0.009046,0.007298,0.006970,
-0.020496,0.008650,-0.001243,0.010276,-0.000975,-0.005649,0.002264,-0.000557,
0.005322,0.009088,0.017459,0.016181,0.003426,0.006281,0.007164,-0.007157,
0.006564,0.010479,0.001735,-0.004238,-0.000720,0.008056,-0.000180,0.007242,
-0.014235,-0.007654,-0.007280,-0.002528,-0.003718,0.004111,-0.002357,-0.005339,
0.008513,0.002740,-0.000228,-0.007105,-0.002509,-0.008378,0.000422,0.012126,
-0.004509,0.008438,-0.006282,0.012533,0.008274,-0.004398,-0.002639,0.003918,
0.007761,-0.002382,-0.004598,-0.003408,0.005294,0.001424,-0.002037,0.001393}
,
{
0.008749,0.012464,0.008703,-0.000377,0.007535,-0.006850,0.001522,0.004643,
-0.003689,0.020679,0.000977,0.000000,-0.004532,0.013840,-0.001925,0.003352,
-0.059306,0.017030,0.029801,-0.011633,-0.000810,0.000904,-0.006356,0.004953,
0.011591,0.005040,0.003045,-0.010788,-0.020375,-0.009103,0.000148,-0.011353,
0.007885,-0.014276,0.004554,-0.004548,0.019744,0.000847,0.000165,0.005281,
-0.012262,-0.009447,0.004158,0.002790,0.006305,0.002986,-0.008083,-0.004260,
0.013101,-0.004414,0.001493,-0.005791,-0.008786,0.004496,0.002346,0.004012,
0.014522,0.004231,0.010334,0.001741,-0.008635,0.005502,0.003099,-0.000563}
,
{
-0.117474,0.008507,-0.035250,0.051876,0.011956,0.006276,0.013067,0.009556,
-0.019225,0.011473,-0.001133,0.012680,0.004945,0.003299,-0.004206,-0.003004,
-0.033558,-0.021606,-0.009484,0.019326,-0.000110,0.001297,-0.000475,-0.001598,
0.012596,-0.036029,-0.003746,-0.005434,0.011859,0.002473,-0.004102,0.002815,
0.023432,-0.002991,-0.009834,-0.001731,0.003059,-0.000026,0.002920,-0.004539,
0.004350,0.003650,-0.003548,-0.001867,-0.001187,0.004864,-0.001209,-0.003263,
0.001340,-0.005261,-0.004728,0.000820,0.013663,-0.008818,-0.005042,-0.004293,
-0.013099,-0.007754,-0.002979,-0.003223,0.003502,-0.016074,-0.001159,0.006148}
,
{
0.068889,-0.022900,0.005612,0.005643,-0.009351,0.023527,0.000423,-0.003195,
-0.034766,-0.021525,0.030160,0.005575,0.004780,-0.007486,0.013617,0.003260,
0.005462,-0.028352,0.043790,0.037352,0.000589,-0.016153,-0.013940,0.014468,
0.031393,0.004338,-0.006852,-0.025204,-0.000281,-0.024378,0.015209,-0.018317,
-0.000439,-0.007877,0.006236,0.011503,0.018435,-0.009331,-0.004419,0.006252,
0.004912,0.001051,0.002074,0.000779,0.013910,0.004974,0.000078,-0.013000,
0.008302,-0.015859,0.013757,-0.017259,-0.033058,0.024446,0.012947,0.013700,
0.000695,0.012476,0.010672,0.020636,-0.012132,0.014530,0.003304,-0.019941}
,
{
-0.058893,0.024902,-0.042989,-0.029068,-0.007336,0.003778,0.003667,0.016494,
-0.000514,0.047511,-0.006338,0.006430,0.010448,-0.012962,0.002014,-0.003519,
0.023987,0.017083,-0.016605,-0.001625,-0.000392,-0.000520,0.009725,-0.012695,
0.055851,0.036758,0.007155,0.012168,-0.021966,0.018652,-0.014765,0.015259,
0.012535,0.003411,-0.024001,-0.001381,-0.011837,0.016371,-0.000106,-0.009374,
0.014470,0.017579,0.001765,-0.009384,-0.009849,-0.013271,0.017480,0.013060,
-0.010341,0.014172,-0.009924,0.011976,0.019752,-0.014755,-0.010788,-0.014279,
-0.002608,-0.012910,-0.015669,-0.015954,0.016070,-0.015901,-0.007529,0.014246}
,
{
0.034088,-0.040813,0.000192,0.039852,-0.006471,-0.004760,-0.009145,-0.008849,
0.059616,-0.010061,-0.007757,0.049567,-0.017287,-0.002947,-0.005469,0.001289,
-0.032775,0.027552,0.015660,0.003674,-0.005116,-0.013799,-0.015130,0.004315,
-0.024502,0.010264,0.001244,0.002718,0.009359,-0.008921,-0.006904,-0.013188,
-0.003351,0.008322,-0.003532,-0.006590,0.012302,-0.005629,0.011843,0.008523,
0.003906,0.004534,-0.003157,0.002101,0.003668,0.015367,-0.002156,-0.012865,
0.007978,-0.017479,0.001828,-0.011952,-0.007114,-0.002366,0.009055,-0.004807,
-0.000449,0.003351,0.012425,-0.004166,-0.012296,0.000479,-0.000222,0.005362}
,
{
-0.001463,-0.002485,-0.000330,0.001011,-0.000487,-0.000034,0.000219,-0.000255,
-0.001393,0.002269,0.000140,-0.000575,-0.000533,-0.000289,0.000218,0.000042,
-0.001013,-0.000796,0.000217,-0.000536,0.000039,0.000248,0.000271,-0.000308,
0.000387,-0.000641,-0.000006,0.000062,-0.000341,0.000172,-0.000117,0.000340,
-0.000171,-0.000036,-0.000091,0.000183,-0.001024,0.000456,-0.000235,-0.000100,
0.000396,0.000068,-0.000363,-0.000205,0.000024,-0.000235,0.000359,0.000213,
-0.000119,0.000234,-0.000097,0.000349,0.000341,-0.000118,0.000027,-0.000136,
-0.000498,-0.000188,-0.000149,-0.000148,0.000203,-0.000083,-0.000258,0.000081}
,
{
-0.001009,-0.000899,-0.004778,0.000773,-0.004253,0.004359,0.000303,-0.000433,
0.000757,0.001659,0.005311,0.004020,0.003040,-0.001621,0.000468,-0.000270,
0.001064,0.002151,-0.000138,-0.001420,0.000812,0.000153,0.001862,-0.001614,
-0.000342,0.001426,0.001016,0.004510,-0.002445,0.002726,-0.001733,0.002461,
-0.000892,-0.000404,0.000651,-0.000114,0.002012,0.001006,-0.000227,-0.001211,
-0.001476,0.001241,-0.000624,-0.000171,-0.001698,-0.001091,0.001940,0.001510,
0.000155,0.001194,-0.001061,0.001130,0.003358,-0.002266,-0.000917,-0.002159,
-0.002219,-0.001634,-0.002022,-0.001827,0.002570,-0.001204,-0.000908,0.002206}
,
{
0.005264,-0.001675,0.006951,-0.000132,-0.002578,-0.004557,-0.000603,-0.001042,
-0.004884,-0.001391,-0.000240,0.005486,0.001790,0.001889,-0.001061,0.002168,
-0.001467,0.000415,-0.000073,-0.003381,0.000220,0.001940,0.001366,0.001257,
-0.005552,0.000278,-0.002416,0.003881,-0.007547,0.000064,0.001977,0.000658,
-0.000359,-0.000640,-0.000126,0.000652,0.006686,-0.000441,0.000481,-0.000617,
-0.003222,-0.000592,0.001476,0.000399,-0.001086,-0.000260,-0.001617,0.000894,
0.001579,0.002300,0.001348,-0.001405,-0.001815,0.001092,-0.000791,0.002382,
-0.000872,0.001795,-0.000752,0.001504,0.001138,0.002481,0.001980,-0.001371}
,
{
0.012197,0.008199,-0.000607,-0.002046,0.004647,-0.005493,-0.000242,-0.000916,
-0.008197,0.003136,0.004021,-0.006329,-0.003905,0.002307,-0.000452,0.001301,
0.000258,-0.003143,-0.001136,0.002665,-0.000553,-0.000285,-0.002916,0.002847,
0.003805,-0.002465,0.002085,0.003452,0.002002,-0.004138,0.003211,-0.004599,
-0.000103,-0.001599,0.001980,-0.000498,-0.000331,-0.003613,-0.000221,0.001813,
-0.002724,0.000544,0.002507,0.000328,0.002865,0.001503,-0.004193,-0.002378,
0.001110,-0.000115,0.002450,-0.002551,-0.004622,0.004125,0.001991,0.003426,
0.003444,0.003822,0.003434,0.003082,-0.003675,0.004121,0.002685,-0.003523}
,
{
0.001773,-0.004633,-0.003072,-0.002470,-0.002270,-0.001339,-0.000235,0.002561,
-0.013679,-0.000319,-0.004630,-0.000437,0.002941,-0.001274,0.000022,0.000258,
0.002024,0.001426,-0.004449,-0.000519,0.001001,0.004229,0.005083,-0.001422,
-0.001012,-0.000552,0.001708,0.003394,-0.007527,0.005603,-0.002065,0.003817,
-0.000407,0.001523,-0.001137,0.000810,0.008637,-0.000284,0.000760,-0.003794,
0.002142,0.000681,0.000510,-0.001495,-0.001036,-0.002720,0.001246,0.004736,
-0.000620,0.001273,-0.002664,0.002339,0.002887,-0.003737,-0.002665,-0.000938,
0.001977,-0.002649,-0.002775,-0.003043,0.003530,-0.002112,0.000689,0.002894}
,
{
0.007217,-0.000974,0.001617,-0.009067,0.007426,-0.002319,0.000095,-0.005039,
-0.012596,-0.007585,0.000962,-0.004797,-0.002976,-0.004621,-0.000089,-0.003060,
-0.010311,-0.001499,0.004695,-0.000133,-0.001184,-0.001496,-0.001612,-0.002910,
0.001428,0.002030,0.005082,-0.004386,0.000842,0.000518,-0.001941,0.000706,
-0.001316,-0.000837,-0.000578,0.000080,-0.017422,0.008801,0.001055,0.000481,
-0.003210,-0.001711,-0.003071,-0.001703,0.004191,0.000124,0.003332,0.000401,
0.001139,-0.002775,-0.002045,0.001875,0.003275,-0.001539,0.000513,-0.000157,
0.000178,-0.002030,0.001099,-0.002800,-0.001149,-0.003491,-0.003450,0.001813}
,
{
0.032417,0.010119,0.011954,0.009225,-0.001253,0.001732,0.002455,0.001456,
-0.029344,-0.003323,-0.000969,-0.010778,-0.002187,0.007765,-0.003113,0.003165,
0.003337,0.001953,0.005309,0.008135,-0.001483,-0.005373,-0.010523,0.012731,
0.004790,-0.003022,0.001220,-0.005807,0.010802,-0.010539,0.007497,-0.013256,
-0.004354,0.002237,0.005626,0.001191,0.022957,-0.014125,0.004762,0.005194,
-0.005908,-0.002577,0.004861,0.002097,0.003986,0.009657,-0.012401,-0.009664,
0.001428,-0.004462,0.005909,-0.013159,-0.015947,0.008650,0.005254,0.004988,
0.009153,0.007745,0.009234,0.007554,-0.011106,0.005998,0.008494,-0.008838}
,
{
0.003343,0.020798,-0.000072,-0.018086,-0.022866,0.005984,-0.001008,0.007746,
0.003986,0.009622,0.003465,0.005910,0.008931,0.007201,-0.003210,-0.000312,
-0.005787,-0.003292,-0.009407,0.006014,-0.000969,-0.002601,-0.002959,0.002024,
-0.009752,0.004455,0.001079,-0.000925,0.004102,0.000237,-0.001510,-0.002338,
0.004664,-0.003440,-0.000179,-0.000584,0.022233,-0.011434,0.000827,0.000683,
0.006599,-0.001775,0.002663,0.003612,-0.007457,0.002351,-0.003004,-0.002900,
0.005627,-0.001958,-0.000289,-0.003737,-0.003943,-0.001725,-0.000979,-0.003024,
0.004076,0.000045,-0.001645,0.001531,0.000121,0.000290,0.001404,0.000897}
,
{
-0.000256,0.002653,-0.000084,-0.001146,-0.000510,0.002260,0.000044,-0.000364,
0.002678,-0.001684,-0.002183,0.000539,0.001376,-0.001216,-0.000016,-0.000436,
-0.003356,0.007720,0.003876,-0.004038,0.000107,0.001178,0.002378,-0.001646,
-0.002562,-0.001445,-0.000657,-0.001001,0.000011,0.002523,-0.002156,0.003221,
-0.000499,-0.000152,-0.001648,0.000455,-0.003373,0.002429,-0.000435,-0.001057,
-0.000260,-0.000445,-0.000572,-0.000145,-0.002221,-0.001319,0.001953,0.001601,
-0.000183,-0.000621,-0.001259,0.001942,0.003625,-0.002371,-0.001291,-0.002542,
-0.002078,-0.001856,-0.002544,-0.002174,0.002800,-0.001354,-0.000965,0.002630}
,
{
-0.005578,0.002420,-0.005897,0.004436,0.000831,0.001146,-0.001607,0.000150,
-0.000967,0.004659,0.003424,0.003326,-0.000631,-0.000667,-0.001738,-0.001014,
-0.007539,0.003413,0.005842,0.000238,-0.000008,0.000438,-0.000195,0.001039,
0.003425,0.001259,-0.004354,-0.003350,0.000052,0.001770,-0.001492,0.001024,
0.001923,0.000129,-0.002430,0.000451,-0.000220,0.000185,0.001764,-0.001557,
0.001448,-0.001012,0.000577,0.001010,-0.001348,0.001860,-0.000133,-0.001227,
-0.000135,-0.000992,-0.000481,-0.002049,0.000879,-0.002199,-0.001883,-0.002341,
-0.001432,-0.001898,-0.001822,-0.001622,0.001413,-0.003120,0.000969,0.001832}
,
{
0.003557,-0.003727,0.007443,-0.000962,0.004204,0.001150,0.001423,0.001937,
0.013518,0.005053,-0.003135,-0.001045,-0.000559,0.006683,-0.000162,0.002915,
-0.002586,-0.006153,-0.002661,-0.001217,-0.001303,-0.002355,-0.006260,0.007760,
0.002894,-0.001087,0.001413,-0.001394,-0.004563,-0.007321,0.006857,-0.008787,
-0.002597,-0.000758,0.001316,-0.000407,0.018162,-0.007519,0.001951,0.002897,
-0.003899,-0.002434,0.004604,0.001466,0.005098,0.005082,-0.008687,-0.005507,
0.004054,-0.000308,0.004583,-0.007186,-0.011550,0.007884,0.002751,0.007359,
0.008489,0.006427,0.006806,0.007098,-0.006905,0.006323,0.005890,-0.007549}
,
{
-0.010891,-0.006671,-0.003085,-0.004524,-0.002331,0.002736,-0.000631,0.004193,
0.018607,0.003955,0.003382,-0.004289,-0.000432,0.004196,-0.000920,0.000761,
-0.005141,-0.004835,-0.007389,0.006465,-0.000737,-0.002343,-0.006929,0.003177,
0.001859,0.005001,0.002920,-0.000759,0.009112,-0.005291,0.004245,-0.005805,
0.003540,0.000067,0.010161,-0.000926,0.003581,-0.003778,-0.000022,0.002821,
0.002477,-0.000606,0.000904,0.001834,0.003838,0.003034,-0.003991,-0.004551,
0.001572,-0.001432,0.003017,-0.004148,-0.007159,0.005428,0.002917,0.004191,
0.005895,0.004313,0.004174,0.004951,-0.005450,0.003590,0.001482,-0.004596}
,
{
0.002658,-0.003909,-0.017689,0.004993,-0.002570,-0.003875,-0.000727,-0.000663,
-0.003792,-0.001419,0.009598,-0.002495,-0.002622,0.005008,-0.000216,-0.000456,
0.000010,-0.007723,0.000977,0.008254,-0.000406,-0.005742,-0.009171,0.007061,
0.006762,0.003018,-0.000501,-0.010120,0.003505,-0.011985,0.008029,-0.010846,
0.000151,-0.003078,0.002527,-0.002082,0.010149,-0.007104,-0.000279,0.004997,
-0.005161,-0.003657,0.002254,0.001204,0.007606,0.006657,-0.008061,-0.008588,
0.005707,-0.001316,0.005039,-0.008756,-0.014495,0.009829,0.004681,0.009186,
0.007046,0.007583,0.008090,0.009681,-0.009564,0.003750,0.003108,-0.009368}
,
{
-0.000256,0.003805,0.007906,-0.004594,-0.012908,0.000589,-0.001594,-0.001145,
-0.006090,0.000415,-0.014785,-0.000589,0.008931,-0.002245,0.000126,0.001177,
-0.002577,0.015159,0.003549,0.000948,0.002231,0.000450,-0.000231,-0.002307,
-0.016983,0.002030,-0.002623,0.003334,-0.005934,0.001861,-0.000518,-0.001258,
0.005336,-0.004547,-0.006873,-0.002290,0.005293,-0.002793,-0.001694,-0.001075,
0.001996,-0.000437,-0.001011,-0.000297,0.000378,-0.003634,-0.000850,0.003425,
-0.003228,-0.001220,-0.000499,0.002699,0.002103,-0.000576,-0.000051,0.001291,
-0.001729,-0.002112,0.000637,-0.000283,-0.000584,-0.000541,0.000336,0.000275}
,
{
0.016250,-0.001810,0.011613,0.021364,0.024171,-0.006426,-0.006744,0.000070,
0.008483,0.012917,0.000815,0.006404,0.000110,-0.002426,0.000291,0.002550,
-0.021040,-0.002480,0.000974,-0.006601,-0.000339,0.000821,-0.002848,0.004760,
0.005391,0.009211,-0.000441,0.004168,0.003354,-0.007038,0.006349,-0.003829,
-0.014657,-0.001503,0.000737,-0.002200,-0.009640,0.000937,0.002254,0.003624,
0.002255,-0.000493,0.001874,0.000899,0.004571,0.003696,-0.003556,-0.003240,
-0.000206,-0.000738,0.004420,-0.004173,-0.006922,0.006108,0.003097,0.006562,
0.001976,0.003407,0.003953,0.004353,-0.004206,0.002279,0.004220,-0.006361}
,
{
0.029499,0.004955,0.007442,-0.002259,-0.002463,0.004341,0.010286,-0.005682,
-0.016000,0.007923,0.006222,0.006279,-0.001325,0.005686,-0.000926,0.002909,
-0.002486,-0.019236,-0.004565,0.003598,0.000762,0.004965,0.005864,0.002480,
-0.003393,-0.008221,0.000593,-0.001703,-0.001257,0.000272,0.001677,0.003736,
0.003092,0.008232,0.006370,0.003791,-0.011082,0.001817,0.000173,-0.000477,
-0.005228,-0.000051,-0.000497,0.000903,0.001239,0.000317,0.001632,-0.001254,
-0.007417,-0.002716,0.001636,-0.000162,-0.003640,0.001058,0.000025,0.001327,
-0.003375,-0.000902,-0.001298,0.001854,0.001607,-0.001518,0.000837,-0.002041}
,
{
-0.004831,-0.003177,0.007601,0.003276,0.000692,0.002499,0.000621,-0.001275,
0.004044,-0.006564,-0.001460,0.002245,-0.000340,0.000122,0.000592,-0.001197,
-0.000045,0.005837,-0.002567,-0.002951,-0.000685,-0.001172,0.000412,-0.000808,
-0.002203,-0.000584,-0.002068,-0.000745,-0.005211,0.002615,-0.002469,0.001851,
-0.000920,0.000734,-0.000251,0.000564,0.003185,0.001329,0.001055,-0.001216,
0.000747,0.000265,0.000633,0.001011,-0.002249,0.000212,0.000283,-0.000133,
0.000366,0.000596,-0.001367,0.000620,0.002351,-0.002218,-0.001757,-0.002793,
-0.001015,-0.001470,-0.002164,-0.002234,0.002204,-0.001883,-0.000300,0.002557}
,
{
-0.000714,-0.001634,-0.001056,-0.002684,0.003527,0.003798,-0.001855,0.003308,
-0.009475,0.004111,0.001693,-0.004192,-0.002180,0.005487,-0.001258,0.000249,
0.006085,-0.000285,0.005710,0.009081,-0.000112,-0.003266,-0.007081,0.005274,
0.003625,-0.011350,-0.001568,-0.004432,0.007580,-0.009341,0.007695,-0.010598,
-0.000886,-0.000754,0.005795,-0.002930,0.001854,-0.007561,-0.000730,0.003421,
-0.000378,-0.002731,-0.000374,0.000612,0.008142,0.004772,-0.005306,-0.006102,
0.005424,-0.002671,0.004286,-0.007109,-0.011081,0.008473,0.003951,0.008499,
0.009120,0.004814,0.009129,0.009238,-0.009952,0.002125,0.001911,-0.009012}
,
{
-0.004732,-0.009810,0.001574,0.010508,-0.003568,-0.001335,-0.001128,-0.001115,
-0.000736,-0.004555,-0.005334,0.000761,-0.001201,-0.002436,0.001101,-0.002793,
-0.006135,-0.004433,-0.004147,-0.002248,-0.000154,0.001587,0.005988,-0.007341,
-0.005055,-0.000858,0.005871,-0.005172,-0.010332,0.007496,-0.006718,0.008809,
-0.002027,-0.000858,0.001115,0.000648,-0.014049,0.008341,-0.001719,-0.003791,
0.004221,0.002993,-0.003791,-0.001250,-0.004347,-0.004377,0.007319,0.005248,
-0.000264,0.003074,-0.004601,0.007343,0.010961,-0.007238,-0.004592,-0.006356,
-0.005453,-0.005838,-0.006523,-0.006145,0.007624,-0.005962,-0.005696,0.007635}
,
{
0.012397,-0.002074,-0.006253,0.010237,0.000156,0.004051,0.000863,-0.003085,
-0.004431,-0.009165,0.005010,0.001775,-0.001714,0.001612,0.000191,-0.003058,
-0.002426,-0.005520,-0.000151,0.001793,-0.000169,-0.004095,-0.002638,0.002989,
0.002701,-0.002436,0.002094,-0.001954,-0.000843,-0.003539,0.001142,-0.004994,
-0.005872,-0.000217,0.005030,-0.000184,0.001836,-0.002819,-0.000445,0.001043,
-0.002958,-0.001629,-0.000118,0.000074,0.002880,0.002456,-0.000106,-0.004401,
-0.001022,-0.001452,0.000726,-0.005431,-0.007035,0.002357,0.001065,0.001696,
-0.001573,0.000156,0.003965,0.002885,-0.004819,-0.001527,0.000234,-0.002722}
,
{
-0.007357,0.001939,0.003975,-0.010180,-0.005420,0.000569,-0.004345,0.006503,
0.013964,0.004671,0.014753,-0.002984,-0.001054,0.001107,-0.000230,0.004246,
0.010219,0.005569,0.001281,-0.002405,0.002456,0.004120,-0.002739,0.000505,
-0.010150,0.007498,0.000478,-0.002892,0.008574,-0.008862,0.008680,-0.004979,
0.000474,0.000075,-0.002675,-0.003136,-0.012998,0.000547,-0.003090,0.003983,
0.005442,0.001184,-0.003288,0.000764,0.010007,0.000437,0.000238,-0.000630,
-0.001728,0.005126,0.006348,-0.001953,-0.005305,0.007441,0.005951,0.012860,
0.001866,0.005638,0.006580,0.009847,-0.006509,0.004371,-0.001345,-0.009901}
,
{
0.003576,-0.008073,0.019154,0.003526,0.005154,-0.003617,0.005741,-0.008110,
-0.027048,0.002485,-0.008191,0.006395,0.009455,0.003992,-0.003980,0.000642,
-0.003515,0.011203,0.003126,0.000566,-0.001085,0.000279,-0.006364,0.003214,
-0.015157,0.001267,0.002497,-0.002496,-0.005634,-0.002038,-0.001703,-0.005598,
0.001178,-0.002568,-0.004082,0.002273,0.020809,-0.006383,0.003792,0.001466,
-0.009910,-0.000342,0.003657,0.001730,-0.002019,0.003975,-0.006053,-0.004238,
-0.005748,-0.001517,0.000603,-0.006245,-0.003883,-0.000192,-0.001251,-0.003064,
-0.000645,0.000384,0.001260,-0.000792,-0.002537,0.001197,0.004427,0.001389}
,
{
0.011783,-0.006953,-0.000994,-0.007334,-0.000394,0.013611,0.007697,0.004140,
0.001820,0.026722,0.010524,-0.003203,-0.001344,-0.001092,-0.001194,-0.000287,
0.024145,-0.015199,0.004502,0.002578,0.001424,0.001621,-0.003534,0.002591,
0.021358,0.001777,-0.002590,-0.003195,-0.003437,0.001453,0.002355,-0.001772,
-0.011268,-0.004976,-0.003154,-0.004018,0.007276,-0.001793,0.004828,-0.001241,
-0.010266,-0.005347,0.004594,0.000356,0.003596,0.004085,-0.005219,-0.001169,
0.005074,-0.001837,-0.000061,-0.002029,-0.000699,-0.001553,-0.000832,0.002471,
0.018758,0.000132,0.000359,-0.000269,-0.000871,-0.002712,0.004107,-0.002102}
,
{
0.005899,0.009380,0.010036,-0.006699,-0.000203,0.009197,-0.008671,-0.004285,
0.007344,0.005917,-0.011754,0.009565,0.000419,-0.010591,0.001714,-0.010022,
0.029663,-0.026490,0.006102,-0.000275,0.000576,0.001819,0.005434,-0.008815,
0.001544,0.002392,0.006350,0.015593,-0.010002,0.017915,-0.016588,0.013744,
-0.011717,0.017799,-0.010592,0.009171,-0.020704,0.014177,0.001816,-0.009386,
0.003495,0.002010,-0.001836,-0.000241,-0.011389,-0.003547,0.014664,0.006462,
0.003995,0.000101,-0.011115,0.005924,0.013377,-0.017012,-0.013634,-0.018265,
-0.010528,-0.013579,-0.013146,-0.014727,0.013306,-0.016060,-0.007461,0.019699}
,
{
-0.009446,0.006985,-0.002142,-0.001489,-0.003585,-0.001818,-0.001477,0.000347,
0.006194,0.000707,-0.002337,-0.002839,0.000465,0.001639,-0.000252,-0.000250,
-0.006971,0.002224,0.001245,0.001946,0.000060,-0.000141,-0.000943,0.000433,
0.006087,0.002494,0.000185,0.000862,0.001958,-0.002615,0.001824,-0.001712,
0.003284,-0.000043,-0.000622,-0.000652,0.000457,-0.001257,-0.001334,0.000796,
0.001226,-0.000879,-0.000284,0.000216,0.001247,0.000167,0.000175,-0.000788,
-0.000385,-0.000216,0.000803,-0.001190,-0.004542,0.002481,0.000096,0.002909,
-0.001026,0.001606,0.001610,0.003190,-0.001954,0.000958,-0.000311,-0.002256}
,
{
0.009323,-0.009596,0.014713,0.005787,0.003052,0.000677,0.002421,-0.000420,
0.004525,-0.007678,-0.003724,-0.003508,-0.000960,-0.001092,0.001745,0.000961,
-0.004482,-0.002743,0.006092,0.001845,0.000843,0.004410,0.007888,-0.004474,
0.006264,0.002260,0.002870,0.002328,-0.005187,0.006165,-0.003513,0.007860,
0.000326,0.000756,-0.001192,0.000334,0.000326,0.003330,-0.000700,-0.002834,
0.000596,0.001734,-0.000616,-0.000944,-0.004182,-0.004875,0.003850,0.006019,
-0.003398,0.003523,-0.003266,0.007264,0.007397,-0.004966,-0.002572,-0.003609,
-0.004650,-0.003250,-0.006046,-0.004828,0.007242,-0.001271,-0.002542,0.004070}
,
{
-0.006457,-0.009651,0.006273,-0.008057,0.006371,0.001171,0.001127,0.004789,
-0.001064,-0.004443,0.002368,0.004781,0.002179,0.002374,0.000819,0.004330,
0.000017,0.005205,0.005731,0.002888,0.001632,0.000593,-0.000808,0.000344,
0.002580,-0.007364,0.005512,-0.000908,-0.002535,-0.005200,0.006126,-0.002999,
-0.001351,0.000490,-0.002651,-0.003542,-0.000951,-0.003816,-0.001683,0.002425,
-0.002907,0.002960,0.000407,0.001854,0.004813,-0.000059,-0.004188,-0.000365,
-0.001414,0.004788,0.004176,0.001608,-0.000779,0.005310,0.003687,0.007687,
0.000278,0.004245,0.003602,0.006429,-0.002769,0.003979,0.000898,-0.007191}
,
{
-0.011088,0.003870,-0.002119,0.005776,-0.005767,0.003207,0.002310,-0.003151,
0.002061,0.000536,0.000418,-0.001039,-0.004114,0.000365,-0.002989,-0.003166,
-0.023104,-0.006957,-0.008073,-0.011802,-0.001856,-0.003587,-0.001063,-0.002202,
0.005571,0.016432,-0.007380,-0.007099,-0.003297,0.005578,-0.007817,0.002969,
-0.002957,0.001818,-0.008438,0.002284,0.014459,0.000312,0.003832,-0.002565,
0.006214,-0.003871,0.000093,0.001691,-0.008190,0.001751,0.000974,-0.000931,
0.004471,-0.006756,-0.004325,-0.000140,0.008052,-0.007900,-0.004396,-0.011033,
-0.003134,-0.005743,-0.005302,-0.008155,0.005269,-0.005251,0.000038,0.008833}
,
{
-0.002702,-0.008653,0.003497,-0.012330,0.007645,-0.001159,0.001632,0.003196,
-0.002530,0.007799,0.005457,-0.006301,-0.006058,0.006599,0.002859,-0.002928,
-0.008343,-0.004025,0.003218,0.007478,-0.002916,-0.010860,-0.006060,0.003268,
0.004042,-0.009637,-0.005651,-0.008915,0.004957,-0.010255,0.002658,-0.008769,
0.008130,0.006018,-0.001547,0.001682,0.011548,-0.006812,-0.006677,0.002259,
-0.000876,0.001095,-0.001134,0.002844,-0.000105,0.000829,-0.003961,-0.006321,
0.006675,-0.000071,0.001701,-0.004318,-0.008550,0.007022,0.000208,0.003465,
0.003487,0.002648,0.004276,0.008543,-0.005195,0.002061,-0.001325,-0.004380}
,
{
0.009437,0.015260,-0.007423,0.004033,0.000233,0.006925,0.006993,-0.002527,
-0.001980,0.008576,-0.008677,0.005354,-0.000120,0.004991,-0.001304,-0.003239,
-0.012573,0.003557,0.011079,0.006749,-0.001860,-0.010521,0.000857,0.007754,
-0.006839,0.006108,-0.006290,-0.012450,0.006850,-0.005777,0.003893,-0.006603,
-0.003084,-0.000743,0.001761,-0.000538,0.012891,-0.010615,-0.003045,-0.004453,
-0.001671,-0.008681,-0.001098,-0.003464,-0.002955,0.002722,-0.003082,-0.002778,
0.006436,-0.009524,0.000619,-0.010682,-0.013557,0.004377,-0.003706,0.005557,
0.001740,0.000747,0.003566,0.009212,-0.003996,-0.000337,0.004519,-0.005443}
,
{
-0.020393,-0.058551,-0.042171,0.011843,0.014243,-0.010795,-0.001914,0.009730,
-0.032685,-0.014711,0.002443,-0.006208,0.005411,0.000273,-0.002847,0.005814,
0.025440,0.015418,-0.001760,-0.009397,-0.000766,0.006207,0.000593,-0.005825,
-0.012570,-0.015731,-0.006135,0.005413,-0.009344,0.001840,-0.001706,0.001924,
0.012019,0.016334,0.000904,-0.004067,-0.002634,0.005829,0.001775,0.001109,
0.003414,0.008917,-0.003089,0.001470,0.001653,-0.001913,-0.003755,0.006892,
-0.000960,0.004854,-0.003349,0.008672,0.011306,-0.002982,0.001103,0.000946,
-0.002459,-0.000101,0.001864,-0.002938,-0.000028,-0.000742,-0.001903,0.005355}
,
{
-0.044685,0.010254,-0.040497,-0.019158,-0.004607,-0.003700,0.007241,0.003860,
0.035788,-0.000195,-0.007180,-0.019878,-0.001009,-0.006104,0.003995,0.005572,
0.044267,0.005850,-0.002989,0.012702,0.001245,0.006327,0.007706,-0.005541,
0.001392,-0.026548,-0.012374,0.011990,0.006569,0.005063,0.000610,0.010219,
0.007556,0.008608,0.007613,-0.000251,-0.016253,0.009687,-0.000795,0.001744,
0.000177,0.006808,-0.003626,0.000529,-0.003071,-0.005647,0.003754,0.008849,
0.001490,0.006656,-0.001303,0.009875,0.010518,-0.001422,0.000101,-0.000852,
0.001104,0.000419,-0.003138,-0.002479,0.006015,-0.000306,-0.004239,0.001229}
,
