template<typename T> void tf_predict_chroma1(T* vals_in, float* vals_out) {
  static float bias[64] = {
-0.107793,0.057896,-0.011728,0.002651,-0.001025,0.008385,0.002116,0.002843,
0.053836,-0.037816,-0.001558,-0.004644,-0.000262,0.004367,-0.000032,-0.000569,
-0.014225,-0.001080,-0.000086,-0.002417,-0.000608,0.000915,0.000324,0.000792,
0.010279,-0.001494,0.000813,-0.001533,-0.001837,0.000433,-0.000210,-0.000255,
0.002607,0.001357,0.000186,-0.001019,-0.000294,-0.000378,0.000397,0.000535,
-0.000235,0.000766,0.000097,-0.000921,0.000318,-0.000502,-0.000280,0.000667,
-0.001246,0.000022,-0.000331,0.000021,-0.000307,0.000370,0.001071,-0.000722,
0.000397,0.000680,0.000622,0.000648,0.000161,0.000300,-0.000544,0.000385 };
  static float weight[][64] = { {
-0.717738,-0.033857,-0.002725,-0.003326,-0.002366,0.000291,0.000235,0.000134,
0.008294,-0.008555,-0.003320,-0.000149,-0.000086,-0.000245,-0.000041,0.000235,
0.008919,-0.001035,0.000003,-0.001103,-0.000085,0.000003,-0.000083,-0.000124,
0.007904,0.000043,-0.000120,0.000419,0.000220,-0.000225,-0.000046,0.000178,
0.001095,0.000922,-0.000043,-0.000112,0.000107,0.000117,-0.000171,-0.000125,
0.000748,-0.000051,0.000029,-0.000002,-0.000190,0.000132,0.000193,-0.000130,
0.000179,0.000140,0.000100,0.000029,0.000170,-0.000116,-0.000222,0.000192,
-0.000010,-0.000157,-0.000239,-0.000272,-0.000134,-0.000228,0.000212,-0.000236}
,
{
0.686064,0.148493,0.030309,0.020397,-0.006072,0.000025,-0.000291,-0.000196,
-0.158562,0.015291,0.019903,-0.009469,-0.003934,-0.007730,-0.000926,0.000890,
-0.096903,-0.007391,-0.000969,0.000086,0.000013,0.000718,-0.000797,-0.000561,
-0.046767,-0.008973,0.001615,0.011888,0.002912,-0.000762,0.000592,0.001294,
-0.011337,-0.006237,0.000394,0.000985,0.001803,0.000245,-0.000697,-0.000661,
-0.002397,0.000616,-0.000834,0.000490,-0.001521,0.001017,0.001943,0.000087,
-0.001736,0.002499,0.000032,-0.000659,0.001348,0.000550,-0.000637,0.001211,
-0.000115,-0.000512,-0.000675,-0.000971,-0.000074,-0.001091,0.000962,-0.001073}
,
{
-0.761623,-0.132151,-0.019569,-0.012886,-0.001043,-0.001560,0.004015,-0.006395,
0.166553,-0.032748,0.000814,0.006579,0.002529,-0.002524,0.003570,-0.002298,
0.153341,0.033689,-0.006528,-0.005729,0.006831,-0.004308,0.009818,0.003859,
0.051184,-0.000566,-0.002421,0.001444,-0.010799,0.002713,-0.004838,-0.006058,
0.009144,-0.000437,0.002994,0.001273,-0.010642,0.001783,0.000450,0.000977,
-0.002390,-0.003789,0.003795,-0.005793,0.005019,-0.002319,-0.007759,-0.003782,
-0.000015,-0.010650,0.000731,0.007474,-0.006123,-0.007453,0.001409,-0.003467,
0.000722,-0.000073,0.001477,0.001995,-0.001276,0.004906,-0.005737,0.004875}
,
{
0.549472,0.119893,-0.000052,0.003899,0.014121,0.012524,-0.003810,-0.002012,
-0.270145,-0.083719,0.019007,0.008787,0.010467,0.017954,0.003655,-0.001916,
-0.145256,-0.021798,0.016890,0.009609,-0.006332,-0.002994,0.004639,0.002315,
-0.000641,0.013450,-0.002881,-0.016750,-0.008719,0.002212,-0.004921,-0.005277,
-0.004018,-0.005198,-0.001391,-0.000904,-0.008060,0.002047,0.000518,0.000923,
-0.010246,-0.004740,0.003595,-0.002382,0.004677,-0.001220,-0.007267,-0.003589,
0.007092,-0.009992,0.001093,0.006921,-0.003741,-0.005703,0.001782,-0.002688,
0.000639,0.001537,0.001417,0.002899,-0.001214,0.004120,-0.004543,0.004014}
,
{
-0.306129,-0.101391,-0.013102,-0.018014,-0.059479,0.002980,0.004486,-0.003228,
0.220544,0.021007,-0.030324,-0.006938,0.002702,0.005960,-0.015600,0.008374,
0.112056,0.012270,-0.005106,-0.014881,0.007832,-0.006733,0.008879,-0.005182,
-0.019801,-0.022549,0.004897,0.005763,0.007086,-0.011258,-0.008008,0.012344,
0.019445,0.003827,0.003495,0.000620,0.002539,0.002721,-0.009421,-0.012092,
-0.005586,-0.002877,-0.001730,0.003475,-0.005111,0.006990,0.005241,-0.005286,
0.000792,0.011075,0.011666,0.006184,0.005067,-0.007270,-0.011666,0.006682,
-0.004969,-0.013365,-0.010528,-0.014598,-0.007613,-0.008288,0.011741,-0.009216}
,
{
-0.010278,-0.092004,-0.072982,0.012273,-0.025080,0.043527,0.021984,0.015470,
-0.052463,-0.088368,-0.011380,-0.019372,0.010538,0.007574,-0.000444,0.000609,
0.041398,0.054485,0.037113,0.005812,-0.001757,0.012413,-0.011573,0.002928,
-0.087439,-0.030676,0.015297,0.023683,0.015364,-0.000671,0.014325,0.004622,
-0.016811,-0.010909,-0.002272,0.007564,-0.000112,-0.003669,0.004077,0.004593,
-0.021699,0.011605,0.006474,0.006095,-0.002835,0.000649,0.007392,0.005208,
-0.007365,0.012012,-0.004646,-0.009609,0.002187,0.011083,0.005127,0.000141,
-0.000041,0.007864,0.004684,0.004384,0.006379,-0.003746,-0.000720,-0.002003}
,
{
0.012468,-0.172698,0.006422,0.032399,-0.056717,0.008238,0.011592,-0.002770,
0.052504,-0.061783,0.089669,-0.006260,-0.000951,0.011854,-0.003017,-0.003243,
-0.159753,-0.134240,0.055160,-0.001409,0.011632,0.002165,-0.008482,-0.005588,
-0.034432,-0.003290,0.018149,0.004477,0.002334,0.006301,0.009211,0.001524,
-0.073597,0.001565,-0.015662,-0.000970,0.004885,0.002686,-0.012340,0.001441,
0.053826,-0.002325,-0.013535,-0.010790,0.002742,0.010348,-0.001142,0.007198,
-0.019366,0.005707,-0.012602,-0.016986,0.001688,0.012370,0.007318,0.002639,
-0.002291,0.007619,-0.007951,0.011746,0.013460,0.002891,0.002029,-0.001689}
,
{
0.515125,0.114931,-0.013988,0.073198,-0.033832,-0.011712,-0.026853,0.018955,
-0.186682,-0.029777,0.058434,0.005140,-0.021540,-0.020786,0.004065,0.009967,
-0.031583,-0.051775,0.012570,-0.002301,0.004495,0.003814,-0.012670,-0.004642,
-0.059457,0.005435,0.006587,-0.005441,0.000114,-0.006543,0.001072,0.005308,
-0.053891,-0.014310,-0.009322,-0.002113,0.004472,0.004739,-0.002511,-0.002029,
0.000717,0.014276,0.009592,0.007722,-0.013077,0.006243,0.012480,-0.005289,
-0.020082,0.001782,-0.002133,-0.003247,0.010296,0.001419,-0.006165,0.009697,
-0.001754,-0.002614,-0.002112,0.002180,0.010228,-0.007017,0.007542,0.001691}
,
{
0.486645,-0.093391,-0.032986,-0.019706,-0.007139,-0.004300,0.002688,-0.001667,
0.131675,0.006047,-0.017536,0.001399,-0.000313,-0.007705,-0.000842,0.000379,
0.053241,0.014149,-0.005458,-0.000571,-0.002446,0.001314,-0.001785,-0.000798,
0.008663,0.005577,0.001774,0.005595,-0.000688,-0.000126,0.000330,0.001017,
0.000579,-0.001121,-0.000576,-0.000132,0.001928,-0.000489,0.000022,-0.000129,
0.000097,0.000098,-0.001794,0.000792,-0.000680,0.000429,0.000761,0.000743,
-0.000326,0.001208,0.000006,-0.000400,0.000832,0.000613,-0.000065,0.000204,
0.000069,-0.000156,-0.000382,-0.000411,-0.000256,-0.000822,0.001007,-0.000870}
,
{
-0.093000,-0.008237,0.022901,0.012547,-0.008741,0.010022,-0.003880,-0.000586,
0.010389,0.005944,0.017321,-0.006370,-0.000303,-0.022163,-0.002342,0.001318,
0.027237,-0.020898,0.013665,-0.001868,-0.005691,0.000049,0.000246,-0.000858,
0.019946,-0.001293,0.002126,0.019138,0.007676,-0.001296,-0.000418,0.001820,
0.007759,0.007448,-0.000217,0.002154,0.001430,-0.000563,-0.000652,-0.001230,
0.001396,-0.000137,-0.000823,0.001612,-0.001296,0.000762,0.001652,-0.000391,
0.001477,0.002808,0.001126,0.000098,0.001137,0.000353,-0.000649,0.001376,
-0.003150,-0.001258,-0.001307,-0.001769,0.000080,-0.001553,0.002004,-0.001969}
,
{
0.163142,-0.034236,0.005998,-0.022323,-0.005923,-0.000302,-0.003093,-0.003986,
-0.005471,0.021486,0.010693,0.018313,-0.000108,-0.003339,-0.001380,0.000738,
-0.073227,-0.047917,-0.006709,0.010159,-0.006388,0.000546,-0.006961,-0.002289,
-0.039525,0.004122,0.002203,0.013163,-0.001630,-0.000166,0.004018,0.003887,
0.008984,0.010141,-0.001678,0.002574,0.005650,-0.001215,0.000307,0.002280,
0.001682,0.003517,-0.004583,0.000712,-0.002330,0.000981,0.004390,0.004470,
-0.001332,0.005355,-0.002028,-0.005872,0.003541,0.006858,0.002200,-0.000210,
-0.000395,0.002286,-0.000597,0.001252,-0.000813,-0.003026,0.002952,-0.003674}
,
{
-0.115348,0.073200,0.051222,0.026416,0.054301,0.009138,0.001629,-0.001651,
0.079106,0.036467,-0.014908,-0.024714,-0.005893,0.015007,0.002358,0.000123,
0.068088,0.070654,0.023661,-0.004321,0.002228,-0.006903,-0.000002,0.004302,
0.054156,0.028723,0.005354,-0.027380,-0.004406,0.001808,-0.001058,-0.004409,
0.005078,-0.001051,0.001097,-0.007033,-0.002618,0.000963,0.000664,-0.001292,
0.001046,-0.004512,0.000501,0.001824,-0.000600,-0.003789,-0.001628,-0.006392,
0.004682,-0.007244,0.000229,0.003797,-0.001618,-0.003907,-0.001622,0.000219,
0.005322,0.001693,0.000641,-0.002351,-0.003278,0.002945,-0.003467,0.003965}
,
{
-0.510004,-0.207399,0.148646,0.107308,0.046102,-0.016938,0.004103,0.020417,
0.125297,0.161157,-0.123947,0.013379,-0.043171,0.008944,-0.000338,0.009230,
0.083740,0.145541,0.029611,0.014660,0.024044,-0.000756,0.003922,-0.018671,
-0.085164,-0.062412,0.117321,-0.016488,-0.006956,-0.003229,0.002476,0.005830,
0.037621,-0.001540,-0.006211,0.019232,-0.019683,0.008852,-0.011647,-0.015603,
-0.011370,-0.006612,0.003354,0.003665,-0.003560,0.010436,0.004984,-0.012120,
-0.008282,0.003419,-0.003352,0.005237,0.009230,-0.015370,-0.019667,0.010940,
-0.004651,-0.017754,-0.013291,-0.011148,0.005595,-0.001761,0.011277,-0.004528}
,
{
0.648997,-0.069226,0.022212,-0.050454,0.057307,-0.018865,-0.013899,0.021707,
0.610423,0.135521,-0.115011,-0.045810,-0.051867,0.028555,0.007271,-0.025745,
0.083520,0.065126,0.078233,-0.001888,0.002615,-0.001263,0.048961,0.011646,
-0.469250,-0.071160,-0.034744,0.042266,0.058538,-0.008332,-0.026841,-0.018704,
0.164890,0.052068,-0.014881,0.028182,-0.038152,-0.030483,0.024934,-0.003251,
-0.015517,-0.039072,0.056836,-0.041291,0.031511,-0.036996,-0.043884,-0.012021,
0.233096,-0.060062,0.034158,0.035039,-0.020455,-0.038884,0.003878,-0.013450,
-0.010009,-0.006716,0.005867,-0.027951,-0.032264,0.012203,-0.024200,0.013097}
,
{
-0.281469,-0.065760,-0.083046,-0.017357,-0.029064,-0.007322,0.013078,0.006702,
0.806557,0.085957,-0.103703,-0.036947,-0.024786,0.004035,0.021707,0.000614,
0.171712,0.141855,0.081937,0.013762,-0.010645,0.006500,0.000881,0.013098,
-0.534333,-0.046373,-0.019517,0.017843,0.021055,-0.004772,0.005949,-0.008340,
0.136275,0.019220,-0.029215,0.025351,0.012219,-0.004236,0.009895,0.006134,
-0.023181,-0.005775,0.033441,-0.019743,-0.001454,-0.005024,-0.010935,0.007449,
0.232088,-0.033896,-0.009955,-0.009519,0.005011,-0.001166,-0.014685,-0.006582,
-0.047977,-0.019833,-0.004039,-0.013875,0.016686,-0.006691,-0.003273,-0.005130}
,
{
0.637971,-0.719925,-0.337498,-0.541256,0.186133,0.229422,0.080554,0.078333,
-0.773283,0.139079,0.084851,-0.152419,0.158450,0.068896,0.028863,0.013195,
-0.164882,0.056479,0.095495,-0.049998,-0.051896,-0.039081,-0.013898,-0.025169,
-0.559960,-0.060251,-0.127608,0.026737,0.072375,-0.018762,0.005343,0.015938,
0.359115,0.127935,-0.023078,-0.007904,-0.036859,-0.007540,-0.024365,0.008775,
-0.005026,-0.014710,-0.020861,-0.069844,-0.034295,0.006548,-0.000519,0.025709,
0.264096,-0.015302,-0.021822,-0.017066,0.030151,0.007282,0.037289,0.028322,
-0.008816,0.009310,0.020998,0.017221,0.037547,-0.023857,0.010102,-0.007557}
,
{
-0.560715,0.146251,0.077013,0.010515,0.007089,0.006682,-0.002413,0.003691,
-0.136916,0.006849,0.035214,-0.003845,-0.000542,0.008192,-0.000689,0.001231,
-0.063735,-0.026148,0.010313,-0.002431,-0.001982,-0.001017,0.001961,0.000156,
-0.040999,-0.006213,0.001734,-0.015329,0.002824,-0.002062,0.000209,0.000422,
-0.008376,0.002370,-0.000477,-0.001511,-0.000405,0.000890,-0.001603,-0.001580,
-0.001436,-0.001387,0.001221,0.000785,-0.000601,0.000068,0.000225,-0.002164,
0.002241,-0.001146,0.000204,0.001965,0.000728,-0.002384,-0.002839,0.001820,
0.000567,-0.000869,-0.001259,-0.002152,-0.002178,-0.000403,0.001134,0.000118}
,
{
0.063785,-0.006201,-0.071660,-0.008938,-0.008407,-0.004533,-0.002195,0.000015,
-0.012580,-0.001864,-0.024842,-0.001171,-0.004930,0.013682,0.001121,0.001793,
0.018167,0.071637,-0.021352,-0.001213,0.005786,-0.001322,-0.000299,-0.000726,
-0.028530,0.013138,-0.000863,-0.016328,0.000190,-0.001455,0.001352,0.002259,
-0.005548,-0.015246,0.002581,0.000287,-0.002714,0.002591,-0.002515,0.000004,
0.000282,-0.000550,0.003350,0.002027,-0.001809,0.000628,0.001761,-0.002108,
-0.002501,0.000962,-0.001065,0.001081,0.001364,-0.001158,-0.003329,0.002783,
0.001009,0.000704,-0.001160,-0.001553,-0.001332,-0.002015,0.000229,-0.002333}
,
{
-0.095000,-0.035261,0.066163,0.013706,-0.016499,-0.003659,-0.002390,0.003749,
0.093813,0.017674,0.049016,-0.000443,-0.001722,0.012851,-0.002936,0.006087,
0.050303,0.000815,0.018042,0.006837,-0.000267,0.004755,-0.011702,-0.008779,
0.038656,0.018704,0.002139,-0.013770,0.001224,-0.003029,0.004056,0.006412,
0.007051,0.010026,-0.001397,0.000181,0.006371,0.002732,-0.004813,-0.003431,
0.009704,0.003888,-0.005328,0.007560,-0.008722,0.006338,0.008837,0.000766,
0.004178,0.010253,-0.002255,-0.001723,0.009236,0.002434,-0.005281,0.006795,
-0.003029,-0.001858,-0.006156,-0.005402,-0.002559,-0.007442,0.008958,-0.007546}
,
{
0.173086,-0.133845,-0.081612,0.036224,-0.029899,0.050877,-0.003408,0.014411,
-0.148564,-0.096593,-0.045575,-0.034884,0.009967,0.055755,-0.019167,-0.023367,
-0.160895,-0.099464,-0.019702,0.053555,-0.010697,-0.002722,0.030871,0.014526,
0.008687,0.021089,0.028457,0.046513,0.007974,0.007249,-0.011884,-0.022776,
0.002218,-0.002419,-0.049460,-0.010416,0.010388,-0.010423,0.005569,0.001869,
0.003156,-0.008205,-0.001051,-0.006545,0.026538,-0.005858,-0.022130,0.011536,
-0.009630,-0.004694,0.001214,-0.005141,-0.022950,0.007640,0.023218,-0.009799,
-0.013342,0.012247,0.021969,0.013443,-0.005756,0.019029,-0.017002,0.019682}
,
{
0.034387,0.062543,-0.155519,0.011689,0.029667,-0.005772,0.035023,-0.012042,
0.023174,0.332709,-0.149666,0.017116,0.007581,0.022861,0.022707,-0.008975,
0.288618,-0.221925,-0.112196,-0.024084,-0.030242,0.040410,-0.013712,0.006502,
-0.083237,-0.043905,-0.037868,-0.028668,-0.021888,0.008032,0.013957,-0.008166,
-0.057858,-0.034450,0.004914,0.007583,0.046140,-0.019998,0.012069,0.038961,
0.028796,-0.016585,-0.022265,-0.011210,0.009665,-0.014925,-0.015448,0.021997,
0.042135,-0.018703,-0.006349,-0.025718,-0.006120,0.019601,0.006712,-0.011057,
0.023780,0.027184,0.005862,0.031477,0.026279,0.010057,-0.007154,0.014924}
,
{
-0.094815,0.161963,0.066159,-0.412167,-0.028686,0.053292,-0.162011,-0.033305,
-0.415291,-0.173367,0.204161,0.052510,0.094701,-0.018134,0.003013,0.084290,
0.035770,0.056904,0.569716,0.015892,-0.018800,0.066148,-0.033402,-0.043604,
-0.347314,-0.161054,0.061394,-0.037344,-0.107546,0.008375,0.040742,0.032874,
0.120030,-0.065718,0.039608,-0.125730,-0.042099,-0.026009,0.111268,0.090169,
0.018027,0.109305,0.021177,-0.001210,0.026343,0.123103,-0.032913,-0.018462,
0.030544,0.043541,0.015506,-0.006660,0.006522,0.196303,-0.018267,-0.093535,
0.007691,0.009465,0.041904,-0.023172,-0.005510,-0.077288,-0.028020,0.061345}
,
{
-0.369885,0.371841,0.409512,-0.645394,-0.056939,-0.158465,0.080238,0.069853,
0.155958,0.518358,-0.043839,-0.021411,-0.104411,0.046045,0.032142,-0.043130,
0.037662,0.068290,0.489202,-0.141559,-0.103801,-0.069277,-0.008145,0.002000,
-0.436009,0.071275,0.121963,-0.002029,0.007018,-0.028814,-0.005067,0.010281,
-0.085466,0.062921,-0.058652,0.029713,0.043686,0.080422,-0.138389,-0.088773,
-0.099587,-0.025452,-0.085378,0.004211,-0.069473,-0.076148,0.083492,0.052355,
-0.061894,0.005577,-0.061167,-0.011125,0.023486,-0.161000,-0.021253,0.121787,
0.016612,0.041480,-0.069836,0.059160,0.025032,0.053754,0.062956,-0.105500}
,
{
-0.204316,0.349655,0.191105,-0.419313,0.064576,0.044057,-0.127171,-0.054034,
0.340987,0.228787,0.353749,0.062579,0.034526,-0.000432,-0.068979,0.032436,
0.006469,0.010531,0.559341,-0.032821,0.019930,0.037012,0.013822,0.001394,
-0.334738,-0.094360,0.094198,0.002052,-0.074923,0.041673,0.008570,-0.013514,
0.133088,-0.008774,0.067227,-0.085596,-0.046857,-0.055983,0.146521,0.065720,
0.040248,0.089552,0.067942,0.046275,0.059630,0.095556,-0.058554,-0.053023,
0.031210,0.011361,0.050194,0.003623,-0.025566,0.155989,-0.017399,-0.130426,
0.007179,-0.019466,0.085475,-0.054654,-0.049191,-0.045240,-0.066958,0.090725}
,
{
0.287241,-0.175900,-0.067358,-0.000898,0.014284,0.003514,-0.005255,0.005735,
0.129275,-0.014351,-0.026303,0.005919,-0.000282,0.016757,-0.002128,0.003774,
0.082709,-0.020481,-0.007967,-0.010764,0.000814,-0.001325,-0.000898,-0.001891,
0.057137,0.013192,-0.003404,-0.015423,-0.003420,-0.003344,0.001725,0.003096,
0.002863,-0.000654,-0.001050,-0.005294,0.003556,-0.000097,-0.002002,-0.002746,
0.005299,-0.002035,0.000917,0.001944,-0.003742,0.001799,0.003764,-0.001360,
-0.001383,0.002020,0.000132,0.000560,0.004929,-0.000657,-0.005163,0.003403,
0.001304,-0.000684,-0.003308,-0.003849,-0.003170,-0.003018,0.004996,-0.002685}
,
{
0.124475,0.089650,0.049496,0.044549,-0.000588,0.019407,-0.007744,0.019194,
-0.038924,0.068322,0.058205,-0.000096,-0.012188,0.022755,0.000654,0.000386,
-0.004177,0.069680,-0.017976,0.018006,-0.002990,-0.001841,0.000794,-0.001704,
0.030933,0.022796,0.013950,-0.027028,0.001522,-0.000206,0.004709,-0.002142,
-0.005458,0.003168,0.001049,-0.003296,0.001621,0.000490,-0.000231,-0.002754,
-0.002841,0.000282,0.007259,0.002518,-0.001811,0.001770,0.002544,0.000370,
0.002751,-0.000695,-0.001946,0.000170,0.003292,-0.002281,-0.004729,0.002109,
0.000799,0.000181,-0.000478,-0.000436,-0.001137,0.001930,0.001155,0.002477}
,
{
0.073831,-0.196249,-0.136408,0.069393,0.039592,0.084800,0.005258,0.023746,
0.183223,-0.193342,-0.097380,0.015662,-0.023591,0.026407,0.010004,-0.001173,
-0.042836,0.027104,-0.027653,0.031531,0.006875,0.016970,-0.000152,0.006692,
0.031061,0.083315,-0.026836,-0.008341,0.013165,-0.007537,-0.004415,0.001292,
0.037640,-0.006265,-0.015010,-0.006580,-0.018055,0.002685,0.000346,0.005862,
-0.029953,0.005950,0.017219,-0.001514,0.005211,-0.006083,-0.001215,-0.017742,
0.021046,-0.001608,-0.000645,0.010290,-0.001499,-0.002117,-0.003966,-0.000277,
0.013787,0.004257,0.001924,-0.001053,-0.000037,-0.010749,-0.001497,-0.001892}
,
{
0.044659,-0.542153,0.304757,-0.096325,0.027700,0.014711,-0.022278,0.017057,
-0.014675,-0.350144,0.322462,0.085575,-0.028947,0.074200,-0.011927,0.029405,
-0.024060,-0.048856,0.124142,0.013077,0.014289,-0.010840,0.007598,-0.029635,
-0.029608,-0.039375,0.043726,0.036096,-0.021260,-0.011309,-0.007212,0.023581,
0.000376,0.037302,-0.012943,0.022669,-0.008882,0.029716,-0.020567,-0.022250,
0.012013,-0.000582,0.016055,-0.000757,-0.007887,0.024982,0.002094,-0.002381,
-0.018181,0.011655,0.006662,0.000214,0.009237,-0.013869,-0.032068,0.016206,
-0.031823,-0.024774,-0.031246,-0.026550,-0.002732,-0.015238,0.034677,-0.024933}
,
{
-0.578906,-0.183598,-0.157221,-0.037792,0.106781,-0.069853,-0.021363,0.000259,
-0.273543,0.228840,0.306757,0.003730,-0.059290,-0.009599,0.004800,0.019254,
-0.280847,0.150671,0.208143,-0.149592,0.019276,0.012033,-0.003658,0.003349,
-0.317553,-0.067936,0.068021,-0.063738,-0.003614,-0.026637,-0.020256,0.035218,
0.049815,0.003917,-0.013490,0.011956,-0.033030,-0.007803,-0.013468,-0.012011,
0.010150,0.021777,0.008460,0.005948,-0.013422,-0.003736,0.024534,-0.011294,
-0.015360,0.014040,0.007436,0.013541,0.008254,-0.011800,-0.005932,0.002349,
0.002180,-0.017829,-0.006860,-0.013459,-0.004243,-0.030154,0.004396,-0.021763}
,
{
0.107149,-0.065550,-0.036052,0.001066,-0.248779,0.007089,0.023689,0.091994,
-0.110344,-0.014021,0.036952,-0.139192,-0.110567,-0.106683,0.052177,0.031452,
-0.068923,-0.124350,-0.126560,-0.076157,0.048191,-0.064400,0.178433,-0.103770,
-0.087065,-0.124088,0.020002,0.034306,-0.044054,0.098592,-0.016413,-0.093590,
0.040547,-0.223468,0.152752,0.117129,-0.222605,-0.072779,-0.047732,0.006523,
-0.205724,0.068741,-0.023509,-0.021440,-0.063963,0.142546,-0.024924,0.183654,
0.122655,0.020457,0.080632,0.197445,-0.086845,0.003590,-0.072208,0.049534,
0.066506,0.034089,-0.012163,-0.017296,-0.028898,0.123060,0.027579,-0.201284}
,
{
-0.114250,0.164572,-0.004328,-0.222981,0.121778,-0.036841,0.092273,0.128552,
0.014464,0.059909,0.117404,-0.020285,0.073905,0.100943,0.001114,-0.070201,
-0.019974,-0.047732,-0.065013,-0.004319,0.044422,0.240444,-0.057781,0.138993,
-0.078478,-0.081917,-0.037606,-0.063299,-0.120109,0.134405,0.087293,-0.074096,
0.184759,-0.088240,-0.007887,0.113859,-0.036626,0.026308,0.219830,0.127855,
-0.027808,-0.078079,-0.245832,-0.073496,-0.058231,0.077487,-0.074776,-0.071659,
-0.094342,-0.003607,-0.157435,0.066679,-0.162075,0.010393,-0.134804,0.170693,
0.192694,0.180282,0.020947,-0.030066,0.176094,-0.095098,0.144708,-0.036501}
,
{
-0.040945,-0.235863,-0.009052,-0.073133,0.087105,0.109153,0.118987,0.217529,
-0.059500,0.092188,0.188486,0.022503,-0.097334,-0.009169,-0.007697,0.098940,
0.166777,0.032830,-0.084260,-0.030553,0.087778,0.130133,0.040536,0.029228,
0.028920,0.205207,-0.025406,-0.073338,0.099483,0.094974,0.066299,0.004410,
0.135288,0.068479,0.174788,0.118705,0.099393,-0.042239,-0.119942,-0.101254,
0.158103,-0.016978,0.090294,0.127473,0.110100,-0.154056,0.106048,-0.205337,
0.201593,-0.118109,-0.015450,0.030346,0.109132,0.141090,0.026994,0.084930,
-0.211837,0.144743,0.010583,-0.011635,-0.043458,0.136779,-0.201216,-0.099891}
,
{
-0.267060,0.124504,0.026431,0.023848,0.019668,-0.001121,-0.003029,-0.002067,
-0.061584,0.041279,-0.012451,-0.018704,0.002816,-0.017022,-0.000053,0.000529,
-0.069069,0.017793,-0.021944,-0.007897,0.003118,0.001095,-0.001508,0.000633,
-0.026561,0.000851,-0.003470,-0.000712,-0.011936,0.000555,0.000551,0.001294,
-0.011600,-0.004447,0.000529,-0.000949,0.000762,0.000190,0.000475,-0.001659,
-0.010663,0.002920,-0.000200,-0.001070,-0.000825,-0.000235,0.001222,-0.002597,
0.000335,0.000792,0.000995,0.000596,0.000205,0.000123,0.000431,0.000794,
-0.000129,-0.000975,-0.000214,-0.001174,0.001959,-0.002131,-0.000215,0.000860}
,
{
0.585748,0.504399,0.225817,-0.055829,-0.063344,0.030148,0.008098,0.002474,
-0.146440,0.154901,-0.100648,-0.047519,0.008881,0.023906,-0.006311,0.006284,
0.020940,0.061240,0.076389,-0.059296,-0.028957,0.005023,-0.003559,-0.010209,
0.019832,0.048176,0.011901,-0.071256,-0.027999,-0.003132,-0.006156,0.005548,
0.004024,-0.050384,0.024575,-0.016575,0.004396,0.009483,-0.010389,-0.006334,
-0.019353,0.001231,-0.011196,0.004451,-0.006016,0.010974,0.009549,0.004475,
-0.023088,0.013390,0.002610,-0.002750,0.004544,-0.003305,-0.004314,0.007402,
0.000284,-0.006568,-0.008261,-0.000800,-0.001636,-0.004670,0.004000,-0.003762}
,
{
-0.488735,0.407226,-0.122236,-0.052894,0.069165,-0.023979,-0.002263,0.007947,
0.592573,0.052339,0.152085,0.009217,0.028271,-0.000147,0.012702,0.006796,
0.180701,0.039176,0.212193,-0.097336,0.012130,0.047122,-0.014255,-0.007024,
-0.082891,-0.000055,0.017338,0.000050,0.001528,-0.012129,0.007706,0.007874,
-0.009954,-0.015512,0.003371,0.008895,-0.005677,0.011996,-0.006513,0.011243,
0.007204,0.025367,-0.008742,-0.007649,-0.006115,0.009449,0.008975,-0.001873,
-0.004891,0.007664,-0.022072,-0.006999,0.012217,0.008534,0.005044,0.005444,
0.028425,0.005056,-0.000466,0.006047,0.003851,-0.015642,0.006715,-0.005507}
,
{
-0.365906,-0.570620,-0.202314,0.040316,-0.086677,-0.125773,-0.013360,-0.049350,
0.869910,0.007699,0.572499,-0.027039,-0.340401,0.020795,0.015369,0.033516,
0.731504,-0.123447,0.110848,0.131350,-0.036646,0.031342,-0.028509,0.020580,
0.250532,0.049979,0.057064,0.219761,0.114735,-0.008137,0.009803,0.007896,
-0.088013,0.053801,-0.019363,0.078440,-0.013649,-0.015621,-0.007299,0.007305,
0.075896,0.016960,0.025931,0.003501,-0.027124,-0.010003,0.017080,0.005953,
-0.034777,-0.009140,0.015358,0.015971,0.009222,0.005805,-0.010163,0.000009,
-0.009622,0.011011,-0.009414,-0.013475,0.003262,0.007556,-0.021626,0.060809}
,
{
-0.025658,0.587836,0.442522,-0.991252,0.048601,-0.129416,-0.044089,-0.006478,
-0.339462,0.446846,0.057433,0.048222,-0.131013,0.040332,-0.012407,0.000817,
0.308770,-0.294394,0.785882,-0.062426,-0.061908,-0.009589,0.017270,0.000783,
-0.727788,-0.108786,0.202482,-0.075289,-0.071547,0.020032,-0.005111,-0.008591,
-0.001448,-0.000032,0.040757,-0.032391,-0.016464,0.007495,0.004647,-0.016830,
-0.033749,-0.004614,0.002874,0.007931,-0.000300,0.000948,0.000214,-0.012955,
-0.021046,-0.001471,0.001992,0.004635,-0.008230,-0.005585,0.011225,-0.009291,
-0.012326,0.000988,0.013907,-0.015087,-0.008449,0.019505,-0.008386,0.002100}
,
{
-0.067171,-0.125002,0.015125,-0.147306,-0.120526,0.167361,0.044587,-0.037649,
-0.081833,-0.032010,0.109618,-0.007358,-0.213608,-0.178686,-0.070943,0.028857,
-0.082111,0.004932,0.161150,0.117514,-0.201307,-0.194251,0.048907,0.054145,
-0.014847,0.039139,0.036304,0.083674,-0.023168,0.045532,0.086767,-0.147951,
0.124161,0.118214,-0.063513,-0.139408,-0.024555,-0.044441,-0.093016,0.169832,
0.020924,0.200690,0.142874,-0.026433,-0.143082,-0.058528,0.065959,0.023941,
0.080322,-0.163712,-0.060927,-0.000931,0.042505,0.221098,0.077532,0.241735,
0.012018,-0.065527,-0.032229,-0.188366,0.000055,0.095118,-0.156259,0.066602}
,
{
-0.003528,-0.006467,0.023358,0.098288,0.065196,-0.057168,-0.042187,-0.053186,
-0.052487,-0.019760,0.109035,-0.010090,0.005214,-0.051929,-0.051586,-0.101683,
0.004023,0.151878,0.081538,-0.241088,-0.004870,0.087321,0.122679,0.059574,
0.024687,-0.146423,-0.073214,0.131073,0.128696,0.138297,-0.021857,0.052147,
0.066132,0.066910,0.035696,0.092308,0.002301,-0.088800,-0.014405,-0.019415,
0.033055,-0.039841,-0.174036,0.113620,0.169757,-0.019683,0.013497,0.035136,
-0.163681,0.067071,0.126675,-0.162310,-0.061741,0.101065,0.060353,-0.081124,
0.228963,0.153675,0.115244,-0.002054,0.092228,0.182374,0.020139,0.073598}
,
{
-0.145398,0.187617,0.137219,-0.011502,0.065085,0.006388,-0.154608,-0.037575,
0.111624,0.033252,-0.152927,-0.108369,0.038117,-0.223400,-0.016924,0.119956,
0.176833,0.048212,-0.000214,-0.201254,0.115552,0.069394,-0.021976,-0.031706,
0.147219,-0.088814,-0.070754,-0.102257,-0.002711,0.124582,0.077455,0.068381,
-0.086293,-0.010749,0.000139,-0.120507,0.026976,-0.041227,-0.014778,-0.026558,
0.027464,0.042138,0.070861,0.183722,0.060403,-0.118862,-0.046447,0.070554,
0.039272,0.152740,-0.011302,-0.178468,-0.027646,-0.079627,-0.031213,0.191048,
0.021104,0.102240,0.067609,-0.006944,-0.117703,0.026683,-0.096161,0.049249}
,
{
0.069277,-0.224580,-0.096913,0.032675,-0.024506,0.006551,0.009440,-0.004844,
0.028076,-0.044654,-0.085404,0.033874,-0.022120,0.013222,0.000864,0.006996,
0.018540,-0.033592,0.028130,0.011864,-0.022851,0.012161,0.003144,0.000338,
-0.005220,0.037566,-0.010458,-0.001263,-0.008414,-0.017162,0.007549,0.014244,
-0.026063,0.083902,-0.023691,0.014298,-0.004953,0.009900,-0.007995,0.000073,
-0.035182,-0.007508,0.008042,-0.003737,-0.002509,0.001682,-0.000019,0.005474,
-0.009384,0.002982,-0.001364,-0.002086,0.004126,-0.006462,-0.008608,0.006391,
-0.000257,-0.004831,-0.004957,-0.005318,-0.013013,-0.013904,0.010759,-0.009348}
,
{
-0.359608,-0.526326,0.025545,0.030102,0.115784,0.061109,0.008881,0.141555,
0.080295,-0.090696,0.119109,0.108607,-0.001596,-0.096710,0.001309,0.053949,
-0.046998,0.075893,0.117971,-0.064223,-0.016609,-0.099143,-0.079153,0.022414,
-0.254518,0.001663,0.093704,-0.009393,-0.146100,-0.005101,0.115279,0.050617,
0.021332,-0.069157,-0.027130,-0.035147,-0.030968,0.024952,0.013768,-0.057569,
-0.057750,-0.058871,0.025290,-0.173037,-0.014140,0.067005,0.017930,0.048668,
-0.172003,-0.031506,-0.076357,-0.100313,0.030455,-0.041536,-0.030884,-0.117815,
0.143133,0.063349,-0.191792,0.087765,-0.018759,0.075035,-0.045748,-0.037387}
,
{
-0.364170,-0.584958,0.000115,-0.013474,0.049172,-0.016335,0.049636,-0.128628,
-0.079685,-0.255461,0.315086,-0.021625,-0.038042,0.152825,0.042349,-0.070719,
0.037547,0.190883,0.195671,-0.038076,0.044356,0.088190,0.031033,-0.005061,
-0.065667,-0.071381,0.060415,0.005685,0.160659,0.047330,-0.100181,-0.075788,
-0.037014,0.092755,-0.006186,0.001862,0.043724,-0.098336,0.026732,0.077902,
-0.036389,0.031361,0.032625,0.143674,0.035533,-0.090064,-0.031661,-0.018448,
0.133193,-0.009909,0.055937,0.070135,-0.053559,0.059997,0.064959,0.087121,
-0.121022,-0.022179,0.203623,-0.052987,0.049743,-0.026394,0.010560,0.057501}
,
{
-0.147074,-0.013879,0.072323,-0.046214,0.008538,0.011390,-0.135952,-0.220694,
-0.032582,0.006958,0.076517,-0.086748,-0.191896,0.090167,-0.053862,-0.238090,
-0.138470,-0.231888,0.001743,-0.129205,0.014984,-0.153207,-0.050137,0.082487,
-0.010632,0.154061,-0.088724,-0.136088,-0.053419,0.003356,0.040186,-0.192369,
0.033865,-0.099367,0.177718,0.188017,0.036444,-0.061801,-0.031885,0.079054,
0.029764,-0.019086,0.066161,-0.002811,-0.083842,0.181110,0.008349,-0.109489,
0.163696,0.094339,-0.226811,0.102616,-0.041664,0.078435,-0.033845,-0.051755,
0.009079,-0.045507,0.026492,-0.045469,-0.082984,0.236457,-0.031349,0.021562}
,
{
-0.011881,0.148737,0.012414,0.087247,-0.115768,-0.015848,0.079325,-0.105221,
0.039393,-0.208250,0.172106,-0.001120,0.027201,-0.006271,0.145205,-0.211822,
-0.004069,-0.110242,0.045269,-0.136890,-0.040343,0.002554,-0.007409,0.040424,
-0.052266,0.201917,-0.195930,-0.079677,0.194365,-0.020196,0.140715,-0.206201,
0.118208,-0.019923,0.055946,-0.085522,0.121905,0.063841,-0.107298,0.087842,
0.041853,0.204213,-0.024240,-0.087856,-0.189000,-0.105364,-0.096530,-0.123201,
-0.028320,0.058182,0.046106,-0.072067,-0.145577,-0.098260,0.040557,-0.025369,
-0.077953,0.082781,-0.076774,-0.076099,0.020643,-0.043508,0.200698,-0.179107}
,
{
-0.033813,0.069383,0.016335,0.064401,-0.004382,0.042978,0.058344,0.090689,
0.067517,0.129947,-0.152711,-0.079520,0.037295,-0.053300,-0.077468,0.188411,
-0.040773,-0.018639,-0.037955,-0.161123,-0.050379,-0.032440,0.022245,0.146769,
-0.194577,0.055679,0.062896,-0.116946,0.217136,0.241019,-0.084275,-0.007608,
0.096179,-0.054339,0.088560,0.126246,0.058423,-0.110457,0.006778,-0.044390,
-0.014252,0.210069,-0.045202,-0.144967,0.013189,0.057876,0.119850,0.050076,
0.080935,-0.226548,-0.025127,0.033814,0.014413,0.093921,-0.042636,-0.068271,
-0.055760,0.051619,0.201410,-0.124883,0.054926,-0.021888,0.110462,0.011488}
,
{
-0.111137,-0.059763,-0.112438,0.153649,-0.081617,-0.167749,-0.218448,-0.098518,
0.061673,-0.054515,-0.177226,0.085000,0.017800,-0.037663,0.032066,-0.055088,
0.164880,-0.169617,-0.157555,-0.091354,0.215245,-0.094948,-0.057396,0.038295,
-0.006856,0.105398,0.174985,-0.025951,0.129791,-0.074271,-0.111211,0.083034,
-0.005526,-0.120371,-0.185381,0.118523,-0.084298,0.067425,0.049319,0.068010,
-0.178971,-0.083812,-0.040593,0.126885,-0.062426,-0.071214,0.197800,-0.080972,
0.237517,0.047292,0.233723,0.035118,-0.132388,0.018904,-0.062637,0.094432,
0.070685,-0.163680,-0.229144,-0.024675,-0.053862,-0.156123,0.064008,-0.027515}
,
{
-0.082971,0.131212,0.066754,0.008441,0.187684,0.013831,-0.014754,-0.129448,
0.179980,0.028948,-0.033958,0.043277,0.017485,0.186811,-0.004861,0.104217,
0.037122,0.047786,-0.058306,0.061098,0.117916,0.178653,0.058968,0.116623,
-0.198261,0.107459,0.092295,-0.098831,0.008394,-0.022983,0.176568,-0.181951,
0.005547,0.091840,0.013323,-0.041984,-0.154991,-0.063585,0.087818,-0.001089,
0.026721,0.134949,-0.214222,0.080524,-0.048234,0.074261,-0.134441,-0.071094,
0.002424,0.235195,-0.067193,0.060023,0.110155,-0.047193,0.126584,0.048479,
-0.138060,-0.246969,-0.241745,0.074314,0.074980,0.101017,0.135663,0.052277}
,
{
-0.037632,0.285187,-0.020621,-0.075043,0.030476,0.021293,0.010285,-0.014297,
0.276238,0.292344,0.066577,-0.048646,0.021700,0.013529,-0.027297,-0.011536,
-0.048815,-0.076030,0.001529,-0.026056,-0.009207,-0.013261,-0.005294,0.010972,
-0.003236,-0.013095,0.000208,-0.002060,-0.000405,0.003898,-0.010721,-0.015007,
0.019544,-0.015624,-0.004328,-0.010964,0.013451,-0.014756,0.015505,0.006368,
0.019880,-0.010526,-0.018146,0.025222,0.013858,-0.008993,-0.011943,0.009683,
0.007697,-0.014331,0.001117,0.003330,-0.009006,0.005153,0.004107,-0.016235,
0.009686,0.002727,0.007831,-0.001667,-0.030933,0.014655,0.002858,0.017649}
,
{
-0.569457,0.423892,0.150482,-0.168441,-0.036281,-0.008532,-0.008345,0.006414,
-0.529800,-0.158071,0.023727,0.015628,0.033369,0.001138,-0.021654,-0.030620,
0.166056,-0.002320,-0.017357,-0.015493,-0.005030,0.003092,0.008276,0.027551,
0.106148,0.048275,-0.022995,-0.007731,0.004370,0.007397,-0.030795,-0.023379,
0.025316,-0.005254,-0.006129,-0.020028,0.003760,-0.028220,0.017848,0.017514,
0.005453,-0.016712,0.010570,0.014632,0.037700,-0.024657,-0.040496,0.014013,
-0.035539,-0.036814,0.011706,-0.005570,-0.024806,-0.008466,0.018664,-0.035906,
-0.034730,0.004356,0.020899,0.002219,-0.021326,0.024928,-0.012674,0.019468}
,
{
-0.157647,-0.053623,-0.187465,0.158589,0.106752,-0.110069,-0.136517,-0.056620,
-0.063385,-0.193250,-0.147657,0.093357,-0.072920,-0.007965,0.119364,-0.081786,
0.130931,0.152375,-0.037781,0.025013,-0.036034,0.105289,-0.094081,0.054388,
-0.035825,-0.023538,0.172381,0.121950,-0.054489,-0.122666,-0.001850,-0.056094,
0.031136,-0.137547,0.182190,0.058933,-0.025049,0.031897,0.069389,-0.044867,
0.072815,-0.104461,0.023364,-0.076538,-0.016941,0.074809,0.074434,0.049774,
-0.021896,-0.051011,-0.031781,0.082980,-0.116954,0.084821,-0.026592,-0.060195,
0.006676,0.179642,0.153845,0.048545,-0.201045,0.066429,-0.174388,0.045887}
,
{
0.111909,0.202443,-0.092306,0.039981,-0.064585,-0.069426,-0.037261,0.024405,
-0.195413,-0.042199,-0.000885,-0.012089,0.031064,0.039583,0.111737,-0.069077,
-0.010244,-0.092059,0.138942,-0.094274,0.075156,0.067803,0.064538,-0.148894,
-0.024372,0.153616,-0.188119,-0.181489,-0.014639,-0.109339,-0.025444,-0.045994,
0.076351,0.041276,-0.095909,-0.154658,0.004111,-0.014212,0.018163,0.066846,
-0.077674,-0.133683,0.156613,0.159320,-0.229245,-0.176899,0.170527,-0.070017,
-0.052659,-0.198755,0.109214,0.000208,0.158966,-0.245552,-0.015096,-0.197142,
-0.115869,0.096922,-0.012111,-0.103638,-0.041202,0.057937,0.138709,-0.172359}
,
{
0.033086,-0.203234,-0.151651,-0.067395,-0.061267,0.070469,-0.071018,-0.138356,
-0.047381,-0.146052,-0.075329,-0.094118,0.148961,0.008690,0.012910,-0.043134,
-0.003162,-0.030840,0.142738,0.142754,-0.162521,-0.070780,0.161109,0.192455,
-0.146588,-0.134074,-0.004134,0.069272,-0.170564,-0.128789,-0.010134,-0.007385,
0.189322,0.001229,-0.029774,0.122341,-0.005624,-0.123753,0.020792,0.000867,
-0.038371,0.224328,-0.091253,0.097065,-0.088809,-0.050013,-0.055029,0.041709,
0.053390,0.134017,-0.104084,0.115797,0.071288,-0.006625,0.167767,0.165629,
0.238836,0.204572,-0.002813,0.051396,-0.210486,-0.029869,-0.175503,-0.067290}
,
{
0.092596,-0.040830,0.197928,0.178680,0.014526,0.221269,-0.005396,-0.065261,
-0.021008,-0.106341,0.038207,0.172711,0.075150,0.173690,-0.078433,-0.156590,
-0.007176,0.119459,0.014390,-0.151212,-0.112143,-0.035023,0.082998,0.130824,
-0.130100,0.139511,-0.070583,-0.014632,-0.120489,0.012700,-0.003824,-0.034925,
-0.001429,0.040479,0.082677,-0.137116,-0.204417,-0.093420,0.053031,-0.084299,
-0.086704,-0.071018,0.190060,-0.065745,-0.055736,-0.128568,0.108549,-0.108516,
0.157556,-0.068514,-0.005870,0.237979,-0.099627,0.039953,0.023532,0.083826,
0.068811,-0.051911,-0.020458,0.115421,-0.021808,0.043574,-0.003889,-0.046330}
,
{
-0.023431,0.062540,0.030627,0.070537,-0.023647,0.090225,-0.174280,0.048590,
-0.135043,-0.152166,-0.207191,0.110294,-0.078097,-0.098406,0.114536,0.104142,
-0.061187,0.096308,-0.013521,-0.025019,-0.201457,-0.036542,0.085861,0.210163,
-0.054876,-0.052818,0.024467,-0.003688,-0.085567,-0.072599,-0.041073,-0.167248,
-0.198964,-0.147779,-0.042634,0.139398,0.127168,-0.101317,0.136755,-0.004706,
0.180796,0.055549,-0.055729,-0.005358,-0.219047,-0.242999,-0.043916,-0.011546,
0.161561,0.116240,0.060089,0.224710,-0.024740,0.093121,0.050561,-0.046379,
-0.012693,-0.193998,-0.048416,0.226836,-0.117183,0.066542,0.023416,-0.111871}
,
{
-0.018699,0.014364,-0.180450,0.111560,-0.038649,-0.137980,0.122895,-0.004619,
0.034794,0.089553,0.080793,0.014837,0.164856,0.206189,-0.176249,0.161200,
-0.008341,0.037088,-0.074872,-0.132228,-0.077292,0.020280,-0.244345,-0.121716,
0.038860,0.217255,0.106282,-0.059704,0.142876,0.107497,0.054870,-0.110088,
0.151282,0.141764,0.028477,-0.028655,-0.122112,0.147408,0.227619,0.165347,
0.165298,0.075821,-0.057183,-0.114829,0.140244,0.091746,0.015148,-0.191392,
-0.225723,-0.099504,0.079564,0.132239,-0.036702,0.153849,0.041608,0.117210,
-0.094985,-0.038885,0.096841,-0.117236,-0.013892,0.025532,-0.080178,0.172996}
,
{
-0.029893,-0.350382,0.053470,-0.071909,0.011103,0.009107,-0.007411,-0.008273,
0.137203,0.099667,0.051015,-0.062505,-0.009918,-0.008763,0.006683,0.005454,
0.050552,-0.137073,-0.025590,0.002198,-0.000032,-0.019126,0.012800,-0.005622,
0.061125,0.000372,0.005159,0.007355,-0.004207,-0.011314,-0.001965,0.003144,
-0.007527,-0.004016,-0.004259,-0.007677,-0.000778,0.005212,-0.001473,-0.010330,
-0.003444,0.001471,0.000586,0.016841,-0.006140,0.010487,-0.004746,-0.012302,
-0.002347,0.005250,0.009165,-0.010498,0.008519,0.012007,-0.003402,0.000792,
-0.006362,0.005961,-0.003587,-0.004870,0.006523,-0.008844,0.010227,0.001631}
,
{
0.096325,0.023573,0.139876,0.052605,-0.115064,0.045753,-0.114791,-0.153480,
0.065070,-0.068804,-0.054567,0.106854,-0.046015,0.012566,-0.040148,-0.024274,
0.013715,-0.115552,0.095066,-0.066510,0.158232,0.216862,0.028474,-0.084632,
-0.129646,-0.144751,0.046871,-0.145470,-0.077850,0.076715,0.034592,0.065371,
-0.077167,0.172470,0.121767,-0.148600,0.072405,-0.080425,-0.225842,0.039214,
0.013407,0.025339,0.087062,-0.131542,0.038585,0.003493,0.101951,-0.023083,
0.206610,0.072731,-0.228066,0.190656,-0.007597,0.044005,-0.044377,-0.024619,
-0.068939,-0.208943,0.119743,-0.079764,0.045299,-0.015683,-0.017137,-0.093154}
,
{
0.110184,0.024508,0.018177,-0.099943,0.191390,0.019493,0.049051,-0.188427,
-0.156903,0.155079,-0.123027,-0.171514,-0.029244,0.084715,-0.060245,-0.152730,
0.020394,-0.118031,-0.020835,-0.024525,0.173372,0.118807,0.112284,0.100376,
-0.018861,-0.154682,0.151803,-0.082873,0.088784,-0.037588,0.005615,0.031696,
-0.155917,-0.182477,0.207407,0.092678,0.016672,0.123148,-0.116202,0.039163,
0.079512,-0.062360,0.168367,0.129745,-0.038169,0.117632,-0.146895,-0.054150,
0.237977,0.076435,-0.069462,0.156781,0.159173,0.139778,0.156492,-0.005563,
-0.187444,-0.064854,0.013046,0.118954,-0.135824,-0.004564,0.006374,0.200488}
,
{
-0.013494,0.048422,-0.079711,0.018993,0.070595,0.110189,-0.057514,0.033448,
-0.088685,-0.062770,-0.057616,0.180803,0.203586,0.101204,0.061110,-0.070509,
0.032287,-0.005777,0.008326,-0.030170,-0.203838,-0.054256,-0.161646,-0.000798,
-0.093985,-0.094485,-0.143337,0.102224,-0.058480,-0.126776,0.071968,0.070756,
0.166775,-0.014580,-0.070420,0.069645,-0.119547,-0.199737,0.175881,-0.025044,
-0.044139,0.079437,0.154458,0.215798,0.021323,-0.096453,-0.030318,-0.172425,
0.085802,0.071908,0.017077,0.162699,0.129384,0.090618,0.094905,0.112997,
-0.001147,-0.120177,-0.078248,-0.006489,0.017655,-0.000218,-0.147447,-0.143040}
,
{
0.032767,-0.118132,-0.137718,0.036223,-0.085231,0.114193,-0.148067,-0.054081,
0.005783,-0.221577,0.074798,-0.042636,0.143411,-0.062985,-0.121156,0.173810,
-0.095544,-0.088397,0.146531,-0.121896,0.119995,0.135234,0.153869,-0.146702,
0.016452,-0.036715,0.169216,0.055226,-0.025431,-0.041324,0.032856,0.015891,
-0.053936,-0.187265,0.130475,-0.113785,0.041774,-0.094325,-0.062077,0.125020,
0.078826,-0.136487,-0.155761,-0.034233,-0.109388,-0.061478,-0.055646,0.087941,
0.010781,-0.044484,-0.066467,0.192203,-0.224681,-0.234539,-0.115001,-0.086025,
0.021131,0.024315,0.074360,0.169147,-0.132477,0.087587,-0.031779,-0.077182}
,
{
-0.023303,0.030277,-0.024395,0.047113,0.215329,0.084269,-0.078892,-0.052922,
-0.173682,0.191459,0.066258,0.076044,0.070385,0.128104,0.070430,-0.118942,
0.093353,0.057161,-0.028297,0.000463,0.011471,0.026020,-0.074206,0.060258,
0.124798,-0.124712,-0.217014,0.053048,-0.054911,-0.045275,0.035025,-0.173050,
-0.018268,-0.017047,0.092426,-0.212628,-0.130698,0.120242,0.033633,0.133387,
-0.067541,-0.220620,0.039439,0.231801,-0.108053,0.019574,0.205094,0.020626,
-0.043998,-0.079367,0.017419,-0.094809,0.151421,-0.119715,0.179400,0.124622,
0.153227,-0.053417,0.002862,-0.039550,-0.081309,0.149085,0.095042,-0.112088}
,
{
-0.136697,-0.026726,0.057643,0.128039,0.097846,0.002396,0.037126,0.120783,
0.084652,-0.113382,0.014213,0.078001,-0.192888,0.199998,-0.042830,-0.126909,
0.010166,-0.014729,0.042962,-0.046242,0.009900,-0.101252,0.132696,-0.217507,
-0.138719,-0.051008,-0.022054,0.078663,0.083915,-0.013160,0.205244,0.233749,
0.093479,-0.095215,-0.092401,0.202737,-0.022715,0.037058,0.001702,0.225371,
0.111838,0.052332,0.106640,-0.082363,0.145978,0.087884,0.201635,0.077001,
-0.080192,0.064562,0.005094,0.014910,0.121798,-0.089916,0.136571,-0.011026,
0.193588,-0.124801,0.056935,-0.143058,-0.040919,0.075350,-0.108758,0.120340}
,
{
0.064937,0.082994,-0.056931,0.065442,-0.182232,0.078895,0.107622,0.004024,
0.117742,0.059740,-0.011107,0.090395,-0.125286,-0.041666,-0.169194,-0.080489,
0.076678,-0.123844,0.011727,-0.104999,-0.066498,0.144440,0.092126,-0.156773,
0.018114,0.138371,-0.007067,-0.072386,0.085647,-0.073652,0.088115,0.045500,
-0.010332,0.125035,-0.063241,-0.046512,0.140930,0.041301,0.128288,0.185079,
0.049265,-0.116578,-0.143548,0.010576,0.179469,0.088112,0.128222,0.026407,
0.242403,-0.031975,-0.025226,0.065630,0.098642,0.092428,0.053794,0.033625,
-0.112060,-0.007867,0.089332,-0.007890,0.015806,-0.118169,-0.095205,-0.092731}
,
{
0.877820,0.000324,-0.011072,0.002376,0.000756,0.001600,-0.000066,0.000756,
0.036366,-0.001423,-0.003618,-0.000415,-0.000708,0.000811,0.000042,-0.000169,
0.012378,0.001537,-0.000597,-0.000065,0.000524,0.000000,-0.000026,0.000046,
0.004133,0.000460,0.000143,-0.000368,-0.000217,0.000100,0.000040,-0.000058,
0.001172,0.000476,-0.000042,-0.000049,0.000121,-0.000155,0.000155,0.000066,
0.000099,0.000052,-0.000013,-0.000082,0.000140,-0.000047,-0.000079,0.000155,
0.000014,0.000005,-0.000048,-0.000131,-0.000092,0.000168,0.000141,-0.000123,
0.000208,0.000110,0.000164,0.000129,0.000114,0.000105,-0.000152,0.000073}
,
{
0.625324,0.763549,0.031843,0.023715,0.007177,0.000986,-0.001589,0.001586,
-0.172925,0.081984,-0.000059,-0.003867,0.003542,0.000499,0.000926,-0.000716,
-0.057968,0.005678,-0.005914,0.001810,0.001180,-0.001139,0.002055,0.000990,
-0.021922,0.008563,-0.001253,-0.001676,-0.002656,0.000436,-0.000479,-0.001654,
-0.003257,0.002582,0.000093,-0.000662,-0.002271,0.000497,0.000238,0.000363,
-0.002480,-0.000793,0.001003,-0.002051,0.001039,-0.000886,-0.001720,-0.001429,
0.000977,-0.002350,-0.000027,0.001410,-0.001551,-0.001404,0.000305,-0.001041,
0.000250,0.000192,0.000685,0.000578,-0.000260,0.001395,-0.001656,0.001665}
,
{
0.788822,0.049973,0.579677,0.005454,0.016249,0.013897,0.001247,-0.001000,
-0.168446,-0.005934,0.146866,0.014222,-0.002559,-0.000284,0.004039,-0.002341,
-0.129626,-0.008697,0.016357,0.000345,0.002214,-0.002920,0.006070,0.002961,
-0.044256,-0.015207,0.001817,0.001775,-0.008804,0.002212,-0.001258,-0.003752,
-0.020177,0.005695,0.000533,-0.001251,-0.008270,0.000127,0.001829,0.001409,
-0.004580,-0.000843,0.002734,-0.004581,0.003687,-0.002624,-0.005618,-0.002324,
0.001896,-0.007571,-0.001300,0.004186,-0.003874,-0.003748,0.001368,-0.002753,
0.001256,0.000859,0.001721,0.002004,0.000063,0.003332,-0.003927,0.003889}
,
{
0.546385,0.063204,0.007766,0.502643,0.033567,-0.005308,0.003428,-0.017248,
-0.264109,-0.020153,-0.007062,0.044325,-0.008074,0.006518,-0.003824,0.000437,
-0.123380,0.011403,0.005993,-0.002686,0.001213,-0.001905,0.001059,-0.000592,
-0.027030,0.012290,0.003985,0.000022,0.004333,-0.000666,-0.002154,0.000040,
0.008770,0.000310,0.002320,0.001737,0.002386,-0.000591,-0.001493,-0.002546,
0.001294,-0.000431,0.001372,0.000980,-0.001040,0.001025,0.001101,0.000412,
-0.002416,0.001421,0.003754,0.000002,0.000344,-0.001148,-0.003349,0.001245,
0.001352,-0.003192,-0.000897,-0.001971,0.000281,0.001243,0.000649,0.000824}
,
{
0.662477,0.010227,0.096551,0.132110,0.500048,-0.033707,0.005505,-0.020936,
-0.100669,-0.046107,-0.055247,-0.039244,0.018596,-0.009145,-0.006288,0.009677,
-0.160144,-0.007889,0.005963,-0.031245,-0.008462,0.004160,-0.003614,-0.006466,
-0.007887,0.032872,-0.009161,-0.008128,0.000287,-0.006813,-0.000881,0.010066,
-0.018177,-0.009958,0.002620,-0.012370,-0.000095,0.003918,-0.005937,-0.006022,
-0.000487,-0.000368,-0.004519,-0.001702,-0.009096,0.005650,0.009791,-0.002501,
0.003892,0.010673,0.002603,0.001737,0.009222,-0.002175,-0.004727,0.005818,
-0.004450,-0.004910,-0.009623,-0.009397,-0.008754,-0.009772,0.008079,-0.008877}
,
{
0.198262,-0.076554,-0.036462,0.033257,-0.106718,0.151829,0.022169,0.036088,
-0.048657,0.018182,-0.042885,-0.096461,0.019034,0.113829,-0.018861,0.023132,
-0.203968,-0.066445,0.020114,0.016804,0.003770,-0.004084,-0.011300,-0.011882,
-0.041711,0.008356,0.008928,0.002186,-0.001909,-0.022628,-0.011136,0.017083,
-0.004977,-0.014893,0.010997,0.007271,0.011036,0.009326,-0.019528,-0.018514,
0.013486,0.007285,-0.012251,0.014506,-0.019774,0.014749,0.022976,-0.005047,
0.008933,0.014684,0.016715,0.008762,0.022576,-0.002956,-0.015096,0.020782,
-0.007742,-0.013690,-0.022444,-0.018034,-0.018197,-0.020547,0.029587,-0.012409}
,
{
0.349856,0.244910,-0.215666,0.040592,-0.011018,-0.053525,0.402872,-0.030207,
-0.063900,0.036934,0.063399,0.039506,-0.012025,0.007031,-0.002333,-0.004242,
-0.058458,-0.019076,-0.080360,-0.001769,-0.009357,-0.007246,-0.002875,0.005830,
0.049688,0.008801,0.014536,0.002190,0.008203,-0.002068,-0.005447,-0.006113,
-0.009999,-0.006090,0.009585,-0.009860,-0.001764,0.000574,0.000647,-0.003691,
0.001333,-0.005181,0.004831,0.008172,-0.000620,-0.005449,-0.003055,-0.000543,
0.002236,-0.012928,0.006981,0.003856,0.003435,-0.002918,-0.001391,0.002927,
0.002490,-0.000330,0.000565,-0.006865,-0.016280,0.004887,0.003416,0.008771}
,
{
-0.126544,0.114712,0.083823,-0.079794,-0.094159,0.006131,-0.106028,0.769637,
-0.185599,-0.019839,-0.047229,-0.001658,0.026081,0.035198,0.006818,0.004096,
-0.069537,-0.021363,0.010306,0.002430,-0.018499,-0.002846,0.009130,0.000880,
-0.051235,-0.006426,-0.000786,0.005594,0.011883,0.002422,-0.007943,-0.003266,
-0.010539,-0.024227,0.007021,0.001443,-0.012543,0.009424,-0.007474,-0.005063,
0.008785,0.001405,0.005048,-0.006355,0.001746,-0.001660,-0.007951,-0.007789,
-0.001815,-0.016844,0.006097,0.014523,-0.000748,-0.008518,-0.007212,0.011075,
0.023648,-0.000220,-0.005953,-0.006093,-0.003211,0.001182,0.010252,0.004723}
,
{
-0.702437,0.062018,0.076047,-0.001691,0.005355,-0.000929,-0.001011,0.001052,
-0.185691,0.021923,0.024613,-0.006286,0.002884,-0.000128,0.000569,-0.000099,
-0.077134,-0.012806,0.003955,0.009113,-0.001257,-0.000532,0.001505,0.001183,
-0.042476,-0.008089,0.000788,0.003851,0.001829,-0.000344,0.000319,-0.000314,
-0.001602,0.002188,-0.000512,0.000493,-0.000965,0.000194,0.000048,0.000204,
-0.003293,0.000585,0.001098,-0.000401,-0.000187,-0.000463,0.000155,-0.000654,
-0.000637,-0.000470,-0.000322,0.000278,-0.000280,-0.000299,0.000043,0.000215,
-0.000325,0.000075,0.000254,-0.000225,-0.000240,0.000059,-0.000435,0.000440}
,
{
-0.134734,-0.732166,-0.006421,0.043581,-0.015406,0.016830,-0.007345,0.002668,
-0.032723,-0.194854,0.003844,0.003813,0.000144,-0.000249,-0.000995,0.002083,
-0.030588,-0.067730,-0.003450,-0.001300,0.002067,-0.000178,-0.001358,-0.001512,
-0.009373,-0.023643,-0.006332,0.008255,0.012205,-0.001489,0.001064,0.002952,
-0.000312,-0.008937,0.000318,0.000289,0.003280,-0.000855,-0.000340,-0.000903,
0.002330,-0.000377,0.000064,-0.000677,-0.002630,0.000821,0.003016,0.000679,
-0.001962,0.003009,0.001403,-0.000518,0.002030,0.000728,-0.001597,0.000770,
-0.000840,-0.001108,-0.001469,-0.001754,0.001063,-0.002253,0.002939,-0.002243}
,
{
-0.002480,0.020840,-0.478951,-0.006595,0.031284,-0.002136,-0.002063,0.011632,
0.032101,0.025868,-0.169697,0.018963,0.004465,0.004243,-0.000103,0.003091,
0.041223,0.001966,-0.039076,-0.008305,-0.009047,-0.000828,-0.003431,-0.003178,
0.036804,0.009114,-0.002808,0.001703,0.002587,-0.001916,0.002558,0.003293,
0.005194,0.008355,-0.000540,-0.003683,0.003538,0.003342,-0.003316,-0.001249,
0.003971,0.001038,-0.000323,0.003610,-0.003976,0.001637,0.005595,0.000651,
-0.002748,0.005082,-0.002258,-0.001822,0.003595,0.000735,-0.002965,0.003836,
-0.001608,-0.000209,-0.002487,-0.001465,0.000031,-0.003578,0.003866,-0.003663}
,
{
0.086975,0.041130,0.034279,-0.272897,-0.008986,0.010735,0.007430,-0.007951,
0.049219,-0.019744,0.033568,-0.119932,0.004212,0.032229,-0.003218,0.000417,
-0.032453,-0.025298,-0.010931,-0.000514,-0.004077,-0.001239,-0.005811,-0.007465,
-0.007956,0.011736,-0.005551,0.000656,-0.026954,0.012580,0.002599,-0.008221,
-0.004864,0.000301,-0.001916,0.001065,0.009847,-0.003877,0.003509,-0.004709,
0.004008,-0.003980,-0.007174,0.004566,-0.000975,0.005516,0.000662,0.002137,
0.019360,-0.000889,-0.003371,-0.008676,0.003620,0.007636,-0.005252,-0.002839,
0.004338,-0.001894,-0.002824,0.005479,0.004400,0.010742,-0.000203,0.008402}
,
{
-0.205268,0.263133,0.539662,0.187639,-0.322102,-0.025043,-0.037743,0.048676,
-0.107349,0.287505,-0.123970,-0.223130,-0.063322,-0.014491,0.011418,-0.001271,
0.030448,0.025315,-0.064459,-0.035667,0.018753,-0.015494,0.002553,0.006769,
-0.136307,0.004690,-0.065257,-0.012813,0.009421,-0.004710,0.012444,-0.004284,
-0.021492,-0.007043,0.022646,-0.017883,-0.005034,0.005015,-0.001720,0.005394,
0.000342,0.002281,0.014132,-0.016312,0.002212,-0.006933,-0.003892,-0.002548,
-0.002367,-0.003473,-0.009550,0.004046,-0.009173,0.000118,-0.001343,-0.006107,
-0.002743,0.007985,0.005796,0.005621,-0.000862,0.001013,-0.007168,0.000762}
,
{
0.174315,0.040199,0.416708,0.115307,0.050143,-0.004269,0.001188,-0.027723,
-0.245445,-0.564013,0.175119,0.711137,-0.115736,-0.008097,0.015996,0.006271,
0.111932,0.054053,-0.160962,-0.083777,-0.029174,-0.340987,-0.007026,-0.008367,
0.408562,0.288491,0.012282,-0.026814,-0.006418,-0.008513,-0.032595,0.012178,
-0.023337,0.312330,0.019745,-0.247867,-0.000700,0.005974,-0.005427,-0.013971,
0.038581,0.005667,-0.003429,0.014212,0.000615,0.008759,0.005933,-0.007810,
-0.011121,-0.001080,0.013793,0.003195,0.003064,-0.018376,-0.015910,0.009091,
-0.000812,-0.019086,-0.013810,-0.005843,-0.008297,-0.012830,0.017023,-0.016134}
,
{
-0.153914,0.042935,0.034110,-0.118702,-0.133167,-0.022101,0.043888,0.155809,
0.238775,0.070522,-0.010004,0.078271,-0.088185,-0.169039,-0.013078,-0.038324,
0.164375,-0.120455,-0.017761,-0.047017,-0.061771,0.174832,-0.111202,-0.012733,
-0.042259,-0.024522,0.076822,0.066415,0.000739,0.096243,-0.084763,0.104098,
0.195591,0.035169,-0.005879,0.214062,0.030974,-0.003933,0.094869,-0.161529,
-0.122278,-0.105224,0.101428,0.016911,0.032481,-0.114087,-0.129856,-0.048546,
0.055784,-0.024585,-0.018401,-0.017708,-0.074884,0.045828,0.210396,0.080730,
-0.152449,-0.059158,0.041654,-0.093029,-0.116812,0.231788,-0.080257,-0.054275}
,
{
0.367484,0.179045,0.064796,-0.416335,-0.228167,0.186951,0.089884,-0.131716,
-0.560036,-0.120796,-0.307142,0.159144,0.046184,0.152948,0.010140,0.009508,
-0.046445,-0.174541,-0.417429,-0.090729,-0.015395,-0.340064,-0.016558,-0.012233,
0.420545,0.214642,-0.044739,-0.012527,0.016904,0.000995,-0.046397,0.012344,
0.012380,0.305310,0.011086,-0.267201,0.002944,-0.006282,-0.005891,-0.009235,
0.024471,0.007794,-0.034925,0.008721,-0.011840,0.005813,0.018388,-0.007455,
-0.011306,0.018961,0.016919,0.011563,0.006888,-0.020174,-0.010841,0.013926,
0.008103,-0.007070,-0.016372,-0.009999,-0.025460,-0.007718,0.008707,-0.012178}
,
{
0.810191,-0.131720,-0.161838,-0.010044,-0.010214,-0.008513,0.000574,-0.001615,
0.224695,-0.018341,-0.050111,-0.004190,0.000667,-0.002699,0.002346,-0.001074,
0.087489,0.012384,-0.014204,-0.006582,0.002146,-0.001104,0.000246,0.001843,
0.044039,0.017911,-0.005062,0.000370,-0.003069,0.000681,0.000477,-0.001760,
0.013092,-0.002357,0.000891,-0.002252,-0.004174,-0.000680,0.001920,0.001257,
0.000305,-0.000449,0.003708,-0.000832,0.001910,-0.002223,-0.003322,-0.000905,
0.000806,-0.003861,-0.000026,0.001124,-0.002179,-0.000859,0.000569,-0.001570,
0.000620,0.000906,0.001642,0.000477,0.000579,0.000931,-0.002144,0.001246}
,
{
0.111464,0.849024,0.013390,-0.038526,-0.003561,-0.009169,-0.001816,-0.000017,
0.015568,0.160058,-0.014772,-0.035205,0.000009,-0.008262,-0.000358,0.000714,
0.026599,0.072855,-0.019163,-0.006024,0.005209,0.002361,-0.002984,-0.001601,
0.026168,0.035589,0.000813,-0.010615,-0.014729,0.000152,0.001396,0.001857,
0.009152,0.015845,-0.001194,-0.003196,0.000700,-0.000156,-0.000252,-0.000213,
0.006102,0.000683,-0.001734,0.000429,-0.001037,0.001071,0.001988,0.001326,
0.002662,0.001626,-0.001155,-0.001869,0.001530,0.001329,0.000009,0.000359,
-0.000709,-0.000077,-0.000849,0.000430,0.000291,-0.001667,0.001833,-0.001588}
,
{
-0.058623,0.031292,0.386977,-0.001277,-0.010998,-0.030779,-0.001016,-0.000110,
0.085092,0.052856,0.157569,-0.027074,-0.011297,-0.011099,-0.000554,-0.000166,
0.002334,-0.028975,0.050565,-0.008255,-0.001524,0.006437,-0.006540,-0.002878,
0.026555,-0.027867,0.017283,0.006422,0.001165,0.000955,0.002175,0.001375,
-0.017864,0.008239,0.003050,-0.002108,0.001999,-0.000481,0.001681,0.000591,
-0.001276,0.001825,-0.001365,0.001137,-0.001212,0.001047,0.003101,0.001765,
0.002422,0.002887,-0.002334,-0.006955,0.002242,0.006273,0.002778,-0.000538,
0.002478,0.003140,0.000260,0.001426,-0.001813,-0.000565,0.000030,-0.001857}
,
{
-0.290094,-0.511941,0.293981,0.231381,0.143133,0.067151,0.006457,-0.005061,
-0.173833,-0.210880,-0.082238,0.090413,0.034188,-0.016492,-0.015627,0.015602,
0.139446,0.054546,-0.079610,0.244404,0.030292,0.007185,0.003503,-0.014125,
0.149987,-0.068140,0.038114,0.005665,-0.021537,-0.011831,-0.006692,0.020346,
-0.038140,0.009558,-0.011920,0.038758,0.010753,0.005534,-0.016317,-0.007790,
-0.037940,-0.000480,-0.019651,-0.005399,-0.014582,0.014511,0.014891,0.011775,
0.008172,0.029508,0.007305,0.004620,0.013548,-0.008757,-0.008084,0.009586,
-0.015611,-0.021770,-0.018519,-0.015401,0.001105,-0.017084,0.009899,-0.015552}
,
{
0.044972,-0.028902,-0.308594,-0.252091,0.043222,0.030152,0.020996,-0.013945,
-0.550046,-0.488188,-0.062573,0.068063,0.025634,0.099631,-0.028144,-0.006464,
-0.030308,0.015337,-0.021170,-0.089706,-0.029845,-0.005023,0.010329,-0.010215,
0.114532,0.003603,-0.011810,-0.010750,-0.029768,0.018843,-0.023282,-0.014672,
-0.015336,0.016709,-0.010393,-0.024234,0.023494,-0.017557,0.000435,-0.011312,
-0.014044,-0.020622,-0.010975,0.002356,0.018292,0.012140,-0.009090,0.017824,
0.033141,0.019037,0.013953,-0.002808,-0.002175,0.004203,0.006892,-0.006198,
-0.013596,-0.016530,-0.000231,-0.000769,-0.004422,0.009987,-0.001050,0.008941}
,
{
0.128044,-0.869776,-0.283576,0.004757,0.045067,-0.061048,0.084565,-0.053211,
0.416126,-0.741679,-0.013702,-0.124006,0.271114,0.013699,-0.005968,-0.028268,
-0.486617,0.080941,-0.325776,-0.098294,0.283334,0.020417,0.011432,-0.031239,
-0.174214,-0.139500,-0.084198,-0.089204,-0.057346,0.040296,-0.033916,-0.024498,
0.122284,0.079492,-0.048345,0.059736,0.042853,-0.001585,0.029886,-0.014887,
-0.026024,-0.032116,-0.064401,-0.079772,0.019495,0.024996,-0.017389,0.010569,
0.032464,0.027279,-0.006360,-0.021233,-0.028876,0.022809,0.000495,-0.008867,
-0.002229,-0.016694,0.028654,0.024966,0.017022,0.030724,-0.023177,0.030596}
,
{
0.532429,0.481387,0.323829,0.390186,0.299988,0.085963,0.109184,0.061793,
0.428617,0.402149,0.020655,0.110906,0.061611,-0.062915,0.092915,-0.122080,
0.154890,0.027275,0.239388,0.125599,-0.146989,0.130805,0.111249,-0.050775,
0.166114,-0.000070,0.075905,0.035473,0.074686,0.006368,0.036277,-0.033107,
-0.044228,0.052854,0.022325,-0.094578,0.034821,0.069626,-0.047220,-0.080864,
-0.135253,-0.138063,-0.036759,0.144137,0.011770,-0.053824,0.029924,-0.041610,
0.006118,-0.100891,-0.108060,0.164080,-0.005975,0.194260,-0.041706,-0.151287,
-0.052918,0.059910,-0.101089,0.175813,0.056201,-0.067697,-0.058562,0.020393}
,
{
-0.073821,-0.085823,0.004627,0.048256,-0.159062,0.096834,-0.080488,0.165102,
-0.013150,-0.051199,0.096815,0.142687,0.101144,0.032460,0.174078,0.067519,
-0.080034,0.001586,-0.141383,0.078916,-0.052348,-0.009706,-0.057986,-0.033648,
0.058834,0.053633,-0.034793,-0.042372,-0.087059,-0.011839,0.165880,0.236229,
-0.102209,0.158393,0.004673,0.079370,-0.191004,-0.177090,0.003635,-0.054654,
-0.098158,0.066484,0.010901,0.066887,-0.077680,0.111928,-0.011689,0.128117,
0.102371,0.038629,-0.081335,-0.045776,0.154484,-0.034940,-0.092682,0.057087,
-0.017573,-0.057606,-0.028124,-0.142540,-0.012447,-0.024268,-0.132106,-0.100161}
,
{
-0.666632,0.176470,0.118850,-0.004570,0.012791,0.000820,0.003279,-0.000682,
-0.266586,0.018085,0.057435,-0.008766,-0.004101,0.001338,-0.000266,-0.001392,
-0.116328,-0.036302,-0.008822,0.013525,0.004601,0.001931,-0.005469,-0.000684,
-0.004706,0.005974,0.002062,0.000994,0.013085,0.001509,0.001479,-0.000599,
-0.008486,-0.008440,0.001874,0.001374,0.002591,-0.001850,0.001590,0.000724,
-0.001493,0.001858,-0.001443,0.004387,0.000236,-0.000168,0.000766,0.002189,
-0.000964,0.001919,-0.002093,-0.002937,0.000458,0.003389,0.001322,0.000021,
-0.002588,0.001201,0.001240,0.001260,0.001237,0.000458,0.000366,0.000460}
,
{
0.196584,-0.779433,-0.068908,0.042151,0.008929,0.011082,0.000920,-0.006315,
0.043063,-0.213684,0.013279,0.021167,0.007034,-0.002581,0.004320,-0.004152,
0.052998,-0.085393,0.007725,-0.013206,-0.010072,-0.002437,0.007464,0.002758,
-0.033199,-0.058090,0.009218,0.010034,-0.012123,0.003563,-0.002319,-0.005207,
0.006063,0.023954,-0.012904,0.002947,-0.008680,-0.001503,0.003481,0.001890,
0.008033,0.001661,0.005061,-0.003012,0.004665,-0.002670,-0.006272,-0.001325,
0.000085,-0.008034,0.000535,0.006046,-0.004154,-0.004410,0.001881,-0.003854,
0.002288,0.000845,0.002821,0.002633,-0.000617,0.005561,-0.004657,0.005179}
,
{
0.103179,0.389108,-0.519447,-0.029300,0.045824,0.054864,-0.015160,0.022119,
-0.078908,0.229979,-0.348187,-0.082031,-0.010967,-0.002550,-0.000498,0.012923,
0.037268,-0.091213,-0.011338,-0.121218,-0.000074,-0.021486,-0.000182,-0.006792,
0.039146,-0.043362,0.009127,-0.004011,-0.027674,-0.008855,0.006784,0.006451,
0.015423,-0.081503,0.027714,-0.029674,-0.000814,0.006740,-0.011098,-0.010042,
-0.037141,0.004746,-0.000150,-0.004890,-0.009981,0.004583,0.006486,-0.005855,
0.000449,0.000529,-0.001812,0.008755,0.009224,-0.014583,-0.008444,0.007515,
-0.004918,-0.014080,-0.014228,-0.015310,-0.006584,-0.010177,0.016455,-0.010491}
,
{
-0.984051,-0.185387,0.073258,-0.054480,-0.031024,0.005017,0.003492,-0.012806,
0.195871,0.409274,0.161664,-0.138884,0.022162,-0.040253,0.008159,-0.014197,
0.021511,0.046927,0.046844,-0.077246,-0.003351,-0.015792,-0.001150,0.008630,
0.031563,0.000184,-0.019498,-0.008742,0.003359,0.010605,0.013357,-0.003176,
-0.016467,-0.006137,-0.005030,0.002832,-0.005948,-0.005033,0.019107,0.012198,
0.006370,-0.001078,0.010148,-0.003081,0.009069,-0.008997,-0.003092,0.002324,
-0.001919,0.000687,-0.003024,-0.010160,-0.007647,0.013510,0.011660,-0.009639,
0.004698,0.019419,0.019608,0.024005,0.017844,0.003957,-0.030096,0.007632}
,
{
-0.021176,-0.643817,0.177423,0.260927,-0.110440,-0.084010,0.016745,-0.056381,
0.649016,0.661820,0.040125,-0.306788,0.024047,-0.259388,0.010121,-0.025485,
-0.174419,0.146637,0.140476,-0.215830,0.007064,0.022778,-0.003456,0.002407,
-0.059692,0.108262,0.003222,-0.061973,0.012686,-0.004032,0.003616,0.008750,
-0.004054,-0.000369,0.022743,-0.028560,0.022620,0.006312,0.004436,0.001360,
-0.035973,0.001547,-0.045838,0.030712,0.022663,-0.000068,0.012117,0.027484,
0.002451,0.001948,0.007164,-0.025717,-0.009177,0.018227,0.017515,-0.018367,
0.005499,-0.008126,0.003366,0.015600,0.017671,-0.024614,-0.005006,0.000421}
,
{
0.049842,0.087249,-0.065859,-0.218740,-0.173385,-0.099933,-0.023416,-0.054088,
-0.039791,0.180445,-0.075723,-0.061978,-0.139460,-0.111458,-0.126201,0.073803,
-0.052336,-0.152125,0.066597,0.200810,-0.144760,-0.128108,0.007747,-0.043467,
-0.025192,0.222112,0.048357,-0.073812,0.040259,0.012517,-0.024722,-0.173523,
-0.064377,0.072906,0.099919,0.023928,-0.141588,0.009240,-0.089741,0.041393,
-0.023678,-0.024827,0.068561,-0.037815,0.120855,0.248126,-0.077726,-0.109995,
-0.021424,-0.034522,-0.050935,-0.240894,-0.055600,-0.221624,-0.010659,-0.034124,
0.025717,-0.017331,-0.168366,0.128181,0.127173,0.030988,-0.012162,0.024788}
,
{
-0.027046,0.036374,0.001258,0.008748,0.078357,0.025794,-0.102320,0.146911,
-0.175858,-0.009418,0.058581,0.086384,-0.213431,-0.125235,0.033045,0.025251,
0.123674,-0.026969,-0.245771,-0.083322,0.091982,-0.019534,-0.038359,0.164477,
-0.091864,0.175591,-0.030887,-0.022306,-0.056939,0.177232,0.108934,0.048407,
0.040221,0.013582,-0.214265,-0.154384,0.182169,0.097712,-0.018068,-0.098325,
-0.073372,-0.024900,-0.228831,0.170963,0.050693,-0.041698,0.111347,0.191754,
-0.115668,-0.031138,0.132837,0.030620,-0.134924,-0.050671,0.152412,0.119897,
0.106961,0.061983,-0.107459,-0.088008,0.077914,0.033038,-0.117707,-0.165422}
,
{
-0.106636,-0.025149,-0.025546,0.011553,0.059518,0.167244,-0.056629,-0.015557,
-0.039742,0.162416,-0.239589,-0.015901,-0.002048,-0.001346,0.037881,0.182063,
-0.105057,0.224213,-0.158791,0.051714,-0.019518,-0.077230,-0.093323,0.005638,
0.177401,0.176423,0.001353,0.059971,-0.024732,-0.016879,-0.061080,0.108771,
-0.031993,-0.037356,-0.191889,0.061141,0.059768,0.100846,-0.142509,0.020825,
-0.020476,0.027714,0.122100,-0.042255,-0.082682,-0.074328,-0.115755,-0.134549,
-0.128384,0.045325,-0.007315,0.035082,-0.157957,0.115964,-0.034255,0.033614,
0.089204,0.026183,-0.104046,0.100587,0.176701,0.222205,-0.033281,-0.030864}
,
{
0.606021,0.033357,-0.075909,-0.055901,0.049375,0.025188,-0.002360,0.007552,
0.135399,-0.004678,-0.053295,0.003326,-0.002104,0.027934,-0.000337,-0.003011,
0.077471,0.067430,0.000996,0.006358,0.004777,0.003192,0.003318,0.002471,
0.031391,0.032898,0.003202,-0.012979,0.004176,-0.000991,-0.001189,0.001878,
0.009244,0.025554,0.003884,-0.001115,-0.001448,-0.002252,0.002871,0.001328,
-0.004983,-0.000144,0.005154,-0.001666,0.006193,-0.001826,-0.005093,-0.000784,
0.003374,-0.000584,0.002158,0.000025,-0.004835,-0.001261,0.003764,-0.003404,
0.004984,0.002153,0.003689,-0.000262,-0.000509,-0.000086,-0.003098,-0.000808}
,
{
-0.398730,0.850892,0.070628,-0.041644,0.000224,0.011185,0.017989,0.000978,
0.120700,0.178630,0.025940,0.023364,0.027613,0.022004,-0.011822,0.015603,
0.064007,0.067247,0.022897,0.023775,0.016401,-0.005286,-0.013090,-0.016179,
0.015149,0.017751,-0.010604,0.019203,-0.006299,-0.009840,0.003166,0.007698,
0.006153,-0.004320,0.004299,-0.006299,0.018937,0.009172,-0.012798,-0.016054,
0.000703,-0.006973,-0.023473,0.003623,-0.017755,0.009450,0.015213,-0.009524,
0.003065,0.012923,0.010418,0.002077,0.018286,-0.000326,-0.015571,0.010301,
-0.001910,-0.016735,-0.015300,-0.013148,-0.008369,-0.011303,0.015255,-0.004484}
,
{
0.514281,0.438996,0.230775,-0.025675,0.537459,0.027974,0.007861,-0.003931,
0.392175,0.260455,0.121908,-0.065295,-0.059158,0.104599,0.024561,-0.011508,
0.183019,0.036783,-0.000360,-0.019628,0.004404,-0.003334,-0.018989,0.027742,
-0.096990,-0.009709,0.051038,-0.021933,-0.007981,-0.002681,0.031086,-0.002752,
-0.031238,-0.019725,0.001877,-0.005941,0.009864,-0.016091,0.015553,0.021412,
0.025266,-0.000716,0.000509,-0.016305,0.006887,-0.022442,0.004645,0.020044,
-0.007522,-0.006781,-0.031081,-0.011973,-0.004380,0.006835,0.022685,-0.015148,
0.007283,0.029378,0.017093,0.023004,0.019209,0.005357,-0.011961,0.003904}
,
{
0.916867,0.517110,0.150330,0.244996,0.421234,-0.005865,0.056098,-0.000424,
0.195405,-0.136827,0.182729,0.060155,-0.061980,0.116038,0.022208,0.012316,
0.102973,-0.063915,-0.058667,0.085523,-0.025822,-0.000226,0.028776,-0.013172,
-0.186316,0.011098,0.009236,0.018540,0.035425,0.022761,-0.008248,0.010732,
-0.041475,-0.001251,-0.006265,0.010046,-0.009356,0.025697,0.005515,-0.020136,
-0.033840,0.007811,0.030014,-0.003387,-0.012042,0.001887,0.008360,0.020358,
-0.028552,0.021188,0.003058,0.010532,-0.010519,-0.012836,-0.018261,0.002975,
0.014880,-0.022860,-0.005304,-0.011885,-0.015353,-0.001448,-0.005377,-0.023445}
,
{
-0.462327,-0.447300,-0.414116,-0.176225,-0.073057,-0.144399,0.072248,0.053667,
-0.143806,-0.571167,-0.041727,0.098497,0.267891,0.002745,0.127897,-0.094557,
0.010968,-0.072393,-0.209255,0.000232,0.204456,0.088677,0.074674,-0.009303,
0.140303,-0.259650,0.023113,0.005847,0.079435,-0.012965,0.063098,-0.002478,
0.031568,0.103536,0.003563,0.001229,0.047114,0.079615,-0.071565,-0.025378,
-0.104626,-0.119265,-0.048525,0.029197,-0.015829,-0.088382,0.064110,-0.067990,
0.018000,-0.136661,-0.128682,0.197384,0.025419,0.175381,-0.073423,-0.130164,
-0.008558,0.063385,-0.133035,0.144197,0.013593,-0.092243,-0.021610,-0.000116}
,
{
0.064270,-0.016260,0.043423,0.039241,-0.132928,0.107031,0.123063,-0.135403,
-0.104819,0.104005,-0.122215,-0.203855,0.078447,-0.057833,-0.023620,-0.146356,
-0.196414,0.111114,-0.121770,0.082682,-0.001133,0.166025,0.044618,0.131284,
-0.007142,-0.012677,0.113928,-0.012258,0.069565,0.019216,0.034843,0.166403,
-0.043086,-0.112650,-0.121423,-0.063492,0.163927,0.094045,0.029328,-0.180383,
-0.211011,0.089410,-0.003138,0.114121,0.176217,0.076706,-0.009526,0.189102,
-0.024285,-0.037123,0.229032,0.060551,-0.007710,0.132609,-0.223388,-0.040892,
0.158404,0.035456,0.039897,0.053314,0.169324,-0.023349,0.119511,-0.120689}
,
{
0.059112,-0.184757,-0.132347,-0.100161,-0.127233,-0.073292,0.052708,0.150442,
0.140892,-0.056546,0.128845,0.032084,0.044861,0.089550,-0.074717,0.066491,
-0.137926,0.059294,0.173368,0.098089,0.132683,0.063777,0.038249,0.103958,
-0.049332,0.043501,-0.100192,-0.171087,0.024221,0.056026,0.150024,0.045983,
0.197047,-0.025389,0.042558,0.072935,0.060269,0.165003,-0.073657,0.143520,
0.011440,0.018571,-0.049408,-0.051523,-0.116293,-0.101195,0.030986,0.050819,
-0.085484,0.117215,0.085412,0.045912,-0.016549,-0.025815,0.011741,-0.111530,
0.110640,-0.000454,-0.001632,-0.033543,-0.135667,0.024483,0.030958,0.069889}
,
{
-0.078673,-0.113044,-0.046768,0.016496,-0.188811,-0.041651,0.062199,-0.081531,
-0.149006,0.018252,-0.058881,-0.065946,0.103925,-0.034809,-0.109330,-0.059956,
0.058376,-0.181350,-0.008375,0.011647,0.082854,0.090477,-0.167257,-0.122658,
-0.025650,0.163395,0.011660,-0.025093,0.032951,0.090895,-0.013111,0.031417,
-0.115009,-0.139073,0.135921,-0.005187,0.113233,-0.039853,-0.000085,0.079358,
0.003890,-0.189392,0.200003,0.109771,-0.048391,0.160850,-0.199962,-0.111893,
0.042864,-0.021672,0.214129,0.015862,-0.138486,0.201340,0.190760,-0.143064,
-0.041022,-0.106198,0.099046,-0.123534,0.141676,0.184121,-0.078033,0.063932}
,
{
-0.408646,0.176496,0.072702,-0.035371,0.007202,0.007998,-0.003560,0.000804,
-0.009661,0.142816,0.039979,0.007161,0.010105,0.007152,0.002809,0.019919,
0.156583,-0.097937,-0.023471,0.000199,-0.002613,0.002341,-0.007324,-0.027500,
-0.070757,-0.024118,-0.013452,-0.001970,-0.016443,-0.003458,0.007408,0.008944,
-0.056938,-0.008651,0.011955,0.013618,-0.002050,0.015067,-0.016035,-0.006576,
0.011194,0.003835,0.002959,0.011132,-0.020388,0.021638,0.020005,-0.004466,
0.035791,0.014363,-0.003003,-0.007256,0.021260,-0.001629,-0.017373,0.010588,
0.003187,-0.018165,-0.022103,-0.014297,0.004078,-0.007155,0.018361,-0.012004}
,
{
-0.009580,0.037817,-0.167743,0.224983,-0.045072,-0.015915,0.018047,-0.008933,
-0.070280,-0.168816,-0.126699,-0.038579,-0.021384,-0.028861,0.042955,-0.203368,
0.039283,0.166476,0.151400,-0.025581,0.066501,-0.170918,0.000681,-0.044160,
0.013969,0.055674,0.020211,0.232757,-0.080648,0.001603,0.078478,0.131373,
-0.136580,-0.078336,-0.246274,0.232032,0.000911,0.075238,-0.060208,-0.004216,
0.053217,0.042847,-0.050606,0.091410,0.012883,0.011442,0.109876,0.103367,
-0.050612,-0.102847,-0.111355,0.247760,-0.099587,-0.014304,-0.137626,-0.103457,
-0.123277,-0.167468,0.064186,-0.069224,-0.117752,0.183512,0.081786,0.154569}
,
{
-0.645944,0.297812,0.145114,-0.098715,0.285151,0.118780,0.005618,0.048438,
0.071838,0.734037,-0.183536,-0.123914,-0.057188,0.038669,-0.016728,0.011848,
-0.135197,-0.146513,0.252829,-0.092056,0.020471,-0.051598,0.021399,0.021095,
-0.036205,-0.006612,-0.017115,0.002529,0.000792,-0.026568,-0.019322,0.032542,
-0.067208,-0.006709,0.022849,0.017054,0.011457,0.004068,-0.009298,-0.007905,
0.021851,-0.029561,-0.006916,-0.005874,0.029966,-0.023724,-0.015148,0.002584,
-0.051489,-0.004241,0.015548,0.019880,-0.009216,-0.018696,-0.010365,0.013309,
-0.025379,0.001598,-0.026462,-0.032350,-0.026692,-0.024371,0.020942,-0.036900}
,
{
0.060786,0.090546,0.061369,-0.027028,-0.067669,0.031564,0.138366,0.014858,
0.076273,-0.041129,-0.112588,-0.118404,0.063790,0.000130,-0.047067,0.050599,
0.048105,-0.124339,-0.081540,-0.023582,-0.220337,0.109694,0.045195,0.160408,
-0.035297,0.017390,-0.166490,-0.108492,0.128252,-0.061921,-0.105965,0.005883,
-0.058120,-0.093161,-0.239550,-0.121657,-0.058997,0.187068,-0.134082,-0.097570,
-0.027562,0.119536,0.111596,-0.035225,0.152000,0.063373,-0.147282,-0.008667,
0.087246,0.086774,-0.157492,-0.215428,0.197008,-0.026884,0.164974,-0.038290,
0.027616,-0.176723,-0.148724,-0.053675,-0.127732,-0.246149,-0.205633,0.044127}
,
{
-0.015238,0.103606,-0.171925,-0.142155,0.100740,0.133684,0.175925,-0.116249,
0.225160,-0.114425,-0.071386,-0.108843,-0.080147,0.189795,0.023224,-0.100618,
0.012487,0.008735,0.074056,0.236422,-0.083057,0.156511,0.087715,-0.039273,
0.019378,-0.102876,-0.167529,0.111878,-0.054073,0.082271,-0.040231,-0.084405,
0.027167,0.108538,-0.113026,-0.010896,0.050214,0.108261,-0.136746,-0.107441,
0.056687,0.105631,0.196290,-0.111330,-0.014924,-0.055397,-0.013425,0.133278,
-0.156912,-0.023985,-0.236164,-0.077473,-0.096193,-0.068355,-0.097859,0.141847,
0.127749,-0.107507,0.018012,0.057447,-0.054082,-0.111276,-0.072346,-0.132055}
,
{
0.134657,0.019020,-0.165696,0.181726,-0.031748,0.038190,0.027017,0.034263,
-0.116283,0.049227,0.180912,0.152777,0.031429,0.061851,0.000585,-0.119141,
0.021673,-0.010356,-0.017469,0.082091,0.110611,0.206878,0.053775,0.056400,
0.005948,0.030432,-0.132627,-0.089718,0.024259,-0.048357,-0.066807,-0.129976,
-0.060005,-0.213428,-0.026137,-0.136435,-0.045209,-0.113354,0.174664,0.143721,
0.074519,-0.153696,-0.158548,0.028984,-0.079474,0.025251,-0.034990,0.157721,
-0.061046,0.008767,-0.124723,0.122544,-0.211132,-0.061059,0.241585,-0.033109,
-0.003028,0.110056,0.155259,0.005024,0.004549,0.124232,0.022425,0.012141}
,
{
-0.169830,0.048708,0.039262,0.009166,0.079402,0.113334,0.052413,0.014305,
0.070645,0.067442,-0.077377,-0.120611,-0.036249,-0.134407,-0.125346,0.062108,
-0.009515,-0.222874,-0.005809,-0.032947,0.136278,-0.154393,0.029561,-0.040762,
-0.063068,-0.006840,-0.015532,0.240139,0.191196,0.182555,-0.041601,-0.037706,
0.206481,-0.093127,-0.129614,0.097535,0.111495,-0.068833,0.132845,-0.044266,
-0.091894,0.011945,0.155453,0.033112,-0.095883,-0.241548,-0.016243,-0.006902,
0.116721,-0.014936,-0.040351,0.068930,0.022753,0.091804,0.107358,-0.158979,
0.097749,-0.157734,0.027525,0.095226,0.106222,-0.072804,0.028124,-0.074277}
,
{
0.114400,0.044886,0.150202,0.175884,-0.041147,-0.012910,-0.104860,-0.009399,
-0.007276,0.084286,0.151485,0.042832,0.049877,0.061052,0.083527,-0.212306,
-0.057589,0.123094,0.025978,0.194790,0.022373,-0.108113,0.088613,-0.130551,
-0.243423,0.209214,-0.246921,-0.138560,-0.031168,0.010553,0.150903,0.005834,
-0.128882,-0.133333,-0.055737,0.067226,-0.086777,0.000323,0.058371,0.117559,
-0.006045,-0.012186,-0.022514,0.013294,0.079473,0.114434,0.050002,-0.235616,
-0.075559,0.029442,0.080186,0.206403,0.089365,-0.024538,-0.076540,0.126505,
-0.061138,0.226810,0.095133,-0.067682,-0.169380,-0.183421,-0.106211,0.072356}
,
{
0.146890,-0.087489,-0.003236,0.000365,-0.008150,0.020710,0.030238,-0.000958,
-0.275292,-0.138860,-0.052528,0.008712,0.014770,-0.021650,-0.009056,-0.009985,
0.149113,0.033856,-0.036343,-0.017923,-0.016510,-0.037519,0.006889,0.028516,
0.075871,-0.029729,0.022392,-0.018917,-0.009361,-0.014656,-0.009917,0.002583,
0.014580,0.003042,-0.021734,-0.022042,0.009088,-0.030132,0.021434,0.017466,
0.054997,-0.003457,-0.007673,-0.016236,0.011546,-0.025747,-0.002754,0.006260,
-0.037240,-0.014984,0.015945,0.013686,-0.015227,-0.009387,0.027663,-0.019998,
0.021960,0.003612,0.012765,-0.011011,-0.036608,0.005034,0.007088,0.005212}
,
{
-0.668281,-0.616391,0.647228,-0.720036,0.086876,0.016280,-0.029104,-0.076345,
-0.306417,-0.096973,-0.119415,0.079671,0.006049,-0.061631,-0.009668,0.016094,
-0.615274,0.753202,-0.524999,-0.005251,0.003849,0.043961,0.009182,-0.003194,
-0.137646,0.188479,-0.019154,-0.005872,-0.024306,0.029998,-0.004605,-0.004317,
-0.056544,-0.022141,-0.027948,0.004395,0.024074,0.018049,0.002835,0.000866,
0.058829,0.014802,0.032678,-0.022496,-0.005502,0.011983,-0.025189,0.004026,
0.011253,-0.009242,0.005101,-0.011128,0.005576,0.016110,-0.029854,-0.021170,
-0.017679,-0.025370,0.000485,-0.014759,0.014854,0.007995,0.009514,0.018340}
,
{
0.007729,0.166202,0.028275,-0.163532,-0.077721,-0.220626,0.040619,-0.107782,
0.022538,0.034622,0.200360,0.000235,-0.008666,-0.044593,0.170314,0.056272,
-0.112050,-0.180661,-0.212781,-0.132377,-0.067399,-0.000204,-0.090850,-0.145192,
0.118384,0.091080,0.182388,0.041979,-0.128809,-0.185048,0.179930,0.133422,
0.106980,-0.005622,0.180481,-0.022585,-0.102708,-0.090262,-0.106948,0.076234,
0.095440,-0.004766,-0.097161,-0.033317,-0.052679,0.041036,0.187045,0.080703,
0.057571,0.154438,0.035165,-0.120634,0.097696,-0.015491,0.012878,-0.035243,
-0.144138,-0.066295,0.061762,-0.147796,0.020053,-0.077131,-0.166103,-0.036027}
,
{
0.042650,-0.057721,0.033401,-0.111465,0.071289,-0.048542,-0.056138,-0.090359,
0.022528,-0.080228,0.076913,-0.061143,0.022030,-0.063643,0.179905,-0.151265,
0.135096,-0.015681,-0.056328,0.119340,0.001506,-0.086586,-0.123165,-0.001780,
-0.022878,0.123557,-0.053680,0.041280,-0.000967,0.062070,0.107517,0.223515,
-0.107757,-0.024024,-0.097608,0.026932,-0.249219,-0.145100,0.186256,0.128551,
-0.000654,-0.175665,0.166793,-0.069019,0.177804,0.106994,-0.202596,0.240150,
0.152991,0.152621,0.043207,0.068040,-0.128899,-0.007663,0.014942,0.008916,
-0.021056,0.119332,-0.207198,-0.032120,0.103882,0.016710,0.083012,0.130144}
,
{
0.213699,0.006425,-0.135733,0.007610,-0.005814,0.004185,0.133290,-0.001370,
-0.238401,-0.156250,-0.049414,-0.120698,-0.224629,-0.054216,-0.083537,-0.078992,
-0.160986,0.189418,-0.125130,0.133492,-0.121113,-0.189211,-0.046720,-0.208426,
0.122180,0.088896,0.149816,-0.003272,0.030299,-0.000210,0.030668,0.011469,
0.139508,0.067398,-0.228284,-0.005771,0.225407,0.143379,0.086287,0.008936,
-0.151198,-0.106775,0.051550,0.069081,0.120670,0.054304,-0.004346,0.050517,
-0.133437,-0.034836,0.024147,-0.151997,0.062838,0.021854,-0.192710,-0.020552,
-0.089655,-0.175995,0.171835,-0.053492,0.115058,-0.129243,0.095143,0.066895}
,
{
0.009378,-0.052244,0.249502,0.164398,0.221836,-0.091415,0.101451,-0.052065,
-0.212489,0.147173,-0.074043,-0.056190,0.148537,-0.074503,-0.230152,-0.017336,
0.015105,-0.050465,0.170098,-0.161685,-0.040722,-0.078723,0.125114,-0.084451,
0.104297,0.077005,-0.014629,-0.084907,0.162751,0.043342,0.039520,0.070194,
0.203362,0.127053,0.150166,-0.001198,-0.007708,-0.037251,-0.063961,0.006433,
-0.041460,-0.010183,0.079318,0.040698,-0.026344,0.098039,0.046842,-0.073457,
-0.043402,-0.099791,0.011783,0.006960,0.186737,0.039165,-0.187483,-0.143221,
-0.025956,0.064915,0.094771,0.013381,-0.015639,-0.055064,-0.112718,-0.017935}
,
{
-0.019700,0.166105,0.134059,0.080061,0.038488,0.037833,-0.044497,0.130356,
-0.022726,-0.023184,-0.049394,-0.193943,-0.044493,0.125400,-0.060479,-0.015416,
-0.071983,0.012879,-0.124074,-0.085521,0.235391,-0.015590,-0.002454,0.188429,
0.117254,-0.126076,0.146178,0.080351,0.010267,-0.052660,-0.210346,0.045213,
0.128263,-0.007747,-0.239513,0.027630,-0.203947,-0.064897,-0.090514,-0.174347,
0.243933,-0.038590,-0.016210,-0.031194,0.019677,0.004804,-0.000916,-0.045459,
0.219056,-0.151162,0.186542,0.108623,0.034799,0.075039,0.073797,-0.072742,
0.030569,-0.100098,0.014641,-0.006060,-0.115653,0.023245,-0.010835,-0.124894}
,
{
-0.049793,-0.045854,0.022317,-0.003583,0.011443,-0.073514,-0.031808,-0.131707,
0.088449,-0.020260,-0.079463,0.002529,0.107077,-0.123159,-0.187083,-0.151691,
0.014210,-0.071193,-0.026743,-0.032921,-0.094542,0.122361,0.062914,-0.184217,
0.044928,-0.026089,-0.075267,0.222842,-0.030877,0.143424,-0.116523,0.008006,
0.186379,-0.101742,-0.021372,0.008996,0.053585,0.129638,-0.098400,-0.211645,
0.155340,-0.168210,-0.052049,0.119748,0.070498,-0.149217,-0.046526,0.126843,
-0.014818,-0.004461,-0.153652,0.205484,-0.114529,-0.083283,-0.061493,0.049737,
-0.014939,-0.153074,0.009080,0.125307,-0.093011,0.196957,-0.042445,-0.148488}
,
{
-0.789720,0.260106,0.014554,-0.044960,0.067346,0.019510,0.004894,0.035643,
-0.458584,-0.055868,0.018620,-0.050633,-0.014534,0.003931,-0.011693,-0.011439,
0.088135,0.018968,0.025032,-0.025982,0.001332,-0.013235,0.026588,0.003561,
0.125426,0.002609,0.013545,0.051267,0.019841,-0.003703,-0.015907,-0.003873,
0.004864,0.011826,0.002222,-0.002168,-0.036537,-0.003647,0.003231,-0.002596,
-0.029032,-0.001739,0.038621,-0.014595,-0.000488,0.004925,0.000150,-0.006072,
-0.032341,0.011221,0.016037,0.034089,-0.003584,-0.027666,-0.001612,-0.011146,
0.034757,0.020201,0.006509,-0.003912,-0.021018,0.019191,-0.000924,0.021076}
,
{
-0.185987,0.171560,-0.174869,0.161049,0.120986,0.084977,-0.041961,-0.012584,
0.054996,0.027921,-0.180829,-0.110890,0.059244,0.007532,-0.154874,0.059028,
0.133257,-0.040137,0.089450,-0.107726,-0.043276,0.008163,-0.111527,-0.151827,
0.005801,0.120996,-0.006055,0.059195,-0.117795,-0.187978,-0.059551,0.071395,
0.044993,0.012842,-0.051729,0.094912,-0.122254,-0.015790,-0.174021,-0.012611,
0.076521,-0.050205,-0.132753,0.005640,0.021935,-0.097370,-0.057682,-0.164835,
-0.155541,-0.031195,0.095395,0.184846,0.017253,0.092079,-0.064789,0.011989,
0.153035,0.090736,0.104173,-0.064150,-0.110596,-0.143408,0.082209,-0.069636}
,
{
-0.006266,0.068405,-0.127453,-0.197343,-0.038613,-0.147074,0.015494,0.011644,
-0.053923,0.107145,-0.100340,-0.005411,0.072886,-0.058910,-0.069698,0.058231,
0.008838,0.050509,-0.105494,-0.083309,-0.105101,0.237956,-0.135385,0.228029,
-0.154510,-0.176219,-0.171321,-0.158959,-0.206596,-0.035893,0.203830,-0.003042,
-0.034127,-0.062825,-0.079461,0.064510,-0.138982,-0.051490,-0.078361,-0.030758,
-0.116968,-0.036566,0.165355,0.132772,-0.016940,0.198473,-0.199759,0.004401,
0.038985,-0.039444,0.019631,-0.133777,-0.074874,-0.129541,0.061061,-0.138033,
-0.034990,-0.024119,-0.070057,0.119093,-0.008731,-0.122863,0.088545,-0.021897}
,
{
0.083719,-0.001399,0.226485,0.018700,-0.133881,-0.051722,-0.129875,0.056997,
-0.036727,0.171249,-0.033476,-0.169109,-0.166902,-0.043704,0.079245,-0.139522,
0.017193,-0.015520,-0.057783,0.096096,-0.020135,-0.099037,-0.043183,-0.067916,
0.101109,0.172724,-0.245375,0.191601,-0.128106,0.050135,-0.087572,-0.026850,
-0.140718,-0.020280,-0.107065,-0.031614,0.038145,0.084293,0.063762,0.017902,
0.230603,-0.089443,0.189152,0.047097,-0.098594,-0.108839,0.145561,0.049552,
0.117575,0.206379,0.090920,-0.079952,0.021601,-0.224262,0.064830,-0.058722,
-0.129374,0.146612,-0.064698,-0.040152,0.052675,0.133217,0.077585,0.182574}
,
{
0.020237,-0.099252,0.057672,0.154790,0.205842,0.144467,-0.217835,-0.131115,
-0.093922,-0.068369,0.108614,0.018357,0.064973,0.204164,-0.186118,-0.012697,
-0.122435,-0.060394,0.213910,-0.247295,0.057507,0.124907,0.211023,-0.047211,
-0.027048,0.136566,0.039697,0.019411,0.033762,-0.208760,-0.019459,0.115929,
-0.195727,0.048828,-0.091731,0.041402,0.010585,-0.098281,-0.002354,0.116475,
-0.039372,-0.017340,0.006653,-0.031683,-0.065061,-0.068212,0.016216,0.080905,
-0.027666,0.041725,-0.093193,-0.065349,-0.108304,-0.122532,0.144115,-0.203672,
0.162260,0.075437,0.083266,-0.020962,0.052359,0.051750,-0.054494,-0.211078}
,
{
0.058712,0.047987,0.116388,0.088936,-0.105188,0.144575,0.061651,0.148002,
-0.083139,-0.123270,0.108505,-0.094662,-0.118095,0.206862,-0.086156,0.036388,
0.074678,-0.013103,0.020337,-0.026539,0.155650,-0.034987,0.233910,-0.010110,
0.129143,-0.085494,-0.022903,-0.097701,-0.062764,-0.017177,0.018291,0.101370,
0.105076,-0.170037,-0.123030,-0.038078,-0.028245,0.129477,-0.147299,0.126664,
0.120612,-0.071098,-0.003318,-0.198620,0.081411,0.066683,0.035695,0.160343,
-0.096596,0.036782,-0.128584,-0.014372,-0.041282,-0.196186,0.126516,-0.141133,
-0.069827,-0.011418,-0.190253,0.017657,0.184709,0.022027,-0.115390,0.047997}
,
{
-0.058271,-0.031827,0.238223,-0.102092,-0.160698,-0.164555,0.065026,0.026707,
-0.177965,-0.042750,0.036707,0.084935,-0.179213,0.000050,-0.019936,0.061958,
0.105940,-0.174541,0.071494,-0.201115,0.189940,0.052564,0.045581,0.122934,
-0.158526,-0.022115,-0.066831,-0.203831,-0.212190,0.142995,-0.197708,0.163871,
-0.113637,-0.160991,0.107476,-0.068813,-0.000841,-0.203462,0.052689,-0.168715,
0.059998,0.151043,-0.156979,-0.087707,0.121819,-0.006202,-0.116166,-0.035077,
0.179698,0.014869,-0.239112,0.062949,-0.146008,-0.073119,0.028672,0.027087,
0.096978,0.074304,-0.151478,0.048653,-0.025834,-0.110599,-0.087257,0.038080}
,
{
-0.007296,0.013683,-0.148891,0.001626,-0.186348,-0.100608,0.154119,-0.023680,
-0.071130,-0.248358,-0.211787,-0.230034,-0.189054,0.217614,0.106010,0.082644,
0.127025,-0.030119,0.005203,-0.041015,0.120025,-0.031599,-0.061258,-0.043122,
0.051297,0.061479,0.118769,0.082645,0.006876,0.133853,0.050761,0.145454,
0.221532,-0.162599,0.151992,0.065369,-0.044579,-0.068107,0.053526,-0.014579,
-0.052139,-0.145803,0.078341,0.055967,0.216199,0.153632,-0.101211,0.029405,
0.069212,0.096390,-0.016223,-0.054170,-0.140332,0.223620,0.078226,-0.042837,
0.131141,-0.018341,0.115189,0.040116,0.031335,0.026903,0.088673,-0.116816}
,
{
0.008588,-0.023255,0.003774,-0.002525,0.000607,-0.001053,0.000054,-0.000684,
-0.001377,0.005928,0.002150,0.001095,0.000504,-0.000224,0.000039,-0.000026,
0.001540,0.001418,0.000037,0.000103,-0.000262,-0.000064,0.000165,0.000091,
0.000575,0.001332,0.000103,0.000134,-0.000833,0.000010,0.000003,-0.000069,
-0.000023,0.000217,-0.000022,-0.000096,-0.000202,-0.000019,0.000059,0.000027,
-0.000174,-0.000018,0.000036,-0.000094,0.000055,-0.000063,-0.000115,-0.000091,
0.000110,-0.000205,-0.000108,0.000135,-0.000042,-0.000091,0.000012,-0.000003,
-0.000105,0.000003,0.000000,-0.000040,-0.000092,0.000014,0.000000,0.000052}
,
{
-0.009521,0.003929,-0.003690,0.000213,-0.005964,-0.001884,0.000678,0.000958,
0.033435,-0.017001,0.008687,0.002225,0.001614,0.002130,-0.000884,0.000784,
-0.006142,-0.002231,0.007958,-0.002185,-0.000644,0.001269,-0.000333,-0.000567,
0.007484,0.001077,-0.001072,-0.002441,0.001720,-0.001091,-0.000321,0.000982,
0.004293,0.000245,0.000448,-0.001411,0.000328,0.000165,-0.000951,-0.000626,
0.000704,0.000844,-0.000873,0.000821,-0.000908,0.000716,0.000957,0.000303,
0.000060,0.001838,-0.000124,0.000180,0.000859,0.000191,-0.000229,0.001322,
-0.000716,-0.000562,-0.000741,-0.001085,-0.000276,-0.001207,0.001227,-0.001051}
,
{
0.001973,0.027828,-0.014414,-0.004233,-0.010704,-0.000931,0.000955,-0.001510,
0.019581,-0.017281,0.001022,0.018269,0.000568,-0.005068,-0.000717,-0.002081,
-0.000357,-0.011831,0.003968,0.000904,-0.000308,0.000039,0.000936,0.001061,
0.003039,-0.003391,0.000307,0.008925,-0.001780,0.001754,-0.001461,-0.001717,
0.002363,0.000153,0.000454,0.003434,0.000420,-0.001182,0.001791,0.000644,
-0.000827,-0.000467,-0.000179,-0.000383,0.002407,-0.000892,-0.001858,0.000729,
-0.000569,-0.001571,0.000516,-0.001252,-0.001805,0.000812,0.001532,-0.001898,
0.000409,0.000713,0.001452,0.001615,-0.000362,0.002339,-0.002095,0.001863}
,
{
-0.044407,0.020273,-0.010850,-0.014589,0.020603,0.011550,-0.000474,0.004017,
-0.029568,-0.043540,0.010586,0.003923,-0.007577,0.000285,0.000763,0.001044,
0.044574,0.013581,0.003904,-0.017446,-0.000909,0.003537,-0.005864,-0.001992,
0.011645,-0.007664,-0.003582,0.003410,0.001755,-0.000703,0.004170,0.002551,
0.003663,-0.001744,-0.000153,-0.001795,0.002852,-0.001800,0.000923,0.001078,
0.001799,0.001490,-0.000020,0.000059,-0.002060,-0.000214,0.003081,0.003739,
-0.000305,0.004512,-0.001701,-0.005374,0.002248,0.004749,0.000003,-0.000189,
-0.002263,0.000763,-0.000830,-0.000714,0.002138,-0.002235,0.002248,-0.002575}
,
{
0.027203,0.096894,-0.044681,-0.041360,0.050366,-0.000982,-0.001009,0.013862,
-0.099015,-0.076457,-0.036580,-0.017620,-0.003519,-0.038944,0.001999,0.000396,
0.000050,-0.003498,-0.017851,0.024830,-0.007824,-0.004776,-0.007828,-0.003375,
-0.027105,-0.029454,0.005211,0.006460,-0.000155,-0.001918,0.005639,0.004157,
-0.001359,-0.000451,-0.000590,0.002172,-0.000391,0.003517,0.000126,0.000114,
-0.001934,-0.004908,0.003629,0.002085,-0.001122,0.002885,0.000967,-0.002044,
-0.000390,0.002563,0.001451,-0.005733,0.003278,0.002393,-0.001618,-0.000888,
0.002066,-0.001208,-0.000245,-0.000357,-0.001897,-0.001378,-0.002103,-0.004181}
,
{
-0.112536,0.196386,-0.085662,-0.071972,-0.014619,-0.015022,0.004602,0.003806,
0.000711,-0.065902,-0.041008,-0.073598,0.022603,-0.043006,-0.000225,0.008940,
0.046710,-0.018075,-0.037280,0.046081,0.012781,-0.011549,-0.015104,-0.017188,
0.051398,0.000946,0.001622,-0.002056,-0.016374,-0.003671,0.008875,0.008589,
0.007064,-0.002890,-0.001517,0.023009,0.014233,0.004662,-0.001720,-0.006102,
-0.011200,-0.009592,-0.010218,0.005114,-0.008038,0.007761,0.006923,-0.000037,
-0.013577,0.007390,0.004142,-0.009721,0.010824,0.005700,-0.009318,-0.000390,
0.000948,-0.012208,-0.010502,-0.008654,-0.006382,-0.006014,0.004218,-0.010667}
,
{
-0.166399,-0.095866,0.039283,-0.003362,0.005478,-0.006428,-0.007602,-0.004890,
-0.013758,-0.069695,0.006225,-0.036163,0.005236,0.000966,-0.011302,-0.002363,
-0.059689,0.014651,0.012227,-0.001206,0.006383,-0.007326,-0.002174,0.004201,
-0.085794,0.005919,0.002166,0.002036,-0.000443,-0.001846,0.000190,-0.011677,
0.001792,-0.001001,0.002351,-0.000084,0.015591,-0.003263,0.001658,0.002308,
-0.009596,0.007708,-0.015681,0.000490,-0.005507,-0.000056,0.003756,0.006568,
-0.005344,-0.002354,0.007023,-0.000576,-0.004776,0.008492,0.003143,-0.001368,
-0.002917,0.004645,0.002545,-0.006217,-0.017930,0.000780,0.001456,0.004732}
,
{
-0.075145,-0.040801,0.016949,-0.017650,-0.000911,0.008217,0.010387,0.001177,
-0.058051,-0.043090,-0.010103,-0.032749,-0.003228,-0.002882,-0.000119,0.003685,
0.009928,-0.005152,0.022464,-0.001532,-0.000198,-0.001579,0.008976,-0.007451,
0.003353,-0.008253,0.001764,-0.008987,0.000582,0.005261,-0.001516,-0.001868,
0.001692,0.002057,0.004050,0.003079,-0.000023,-0.000501,-0.000777,-0.005480,
-0.013137,-0.000189,-0.001065,-0.001365,-0.003031,0.006660,0.000871,-0.001493,
0.001903,0.003478,-0.002624,0.000453,-0.001428,0.000190,-0.003461,0.003147,
-0.003790,-0.003975,-0.005071,0.002898,0.001460,0.001780,0.001586,0.002518}
,
{
-0.090567,0.157656,-0.041091,0.029011,-0.006603,0.004986,-0.001779,0.001586,
0.001854,-0.021184,-0.008531,0.004921,0.000426,-0.000732,-0.000937,0.000695,
0.004511,-0.023108,-0.000365,-0.009188,0.002234,0.000645,-0.003029,-0.000837,
0.002109,0.002903,-0.003194,-0.000503,0.000491,-0.000423,0.001065,0.001599,
0.000918,-0.005367,0.000570,-0.000886,0.002084,-0.000147,-0.000232,-0.000162,
0.001139,0.000292,-0.001427,0.000247,-0.001268,0.000463,0.001366,0.001085,
0.000395,0.002730,-0.000097,-0.001109,0.001141,0.001192,-0.000066,0.000386,
-0.000277,-0.000235,-0.000492,-0.000498,0.000213,-0.001062,0.000963,-0.001186}
,
{
-0.108111,0.106070,-0.020278,0.022171,-0.002777,0.005019,0.000848,0.000933,
-0.063504,0.029278,0.005631,0.014775,0.003515,0.008766,0.000961,-0.000577,
0.000547,-0.012617,0.000876,-0.001944,0.004406,-0.002350,0.000342,0.001298,
-0.011326,0.010066,-0.002783,-0.009547,0.001425,0.000857,0.000391,-0.001623,
-0.001763,-0.008111,0.000836,-0.000908,-0.001224,0.000020,0.000497,0.000268,
0.001555,-0.000005,0.001913,0.000775,0.000666,-0.000617,-0.001507,-0.000095,
-0.000118,-0.002665,-0.000201,0.000568,-0.000755,-0.000708,0.000175,-0.000680,
0.000215,0.000202,0.000920,0.000591,-0.000084,0.001120,-0.001428,0.001612}
,
{
-0.104662,0.088406,-0.042587,0.001259,0.008464,0.011750,0.003336,-0.001634,
-0.032325,-0.002300,-0.025942,-0.008982,0.003075,0.011324,0.002735,-0.000983,
-0.012116,0.021748,0.005106,-0.020117,0.004864,-0.004485,0.006612,0.003364,
0.004013,-0.007069,0.000647,-0.004409,-0.010846,0.001699,-0.002211,-0.002997,
-0.001937,0.002761,-0.002037,-0.002607,-0.007396,0.001966,-0.001303,0.000241,
0.000209,0.001833,0.003459,-0.005541,0.001977,-0.001161,-0.003037,-0.001446,
0.000192,-0.004944,-0.000793,0.005329,-0.003920,-0.004615,0.000503,-0.000609,
0.001962,-0.000773,0.001128,0.001425,0.002632,0.002078,-0.003222,0.002935}
,
{
0.172593,-0.006254,-0.020741,-0.051482,-0.042349,-0.002275,0.006359,0.001422,
-0.035115,-0.005485,0.020380,-0.007704,-0.006047,-0.001879,0.000805,-0.002505,
-0.018411,-0.006567,0.004807,0.011301,-0.005734,-0.006900,0.018371,0.004304,
-0.032630,0.010695,0.001856,0.009403,-0.002023,0.001037,-0.008817,-0.009220,
0.002234,0.035044,0.001687,-0.001304,-0.013137,0.001884,0.000401,-0.002167,
-0.007075,-0.006577,0.008498,-0.001010,0.004869,-0.002856,-0.007016,-0.009652,
0.006626,-0.013040,0.001807,0.008995,-0.007152,-0.010131,-0.000209,-0.001891,
-0.004253,-0.002572,0.002126,0.000687,-0.004311,0.007410,-0.005236,0.008386}
,
{
-0.187914,-0.084361,0.045503,-0.004818,-0.093525,-0.027639,0.010803,-0.004462,
0.101877,0.051207,0.155741,0.084563,0.027154,-0.010278,0.007788,-0.001916,
-0.092759,-0.093377,-0.023437,0.052598,-0.005119,-0.002891,-0.011090,0.015112,
-0.145638,0.025866,0.036955,0.007512,-0.001472,-0.008493,0.012461,0.003722,
0.015701,0.023660,-0.015933,0.034306,0.008921,-0.012228,0.006697,0.009224,
-0.002086,0.000036,-0.000812,-0.004618,0.002433,-0.014383,-0.001769,0.013142,
-0.016685,-0.008683,-0.010188,-0.005055,-0.004840,0.004654,0.012729,-0.009352,
0.006602,0.010850,0.007676,0.001362,-0.001224,-0.006852,0.000436,-0.001614}
,
{
0.046297,-0.097825,0.170328,-0.058522,-0.053113,-0.044763,-0.017484,-0.026750,
-0.140354,-0.034318,0.137583,0.002422,0.048703,-0.047043,0.007339,-0.002739,
0.047404,-0.128813,0.009870,0.028156,0.025191,0.017122,-0.007282,0.008230,
-0.019139,-0.028011,0.044025,-0.007982,-0.009275,0.018314,0.003032,0.008024,
0.007703,0.010858,-0.002751,-0.007000,-0.009448,-0.007804,-0.009081,0.007497,
0.020751,0.032197,-0.001606,0.008149,0.005003,-0.007579,-0.010843,-0.010476,
-0.006878,-0.014485,0.001526,-0.007764,-0.009010,0.010412,0.011922,-0.004471,
0.000229,0.020756,0.018667,0.017318,0.018525,-0.000052,0.011427,0.015093}
,
{
0.072684,-0.032303,0.139631,-0.146171,-0.059387,-0.035618,-0.027167,-0.020256,
-0.323610,-0.156156,0.067052,-0.057556,0.056623,-0.033676,0.008024,-0.032583,
0.132392,-0.117399,-0.013735,0.044905,0.042918,0.000868,-0.024651,0.017367,
0.057391,-0.059785,0.083402,-0.002161,-0.003116,-0.015885,0.019417,-0.008081,
0.044315,-0.025528,0.004183,-0.011768,0.003251,-0.012188,-0.011956,0.018653,
-0.006020,0.011384,0.000447,0.020074,0.030181,-0.017028,0.014684,-0.017755,
-0.034477,-0.010272,-0.019076,0.012129,0.014832,-0.024988,-0.001003,0.017425,
-0.024760,0.033703,0.037668,-0.011967,-0.028440,-0.001379,0.018079,0.017699}
,
{
-0.294112,0.183731,-0.168945,0.297056,-0.056533,0.055581,0.000639,0.017047,
0.221236,0.086563,0.307953,0.059241,0.056483,-0.022079,-0.034505,0.022992,
0.097634,-0.388732,-0.045962,-0.026469,0.043312,-0.008848,-0.024049,-0.011449,
-0.035832,0.002997,0.069993,-0.039979,-0.032033,0.057792,-0.033115,-0.007826,
-0.010371,-0.005270,-0.007085,-0.025515,0.026581,0.021799,0.018020,0.018480,
0.028964,0.005700,-0.004201,0.029870,-0.013508,0.007899,0.012973,0.003624,
0.025159,0.012645,0.013560,-0.003820,0.009094,-0.020678,-0.021793,-0.014758,
-0.021740,-0.014495,-0.011452,-0.003527,-0.012125,0.010333,-0.009805,0.041870}
,
{
0.091164,-0.174837,0.078609,-0.019858,-0.001205,-0.004744,0.001369,-0.003389,
-0.020322,0.043314,0.023313,0.000207,0.000392,-0.001697,-0.001093,-0.000628,
-0.021625,0.024400,-0.004098,0.006991,-0.000501,-0.000243,-0.000695,0.000196,
-0.007221,0.001364,0.004202,0.000170,0.002169,0.000794,0.000581,-0.000754,
-0.007257,0.001926,-0.000596,0.000617,0.001589,-0.000938,0.000261,-0.000261,
-0.000792,0.000372,-0.001576,0.001298,0.000494,0.000599,0.000502,0.001656,
-0.001078,0.000733,-0.001228,-0.001342,0.000510,0.001057,0.000331,0.000157,
-0.000528,0.000241,0.000424,0.000828,-0.000458,0.000672,0.000490,0.000417}
,
{
0.120714,-0.186964,0.080880,-0.027670,0.002408,0.005546,-0.000677,0.000997,
0.026691,-0.022061,0.040513,-0.016346,-0.000277,-0.001262,-0.001954,0.001546,
0.010738,0.024664,0.005353,-0.005170,-0.007876,0.003864,-0.001368,-0.002435,
0.008164,-0.021864,0.009698,-0.002973,-0.003428,-0.000478,0.002120,0.003361,
-0.006939,0.020196,-0.004401,0.001058,0.005559,0.000272,-0.002026,-0.000606,
0.004429,0.004284,-0.003068,-0.001548,-0.003385,0.003540,0.006516,0.003797,
-0.000099,0.007403,-0.000947,-0.004757,0.003232,0.003201,0.000397,0.001501,
0.000231,-0.001561,-0.001516,-0.000114,0.001491,-0.002539,0.003026,-0.002826}
,
{
0.075231,-0.116231,0.076551,-0.039715,-0.001027,-0.008440,0.004170,0.000110,
0.020239,0.012547,0.001961,-0.058230,-0.003791,0.014462,-0.006509,0.001819,
-0.043938,0.014295,-0.019477,0.013717,0.016996,0.003324,0.001849,-0.003660,
0.009083,0.027943,0.019414,0.006776,-0.004204,-0.001146,-0.002886,0.004096,
-0.001601,0.011361,-0.003466,0.002989,0.004634,0.000192,-0.002948,-0.003723,
0.001257,-0.000729,-0.007070,0.000452,-0.001901,0.003350,0.004663,0.001710,
-0.001778,0.005785,0.000660,-0.000778,0.003587,-0.001470,-0.002403,0.002829,
-0.002430,-0.001958,-0.004027,-0.002530,-0.001690,-0.002509,0.004810,-0.003517}
,
{
0.359957,-0.304664,-0.074406,0.009924,0.048630,0.018984,0.010006,-0.003958,
-0.138662,-0.160427,-0.170096,0.055694,0.029628,0.040301,0.008203,-0.008098,
0.193203,-0.120805,0.020824,0.009481,-0.004877,0.002250,-0.004219,0.014128,
-0.033090,-0.066779,0.041451,-0.000423,0.004978,-0.004190,0.001919,0.004334,
0.011398,0.011439,-0.014282,0.011085,-0.000324,-0.009371,0.011854,0.008402,
-0.013179,-0.001642,0.000328,-0.013867,0.009431,-0.015159,-0.011155,0.002260,
0.009956,-0.010125,-0.000204,0.003927,-0.007790,-0.000126,0.013592,-0.009531,
0.008394,0.011247,0.010348,0.003002,-0.001792,-0.000621,-0.004940,0.000105}
,
{
-0.051262,-0.030134,0.026686,0.033374,0.026161,0.006480,-0.004728,0.007790,
-0.030539,-0.062959,0.060580,-0.009310,0.056955,-0.001612,0.002446,-0.016831,
-0.003347,-0.018173,-0.005497,0.010713,-0.025746,-0.006862,0.009627,0.009684,
-0.204489,0.057891,0.033740,0.002999,0.010058,0.012396,-0.009284,-0.004280,
0.002371,-0.028177,-0.010281,0.014742,-0.011510,-0.007863,0.010538,0.000132,
-0.017538,0.006305,0.001847,-0.008754,0.011851,-0.016451,-0.013234,-0.003017,
0.004445,-0.005025,0.010188,0.021387,-0.011820,-0.007593,0.003244,-0.005391,
0.001367,0.014045,0.014363,0.004208,-0.003458,0.014516,-0.017979,0.012290}
,
{
0.273484,0.208549,-0.290485,0.187110,-0.039245,-0.015932,-0.022401,-0.009900,
-0.364285,-0.135847,0.176272,-0.314886,-0.004587,0.004858,0.008332,-0.005515,
0.247283,0.019471,0.019590,0.015385,-0.002708,-0.007651,0.002372,0.007002,
0.314058,-0.022714,0.001720,-0.033741,-0.012151,0.007090,-0.003787,-0.008477,
0.424603,-0.025451,0.019299,0.004684,-0.004295,-0.000103,0.004343,0.000816,
-0.019492,0.026423,0.002203,-0.001690,-0.003478,-0.002278,-0.003546,0.004222,
-0.024290,-0.006094,-0.004599,0.001736,0.004124,-0.000624,-0.001341,-0.000973,
-0.007632,-0.012878,-0.024691,0.000475,-0.002278,-0.013062,0.014736,-0.018053}
,
{
-0.138438,0.082355,0.081836,0.195194,-0.061494,-0.134052,-0.123459,-0.013251,
-0.035713,-0.143882,-0.225866,0.202494,0.171204,0.124429,0.146323,0.104012,
0.170838,0.121931,0.079183,0.164165,0.001826,-0.164801,-0.067131,-0.130448,
0.092170,-0.205310,0.021698,0.026759,0.057002,-0.233178,-0.154636,-0.065676,
0.072809,-0.111895,0.232587,0.136584,0.009082,0.053366,-0.097728,-0.077307,
0.017023,-0.008471,0.219488,0.075160,0.217141,0.111155,-0.051888,0.127452,
0.015387,0.135631,-0.073030,-0.000596,0.040820,-0.008443,-0.108267,0.093281,
-0.081405,0.014573,0.114022,-0.094679,0.066112,-0.154391,0.092605,-0.243123}
,
{
-0.015641,0.152247,0.009862,-0.009980,-0.029465,0.101036,-0.130660,0.121991,
-0.016982,-0.107950,-0.052801,0.133458,0.201960,-0.239080,-0.078036,0.039801,
0.158202,-0.171493,-0.083974,-0.060848,-0.058698,0.079296,0.149438,-0.034793,
0.123863,0.030001,-0.024556,0.077833,0.181784,-0.027325,0.239523,-0.031022,
-0.098116,-0.037037,-0.052294,-0.063501,-0.016449,-0.001091,0.141686,-0.043961,
0.003736,0.119767,0.017445,-0.207014,-0.023910,0.103476,-0.068664,0.041776,
0.001239,0.206149,-0.077676,0.088322,-0.153270,0.056069,0.154861,0.061660,
-0.165664,-0.113263,0.117710,-0.065771,0.057271,-0.017573,0.043671,0.091451}
,
{
-0.099972,0.199986,-0.069593,0.036694,-0.017841,0.000906,-0.001002,0.002498,
-0.018124,0.000696,-0.016570,0.005202,0.007128,-0.004813,0.000466,-0.001029,
-0.006837,0.003639,0.007835,-0.003230,-0.005085,0.000722,0.002763,0.000838,
-0.006171,-0.020581,-0.000390,0.009127,-0.001844,0.000504,-0.000908,-0.000389,
0.006129,-0.001814,-0.001555,-0.000822,-0.001481,0.000168,0.000358,0.000672,
0.000465,0.001684,-0.001219,-0.002534,0.000992,-0.000377,-0.000263,0.000923,
0.002622,-0.000278,-0.000849,0.000139,-0.001041,-0.000368,0.001917,-0.000554,
-0.001383,0.000391,0.000660,0.001136,0.000531,0.000808,-0.000731,0.000816}
,
{
-0.231710,0.225730,-0.065695,0.053262,-0.019303,-0.000945,0.008984,-0.004945,
-0.096350,0.086045,-0.014832,0.024731,0.006709,-0.013253,0.003714,-0.000260,
-0.036021,0.033657,-0.015829,0.014822,-0.006597,0.001771,0.004288,0.003593,
-0.011754,0.029876,0.002706,-0.004128,-0.002528,0.001004,0.000637,-0.001528,
0.021243,-0.044883,-0.004418,0.005772,-0.000208,-0.000085,0.000569,0.004299,
-0.000883,0.001174,-0.003252,0.001113,0.001582,-0.003586,-0.000896,-0.001796,
-0.004946,-0.003666,-0.004922,-0.000858,-0.002723,0.001023,0.002111,-0.001578,
-0.001515,0.003933,0.000205,0.001859,0.001702,0.001026,-0.001928,0.002294}
,
{
0.116893,0.141129,-0.009215,0.023669,0.030005,0.001183,0.003545,-0.011217,
-0.176196,0.078529,0.060956,-0.007719,0.016716,-0.003507,0.005389,-0.005981,
0.064660,0.053203,-0.008981,-0.017069,-0.024467,-0.000986,-0.002345,0.008597,
-0.065550,0.001993,-0.000338,-0.011151,0.008965,-0.000006,0.010334,-0.004771,
0.014328,0.007348,-0.015216,0.012570,-0.000096,-0.005948,0.008199,0.009124,
0.010356,0.000657,0.000562,-0.003210,0.004533,-0.009839,-0.004322,0.007457,
-0.001535,-0.007705,-0.006733,-0.003641,-0.003050,0.008759,0.007899,-0.006271,
0.005666,0.009478,0.008669,0.004285,-0.007934,0.004204,-0.006338,0.005147}
,
{
-0.055566,0.376250,0.104924,0.005887,-0.008547,0.095843,0.003231,0.002415,
-0.008431,0.473436,0.200633,-0.085025,-0.221197,-0.020010,-0.004365,0.007635,
0.327633,0.174260,-0.003315,-0.002130,-0.028885,-0.004509,-0.003822,-0.011386,
0.137721,0.095341,0.029191,-0.015876,-0.016882,0.006683,0.002404,-0.009583,
-0.029778,-0.049108,0.012707,-0.035859,-0.007049,0.020815,-0.007851,-0.008495,
0.020254,0.011187,0.018843,0.022726,-0.004075,0.021393,0.002123,-0.007688,
-0.017670,0.003878,-0.001248,-0.000360,0.000113,-0.002352,-0.004466,0.005359,
-0.003387,-0.009107,-0.004466,-0.002242,0.004520,0.010060,0.006214,0.004099}
,
{
-0.574039,-0.027106,-0.104665,0.120812,-0.139105,-0.007000,-0.015643,-0.002765,
0.154418,0.292359,-0.076020,0.013970,-0.007041,-0.071259,-0.008413,0.013665,
0.084269,-0.076985,-0.103626,-0.000404,0.023586,0.014794,-0.016954,-0.027079,
-0.045575,0.067106,0.034134,-0.000681,-0.021368,0.005130,0.019013,-0.003555,
-0.043177,-0.011913,0.008350,-0.029108,0.014196,-0.011529,0.003955,-0.000749,
0.005309,0.004410,-0.029567,0.010211,-0.019270,0.020630,0.005494,-0.001091,
-0.029125,0.016347,-0.002319,-0.008581,0.008782,-0.001156,0.009470,0.003474,
-0.003465,0.006880,-0.013212,0.009156,0.007620,-0.001247,0.017509,-0.001399}
,
{
-0.075779,-0.236273,-0.031314,-0.072446,-0.003360,-0.185751,0.135922,-0.062761,
-0.017469,0.183762,0.023972,-0.175245,-0.211634,0.007593,0.151758,-0.099647,
-0.048018,-0.093007,-0.061383,0.038779,0.101905,0.191152,0.097509,-0.013962,
0.035054,-0.171742,0.008640,-0.114596,-0.087580,0.034911,0.031983,0.068429,
0.186763,-0.023597,0.209595,-0.085919,0.066865,0.003930,-0.043790,-0.139048,
0.083717,-0.129786,0.026282,0.097381,-0.031608,0.048259,-0.148210,0.131165,
-0.031603,-0.010619,-0.101175,-0.068798,-0.183379,0.046758,-0.107035,0.113070,
0.003071,-0.059049,0.193995,0.014286,0.064993,0.156359,-0.072276,-0.095852}
,
{
-0.043334,-0.151425,0.074248,0.119002,-0.166100,-0.160366,0.195448,-0.141921,
-0.009417,0.015396,0.245262,-0.138314,0.055397,-0.103568,0.190188,0.108090,
0.050813,0.185345,0.214812,0.147774,0.049046,0.090916,-0.161172,0.000853,
0.009648,0.180816,-0.031811,-0.012967,0.044846,-0.111171,-0.136798,-0.004824,
-0.039292,0.048072,-0.247193,-0.012678,-0.040836,0.082969,-0.033824,0.146956,
-0.041713,-0.107596,-0.069830,-0.055054,0.044935,0.139244,0.083336,-0.148846,
0.068241,-0.118069,0.096447,-0.019522,0.055947,0.045255,-0.002978,0.028160,
0.034318,-0.047591,-0.129649,0.048262,-0.039967,-0.039048,-0.149047,0.045752}
,
{
-0.128674,-0.013709,0.181563,-0.073346,0.001589,0.051739,-0.225161,0.045789,
0.093261,-0.188576,-0.119828,0.124918,0.007801,-0.086714,-0.113318,-0.055069,
-0.078763,0.143450,0.165537,-0.094528,0.059832,0.236613,0.094256,0.001013,
0.089138,-0.069942,-0.093037,0.098289,-0.030755,0.007164,-0.205048,0.098925,
-0.207250,0.073497,-0.045720,-0.063114,-0.095047,0.064796,-0.167303,0.011534,
-0.045586,-0.094528,-0.000367,0.152948,-0.055642,-0.213432,-0.127412,-0.042710,
0.224580,0.109495,0.095767,0.024180,-0.249829,-0.201665,0.186376,-0.133563,
-0.103127,0.030141,-0.130194,0.003473,-0.064458,-0.045099,0.014582,-0.067170}
,
{
