template<typename T> void tf_predict_chroma2(T* vals_in, float* vals_out) {
  static float bias[64] = { 
0.054676,-0.052235,-0.005323,-0.017090,-0.009032,-0.002777,0.001019,-0.001377,
-0.021328,0.040840,0.013628,0.007824,0.000100,-0.000702,0.000451,-0.000884,
0.028485,0.008482,0.002583,-0.002019,0.000240,-0.000018,-0.000799,0.001665,
0.002936,-0.005728,0.001000,0.000310,-0.000068,0.000101,0.001657,0.001296,
0.003222,-0.004750,-0.000987,0.000064,0.000133,-0.000797,0.000946,0.000434,
-0.000265,-0.002149,0.000075,0.000289,0.000392,0.000362,0.000639,-0.000099,
-0.000122,0.001170,-0.000937,0.000316,0.000352,0.000393,0.000655,-0.000053,
-0.000302,0.000615,0.000048,0.000410,0.000191,0.000907,-0.001086,-0.000139 };
  static float weight[][64] = { {
-0.649653,-0.027312,-0.001062,0.001599,-0.001084,0.001165,-0.000248,0.000024,
0.000529,-0.004781,-0.004205,-0.002000,0.000900,0.000261,-0.000172,0.000388,
0.004228,-0.002110,0.001539,-0.001318,-0.000038,-0.000194,0.000562,-0.000031,
0.002785,0.000038,0.000349,0.000067,-0.000126,0.000005,-0.000084,-0.000085,
0.001095,0.000610,-0.000263,-0.000002,0.000134,0.000312,-0.000024,-0.000126,
0.000424,-0.000389,-0.000092,-0.000014,-0.000229,-0.000110,-0.000261,0.000089,
-0.000150,-0.000208,-0.000041,-0.000028,-0.000220,-0.000011,0.000223,0.000350,
0.000030,-0.000159,0.000405,0.000089,-0.000002,-0.000026,0.000229,-0.000118}
,
{
0.568197,0.117616,0.023500,0.031543,0.008745,-0.010726,-0.000934,-0.000867,
-0.142001,0.015665,0.006243,0.005878,-0.001054,-0.001537,-0.001121,0.003570,
-0.068631,-0.020085,-0.009721,-0.007819,-0.000527,-0.002597,0.003133,-0.000732,
-0.033435,-0.008317,-0.003430,0.000363,0.002227,-0.002286,-0.001363,0.000096,
-0.015172,0.000004,0.000149,-0.001850,0.000007,-0.002600,0.000006,-0.000131,
-0.001497,0.004666,0.001248,0.000682,-0.001826,-0.001959,0.001313,-0.001629,
-0.000790,0.000382,0.002039,0.002304,0.000159,0.001122,0.002430,0.002942,
0.001025,0.000424,0.002277,-0.000675,0.000088,0.001367,-0.001739,-0.000223}
,
{
-0.628546,-0.106184,-0.023520,-0.026101,-0.015602,0.009167,0.001558,-0.001727,
0.119348,-0.043791,-0.009676,-0.006661,-0.003033,-0.001646,0.001375,0.003610,
0.136049,0.015171,-0.009637,0.006272,-0.001066,-0.003207,0.003097,-0.003453,
0.044547,0.008602,0.001956,0.003009,0.002871,-0.000522,-0.002036,0.001139,
0.009081,0.009075,-0.002963,-0.000437,0.001490,-0.000834,0.002860,-0.001240,
0.002914,0.002964,0.000373,-0.001733,-0.003005,-0.002022,0.002653,-0.000244,
0.001368,0.000470,0.003222,-0.000172,-0.001396,0.000714,0.002718,0.004209,
0.002115,-0.001702,0.005031,0.000890,-0.002355,0.000858,-0.001955,-0.000400}
,
{
0.493469,0.128702,0.066005,0.055260,0.003269,-0.008700,-0.004406,-0.005453,
-0.210326,-0.029604,0.018160,0.006864,0.008289,0.009951,-0.004731,-0.000102,
-0.105812,-0.042911,0.001013,0.002726,-0.004378,0.001952,0.002102,0.001753,
-0.028525,-0.017477,0.005045,-0.004181,0.002165,0.001763,0.003238,0.002399,
-0.000741,-0.007463,0.002875,-0.002949,-0.003753,0.003511,0.000100,-0.002542,
-0.003203,0.001019,-0.001354,-0.002184,-0.001525,0.000783,-0.001204,0.002330,
-0.005540,0.003509,-0.000541,0.001394,0.000018,-0.004487,0.002352,-0.000536,
0.000815,-0.002035,-0.001186,-0.001555,-0.001005,-0.001016,0.001237,-0.001905}
,
{
-0.376727,-0.039731,-0.051757,-0.049034,0.003303,0.012739,0.012209,-0.000137,
0.127339,-0.008959,-0.017087,0.009069,-0.006958,-0.009850,0.003546,0.002896,
0.071256,-0.021184,0.004903,0.010226,-0.000691,-0.001664,0.002156,0.001723,
0.018064,0.013318,0.014401,-0.002433,-0.003815,0.003106,0.007066,0.003243,
-0.013174,0.002866,-0.004315,0.001634,0.001591,-0.003494,0.000337,0.000584,
-0.007401,-0.005049,0.004508,0.000172,-0.002066,-0.004243,-0.001488,0.004335,
-0.005851,-0.001560,-0.001228,0.001613,0.000746,0.001676,0.002869,0.000976,
0.004381,0.002085,-0.000363,0.001719,-0.001522,0.000621,0.001120,-0.001042}
,
{
0.128294,-0.033955,-0.036800,0.006652,-0.037980,0.002978,-0.006548,0.034928,
-0.220472,-0.012644,-0.052644,-0.028867,0.000477,0.038193,-0.029734,0.017536,
-0.064564,0.025126,0.003139,0.014884,-0.010342,-0.009172,0.015105,-0.004398,
-0.029813,0.054025,0.032249,-0.005060,0.005361,-0.003100,-0.001340,-0.007000,
0.001600,-0.003996,0.021961,-0.002230,-0.015403,0.003867,-0.005341,-0.018576,
0.013253,0.005751,-0.001799,-0.009218,-0.016206,-0.011458,-0.011178,0.000880,
-0.010338,-0.000433,0.008131,0.005865,-0.007714,-0.011606,0.008198,0.003732,
0.005740,-0.008144,0.012300,0.000383,-0.011219,-0.006308,0.011325,-0.007480}
,
{
0.442489,0.127766,-0.009968,0.128959,0.108507,-0.019522,0.003730,0.067175,
-0.055381,0.112296,0.088621,0.048542,0.129243,-0.002967,-0.009581,0.009550,
-0.042683,-0.003016,0.056579,0.004599,-0.011576,0.008529,0.007475,-0.004647,
0.052232,0.013276,0.006575,0.002275,0.020364,0.000340,-0.004503,0.016513,
-0.004726,-0.020495,0.014000,0.000688,-0.013885,0.005926,-0.008300,0.002374,
-0.036333,-0.017489,0.012841,0.007141,0.000604,-0.006309,-0.007058,0.007219,
-0.014900,-0.018659,-0.002027,0.000750,0.007980,-0.006420,-0.005291,0.003082,
0.017543,-0.003482,-0.005346,0.002026,-0.004673,-0.005003,0.007270,0.002701}
,
{
-0.138318,0.101335,0.044084,0.153676,0.048250,-0.012238,-0.009383,0.059316,
0.170637,0.105822,0.132936,0.005653,0.117105,-0.005814,0.001283,-0.011044,
-0.114894,-0.031866,-0.016816,0.004621,-0.008825,0.015134,-0.007125,-0.016814,
0.011625,-0.007112,0.033335,0.003580,-0.007970,0.009764,-0.003568,0.001019,
-0.003453,-0.017470,0.007996,0.005962,0.000248,-0.005319,-0.010549,0.005443,
-0.077754,-0.014937,-0.006834,-0.004327,-0.000462,-0.005213,0.001901,0.007713,
-0.021013,-0.007511,0.003034,-0.013864,-0.005194,0.000941,-0.000518,0.013092,
-0.007281,-0.007165,-0.006829,0.008636,-0.003462,-0.005968,0.003121,-0.006318}
,
{
0.458045,-0.088935,-0.028253,-0.038357,-0.010896,0.000305,0.000301,-0.000425,
0.117756,-0.010979,-0.009224,-0.005664,-0.001576,0.000551,-0.001495,-0.000044,
0.054217,0.034446,0.011756,0.000790,0.002789,0.001347,-0.001299,-0.000982,
0.020871,0.006348,0.001915,0.002418,0.001284,0.003695,0.000815,0.000867,
0.004811,0.000012,-0.005214,-0.000108,0.003243,-0.003926,-0.000855,-0.001089,
-0.003629,0.001201,-0.001150,-0.003335,-0.001952,-0.001269,0.000965,0.002711,
0.001681,0.001225,0.000580,-0.002760,-0.002003,-0.000114,0.002996,0.002279,
0.002536,-0.001918,0.000076,0.002445,-0.003334,-0.001591,0.000167,-0.002012}
,
{
-0.046310,0.018079,0.003295,0.027470,0.001781,0.013486,0.002375,0.000454,
0.002591,0.017359,-0.003548,0.005991,0.004900,-0.007283,0.006577,-0.000949,
0.014558,0.003541,0.030455,-0.001206,0.000006,-0.002363,-0.003294,0.002229,
0.022270,-0.009826,0.002590,-0.000331,-0.003304,-0.004064,0.004593,0.005666,
0.017383,0.007604,-0.000369,0.007627,0.006678,-0.005764,0.010277,0.010009,
0.002871,0.003496,0.004783,0.005845,0.007563,0.004621,0.008920,-0.002680,
-0.002403,-0.000395,-0.002499,0.003974,0.004557,0.009810,-0.001809,0.001442,
0.002323,0.005583,-0.001884,-0.004692,0.005573,0.007444,-0.009128,0.006283}
,
{
0.080153,-0.024877,0.022018,-0.001796,-0.027474,-0.000926,-0.001799,-0.003384,
-0.038695,-0.000024,0.025706,0.031792,0.015437,0.001008,-0.005283,-0.009023,
-0.088001,-0.028853,-0.025919,0.018507,0.001921,0.005034,-0.007675,0.002073,
-0.010249,-0.006069,-0.020424,0.001838,0.000491,0.000849,0.004348,0.004614,
0.004619,0.001631,-0.004777,-0.000692,-0.005686,-0.002499,-0.003691,0.003225,
-0.000424,-0.000190,0.000409,0.002236,0.004747,0.004481,0.000155,0.001336,
-0.000125,0.000053,-0.004366,-0.000506,0.003802,0.000425,-0.003762,-0.002939,
0.001203,0.002372,-0.010593,-0.002189,0.003997,-0.002936,-0.000025,0.000782}
,
{
0.046650,0.043682,0.040249,0.021040,0.031941,0.011570,-0.008010,-0.000260,
0.025438,-0.023065,-0.048763,-0.006756,0.012026,0.009021,-0.009318,0.002575,
0.110089,0.005561,-0.001736,0.025739,0.000472,0.003045,-0.001611,0.001619,
0.034956,-0.003163,0.016702,-0.001626,-0.005889,-0.000565,0.002899,-0.005290,
0.025176,-0.000894,-0.000676,-0.005039,-0.005155,-0.008037,-0.003290,-0.002474,
0.003119,0.004197,0.002397,-0.000349,-0.006255,-0.008788,-0.003491,0.002004,
-0.001996,-0.008369,0.001790,-0.002119,0.000230,0.000602,0.005757,0.002850,
0.009897,-0.000138,-0.000356,0.005559,-0.000425,-0.000160,0.002047,-0.000662}
,
{
0.150133,-0.063118,0.124560,0.052755,-0.053828,-0.003873,-0.002436,0.011288,
-0.156959,0.125636,0.023856,0.023565,0.024421,-0.004982,0.008625,-0.009404,
-0.126079,-0.038606,-0.049058,0.006711,0.002379,0.002795,-0.008638,0.004871,
0.041663,0.012310,-0.008834,0.014824,0.003202,0.002851,-0.001411,-0.004617,
-0.023524,0.018334,-0.002090,-0.006090,0.009276,0.007482,-0.007032,-0.006544,
0.001381,-0.001921,-0.006348,-0.002951,0.001233,0.006062,-0.007078,-0.000399,
-0.001900,-0.003477,0.002777,-0.009428,-0.001792,-0.005077,-0.005589,-0.005671,
-0.007710,0.002748,-0.003409,0.001409,0.001269,-0.000553,0.004249,0.001057}
,
{
-0.429450,0.138616,-0.218560,0.182678,0.612468,0.315668,-0.010520,-0.083140,
0.173004,-0.053916,0.091375,0.009572,0.092357,-0.020357,0.005917,-0.007360,
0.116402,0.071468,-0.044789,-0.037675,0.027726,0.014216,-0.006032,0.017324,
0.081709,0.105872,-0.099902,0.051483,-0.007618,-0.030371,0.015814,-0.028052,
-0.090687,0.039712,-0.100335,0.003468,0.017418,-0.031474,0.009334,0.028362,
0.021503,0.025497,-0.000277,0.001182,0.012411,0.004788,0.007919,-0.016272,
0.035926,0.021314,-0.028220,0.024277,0.018225,0.013022,0.010776,-0.009527,
-0.028433,0.017071,-0.022435,-0.013881,0.007223,0.020515,-0.021416,-0.005965}
,
{
-0.240817,0.046799,-0.660936,-0.277589,0.154781,0.117600,-0.042082,-0.211452,
-0.654861,-0.184095,-0.641023,-0.014788,0.453409,0.009347,0.034018,0.038584,
0.405570,0.112104,0.110516,-0.012454,0.097585,0.109811,0.081366,-0.025958,
0.166699,-0.015394,-0.068968,0.085468,0.006222,-0.020310,0.020774,0.038267,
0.102150,-0.021516,-0.047186,0.050319,-0.021210,0.030372,0.114394,-0.031507,
0.172279,-0.064824,-0.102772,0.104424,0.005784,-0.025795,0.000515,-0.015919,
0.063311,-0.082322,0.009820,-0.024899,0.012102,-0.009131,-0.080781,-0.112448,
0.056975,0.089936,-0.065048,0.052987,-0.090964,-0.071492,0.106229,0.048415}
,
{
0.552063,0.039618,0.767625,0.162403,0.200670,-0.061512,-0.554175,-0.543885,
0.730385,-0.406799,0.372282,-0.533907,0.121293,0.068841,-0.001303,0.030881,
-0.750850,-0.380928,-0.115561,-0.191396,0.100492,0.023041,-0.131813,0.122596,
-0.064807,0.245229,-0.039456,0.028632,0.012432,-0.002881,0.003916,-0.014695,
0.060945,-0.018398,0.102935,-0.050517,0.113627,0.051469,-0.065578,0.034555,
0.091000,0.107242,0.024004,-0.071417,0.015306,-0.027701,-0.047093,0.016381,
0.073974,0.030931,-0.003221,0.052010,0.017837,-0.048437,0.058653,-0.000503,
-0.002961,-0.097284,0.003171,-0.072843,0.121137,-0.024698,0.033406,-0.091420}
,
{
-0.564852,0.098651,0.090031,0.055192,0.000349,0.010723,0.001341,-0.001036,
-0.127741,-0.017233,0.032661,0.014920,-0.000885,-0.008021,0.001472,0.002990,
-0.056717,-0.024259,-0.005317,-0.014546,-0.000595,0.000499,0.001842,-0.003988,
-0.048456,-0.004522,-0.001107,-0.000186,-0.000397,0.002803,-0.002333,-0.000395,
-0.008450,-0.003735,-0.004399,-0.001359,0.002718,-0.001692,0.000294,-0.000016,
-0.003371,0.003562,-0.001417,-0.002530,-0.002997,-0.003296,0.001085,0.003289,
-0.002024,0.000542,0.001130,-0.002016,-0.003742,0.000908,0.005223,0.006851,
0.002760,-0.003148,0.002656,0.003838,-0.001556,-0.001854,-0.000828,-0.001469}
,
{
0.097133,0.001076,-0.076853,-0.043281,-0.000655,-0.002953,-0.001790,-0.003318,
0.029288,-0.006815,-0.019187,-0.015191,0.000202,-0.001432,0.004194,-0.000670,
0.023095,0.040831,-0.038124,0.002527,-0.002061,0.001090,0.001224,-0.008555,
-0.007808,0.015315,0.001833,-0.005698,0.003406,0.007522,-0.005632,-0.003601,
-0.014075,-0.012005,-0.000354,-0.003862,0.000230,0.008924,-0.006316,-0.004679,
0.013641,0.008571,-0.002292,-0.004625,-0.001984,-0.000376,-0.003493,0.004329,
0.001967,-0.002818,0.003057,-0.007166,-0.004731,-0.005881,-0.000784,-0.001457,
-0.002161,-0.005164,0.001444,0.006205,-0.005948,-0.005607,0.006158,-0.003055}
,
{
-0.055524,0.029162,-0.008927,0.064683,0.006166,0.001979,0.001285,0.004540,
-0.007718,0.014170,0.003703,0.045666,-0.014701,-0.007569,-0.005312,-0.007375,
0.063664,-0.051845,0.011021,0.002709,0.000093,0.003431,-0.009178,-0.004063,
0.046608,-0.008426,0.011251,0.003404,0.003509,0.002213,-0.004313,-0.004061,
0.005276,0.003558,-0.003646,-0.004038,-0.004377,-0.004154,-0.005117,-0.001564,
0.009523,-0.003101,-0.004246,-0.003397,0.002225,-0.003623,-0.002539,0.001453,
0.004896,0.003030,0.004197,-0.004755,-0.000411,-0.005072,-0.003703,-0.003400,
-0.002886,-0.004409,-0.005132,0.000670,-0.001406,-0.004423,0.000174,-0.002693}
,
{
0.027542,-0.217191,0.035561,0.016014,-0.005532,-0.018582,-0.000546,-0.001035,
0.029316,-0.129420,-0.017926,0.051699,-0.017409,-0.003539,0.000086,0.013749,
-0.113483,0.003530,-0.102873,-0.034159,0.006909,-0.016257,0.009962,-0.006821,
-0.057577,-0.018279,-0.036629,-0.010901,-0.008383,0.000902,-0.011540,-0.012050,
0.000749,0.001052,-0.011317,-0.008240,0.005198,0.005936,-0.001304,-0.004290,
0.012610,0.014056,-0.004552,-0.005480,-0.009624,-0.005697,-0.002801,0.005735,
-0.006400,-0.014072,0.003489,-0.007218,-0.006537,-0.003529,0.011859,0.007181,
0.006034,-0.005688,0.012362,0.008918,-0.001912,-0.002593,0.006561,-0.001060}
,
{
1.133217,0.339707,-0.367796,-0.206664,0.030857,-0.033766,-0.039746,-0.014283,
0.482657,0.227432,0.170253,-0.045425,-0.043024,0.041612,-0.035391,-0.020058,
-0.281463,-0.220780,0.333864,0.062263,-0.008221,0.025609,-0.028179,0.035649,
-0.152294,-0.253343,-0.029640,-0.046689,0.019114,-0.013300,0.046355,0.003611,
-0.127493,-0.023195,0.001904,0.012164,-0.021069,-0.025917,0.027427,0.013613,
-0.015898,-0.032710,0.033128,0.010896,0.005063,0.014899,0.020274,-0.015217,
-0.011593,-0.013105,-0.031301,0.032159,0.030416,0.007466,-0.001904,-0.026543,
0.030029,0.019924,-0.020682,-0.022458,0.018509,0.009633,-0.024484,0.014517}
,
{
-0.150696,0.020834,-0.000797,-0.075489,0.048697,0.142753,0.122711,0.013102,
-0.180980,0.000105,-0.150017,0.215935,-0.168932,0.018624,-0.237563,-0.100815,
-0.142387,0.145008,-0.060854,-0.036143,0.013462,0.008959,-0.126548,-0.153674,
-0.166375,0.013801,-0.130280,0.057372,-0.027478,0.024254,0.108017,-0.033288,
0.013765,0.191116,-0.075112,-0.105018,0.127279,0.075652,-0.131068,-0.114878,
-0.054165,-0.194972,0.078440,-0.113299,-0.147368,0.095658,0.134113,0.034698,
0.136976,-0.058742,0.179519,0.020281,-0.164410,0.100242,-0.071261,-0.042816,
0.083617,-0.158962,-0.007294,-0.056557,-0.124454,-0.235268,-0.127841,-0.129769}
,
{
-0.054542,0.045870,-0.105670,0.038978,0.085517,0.235743,0.112139,0.085140,
-0.112959,-0.055006,0.062811,-0.112776,-0.083587,-0.017753,0.091416,-0.098220,
-0.018772,-0.068722,-0.186165,0.087438,0.039308,-0.201332,0.168874,-0.048615,
-0.001231,-0.158799,0.005205,-0.093575,0.100078,0.131585,-0.029457,0.131432,
-0.004631,-0.115927,-0.093853,0.068484,-0.240407,0.030100,-0.035979,-0.081197,
-0.147812,-0.000040,-0.120332,0.171927,-0.095328,-0.078848,0.010523,-0.119474,
-0.034588,-0.120131,0.130902,0.148053,0.057356,-0.239732,-0.076518,0.071815,
0.134815,-0.004993,-0.058474,-0.152401,-0.060315,-0.195160,0.175887,-0.067775}
,
{
-0.046849,-0.008427,-0.162751,-0.220778,-0.204360,0.021171,-0.145370,-0.044718,
-0.025216,0.212301,-0.074884,-0.003904,0.037428,0.078680,-0.206354,0.049401,
-0.030496,0.067414,-0.190337,0.049093,0.007826,0.110673,0.112712,0.193106,
-0.062370,-0.167850,-0.230513,0.184638,0.089594,-0.117543,-0.103486,0.015450,
0.024385,-0.021373,-0.024206,-0.047016,0.009167,0.118362,-0.139472,-0.163024,
-0.082744,-0.120391,-0.192690,0.052444,-0.070345,-0.097375,0.041687,0.249842,
0.226145,0.124089,0.050831,-0.178869,-0.036467,0.074417,0.022538,0.025018,
0.061675,-0.114934,0.014782,0.189592,-0.158856,-0.051792,-0.158998,-0.045442}
,
{
0.356345,-0.188865,-0.072788,-0.024534,-0.023827,0.000718,-0.000513,-0.002137,
0.112062,-0.019147,-0.044481,-0.014545,-0.002271,-0.002819,0.000657,-0.002145,
0.068437,0.014425,-0.004045,-0.001179,-0.004020,-0.000565,-0.000069,-0.000878,
0.050881,-0.005135,0.004313,-0.000378,-0.001785,-0.002009,-0.004047,0.003374,
0.003021,0.000674,0.011400,0.002613,-0.007725,0.003785,-0.001291,-0.000129,
0.003709,-0.001710,0.000029,0.003040,0.000532,0.000206,-0.003622,-0.000829,
-0.002135,0.001293,-0.003092,0.003172,0.000648,-0.001191,-0.002764,-0.000930,
-0.002279,0.002011,-0.002737,-0.000689,0.001761,0.000375,0.001262,0.000571}
,
{
0.037304,0.115132,0.017188,0.094459,-0.027820,0.039311,0.005243,0.009663,
-0.038509,0.050722,0.036470,0.013704,-0.002990,-0.016434,0.013360,-0.011490,
-0.010340,0.030571,-0.062978,0.009105,0.000224,-0.001448,-0.007213,0.007176,
-0.051676,-0.024232,-0.003584,-0.001306,-0.003372,-0.007770,0.007888,0.008580,
0.006447,-0.005966,0.002116,0.009730,0.000456,0.000797,0.010101,0.013067,
0.007967,-0.005888,0.005144,0.011366,0.012649,0.011340,0.006724,-0.007272,
-0.002640,0.002604,-0.006926,0.005466,0.009361,0.008776,-0.012226,-0.008941,
-0.003019,0.011848,-0.009555,-0.009146,0.013409,0.009953,-0.008666,0.010166}
,
{
-0.137694,-0.148573,-0.010838,-0.050998,0.022573,0.026051,-0.001990,-0.003671,
-0.127605,0.115609,-0.077795,-0.036774,-0.010600,0.002412,-0.005690,-0.002292,
-0.023991,-0.047211,-0.029921,-0.031929,-0.014229,0.006997,0.003179,0.002236,
0.007305,-0.019423,0.076456,-0.011103,0.015158,0.001736,0.006706,0.009052,
0.016182,-0.027680,0.007693,-0.010855,-0.008018,0.004457,-0.004728,-0.010120,
-0.006706,0.023888,-0.003235,-0.004009,-0.005547,-0.004042,-0.003081,0.002538,
-0.006782,0.000666,-0.001803,0.005384,-0.001972,-0.004057,0.003773,0.003816,
-0.001024,-0.001219,-0.004033,0.004410,-0.007362,-0.000568,0.003136,-0.009550}
,
{
0.004386,0.171142,-0.020415,-0.030085,0.010702,-0.034994,-0.034741,-0.010669,
-0.078787,-0.259633,0.097199,0.050557,0.010153,0.026764,-0.039801,-0.027843,
0.068490,0.012712,-0.185305,0.057094,-0.038391,0.038161,-0.030335,0.020626,
0.068229,0.054755,-0.131681,0.002873,0.020720,-0.037431,0.017459,0.024528,
-0.051092,-0.035694,0.006507,0.025381,-0.037564,-0.032688,0.028284,0.030339,
-0.020035,0.006581,0.021730,0.029255,0.030449,0.027473,0.024290,-0.034657,
0.036672,-0.040739,-0.028643,0.025114,0.026570,0.033691,-0.035966,-0.028760,
0.029443,0.028309,-0.030223,-0.029663,0.032067,0.030549,-0.023221,0.034087}
,
{
0.311847,-0.041660,-0.325541,-0.093771,-0.072052,0.134820,0.054512,-0.182909,
-0.006449,0.025766,0.024991,0.089398,-0.116118,0.100718,-0.115430,0.086663,
0.073872,0.043855,-0.131248,0.255995,0.074981,-0.083046,0.117041,0.004703,
0.019823,-0.141520,-0.018238,0.045981,0.056235,0.162666,-0.013747,0.058613,
0.056393,-0.075495,0.026474,-0.058232,-0.039043,-0.036956,-0.050560,-0.024463,
0.009907,-0.076356,0.143566,-0.086747,0.068252,0.024618,-0.000828,-0.225902,
0.001377,0.126177,0.265080,0.062907,0.030265,-0.144104,0.061329,0.048583,
0.024465,0.108025,0.060300,-0.047518,0.265220,-0.152183,-0.025826,-0.129928}
,
{
0.162477,-0.016921,0.076772,-0.030902,0.227655,0.144703,0.186012,-0.158624,
0.073028,-0.013653,0.194177,-0.021113,-0.024591,-0.071916,0.056913,-0.096899,
0.028350,-0.030303,0.148762,0.244535,0.063816,0.204768,0.113887,0.097000,
-0.018202,-0.081989,0.006964,0.194819,-0.025501,-0.021218,-0.065222,0.034084,
-0.179756,0.045373,0.168279,-0.099688,-0.036770,-0.186123,-0.245269,0.152655,
-0.043266,0.043621,-0.130624,-0.036004,0.034623,0.033949,0.010056,-0.135732,
-0.021171,0.083234,0.153928,0.002158,0.161375,-0.218800,0.031613,-0.087371,
0.012084,0.133771,0.066207,-0.028855,-0.066757,-0.135972,-0.049129,0.026483}
,
{
0.074634,-0.099463,-0.141812,-0.064559,-0.116902,0.171791,0.081034,0.085860,
0.004826,0.056204,-0.094668,0.095628,0.207725,0.070641,0.108811,0.144842,
-0.068496,0.215346,0.080265,0.021403,0.085651,0.120017,0.073198,-0.240726,
0.149629,0.000581,0.203362,0.055556,0.171574,0.037760,0.142576,-0.036678,
0.119452,0.086214,-0.073382,0.026765,-0.118841,0.246635,0.170696,0.068746,
0.134228,-0.038849,0.151906,0.083765,0.164141,-0.031341,-0.087850,-0.097504,
0.130593,-0.038751,-0.033139,-0.074288,0.049859,0.148202,0.074472,-0.027963,
0.096332,0.171129,0.123184,0.041043,-0.039603,0.161564,0.034167,0.123758}
,
{
-0.135127,0.050754,0.142425,-0.119933,0.137580,0.006845,-0.072973,-0.008884,
-0.028925,0.017678,0.080331,-0.082168,0.169487,-0.045002,0.007413,0.041480,
0.021797,0.060170,0.041229,-0.189080,0.086421,-0.095812,-0.004051,0.118840,
-0.011021,-0.109648,-0.045424,0.075260,0.111070,0.004946,-0.074971,0.082617,
-0.101168,-0.095077,-0.067908,-0.249804,0.001474,-0.111539,-0.050608,-0.047369,
-0.058471,0.125398,0.118406,-0.126535,-0.007039,0.035805,0.023489,-0.031432,
0.044659,0.157512,0.101937,-0.037183,-0.056955,-0.010665,-0.136862,-0.201783,
0.040693,0.043453,-0.089518,-0.046463,0.080138,0.227865,-0.123499,-0.066849}
,
{
-0.298943,0.199748,0.027692,0.076505,-0.026748,0.019885,-0.012723,-0.004910,
-0.198711,-0.032476,0.020256,0.039034,-0.001255,0.010288,-0.018326,0.000246,
-0.015074,-0.064127,0.008615,0.023828,-0.005954,-0.001114,-0.000500,0.015083,
-0.004500,0.020828,0.006469,-0.006497,0.010184,-0.014162,0.016993,0.011563,
0.038083,0.004039,0.000352,0.002374,-0.017676,-0.013570,0.010362,0.003469,
0.003924,0.006837,0.012034,0.010271,0.003711,0.003785,0.009177,-0.010260,
0.004834,-0.004024,-0.007633,0.023644,0.013470,0.007032,-0.002421,-0.004267,
0.009824,0.011906,-0.006209,-0.013338,0.009971,0.010154,-0.009637,0.007803}
,
{
-0.064954,-0.178639,-0.001557,0.031925,0.039253,0.050428,0.016225,0.011845,
-0.142569,0.091340,0.073811,0.026775,0.062838,-0.000275,-0.006173,0.011098,
-0.219158,0.034723,-0.030289,-0.002417,0.014445,-0.009622,0.008022,-0.010833,
0.093091,0.117382,-0.001044,0.009661,-0.009388,0.017599,-0.004664,-0.008493,
0.101866,0.013890,-0.020724,0.006716,0.019133,-0.001684,-0.003111,-0.006441,
-0.021647,0.013380,-0.015246,-0.017793,-0.010585,-0.008586,0.001551,0.022138,
-0.000509,-0.002535,0.004167,-0.016000,-0.012851,-0.007090,0.022485,0.017450,
-0.004566,-0.016606,0.005484,0.015632,-0.014925,-0.013475,0.006530,-0.013356}
,
{
-0.639348,-0.016737,-0.222849,-0.217516,-0.065282,0.014608,0.007919,0.014393,
0.378440,0.124153,0.011190,-0.098847,0.070307,0.041344,-0.032825,-0.018425,
0.227172,-0.096323,0.177306,0.168366,0.004555,0.015692,-0.025659,0.013988,
0.118383,0.020464,0.007745,-0.016041,0.014455,-0.019511,0.010535,0.007997,
0.032618,-0.021141,0.013735,0.008954,-0.009291,-0.010795,0.000029,0.012130,
0.059734,0.034233,0.021124,0.038912,0.031345,0.021290,0.014381,-0.044445,
0.028386,0.001774,-0.015970,0.020102,0.029223,0.011512,-0.031871,-0.019483,
-0.009840,0.034129,-0.037604,-0.023481,0.028104,0.020344,-0.008502,0.033862}
,
{
-0.254139,-0.797320,0.050205,-0.044925,-0.070184,0.012793,-0.043376,-0.014223,
0.028561,0.100743,-0.074597,-0.110157,-0.021048,0.023084,-0.014497,-0.026477,
-0.150444,-0.085156,-0.239358,-0.042439,-0.028450,0.049534,-0.031871,0.021466,
-0.074098,-0.046705,0.066882,-0.053948,0.022520,-0.019148,0.024760,0.016290,
0.177437,0.012648,0.008304,0.014980,-0.021766,-0.027919,0.031402,0.030465,
-0.024743,-0.051842,0.043238,0.024492,0.032932,0.031995,0.024929,-0.026399,
-0.006237,-0.047849,-0.020527,0.021078,0.024255,0.028752,-0.032468,-0.015693,
0.064379,0.022207,-0.025170,-0.019513,0.026060,0.023229,-0.027148,0.035431}
,
{
0.370556,-0.003721,0.250317,0.018541,-0.235510,-0.209906,0.057142,0.280505,
0.029379,-0.000277,0.189908,0.091303,-0.084349,-0.172455,-0.021717,-0.050239,
-0.343078,-0.164586,0.051549,0.043591,-0.108885,0.013232,0.010504,0.017765,
-0.098926,-0.051555,-0.023075,0.070415,0.049930,-0.066454,0.055370,-0.142384,
0.158624,-0.085880,0.041521,0.048768,-0.060150,0.010789,-0.058208,-0.108007,
0.049647,0.073375,0.114711,-0.011183,0.004348,0.007277,-0.013555,-0.157485,
-0.049852,0.042306,0.004979,-0.004783,-0.094950,0.063394,-0.011854,0.076749,
-0.053520,0.020660,-0.131416,-0.014900,0.093018,0.138244,-0.135560,0.069115}
,
{
0.418988,0.185845,0.390967,0.154815,-0.491513,-0.308149,-0.073823,0.147202,
0.137953,0.028115,0.394352,-0.054015,-0.240533,0.078764,0.007761,-0.028527,
-0.476470,-0.107343,0.123894,-0.012071,0.042912,-0.057670,-0.131793,0.049065,
-0.034515,0.085162,0.140799,-0.125488,-0.110437,0.045201,-0.024894,0.065858,
0.056414,0.116976,0.062247,-0.166762,0.072455,-0.092389,-0.018111,0.192828,
-0.160006,0.018208,-0.101023,-0.045079,0.034583,0.066163,0.068200,0.145186,
0.043337,-0.063545,-0.101904,0.093547,0.133919,-0.004185,0.115551,0.007819,
-0.023830,-0.075637,0.129666,-0.045156,0.056870,-0.032944,-0.008318,-0.074563}
,
{
-0.057887,-0.116323,-0.174948,0.154548,-0.002711,-0.202561,0.075499,0.011682,
0.047567,-0.016122,-0.231943,0.013573,0.030026,0.081802,-0.001106,0.019477,
-0.045646,-0.056357,0.099461,-0.143525,0.239307,0.054110,-0.066263,0.055464,
0.053495,0.076407,0.130906,0.088542,0.184777,-0.124757,-0.075501,-0.140486,
0.019213,0.060151,0.212015,0.137934,-0.035237,-0.031734,0.103915,0.218123,
-0.005648,-0.073984,-0.178704,0.114859,-0.082532,-0.087559,0.103801,0.069086,
-0.145342,-0.091763,0.055497,-0.114616,-0.008943,-0.002887,0.075599,-0.179398,
-0.047523,0.034119,0.190597,0.112225,-0.101674,-0.067633,0.193344,0.187637}
,
{
0.233825,-0.137872,0.140750,0.185032,-0.037455,0.054578,0.052775,0.163439,
0.173626,-0.171994,0.117750,0.139534,0.076926,0.149953,0.193538,-0.023533,
0.064159,-0.151142,-0.087252,-0.118962,0.144198,0.076036,0.155959,-0.112388,
-0.031149,-0.049805,-0.123873,-0.112726,-0.145821,0.020493,-0.018653,-0.066619,
0.034292,-0.071031,-0.129843,-0.026380,-0.026153,-0.158591,-0.068591,0.123352,
0.002016,0.208114,0.036441,0.025752,-0.049205,0.021038,-0.120663,-0.142457,
0.039056,0.084309,0.106707,0.174602,0.107165,0.001236,-0.041381,-0.210263,
0.103402,0.130510,0.020347,0.113739,-0.094522,0.106883,0.001548,-0.128063}
,
{
0.306582,-0.174635,0.056551,0.033016,-0.012038,-0.008128,-0.002442,0.022872,
0.083679,-0.015531,-0.011793,-0.004593,0.009737,-0.014539,0.010999,0.016760,
0.039460,-0.030424,-0.003120,-0.024823,0.011347,-0.026371,0.017020,-0.011950,
0.005704,0.001161,-0.010894,0.005567,-0.011183,0.008426,-0.010154,-0.024101,
-0.015454,-0.052492,0.018529,-0.004134,0.012238,0.014990,-0.015042,-0.022874,
0.034330,-0.021567,-0.017357,-0.013285,-0.017865,-0.017423,-0.011874,0.007585,
-0.007995,-0.014238,0.027864,-0.007797,-0.016290,-0.014953,0.008068,0.008865,
-0.019216,-0.017676,0.013146,0.002819,-0.017646,-0.017894,0.008505,-0.015798}
,
{
0.050916,-0.524375,-0.516189,-0.272530,-0.003760,-0.033567,-0.055746,-0.059330,
0.128461,0.267535,0.136477,0.138537,-0.133478,0.033034,-0.046380,-0.021201,
-0.002802,0.113218,-0.055830,0.020651,-0.025181,0.036562,-0.018816,0.031701,
0.059101,-0.171080,0.007385,-0.034224,0.000352,-0.013045,0.016695,0.003795,
-0.098114,0.028395,-0.061943,0.007726,-0.043648,0.002530,0.017244,0.021693,
-0.016723,0.026663,-0.014128,0.004998,0.015754,0.036510,0.014689,-0.029164,
-0.006137,0.027943,-0.026115,0.019421,0.014077,0.007836,-0.010926,-0.025178,
0.016622,0.016041,-0.006183,-0.010175,0.017117,0.008262,-0.021891,0.013938}
,
{
0.260336,-0.068711,0.173324,0.463089,0.115716,-0.042200,0.037166,0.025793,
-0.488475,0.241844,0.174938,0.107306,0.041611,-0.024728,0.000189,-0.014455,
-0.030604,-0.106522,0.038201,-0.094257,0.025209,0.008310,-0.013279,-0.010421,
-0.287494,-0.002738,-0.051283,0.027622,-0.005268,0.009503,0.007580,0.002138,
-0.074413,-0.049124,0.032917,-0.003105,-0.007884,0.010991,-0.003335,-0.028971,
-0.158244,-0.010223,-0.017202,0.010620,-0.000111,-0.005634,0.011328,0.021255,
0.042794,-0.001116,0.003926,-0.016339,0.006796,-0.003585,-0.017497,-0.006063,
-0.034462,-0.015762,-0.002827,-0.003109,-0.003788,-0.020273,-0.000347,0.002981}
,
{
0.134307,0.103834,-0.288722,0.055128,0.179604,-0.080049,-0.078551,-0.014150,
0.219254,0.066963,-0.071440,-0.121354,0.075770,0.179036,0.051592,-0.023650,
-0.091146,-0.168521,0.025620,0.086857,-0.193425,-0.176835,-0.018114,-0.040456,
0.097962,0.007370,-0.011951,-0.030812,0.118955,-0.036423,-0.002652,-0.028463,
-0.087758,-0.011331,0.083248,-0.063524,-0.052520,-0.029167,0.018049,0.093471,
0.136240,0.080639,-0.021740,0.034685,0.150807,-0.201059,0.011678,0.129075,
-0.051530,-0.012434,-0.087732,-0.163815,0.144324,0.088977,0.026593,0.195351,
-0.015944,0.040831,0.035376,-0.022983,0.098964,0.081186,0.089647,0.075734}
,
{
0.000919,-0.009693,0.215057,0.210067,-0.086596,-0.073769,0.043180,-0.079283,
0.093755,0.110379,-0.009198,0.170679,-0.044561,0.106985,-0.024790,-0.046250,
-0.005904,0.120841,0.169449,0.010881,0.019810,0.001790,-0.020833,-0.014282,
0.081883,0.075432,-0.032969,-0.006418,-0.169165,0.006038,0.217117,-0.019346,
-0.067717,0.006041,-0.070377,0.105939,-0.043514,-0.091256,-0.096152,-0.107194,
0.053173,-0.184595,-0.014735,0.026331,0.097962,-0.040257,-0.047972,0.061653,
0.122309,-0.131001,0.100491,-0.208297,-0.108583,0.072631,-0.036350,0.022049,
-0.052964,-0.084053,-0.055897,-0.062753,0.183760,0.001873,-0.151774,0.043774}
,
{
-0.018095,-0.226471,0.094641,-0.148721,-0.018738,-0.219654,-0.089990,0.100395,
-0.064639,0.029754,-0.037874,0.048498,0.082953,0.079560,0.018768,-0.057907,
-0.137534,0.120522,-0.114576,0.031610,0.234305,0.105169,-0.070699,-0.204491,
-0.076419,-0.003774,-0.172107,-0.025706,0.121027,0.248722,0.192181,-0.103647,
0.223229,0.008751,0.094937,0.024107,0.066409,-0.028562,0.049708,0.158115,
-0.063236,0.105036,-0.132601,-0.133542,0.030253,-0.036146,0.020475,0.208006,
-0.155893,0.109470,0.014781,-0.034551,-0.073581,0.192446,0.017460,-0.141931,
0.113177,-0.026439,0.191051,0.011828,0.011746,0.105869,-0.124435,0.087218}
,
{
0.200557,-0.148692,-0.005055,0.087388,-0.195483,0.011150,-0.010575,-0.044922,
-0.041772,0.120500,0.160127,0.000060,-0.246464,0.007918,0.147068,-0.029170,
0.011093,-0.023016,-0.027391,-0.160188,-0.054021,-0.134365,0.019374,-0.004967,
-0.132758,0.158334,-0.080383,-0.121939,0.124601,-0.152571,-0.080240,-0.228765,
0.149722,0.180049,-0.013636,-0.032302,0.139505,-0.079554,-0.245323,0.077298,
-0.018279,-0.032689,-0.098241,-0.007221,0.042295,0.073962,-0.041071,0.028474,
-0.038382,-0.053783,-0.170108,0.110389,0.069675,0.032696,-0.196026,0.112226,
-0.078322,-0.040362,-0.016042,-0.214507,0.114863,-0.093481,-0.129921,-0.092745}
,
{
-0.068954,0.064461,-0.066892,-0.071396,0.097976,0.062154,-0.052737,0.107635,
0.134455,0.023776,-0.022622,-0.169743,-0.014316,0.009446,0.025836,-0.035866,
0.167624,-0.025295,0.095019,0.029888,-0.026579,0.019639,-0.169546,0.059047,
0.076788,-0.102959,0.155655,-0.032144,-0.085093,0.138174,-0.069537,-0.087914,
0.075843,0.016339,-0.029325,0.077149,0.185889,-0.166876,-0.008968,0.101876,
0.184002,-0.212111,0.222087,-0.056717,-0.072222,-0.041617,-0.058622,-0.075515,
0.106291,0.037515,0.024616,-0.070098,-0.018048,-0.128683,0.011441,0.243021,
0.059761,0.064805,-0.185555,-0.114858,-0.061778,-0.020946,0.152834,-0.016202}
,
{
0.029659,-0.054281,-0.258799,0.175377,0.076591,-0.024395,-0.007049,-0.002870,
-0.016783,0.220854,0.113426,-0.042551,0.019723,-0.028537,0.006233,0.014073,
0.303301,-0.361584,0.071814,-0.027095,0.018171,-0.000174,0.022364,0.022513,
-0.121759,0.053472,-0.038757,0.008956,0.002872,-0.006436,0.013256,0.005215,
-0.109361,0.019359,-0.016352,-0.006536,-0.009838,-0.024011,0.010972,0.012582,
-0.108334,0.024649,-0.006927,0.018403,-0.003951,-0.007419,-0.013285,-0.016572,
-0.000451,0.023400,0.006313,0.018921,-0.008360,0.016890,0.005870,0.024870,
0.015615,0.021201,0.018739,0.009445,0.012426,0.034607,-0.015469,-0.001566}
,
{
0.111295,-0.345880,0.024568,-0.020783,-0.099080,-0.030658,0.008298,0.032952,
0.163716,-0.302537,-0.068080,-0.095691,-0.009980,0.045760,-0.005851,0.010992,
-0.139427,0.028493,0.067666,-0.033242,0.039617,-0.007057,0.018757,0.006994,
-0.050206,0.032086,0.029879,0.015931,-0.021253,-0.007787,0.019920,-0.036220,
-0.032024,-0.023110,-0.004451,-0.022858,0.014928,-0.021721,0.020039,0.011888,
-0.008009,0.030660,0.015513,0.010794,0.008347,0.002721,0.011353,-0.013465,
0.001255,-0.000356,0.032011,0.009275,0.012702,0.014467,-0.013640,0.000850,
-0.031319,0.017506,0.037588,-0.011299,0.010274,0.014554,-0.016967,0.012045}
,
{
-0.102387,-0.169095,0.036089,0.052416,-0.003974,-0.039654,0.011569,-0.045393,
0.032733,0.014452,-0.079745,0.146538,-0.026430,0.167718,0.077779,-0.107798,
-0.124523,0.118313,0.134101,-0.027735,0.093902,0.095745,-0.137507,-0.060477,
-0.004257,-0.137139,-0.223525,0.193525,-0.051802,-0.181548,0.041012,0.111209,
0.010933,-0.082451,-0.072843,-0.158711,-0.022450,-0.113949,0.079280,0.097191,
0.078725,0.178638,0.190353,0.045779,0.032173,0.088228,0.149913,-0.096062,
-0.138937,-0.013410,-0.026078,-0.090013,-0.102619,-0.076912,-0.236405,0.068087,
0.038661,0.068941,-0.128458,0.238305,0.055571,-0.055669,0.061791,0.032244}
,
{
0.116138,0.195642,-0.061323,0.057539,-0.079062,-0.023745,-0.187392,0.024613,
0.165314,-0.027961,0.014575,-0.092034,-0.025073,-0.146125,0.002603,0.206068,
-0.072516,0.130653,0.201179,0.023899,0.006409,-0.038788,-0.047478,-0.105665,
0.047313,-0.071234,0.032565,0.174844,0.056063,0.240407,-0.135784,-0.235052,
0.015333,0.012602,0.017996,0.067292,0.112012,0.070179,0.100413,-0.009581,
0.033714,-0.133047,0.031030,0.098211,-0.024020,-0.006352,0.134771,-0.020210,
-0.070096,-0.036880,0.067851,-0.043827,0.040348,0.235388,0.104167,0.031000,
-0.052030,-0.191857,0.153502,-0.028923,0.042877,0.166167,-0.101408,0.129540}
,
{
0.136328,-0.063450,-0.014199,-0.077049,-0.001369,-0.030487,0.048874,-0.040036,
-0.134707,-0.140020,0.205351,-0.204143,-0.102117,-0.005936,0.012610,-0.183683,
-0.134086,0.104416,0.021787,-0.089182,-0.027098,-0.195525,-0.206001,-0.244419,
0.079540,-0.175734,-0.023918,-0.184604,-0.095663,0.035718,0.126487,-0.020842,
0.211011,-0.119550,-0.108476,0.119509,0.010868,-0.012698,0.073131,0.078253,
0.104098,0.040945,-0.131429,-0.217364,0.113277,0.115300,-0.047819,0.083788,
0.002574,0.006413,0.206030,0.058048,0.205422,-0.067404,-0.038884,0.145356,
0.204283,0.030791,-0.133103,-0.192527,-0.051273,-0.147317,0.121199,0.100120}
,
{
-0.020736,-0.236370,-0.173463,-0.189710,-0.169002,-0.131262,-0.089837,0.069073,
0.148651,-0.094281,0.166171,0.109167,-0.012217,0.001926,-0.125887,0.041677,
-0.050618,0.093424,0.207746,-0.181382,0.214993,0.079582,-0.034938,0.185479,
0.096169,0.110502,0.045097,0.128134,-0.222000,0.001932,-0.012575,-0.030484,
0.026635,0.012055,0.103809,0.205570,-0.001763,-0.089022,-0.026039,0.105632,
0.133524,-0.097657,-0.058184,-0.069901,0.079796,0.070181,-0.032943,-0.012498,
-0.145198,0.138813,-0.038184,-0.080518,0.084379,-0.009943,-0.123852,-0.063720,
-0.039419,-0.226913,0.053960,0.182555,0.205630,-0.022151,-0.055465,-0.056276}
,
{
0.022847,-0.038847,-0.028969,-0.069599,0.066857,-0.040806,0.066311,0.115548,
-0.071583,-0.015971,-0.093271,-0.119396,-0.069717,0.040762,-0.107583,-0.089628,
0.178744,-0.065535,0.023138,0.010336,-0.082021,0.159064,0.003097,-0.001345,
-0.061264,0.078148,0.075951,-0.059398,0.041442,0.068329,-0.095463,0.044608,
-0.170135,-0.032116,-0.070060,-0.015066,-0.001044,-0.081108,-0.112167,0.051443,
0.169604,0.060517,0.061565,-0.057486,0.141241,0.208844,0.122110,-0.090270,
0.108682,0.070060,0.073031,-0.046535,0.049141,0.056597,0.040567,0.065345,
0.188401,0.166813,0.081744,-0.116496,-0.133459,-0.156600,0.109553,-0.089627}
,
{
0.021336,0.002347,0.045397,0.201105,-0.182711,-0.142696,-0.030552,-0.005798,
-0.018495,0.003533,-0.190363,0.030967,-0.016016,-0.181321,0.166646,-0.221585,
0.110574,0.069916,-0.106193,0.114274,-0.022213,-0.118486,-0.031042,0.076828,
0.032693,0.125924,-0.033567,-0.147425,0.164719,-0.073948,-0.047611,-0.108584,
0.200974,0.106145,0.096178,-0.010660,0.117505,0.017459,-0.133287,-0.135034,
0.213260,0.057688,0.137903,-0.084365,0.038880,0.107064,0.129569,0.030805,
0.004636,-0.028030,0.083543,-0.185777,-0.114743,0.019817,0.145960,0.076488,
0.043191,-0.058260,0.096148,0.129680,-0.115758,-0.066610,0.092845,0.089079}
,
{
0.065408,0.154059,-0.039402,0.076356,0.006150,-0.008258,-0.020141,-0.027075,
0.014870,-0.028655,-0.058906,0.067833,-0.037072,0.016119,-0.021474,-0.021892,
0.052002,-0.058215,-0.018619,-0.034575,-0.028510,0.022386,-0.025360,0.020237,
-0.001915,-0.030292,-0.028629,-0.020102,0.022728,-0.023114,0.013952,0.022293,
-0.012778,-0.031372,0.024413,0.006323,-0.017456,-0.025757,0.017592,0.023684,
-0.017443,-0.021049,0.017044,0.017982,0.028739,0.022858,0.012752,-0.015175,
0.019413,-0.019498,-0.025154,0.018025,0.022296,0.026580,-0.018180,-0.023054,
0.018606,0.019192,-0.017677,-0.018587,0.020679,0.019121,-0.017194,0.026024}
,
{
0.210534,-0.106213,-0.291476,-0.166594,-0.109827,0.048573,-0.165800,0.171971,
0.014445,0.114108,0.203315,-0.000651,-0.177401,-0.159179,0.133237,-0.125515,
-0.227424,0.168087,0.120749,-0.175081,0.157854,0.166800,-0.116924,0.005421,
-0.102478,0.030116,-0.047411,0.086052,-0.100262,0.006593,0.022498,-0.088934,
-0.128567,0.096983,-0.178992,-0.040888,0.048356,0.116123,0.064842,-0.186407,
-0.019605,0.130452,-0.075242,0.016386,0.062205,-0.026137,0.109634,0.199835,
-0.026898,-0.128640,-0.080499,-0.040940,-0.132368,-0.006047,-0.086442,-0.250812,
0.120738,-0.216526,-0.072728,0.084356,-0.093410,-0.077436,-0.158104,0.028356}
,
{
0.058098,-0.021658,-0.213246,0.020363,0.044827,-0.047882,-0.041016,-0.071611,
0.000499,-0.036810,-0.007455,0.025774,0.055367,-0.085112,0.164271,0.028398,
0.054556,0.214132,-0.043921,0.029533,-0.074874,0.032124,-0.149535,0.159705,
0.040633,-0.114524,-0.181897,-0.214207,0.053533,0.100646,-0.107549,-0.104687,
-0.091561,0.045664,-0.177109,-0.183354,-0.093971,0.021977,0.072428,-0.024528,
0.091777,0.063676,0.103753,0.050915,-0.006560,-0.041602,-0.045856,-0.040823,
-0.248791,-0.051457,-0.239363,0.086906,0.146608,0.005836,0.031085,-0.128896,
-0.050293,-0.077771,0.088157,0.030874,-0.062883,-0.213508,-0.010782,-0.101540}
,
{
-0.048332,0.024956,0.255068,0.059301,-0.029185,-0.151557,-0.173661,-0.032050,
0.055489,0.012709,-0.140136,0.047828,-0.165925,0.092931,-0.045667,0.152355,
0.137461,-0.069735,-0.119509,0.044659,-0.037288,0.068289,0.021551,-0.091651,
-0.011595,0.027476,-0.063244,0.075860,0.160199,-0.127884,-0.130970,0.076088,
-0.028376,-0.064765,0.151831,-0.051456,-0.023649,-0.069050,0.117744,-0.072414,
-0.093900,0.005849,0.120778,-0.068498,0.055470,-0.006209,0.158981,0.041221,
0.009582,-0.092166,-0.011914,0.050450,0.142772,-0.047424,0.009032,-0.153006,
-0.058074,-0.028521,0.138566,-0.074793,-0.018916,-0.046244,-0.004456,0.016780}
,
{
-0.060829,0.040948,-0.002055,-0.241658,0.045479,-0.220347,0.093798,-0.051136,
0.253144,0.035194,0.096098,0.123476,-0.033034,-0.044198,-0.096941,0.235214,
0.111842,-0.031341,0.155828,0.187412,-0.035537,0.179417,0.084710,-0.178072,
0.054420,-0.147474,-0.005189,0.009601,-0.200158,-0.165167,-0.023495,0.040718,
0.086049,0.164960,-0.097521,0.065771,-0.003779,-0.145668,-0.096308,-0.148117,
-0.087048,-0.108018,0.002908,-0.115429,-0.229695,0.058720,-0.095360,0.082905,
0.063156,0.012507,0.074141,-0.104960,-0.088047,-0.009686,0.063668,-0.009165,
-0.286797,-0.130098,0.150764,-0.061869,-0.189735,0.006032,0.014213,-0.006298}
,
{
0.109363,-0.146996,-0.011423,-0.079883,-0.128779,0.190990,0.111839,-0.010121,
-0.078029,-0.126324,0.056247,-0.049004,0.108237,-0.020361,-0.047505,-0.104606,
-0.033006,-0.116240,-0.047476,-0.027446,-0.085702,0.010676,0.113587,0.059553,
-0.063324,-0.097053,-0.144975,-0.041584,0.086739,-0.198297,-0.216217,-0.149524,
0.158673,-0.130078,0.081616,0.041214,0.140846,-0.193622,-0.037451,-0.089369,
0.073552,0.099910,-0.126667,-0.247465,0.132840,-0.062111,-0.015124,-0.024327,
-0.112842,-0.065726,-0.028654,0.172294,0.028120,-0.036363,-0.153121,0.057195,
-0.024715,0.008242,0.086153,0.101868,-0.009547,-0.015857,0.097094,0.064448}
,
{
-0.124788,0.062099,-0.019962,-0.056554,0.009447,0.055808,-0.113154,-0.012619,
-0.017911,-0.049638,-0.120607,-0.079383,-0.026044,0.079147,0.057982,0.160872,
-0.077295,-0.154987,-0.016893,-0.053746,0.090100,0.006069,-0.020450,0.108973,
-0.076099,0.117767,0.053365,-0.020624,-0.113299,-0.016247,-0.158401,0.132241,
-0.163713,0.070409,-0.008161,0.076646,-0.080461,-0.196394,-0.013574,0.216108,
0.148015,-0.090344,-0.192609,-0.077586,0.069139,0.162644,0.005949,-0.104277,
0.086257,-0.111472,-0.159435,0.132162,0.090331,-0.032285,-0.047104,-0.015435,
-0.082258,-0.197781,-0.181897,-0.013066,-0.117316,0.179006,-0.158131,-0.205241}
,
{
0.016336,0.009573,0.006856,-0.069886,-0.141710,-0.057596,-0.013346,0.058101,
0.112332,-0.078611,0.024314,-0.017511,0.084744,-0.036408,0.017431,-0.227785,
0.009126,-0.166177,-0.070657,-0.021879,-0.126055,-0.027299,0.157200,-0.166655,
0.124771,0.018317,0.197038,-0.058440,-0.167859,-0.123426,-0.186024,0.129015,
0.083419,-0.091595,0.019615,-0.087523,-0.035555,-0.000585,-0.103268,0.062257,
-0.000210,0.034073,-0.044729,0.089842,0.057385,0.046490,0.050314,0.110875,
-0.006778,-0.034945,0.084360,0.149111,-0.054750,0.241678,0.078155,-0.018165,
-0.154886,-0.071595,-0.151674,0.070289,0.028812,0.015415,-0.171343,-0.050259}
,
{
0.829755,-0.008147,-0.021134,-0.003887,-0.002843,0.000819,0.000351,-0.000280,
0.056756,-0.001097,-0.000086,0.000386,0.000079,-0.001905,0.001168,-0.000122,
0.013522,0.000404,-0.000884,0.000780,-0.000059,0.000077,0.000037,-0.000017,
0.006805,0.000579,-0.000479,-0.000049,0.000139,0.000115,-0.000147,0.000160,
0.002815,0.000305,0.000687,-0.000251,-0.000078,0.000201,-0.000298,-0.000237,
-0.000066,-0.000018,-0.000050,-0.000079,0.000034,0.000047,-0.000200,0.000113,
-0.000094,-0.000211,-0.000065,-0.000076,-0.000012,-0.000308,-0.000159,-0.000041,
-0.000284,-0.000146,-0.000150,-0.000093,-0.000085,-0.000226,0.000230,-0.000120}
,
{
0.528996,0.759270,0.015938,0.007552,0.000619,0.011850,0.003297,0.002350,
-0.171808,0.095757,-0.001523,0.002671,-0.000642,-0.003965,0.002909,-0.001133,
-0.061533,0.012950,0.005625,0.005536,0.001467,0.001420,-0.000528,-0.001284,
-0.030799,0.009466,-0.001801,0.001049,0.000228,0.002165,-0.002429,0.000346,
-0.008308,0.002525,-0.000586,-0.000984,0.000860,0.002143,-0.001096,-0.002466,
-0.003126,-0.001369,-0.001258,-0.002770,-0.000319,0.001005,-0.000216,0.001965,
-0.001615,0.000817,-0.000359,-0.003267,-0.001592,-0.002456,-0.000224,-0.000678,
-0.000672,-0.002655,0.000601,0.000798,-0.002662,-0.001854,0.001923,-0.000962}
,
{
0.696740,0.010766,0.578396,0.006475,0.001822,0.001666,-0.000723,0.005121,
-0.080403,-0.018167,0.136375,0.012701,0.001783,-0.003466,0.000885,0.000816,
-0.114556,0.007295,0.046943,0.003479,0.000769,-0.001331,-0.000290,0.005381,
-0.053662,-0.019867,0.005809,-0.000891,-0.001838,-0.007433,0.010205,0.005667,
-0.019861,0.000210,0.004470,0.004437,-0.000295,-0.004672,0.011900,0.009682,
-0.005609,0.001479,0.004633,0.006614,0.004005,0.003459,0.008595,-0.005565,
-0.002950,-0.000450,-0.002832,0.009022,0.005825,0.009432,-0.001228,-0.001077,
0.002734,0.008899,-0.000345,-0.006524,0.008024,0.010388,-0.009445,0.006744}
,
{
0.598147,0.024071,0.034389,0.521749,0.010355,0.015230,0.013229,-0.000161,
-0.241226,-0.052681,-0.003806,0.050028,-0.003945,-0.009581,0.000855,-0.002484,
-0.114597,-0.015125,0.006847,0.008761,-0.000473,-0.001327,-0.003104,0.004967,
-0.045041,-0.014895,-0.007513,0.000081,-0.001160,-0.005093,0.003506,0.005170,
-0.007508,-0.000311,0.001189,0.003351,-0.003807,-0.003882,0.003512,0.003100,
-0.007573,-0.002357,0.004357,0.005172,0.003893,0.003806,0.001994,-0.003193,
-0.003303,-0.002862,-0.005511,0.005385,0.005076,0.003276,-0.004017,-0.003671,
-0.002402,0.004902,-0.004841,-0.005717,0.004302,0.003384,-0.002675,0.003767}
,
{
0.405275,0.083792,0.070398,0.057877,0.518216,0.003502,-0.006158,-0.005149,
-0.190425,0.025985,-0.062738,-0.009340,0.009248,0.004468,-0.003364,0.005170,
-0.068149,-0.013947,-0.033621,0.004292,-0.001702,-0.004725,0.004085,-0.003537,
0.014850,0.033641,0.010367,-0.001085,0.000470,-0.001461,-0.004737,-0.004081,
-0.021558,-0.002735,-0.008284,0.000601,-0.001480,0.001190,-0.000946,-0.002188,
-0.002958,0.008178,-0.003879,-0.002388,-0.001266,-0.003124,-0.002676,-0.000511,
-0.001840,0.001010,0.003218,-0.002014,-0.002660,-0.001503,0.001099,0.004021,
0.001300,-0.002595,0.004475,0.001299,-0.001381,0.000028,0.001649,-0.000965}
,
{
0.104493,0.041295,-0.143200,0.052137,0.175910,0.400895,0.018015,-0.012531,
-0.112940,0.000361,-0.000662,-0.066098,-0.002530,0.042358,-0.021528,0.006802,
-0.076627,0.018497,0.027819,-0.004740,-0.006243,-0.002834,0.005024,-0.002352,
0.061921,0.033228,0.031210,-0.003439,0.010130,0.004634,0.000050,-0.003567,
-0.063537,-0.018820,-0.020761,0.016720,0.000022,0.000432,0.001322,-0.005221,
-0.004852,0.007608,-0.006319,-0.005073,-0.008996,-0.002929,-0.003780,0.003703,
-0.010629,0.005799,0.004414,0.002432,-0.007196,-0.002512,0.010010,0.005951,
-0.002103,-0.006217,0.004045,0.006815,-0.006070,-0.000383,0.002466,-0.004800}
,
{
0.014678,0.158393,0.231796,0.231016,-0.055267,-0.167586,0.475035,-0.118668,
0.050799,0.077211,-0.003573,-0.142101,-0.012876,0.094389,-0.041504,-0.001948,
-0.123906,0.010403,0.056043,-0.015543,-0.011538,0.010986,0.003763,0.006127,
0.000932,0.056121,0.098483,-0.008475,0.003348,-0.009010,0.009858,-0.006105,
-0.038127,-0.017645,0.010425,0.008478,-0.014900,-0.000249,0.006474,-0.000431,
0.000823,-0.013829,-0.004516,-0.002643,-0.002751,0.003650,0.002105,-0.006177,
0.013258,0.008216,-0.005673,0.012048,-0.001542,0.004614,0.010523,0.005385,
0.012535,0.002348,-0.003434,0.000923,0.005290,0.005722,-0.000413,0.002658}
,
{
-0.046604,-0.260914,0.035162,-0.202024,0.004778,-0.109102,-0.003950,0.682596,
-0.010571,-0.026178,-0.046307,0.015087,-0.005443,0.004311,0.001934,-0.001063,
-0.066040,-0.043439,0.014492,-0.000601,-0.006305,0.007096,-0.001405,0.000961,
-0.036831,0.000191,0.015032,0.000904,0.005940,-0.006850,0.003802,-0.002053,
0.011830,-0.053957,0.037926,0.048818,0.010084,-0.001598,0.007158,0.009663,
-0.030038,0.006321,0.003111,0.006621,0.006037,0.000465,0.000369,-0.012899,
0.001309,0.013354,0.001535,0.012778,0.004377,0.004116,-0.001777,0.001322,
0.006752,0.008912,-0.007110,-0.001386,0.006880,0.012472,-0.009963,0.008441}
,
{
-0.682584,0.043221,0.093639,0.002271,0.021985,-0.003894,-0.002366,-0.000044,
-0.181808,0.019685,0.024201,0.003339,0.002060,0.002089,-0.001174,0.001479,
-0.080303,-0.008586,0.002617,-0.003106,-0.000392,-0.001673,0.001258,0.000057,
-0.049923,-0.005150,-0.006325,-0.001107,-0.000109,-0.000975,-0.000066,-0.000277,
-0.007639,0.007278,0.001802,0.000827,0.001138,-0.000567,0.002101,0.002114,
0.001274,0.001107,0.000892,0.000744,0.000167,0.000457,0.002620,-0.000945,
-0.001326,0.000336,0.000422,0.000612,0.000178,0.002225,0.001128,0.001973,
0.001295,0.000487,0.002152,0.000099,0.000940,0.001650,-0.002892,0.000553}
,
{
-0.094362,-0.750457,-0.004225,0.060838,-0.006548,0.014835,0.000965,0.004588,
0.059493,-0.182759,-0.012890,0.003216,0.002552,0.000470,0.000702,-0.004365,
-0.016763,-0.091505,-0.002828,0.014403,0.001229,0.005551,-0.004044,-0.000277,
0.025332,-0.032813,0.011039,-0.000481,-0.001231,0.003829,-0.002054,-0.001877,
0.012645,-0.012226,-0.002847,-0.000080,0.005515,-0.003023,-0.004550,0.000060,
-0.003936,0.000336,-0.000892,-0.001961,0.001527,0.003293,-0.001319,0.002236,
0.004877,0.003798,-0.001825,-0.006072,-0.002347,-0.000144,0.000302,0.002502,
0.001408,-0.003036,-0.001628,0.001635,-0.000395,-0.004586,0.001525,-0.002052}
,
{
-0.052497,0.033645,-0.559508,-0.028705,0.035893,0.004337,-0.000002,0.002384,
0.045413,0.031062,-0.183782,-0.004662,0.008514,0.009262,-0.003998,-0.008747,
0.067802,-0.009386,-0.109347,0.015299,0.000530,-0.002244,-0.006840,0.002199,
0.048708,-0.023190,-0.013128,-0.001843,-0.008054,0.000835,0.004962,-0.002661,
0.012854,-0.002872,0.000031,-0.000112,-0.004351,0.007193,0.001730,0.003046,
0.012813,-0.001148,-0.004003,0.000607,0.005194,0.005091,0.000758,0.001891,
0.005015,-0.003758,-0.004553,-0.001016,0.002054,-0.000080,-0.004276,-0.006266,
-0.005111,0.001198,-0.007031,-0.000449,0.005187,-0.000797,-0.001915,0.001659}
,
{
-0.012761,0.229809,0.124842,-0.322015,0.025834,-0.015044,-0.000803,-0.008242,
0.068597,0.063467,0.052699,-0.114572,0.006760,-0.011481,0.003033,0.011775,
-0.035384,0.057680,-0.036183,-0.081539,-0.010823,-0.004897,0.014030,0.001818,
0.003986,0.011281,-0.048341,0.002681,0.002016,0.001236,0.004543,-0.000732,
-0.013546,-0.001979,0.005594,-0.007243,0.000556,0.003875,-0.005338,-0.009047,
-0.000468,0.004292,-0.005139,-0.003271,-0.013031,-0.014667,-0.009487,-0.000738,
-0.001235,0.007592,0.009073,0.008099,-0.005068,-0.004679,0.009766,0.005236,
-0.010216,-0.001833,0.006929,0.007011,-0.011066,0.000429,0.007178,-0.008435}
,
{
-0.252172,-0.159757,0.299655,0.288896,-0.229612,-0.001670,0.020917,-0.010189,
0.297339,0.209929,0.361068,0.140225,-0.002149,-0.063851,0.038422,0.000028,
0.172420,-0.032813,0.084583,-0.005081,-0.000340,-0.006250,0.008775,-0.017550,
0.126055,0.014799,-0.012449,-0.004981,-0.001944,0.021990,-0.010546,0.000464,
0.046813,0.002090,-0.020256,-0.024452,0.023683,0.013946,-0.030173,-0.025008,
-0.021921,-0.015751,0.011291,-0.013546,-0.019388,-0.021753,-0.008675,0.019979,
-0.018054,-0.017503,0.012377,-0.021237,-0.006947,-0.021017,0.012895,0.010518,
-0.000201,-0.021726,0.006644,0.006166,-0.017553,-0.036296,0.020259,-0.029086}
,
{
-0.234178,0.038845,-0.011645,-0.090605,-0.319110,-0.101978,-0.178831,-0.048625,
0.238932,0.329908,0.378407,-0.090186,-0.343624,-0.006459,-0.073632,-0.068408,
-0.199647,-0.193932,0.109276,-0.042964,-0.019643,0.117863,0.179624,-0.024033,
-0.064056,-0.026754,-0.058625,0.013354,-0.042316,-0.052510,-0.027816,-0.127936,
-0.373273,0.020912,0.320327,-0.114924,-0.090810,0.098598,0.077528,-0.000658,
0.044237,-0.225690,0.069467,0.070040,0.065514,-0.152783,0.002270,0.021337,
0.058284,-0.107502,0.127172,0.211595,-0.008177,-0.002302,-0.180399,-0.209664,
-0.082154,0.002610,-0.115147,0.041658,-0.060910,-0.084177,0.158942,0.060053}
,
{
-0.072139,-0.100345,-0.102235,0.136930,-0.176152,0.013738,-0.066945,0.211389,
-0.094873,0.047620,-0.126442,-0.093556,-0.156711,0.229657,-0.015555,-0.009245,
-0.056608,-0.141176,0.122546,-0.027298,0.072809,0.006698,0.097167,0.206517,
-0.000726,-0.208055,0.141442,0.066902,-0.098950,-0.078468,0.000365,-0.131976,
0.166913,-0.116913,-0.152011,0.041233,-0.009965,0.052083,-0.145881,-0.047087,
-0.006949,-0.107349,0.047654,-0.197377,0.130094,0.051604,0.160253,0.044185,
-0.111774,0.120992,-0.047704,-0.058656,0.057301,-0.176029,-0.003229,-0.038498,
0.073584,0.109383,0.177996,0.056926,0.045220,0.145465,0.173953,-0.007472}
,
{
-0.009264,0.059087,-0.008778,0.082383,-0.157479,-0.197308,-0.081200,-0.010878,
-0.069674,-0.062883,0.019876,0.131624,-0.010408,0.075491,0.077668,0.149442,
0.023875,0.072074,0.154207,0.127544,-0.154719,-0.114130,-0.150590,-0.116689,
-0.001937,0.111794,0.003153,-0.014475,-0.187394,-0.072375,-0.149910,-0.129631,
0.172165,0.123389,0.004906,-0.068005,-0.238944,-0.009521,-0.049868,0.062354,
-0.025640,0.154229,-0.044297,-0.058669,0.004549,-0.026025,0.186161,-0.021570,
0.060188,-0.044900,0.168734,-0.003782,-0.036387,-0.097588,-0.143029,-0.100153,
-0.215851,0.110177,0.063740,-0.128673,-0.078335,0.082076,0.094230,-0.131510}
,
{
0.864727,-0.103657,-0.192835,-0.006477,-0.031287,0.014871,0.001691,-0.001257,
0.246222,-0.005250,-0.040088,-0.006916,-0.009997,-0.006240,0.000833,0.000138,
0.085147,0.031341,-0.014240,-0.019050,0.000766,-0.001565,-0.001171,-0.003729,
0.043999,0.001822,-0.004274,0.002247,-0.000262,0.004893,-0.001240,0.003255,
0.010406,-0.010660,-0.001157,0.003852,0.006314,-0.005497,-0.000527,0.001995,
-0.000841,-0.002955,0.000495,-0.002457,-0.001389,-0.003376,0.002609,0.003267,
0.001630,0.001268,0.000824,-0.002720,-0.002894,0.002266,0.004566,0.007071,
0.004173,-0.001483,0.000533,0.003992,-0.003587,-0.000463,-0.002287,-0.002443}
,
{
0.085114,0.801833,-0.030561,-0.050556,-0.007255,0.007993,0.001576,-0.007306,
0.004237,0.255428,-0.033798,-0.031061,-0.000028,0.001031,-0.001135,0.008556,
0.019709,0.104298,0.011915,-0.005821,0.001992,-0.007446,0.010326,-0.004126,
0.003184,0.040121,0.003660,-0.001568,-0.002799,0.000931,-0.004049,-0.005320,
-0.007156,0.007004,0.005012,-0.002482,-0.000111,0.001710,-0.005367,-0.002474,
0.005220,-0.000428,-0.000988,-0.000739,-0.003237,-0.009430,-0.006692,0.000958,
-0.003477,0.001689,0.008552,0.001453,-0.005004,-0.002001,0.004337,0.007952,
-0.005748,-0.002316,0.005751,0.004855,-0.002738,-0.005329,0.003399,-0.003772}
,
{
0.018904,-0.039397,0.591787,-0.000236,-0.023215,-0.001578,0.004383,0.008084,
0.040834,-0.109009,0.219110,-0.019923,-0.016338,-0.004912,0.008752,0.002836,
-0.055325,-0.005249,0.088253,-0.009358,-0.000612,-0.004871,0.004737,0.004911,
-0.027742,-0.039455,0.030853,-0.003299,-0.000637,0.002888,0.008769,0.002182,
-0.016118,0.023357,0.006461,0.005799,0.007314,0.002297,0.003489,0.000508,
-0.004038,-0.016493,0.001608,0.000848,-0.002874,0.000048,0.000592,0.002394,
-0.001044,-0.000208,-0.005165,0.000812,0.000260,0.002469,0.003672,0.001339,
0.001013,0.002086,0.004064,0.000302,-0.000611,-0.001332,-0.002154,-0.004145}
,
{
-0.041977,-0.478133,0.026804,0.205740,0.065042,-0.071070,0.006956,0.003352,
-0.000425,0.041669,0.066208,0.098050,-0.042801,0.015158,-0.012468,0.001527,
0.031321,-0.009910,-0.084426,0.062671,0.002867,-0.010864,-0.005586,-0.016530,
-0.005091,-0.060356,-0.001963,0.021306,-0.012633,0.014703,-0.018017,-0.013006,
-0.001612,0.027844,0.038880,-0.000754,0.005997,0.000898,-0.020670,-0.010692,
0.005393,-0.021800,-0.007697,-0.014824,-0.004784,-0.003419,-0.012661,0.010265,
0.003738,0.005269,0.009874,-0.021169,-0.021681,-0.008829,0.001472,0.001477,
-0.001737,-0.017141,0.006585,0.013250,-0.015393,-0.017569,0.020511,-0.005570}
,
{
-0.878675,0.109784,-0.509953,-0.111109,0.091316,0.009723,-0.012673,0.004139,
-0.040008,-0.096971,-0.024399,-0.179223,0.054749,-0.017870,-0.012042,-0.027473,
-0.068399,0.163780,0.143881,0.264804,0.004515,0.000236,-0.034835,0.012289,
0.225932,0.022442,-0.007171,-0.031774,0.010739,-0.008639,-0.002178,0.009403,
-0.020886,0.002584,-0.057819,0.012482,-0.022982,-0.002099,0.020145,0.014112,
-0.001005,-0.017345,0.013208,0.011958,0.019587,0.027471,0.019018,0.009366,
0.025926,-0.028898,-0.034259,-0.011809,0.025657,-0.001884,-0.020990,-0.038516,
0.020039,0.001418,-0.028436,-0.025987,0.021864,0.010751,-0.010310,0.019484}
,
{
-0.328483,-0.068600,-0.612175,-0.265051,0.598530,0.233001,0.046963,-0.022837,
-0.163478,0.158791,-0.658070,0.060551,0.297438,-0.014163,-0.035416,-0.060899,
0.333745,0.113107,0.029313,0.173329,-0.063383,-0.080379,-0.096500,0.052261,
0.034834,-0.086877,-0.046161,0.024139,0.001235,-0.025252,0.018284,-0.037628,
-0.151365,-0.003417,-0.096251,-0.054982,0.004266,-0.061589,-0.096830,0.067878,
-0.140028,0.146023,0.088752,-0.073146,0.027601,0.055706,0.030811,-0.024961,
-0.082445,0.089566,-0.024147,0.078464,0.025802,0.043547,0.069135,0.116339,
-0.099307,-0.033688,0.018618,-0.076351,0.135129,0.111356,-0.146777,-0.017482}
,
{
-0.097021,0.046260,-0.066237,-0.032753,-0.249576,0.061054,-0.199389,-0.105503,
0.037167,-0.044453,-0.024920,-0.060198,-0.222723,-0.071576,0.011675,0.065058,
0.139270,-0.024932,-0.005264,0.030919,0.172763,-0.238516,-0.016300,-0.008044,
0.229709,-0.022245,-0.085709,-0.013993,-0.172832,-0.228176,0.002637,-0.182549,
0.119623,0.156116,0.125268,0.003333,0.078225,0.040196,-0.071150,0.034409,
0.121003,-0.148720,0.051493,-0.027947,-0.098465,0.060505,0.225133,-0.064656,
0.092694,-0.247396,-0.131692,0.046683,0.037602,0.064633,0.140966,-0.008392,
0.128463,-0.100413,0.095156,-0.175957,-0.241307,0.115891,-0.008068,0.052279}
,
{
0.191388,-0.017197,0.094337,-0.221525,0.121928,0.053089,-0.016728,-0.006833,
0.072269,-0.232447,-0.036001,0.078791,-0.040774,0.178743,0.202780,-0.095243,
0.100638,0.094536,-0.013070,-0.012363,0.108996,0.041504,0.042076,0.076036,
0.009861,0.019843,0.057120,-0.027841,0.029041,-0.164567,-0.079338,0.036924,
-0.061720,0.051649,0.211343,-0.016911,-0.170459,-0.196806,-0.038939,0.010052,
0.234474,0.042341,-0.058317,0.039198,-0.163710,-0.092617,0.077626,-0.226608,
-0.197294,0.076069,-0.153545,-0.026983,-0.051077,-0.149303,-0.039378,-0.043056,
-0.150144,-0.013649,0.094436,0.003825,-0.073076,-0.157943,0.195972,-0.128927}
,
{
-0.711069,0.028170,0.157713,0.013436,-0.006797,0.011910,0.002736,0.008417,
-0.258987,0.040761,0.062646,-0.005346,0.002900,-0.003540,0.002469,-0.004304,
-0.111179,-0.020337,0.001272,-0.005041,-0.000326,0.000659,-0.005177,-0.006988,
-0.069970,0.011248,-0.005537,-0.000050,0.002114,0.006425,-0.007149,-0.000803,
-0.012396,-0.001918,-0.003155,0.002241,0.000071,0.004859,-0.005970,-0.005261,
-0.008627,-0.000611,-0.002847,-0.007166,-0.003093,0.000282,-0.003345,0.005125,
0.002548,-0.005643,-0.001972,-0.010709,-0.006046,-0.004474,-0.002772,-0.003586,
0.000212,-0.006570,-0.001165,0.006110,-0.007380,-0.006637,0.007823,-0.002161}
,
{
0.026751,-0.701916,0.009511,0.055353,0.006851,-0.014253,0.001502,0.005537,
-0.191315,-0.381478,0.009797,0.059717,0.016870,0.000604,0.000288,0.005604,
-0.039147,-0.077201,0.027337,-0.042314,0.007854,-0.010035,0.001746,-0.007538,
0.037362,-0.041774,0.017936,0.001206,-0.001237,0.009620,-0.006211,-0.007705,
0.038381,0.018417,-0.009163,0.005394,0.012195,-0.007644,-0.006604,-0.002212,
-0.013127,-0.000932,0.000058,-0.005596,-0.001941,-0.008877,-0.003839,0.008404,
0.008188,-0.000932,0.007541,-0.008028,-0.007203,-0.001557,0.008269,0.008899,
0.004580,-0.004612,0.004389,0.008761,-0.007254,-0.006623,0.004273,-0.004738}
,
{
0.101147,-0.016593,-0.539465,-0.044404,-0.036316,0.029206,0.005353,-0.009202,
-0.140277,0.043337,-0.248283,-0.012544,0.034387,-0.023052,0.016771,-0.010057,
-0.123442,0.012907,-0.071580,-0.041318,-0.000699,-0.005557,-0.009533,0.005482,
0.021822,-0.040151,-0.056941,0.003542,-0.002041,-0.006852,0.001636,0.002583,
-0.001612,-0.025624,-0.000965,-0.006342,0.011906,-0.004740,0.009506,0.011157,
-0.004074,0.014434,0.006999,0.007577,0.012920,0.011227,0.011335,-0.004615,
-0.012405,0.000886,-0.001304,-0.001739,0.006099,0.007500,-0.007359,-0.009503,
0.007901,0.008702,-0.006739,-0.011588,0.009801,0.014687,-0.010502,0.011293}
,
{
0.957322,0.116608,-0.155275,-0.273729,-0.000058,-0.007358,-0.017675,0.038441,
0.174879,-0.015491,0.099527,0.104995,0.029657,-0.027721,0.028379,-0.006987,
-0.214985,0.116017,-0.012537,-0.065267,0.000097,-0.017718,-0.015357,-0.029879,
-0.090155,-0.048743,0.007164,-0.011877,0.000089,0.003176,-0.039099,-0.030269,
-0.042851,0.034795,0.014225,-0.012359,0.021314,0.026554,-0.017230,-0.004956,
-0.029038,0.002686,-0.004267,-0.006047,0.031218,-0.002153,-0.009444,0.000950,
-0.048485,-0.025026,0.019478,-0.018139,-0.005370,-0.010194,-0.029113,-0.019763,
0.020910,-0.002260,-0.008913,-0.001029,-0.006376,-0.006889,0.020353,0.008269}
,
{
0.396434,0.111288,-0.415445,-0.414459,-0.505523,0.010802,0.000315,0.012116,
-0.169588,-0.017937,-0.197242,-0.191090,-0.050987,-0.019026,0.007568,0.008650,
-0.348467,0.005516,0.150312,0.091068,-0.030985,-0.002478,0.001462,-0.012333,
-0.001019,0.055571,-0.056105,-0.003947,-0.003239,0.006072,0.005476,0.002143,
-0.387934,-0.019152,0.223143,-0.027377,0.006271,0.009084,-0.008630,0.003582,
0.013942,-0.000493,-0.014177,-0.007016,-0.004222,-0.014198,-0.002056,-0.000925,
0.007524,0.003758,0.023391,0.001310,-0.003317,-0.003674,0.006923,0.013311,
-0.016831,-0.002164,-0.008779,0.000499,-0.007178,0.001912,0.000360,-0.001286}
,
{
0.191382,0.251197,0.011291,-0.065440,0.261756,0.136025,-0.067696,-0.009011,
-0.212815,-0.067809,-0.149824,0.065784,0.215394,-0.068447,-0.062001,-0.094576,
0.464106,-0.116715,0.062366,-0.006285,-0.008660,-0.019458,0.115669,-0.013501,
-0.022497,-0.081937,0.005962,0.001932,-0.060976,-0.024749,-0.058327,-0.197929,
0.133438,0.030217,-0.022745,-0.163687,-0.095241,0.056011,-0.064932,0.022647,
-0.063847,-0.074561,0.130394,-0.047194,0.059927,-0.133772,-0.009085,0.045698,
-0.049053,0.011905,0.125973,0.241411,-0.042369,-0.001544,-0.055766,-0.053357,
-0.200054,-0.098005,-0.061140,0.012030,0.026983,-0.019436,0.068694,-0.009835}
,
{
0.028664,-0.180815,0.000257,0.011007,-0.102996,0.113357,-0.007811,0.012171,
0.176570,0.070930,0.165426,-0.076841,0.151987,0.206463,0.045867,0.138965,
-0.050035,0.108053,0.157306,-0.051570,-0.096583,0.073636,-0.012456,0.015684,
0.002070,0.224070,0.106993,0.129842,0.092658,0.165848,0.163710,0.130438,
-0.132696,0.008827,-0.117137,-0.115256,0.117775,0.087219,-0.006508,-0.050847,
-0.018397,0.037191,0.063246,0.147477,0.069727,0.077416,0.082547,-0.095764,
-0.085967,-0.137869,-0.023686,-0.159612,0.118778,0.148973,-0.152942,-0.181863,
-0.002671,0.095731,0.082389,-0.207716,0.028481,0.113501,0.044284,-0.088894}
,
{
0.118973,-0.061098,0.162025,-0.075642,-0.052573,-0.094179,0.046093,0.114822,
0.030946,-0.200203,-0.048509,-0.150373,0.041275,0.093610,0.018714,0.064264,
-0.055040,0.016580,-0.177523,-0.013160,-0.102694,-0.088470,-0.010034,-0.235280,
0.018268,-0.116885,0.007999,-0.007372,-0.016661,-0.011877,0.155201,-0.142298,
0.079216,-0.178409,-0.084475,-0.052464,0.223464,0.091378,-0.225086,0.003450,
-0.066734,0.087601,-0.015069,0.198418,0.057310,0.003978,-0.163663,0.107456,
-0.128271,-0.010326,-0.153493,0.143006,-0.067450,-0.076383,-0.108137,-0.122605,
-0.233050,0.220817,0.094932,0.019646,0.052978,-0.059349,-0.068061,-0.026246}
,
{
0.528370,-0.116797,-0.146093,-0.018323,-0.015457,0.017600,0.010202,0.000341,
0.187385,-0.030090,-0.025459,-0.017438,-0.018156,-0.005235,0.000603,0.004832,
0.032320,0.059224,0.025134,-0.035601,0.010733,0.002067,0.001399,-0.002789,
0.010159,-0.009003,-0.007764,0.004493,-0.001117,0.008519,-0.005487,-0.009851,
0.030597,-0.001068,-0.000944,-0.009724,0.011823,-0.003697,-0.000368,-0.003966,
0.004548,0.011176,-0.004518,-0.008049,-0.002559,0.002186,0.001331,0.005218,
0.005822,0.012659,0.008656,-0.014264,-0.007856,-0.002391,0.003405,-0.001272,
0.000474,-0.009740,0.007670,0.003773,-0.007419,-0.004274,0.002340,-0.003549}
,
{
-0.181136,0.557385,-0.010447,-0.001004,0.038279,-0.014751,0.007295,0.000085,
0.038309,0.132606,-0.024390,-0.023002,-0.048082,0.002152,-0.006891,-0.002593,
0.088266,0.029387,-0.038540,-0.015261,-0.002928,-0.002362,0.001818,0.006373,
-0.025969,-0.012915,-0.023390,0.003572,0.002457,-0.003840,-0.000386,0.000133,
-0.012443,0.018749,-0.012231,-0.001417,-0.007184,0.002050,-0.002921,-0.008104,
-0.024303,0.031542,-0.000878,0.000471,-0.000280,-0.004813,-0.003584,-0.004929,
0.001808,0.024080,-0.001525,0.009727,0.002482,-0.001363,0.001311,0.004025,
-0.007737,-0.000711,-0.000863,-0.005397,0.001859,-0.011041,0.001072,-0.006613}
,
{
-0.574747,-0.548527,0.164325,0.118335,0.115173,0.016141,0.067372,-0.005444,
0.141288,-0.169356,0.048054,0.029825,0.020205,-0.000025,0.001067,-0.019422,
-0.360705,0.249094,0.030587,0.005972,-0.012816,-0.015170,-0.012142,0.027432,
0.022339,-0.028074,0.071062,0.027159,-0.034337,-0.017419,0.009320,0.011072,
0.173048,-0.022141,-0.138612,0.009377,0.085922,-0.047510,0.025280,0.026061,
-0.135024,-0.024922,0.031069,0.022169,0.015938,0.014560,0.013597,-0.021704,
-0.013926,-0.020411,-0.025263,0.022151,0.017657,0.023850,-0.012900,-0.020757,
-0.006542,0.022101,-0.020513,-0.016335,0.019748,0.025189,-0.021629,0.020872}
,
{
-0.179084,0.054748,0.074503,-0.357617,-0.024926,0.186768,0.164685,-0.516859,
-0.470840,0.135798,0.238383,0.098157,-0.065434,-0.015668,0.017718,-0.015777,
-0.365878,0.009131,-0.048122,-0.020327,-0.004660,0.016426,-0.000187,0.003219,
-0.128613,-0.043351,-0.023080,0.032610,-0.005810,0.017215,0.009061,0.019444,
0.109342,-0.078693,0.032724,0.109427,0.035639,-0.024006,0.006069,0.013948,
0.376529,-0.013932,0.000333,0.001574,0.012080,0.016645,-0.014429,0.006853,
0.024047,-0.021504,-0.015908,0.000346,-0.015301,-0.016771,-0.006915,-0.015384,
0.021911,-0.020447,-0.007432,0.012736,0.014912,0.009303,0.016681,0.011306}
,
{
-0.525404,0.757824,0.014663,-0.130742,-0.264878,-0.339803,0.774669,0.156844,
0.456173,0.289114,0.132382,0.048831,0.070500,-0.040877,0.060347,0.026046,
0.099762,-0.036232,-0.443528,0.009424,-0.034686,-0.034384,0.026567,0.032682,
-0.205436,0.068846,0.076256,0.035598,0.003989,0.006934,0.019134,-0.000471,
-0.710476,0.087336,-0.613462,-0.098128,0.031747,0.031968,-0.028272,0.013360,
-0.724118,-0.029141,-0.899001,-0.021383,-0.006434,0.011799,-0.023347,-0.026033,
-0.752352,0.009158,0.007262,-0.013033,-0.025475,-0.024078,-0.014910,0.018083,
-0.116683,-0.009056,-0.006686,0.000566,-0.025560,-0.027131,0.030269,-0.001078}
,
{
0.156560,-0.090424,0.234336,-0.056672,-0.168669,-0.206149,0.158706,-0.190960,
0.021794,-0.070669,0.074746,0.161811,0.007389,-0.061219,-0.111675,0.052142,
-0.114764,0.204122,0.194527,-0.021137,-0.026906,-0.205705,0.081737,-0.008591,
0.243654,-0.045114,-0.044301,0.019530,0.057303,-0.045224,-0.022663,0.034225,
0.041147,0.002752,0.004724,0.065530,0.068336,0.165582,-0.204072,-0.191180,
-0.080726,0.015725,0.048892,0.047711,0.239313,0.000576,0.089182,-0.063064,
-0.034710,-0.234477,-0.150927,0.048064,-0.106869,0.143886,-0.076739,-0.052535,
-0.183635,-0.106469,0.033003,-0.048442,-0.002150,-0.127988,0.077316,-0.143803}
,
{
0.012582,0.070062,-0.236386,-0.022090,-0.123303,-0.014513,-0.107339,-0.031602,
0.033358,-0.052384,0.196946,-0.101516,0.045262,-0.026185,0.230500,-0.112672,
0.064351,-0.161751,0.149175,-0.051201,0.120335,-0.029714,-0.045009,-0.080227,
-0.166139,0.041919,0.073235,0.071364,0.001960,-0.053792,0.087468,0.096652,
-0.022220,-0.125670,-0.044420,-0.094422,0.033015,-0.079270,-0.148245,-0.030094,
-0.156368,-0.064231,-0.221580,-0.161159,0.103584,0.146081,0.165966,0.011949,
0.062768,0.110893,-0.007211,0.121873,0.125893,0.187402,-0.046463,-0.003871,
-0.009254,0.176108,0.072842,0.002363,0.009711,0.046675,0.248218,-0.205809}
,
{
-0.008122,0.201295,-0.054474,-0.126907,-0.100928,0.065011,-0.061016,-0.117376,
0.005796,0.054943,0.043870,-0.126972,-0.071224,0.128142,0.074636,-0.188616,
0.204285,-0.057340,0.232669,0.095419,-0.008964,-0.041292,-0.081775,-0.115462,
-0.142853,0.043364,0.162531,0.173885,0.197625,0.160922,0.002114,0.074875,
0.044725,0.043112,-0.114420,0.067694,0.028118,-0.032173,-0.112509,-0.152152,
-0.063226,0.081131,-0.046882,0.035423,0.067647,0.044023,0.146790,-0.196984,
0.118030,0.045993,0.053233,0.134015,0.043340,0.198815,0.013396,-0.094132,
-0.194017,-0.192154,0.056297,-0.032159,-0.023431,-0.018612,0.021804,-0.006608}
,
{
-0.591107,0.159023,-0.036575,0.027400,0.029989,0.044791,0.012455,-0.032029,
-0.069835,0.024357,0.037743,0.025179,-0.032623,-0.014418,-0.009514,-0.009205,
0.029909,0.059856,-0.074905,0.007318,-0.010552,0.010615,-0.007662,0.002357,
-0.026202,-0.033311,-0.010311,0.001829,0.006572,0.002626,-0.004929,0.016777,
-0.062136,0.033238,-0.019323,-0.032981,-0.013650,0.003332,-0.001513,-0.005504,
0.006440,0.014025,-0.006231,-0.004950,0.000322,0.010775,-0.000199,0.007441,
-0.003581,0.005979,-0.017663,-0.004741,-0.001191,-0.007673,0.000048,-0.005561,
0.007854,-0.008185,-0.008874,-0.002676,0.001128,-0.004868,0.004977,-0.002215}
,
{
-0.608868,-0.606704,0.268911,-0.145914,0.002541,-0.036173,-0.012265,0.019505,
-0.441824,0.108818,0.297894,0.093129,-0.049525,0.004380,0.004660,0.003013,
-0.135200,-0.181866,-0.001996,-0.017963,0.017349,-0.025131,-0.004956,-0.022919,
-0.122844,-0.085905,-0.013719,-0.003290,-0.027548,0.013583,-0.027282,-0.017530,
-0.097907,0.023182,-0.006408,-0.001484,-0.013183,0.029876,-0.015209,0.004789,
-0.031017,0.006014,-0.016547,-0.009467,0.007978,0.002185,-0.000004,0.015420,
-0.023062,0.022435,0.022367,-0.031910,-0.013381,-0.001744,0.002944,0.009984,
-0.027321,-0.020807,0.002354,0.001645,-0.009350,-0.014265,0.000067,-0.002201}
,
{
1.063224,-0.503264,-0.559261,0.496514,-0.111751,-0.097552,0.081245,0.012417,
0.195733,-0.144468,0.051053,-0.047217,-0.022544,0.015140,-0.001377,0.016988,
0.151030,-0.190495,-0.160671,-0.006032,-0.004784,0.011294,0.016993,0.010613,
0.143110,-0.020680,-0.006467,0.001051,0.011096,-0.000871,-0.005397,-0.012399,
0.758053,0.022856,-0.426471,-0.044344,-0.012808,0.012027,-0.003353,-0.009494,
0.017290,0.027417,-0.010510,-0.000904,-0.009419,-0.005932,-0.015011,0.000249,
-0.011632,-0.002559,0.007800,0.006525,0.004281,-0.010620,0.021025,0.004047,
0.005579,-0.005150,0.016037,0.015915,-0.001789,-0.006775,0.008693,-0.011881}
,
{
0.220185,0.705559,0.123410,-0.026204,0.028062,0.001352,0.040596,-0.037461,
-0.029072,0.338179,0.006467,-0.104190,-0.030975,-0.006900,-0.001507,0.013567,
0.068082,0.071405,-0.011099,-0.009263,0.017076,0.019254,0.011319,-0.020129,
0.097515,-0.031689,0.017538,0.013300,0.016544,0.017478,-0.020044,-0.011919,
-0.077353,0.023827,-0.074800,-0.034267,0.044462,-0.015460,-0.020883,-0.021015,
-0.105073,0.029462,-0.015790,-0.015556,-0.023045,-0.027139,-0.031861,0.027283,
-0.013254,0.025092,0.021655,-0.012551,-0.019428,-0.023508,0.009807,0.018837,
0.016866,-0.014624,0.026771,0.018960,-0.014839,-0.019109,0.023361,-0.014156}
,
{
-0.044151,0.016821,0.059593,-0.040553,0.022783,0.072671,-0.181303,0.061122,
-0.131632,-0.145341,-0.030601,-0.043043,-0.204065,-0.228588,-0.116820,0.002293,
0.117029,0.211942,0.103412,-0.103465,-0.062935,0.147087,-0.026804,-0.174379,
0.200119,-0.196782,-0.116106,-0.049183,0.081928,0.121186,0.091624,0.076326,
0.179785,-0.119437,0.107677,0.041215,-0.011927,0.081419,0.101349,-0.041456,
-0.104065,0.091799,-0.074165,-0.102205,-0.137042,0.056261,-0.058794,-0.056388,
0.111520,-0.108580,-0.178992,0.083601,-0.020917,0.047283,-0.216979,-0.041511,
0.185196,-0.051672,-0.089269,-0.207274,0.067380,0.241509,0.039591,-0.016963}
,
{
0.044264,-0.054057,0.035862,-0.101538,0.017025,0.049635,0.072653,0.104291,
-0.028044,-0.080674,-0.000789,-0.025866,-0.052165,0.132010,0.045385,-0.041038,
-0.199153,0.018266,-0.029339,-0.006203,0.139019,-0.022185,0.046085,-0.059990,
0.063399,-0.038665,-0.123314,-0.012734,-0.077681,-0.081153,0.161050,-0.174548,
-0.089756,-0.174569,-0.049272,-0.057995,0.239014,-0.091683,-0.202338,0.152878,
-0.209657,0.007744,0.045597,-0.016159,-0.110408,-0.109116,0.196749,-0.020992,
-0.142471,-0.100432,0.043526,0.107960,-0.140461,-0.107925,0.138882,-0.114501,
-0.063269,-0.153119,-0.002424,0.054708,0.229756,-0.034976,0.188326,0.073356}
,
{
-0.193105,-0.016530,0.006791,-0.106805,-0.053972,0.169049,0.066424,-0.063359,
0.005885,0.066715,0.058876,-0.155147,0.006849,-0.147768,-0.030551,0.059137,
0.014175,-0.152980,-0.191821,0.064247,0.082200,-0.044881,-0.028604,-0.224739,
0.144529,0.148462,-0.166771,0.039138,-0.055295,0.147674,-0.215230,-0.098833,
0.082408,0.032530,-0.124950,0.052775,-0.079214,0.041098,0.075288,0.139468,
0.086941,-0.023195,-0.019317,-0.248833,-0.027598,0.169658,-0.192126,-0.082211,
0.076445,-0.095180,0.161605,0.074989,-0.157510,0.026827,0.139739,0.127912,
-0.085778,0.013412,-0.036899,-0.100911,-0.042354,-0.180354,0.166036,0.130176}
,
{
-0.021489,-0.155045,0.129407,0.009256,-0.243341,-0.070058,-0.032895,-0.003298,
-0.137148,-0.089808,-0.172248,-0.095872,-0.106943,0.008992,-0.128747,0.015563,
-0.128061,0.113628,0.109724,-0.140334,0.059769,-0.047855,0.120358,0.087390,
0.132758,-0.008687,0.001044,-0.119132,-0.085062,-0.039872,-0.199984,-0.080186,
0.063583,0.105089,-0.131887,0.143921,-0.026147,0.017567,-0.148026,0.122219,
0.119265,-0.197956,-0.024640,-0.134507,-0.063099,-0.013034,0.222914,0.076070,
-0.002841,0.145888,-0.102854,-0.000449,0.039850,-0.049611,0.064178,-0.063490,
0.027434,-0.010293,-0.125246,-0.060408,0.191477,-0.053118,0.013328,-0.040035}
,
{
0.280203,-0.151915,-0.085331,-0.001373,0.031331,0.042294,0.014289,-0.026871,
0.212340,0.040586,-0.008450,0.010901,-0.015603,-0.032973,-0.011239,-0.009123,
-0.053306,0.051187,-0.049744,-0.018202,-0.018069,0.016250,-0.007191,-0.001609,
0.036406,-0.032636,-0.009692,-0.005166,0.012487,0.005755,-0.014465,0.006121,
0.018358,-0.004731,-0.002698,-0.020510,-0.024939,0.016723,-0.019659,-0.025386,
-0.021442,-0.003388,-0.010380,-0.009939,-0.013856,-0.009777,-0.015161,0.015812,
0.002910,-0.000944,-0.006234,-0.006886,-0.007300,-0.024529,0.001006,-0.008852,
0.018199,-0.015056,-0.008469,0.005648,-0.009043,-0.023017,0.017432,-0.017175}
,
{
0.225207,-0.497879,0.044370,0.062659,-0.029979,-0.028751,0.014641,0.026451,
-0.120851,-0.388660,-0.213776,-0.012121,0.104996,0.015981,0.014157,-0.016803,
-0.046400,-0.092497,0.086253,0.004246,-0.007353,0.038688,-0.030295,-0.027985,
0.075604,0.194823,0.008781,-0.009930,0.016497,-0.022798,-0.003846,0.025626,
0.054735,-0.009216,0.079509,0.026455,-0.015943,-0.037674,-0.014099,0.010581,
-0.048626,-0.019031,0.012654,0.016969,0.006791,0.007526,0.025803,-0.006642,
0.019772,-0.015082,0.009594,0.015609,0.035418,0.003376,-0.018721,0.011707,
0.033097,0.021325,-0.016159,-0.038131,0.024907,-0.000736,-0.024336,0.008488}
,
{
-0.077115,-0.123280,-0.063871,-0.132441,-0.170996,-0.012271,0.067715,-0.072868,
-0.147054,-0.024744,-0.142278,-0.144595,0.016266,-0.009551,-0.171446,-0.044267,
0.137053,0.026168,0.016725,0.005096,-0.048455,-0.090109,0.214001,-0.073228,
-0.086764,-0.171116,-0.008915,-0.076625,-0.016950,-0.014688,0.029924,-0.007626,
0.128731,0.059625,0.011247,0.111331,0.021946,0.086336,0.067026,-0.090814,
-0.064222,-0.032863,0.037608,-0.083812,-0.153535,-0.180000,0.085199,-0.021114,
0.155816,-0.066577,-0.117055,0.044472,0.223851,0.218443,0.226701,0.034194,
0.081752,-0.188291,-0.016394,0.020364,-0.105463,-0.076754,0.056562,0.074578}
,
{
0.095235,-0.134492,0.082167,-0.050455,0.149477,0.005689,-0.120042,-0.057195,
-0.200396,0.090533,-0.090315,0.033525,-0.229397,0.200883,-0.062903,0.213046,
0.021347,-0.123375,0.023365,0.101374,0.001697,0.025298,-0.146789,-0.015977,
-0.168855,0.201961,-0.118308,-0.032902,-0.130450,0.068713,0.041424,0.131307,
0.098566,-0.063607,0.122678,0.010511,-0.068159,0.009209,0.127704,-0.159450,
-0.021980,0.100659,0.199463,-0.018472,-0.008867,0.048579,0.110124,-0.115679,
-0.052898,0.087784,0.038508,-0.023726,0.035179,0.013060,0.032525,0.084228,
0.103238,-0.004438,0.032239,0.011887,0.074842,-0.163491,0.045447,-0.074059}
,
{
-0.120079,0.064468,-0.038078,0.028484,-0.070547,-0.004865,-0.010002,0.063580,
-0.183100,-0.128128,0.145275,-0.050744,-0.086706,-0.014001,0.150016,-0.083504,
0.026902,-0.087744,-0.072207,-0.102341,0.243875,0.210417,0.049258,-0.194542,
0.075877,-0.087208,0.106555,-0.079134,0.091286,0.001173,0.197957,0.001136,
-0.140055,0.127963,-0.127080,-0.000476,-0.020442,0.113036,0.016305,0.091213,
0.030317,0.091208,0.064333,0.179431,-0.041967,-0.030321,-0.034638,0.070378,
0.022758,0.189282,-0.123518,0.227631,0.142787,-0.073986,-0.071375,-0.003931,
-0.135528,0.078472,0.102331,-0.196652,-0.068101,-0.106683,0.092439,-0.072730}
,
{
0.086149,-0.063339,-0.026893,0.096338,0.095184,-0.142592,-0.069286,-0.035288,
-0.038326,0.097328,0.000104,0.038500,-0.145723,0.056264,-0.205698,-0.116683,
0.120215,0.102305,0.004787,0.105853,0.032280,-0.042894,0.095074,0.038777,
0.060464,-0.147090,0.064156,-0.090459,0.017041,0.005507,-0.119263,0.050255,
0.028190,-0.204058,0.012767,0.095299,-0.147221,-0.102281,-0.068094,-0.011622,
0.228485,-0.083879,0.030275,0.080391,-0.239206,0.103157,-0.176752,0.010051,
-0.078698,0.104102,-0.087615,-0.226787,-0.164756,-0.145843,0.110368,0.059095,
-0.094589,-0.053771,-0.059416,0.222596,-0.022198,0.063293,-0.030624,0.098486}
,
{
0.056041,0.197041,-0.140559,0.001375,0.135911,-0.150736,0.159851,-0.186481,
0.085299,0.229783,-0.009806,0.021126,-0.034959,0.033466,0.177650,-0.123092,
-0.008879,-0.149698,-0.105714,0.099961,-0.092107,0.144764,0.099570,0.244401,
-0.140320,-0.157684,-0.020228,0.014212,0.051138,0.104513,0.075829,0.134892,
0.122400,-0.244217,0.014549,0.005125,-0.203563,-0.150195,0.185614,-0.034134,
-0.028620,-0.089999,0.011627,-0.025916,0.056948,0.147350,0.086784,-0.139891,
0.127654,-0.043689,-0.083026,-0.086852,-0.159457,-0.039930,0.084699,-0.007642,
0.017835,-0.015256,0.036023,0.064337,0.036615,0.015502,0.023349,0.179728}
,
{
0.188617,-0.059006,0.095229,0.168986,0.222146,0.114295,-0.050495,-0.014880,
0.095630,-0.024448,0.014020,-0.036392,-0.168904,-0.048700,0.018269,0.136328,
-0.225034,0.085919,0.063239,0.031077,0.233296,0.048469,0.110537,-0.229881,
0.153075,0.190530,-0.095638,0.195518,0.167594,0.166871,0.099000,-0.051757,
0.115581,0.136657,0.057800,0.126310,-0.087854,0.026677,0.156535,0.051063,
-0.092972,-0.083144,0.101299,0.022660,0.028595,-0.056436,0.203359,0.057378,
0.040998,-0.149462,0.061807,-0.139322,-0.114638,-0.025023,0.083463,-0.101933,
0.175631,-0.015903,0.201600,0.086969,0.076440,0.143596,-0.080176,-0.201987}
,
{
-0.366160,0.104319,-0.007838,0.030938,-0.050690,-0.009568,0.006279,0.003308,
-0.058281,0.113969,-0.053534,-0.035075,-0.022071,-0.019646,-0.009197,0.021008,
0.134373,-0.120288,-0.049808,-0.024831,0.021352,0.006453,0.017720,0.002435,
0.095536,-0.046246,0.043072,0.002055,0.004055,0.005970,-0.006034,-0.029822,
0.041100,-0.010732,-0.018712,-0.013667,-0.008601,0.014728,-0.006836,-0.008290,
0.027316,0.001269,0.004392,-0.000216,0.002022,0.008558,0.002593,-0.013033,
-0.007632,0.008610,0.010339,0.002305,-0.012618,0.002494,0.006726,0.004547,
-0.000944,-0.013152,-0.001339,0.004200,-0.008959,0.006454,-0.007870,-0.009495}
,
{
-0.047942,-0.205354,-0.107313,-0.029992,-0.182501,-0.019550,0.119172,-0.103269,
-0.153770,-0.024008,-0.081585,0.058381,-0.006750,0.147813,0.138168,0.173260,
-0.135319,-0.209507,0.023749,0.046199,0.149996,0.092524,-0.051039,-0.171966,
-0.007272,0.049361,-0.169254,0.036292,0.091992,0.092792,-0.115782,0.004778,
0.059770,-0.139432,0.178447,-0.025770,-0.069908,-0.090775,-0.102747,-0.091246,
-0.173176,0.220664,-0.215543,0.026512,0.229571,-0.023670,0.005588,-0.147192,
0.020788,-0.164844,0.032876,0.014987,-0.105042,-0.140064,-0.047121,0.184895,
-0.010570,-0.026129,0.069858,0.014117,-0.044014,0.215254,-0.058705,-0.105329}
,
{
-0.024874,0.058162,0.030625,0.024279,0.093407,0.155941,-0.038876,0.039195,
-0.039298,0.067375,0.065036,0.110038,0.096877,0.055230,-0.145621,0.116194,
-0.018819,0.061970,0.245352,-0.150463,-0.025233,-0.172340,0.047250,-0.179417,
0.138700,0.137521,0.131046,-0.058068,-0.199444,-0.127384,0.020392,0.094542,
-0.139033,0.094954,-0.122336,0.063020,-0.070683,0.121505,0.199541,-0.029351,
0.167950,0.065581,0.123567,0.044736,0.100136,0.017794,-0.053917,-0.012818,
-0.107924,-0.004388,0.245175,0.015348,-0.104087,0.115263,0.099906,0.046580,
0.119011,-0.127274,-0.055463,-0.053704,-0.149323,-0.138155,0.165383,0.011908}
,
{
0.078423,-0.048667,-0.161495,0.037960,-0.018233,0.182500,0.044783,0.088990,
-0.101599,-0.217073,0.186499,-0.062461,-0.059258,0.086946,-0.052830,0.128821,
0.162154,-0.159407,-0.066856,0.153814,0.044214,0.088684,0.128323,-0.161117,
-0.046033,-0.038479,0.007866,0.057379,-0.042981,0.197474,-0.079244,0.034866,
0.246387,-0.079851,0.073330,-0.081539,0.000744,0.073094,-0.079646,0.049504,
-0.055332,0.081611,0.047458,0.222020,0.074369,0.119070,0.204810,-0.025242,
0.214212,0.058005,0.076402,-0.057372,-0.183747,-0.082105,0.042932,0.023154,
0.038123,-0.135283,0.236837,-0.182835,0.011560,0.040540,0.076738,0.003092}
,
{
-0.025858,-0.150178,0.248182,-0.009491,0.161541,-0.132965,-0.072742,-0.111395,
-0.186237,0.052960,0.030082,0.198082,0.099602,-0.168770,-0.216325,-0.002814,
-0.146988,-0.009342,0.027653,-0.139655,-0.100035,-0.062015,-0.051890,-0.189360,
-0.243007,0.014680,-0.101130,0.039817,0.001000,0.000636,0.120810,0.015533,
0.233329,0.104387,-0.185443,-0.019952,0.157015,0.088935,-0.078455,0.163836,
0.137812,0.071101,-0.175694,0.157331,-0.243158,0.041428,0.049895,-0.037644,
-0.126517,0.125853,0.094037,0.085475,0.087326,-0.025478,0.212741,-0.049516,
0.008368,0.055709,0.197705,-0.041812,-0.013983,0.069559,0.107893,-0.248296}
,
{
0.031990,0.081016,0.162104,-0.115307,0.067292,-0.057998,0.062909,-0.073977,
-0.194100,-0.037260,-0.227476,0.081406,0.005790,0.145825,-0.015719,0.043204,
0.169399,0.035662,0.046447,-0.067200,-0.182287,0.133217,-0.096769,-0.195870,
-0.032679,0.039418,-0.007911,-0.019187,-0.046947,-0.184630,-0.126371,-0.011905,
-0.008257,-0.182869,-0.014474,0.006046,-0.047871,-0.196044,-0.140458,0.157564,
-0.093188,-0.172400,0.124068,0.057187,-0.012960,-0.101940,0.114045,0.096597,
0.055578,0.044392,0.094311,0.154148,0.140653,-0.134684,0.197707,0.061315,
0.036460,-0.000086,-0.101000,-0.137072,-0.018108,-0.130284,0.225308,-0.083505}
,
{
0.029121,-0.090669,0.048624,-0.043798,-0.019226,-0.075626,0.080457,-0.135281,
-0.080573,-0.051267,-0.041243,0.075476,-0.015699,0.143052,0.174762,-0.151240,
0.188838,-0.044019,-0.098463,-0.059104,-0.053782,-0.127855,0.087776,0.040667,
0.159267,0.002443,0.151532,0.046467,0.108109,-0.124255,0.224808,-0.164247,
-0.025368,-0.192880,0.096698,-0.060013,-0.047704,-0.118667,-0.103495,0.005604,
0.070392,0.129024,0.178962,-0.191017,0.188512,-0.089997,0.001746,-0.053818,
-0.015806,-0.117578,0.196760,0.011991,-0.240679,-0.138045,0.056172,-0.001602,
-0.063768,0.144670,-0.016903,-0.047114,0.086196,-0.006462,0.205703,0.048293}
,
{
-0.123607,0.067842,0.119618,-0.208747,0.117763,0.178974,0.026067,-0.077982,
0.168804,0.092083,0.102482,-0.037652,-0.014364,0.138542,-0.209383,-0.141926,
-0.113382,-0.056282,0.118002,-0.073110,-0.036116,-0.047898,-0.046910,0.122249,
-0.123740,-0.013328,-0.101016,-0.074021,0.008180,-0.096069,-0.024278,0.157723,
0.057275,-0.068629,0.215822,0.064566,0.090783,-0.072180,-0.024752,0.036950,
0.030995,-0.117318,-0.186964,-0.144037,0.040836,0.112646,-0.028217,0.017806,
-0.071553,-0.059149,0.054858,-0.093724,-0.101013,0.048339,0.039423,0.100527,
0.063734,0.112129,0.191086,0.128491,-0.088368,0.041403,-0.032906,-0.007235}
,
{
0.015688,-0.028839,0.007731,-0.006817,0.003010,-0.004682,0.000289,0.000087,
0.000895,0.004710,0.002779,0.001185,-0.000292,0.000820,-0.000622,0.000089,
0.000749,0.004154,-0.000308,-0.001108,-0.000024,-0.000169,0.000027,-0.000238,
0.000768,-0.000219,-0.000032,0.000004,0.000027,-0.000103,-0.000120,-0.000134,
-0.000670,-0.000677,-0.000114,0.000037,-0.000022,-0.000091,0.000058,-0.000021,
-0.000127,0.000001,-0.000011,-0.000018,0.000078,-0.000028,0.000035,-0.000047,
-0.000182,0.000114,0.000214,0.000010,-0.000063,0.000050,-0.000088,0.000081,
-0.000019,-0.000041,0.000097,-0.000160,-0.000022,0.000044,-0.000030,0.000119}
,
{
0.005594,-0.006507,-0.003835,0.002137,-0.000936,0.003408,-0.000494,0.002440,
0.023112,-0.021990,0.004450,0.000523,0.001222,0.001040,-0.000514,-0.000232,
-0.003806,-0.001275,0.002840,-0.005428,-0.000171,-0.001480,0.000311,-0.000204,
0.007298,0.000409,-0.001238,-0.001028,-0.001332,-0.000809,-0.000355,0.001494,
0.003477,-0.006311,0.002753,0.001055,-0.001484,0.001300,0.000089,0.000317,
0.001324,-0.001438,0.000067,0.000828,-0.000044,0.000098,-0.000302,-0.000514,
-0.001865,-0.000463,-0.000481,0.001009,0.000694,-0.000052,-0.000223,-0.000812,
-0.001222,0.000793,-0.000852,-0.000860,0.000399,0.000452,-0.000121,0.000497}
,
{
0.012852,0.003036,-0.028132,0.017456,-0.016535,-0.007671,-0.002850,0.001130,
0.016009,-0.009500,-0.004833,-0.003458,0.002491,0.001498,0.000819,-0.002993,
0.009468,0.001561,0.009446,-0.001052,-0.000791,-0.000124,-0.002866,0.002601,
0.009848,0.006953,0.006167,-0.000790,0.000760,-0.002962,0.001866,0.002143,
-0.001947,0.010335,0.001118,0.000407,-0.001786,-0.000447,0.002311,0.002157,
-0.000837,0.000204,0.001601,0.002241,0.002987,0.003015,0.001837,-0.002524,
0.000620,-0.000078,-0.003209,0.001191,0.003050,0.000988,-0.003454,-0.003931,
-0.001066,0.001859,-0.002580,-0.003908,0.002947,0.002301,-0.001778,0.002520}
,
{
0.036307,-0.008656,-0.034234,0.000522,-0.010618,-0.010377,-0.006705,-0.005206,
0.012874,-0.052614,0.005290,-0.009680,-0.008850,0.008490,-0.003156,0.001780,
-0.015587,-0.031328,0.012799,-0.001231,-0.001642,-0.000921,0.002731,-0.001099,
-0.003415,0.004209,0.015098,-0.002874,0.003139,0.001060,0.002735,0.001682,
-0.001724,0.001111,-0.001197,0.001890,-0.001405,-0.002154,-0.001290,-0.000250,
-0.005399,0.003710,0.004327,0.000255,-0.002256,-0.003029,-0.001362,0.000807,
-0.002830,-0.003628,0.001596,0.003027,-0.001578,0.000341,0.002024,0.003672,
0.002884,-0.000184,-0.000316,0.000734,-0.001541,-0.000592,0.001555,-0.000243}
,
{
0.030325,0.063692,-0.004944,0.045194,-0.009346,0.023463,0.004731,0.001399,
-0.039957,-0.010683,0.047137,0.001329,0.002042,-0.001383,0.002193,0.001126,
-0.014974,0.025255,-0.000578,-0.005977,0.004578,-0.001989,0.001679,0.002081,
0.042764,0.012263,0.001950,0.001427,-0.001564,0.001329,0.006495,-0.002211,
0.003716,-0.002807,-0.008598,0.003171,0.004000,-0.001884,0.004211,-0.002682,
-0.002467,-0.003687,0.000462,-0.002092,-0.004253,-0.001282,0.002944,0.001820,
-0.002236,-0.000760,-0.001847,-0.001259,-0.002322,0.000525,0.005662,0.005507,
0.003552,0.000789,0.004262,0.001897,-0.001732,0.001362,-0.003553,-0.003143}
,
{
-0.022627,0.029005,-0.019230,0.011495,0.024824,0.027062,0.007168,0.014056,
-0.013664,-0.030108,0.027258,-0.014494,-0.014079,0.022922,-0.005388,0.008371,
-0.021453,0.022194,-0.022483,0.009844,0.011123,0.005280,0.009561,0.000484,
0.043731,-0.018627,0.018549,0.010449,0.002574,-0.001341,0.008010,-0.009661,
-0.020592,0.002457,0.002045,0.007554,0.014862,0.007481,-0.002013,-0.006831,
0.000414,-0.016018,-0.006865,0.000991,-0.010433,-0.008724,-0.000209,-0.004426,
-0.022717,-0.006683,0.009679,0.006372,-0.008527,0.001055,0.016737,0.021169,
-0.001304,0.005518,0.002712,0.006803,-0.003716,-0.005568,-0.004000,-0.014628}
,
{
-0.071744,-0.044623,0.095352,0.011496,0.081610,0.043940,-0.001603,0.021227,
-0.020554,0.085525,0.039113,-0.023764,0.022345,0.005955,-0.002129,-0.001306,
-0.072398,0.053250,0.032803,0.033306,-0.009841,-0.006373,-0.000573,0.002100,
0.046167,0.004328,0.010154,-0.011217,-0.002048,0.008550,0.003692,-0.007772,
-0.020127,0.003452,-0.001079,-0.000858,0.007858,0.006124,0.005429,-0.005813,
-0.011241,0.010151,0.000264,-0.007842,-0.007551,-0.000660,-0.002681,0.007940,
0.014795,0.003760,-0.005916,-0.014790,-0.002367,-0.008234,0.009387,-0.007554,
0.009222,-0.007364,0.006543,0.007438,-0.006438,0.004453,0.002797,-0.001049}
,
{
-0.008577,0.013096,-0.010696,-0.027591,-0.011596,0.004370,0.007038,-0.007207,
-0.000725,-0.044417,-0.007359,0.023547,-0.000466,-0.008600,-0.005984,-0.010136,
0.004101,0.024079,-0.016095,0.020665,-0.017280,0.010917,-0.005898,0.008061,
-0.001310,-0.021658,-0.001218,-0.012515,0.002723,0.000132,0.007744,0.014712,
-0.008031,-0.001451,0.024521,0.014817,-0.008270,-0.002449,0.011666,0.001010,
-0.002904,0.002674,-0.005225,0.001054,-0.007361,0.006932,0.010764,-0.000751,
0.003784,0.001567,-0.007573,0.015513,0.009213,0.006545,0.008960,-0.005105,
-0.004953,-0.001362,-0.006940,-0.004960,0.011038,0.001185,-0.005023,-0.008991}
,
{
-0.097934,0.154468,-0.033388,0.047075,-0.009268,0.010861,0.000081,0.001665,
-0.018754,-0.014769,-0.027163,0.001942,-0.001309,-0.003891,0.001026,0.000554,
-0.012045,-0.015936,-0.004215,-0.001613,-0.000810,-0.000694,0.000731,0.001150,
0.001396,-0.005145,0.002949,-0.001271,-0.001226,-0.001600,0.000765,0.000598,
0.004910,-0.007821,0.004629,0.000563,-0.000898,-0.000941,0.000110,0.000615,
0.000679,-0.001301,0.000151,0.001702,0.000911,-0.000480,-0.000615,-0.000848,
-0.001564,0.000205,0.000378,0.002315,0.001455,0.000505,-0.000407,-0.000089,
-0.001412,0.001758,-0.000738,-0.001312,0.001642,0.000671,0.000040,0.000593}
,
{
-0.152493,0.089840,-0.033305,0.059268,-0.019121,0.009582,0.001885,0.000137,
-0.040570,0.079282,-0.026995,0.001145,-0.001918,-0.004391,0.002646,-0.000405,
-0.009886,-0.001114,-0.019868,0.010613,-0.001319,-0.000451,0.000504,0.004057,
-0.029476,0.007174,-0.003396,-0.000703,0.000681,-0.007395,-0.000087,0.003390,
-0.008261,0.007614,0.003227,0.000665,-0.007686,0.003580,0.002006,0.001458,
0.000930,-0.002451,0.002341,0.006191,0.003295,0.002884,-0.000884,-0.006493,
0.000293,0.000366,-0.002412,0.006945,0.006082,0.000173,-0.006609,-0.007995,
-0.003804,0.005007,-0.003450,-0.007206,0.004943,0.003590,0.000097,0.003718}
,
{
-0.113382,0.065599,-0.058077,0.046906,-0.009455,0.015262,0.002379,-0.000095,
-0.013524,-0.024564,0.018694,0.013043,-0.008773,-0.000705,0.000674,0.003217,
-0.047951,0.018259,0.009983,0.011183,-0.001979,-0.001133,-0.000250,-0.006412,
-0.029517,0.005610,-0.004415,-0.002310,-0.000409,0.002860,0.000994,-0.000886,
-0.011370,0.029282,0.000283,0.006130,0.002900,-0.000093,0.000943,0.000618,
0.000553,0.002523,-0.000429,-0.002927,-0.001272,-0.002503,0.001035,0.003670,
-0.001308,-0.005058,0.003218,-0.002481,-0.002340,0.002356,0.002533,0.002557,
-0.000488,-0.001499,0.001207,0.004305,-0.002597,-0.001068,0.001579,0.001136}
,
{
-0.080835,0.051370,0.021588,0.008799,0.056543,-0.008615,-0.000892,-0.003134,
-0.082899,0.002029,0.055942,0.006168,0.009829,-0.012752,0.009999,0.001454,
-0.090256,0.016842,0.018924,-0.027333,0.007865,0.010322,-0.001998,0.001545,
-0.000637,0.028329,0.010092,0.002809,-0.000209,-0.002042,-0.009121,-0.006924,
-0.011128,-0.010525,-0.006342,-0.004459,0.003437,0.010959,0.001412,-0.001765,
-0.002527,-0.000241,-0.004277,0.001098,0.003004,0.000249,-0.003393,-0.000718,
-0.002779,0.000534,-0.000481,-0.008308,0.003799,-0.003499,-0.008852,-0.012154,
-0.000644,-0.003983,0.004240,-0.003898,0.001118,-0.001157,0.000817,0.001385}
,
{
-0.164187,0.192174,0.210174,-0.207647,0.058135,0.027820,0.007146,-0.007507,
-0.322252,0.216684,0.131191,-0.034130,0.006152,-0.030401,0.036139,-0.004836,
-0.025330,0.140479,-0.037656,0.000395,0.003074,-0.007815,-0.010656,-0.002328,
0.017187,0.016434,-0.047252,0.001537,0.011488,0.005346,-0.014583,0.012210,
0.040195,0.029587,0.001003,-0.009843,0.009321,0.013303,-0.008859,0.001055,
-0.044553,-0.001423,0.009017,0.001811,0.004530,0.003148,-0.014526,0.006283,
-0.002133,-0.002118,-0.012620,-0.015111,0.001016,-0.007172,-0.010884,-0.015886,
-0.012405,-0.006657,-0.007646,0.005548,0.000722,-0.012604,0.018962,0.002144}
,
{
0.021293,0.001866,0.025150,-0.041207,0.170787,-0.065370,0.007254,-0.010040,
0.107721,-0.018917,-0.020945,0.182031,-0.075642,0.123026,0.060195,0.239961,
-0.140004,0.051025,0.143169,0.095226,-0.027659,-0.072795,-0.232538,0.160786,
-0.151380,-0.007101,-0.090436,-0.081350,0.189914,0.086172,0.129835,-0.111339,
0.011663,-0.134212,-0.076299,0.024808,-0.027593,-0.004670,-0.061542,-0.159366,
0.132379,0.160706,-0.019708,0.126829,0.042075,0.083732,0.154446,-0.024341,
-0.075737,-0.071295,-0.149194,0.063776,-0.061731,0.017368,-0.214633,0.101657,
-0.226722,-0.233391,-0.188425,-0.142660,0.045914,-0.029463,0.002546,-0.127903}
,
{
-0.141030,-0.184269,-0.074157,-0.065239,0.186487,-0.010603,0.039525,-0.020180,
0.050988,-0.028255,0.072424,-0.048608,-0.176256,-0.069592,0.012203,0.034386,
-0.056748,0.051807,-0.029820,0.021240,-0.067370,-0.009463,0.108521,-0.110781,
0.122906,-0.066323,0.005507,-0.019955,-0.111190,0.086967,0.029483,-0.063996,
-0.053612,0.010355,0.013397,0.063526,0.014111,0.080246,0.004887,-0.065512,
0.043661,0.049192,-0.010097,0.139274,-0.110804,-0.033569,0.107939,-0.098103,
-0.027225,0.047884,0.085578,-0.135008,0.049536,0.048546,-0.021563,0.079762,
-0.070789,-0.034918,-0.091979,-0.144255,0.116101,-0.083095,-0.101011,-0.064047}
,
{
-0.151217,-0.198269,0.026714,-0.059779,-0.081254,0.008544,-0.005163,-0.063639,
-0.214464,0.026357,-0.178630,0.124063,0.044829,-0.006535,0.058747,-0.051738,
-0.012980,-0.010912,-0.012852,-0.087201,0.092886,0.045018,-0.118910,0.074085,
-0.135218,0.066446,0.009842,0.030853,0.139922,-0.103040,-0.066701,0.102595,
0.005181,-0.038375,-0.030864,-0.043916,-0.050442,-0.111700,-0.021596,0.083924,
-0.034811,-0.081989,0.042922,-0.106060,0.130665,0.068681,-0.148925,0.079984,
0.008290,-0.072966,-0.091393,0.178470,-0.074305,-0.026595,-0.013702,-0.075458,
0.103889,0.049133,0.069214,0.183186,-0.091435,0.057829,0.140283,0.068865}
,
{
0.129610,-0.181707,0.056507,-0.047012,0.018488,-0.014730,-0.003882,-0.003542,
-0.034528,0.035825,0.013026,-0.007289,0.005439,0.002844,0.002427,0.000478,
0.012486,0.016536,0.015339,0.016520,-0.000085,0.000491,0.002737,-0.002539,
0.008011,-0.003064,0.003503,-0.001837,0.000803,0.002394,-0.004037,0.000540,
0.003488,0.005893,0.002770,0.002817,-0.002702,0.008355,-0.001115,-0.003611,
0.000627,0.000077,-0.003971,-0.003134,-0.004610,-0.000280,-0.003399,0.002466,
0.001467,0.001934,-0.001377,-0.002157,-0.004617,-0.003639,0.001091,0.000069,
-0.001278,-0.003500,0.002566,0.003030,-0.003267,-0.002674,0.003969,-0.002659}
,
{
0.061316,-0.174333,0.106953,-0.076279,0.007786,-0.015496,0.000184,-0.003469,
0.036652,-0.092520,0.033840,-0.029036,0.003528,-0.005921,0.003152,0.002903,
-0.000360,0.019002,0.013416,0.008012,0.000233,0.000990,-0.000381,-0.005832,
0.007271,0.020548,-0.001515,-0.000460,0.001116,0.009809,-0.003066,-0.004151,
-0.001052,0.015823,-0.001674,-0.000851,0.006069,0.001546,-0.005294,-0.005211,
0.003475,0.004472,-0.003497,-0.007805,-0.005115,-0.004768,-0.003326,0.007413,
0.000227,-0.001478,0.003590,-0.009551,-0.006399,-0.004100,0.006684,0.003797,
0.000663,-0.007415,0.002526,0.008052,-0.009130,-0.007177,0.005767,-0.004828}
,
{
0.156604,-0.188276,-0.001550,-0.054457,0.016883,-0.004603,-0.004038,-0.004222,
-0.021322,-0.087963,0.024194,0.000728,0.016300,-0.001130,-0.005022,-0.005107,
0.029305,0.035511,0.010571,-0.011750,0.003807,0.001921,-0.004103,0.000708,
-0.019321,0.022338,0.003907,-0.001156,0.003945,-0.002125,0.000515,0.010707,
0.003035,0.017093,-0.006302,0.002532,-0.010661,-0.003588,0.000845,0.001136,
-0.000864,-0.001612,0.010457,0.003016,-0.001434,0.005056,-0.000539,-0.001500,
0.000460,-0.001517,-0.006771,0.004074,0.000460,0.002221,-0.000881,-0.000316,
0.002540,0.001904,-0.002767,-0.003336,-0.000734,0.001485,0.003296,0.002929}
,
{
-0.072071,-0.055447,0.095842,-0.035415,-0.018607,0.012528,-0.000766,0.006858,
0.157473,0.048924,0.020729,-0.033953,0.012552,0.017552,-0.019808,0.009245,
0.163458,0.008793,0.116608,0.007041,0.004838,0.005445,0.007593,0.018683,
0.040238,-0.029582,0.011777,-0.024329,-0.002794,-0.015166,0.016713,0.000669,
-0.033826,-0.004730,-0.017666,-0.006560,-0.000361,-0.009566,0.017034,0.009041,
-0.003069,0.001847,-0.000534,0.010942,-0.000347,-0.003308,0.011225,-0.007036,
0.004045,0.031080,-0.002152,0.019177,0.014184,0.006099,0.006293,-0.002181,
0.003729,0.013179,-0.001343,-0.012488,0.013133,0.018536,-0.014132,0.002121}
,
{
-0.599146,0.498442,0.082605,-0.105426,0.002080,0.043515,-0.008175,0.020429,
-0.116071,-0.093941,0.107770,0.095538,-0.087618,0.020029,-0.012448,-0.024234,
-0.140673,0.039396,0.301860,-0.117098,0.027393,-0.015139,-0.033791,0.010913,
-0.159249,0.058618,0.003835,-0.004733,0.036538,-0.005674,-0.009972,0.007188,
-0.043852,0.015410,-0.006176,0.024564,-0.005689,-0.006396,0.028207,0.018384,
0.007201,-0.026998,0.011381,0.024304,0.017718,0.017137,0.018508,-0.017979,
-0.001680,-0.030549,-0.015856,0.015259,0.019636,0.022273,-0.012765,-0.022111,
-0.028065,0.022605,-0.023058,-0.014398,0.014326,0.017989,-0.023919,0.024443}
,
{
0.201760,-0.709802,-0.115843,0.197651,0.037380,0.023134,0.003011,-0.000274,
0.595354,-0.208049,0.194482,0.096268,0.068569,0.023652,-0.020377,-0.016491,
0.099264,0.204013,0.199505,0.068008,-0.015438,-0.014178,-0.017128,0.027415,
0.151289,-0.092606,0.061099,-0.044898,0.004750,0.014572,0.022137,-0.017177,
0.009401,0.016016,-0.016806,-0.012874,-0.016053,-0.016116,-0.021836,-0.013385,
0.016789,-0.019159,-0.026210,-0.014075,0.008855,-0.015206,0.003512,0.013198,
0.043436,0.014330,-0.019634,-0.011847,-0.017811,-0.006124,-0.011518,0.013852,
-0.019342,0.014920,-0.014040,0.022009,-0.015805,-0.017265,-0.006843,-0.027787}
,
{
-0.006722,-0.043946,0.001278,0.075196,-0.143371,0.015137,0.039776,-0.121934,
0.139629,-0.020374,0.166612,0.090714,0.032552,0.049248,-0.101858,0.106833,
-0.115354,0.086014,-0.210652,0.024574,-0.127569,0.094686,0.011691,0.232982,
-0.057163,-0.053388,-0.122741,0.057598,-0.103085,0.112305,0.242143,-0.077379,
0.149763,0.190913,0.182837,-0.003732,-0.121408,0.085199,0.113681,-0.060063,
-0.103527,0.018173,0.211160,-0.108197,0.045446,-0.068405,-0.082219,-0.105121,
-0.146591,-0.013068,-0.122915,-0.032804,-0.059550,-0.046832,0.055099,-0.036913,
-0.166626,-0.120123,0.053855,-0.035041,0.093170,0.019615,0.087845,-0.184435}
,
{
0.067572,-0.132381,0.087809,-0.016704,0.096226,0.001634,-0.065345,-0.000537,
-0.110587,-0.151178,0.006831,0.058833,-0.150840,-0.164259,-0.119156,-0.100342,
-0.034108,-0.210643,0.008356,-0.192302,-0.103664,0.083848,0.184747,-0.104911,
-0.090663,-0.130174,-0.084250,0.034537,0.020135,-0.016914,-0.222189,-0.135534,
0.112147,-0.133272,-0.218905,0.191936,-0.025738,-0.077247,-0.160413,-0.020466,
0.085936,0.047193,-0.172803,0.143829,-0.043771,-0.015515,-0.066358,0.099686,
-0.116401,0.110411,0.100692,0.022543,-0.004234,-0.177793,0.024919,-0.000536,
0.041096,0.017799,0.012687,0.016885,0.007609,0.058625,-0.170023,-0.045002}
,
{
-0.136138,0.212893,-0.095359,0.083918,-0.021085,0.015825,-0.001478,-0.005444,
0.007002,-0.000395,-0.016622,0.022982,-0.005611,0.001127,0.003543,-0.000091,
-0.027900,0.020359,-0.020525,-0.030319,-0.000886,-0.001303,0.002271,-0.002302,
-0.002752,0.001041,0.002263,-0.001782,-0.000305,0.005246,-0.001148,-0.000594,
0.001937,-0.005153,0.001590,0.000660,0.003833,0.002340,-0.006055,-0.002287,
0.003790,-0.001569,0.000485,-0.001301,-0.003343,-0.005309,-0.003572,0.002608,
-0.002214,0.001725,0.003053,-0.001317,-0.002638,-0.003396,0.004783,0.004061,
0.000941,-0.001570,0.000075,0.004108,-0.004235,-0.002841,0.002058,-0.004734}
,
{
-0.013321,0.226793,-0.145513,0.054586,0.032758,-0.004767,-0.001544,-0.002902,
-0.064971,0.188631,-0.081333,0.047031,-0.023307,0.006106,-0.009745,0.008980,
0.073335,0.030493,0.001737,-0.006748,-0.007305,-0.005193,0.012916,0.000467,
0.050862,0.008923,-0.000165,-0.002989,0.003723,-0.001268,-0.008204,-0.007636,
0.019212,-0.001824,0.011914,-0.012478,-0.007871,0.004632,-0.009773,-0.011250,
0.008065,0.017771,-0.008112,-0.003447,-0.008619,-0.009757,-0.011465,-0.001199,
-0.003735,0.012549,0.008012,0.003077,-0.005894,-0.008578,0.006318,0.008832,
-0.000877,-0.006105,0.006786,0.003954,-0.001678,-0.009309,0.007531,-0.008189}
,
{
-0.112189,0.149088,-0.255131,0.010437,-0.073734,0.024959,0.004801,-0.001284,
0.095611,0.061422,0.064466,0.048006,-0.011301,0.006442,0.013140,-0.017086,
-0.051599,-0.047333,-0.014613,0.012163,-0.001329,-0.007368,-0.022998,0.006793,
0.033920,-0.055763,-0.022564,-0.023307,0.000428,-0.014922,-0.007159,0.008469,
0.024231,-0.028123,-0.011128,0.007052,0.012194,0.000433,0.010408,0.027949,
0.008592,-0.013555,0.012863,0.021966,0.030033,0.021008,0.008587,-0.014109,
-0.006831,-0.009246,-0.009279,-0.005140,0.014624,0.016245,-0.024672,-0.020052,
0.005006,0.015655,-0.011573,-0.016880,0.023390,0.015465,-0.009012,0.031329}
,
{
-0.478950,0.239808,-0.034935,0.052359,0.017624,0.002179,0.009440,-0.003071,
-0.035170,0.344417,0.276873,0.093447,-0.044121,0.002419,0.010611,-0.006014,
-0.056697,0.217412,-0.144925,-0.075713,0.021461,0.027624,-0.001987,-0.014997,
0.032677,-0.071318,0.023964,-0.001318,0.011681,-0.005274,-0.022744,0.008387,
-0.025272,-0.008557,0.016950,0.017509,-0.007835,-0.018822,-0.016379,0.002379,
0.004267,0.004325,0.005135,0.006914,-0.000045,0.001296,-0.018531,-0.006061,
-0.028213,-0.006788,0.000008,-0.006045,-0.016665,0.011482,-0.013158,0.019729,
-0.002466,0.002729,0.001066,0.008682,0.006223,-0.017984,0.016115,0.004840}
,
{
-0.007247,-0.040460,-0.146547,-0.201017,-0.167208,-0.076068,-0.158031,0.165684,
0.101309,-0.130007,0.194590,0.049483,-0.136185,0.133438,0.030861,0.043266,
-0.071128,0.095788,-0.188488,0.096445,0.008758,-0.113728,0.093098,-0.052510,
-0.140985,-0.105296,-0.097721,0.025186,-0.080660,0.210330,-0.081769,-0.000368,
-0.196809,0.120912,-0.028201,0.037092,0.024717,0.059601,0.075672,0.100666,
-0.039373,0.118214,0.141270,0.089387,-0.200753,-0.095088,-0.206022,0.126374,
0.174492,0.081890,-0.064055,-0.124660,0.054834,0.008961,-0.247584,-0.184630,
0.034331,-0.003329,-0.055944,-0.090053,0.088162,0.028797,0.042491,0.205288}
,
{
-0.188652,0.076441,-0.169367,0.182533,-0.116717,0.204829,-0.096704,0.245828,
-0.057705,0.004955,0.032407,0.114992,-0.124845,0.047728,0.050504,0.050385,
0.013409,0.048165,-0.059353,0.039089,-0.094497,0.004856,0.028458,-0.157808,
-0.023687,-0.101294,-0.030960,-0.174702,0.117071,-0.158716,0.155537,-0.028849,
-0.099154,0.041126,0.035383,-0.109321,0.016941,0.033179,-0.027263,-0.004990,
0.183353,0.100663,-0.027578,-0.052162,0.084253,-0.190229,0.140634,-0.063687,
0.153151,-0.115192,-0.064583,0.025245,-0.184367,0.193228,-0.060257,0.093631,
-0.024054,0.075579,0.058068,0.151469,0.202000,-0.092617,-0.084020,0.039140}
,
{
0.043309,-0.169823,0.204845,0.070709,0.085414,0.082224,0.098330,-0.171206,
-0.017094,-0.057796,-0.204198,0.089766,0.110643,0.045635,0.075237,0.029641,
-0.187877,0.092076,-0.035855,0.052605,-0.157402,0.017571,0.140618,-0.111486,
0.019709,-0.164496,0.190583,-0.010445,0.152055,0.112828,-0.061693,-0.083584,
0.003101,-0.070209,0.133407,-0.076552,0.008869,-0.050982,-0.166018,0.106945,
-0.034343,0.016723,0.092838,0.071056,-0.021589,0.013154,-0.090367,-0.015683,
-0.039964,0.183478,0.049970,-0.052226,0.071440,-0.069705,0.207346,-0.159783,
-0.156582,0.133643,0.142795,0.131606,0.167786,-0.032352,-0.132634,0.135428}
,
{
0.076534,0.032411,0.027055,-0.167811,0.161415,-0.101507,0.087999,-0.017319,
-0.118064,-0.031096,-0.107223,-0.024936,-0.076083,0.245837,-0.055061,0.045711,
0.225652,0.089510,-0.005915,0.170742,-0.007633,0.073605,-0.023121,-0.016776,
0.209514,-0.093975,-0.070654,-0.134025,0.238349,-0.071684,0.127896,0.137572,
-0.101936,0.002050,-0.009395,-0.024524,-0.096999,0.155502,0.025726,0.068931,
-0.055649,0.061908,0.003079,0.186306,-0.057961,0.195728,-0.242519,0.094233,
-0.200668,-0.035645,-0.038379,0.012291,0.122795,0.140300,-0.076408,0.092267,
