#include "nn_framework.hh"

template<typename T> float gen_lepton_prior_0_0_0(const T & vals_in, int index) {
  static_assert(T::size0 >= 79,
     "array must be sized to hold at least 79");
  static const float bias1[6] = { -0.313264,-0.372975,0.565878,0.175552,-0.796468,0.55606 };
  static const float weights1[][6] = { {-0.177312,-0.123108,-1.62641,-0.802981,-0.325604,-1.19534}
,
{-0.165611,-0.231266,0.0729819,-0.125915,0.134539,0.0948866}
,
{-0.418761,-0.494894,0.0413281,-0.021373,-0.228615,-0.0875512}
,
{-0.512261,-0.283008,1.19813,0.693621,-0.622778,0.824932}
,
{-0.415099,-0.367541,0.389518,0.113425,-0.890513,0.522974}
,
{-0.205335,-0.428563,0.539812,0.0250261,-0.694159,0.712179}
,
{-0.344284,-0.162278,0.455054,0.234249,-0.673051,0.443285}
,
{-0.0693575,-0.0660994,0.0762287,0.0359776,-0.0413639,-0.143895}
,
{-0.0717335,-0.07108,0.15539,0.147087,-0.138865,0.0249771}
,
{0.163518,0.0842315,-0.0336718,-0.0183665,-0.00777549,0.23332}
,
{0.0931823,0.229491,-0.0426696,-0.119403,0.0720836,-0.125113}
,
{-0.0223306,-0.00984996,0.113287,0.0571841,0.118595,-0.0842138}
,
{-0.0512254,0.126848,-0.0490025,0.0625923,0.0257042,0.0493768}
,
{-0.0850719,-0.0232304,0.00951024,0.0282842,-0.103034,-0.0123318}
,
{-0.0207352,-0.134864,-0.0471056,-0.0208296,0.0147606,0.0390213}
,
{0.168715,-0.0278472,-0.173022,0.125419,-0.125171,-0.0570362}
,
{0.115559,0.156842,-0.0079318,-0.133077,-0.00288487,-0.0763121}
,
{-0.0561279,-0.0108191,-0.213456,0.202097,-0.134926,0.00481388}
,
{-0.529884,-0.185848,-1.07074,-0.276468,-0.0790701,-0.782254}
,
{-0.144668,0.160786,0.213343,0.207441,0.04651,-0.0290113}
,
{0.12955,-0.0390547,0.33298,0.172417,-0.0178562,0.102811}
,
{0.121344,-0.0379808,0.200613,-0.0249962,0.260952,0.222671}
,
{-0.227018,0.125051,-0.131492,-0.037544,-0.0776203,0.0548434}
,
{-0.0674151,0.0990722,-0.0234852,0.178573,0.105706,0.0787182}
,
{-0.183576,-0.0510358,0.00869563,0.100477,-0.200268,0.0148175}
,
{-0.200441,-0.264647,0.0869028,-0.133187,-0.27878,-0.0606513}
,
{-0.0236293,-0.179113,0.0208618,-0.0167969,0.00854489,0.0175824}
,
{-0.0216589,-0.120464,0.0384439,0.0537262,-0.0147048,-0.0396314}
,
{0.0688493,0.0851645,0.892061,0.708523,-0.349264,0.437099}
,
{-0.0632416,0.0608774,-0.0621002,-0.108482,-0.0862261,0.124099}
,
{0.193207,0.221253,0.143544,-0.0579556,-0.00807884,-0.0841691}
,
{-0.0522743,-0.15469,0.0165212,-0.0018204,-0.239514,0.129245}
,
{0.0850346,-0.0845492,0.0950812,0.0276329,-0.160453,-0.145685}
,
{-0.0820517,0.180098,-0.0770794,0.0257515,0.0133791,0.140924}
,
{-0.0661887,-0.0648129,-0.0179165,0.00939487,0.00298439,-0.0125531}
,
{0.00833799,-0.095115,0.0243942,-0.0756778,-0.017048,-0.00354517}
,
{0.102019,-0.0176013,0.126639,-0.135114,-0.0725343,-0.0974535}
,
{-0.0563187,0.0172655,-0.0229171,-0.0244785,-0.0298052,0.0034795}
,
{0.0565479,0.126751,0.00447875,0.0259813,-0.00734255,0.0477862}
,
{-0.102184,-0.1534,-0.0565159,-0.0372428,-0.101925,-0.0433438}
,
{0.00800748,-0.0625411,0.00877954,-0.0189321,0.0385593,0.0143135}
,
{0.0889492,0.0490965,0.0209264,0.0537402,0.0481698,0.0267108}
,
{-0.0686166,-0.00414484,-0.038839,-0.0331331,0.0226383,0.0556969}
,
{0.112413,-0.116191,0.114131,-0.21841,-0.159769,-0.111046}
,
{-0.0255377,-0.0872608,0.000112784,-0.072834,-0.0258831,0.0197216}
,
{-0.0409865,0.0763454,-0.0164976,0.0180645,0.0274939,0.0184005}
,
{-0.114512,-0.172782,-0.0591576,-0.0609035,0.0102388,0.0364872}
,
{-0.0169112,0.0748529,-0.00354064,0.0477826,0.0740278,0.0272464}
,
{0.0123544,0.206866,0.0257771,0.0434547,-0.0301275,-0.0407006}
,
{-0.0632027,-0.163124,-0.0319854,-0.063308,0.0905604,0.0780048}
,
{-0.0535513,-0.0384526,-0.0240771,-0.00686052,-0.0262685,0.00612931}
,
{0.0175946,-0.159537,0.0065992,-0.0403438,0.00895336,0.0294617}
,
{-0.0311594,0.0282673,-0.0245931,0.029284,0.0341984,0.0235323}
,
{0.087949,0.114338,0.0770051,0.0459019,-9.95131e-05,-0.097543}
,
{-0.0545424,0.0131722,0.025795,-0.0536532,-0.103821,0.00583991}
,
{-0.014902,-0.0654616,0.00346575,0.0574525,0.0839977,-0.0199201}
,
{0.162748,0.253181,0.0990351,-0.0201902,-0.0474037,-0.101788}
,
{-0.497975,6.33481e-05,0.0306302,0.114665,-0.214147,0.369814}
,
{-0.144102,0.0573123,0.0441636,-0.21652,0.00511572,0.0226973}
,
{-0.040015,0.0652491,0.00359116,0.139096,0.101074,-0.0527065}
,
{0.00578691,0.113767,0.003922,-0.0965031,-0.112035,0.0215412}
,
{-0.133928,0.025425,0.0383409,0.0150231,0.386188,0.0571484}
,
{-0.554802,0.0574722,-0.379015,0.158849,-0.802377,0.663458}
,
{0.0953191,-0.0666489,-0.0192508,-0.0801445,-0.0692462,0.0901019}
,
{0.0211616,-0.0656652,0.00276037,-0.00429825,0.0542079,-0.0475302}
,
{-0.0855996,0.116262,0.0474926,-0.0216326,0.0332401,-0.107694}
,
{-0.166166,-0.0314934,0.0393047,0.0522736,0.0291041,-0.179305}
,
{0.165821,-0.699026,0.289439,0.346397,-0.1171,-0.234668}
,
{0.03751,0.144905,-0.0108295,0.0723193,-0.022942,-0.062336}
,
{0.0868758,-0.132138,-0.0105745,0.105566,0.101425,-0.0557018}
,
{0.106181,-0.0692022,-0.0323411,0.0399806,0.00681778,0.100609}
,
{0.116646,0.00300583,-0.0184723,0.106676,0.201339,0.134149}
,
{0.268699,-0.178368,-0.0726724,-0.275964,0.129037,0.158672}
,
{0.0938788,0.226946,0.023435,0.0101031,-0.375909,-0.0892938}
,
{-0.251451,-0.205899,-0.0338252,0.584368,0.0191456,0.132581}
,
{0.486426,-0.327876,0.0498519,0.00561453,0.124207,0.0512655}
,
{-0.061492,0.0844041,0.121044,-0.121358,1.08125,0.0147809}
,
{-0.0408929,-0.569133,0.682886,-0.026608,0.0550665,0.267606}
,
{-0.140373,-0.223371,0.178945,-0.134614,-0.718304,0.314129}
 };
  static const float bias2[1] = { 0.315351 };
  static const float weights2[][1] = { {-0.0191116}
,
{-0.0101386}
,
{0.0405568}
,
{0.0203227}
,
{-0.0240142}
,
{0.0314296}
 };
  always_assert(index < 1);
  float tmp[6];
  for (unsigned int i = 0; i < 6; i++) {
    float sum = 0.f;
    for (unsigned int j = 0; j < 79; j++) {
      sum += weights1[j][i] * vals_in[j];
    }
    sum += bias1[i];
    tmp[i] = sum > 0.f ? sum : 0.f; // RELU
  }
  float sum = 0.f;
  for (unsigned int j = 0; j < 6; j++) {
    sum += weights2[j][index] * tmp[j];
  }
  sum += bias2[index];
  return sum;
}
float specialized_gen_lepton_prior_0_0_0(const Sirikata::Array1d<int16_t, 79> &v,
                                int index) {
  return gen_lepton_prior_0_0_0(v, index);
}
static int assign_gen_lepton_prior_0_0_0() {
  global_gen_lepton_prior.at(0,0,0) = &specialized_gen_lepton_prior_0_0_0;
  return 0;
}
static int initialize_gen_lepton_prior_0_0_0 = assign_gen_lepton_prior_0_0_0();
#include "nn_framework.hh"

template<typename T> float gen_lepton_prior_1_0_4(const T & vals_in, int index) {
  static_assert(T::size0 >= 79,
     "array must be sized to hold at least 79");
  static const float bias1[6] = { 0.0477562,-0.148006,0.233381,0.208983,-0.152939,0.229359 };
  static const float weights1[][6] = { {-0.0675966,-0.0804666,0.169646,0.200277,0.018863,0.0107056}
,
{0.0831759,-0.0280591,0.0778777,-0.106736,-0.0146706,0.00547653}
,
{-0.00979965,-0.152954,-0.163309,-0.0170922,0.178379,-0.0199214}
,
{0.215341,0.21534,0.164078,0.527003,-0.139198,0.569294}
,
{0.00875534,-0.217218,0.0852901,0.116994,-0.05256,0.195083}
,
{-0.119068,-0.133726,0.220672,0.190709,-0.192638,0.132448}
,
{0.0673207,-0.0625673,0.150942,0.0868516,-0.0697884,0.250212}
,
{0.0425717,0.0119027,0.180283,-0.0373901,0.00451228,0.022157}
,
{-0.122589,0.0886442,0.231613,0.0370002,0.074788,-0.206986}
,
{0.00918875,0.0495888,-0.17637,0.134549,0.0487015,0.00453637}
,
{-0.0169002,-0.012932,-0.209457,0.00500998,0.2353,0.0164004}
,
{0.0709581,0.0790306,-0.0163165,0.132752,0.0902278,0.0224506}
,
{0.137379,0.0593471,0.0713738,0.155344,-0.122288,0.0499973}
,
{0.0173841,-0.0184141,-0.0172499,0.0244649,-0.080035,-0.0558777}
,
{-0.0417666,-0.0136844,-0.0784192,-0.0177176,0.126455,-0.126932}
,
{0.066315,0.113532,-0.0665524,-0.1914,0.1845,0.1904}
,
{-0.191543,-0.272538,0.192728,0.27381,-0.25724,0.242274}
,
{-0.10705,-0.0711267,-0.201003,0.0284147,0.0725478,0.0499988}
,
{0.237452,-0.0660454,0.0556948,-0.0980723,-0.0460031,0.197602}
,
{-0.028372,0.154352,0.145177,0.0259508,0.152585,0.0335858}
,
{-0.0202217,-0.0245741,-0.00915843,0.0273691,0.0830487,-0.0643461}
,
{0.0463825,0.142105,0.0708093,-0.0607719,0.0113053,0.209214}
,
{0.023854,0.216606,-0.00992584,-0.00889132,-0.165904,0.10012}
,
{0.0605157,0.125214,0.0630066,0.152347,0.0246278,-0.0115028}
,
{-0.0548594,-0.182191,0.178164,0.0930875,0.155106,-0.139795}
,
{0.14827,0.0341371,-0.00993595,0.0378406,0.207869,-0.0509429}
,
{-0.0481693,-0.227381,-0.085223,0.0515337,0.0860732,-0.0941292}
,
{-0.297354,0.103101,-0.044998,0.0099561,-0.152889,0.0764344}
,
{0.018932,0.019239,-0.0232333,0.0705256,0.41539,0.134897}
,
{-0.167353,-0.108814,0.00753795,-0.0546835,-0.0496987,-0.00926884}
,
{-0.0126226,-0.0290843,-0.105112,0.047858,0.0151967,0.0278219}
,
{-0.0750462,-0.0471605,-0.180849,0.0157179,-0.0418481,0.0724775}
,
{-0.0186342,-0.0591545,-0.0989567,0.05752,0.128645,-0.0018903}
,
{0.00278761,-0.0282239,0.0727255,0.138855,0.100195,-0.0735902}
,
{-0.117058,-0.121517,-0.297431,-0.0637926,-0.151434,0.090363}
,
{0.0543605,0.045582,0.164954,0.000854552,-0.0133972,-0.0870418}
,
{0.321426,-0.156445,-0.146622,0.0331682,-0.115116,-0.0348447}
,
{-0.0225374,0.0657151,0.0905051,-0.0671722,0.0295516,0.0795737}
,
{-0.139828,-0.108575,-0.122737,-0.129975,0.0114898,0.0539371}
,
{0.0579905,0.0644595,0.0694464,-0.119328,-0.04354,0.160814}
,
{0.0145044,-0.0995576,-0.100441,0.0318402,-0.029102,-0.0785391}
,
{0.0735786,-0.0924164,-0.0876153,0.0565107,0.0123522,-0.157115}
,
{-0.0189026,0.0411496,0.12845,0.0851344,0.0419119,-0.154097}
,
{0.223082,0.0703898,0.183601,0.186437,0.00132558,-0.153906}
,
{0.118702,0.120513,0.112746,0.101999,-0.0137593,0.0413902}
,
{0.00458856,-0.0869679,-0.0677988,0.000205753,-0.00261367,-0.0643492}
,
{-0.226628,0.0673447,-0.0110808,-0.0136338,0.134745,0.138846}
,
{-0.0530449,-0.0555784,-0.136028,0.0424946,-0.121968,-0.0238676}
,
{-0.114632,-0.0307504,-0.1029,0.0130971,-0.121121,-0.0676566}
,
{0.0977206,0.0864898,0.0676949,0.175207,-0.122868,-0.113644}
,
{-0.046888,-0.0385394,-0.0845746,-0.0434066,-0.0248348,0.0476229}
,
{-0.326228,-0.0539525,0.0719665,-0.28002,-0.171719,-0.0154294}
,
{-0.00725038,0.0149045,-0.0587547,0.0321989,0.0990372,0.0754839}
,
{0.0162689,-0.0926387,-0.021742,-0.0186131,-0.0908807,-0.202192}
,
{-0.44423,0.250262,-0.120647,0.0291948,-0.192698,0.237806}
,
{0.0456059,-0.133987,-0.0814774,0.131851,0.0563184,-0.122862}
,
{-0.216046,-0.219521,0.12116,0.34824,-0.0316254,-0.161841}
,
{0.151646,0.251856,0.133181,0.0294478,-0.00906498,-0.0983226}
,
{0.157709,-0.0107093,0.10138,0.158873,-0.0975291,-0.211616}
,
{-0.339337,0.042015,-0.11601,-0.0643079,-0.0508833,-0.0256095}
,
{-0.147703,0.0204467,-0.0224788,-0.158909,-0.309192,0.092841}
,
{0.521211,-0.510746,0.163965,0.0766117,-0.0699323,-0.130285}
,
{-0.118159,-0.0243582,0.065761,-0.105426,-0.0340719,0.0210617}
,
{-0.572114,-0.123696,-0.279312,0.128139,0.0633476,-0.0335697}
,
{-0.189152,-0.070906,0.024596,-0.129655,-0.0236131,-0.109554}
,
{0.194887,-0.0101216,-0.0408799,0.0965396,-0.00583884,-0.0691506}
,
{-0.00562636,-0.0467658,-0.102116,0.485185,-0.122931,0.0327176}
,
{0.413698,-0.0504446,0.0535061,0.0288981,-0.019755,-0.0260701}
,
{0.257731,-0.334132,-0.131028,-0.0900122,0.139,0.353221}
,
{0.392922,0.0966389,0.22254,-0.140317,0.0150702,-0.10398}
,
{-0.33095,0.0537277,0.0184472,-0.175127,-0.0649373,0.260377}
,
{0.0463921,-0.00366821,0.472514,0.101035,-0.440732,-0.242091}
,
{-0.197267,-0.103207,0.146249,-0.229008,-0.153546,-0.0341976}
,
{-0.39958,0.270593,-0.353387,-0.211356,0.151133,0.0575385}
,
{-0.361797,-0.166313,0.0666166,0.621683,-0.408739,-0.512841}
,
{0.321914,0.155311,-0.170511,0.157307,-0.362691,-0.132293}
,
{-0.0586562,0.860003,-1.01945,-0.894639,0.96583,-0.916781}
,
{0.0129501,-0.33432,-0.17721,0.17032,0.113391,0.572171}
,
{-1.23612,0.0330111,0.364438,0.982026,-0.914351,0.965921}
 };
  static const float bias2[1] = { 0.271839 };
  static const float weights2[][1] = { {-0.0398502}
,
{-0.0969302}
,
{0.0680623}
,
{0.0662469}
,
{-0.0215205}
,
{0.0640192}
 };
  always_assert(index < 1);
  float tmp[6];
  for (unsigned int i = 0; i < 6; i++) {
    float sum = 0.f;
    for (unsigned int j = 0; j < 79; j++) {
      sum += weights1[j][i] * vals_in[j];
    }
    sum += bias1[i];
    tmp[i] = sum > 0.f ? sum : 0.f; // RELU
  }
  float sum = 0.f;
  for (unsigned int j = 0; j < 6; j++) {
    sum += weights2[j][index] * tmp[j];
  }
  sum += bias2[index];
  return sum;
}
float specialized_gen_lepton_prior_1_0_4(const Sirikata::Array1d<int16_t, 79> &v,
                                int index) {
  return gen_lepton_prior_1_0_4(v, index);
}
static int assign_gen_lepton_prior_1_0_4() {
  global_gen_lepton_prior.at(1,0,4) = &specialized_gen_lepton_prior_1_0_4;
  return 0;
}
static int initialize_gen_lepton_prior_1_0_4 = assign_gen_lepton_prior_1_0_4();
#include "nn_framework.hh"

template<typename T> float gen_lepton_prior_1_0_5(const T & vals_in, int index) {
  static_assert(T::size0 >= 79,
     "array must be sized to hold at least 79");
  static const float bias1[6] = { 0.312135,0.28994,-0.154073,-0.397441,-0.189834,0.207817 };
  static const float weights1[][6] = { {0.159787,0.149832,0.21549,-0.219634,-0.397661,0.392436}
,
{-0.0780815,-0.0772232,-0.116398,-0.0545033,-0.0626125,0.0686478}
,
{-0.155581,-0.0714665,0.561624,0.227723,-0.0533189,0.0733276}
,
{0.670411,0.152305,0.26687,0.056545,-0.544025,0.376951}
,
{0.371354,0.28595,-0.253788,-0.325771,-0.22296,0.209176}
,
{0.176381,0.0779693,-0.129931,-0.500512,-0.315601,0.0205319}
,
{0.382129,0.111998,-0.229727,-0.682574,-0.146406,0.0982594}
,
{-0.0195011,0.102081,0.0541811,-0.15268,-0.00969388,0.0826447}
,
{-0.00916316,0.13123,0.0952675,-0.0446981,0.0513214,-0.177288}
,
{0.0197133,-0.0438285,-0.139196,-0.0785611,-0.0159132,0.0729682}
,
{0.114785,-0.0174549,0.0211244,-0.00464837,0.0324765,-0.0151794}
,
{0.0828171,0.19427,-0.395524,-0.344224,0.0419669,-0.0774881}
,
{0.245365,0.165668,-0.136483,-0.230848,-0.227512,-0.0897122}
,
{-0.1768,-0.0822577,0.214571,-0.0563096,-0.0739272,-0.0385069}
,
{0.0627152,-0.0207765,-0.0611635,-0.0576385,-0.018637,-0.0964602}
,
{-0.130603,-0.054727,-0.0543154,0.0274698,0.144808,-0.001665}
,
{0.496918,0.104529,0.186375,-0.0421051,-0.197713,0.355745}
,
{0.121194,-0.173532,-0.228691,-0.119865,-0.00928797,0.000850759}
,
{0.208324,0.00336534,0.172835,-0.468376,0.183959,-0.0766522}
,
{0.0189631,0.0801844,0.138087,-0.192127,0.222574,0.00907294}
,
{0.0628426,0.0340551,-0.348745,0.033014,0.169625,0.0615651}
,
{-0.0776369,-0.115821,-0.147512,-0.295315,-0.0891403,0.0865638}
,
{-0.0622117,0.11583,-0.0050484,-0.0970414,0.117695,-0.0568457}
,
{-0.00329122,0.0783424,-0.0789232,-0.1503,0.137007,0.149308}
,
{-0.083956,0.124727,-0.11694,-0.0505104,-0.10607,0.0680575}
,
{0.0904167,-0.192603,0.0103376,-0.00360576,-0.0880572,-0.266449}
,
{0.0518494,0.0720195,0.00157079,0.0627278,0.210901,0.0621466}
,
{0.230867,-0.207826,-0.0251052,-0.103669,-0.0996886,-0.262497}
,
{-0.0133658,0.214886,-0.0891266,0.240427,0.124579,0.269612}
,
{0.150658,-0.0130343,0.00531251,-0.0242142,-0.127927,0.17426}
,
{0.000101113,-0.00922339,0.0684095,0.0507116,0.0341193,0.0777388}
,
{-0.0163092,0.00514735,-0.117143,-0.210544,-0.108019,0.15766}
,
{-0.0876046,-0.158868,0.0412678,-0.102045,-0.144049,-0.0877024}
,
{0.0335836,0.0485874,0.126921,-0.116751,0.115616,-0.19468}
,
{0.00089967,0.0137091,0.110622,-0.0743594,-0.0018584,-0.035005}
,
{-0.0123362,-0.145276,0.1467,0.181447,0.0175106,0.217001}
,
{-0.00830804,-0.0343314,0.489769,-0.134111,-0.0146726,0.048487}
,
{0.187289,-0.136636,0.0389246,-0.0381192,0.00340967,-0.0873048}
,
{0.115377,-0.0303676,0.394247,0.00247563,-0.0154861,-0.097517}
,
{0.188695,0.15275,0.0311955,-0.000601977,0.2426,-0.0366742}
,
{-0.0441527,-0.00990403,-0.0898038,0.113447,-0.109979,-0.133755}
,
{0.0439126,0.0823224,0.156155,0.187431,0.0740119,0.00116734}
,
{0.086573,-0.209439,-0.0837567,0.19805,-0.0688223,-0.0283148}
,
{0.0520764,0.115253,-0.200723,0.0476637,0.258956,0.213081}
,
{0.0658038,-0.0951952,-0.125986,0.16273,-0.0295872,-0.0414508}
,
{-0.05706,0.0437981,-0.00447032,-0.181173,-0.00720923,0.0141083}
,
{0.0315373,-0.0643244,-0.0313656,-0.0737449,0.0944522,0.211117}
,
{0.0671141,0.11059,0.115991,-0.0836347,0.112898,-0.0186722}
,
{0.00868364,-0.0131795,-0.390439,0.122435,-0.0332315,-0.147163}
,
{-0.0227056,0.0566721,0.12259,0.14085,0.00276237,-0.0159612}
,
{0.00696822,-0.0075172,-0.11676,-0.134052,-0.0329963,-0.0715629}
,
{0.0290957,0.109274,0.232276,0.0234219,0.043231,-0.127471}
,
{-0.0467491,0.0259803,-0.151444,-0.0661863,0.0456156,0.0963769}
,
{-0.190998,-0.00366645,-0.270538,0.181889,-0.0712171,0.141448}
,
{0.269008,0.208838,-0.0759788,0.00947815,0.38391,-0.303032}
,
{-0.0371796,0.0467446,0.0151935,0.00676005,-0.0859125,-0.122223}
,
{-0.0579632,0.119983,-0.918893,-0.405513,0.210111,-0.823363}
,
{-0.416402,-1.10981,-0.363144,0.368029,-0.346542,0.310034}
,
{0.0153388,-0.631833,0.339327,-0.181116,0.274285,0.4164}
,
{-0.0489933,0.166434,-0.170231,0.104171,0.209636,0.0384069}
,
{0.0883285,-0.35114,-0.0671405,-0.191323,0.112293,-0.0468775}
,
{0.00670587,0.636673,0.644515,0.532365,-0.241514,0.216706}
,
{0.266868,-0.108693,0.221849,0.730192,-0.555086,0.2168}
,
{-0.123901,0.219316,-0.213602,0.0738901,-0.141861,-0.612823}
,
{0.436663,-0.465916,0.236877,0.361836,0.158621,-0.449722}
,
{-0.042667,0.167134,0.0179342,0.131746,-0.0847443,-0.140548}
,
{-0.0957179,-1.05255,0.259694,0.197949,0.283091,-0.798564}
,
{-0.0151899,-0.561085,-0.297523,0.289064,0.183979,0.0768087}
,
{-0.0334994,-0.220832,-0.0779285,-0.0163137,0.29761,-0.599356}
,
{-0.220541,0.00531381,-0.106324,0.138242,-0.319948,-0.299197}
,
{0.0431406,-0.0787104,0.103591,-0.0517091,0.145808,0.350544}
,
{-0.473658,0.603596,-0.375994,-0.861562,0.60254,-0.903737}
,
{0.668861,0.511812,0.8069,0.100279,1.02518,0.0174687}
,
{-0.140246,1.15884,0.138704,0.112953,0.293856,-0.431909}
,
{0.15618,-1.08861,-0.282936,-0.0491238,-0.979224,1.10614}
,
{0.0521641,-0.251054,0.0498335,-0.0897873,0.27678,0.0899089}
,
{0.123376,0.0904798,0.106133,-0.0549994,0.0425908,0.16525}
,
{-0.25779,-0.407425,0.158456,0.266842,-0.0174744,0.00662312}
,
{-1.35406,-0.751281,-0.10336,-0.0757776,-0.371335,0.150173}
 };
  static const float bias2[1] = { 0.252792 };
  static const float weights2[][1] = { {0.0704775}
,
{0.0608206}
,
{-0.400791}
,
{-0.62439}
,
{-0.0912224}
,
{0.0524985}
 };
  always_assert(index < 1);
  float tmp[6];
  for (unsigned int i = 0; i < 6; i++) {
    float sum = 0.f;
    for (unsigned int j = 0; j < 79; j++) {
      sum += weights1[j][i] * vals_in[j];
    }
    sum += bias1[i];
    tmp[i] = sum > 0.f ? sum : 0.f; // RELU
  }
  float sum = 0.f;
  for (unsigned int j = 0; j < 6; j++) {
    sum += weights2[j][index] * tmp[j];
  }
  sum += bias2[index];
  return sum;
}
float specialized_gen_lepton_prior_1_0_5(const Sirikata::Array1d<int16_t, 79> &v,
                                int index) {
  return gen_lepton_prior_1_0_5(v, index);
}
static int assign_gen_lepton_prior_1_0_5() {
  global_gen_lepton_prior.at(1,0,5) = &specialized_gen_lepton_prior_1_0_5;
  return 0;
}
static int initialize_gen_lepton_prior_1_0_5 = assign_gen_lepton_prior_1_0_5();
#include "nn_framework.hh"

template<typename T> float gen_lepton_prior_1_0_6(const T & vals_in, int index) {
  static_assert(T::size0 >= 79,
     "array must be sized to hold at least 79");
  static const float bias1[6] = { -0.120726,-0.149737,0.255673,0.33137,0.148582,-0.266284 };
  static const float weights1[][6] = { {-0.0952136,-0.0376719,0.0361741,-0.00536994,-0.252327,0.0306943}
,
{-0.0668745,0.132738,-0.0722002,0.0288763,0.116741,0.452075}
,
{0.00419895,0.0538718,-0.0198163,0.142635,0.0529414,-0.720059}
,
{-0.3449,-0.103304,-0.0053338,0.388566,-0.0182052,-0.915644}
,
{-0.214178,-0.0796464,0.276648,0.165024,0.258244,-0.19149}
,
{0.122128,-0.128901,0.354043,0.312981,0.101567,-0.0318815}
,
{-0.0194047,-0.0888921,0.238281,0.423848,-0.0538262,-0.0187567}
,
{-0.201622,-0.0749739,-0.113785,-0.116631,0.17212,0.064212}
,
{-0.214431,0.142207,-0.374965,0.0144316,0.180449,-0.202771}
,
{-0.0768025,0.145038,-0.157371,-0.132059,-0.137714,0.0146179}
,
{0.0542145,-0.0200579,-0.0507368,0.000838032,-0.0747297,-0.0188082}
,
{0.112579,-0.0067546,0.0475936,-0.453448,0.126127,0.0716118}
,
{0.185753,0.0396215,0.23795,0.111675,0.0814392,-0.275721}
,
{-0.168242,0.336494,-0.0498386,0.310867,0.184934,-0.291126}
,
{-0.0203428,0.0702294,-0.100662,-0.0677642,-0.19682,0.0634119}
,
{-0.103164,0.139719,-0.140961,-0.0308919,0.037122,-0.138159}
,
{-0.0758493,-0.384537,0.218453,-0.481087,-0.0577337,0.238096}
,
{0.0882525,-0.0323537,0.0729062,-0.0251444,-0.100887,0.103308}
,
{0.144939,0.0828622,0.317711,0.355764,-0.113209,0.395673}
,
{0.0529746,0.0268171,0.0134182,-0.0750581,-0.000831916,-0.271331}
,
{0.0556404,0.170753,0.0603831,0.00040034,0.132085,-0.0703645}
,
{0.0102475,0.0756508,-0.0342689,0.0565122,0.115502,0.0241672}
,
{0.151852,-0.195773,-0.172877,0.156883,-0.167488,-0.0453105}
,
{-0.0664992,0.00129776,-0.0668118,-0.0444492,0.00611037,-0.0293336}
,
{0.0551457,0.236138,-0.184273,0.0738316,-0.0864228,-0.21461}
,
{0.0489825,0.0210895,-0.119286,0.0748314,-0.141494,-0.165274}
,
{0.0408377,0.0323873,-0.0699757,0.186908,-0.126965,-0.057579}
,
{-0.0654351,-0.062771,-0.0672613,-0.105333,-0.0370889,-0.132227}
,
{0.165063,-0.126072,-0.15455,-0.0680749,0.0954324,0.0254052}
,
{0.181909,-0.0311623,0.0165701,0.150049,-0.0368584,-0.0634485}
,
{0.0561114,0.0527491,0.154842,0.0694139,-0.0237592,-0.602673}
,
{-0.00379211,0.0960096,-0.0337513,-0.166946,0.102316,0.107459}
,
{-0.175883,0.0347646,0.17557,0.18044,-0.0718205,0.0676922}
,
{0.0505047,-0.026017,0.00355144,-0.109152,-0.154087,-0.035343}
,
{-0.0749351,-0.0172603,-0.234031,-0.108614,0.0689737,0.0234677}
,
{0.205943,0.0755526,0.269625,-0.0125059,-0.000395666,0.0586101}
,
{0.147332,-0.308281,-0.268343,-0.0034315,-0.067734,0.700783}
,
{-0.0696359,0.0790489,0.161024,0.0973164,-0.0634006,0.163238}
,
{-0.224572,0.120626,-0.0290902,0.215555,-0.00192007,0.0874152}
,
{-0.0381537,-0.000420224,0.085617,0.0260778,-0.0453005,-0.0762932}
,
{-0.107025,-0.0697916,-0.29311,-0.0304603,0.0623143,0.0529185}
,
{0.0188671,0.0857725,-0.244587,-0.157841,0.224384,-0.411725}
,
{0.0269125,-0.000762246,0.0442453,0.200174,-0.0303989,-0.0476011}
,
{-0.0689481,0.0337962,0.147262,-0.119096,-0.135456,0.0578491}
,
{-0.103455,-0.0174477,-0.0542352,-0.0395005,-0.0240905,-0.179506}
,
{-0.257664,0.0752566,0.0229954,-0.0621675,-0.0656413,0.227526}
,
{0.0892109,-0.0339382,0.312846,0.203913,-0.104897,0.168358}
,
{0.0262384,-0.0914579,-0.146264,-0.0977874,-0.012173,0.0795065}
,
{-0.381893,-0.00498023,-0.280792,-0.160364,-0.0541951,0.45103}
,
{-0.135686,0.0508484,0.19859,-0.0292514,-0.109725,-0.353437}
,
{-0.0412941,0.0363497,0.0225768,-0.0113688,0.000985686,0.04851}
,
{-0.199956,-0.178287,-0.325135,-0.300487,-0.0817118,-0.432775}
,
{-0.0492939,0.00124024,0.143943,0.199293,-0.136207,0.143178}
,
{0.00121141,-0.109568,-0.255432,0.0666667,0.0248002,-0.456364}
,
{0.138216,-0.0942553,-0.0373578,-0.177675,0.208973,-0.192606}
,
{0.0189278,-0.114265,0.161191,-0.146569,-0.0605915,-0.0651331}
,
{0.358942,-0.101751,-0.0691589,-0.113639,0.212869,-0.12796}
,
{0.129653,0.0859438,-0.00691685,0.155413,0.108995,0.0272486}
,
{0.179919,0.0957911,-0.0846413,-0.26526,0.0910937,-0.230329}
,
{-0.110991,-0.13786,0.0815282,-0.0828527,-0.00258299,-0.0797468}
,
{0.149775,0.0163459,0.191466,0.0502554,-0.09259,0.0614536}
,
{-0.0560971,0.0644238,-0.0594715,0.220375,0.0225467,-0.0354234}
,
{-0.0787255,-0.0955681,0.017223,0.103161,-0.0961796,0.0260641}
,
{-0.0962267,0.0389141,-0.0937024,-0.214414,0.116145,0.0898702}
,
{-0.279726,-0.0268014,0.103099,0.0982682,0.194141,0.0945703}
,
{0.00315739,-0.0190929,0.0172783,0.025277,-0.0088447,0.115287}
,
{0.224576,0.106261,0.0401589,0.00560398,0.107725,0.147184}
,
{0.08082,-0.054071,-0.0647647,-0.222942,0.00404956,0.0282575}
,
{-0.251698,0.00638217,-0.0443854,-0.125293,0.0695131,0.248801}
,
{0.167332,0.156122,-0.115797,0.12327,0.0544403,0.0703119}
,
{-0.109856,0.0319374,-0.0127122,0.0425928,-0.0822369,0.1356}
,
{-0.123523,-0.00827993,-0.098819,-0.0218072,0.124546,0.0476001}
,
{0.0794493,-0.0795625,-0.0391014,-0.129357,0.00982776,-0.131608}
,
{-0.0595095,-0.0493549,-0.0543996,-0.137925,0.129245,-0.00037851}
,
{0.143844,0.0211154,0.0710367,0.115832,0.172895,0.145017}
,
{-0.230331,0.0603345,-0.000184684,0.159776,-0.0366453,-0.171848}
,
{-0.152784,-0.0570968,-0.00781664,-0.0423589,0.183964,-0.138355}
,
{-0.116267,-0.0705614,0.17108,0.0526442,-0.032231,-0.0194454}
,
{0.0462873,-0.10522,0.100859,-0.224533,-0.162436,-0.0760487}
 };
  static const float bias2[1] = { 0.190264 };
  static const float weights2[][1] = { {-0.0650517}
,
{-0.128284}
,
{0.0779013}
,
{-0.109859}
,
{0.118962}
,
{0.399026}
 };
  always_assert(index < 1);
  float tmp[6];
  for (unsigned int i = 0; i < 6; i++) {
    float sum = 0.f;
    for (unsigned int j = 0; j < 79; j++) {
      sum += weights1[j][i] * vals_in[j];
    }
    sum += bias1[i];
    tmp[i] = sum > 0.f ? sum : 0.f; // RELU
  }
  float sum = 0.f;
  for (unsigned int j = 0; j < 6; j++) {
    sum += weights2[j][index] * tmp[j];
  }
  sum += bias2[index];
  return sum;
}
float specialized_gen_lepton_prior_1_0_6(const Sirikata::Array1d<int16_t, 79> &v,
                                int index) {
  return gen_lepton_prior_1_0_6(v, index);
}
static int assign_gen_lepton_prior_1_0_6() {
  global_gen_lepton_prior.at(1,0,6) = &specialized_gen_lepton_prior_1_0_6;
  return 0;
}
static int initialize_gen_lepton_prior_1_0_6 = assign_gen_lepton_prior_1_0_6();
#include "nn_framework.hh"

template<typename T> float gen_lepton_prior_1_0_7(const T & vals_in, int index) {
  static_assert(T::size0 >= 79,
     "array must be sized to hold at least 79");
  static const float bias1[6] = { -0.0787262,0.0451947,-0.124337,0.156475,0.154221,0.155411 };
  static const float weights1[][6] = { {0.0363908,0.230668,0.20121,0.00498514,0.191926,0.196035}
,
{-0.0387768,0.0433928,0.39931,-0.0358136,0.0698347,-0.0781211}
,
{0.0650358,-0.384019,0.141522,0.101309,0.0219585,-0.0584072}
,
{-0.107129,0.050252,-0.140211,0.155643,0.427942,0.380514}
,
{0.0291747,-0.0233225,-0.264571,0.250868,-0.0598375,0.207359}
,
{-0.0488618,0.131886,-0.0296262,0.158184,-0.0994888,0.101002}
,
{-0.10609,0.0246125,-0.0729151,0.144167,0.13094,0.166699}
,
{0.0159498,-0.153375,0.0363033,0.0789846,-0.0139706,-0.00240797}
,
{0.100354,-0.145182,-0.319652,0.013969,0.25347,-0.0373537}
,
{-0.0986354,-0.00735057,-0.0107482,-0.0412765,-0.0406441,0.0193692}
,
{-0.00410074,0.0718071,-0.0666623,0.103213,0.130282,0.0698637}
,
{-0.12724,0.0270266,-0.0692621,-0.101463,0.112932,0.108417}
,
{0.0807626,-0.0122047,-0.0817405,-0.113864,0.231719,0.0772032}
,
{0.0672715,0.101473,-0.0943859,-0.0875168,-0.0738754,0.0972045}
,
{-0.110808,0.202059,-0.085655,0.014497,0.0418486,0.0908323}
,
{0.109906,0.0568051,0.000214856,0.03502,0.164967,-0.00388836}
,
{-0.404634,0.0554523,0.0892727,0.357226,0.14463,0.377605}
,
{0.0656371,-0.42057,-0.20654,-0.0165129,-0.158598,0.105822}
,
{0.0154584,0.14073,-0.175333,0.122909,0.164588,0.0817712}
,
{0.0782355,-0.16028,0.160683,-0.0333379,-0.0985777,0.0471118}
,
{-0.00653699,-0.254179,0.0150393,-0.0016105,-0.082201,-0.0500644}
,
{0.194103,0.00485668,-0.181412,0.104722,-0.0470072,-0.0268899}
,
{-0.169055,0.115333,0.147691,-0.0318834,-0.0811016,0.0259754}
,
{0.0614196,-0.0385663,-0.0828187,-0.038258,0.0871046,0.0764681}
,
{0.0932266,0.262416,-0.143262,0.0910684,-0.0957952,-0.316892}
,
{0.0123139,0.0422179,-0.0932466,-0.206377,-0.149899,0.12516}
,
{-0.0528774,0.257447,0.0166452,0.0923298,-0.0248513,0.134596}
,
{0.163236,0.0821075,0.0451484,-0.1349,-0.132816,0.203083}
,
{-0.265637,-0.0731379,0.0165465,-0.07804,0.227879,0.425329}
,
{-0.0452492,0.0907556,-0.0518062,-0.0349311,-0.097862,0.0644039}
,
{0.0872494,-0.165685,-0.0663035,-0.0415761,-0.112471,0.170841}
,
{0.0578805,0.151637,-0.190345,0.140059,-0.16755,0.0783068}
,
{0.0295248,0.262516,-0.121269,-0.111223,0.0883709,0.213258}
,
{0.133687,-0.103399,-0.0979702,-0.170683,0.219627,0.0572168}
,
{-0.224736,0.560297,0.186687,-0.0497183,-0.281355,0.00652804}
,
{-0.152912,0.131877,0.254136,-0.0471186,-0.0466856,-0.0460503}
,
{-0.145111,0.221697,-0.24112,-0.0941486,0.303654,0.0191516}
,
{-0.0107183,0.204193,-0.128249,0.121356,-0.315584,-0.101388}
,
{0.263445,-0.0159015,0.142819,-0.0234622,0.631903,0.0341875}
,
{-0.0888041,-0.343872,0.242361,-0.107518,-0.1552,0.142767}
,
{0.101507,-0.240922,-0.0825414,0.0233763,0.0228032,0.0393034}
,
{-0.0484566,-0.714154,0.197802,-0.0790156,0.273324,-0.0104983}
,
{-0.00681405,-0.0368735,0.247657,-0.0169971,-0.0530506,0.0450338}
,
{0.108951,-0.0367228,-0.044423,0.167227,0.186874,-0.248572}
,
{0.0582733,0.11828,0.188252,0.128503,-0.0971284,-0.111293}
,
{-0.0271725,-0.0248101,0.0576362,0.0176546,-0.171342,0.00503702}
,
{0.106487,0.234655,-0.570954,0.118731,0.0170765,-0.119108}
,
{0.00329494,0.0534233,0.108621,-0.0929802,-0.138056,0.191411}
,
{-0.00102802,0.122824,-0.0115335,0.0407019,-0.178158,-0.0759032}
,
{0.152286,-0.0325285,-0.11187,0.144333,-0.167921,-0.0310322}
,
{-0.0669789,-0.150414,0.0876724,-0.152518,0.105905,0.124605}
,
{-0.0331882,0.451326,0.375109,-0.0868711,-0.420602,0.222547}
,
{-0.0513403,-0.0421762,0.196661,0.0524047,-0.210611,-0.0597048}
,
{-0.0472905,0.115977,-0.194811,-0.0570878,-0.304015,0.110744}
,
{0.0904175,-0.0213079,0.0479791,0.122776,-0.115958,-0.0548524}
,
{0.152744,0.11952,-0.0242103,-0.0158223,-0.0796311,0.156374}
,
{-0.0420273,-0.0661887,-0.0116731,-0.212682,0.0907618,-0.632477}
,
{-0.266917,0.0725829,0.063205,-0.0330393,0.0727759,0.390781}
,
{0.274526,0.016123,-0.0437902,-0.0659742,-0.181012,-0.582239}
,
{0.0795257,0.0577345,-0.154553,0.0484995,-0.0968398,0.424627}
,
{0.208369,0.167849,-0.0661761,0.151612,0.0283346,0.0643646}
,
{0.491811,0.156921,0.178953,-0.0537998,0.0174251,-0.292562}
,
{0.0636037,0.0186565,0.0623256,0.184045,-0.136035,0.0849085}
,
{0.125294,0.0882093,0.0739579,-0.319894,0.0831355,-0.807395}
,
{-0.209297,0.0817605,-0.236143,-0.185203,-0.0792026,-0.00574757}
,
{-0.0604436,0.255692,0.0623866,0.135662,0.0247445,0.181151}
,
{-0.0259757,-0.0131882,0.000167179,-0.331528,0.066424,0.0960998}
,
{0.123079,-0.0537392,0.0419859,0.282994,-0.00300272,0.0989855}
,
{-0.28975,-0.0905215,-0.171676,0.016352,-0.0217124,0.526563}
,
{0.333488,-0.0314287,0.170648,0.091766,-0.0510338,-0.31855}
,
{-0.0454461,0.157426,0.152373,0.140727,-0.0508158,0.0717323}
,
{0.354802,0.199621,-0.255958,0.0766276,0.111189,0.126879}
,
{-0.248589,0.197862,-0.000999737,-0.0324467,0.0581813,-0.395289}
,
{0.053311,-0.18665,-0.150759,-0.294251,0.00831409,0.133593}
,
{-0.0508057,-0.309798,-0.0552549,-0.142706,0.135385,0.672066}
,
{0.200731,-0.0290348,-0.0356115,-0.0555229,-0.0907408,-0.256856}
,
{-0.123526,0.0874385,0.0765182,0.0497827,4.61204e-05,-0.160316}
,
{0.0215688,0.130049,-0.11219,0.159683,-0.00482657,0.317851}
,
{-0.127354,-0.0433099,-0.124986,0.116024,-0.122643,0.0711333}
 };
  static const float bias2[1] = { 0.139051 };
  static const float weights2[][1] = { {-0.0657993}
,
{-0.58868}
,
{0.0887519}
,
{0.130391}
,
{0.0429687}
,
{0.077804}
 };
  always_assert(index < 1);
  float tmp[6];
  for (unsigned int i = 0; i < 6; i++) {
    float sum = 0.f;
    for (unsigned int j = 0; j < 79; j++) {
      sum += weights1[j][i] * vals_in[j];
    }
    sum += bias1[i];
    tmp[i] = sum > 0.f ? sum : 0.f; // RELU
  }
  float sum = 0.f;
  for (unsigned int j = 0; j < 6; j++) {
    sum += weights2[j][index] * tmp[j];
  }
  sum += bias2[index];
  return sum;
}
float specialized_gen_lepton_prior_1_0_7(const Sirikata::Array1d<int16_t, 79> &v,
                                int index) {
  return gen_lepton_prior_1_0_7(v, index);
}
static int assign_gen_lepton_prior_1_0_7() {
  global_gen_lepton_prior.at(1,0,7) = &specialized_gen_lepton_prior_1_0_7;
  return 0;
}
static int initialize_gen_lepton_prior_1_0_7 = assign_gen_lepton_prior_1_0_7();
#include "nn_framework.hh"

template<typename T> float gen_lepton_prior_1_0_8(const T & vals_in, int index) {
  static_assert(T::size0 >= 79,
     "array must be sized to hold at least 79");
  static const float bias1[6] = { 0.00550033,0.0,0.00600206,-0.0358471,0.0374794,0.0 };
  static const float weights1[][6] = { {0.055478,-0.0962846,-0.0963541,-0.0536873,-0.0863517,0.0744482}
,
{-0.131251,-0.248741,-0.149765,-0.233154,0.0519923,-0.0735904}
,
{-0.212727,0.0859568,0.00513473,0.131448,0.0366566,0.0696213}
,
{-0.00191038,0.045603,-0.0197971,0.143247,0.18583,0.134094}
,
{0.0149023,-0.0038232,0.0124087,0.0860515,0.258193,-0.00084776}
,
{0.0151755,-0.0952935,-0.107529,0.163574,0.121317,-0.0208446}
,
{0.0442809,-0.0362886,-0.151016,-0.134184,0.160905,0.0179758}
,
{0.0405982,-0.0215504,0.144639,-0.0878501,0.155846,-0.0351424}
,
{-0.00282359,0.000478555,0.0431725,0.0155056,0.118789,-0.164823}
,
{0.103656,0.0169921,-0.00928026,0.0951171,-0.032455,-0.0509427}
,
{-0.0944232,0.111129,0.150899,0.197922,0.0918301,-0.162729}
,
{0.117525,0.0973639,-0.158496,-0.128183,0.141801,0.0222065}
,
{0.0200725,0.151493,0.0814647,-0.10989,0.159987,-0.15156}
,
{-0.0403203,-0.153848,0.0624288,0.0195463,0.0924953,0.0782698}
,
{0.0769515,-0.000309229,0.180334,-0.0494851,0.153276,-0.121247}
,
{0.00614127,-0.161795,0.0652039,0.144494,0.145434,-0.110689}
,
{0.109412,-0.00721179,0.0461226,-0.0393402,0.0347256,0.092568}
,
{-0.0139241,0.114514,-0.00545275,0.11746,0.0409262,0.186444}
,
{0.0718523,-0.071504,0.080351,-0.126628,-0.0149033,-0.212702}
,
{-0.0645241,0.0681344,-0.0919406,-0.000655359,0.0997091,-0.0562219}
,
{0.00968758,0.00122556,-0.066761,-0.0441929,-0.0411371,-0.0289281}
,
{-0.17072,-0.176784,0.158155,-0.216723,-0.0622428,-0.0321651}
,
{0.100395,0.0618708,0.101817,-0.00196027,0.106752,-0.0995808}
,
{-0.139515,0.0284945,-0.113959,-0.0274466,0.16898,-0.159958}
,
{-0.010662,0.0363225,-0.196762,-0.112962,0.00166189,0.0142758}
,
{0.041724,-0.070005,-0.0479368,-0.125343,0.109241,0.14061}
,
{-0.134477,0.0733903,-0.138894,0.0398576,-0.146085,-0.078482}
,
{0.131987,0.0539672,-0.0888152,-0.112545,0.0502031,-0.0957621}
,
{-0.0392211,0.0252726,0.0431485,0.216078,0.0410341,0.0295552}
,
{-0.121015,-0.0403573,0.0425891,-0.0116145,-0.0366729,0.128116}
,
{-0.062721,-0.0133631,-0.0953006,-0.149252,-0.01338,-0.0141814}
,
{-0.123846,0.0148482,0.0467091,0.0504332,0.00422232,0.0223569}
,
{-0.0783447,0.0040751,-0.15329,0.0723963,0.146941,-0.204198}
,
{0.0426762,0.209211,-0.237617,0.0341048,0.00615187,-0.234265}
,
{0.220424,-0.0689511,-0.134351,-0.0654127,0.13258,-0.0106673}
,
{-0.110091,0.123596,0.0329449,0.0231696,0.120548,-0.0277802}
,
{-0.00774223,-0.0042366,-0.106426,0.00877068,0.0213637,-0.0366821}
,
{-0.226,-0.162056,-0.107678,-0.212537,-0.0378648,0.163348}
,
{0.00789881,0.103221,-0.106002,-0.0565078,0.0382801,-0.123925}
,
{-0.0136987,-0.13354,-0.0627756,-0.230741,0.0153575,0.0427244}
,
{0.0251645,0.02743,-0.238657,-0.227833,-0.00570573,0.0583796}
,
{0.0320187,-0.225844,-0.0285177,0.191639,-0.0761902,0.0150484}
,
{0.118198,0.132476,-0.00835756,0.206137,0.140048,0.085011}
,
{0.130554,0.127661,-0.0573091,0.174745,-0.0121635,0.0767981}
,
{0.22826,-0.0780506,0.103566,0.0272801,0.11189,0.144945}
,
{-0.198604,0.0541384,0.171533,0.116384,0.187179,-0.00208595}
,
{-0.0303187,0.0402706,0.0713631,0.0527243,-0.0838659,-0.0875496}
,
{0.034242,-0.0567808,-0.213086,0.058666,-0.165647,0.0161731}
,
{0.0422038,0.15669,-0.131923,-0.133741,0.0231499,-0.0794785}
,
{0.0220138,-0.120473,0.0654012,0.0774251,-0.152292,0.0750116}
,
{-0.093681,-0.00299316,-0.0228897,0.00552819,-0.00786074,-0.0718511}
,
{0.114797,-0.0638926,0.017638,0.228333,0.00622618,0.00778906}
,
{0.0592151,-0.203471,0.137422,-0.102053,-0.0383817,0.110252}
,
{-0.062964,-0.0106009,-0.0665352,-0.0171871,0.234605,-0.215613}
,
{-0.0487326,0.0495148,0.162759,-0.0769148,0.0437106,-0.0120665}
,
{-0.167216,-0.0161461,0.165394,-0.0530808,0.121079,0.0761704}
,
{0.0218309,0.149841,0.0796163,0.113064,-0.153714,-0.115159}
,
{-0.157902,0.030194,0.0961178,-0.148715,-0.0378557,0.0165161}
,
{-0.0151006,0.0279242,0.135269,0.0229308,0.0111599,0.00574469}
,
{0.0116096,-0.180345,0.0801319,0.0527631,0.0185071,-0.0857893}
,
{0.00899273,0.121833,-0.0858284,-0.160259,-0.050327,0.17671}
,
{-0.0275653,0.179391,-0.0394817,-0.105845,0.193001,-0.0244178}
,
{0.0497474,-0.0596379,0.0721223,0.020096,-0.126537,0.0491035}
,
{0.126972,-0.0779899,0.0525204,-0.0507751,0.0218922,0.0322676}
,
{0.0449849,0.108079,0.121225,-0.0819169,0.179045,0.11435}
,
{0.0352976,-0.163171,-0.00373137,0.0229434,0.126888,0.136006}
,
{0.105501,0.10411,0.151362,0.0392201,0.0455752,-0.0785012}
,
{0.118637,-0.0610901,-0.098954,0.0253875,-0.0486111,-0.0651824}
,
{-0.119452,-0.0411292,0.144235,-0.164127,-0.0873962,0.151808}
,
{0.179122,-0.0677645,-0.0564964,0.0666961,0.0293597,0.10456}
,
{0.0292565,-0.0493165,0.0203016,-0.0959097,-0.0404793,-0.0996223}
,
{0.161911,-0.0213761,-0.0195346,0.133125,0.0174088,0.240989}
,
{-0.0144014,-0.0263831,-0.0427819,0.047363,0.0911506,-0.107635}
,
{-0.0261986,0.0762477,0.143223,-0.0523043,-0.0173039,0.121178}
,
{0.0212614,-0.14984,0.0529511,-0.147765,-0.0181256,-0.112079}
,
{0.182228,0.0191062,-0.0585446,-0.0787257,0.0705439,-0.131043}
,
{0.0991961,0.0951653,-0.154062,-0.244254,-0.0980519,0.053596}
,
{-0.0922614,-0.212095,0.0422878,-0.0361174,0.188386,-0.203255}
,
{0.0641663,-0.158929,-0.0266295,0.119013,-0.190703,-0.0661035}
 };
  static const float bias2[1] = { -0.0367235 };
  static const float weights2[][1] = { {-0.0153297}
,
{-0.133728}
,
{-0.194719}
,
{0.0510931}
,
{-0.0549835}
,
{-0.071486}
 };
  always_assert(index < 1);
  float tmp[6];
  for (unsigned int i = 0; i < 6; i++) {
    float sum = 0.f;
    for (unsigned int j = 0; j < 79; j++) {
      sum += weights1[j][i] * vals_in[j];
    }
    sum += bias1[i];
    tmp[i] = sum > 0.f ? sum : 0.f; // RELU
  }
  float sum = 0.f;
  for (unsigned int j = 0; j < 6; j++) {
    sum += weights2[j][index] * tmp[j];
  }
  sum += bias2[index];
  return sum;
}
float specialized_gen_lepton_prior_1_0_8(const Sirikata::Array1d<int16_t, 79> &v,
                                int index) {
  return gen_lepton_prior_1_0_8(v, index);
}
static int assign_gen_lepton_prior_1_0_8() {
  global_gen_lepton_prior.at(1,0,8) = &specialized_gen_lepton_prior_1_0_8;
  return 0;
}
static int initialize_gen_lepton_prior_1_0_8 = assign_gen_lepton_prior_1_0_8();
#include "nn_framework.hh"

template<typename T> float gen_lepton_prior_1_0_9(const T & vals_in, int index) {
  static_assert(T::size0 >= 79,
     "array must be sized to hold at least 79");
  static const float bias1[6] = { 0.268773,-0.00184407,-0.285337,-0.144875,-0.0788866,-0.110291 };
  static const float weights1[][6] = { {0.032165,0.174671,0.107113,-0.0216333,-0.156141,-0.264803}
,
{0.240079,-0.0022284,0.126049,0.00218963,-0.380894,0.199534}
,
{-0.0775966,-0.154535,0.0183357,-0.0506275,0.25611,0.0794491}
,
{0.292166,-0.154678,-0.00485963,-0.296906,0.0204187,0.248064}
,
{0.419507,-0.171857,-0.27709,-0.072204,-0.152992,-0.232851}
,
{0.288951,-0.0494167,-0.354387,-0.21761,-0.226119,-0.0488743}
,
{0.114845,-0.0758231,-0.23765,-0.353402,0.00214448,-0.113601}
,
{0.0546173,0.0323249,0.246096,0.158032,-0.0314521,-0.246185}
,
{0.0180854,-0.385542,-0.153274,-0.0211732,0.0400586,0.102452}
,
{-0.140848,0.114835,-0.0320708,0.00633662,0.0102024,-0.156324}
,
{0.197891,-0.207273,0.0159161,0.0475861,-0.0384124,-0.0634152}
,
{0.155198,-0.239027,-0.134623,0.0543185,-0.078854,0.00555817}
,
{0.0136215,0.116811,0.221783,0.0314462,-0.0207414,0.0719673}
,
{0.156347,-0.0748794,-0.0633248,0.0848434,-0.104053,-0.124722}
,
{0.0732396,0.0953791,0.0341702,-0.070129,-0.112091,0.0959039}
,
{-0.233656,-0.0900365,0.0722139,-0.154966,-0.0287362,0.0873785}
,
{0.142807,-0.436245,-0.271218,-0.210211,-0.174462,-0.15254}
,
{-0.0366334,-0.0387966,-0.348067,0.063006,-0.231611,-0.0866205}
,
{-0.0269659,0.300835,-0.00585699,0.210306,0.0371351,-0.0169309}
,
{0.134916,0.114368,-0.06248,0.0111955,-0.0202597,0.116945}
,
{0.109546,0.0356853,0.00231166,0.0934233,-0.158909,0.0131627}
,
{0.12899,0.0105762,-0.0445487,0.0851873,-0.17147,0.0594675}
,
{0.055444,0.0477638,0.0628651,0.0491812,-0.131576,0.185173}
,
{0.15592,0.0109283,0.0691773,0.123853,-0.0422877,0.0170549}
,
{-0.0885419,-0.0624044,0.187117,-0.215558,-0.0458564,0.026504}
,
{0.0194258,0.00568355,-0.126519,0.000258959,-0.334248,-0.00903294}
,
{0.00896248,-0.113767,-0.118474,-0.139912,0.0812847,-0.164316}
,
{0.22528,-0.0480592,-0.231632,-0.0176538,0.153363,0.0310624}
,
{-0.269361,0.297648,0.731432,-0.0439948,-0.244435,-0.364598}
,
{0.0169487,-0.113903,-0.140314,0.165923,0.0647126,0.0642664}
,
{0.104615,0.20163,-0.0584706,-0.112265,-0.0153591,0.0876159}
,
{0.0418741,0.0934439,0.00619979,-0.140957,-0.0200333,-0.0881671}
,
{-0.0116272,-0.0410651,-0.0150355,0.0137097,0.0351626,-0.015177}
,
{-0.034458,-0.234105,0.0184033,-0.0349583,-0.0883171,0.0338181}
,
{0.0931693,-0.109349,-0.0661213,-0.0455568,0.141012,0.100841}
,
{0.0792279,0.0359068,0.0810173,0.0262001,0.0257284,0.0391643}
,
{0.00516464,-0.0335078,0.0666876,-0.0618881,-0.025765,0.113124}
,
{0.0368752,-0.0332903,-0.15247,-0.00915002,0.10711,0.0387455}
,
{-0.035905,-0.0927666,0.363663,-0.0137049,-0.0107633,0.00631218}
,
{0.0054547,-0.148797,0.0557861,-0.0239695,-0.131129,0.0496929}
,
{0.120475,0.0477394,-0.117068,0.0791721,-0.0822853,0.0174203}
,
{0.164368,0.0298373,0.0649776,-0.00356326,-0.204149,0.115688}
,
{-0.022482,-0.0303055,-0.0569578,-0.052652,-0.0813403,0.0228589}
,
{0.0228031,0.0609771,0.168467,-0.0294315,-0.152513,0.00109731}
,
{-0.0876245,0.0561655,0.196546,-0.200691,0.281059,0.114801}
,
{0.112497,0.0175543,-0.0792243,0.0445509,0.0339292,0.046873}
,
{0.0586329,-0.0128658,-0.0739192,-0.0328749,-0.126472,0.0620584}
,
{-0.0240363,-0.0150605,0.0356842,0.019849,0.0336933,-0.0225986}
,
{-0.0323261,0.184228,0.19985,0.0898665,-0.0794523,-0.110654}
,
{-0.13658,0.0183885,0.178599,-0.0663465,0.0766166,-0.0375578}
,
{0.0245289,-0.0308187,0.141404,-0.0312467,0.0974795,0.043292}
,
{-0.107234,-0.033198,0.136113,-0.0622576,-0.211501,-0.0500593}
,
{0.287489,0.0121382,-0.115155,0.176168,-0.0663108,0.050542}
,
{0.0881989,-0.1479,-0.124187,0.0172289,-0.0125086,0.0824653}
,
{-0.113284,0.0140386,-0.281322,-0.0265326,-0.422602,-0.159403}
,
{0.3402,0.242023,-0.695056,-0.138039,-0.127272,-0.203563}
,
{0.402535,0.0894397,0.564403,0.0654916,-0.422398,0.461985}
,
{-0.034794,-0.149416,-0.0130439,0.0198656,-0.0560764,0.290914}
,
{-0.785827,0.362742,0.389467,-0.168016,-0.181653,-0.181231}
,
{-0.480381,0.036992,0.114801,0.0563444,-0.0794459,0.0526638}
,
{0.0198025,-0.182267,0.0505284,0.114422,-0.141702,0.0567196}
,
{0.438696,-0.172012,0.0188607,-0.136656,-0.277549,0.359529}
,
{0.00566501,0.00192451,0.0862456,0.112162,-0.0327929,0.105826}
,
{-0.152837,-0.00232344,-0.0829507,0.0262355,0.536405,0.600641}
,
{0.276162,-0.255667,-0.0525173,0.0103611,-0.00435967,-0.0180028}
,
{-0.00118914,0.16645,-0.419041,-0.189646,-0.322112,0.150618}
,
{-0.198997,0.524612,0.134287,0.0496979,-0.0567012,-0.296078}
,
{-0.00550462,-0.0682659,0.0191705,-0.0137168,0.126432,-0.0781416}
,
{-0.625277,-0.20578,-0.0242572,-0.0436896,0.220346,0.356469}
,
{0.147255,0.194689,0.224373,-0.1026,0.125459,0.0550028}
,
{0.335292,-0.0359326,-0.114327,0.17124,-0.0355131,0.455589}
,
{0.150569,0.276602,-0.112468,-0.0239033,-0.0918433,-0.0940258}
,
{0.148707,0.178373,-0.1495,0.0489458,-0.0233394,-0.0157715}
,
{-0.182776,0.369009,-0.72194,-0.0815652,-0.360273,0.623762}
,
{-0.513038,-0.076032,0.19629,0.0925362,0.0441782,-0.439521}
,
{-0.501347,-0.0580566,0.301758,0.0498115,0.114563,0.484869}
,
{0.0372494,-0.17424,-0.0433047,-0.0686046,0.0295691,-0.00216857}
,
{-0.233985,0.288471,0.681765,-0.0526303,0.239846,-0.00173467}
,
{-0.0438205,-0.0913039,-0.0189827,-0.0840994,0.233966,-0.0285438}
 };
  static const float bias2[1] = { 0.289077 };
  static const float weights2[][1] = { {0.0997846}
,
{-0.187566}
,
{0.286062}
,
{-0.110512}
,
{-0.368342}
,
{-0.147918}
 };
  always_assert(index < 1);
  float tmp[6];
  for (unsigned int i = 0; i < 6; i++) {
    float sum = 0.f;
    for (unsigned int j = 0; j < 79; j++) {
      sum += weights1[j][i] * vals_in[j];
    }
    sum += bias1[i];
    tmp[i] = sum > 0.f ? sum : 0.f; // RELU
  }
  float sum = 0.f;
  for (unsigned int j = 0; j < 6; j++) {
    sum += weights2[j][index] * tmp[j];
  }
  sum += bias2[index];
  return sum;
}
float specialized_gen_lepton_prior_1_0_9(const Sirikata::Array1d<int16_t, 79> &v,
                                int index) {
  return gen_lepton_prior_1_0_9(v, index);
}
static int assign_gen_lepton_prior_1_0_9() {
  global_gen_lepton_prior.at(1,0,9) = &specialized_gen_lepton_prior_1_0_9;
  return 0;
}
static int initialize_gen_lepton_prior_1_0_9 = assign_gen_lepton_prior_1_0_9();
#include "nn_framework.hh"

template<typename T> float gen_lepton_prior_1_0_10(const T & vals_in, int index) {
  static_assert(T::size0 >= 79,
     "array must be sized to hold at least 79");
  static const float bias1[6] = { 0.0695475,0.0248776,-0.0950623,0.00605543,0.323313,-0.22703 };
  static const float weights1[][6] = { {0.125152,0.280512,-0.00808857,0.153145,-0.199953,0.0220255}
,
{0.327366,0.25234,0.0639871,0.0337022,0.186848,-0.0382756}
,
{-0.0947589,-0.209512,0.208392,0.246449,-0.0943869,0.0194047}
,
{-0.42062,-0.141268,-0.297028,0.201725,0.407948,-0.402222}
,
{0.0657695,0.0461563,-0.0345735,0.161968,0.43092,-0.171566}
,
{0.364059,0.07457,0.0343805,-0.0406584,0.261767,-0.00282138}
,
{0.121159,-0.0199865,0.140809,-0.00698342,0.198269,-0.143969}
,
{-0.0868777,-0.147912,0.220735,-0.207392,-0.160755,-0.0978341}
,
{-0.101407,0.195121,-0.329686,-0.0745099,-0.0673905,-0.117243}
,
{-0.140125,-0.104886,-0.0291651,-0.130674,-0.0502821,0.0109301}
,
{0.0492467,0.154179,0.0706147,-0.050514,-0.18048,-0.0581298}
,
{-0.0898266,-0.0298947,0.0289559,0.146417,-0.101963,0.0569548}
,
{-0.00660251,-0.113636,0.0775253,-0.139495,0.140616,-0.0693964}
,
{0.215629,-2.81294e-05,0.0438351,-0.207027,-0.0939862,0.333457}
,
{0.0301392,0.109866,0.0121529,0.0491818,0.0879355,-0.0364916}
,
{0.170901,0.191567,0.076119,-0.115931,-0.045827,-0.0281257}
,
{0.386418,-0.0392574,-0.161827,-0.0645313,-0.39814,0.174278}
,
{0.0160429,-0.0683974,0.0545767,-0.216645,-0.00192726,0.00691942}
,
{0.121467,0.101391,0.128105,-0.142325,0.130135,-0.304904}
,
{0.0732666,0.227057,-0.171694,-0.0484905,0.0478283,0.0334195}
,
{0.045453,0.112954,-0.0452701,0.00845664,0.0140744,-0.0373736}
,
{0.0421334,0.0466618,-0.0462784,-0.15264,0.0486393,-0.0790909}
,
{0.0384569,0.0378813,-0.232086,-0.00912314,0.238936,-0.0226254}
,
{0.0599212,-0.0829082,0.0454535,-0.016675,-0.00129187,-0.0487261}
,
{-0.188,-0.326326,-0.195862,-0.175657,0.100269,-0.00438161}
,
{-0.0798195,0.0207799,-0.123449,-0.187264,-0.185556,0.123513}
,
{-0.22999,0.320155,0.109984,-0.0632526,0.203355,0.0898935}
,
{0.0400746,0.0809688,-0.0879421,-0.079942,-0.085373,0.00310245}
,
{-0.0111877,-0.347549,0.136469,0.00728666,0.170622,-0.498081}
,
{0.00668025,0.102295,-0.0838477,0.0377163,-0.0268065,0.0243216}
,
{0.161328,0.120379,-0.15078,0.0181122,0.142365,-0.243596}
,
{0.0512646,-0.030859,-0.117054,0.0102529,0.0511091,-0.0117276}
,
{-0.019079,-0.0314855,0.208123,-0.288546,-0.0159479,0.105132}
,
{0.123394,-0.0532091,0.00891633,-0.0272621,-0.0108134,0.141839}
,
{-0.0491873,-0.0340744,-0.10899,0.160639,-0.10058,-0.0785165}
,
{-0.02843,0.156669,-0.339928,0.132519,-0.0182073,-0.0990513}
,
{0.329014,0.351942,0.143573,0.0822964,0.184738,-0.567355}
,
{0.109443,0.220013,-0.232595,-0.197544,0.0298212,-0.166036}
,
{0.289012,0.0930464,-0.330473,0.742466,0.0498557,-0.552038}
,
{0.0214055,-0.101913,-0.30661,-0.0726105,0.0128362,0.256064}
,
{0.0480052,0.0211094,0.0591314,-0.086823,0.0825326,0.157069}
,
{0.180155,0.11374,0.171298,0.231511,0.260465,0.261447}
,
{-0.0334124,0.0567333,-0.109146,0.00544021,-0.0187579,0.0311369}
,
{0.0542778,-0.179059,0.281083,0.0108428,-0.0855769,-0.113702}
,
{-0.112245,0.0165958,0.235843,-0.136983,-0.00108742,0.0633053}
,
{0.118273,0.00188543,0.103055,-0.0163849,0.00885698,-0.137595}
,
{0.0223496,-0.0614471,-0.0952256,0.173712,-0.163946,-0.422994}
,
{-0.0809922,0.11657,-0.062127,0.250287,0.00352075,0.0157277}
,
{-0.0641006,-0.110931,-0.0113545,0.0675807,-0.0892659,0.197728}
,
{-0.0203787,-0.066882,0.0660517,-0.337418,0.0267834,0.093746}
,
{-0.0916369,-0.0303724,-0.158611,0.431002,-0.0898903,-0.164749}
,
{-0.243342,-0.327702,0.049456,-0.0826834,-0.252532,0.0810139}
,
{0.0704044,0.0262902,-0.0250091,0.0242276,0.0468214,-0.0273422}
,
{0.201156,0.0648285,-0.467052,-0.213851,-0.0455067,-0.13733}
,
{-0.000738855,0.167198,0.0847262,-0.00417207,-0.33203,-0.47688}
,
{0.124569,-0.606438,-0.121299,-0.114168,-0.741038,-0.260192}
,
{0.016987,-0.0127203,-0.0739752,-0.0891622,-0.408786,-0.223407}
,
{-0.0365823,-0.150983,-0.0420469,-0.13157,0.31462,0.414257}
,
{-0.209064,0.223108,-0.0574082,0.0414742,-0.492619,0.607786}
,
{0.147835,0.0867901,-0.0172798,0.12601,0.0560803,-0.27075}
,
{-0.185442,0.0278208,-0.117744,0.0280434,-1.11591,0.145052}
,
{0.0844336,-0.0878453,0.0566814,-0.0205766,-0.167478,0.2686}
,
{0.119163,-1.05707,-0.144563,0.182268,0.733243,-0.752079}
,
{-0.101213,-0.419355,-0.180749,-0.0854231,0.672787,0.503132}
,
{0.00537801,-0.0307431,-0.164054,-0.00741778,0.275598,-0.0173919}
,
{-0.103423,-0.181318,0.0749655,-0.105821,-0.16557,-0.138031}
,
{-0.147535,-0.174805,0.0542109,0.0100416,0.123024,0.212172}
,
{0.108542,0.792865,-0.0563159,0.0318175,-1.16348,1.05085}
,
{-0.0574291,0.304338,0.0877454,-0.0291668,-0.17995,0.399313}
,
{-0.0504725,-0.0246981,0.0490959,-0.0716721,0.171014,0.102423}
,
{-0.140329,-0.784676,-0.107804,-0.155081,0.113773,-0.573685}
,
{-0.00396848,0.634239,-0.0875666,0.0586915,-0.537133,0.463947}
,
{0.0012471,-0.430105,-0.226902,-0.0451081,0.953458,-1.59887}
,
{-0.103239,-0.569766,-0.128715,0.208756,0.535729,-0.965536}
,
{0.0784106,-0.489825,-0.0934411,0.0192869,0.988358,-0.912012}
,
{0.118755,-0.200734,-0.0434952,0.102571,-0.095587,-0.146518}
,
{0.0727073,-0.0703084,0.0807588,0.0676158,0.128675,-0.219936}
,
{-0.00970121,0.116444,0.0591438,-0.205746,0.0128747,-0.160138}
,
{0.2044,0.12582,-0.0776564,-0.111027,0.0418833,-0.0420579}
 };
  static const float bias2[1] = { 0.0630695 };
  static const float weights2[][1] = { {0.0736116}
,
{0.0269104}
,
{0.261475}
,
{0.638606}
,
{-0.160041}
,
{0.122726}
 };
  always_assert(index < 1);
  float tmp[6];
  for (unsigned int i = 0; i < 6; i++) {
    float sum = 0.f;
    for (unsigned int j = 0; j < 79; j++) {
      sum += weights1[j][i] * vals_in[j];
    }
    sum += bias1[i];
    tmp[i] = sum > 0.f ? sum : 0.f; // RELU
  }
  float sum = 0.f;
  for (unsigned int j = 0; j < 6; j++) {
    sum += weights2[j][index] * tmp[j];
  }
  sum += bias2[index];
  return sum;
}
float specialized_gen_lepton_prior_1_0_10(const Sirikata::Array1d<int16_t, 79> &v,
                                int index) {
  return gen_lepton_prior_1_0_10(v, index);
}
static int assign_gen_lepton_prior_1_0_10() {
  global_gen_lepton_prior.at(1,0,10) = &specialized_gen_lepton_prior_1_0_10;
  return 0;
}
static int initialize_gen_lepton_prior_1_0_10 = assign_gen_lepton_prior_1_0_10();
#include "nn_framework.hh"

template<typename T> float gen_lepton_prior_1_0_11(const T & vals_in, int index) {
  static_assert(T::size0 >= 79,
     "array must be sized to hold at least 79");
  static const float bias1[6] = { 0.088163,-0.1292,0.0926907,-0.138466,0.272971,0.116338 };
  static const float weights1[][6] = { {-0.0767465,-0.104017,0.0739029,0.156889,0.0893198,-0.129545}
,
{-0.381821,0.132593,0.564671,-0.0944703,0.0698188,0.0540381}
,
{-0.0542738,-0.172335,0.278829,-0.00656219,0.0270478,-0.0096282}
,
{0.550832,0.278513,-0.402645,0.302812,-0.103342,0.0666414}
,
{0.113659,-0.152963,0.073375,-0.104907,0.187937,-0.0360224}
,
{0.170812,-0.0792183,0.176772,-0.210098,0.24567,0.187477}
,
{0.271219,-0.0932024,0.231252,0.0443523,0.190399,0.174413}
,
{-0.108031,-0.314229,-0.0769333,-0.146548,0.18182,0.0265608}
,
{-0.158809,0.00462257,-0.0387075,-0.0283093,-0.0959926,0.0145957}
,
{0.0688371,0.0295388,-0.0362388,0.183949,0.0569424,0.0719272}
,
{-0.156077,-0.120259,0.00558324,-0.0539493,0.155857,0.0809521}
,
{0.0538246,0.0721914,0.149587,0.00755331,-0.0383504,0.0193617}
,
{-0.245427,0.0625852,0.0250771,0.19908,0.0314078,-0.095451}
,
{-0.0677564,0.0165805,-0.0975408,-0.0748302,-0.0350924,0.0781061}
,
{-0.0356354,0.16254,-0.0729196,0.148732,-0.0742802,0.0571576}
,
{-0.0169589,-0.169387,0.0402285,-0.0539183,-0.0953615,-0.0828807}
,
{-0.0513861,0.143117,0.216127,-0.270798,0.481387,0.388034}
,
{-0.0812398,0.0507489,-0.305972,0.0352769,0.0174419,0.0280649}
,
{-0.0992653,-0.0610387,-0.0706312,-0.0632155,-0.0666691,-0.221256}
,
{0.0536288,-0.106551,-0.217256,0.0875589,0.0559219,-0.0282658}
,
{-0.0779843,-0.131447,-0.108262,0.0809371,0.027909,0.0353042}
,
{0.106859,0.0894731,0.0683707,0.0813557,-0.13408,0.114159}
,
{0.0511916,-0.0771058,-0.160511,0.00159318,-0.0167612,-0.0342098}
,
{0.148582,0.0619275,-0.132399,0.00670185,-0.0113989,-0.057106}
,
{0.063416,-0.247841,-0.123078,0.378024,-0.0689036,0.0780652}
,
{0.132808,-0.117762,-0.023349,-0.0605235,0.0899806,-0.211636}
,
{-0.0913449,-0.0498375,-0.0321327,-0.225911,0.102078,-0.0105492}
,
{0.0598155,0.0209975,0.00118793,0.161,-0.178431,0.141332}
,
{-0.249542,-0.0769013,-0.0495753,0.103858,-0.207568,-0.283096}
,
{0.205826,0.0169619,-0.00762068,-0.0167258,-0.0535986,-0.0862018}
,
{0.123364,0.114221,-0.185387,0.0882995,-0.0472775,0.0501388}
,
{-0.123854,-0.00154947,0.0248682,-0.0469594,-0.0217369,-0.0516535}
,
{0.00497926,0.121753,0.294064,-0.0714466,0.299697,-0.306379}
,
{0.135344,0.0734331,0.0966541,-0.0646138,0.0729197,0.0150214}
,
{0.0186636,-0.0832649,0.068609,-0.0804169,-0.122844,0.00282525}
,
{0.0656704,0.0215939,-0.0108342,-0.0209002,-0.174393,0.0929662}
,
{0.334805,0.0601623,0.148405,0.201903,0.0350581,-0.160148}
,
{-0.0919077,0.158329,-0.423717,-0.133505,-0.0528914,0.0117986}
,
{-0.280248,-0.208953,-0.226418,-0.225338,-0.0171133,0.0293529}
,
{0.278929,0.302991,0.314102,-0.0758313,-0.447785,0.211346}
,
{-0.0179044,0.0420548,-0.0248017,-0.0426946,0.109347,-0.0627995}
,
{0.153725,0.611781,-0.453849,-0.136982,0.0725149,-0.0939153}
,
{0.0546975,-0.0148147,0.283671,0.0774817,0.064739,-0.0671556}
,
{0.0185727,0.166578,-0.226477,0.0150612,0.00105369,0.0556864}
,
{0.161494,-0.15973,0.120189,0.0463747,-0.138902,0.0274087}
,
{-0.0107774,0.0155127,0.0340095,-0.0213789,-0.0202107,0.030157}
,
{-0.190711,0.10764,0.093666,-0.194137,0.155682,-0.276245}
,
{0.00656404,0.00958348,-0.154893,-0.152674,-0.137031,-0.0344777}
,
{0.218919,0.236944,-0.293436,0.0779214,-0.158347,0.0729399}
,
{0.00408845,-0.0630983,-0.0505999,0.214814,0.184155,-0.02574}
,
{0.00917249,0.0785695,-0.0043429,-0.112023,0.0330293,-0.0661807}
,
{-0.0789874,-0.00315636,0.504905,0.100959,0.0476273,-0.00528092}
,
{-0.0526014,0.098571,0.11679,-0.0918938,-0.0742202,0.0162666}
,
{-0.183673,-0.333863,-0.148341,0.127826,0.113905,-0.0838004}
,
{-0.0227238,-0.139969,-0.0905745,0.268929,-0.33047,-0.124065}
,
{-0.226989,-0.129604,-0.0139091,0.18597,-0.684554,-0.285359}
,
{0.677643,0.12407,0.0306333,-0.893384,0.67331,0.580579}
,
{0.24725,0.0364295,0.0241232,-0.173527,0.610446,0.177216}
,
{0.17181,0.00303042,-0.0835613,-0.0274295,0.218402,0.100368}
,
{-0.230938,0.0476332,-0.0739954,0.00378153,-0.483756,-0.447784}
,
{-0.026928,0.0344147,0.124542,0.0836284,-0.114414,-0.0168543}
,
{0.0391288,0.201441,0.213929,-0.21603,0.526897,0.0804626}
,
{0.173668,0.118128,0.0324738,-0.146541,0.14892,-0.00369951}
,
{-0.515307,-0.0336062,-0.071629,0.322141,-0.562216,-0.0483266}
,
{0.24687,0.116496,0.11663,-0.167004,-0.285416,0.0891231}
,
{-0.135378,0.0143915,0.0288259,0.363323,-0.185174,-0.217545}
,
{-0.22196,-0.103544,0.137523,0.142446,0.90099,0.275204}
,
{-0.179305,0.089641,0.196327,0.25542,-0.369035,-0.102238}
,
{0.127593,0.064931,-0.0136007,-0.316221,-0.150136,-0.0153836}
,
{-0.177655,0.179801,-0.0566275,0.29134,-0.0985804,0.0625158}
,
{-0.0874415,-0.201438,-0.133783,-0.242249,0.0604181,-0.00485524}
,
{-0.00844944,0.133257,-0.0297391,-0.0350845,-0.379714,0.432867}
,
{-0.541493,0.0168525,-0.158628,0.132565,0.203134,0.107806}
,
{0.452276,-0.0534538,-0.22253,-0.00886898,0.29025,0.268689}
,
{-0.0392131,0.00897333,-0.0440728,0.112332,0.107883,0.197747}
,
{-0.142484,0.0547028,0.00631131,0.358426,-0.380706,-0.0162115}
,
{0.120708,0.207148,0.149587,0.0648571,-0.0318708,-0.160784}
,
{0.313425,0.0504229,0.105512,-0.263684,0.761142,-0.00762905}
,
{-0.128077,0.0128773,-0.0786875,0.0790657,-0.116433,0.0866157}
 };
  static const float bias2[1] = { 0.125938 };
  static const float weights2[][1] = { {0.0608763}
,
{-0.0896744}
,
{1.48611}
,
{-0.0790304}
,
{0.104104}
,
{0.115796}
 };
  always_assert(index < 1);
  float tmp[6];
  for (unsigned int i = 0; i < 6; i++) {
    float sum = 0.f;
    for (unsigned int j = 0; j < 79; j++) {
      sum += weights1[j][i] * vals_in[j];
    }
    sum += bias1[i];
    tmp[i] = sum > 0.f ? sum : 0.f; // RELU
  }
  float sum = 0.f;
  for (unsigned int j = 0; j < 6; j++) {
    sum += weights2[j][index] * tmp[j];
  }
  sum += bias2[index];
  return sum;
}
float specialized_gen_lepton_prior_1_0_11(const Sirikata::Array1d<int16_t, 79> &v,
                                int index) {
  return gen_lepton_prior_1_0_11(v, index);
}
static int assign_gen_lepton_prior_1_0_11() {
  global_gen_lepton_prior.at(1,0,11) = &specialized_gen_lepton_prior_1_0_11;
  return 0;
}
static int initialize_gen_lepton_prior_1_0_11 = assign_gen_lepton_prior_1_0_11();
#include "nn_framework.hh"

template<typename T> float gen_lepton_prior_1_0_12(const T & vals_in, int index) {
  static_assert(T::size0 >= 79,
     "array must be sized to hold at least 79");
  static const float bias1[6] = { 0.0800772,-0.170125,-0.00700985,-0.125811,0.196628,0.0189147 };
  static const float weights1[][6] = { {0.100343,0.0363976,-0.181763,0.00857902,-0.0722647,0.138182}
,
{-0.00290707,-0.200691,0.12576,-0.0948898,-0.0535985,0.371073}
,
{0.0127902,0.0943654,0.0270488,-0.148549,0.268997,-0.269921}
,
{0.210774,-0.205697,-0.0652096,-0.813363,0.482103,-0.0764547}
,
{0.129212,-0.132033,-0.0904982,-0.110755,0.239136,0.0202329}
,
{0.0994659,-0.176336,-0.154312,-0.061437,0.238991,-0.0221164}
,
{0.111933,-0.389708,-0.181532,-0.14704,0.250448,-0.0248118}
,
{-0.104571,-0.157001,-0.0916131,0.0872355,0.0117193,0.0423217}
,
{-0.150674,0.0728612,-0.0141756,-0.230629,0.0155414,0.0202635}
,
{0.0243344,0.164869,0.0690419,0.200764,0.00823762,-0.180503}
,
{-0.130987,0.128922,-0.0852139,0.108488,-0.223526,-0.138938}
,
{0.0801888,-0.211801,0.0779083,0.0935091,0.0749719,-0.129674}
,
{0.0104377,0.00841591,0.208807,-0.0565126,0.163977,-0.0353015}
,
{-0.111109,0.0762971,0.107312,0.0282228,0.0869814,-0.0225827}
,
{-0.146623,-0.235977,-0.0152756,-0.13133,-0.0376555,0.146543}
,
{-0.115948,-0.158434,0.147035,0.174065,0.0527008,-0.0621011}
,
{0.148133,-0.0361362,-0.480641,0.015186,0.215083,0.193892}
,
{0.0678318,-0.166135,-0.0243971,-0.172164,-0.142933,-0.13545}
,
{0.244139,-0.187466,0.320782,0.249367,0.133903,0.013494}
,
{-0.234596,0.0642105,-0.0189238,-0.223359,-0.00425731,-0.03463}
,
{-0.0531984,0.184228,0.0399622,0.118119,0.131192,0.0266178}
,
{0.136398,0.111559,-0.0152712,-0.0257343,0.0906831,-0.11218}
,
{-0.141686,-0.179615,0.157121,-0.0546939,0.0139363,0.111624}
,
{-0.306008,0.0531987,0.071377,0.00195773,0.112067,0.0808289}
,
{0.19523,-0.110193,0.128965,0.00257618,-0.0674735,-0.00918267}
,
{0.0238993,0.24079,-0.0399632,-0.0701189,-0.0866439,0.000692208}
,
{-0.179476,0.191321,-0.0989702,-0.0633904,-0.170932,-0.214471}
,
{0.0244099,-0.010152,0.0401828,0.0968976,-0.0417891,0.0498854}
,
{0.00249149,0.148365,-0.0474807,-0.0841741,-0.104113,0.163575}
,
{-0.061337,0.0658982,-0.18634,0.124868,0.0118145,0.225766}
,
{0.224453,-0.10306,0.0648363,0.0685152,-0.0540232,0.129822}
,
{0.0532179,0.177302,0.0628201,0.20778,-0.160463,0.0689564}
,
{-0.0531095,-0.0865482,-0.0154166,0.0965647,-0.0495434,-0.0665959}
,
{-0.0223718,0.22857,0.0538358,-0.0967632,-0.187142,0.107775}
,
{0.447941,0.138166,-0.0951389,-0.243275,0.0227025,0.0744861}
,
{0.179071,-0.106671,0.0604637,0.194608,0.0107648,-0.0525726}
,
{0.0875431,-0.0139724,0.0640563,0.0819978,0.0831976,-0.168813}
,
{0.217006,-0.0419131,-0.0233578,-0.0468572,-0.0203908,-0.0133991}
,
{-0.0496157,-0.186381,0.0299756,0.35728,-0.06339,-0.339899}
,
{0.248694,0.240446,-0.266294,-0.235139,0.0137207,0.114509}
,
{-0.152608,-0.0293781,0.0817679,0.141131,0.052007,-0.0556611}
,
{-0.224078,0.0707821,0.132352,0.733757,0.0669818,0.0184743}
,
{-0.197716,0.282036,-0.143433,0.210965,-0.0228018,0.22187}
,
{-0.598326,-0.049609,-0.101632,0.255699,-0.114222,0.171843}
,
{0.00465736,0.1446,-0.023116,0.0294688,0.0833993,0.0627437}
,
{0.0375986,0.100292,-0.0961077,0.080416,-0.01416,-0.0341728}
,
{0.288619,0.124025,-0.0377359,0.437116,0.0952744,-0.0512387}
,
{-0.336913,-0.142603,0.10147,-0.0758215,-0.0417971,0.0842835}
,
{0.0331197,-0.0571365,0.179969,0.193742,0.120827,-0.169935}
,
{-0.345694,-0.183781,0.00602199,-0.0420992,-0.131651,0.090467}
,
{0.421707,-0.151263,-0.0366217,-0.248532,-0.13425,-0.038545}
,
{0.418012,0.0509245,-0.181893,-0.375501,-0.129766,-0.331292}
,
{-0.60758,0.112351,0.00217039,0.0568655,0.11265,-0.0400603}
,
{-0.278692,-0.194404,0.30963,-0.266313,0.238571,-0.267549}
,
{-0.163109,0.154177,0.0525299,-0.0438175,-0.0844852,-0.170717}
,
{-0.141581,0.118437,0.0257651,0.0637948,0.00542464,0.118781}
,
{-0.108702,-0.135651,-0.145574,-0.195269,-0.135918,-0.0437191}
,
{0.0665637,0.0301573,-0.0628237,0.142639,0.227987,0.0423551}
,
{-0.156835,-0.0819797,-0.0947,0.0568652,0.194877,0.0362981}
,
{-0.0236557,-0.204455,0.124461,-0.159892,0.00165103,0.10004}
,
{0.154245,0.0240782,0.247907,-0.0296267,-0.0376321,0.0492123}
,
{0.127053,-0.00490118,-0.0391122,0.136047,-0.0923131,0.170493}
,
{0.215436,-0.14631,-0.08916,-0.0791083,0.0565163,-0.101884}
,
{-0.0653658,-0.102338,-0.0383114,-0.0465663,-0.0269674,-0.0535446}
,
{-0.0521878,0.0181426,-0.0489064,-0.0741934,-0.120387,-0.11199}
,
{-0.206211,0.00452378,-0.138238,0.023973,0.0122139,0.0246063}
,
{0.22632,0.0557867,0.18258,-0.122542,0.187483,0.164954}
,
{-0.178523,-0.122586,-0.10686,0.117254,-0.170107,-0.120211}
,
{-0.0218912,0.0442566,0.0609741,-0.0189507,-0.0499258,0.0828614}
,
{0.0551132,0.0294889,-0.000657302,0.0232274,0.0986892,0.116067}
,
{-0.0319575,-0.0754876,-0.0691734,-0.0166783,-0.210397,0.177317}
,
{0.069283,-0.158823,-0.0542389,-0.131702,0.0602419,-0.0134285}
,
{-0.0817839,-0.242499,-0.214506,0.0615803,-0.140844,0.0777484}
,
{-0.030449,0.0527438,0.0389056,0.0102641,-0.153586,0.0880355}
,
{-0.0575201,-0.0105972,0.0387598,0.0715221,0.0597215,0.0971302}
,
{0.225421,0.111863,0.0682379,-0.190984,0.0262387,-0.233632}
,
{-0.0108953,-0.157065,-0.071737,0.0343027,-0.00285074,0.0756236}
,
{-0.186683,-0.0838808,0.0746675,-0.0363627,-0.126678,-0.0912105}
,
{0.0243607,-0.0674742,0.086959,-0.0467646,0.148673,-0.0648583}
 };
  static const float bias2[1] = { 0.220558 };
  static const float weights2[][1] = { {-1.65845}
,
{-0.0797808}
,
{-0.145688}
,
{0.266491}
,
{0.0907576}
,
{0.190363}
 };
  always_assert(index < 1);
  float tmp[6];
  for (unsigned int i = 0; i < 6; i++) {
    float sum = 0.f;
    for (unsigned int j = 0; j < 79; j++) {
      sum += weights1[j][i] * vals_in[j];
    }
    sum += bias1[i];
    tmp[i] = sum > 0.f ? sum : 0.f; // RELU
  }
  float sum = 0.f;
  for (unsigned int j = 0; j < 6; j++) {
    sum += weights2[j][index] * tmp[j];
  }
  sum += bias2[index];
  return sum;
}
float specialized_gen_lepton_prior_1_0_12(const Sirikata::Array1d<int16_t, 79> &v,
                                int index) {
  return gen_lepton_prior_1_0_12(v, index);
}
static int assign_gen_lepton_prior_1_0_12() {
  global_gen_lepton_prior.at(1,0,12) = &specialized_gen_lepton_prior_1_0_12;
  return 0;
}
static int initialize_gen_lepton_prior_1_0_12 = assign_gen_lepton_prior_1_0_12();
#include "nn_framework.hh"

template<typename T> float gen_lepton_prior_1_0_13(const T & vals_in, int index) {
  static_assert(T::size0 >= 79,
     "array must be sized to hold at least 79");
  static const float bias1[6] = { 0.401714,0.243784,0.107901,0.44755,-0.220297,0.24326 };
  static const float weights1[][6] = { {0.142259,0.091596,0.0970788,-0.25403,0.169374,-0.122991}
,
{0.0227576,0.0995658,-0.889094,-0.0247199,0.162416,-0.0225111}
,
{0.0248152,-0.0147015,-0.00434688,0.23589,0.044841,-0.133127}
,
{0.00578795,0.663838,0.536403,0.714781,-1.96542,1.15461}
,
{0.434869,0.275842,0.295382,0.306074,-0.0589896,0.0212074}
,
{0.353218,0.270223,0.18068,0.453986,-0.0659176,0.16365}
,
{0.292436,0.291271,-0.339738,0.329726,-0.176074,0.106499}
,
{0.141459,0.136515,-0.0732245,-0.167823,0.0130108,0.187902}
,
{-0.0233397,-0.120626,-0.130987,-0.0747756,-0.000526876,-0.0509695}
,
{-0.114131,0.0321959,-0.189227,0.101784,0.0829811,0.112872}
,
{-0.132899,-0.0997575,-0.157775,-0.156915,0.00201271,0.0321807}
,
{0.10733,0.0880584,-0.289646,-0.107058,0.0363283,0.154412}
,
{0.17261,0.0108646,-0.0152328,0.0845736,0.366785,0.00611373}
,
{-0.060484,-0.064967,0.129784,-0.1518,0.128666,-0.118456}
,
{-0.108725,-0.0749331,-0.146391,-0.064537,0.175371,-0.00320505}
,
{0.0658111,0.103329,0.237576,-0.153834,0.0907659,-0.0498448}
,
{0.263625,0.0939137,-0.110254,0.0767573,-0.1009,0.219581}
,
{0.0302825,-0.213047,-0.0893321,0.0107958,-0.00602338,0.0257475}
,
{0.124512,0.18222,-0.11979,0.374767,-0.120533,0.179427}
,
{-0.257245,-0.0821199,-0.0715187,0.0601819,-0.122497,0.0685745}
,
{0.048526,0.141567,-0.0984195,-0.103471,-0.00911654,-0.1348}
,
{0.0394191,-0.139033,0.12969,-0.0487791,0.168985,0.121775}
,
{-0.107788,0.0414694,0.0822841,0.212484,-0.116249,-0.115798}
,
{-0.0279708,0.128578,-0.136185,0.00555627,0.141477,0.0175852}
,
{0.0165168,0.0300211,0.0305347,-0.100758,-0.102685,-0.0687737}
,
{-0.0545883,0.0927574,0.153344,0.172911,-0.0861734,0.224428}
,
{-0.07018,0.0625456,0.0594245,0.0892474,-0.040857,-0.18756}
,
{0.189783,0.0570007,0.0664812,-0.0665091,0.0326638,0.0713512}
,
{0.00593976,0.200941,-0.277073,-0.133545,-0.0578674,-0.037139}
,
{-0.0586788,-0.113441,0.0835888,0.0298982,-0.0871545,0.109477}
,
{-0.109805,0.0552664,0.204683,0.245165,0.107651,0.0215824}
,
{-0.0218181,-0.0515983,0.0553251,-0.113726,0.0887738,-0.0585176}
,
{0.107295,0.104417,-0.0879392,-0.355859,-0.159883,-0.0743104}
,
{0.104899,-0.0530372,0.023004,0.24299,0.221425,-0.118546}
,
{0.000250971,-0.109839,0.267609,-0.0346659,0.117264,0.133746}
,
{-0.153031,-0.0386585,-0.22793,0.219298,-0.159558,0.0196594}
,
{0.0126977,0.201015,-0.0101884,-0.0227673,-0.0286791,-0.0542694}
,
{-0.0247751,-0.0665232,-0.125283,-0.22585,0.0909767,0.193397}
,
{0.142839,-0.269536,-0.049353,0.298377,0.132308,-0.11829}
,
{-0.0862939,0.00961612,-0.0527047,-0.151397,-0.149263,0.0228723}
,
{0.081003,-0.0907622,0.0703871,-0.0150174,-0.030597,-0.00451235}
,
{0.308997,-0.184382,-0.358267,0.295791,0.226699,-0.228399}
,
{0.0578472,-0.324045,0.274863,0.0250161,-0.0174309,0.14974}
,
{-0.184514,0.603876,-0.421513,-0.0519766,0.0377525,-0.0211504}
,
{0.0600872,0.0602657,0.0403773,0.0923275,0.361078,0.0618969}
,
{0.0687589,-0.218615,0.0185207,0.0340784,0.174155,0.127087}
,
{0.328976,0.352367,0.633738,0.0617102,0.0962939,-0.499627}
,
{-0.247542,0.0720695,-0.182746,0.119847,-0.144857,0.064138}
,
{-0.08516,-0.0059099,0.300592,0.500964,-0.111191,-0.110425}
,
{-0.0679607,-0.0704867,0.354735,-0.0299754,-0.0456128,0.13054}
,
{0.0290393,0.0607569,-0.204672,-0.0924999,-0.102077,-0.0835766}
,
{-0.115684,0.0192979,0.256323,-0.237056,0.0256635,0.256419}
,
{0.165376,-0.207986,0.112047,0.0283367,0.12797,0.00620206}
,
{0.0408504,-0.298387,0.577624,-0.121419,-0.159604,0.105215}
,
{0.0362639,-0.0855042,0.0499371,-0.0261116,0.0543641,0.132432}
,
{0.0956994,-0.0408492,-0.262038,0.0373701,0.0204514,0.237712}
,
{-0.0282071,0.158918,0.0139159,0.158267,-0.158773,-0.00785176}
,
{-0.0861229,-0.185104,0.269537,0.0656527,-0.23071,0.0136051}
,
{0.0589546,0.00642984,-0.152182,-0.00242592,-0.0836588,-0.132621}
,
{0.355647,0.0791859,-0.182015,0.286485,0.161572,0.109881}
,
{-0.157821,0.112286,0.0421293,-0.25012,-0.0275112,-0.238663}
,
{-0.0468041,0.0576744,-0.00960114,-0.185591,-0.0101316,0.00249937}
,
{0.0985799,0.130317,-0.166783,0.320435,-0.00542687,0.0163688}
,
{0.0566837,0.000427758,0.00346017,0.114647,0.0765787,-0.00603991}
,
{-0.218531,0.157968,0.182828,-0.156715,0.037455,-0.0599298}
,
{0.157485,0.19436,-0.201401,0.213015,-0.00645263,0.0639295}
,
{0.20852,0.157423,0.205779,-0.205517,-0.0483379,0.00789614}
,
{0.0827385,-0.0349638,0.143772,0.225686,-0.0844315,-0.05617}
,
{-0.131335,-0.165727,0.198392,-0.00502012,-0.0275285,-0.14389}
,
{-0.153034,-0.0800085,0.282029,-0.230529,-0.0173197,0.119031}
,
{-0.272469,0.10843,0.144563,-0.0633674,-0.0847608,-0.0406867}
,
{-0.151462,-0.0357588,0.328885,-0.31325,-0.095721,-0.0700461}
,
{0.370426,0.0137214,-0.20253,0.310294,0.156776,0.265312}
,
{-0.284667,0.0113423,0.304519,-0.237293,-0.232314,-0.0528506}
,
{-0.0205723,-0.0368878,0.118271,0.206384,-0.0464348,0.0133877}
,
{-0.232029,-0.0376525,0.130671,0.0477615,-0.0508039,0.0896571}
,
{-0.113334,-0.00539547,-0.023819,0.0629959,-0.0336224,-0.0576118}
,
{0.0477568,0.0892543,-0.096747,-0.113152,0.0359676,0.0465488}
,
{-0.0681641,0.115328,-0.195556,-0.057013,0.0455046,0.0625665}
 };
  static const float bias2[1] = { 0.125373 };
  static const float weights2[][1] = { {0.134435}
,
{0.0623212}
,
{-1.33521}
,
{0.0930945}
,
{-0.0535735}
,
{0.114225}
 };
  always_assert(index < 1);
  float tmp[6];
  for (unsigned int i = 0; i < 6; i++) {
    float sum = 0.f;
    for (unsigned int j = 0; j < 79; j++) {
      sum += weights1[j][i] * vals_in[j];
    }
    sum += bias1[i];
    tmp[i] = sum > 0.f ? sum : 0.f; // RELU
  }
  float sum = 0.f;
  for (unsigned int j = 0; j < 6; j++) {
    sum += weights2[j][index] * tmp[j];
  }
  sum += bias2[index];
  return sum;
}
float specialized_gen_lepton_prior_1_0_13(const Sirikata::Array1d<int16_t, 79> &v,
                                int index) {
  return gen_lepton_prior_1_0_13(v, index);
}
static int assign_gen_lepton_prior_1_0_13() {
  global_gen_lepton_prior.at(1,0,13) = &specialized_gen_lepton_prior_1_0_13;
  return 0;
}
static int initialize_gen_lepton_prior_1_0_13 = assign_gen_lepton_prior_1_0_13();
#include "nn_framework.hh"

template<typename T> float gen_lepton_prior_0_1_0(const T & vals_in, int index) {
  static_assert(T::size0 >= 79,
     "array must be sized to hold at least 79");
  static const float bias1[6] = { -1.15633,0.566884,0.347262,0.515323,0.0724849,0.406308 };
  static const float weights1[][6] = { {-0.298592,-1.35482,-1.62046,1.59091,-0.0382487,-0.954348}
,
{-0.656889,0.120658,-0.101485,0.280479,0.0164569,0.336975}
,
{-0.653754,0.00165015,0.0936305,0.377021,-0.35062,0.160161}
,
{-0.469307,1.27897,1.11583,-0.0314383,0.0201403,0.716514}
,
{-1.11131,0.559668,0.307009,0.655966,0.0917806,0.446508}
,
{-1.09959,0.272715,0.132527,0.629379,0.0892533,0.291797}
,
{-1.03742,0.585419,0.182168,0.531562,0.116686,0.462596}
,
{0.102754,0.0168361,0.0205506,0.00724804,0.133872,0.134593}
,
{0.0908082,-0.100057,0.123138,-0.0622635,0.0528311,-0.118085}
,
{-0.013521,0.0580484,-0.0590664,-0.0414429,0.126634,0.00591902}
,
{-0.232951,-0.149676,0.0304915,-0.245575,-0.015171,-0.0923452}
,
{0.220929,-0.207216,0.134536,-0.105516,-0.00522322,-0.0940935}
,
{0.0335015,0.0141877,-0.217041,-0.0372344,-0.0885262,0.161313}
,
{0.0488288,0.137889,-0.168037,-0.0700251,-0.0499078,0.0447876}
,
{-0.0396399,-0.0817647,-0.0942373,-0.16378,0.0967192,-0.06597}
,
{-0.00440584,0.110654,0.0977843,0.196239,-0.0730596,0.184526}
,
{-0.207148,0.189402,-0.0718604,0.00652252,0.10426,-0.00387384}
,
{-0.109755,0.124795,-0.198925,-0.0577003,0.00533976,0.113368}
,
{0.0690844,-0.884547,-1.42896,0.528908,-0.293306,-0.45361}
,
{-0.0655377,0.0361,-0.173982,0.16099,-0.100908,0.0567783}
,
{0.165494,0.123093,0.22752,-0.190507,-0.101624,0.141469}
,
{0.272878,0.0974095,0.126503,-0.0759778,0.0646951,-0.134878}
,
{-0.0953456,0.112858,-0.0868463,0.00677029,0.000355215,0.0661882}
,
{0.40829,0.0433999,0.149634,-0.0706079,-0.055099,0.0634747}
,
{-0.0897278,-0.0138213,0.107373,0.0683347,-0.0429646,-0.149949}
,
{-0.139207,0.0493457,0.0279525,-0.0384398,-0.172005,-0.0593398}
,
{-0.11328,-0.0104785,0.0750708,0.0515127,0.0998211,-0.0898005}
,
{-0.142068,-0.124794,0.0307692,0.00542924,0.0766535,0.0932354}
,
{0.653374,0.696513,0.902036,-0.569457,-0.183126,0.674391}
,
{-0.156846,-0.0522358,0.213588,-0.0113364,-0.0813193,-0.216526}
,
{0.119868,-0.095992,-0.0285368,0.0258997,-0.00265645,0.0863155}
,
{-0.0473442,-0.0160607,-0.0329466,0.140896,-0.0863437,0.0417062}
,
{0.188904,0.00547852,0.0590145,0.0717894,0.0910471,-0.0726825}
,
{0.0245413,0.22598,-0.0108151,0.00893472,0.017375,0.158496}
,
{-0.0999276,-0.0556925,-0.0315024,-0.0122986,0.0290945,0.0423026}
,
{-0.0242609,0.00634292,0.00131002,-0.00400951,-0.0933387,-0.0464306}
,
{0.0990202,0.0613706,0.0276567,0.00944188,-0.0903288,-0.210068}
,
{-0.0447533,0.02369,-0.0192802,0.053488,0.0824551,-0.0317831}
,
{-0.000745151,0.0495268,-0.0144993,0.0109831,-0.124385,0.0510063}
,
{0.0175759,-0.0599578,0.00725188,-0.0323971,-0.026275,0.13164}
,
{-0.121028,-0.0490126,-0.0319407,0.00538412,0.0113932,0.0995633}
,
{0.00681358,0.129025,-0.0556989,0.0157134,-0.113449,0.0517999}
,
{0.0784362,0.0834818,-0.00874209,0.0786226,0.247479,-0.00399917}
,
{0.142229,0.0330101,0.0143489,0.0397964,0.195782,-0.0902878}
,
{-0.0194205,-0.0672695,-0.00762046,-0.0132247,0.0934413,0.118615}
,
{0.103759,0.0623089,0.0311378,0.0292161,0.0425159,-0.119746}
,
{-0.0109435,0.13214,0.00424536,0.0795477,-0.0388903,-0.250637}
,
{-0.0182463,-0.0327166,0.00813697,-0.0424196,-0.0964799,0.0379876}
,
{-0.0862717,-0.0456116,-0.00814218,-0.0314333,-0.15024,-0.0153166}
,
{0.0323394,-0.0285457,0.0202194,-0.00327396,0.0635743,-0.0441426}
,
{0.0147171,0.00852989,0.00279582,0.000999391,-0.00833593,-0.00821417}
,
{-0.0372587,0.142433,-0.0792684,-0.0160239,-0.280301,0.0909696}
,
{-0.000213492,0.0181394,-0.00152207,0.00644718,0.00466551,-0.0266969}
,
{-0.0384361,-0.0154309,-0.0140992,-0.0041454,0.0264368,0.0622324}
,
{0.10185,0.0491487,0.0296357,0.0429644,0.00417812,-0.0973156}
,
{-0.0755286,-0.0892939,-0.00834454,-0.0370467,0.015031,0.0549165}
,
{0.0869509,-0.0268363,0.0145935,0.0620428,-0.00421427,0.285498}
,
{-0.101885,-0.0400045,-0.0234638,-0.0827972,-0.365443,-0.375817}
,
{-0.0602594,-0.0707781,0.0123483,0.00148577,0.0651142,0.000141556}
,
{0.0649421,0.0563442,0.0169567,0.0577056,-0.0173358,0.106654}
,
{-0.0894672,-0.0631014,-0.0165889,-0.062943,-0.0423517,0.0204852}
,
{-0.0203932,-0.0625566,-0.0100904,-0.0876035,0.00686542,-0.143832}
,
{0.183417,-0.199851,0.0126819,-0.0733292,0.0523684,-0.375894}
,
{-0.00377237,-0.129556,0.0524688,-0.03549,-0.0473659,-0.00302966}
,
{0.139794,0.116016,-0.0060015,0.0709537,0.0495895,0.114316}
,
{-0.0774597,-0.0760079,0.00271096,-0.0347223,-0.0984083,-0.00730363}
,
{-0.000826219,-0.194041,0.037731,-0.0502334,0.0560188,-0.247156}
,
{0.00853253,0.105065,-0.0599169,0.0107424,-0.407929,-0.558005}
,
{0.0581131,-0.0193385,0.0152618,-0.000167726,0.0790831,-0.0641544}
,
{-0.080535,-0.140655,0.00509922,-0.0830323,-0.093075,-0.0338217}
,
{-0.204934,-0.179674,-0.0140512,-0.105675,-0.00275987,0.0596543}
,
{0.0246004,0.0235399,-0.0270737,-0.0510761,-0.119333,0.0376535}
,
{0.41398,-0.417293,0.0998271,0.205934,0.13112,0.296046}
,
{0.0718591,0.0979646,-0.0505347,-0.0193393,0.0449153,0.248533}
,
{-0.177392,-0.19589,-0.0178549,0.034732,0.388963,-0.271542}
,
{-0.12038,0.0446987,-0.0398144,-0.0252719,-0.139085,0.0655062}
,
{-0.178326,0.00183193,0.197454,-0.186825,-0.174753,0.153175}
,
{0.124139,0.0518165,0.956142,-0.7886,-0.107867,0.781393}
,
{-0.246337,0.134604,-0.0496912,-0.000465306,-0.291224,0.695121}
 };
  static const float bias2[1] = { 0.278715 };
  static const float weights2[][1] = { {-0.0263195}
,
{0.0382103}
,
{0.0704672}
,
{-0.0437998}
,
{0.0134767}
,
{0.0115333}
 };
  always_assert(index < 1);
  float tmp[6];
  for (unsigned int i = 0; i < 6; i++) {
    float sum = 0.f;
    for (unsigned int j = 0; j < 79; j++) {
      sum += weights1[j][i] * vals_in[j];
    }
    sum += bias1[i];
    tmp[i] = sum > 0.f ? sum : 0.f; // RELU
  }
  float sum = 0.f;
  for (unsigned int j = 0; j < 6; j++) {
    sum += weights2[j][index] * tmp[j];
  }
  sum += bias2[index];
  return sum;
}
float specialized_gen_lepton_prior_0_1_0(const Sirikata::Array1d<int16_t, 79> &v,
                                int index) {
  return gen_lepton_prior_0_1_0(v, index);
}
static int assign_gen_lepton_prior_0_1_0() {
  global_gen_lepton_prior.at(0,1,0) = &specialized_gen_lepton_prior_0_1_0;
  return 0;
}
static int initialize_gen_lepton_prior_0_1_0 = assign_gen_lepton_prior_0_1_0();
#include "nn_framework.hh"

template<typename T> float gen_lepton_prior_1_0_14(const T & vals_in, int index) {
  static_assert(T::size0 >= 79,
     "array must be sized to hold at least 79");
  static const float bias1[6] = { 0.013812,-0.016536,-0.0051518,-0.0286026,-0.0251176,0.011077 };
  static const float weights1[][6] = { {0.10076,0.0395661,0.120518,0.0710187,-0.00716863,-0.235177}
,
{-0.195946,-0.115659,-0.119089,0.112811,0.290013,0.00146262}
,
{0.122457,-0.185276,-0.104235,0.145767,-0.368575,-0.138245}
,
{-0.106682,-0.0649427,-0.0337357,-0.0123245,-0.0312716,0.195725}
,
{0.0406426,0.0597482,0.0696822,-0.0337399,-0.0488654,0.0152588}
,
{-0.0345762,0.00639539,-0.127609,0.0880853,-0.143735,-0.123585}
,
{-0.0793658,0.0523307,0.176292,-0.0787983,-0.123121,0.00548361}
,
{0.0747907,-0.00447075,-0.027239,-0.0325663,-0.241731,-0.0770375}
,
{0.232799,0.0805563,0.00191352,-0.0299217,-0.0836112,-0.1891}
,
{-0.00996585,0.0392092,0.241944,0.153513,0.11361,-0.0813498}
,
{0.211895,-0.0106786,0.0517505,0.0300678,0.0571,-0.0406105}
,
{-0.0826137,-0.0914119,0.157391,-0.245713,-0.0827565,-0.00132011}
,
{-0.12781,-0.0353951,-0.0166306,-0.0903461,0.105626,-0.153854}
,
{0.0122794,0.0125041,-0.123148,-0.0119442,-0.128844,0.0406886}
,
{-0.0807624,-0.0399151,0.109622,0.185862,0.0102582,0.181816}
,
{0.064329,-0.0661938,-0.0116858,0.108196,-0.0871164,0.198896}
,
{0.0876076,-0.0451673,0.180597,0.0724513,-0.135818,0.0838905}
,
{0.12575,0.0592576,-0.0598643,-0.204639,-0.274654,-0.12201}
,
{-0.0296879,-0.160535,-0.0218118,0.00687841,0.0280386,0.0328741}
,
{0.0917747,-0.0767358,-0.233656,0.0783768,0.0218023,0.0657059}
,
{0.148214,-0.00694379,0.0148504,0.198694,-0.193211,0.188459}
,
{-0.00904709,-0.201095,0.183599,-0.0388409,0.00122465,0.011592}
,
{0.134487,-0.226894,0.0279483,-0.0507619,-0.0703268,0.243901}
,
{0.0736354,-0.135334,-0.154284,0.00429297,0.247348,0.149334}
,
{0.0253481,-0.0673276,0.00321531,-0.117127,0.0112798,-0.229996}
,
{0.044971,-0.106445,0.104001,-0.147586,0.0769373,-0.0311494}
,
{-0.0656387,-0.0681187,0.0711322,-0.0761194,0.056147,-0.0435205}
,
{0.0640886,0.146993,-0.25321,-0.143754,-0.249671,-0.0383481}
,
{0.000727084,-0.146748,-0.192707,0.116492,-0.0187941,0.0850153}
,
{0.202305,-0.168369,0.00657544,-0.235353,-0.089549,0.208477}
,
{-0.00538163,-0.0681942,0.126306,-0.22302,-0.36121,0.0673021}
,
{0.00739277,0.0285493,-0.0118732,-0.0741624,0.061911,0.142446}
,
{0.0598228,0.0389722,-0.065998,-0.0760615,0.0398643,-0.144447}
,
{0.000865438,0.146571,-0.104963,-0.174081,-0.0648468,0.239811}
,
{-0.09314,-0.100363,0.143996,0.0336023,-0.0199665,-0.246271}
,
{0.198132,0.227406,0.157881,-0.0839574,-0.103715,0.0903424}
,
{-0.159635,0.141315,0.0850733,-0.0390417,-0.0567976,-0.210603}
,
{0.0232912,0.177554,0.126983,-0.00536389,0.0438952,-0.139384}
,
{-0.119892,0.149976,0.0851032,-0.0372074,0.127117,-0.224815}
,
{0.0968986,-0.0587351,-0.122651,0.00685863,-0.0784858,-0.0748894}
,
{0.153136,-0.0421461,-0.181323,0.180539,0.306642,-0.0744388}
,
{-0.0780134,0.0314602,0.106335,-0.0866954,-0.0627691,-0.166847}
,
{-0.137064,0.106298,-0.112502,0.0602281,0.219288,0.00493867}
,
{-0.0571802,0.0401354,0.198543,-0.157764,0.019604,-0.0751668}
,
{0.22468,-0.0518931,0.0885254,-0.00178837,0.03908,0.0353312}
,
{-0.0507281,-0.0481736,0.0753832,0.0121744,-0.148926,0.0528621}
,
{0.100667,0.0968492,0.202497,-0.0873652,-0.0408168,0.0970907}
,
{0.21719,-0.139673,0.141116,-0.105876,0.0490487,0.0230993}
,
{-0.133757,-0.103824,-0.0345926,-0.00703394,0.146427,0.0737863}
,
{-0.0601733,0.0384234,0.115649,0.0869976,-0.141245,0.00248739}
,
{0.0210395,0.00580976,0.0940065,-0.147092,-0.150316,0.0747843}
,
{-0.103047,0.0683877,0.190434,0.106294,0.0214562,-0.206045}
,
{-0.0719611,-0.0612372,0.168148,-0.111381,0.150603,0.202269}
,
{0.0444652,-0.0712722,0.0931212,0.0918027,0.218623,-0.0677188}
,
{-0.0718823,0.1749,0.126035,-0.0829726,0.0139172,-0.105009}
,
{0.079808,-0.0355577,-0.115853,-0.0656084,0.0377082,-0.0531924}
,
{-0.0829846,-0.0184967,-0.0577121,0.0514168,0.1166,0.0108076}
,
{-0.0360186,-0.0347268,-0.139464,0.0236604,0.162951,-0.174411}
,
{-0.0677694,-0.0642692,0.0894771,-0.0435977,-0.0885819,0.0264764}
,
{0.208794,0.0968519,-0.140089,-0.375802,-0.351616,0.134167}
,
{0.251819,-0.0849178,-0.00569701,-0.137028,0.139983,-0.0438331}
,
{0.0765864,0.0585523,-0.102078,-0.103823,0.0802134,-0.00991403}
,
{0.00116658,-0.0626438,-0.0172763,0.195717,0.0193386,0.154913}
,
{0.165011,-0.0715096,-0.133578,0.117836,0.156664,-0.0549027}
,
{0.079683,0.0629338,0.0273668,0.183755,0.0441465,-0.00805766}
,
{-0.0355063,-0.237345,-0.0397641,0.017515,0.051175,-0.0824582}
,
{-0.0630467,0.0762082,-0.0379258,0.0147339,-0.0846056,0.085354}
,
{-0.145531,0.106565,-0.13113,-0.0244501,0.038079,-0.184416}
,
{-0.156163,0.239736,0.150399,0.14489,0.165588,0.222334}
,
{-0.0002211,0.0315644,0.0853441,0.271477,-0.0737467,-0.184786}
,
{0.254637,-0.095821,-0.0489499,0.00910345,0.194932,0.0777908}
,
{-0.0457604,-0.0318536,-0.189561,-0.0065594,-0.295635,-0.0720823}
,
{0.143813,-0.0978619,0.11288,0.124389,-0.150082,0.200556}
,
{0.13604,0.0487348,0.091257,0.2757,0.231829,-0.134121}
,
{0.0727301,0.0477917,-0.014023,-0.039198,0.0678502,-0.11873}
,
{-0.0154533,0.17244,0.0756265,0.0343412,-0.0688199,-0.0812901}
,
{0.097652,0.144636,0.0393337,-0.148817,-0.202388,0.0542921}
,
{0.00399012,-0.221552,-0.0696671,-0.0981108,0.13608,-0.0305821}
,
{-0.0696696,0.141706,0.0975904,0.136544,-0.137111,-0.0797006}
 };
  static const float bias2[1] = { -0.0693109 };
  static const float weights2[][1] = { {-0.208212}
,
{0.111907}
,
{0.035401}
,
{0.10974}
,
{0.134404}
,
{-0.140642}
 };
  always_assert(index < 1);
  float tmp[6];
  for (unsigned int i = 0; i < 6; i++) {
    float sum = 0.f;
    for (unsigned int j = 0; j < 79; j++) {
      sum += weights1[j][i] * vals_in[j];
    }
    sum += bias1[i];
    tmp[i] = sum > 0.f ? sum : 0.f; // RELU
  }
  float sum = 0.f;
  for (unsigned int j = 0; j < 6; j++) {
    sum += weights2[j][index] * tmp[j];
  }
  sum += bias2[index];
  return sum;
}
float specialized_gen_lepton_prior_1_0_14(const Sirikata::Array1d<int16_t, 79> &v,
                                int index) {
  return gen_lepton_prior_1_0_14(v, index);
}
static int assign_gen_lepton_prior_1_0_14() {
  global_gen_lepton_prior.at(1,0,14) = &specialized_gen_lepton_prior_1_0_14;
  return 0;
}
static int initialize_gen_lepton_prior_1_0_14 = assign_gen_lepton_prior_1_0_14();
#include "nn_framework.hh"

template<typename T> float gen_lepton_prior_1_0_15(const T & vals_in, int index) {
  static_assert(T::size0 >= 79,
     "array must be sized to hold at least 79");
  static const float bias1[6] = { -0.0197409,-0.0465057,0.0194685,0.0,-0.00371958,-0.00825256 };
  static const float weights1[][6] = { {-0.0956044,0.195078,-0.44306,-0.0364047,0.113619,0.135974}
,
{-0.0178664,-0.0447255,-0.11503,-0.010313,-0.296093,0.154274}
,
{0.044449,-0.0114295,0.0260747,0.0738346,-0.0726782,0.151312}
,
{-0.611786,-0.023487,-0.0295546,0.0375569,0.182647,-0.0676193}
,
{-0.0607377,-0.162497,0.00629828,-0.0570846,0.107284,0.0373113}
,
{-0.00394928,-0.0472919,0.0626079,0.151039,-0.153618,0.21982}
,
{0.00999098,-0.101453,0.0222811,-0.0759474,-0.0995115,-0.0737021}
,
{-0.364204,-0.215676,-0.10639,0.033019,0.146879,0.111203}
,
{-0.209629,0.0328072,-0.537119,0.0778282,0.260884,-0.164036}
,
{-0.176268,0.0112424,0.227179,0.0887538,-0.0916921,0.00281493}
,
{-0.101164,0.00334622,-0.0632237,-0.101375,0.154785,-0.0392123}
,
{-0.135552,0.252791,0.0687041,-0.0045403,0.0980213,-0.157845}
,
{-0.402427,0.0990144,-0.120566,0.0422574,0.192797,-0.0134194}
,
{-0.00194873,-0.246085,0.0648475,0.132194,0.00641563,-0.0754631}
,
{-0.00165036,-0.0234522,0.107646,0.0172873,0.0225461,-0.0352014}
,
{-0.178692,-0.126415,-0.0743557,-0.143019,0.087135,0.135867}
,
{-0.00881506,0.241222,0.177982,-0.00854364,0.0913037,-0.0698254}
,
{-0.191635,-0.16276,-0.0550455,-0.152056,-0.0946729,0.0379554}
,
{0.177494,0.0111145,-0.0540993,0.0745831,0.102961,0.0705095}
,
{0.0609642,0.117503,0.182073,-0.190434,-0.0607578,0.0164314}
,
{0.0395357,-0.000566844,-0.010708,-0.102095,-0.0566132,-0.190013}
,
{0.0411111,0.0280923,-0.123116,-0.00342422,-0.0142098,0.0106826}
,
{-0.0151559,-0.196345,-0.0290886,-0.125361,-0.00425752,-0.116358}
,
{0.118126,0.041122,-0.0245817,0.044852,-0.0192121,-0.153582}
,
{-0.117411,-0.0261833,0.256346,-0.195263,-0.0752898,-0.0850965}
,
{0.106789,0.0265618,-0.0196231,0.00208065,-0.178174,-0.0497913}
,
{-0.119818,-0.00148261,-0.0721741,0.034289,-0.0417526,0.103369}
,
{-0.0754769,-0.0913247,0.304912,-0.108987,0.121178,-0.227696}
,
{-0.0275753,0.395717,-0.71846,-0.00912214,0.226209,-0.0573128}
,
{0.0852173,0.128832,0.138703,-0.210299,0.0377746,0.140165}
,
{0.120335,-0.0615463,-0.197283,-0.00313063,-0.015552,0.0344107}
,
{-0.0767034,0.104703,0.0354691,0.0555345,0.0437366,0.128289}
,
{0.0126077,-0.0613136,-0.115885,0.0570255,-0.174687,0.0829118}
,
{0.0198917,-0.0250643,-0.0391633,0.0628919,-0.102018,-0.0341087}
,
{0.0112192,0.141149,0.340564,-0.178449,-0.0479129,0.00131255}
,
{-0.21593,-0.121838,0.184777,0.0552601,0.42088,0.0385099}
,
{-0.0634304,-0.195817,-0.0383615,0.0638892,-0.149747,0.124683}
,
{-0.021739,-0.123653,0.0606624,-0.0195591,0.323791,-0.060043}
,
{-0.0449806,0.0210946,-0.0451059,-0.0440805,0.397509,0.114131}
,
{-0.00526844,-0.179657,-0.153884,0.0750689,0.241428,0.129544}
,
{0.0460689,-0.0505115,-0.244748,-0.168837,-0.32393,0.0294108}
,
{0.0570066,-0.0726838,-0.0900307,0.0182499,0.118081,-0.133145}
,
{2.30653e-05,0.0702909,-0.04181,0.049951,-0.367764,-0.0707709}
,
{-0.0824715,-0.0107224,0.241474,-0.0942102,0.186857,0.181747}
,
{0.309652,0.0776073,-0.244364,0.169345,-0.132536,0.0303646}
,
{0.0773221,0.0586898,-0.0885896,-0.12951,-0.142426,-0.0105899}
,
{0.0618986,-0.0555817,-0.196993,0.149522,-0.429775,-0.00204547}
,
{0.044624,-0.0429198,-0.227434,0.0317084,-0.225917,-0.127275}
,
{-0.155398,-0.201594,0.17052,0.201008,0.617608,0.0705328}
,
{0.247531,0.00330774,0.0144341,0.0734921,0.377039,0.146248}
,
{0.119775,-0.0384475,-0.0425524,-0.0961149,0.181852,-0.0498298}
,
{0.0195762,-0.0646742,0.336698,-0.027531,-0.0258925,0.200255}
,
{0.0572015,-0.157748,-0.105727,-0.0141017,0.117212,-0.00281407}
,
{-0.191109,0.296401,0.289346,-0.010936,-0.376794,0.157319}
,
{0.0190437,0.0474428,-0.0562009,0.0581993,0.0461962,-0.153708}
,
{-0.156252,-0.0206804,-0.191121,0.0974237,0.0504254,0.0687497}
,
{0.0325898,-0.108372,0.210924,-0.0809623,0.0291374,0.122673}
,
{0.151664,0.119471,0.159352,0.0765335,-0.107911,-0.0919155}
,
{0.199697,-0.0433496,-0.174314,-0.0533134,-0.202064,0.0101602}
,
{0.0599712,0.171323,-0.351805,0.181621,0.23874,-0.206657}
,
{0.125868,0.0135947,-0.128628,-0.123403,-0.00934737,0.025833}
,
{-0.0218465,0.0111048,0.291874,-0.0400912,0.133199,-0.155377}
,
{-0.0639944,0.0517719,0.301998,-0.146162,0.038767,-0.13825}
,
{0.0389022,0.00498908,0.0291288,0.0941229,0.0445812,0.0377597}
,
{0.144703,0.0749164,0.223947,-0.0488255,-0.257719,0.0542415}
,
{-0.0572602,-0.282134,0.326534,0.123495,0.0383219,-0.0391131}
,
{0.0332541,0.110795,-0.0563565,0.0613639,-0.0741877,-0.000361362}
,
{0.0324848,-0.136806,0.101075,-0.0206513,-0.291525,-0.018441}
,
{0.0191919,-0.112547,-0.0899739,-0.171268,0.0791124,-0.0309325}
,
{0.0930703,-0.0166631,0.173515,0.148033,0.141909,-0.0678392}
,
{-0.131233,-0.223624,-0.257274,0.118143,0.0435549,0.00770376}
,
{-0.00509046,-0.192453,0.182164,-0.0176377,0.171133,-0.165954}
,
{-0.236931,0.11774,-0.0252373,0.127149,-0.0889564,-0.11785}
,
{0.0889282,-0.197452,0.167362,-0.0726607,-0.177248,0.0304306}
,
{-0.148481,-0.00552886,-0.241549,0.00835097,-0.0569328,-0.0764657}
,
{0.196745,0.0833356,0.118836,-0.0391236,0.155746,-0.228972}
,
{0.0608343,-0.74603,1.22426,-0.0425932,0.13209,0.231744}
,
{-0.14281,-0.648467,1.05412,0.0885153,0.147419,0.10164}
,
{-0.0400988,0.00824892,0.0481494,0.187828,0.161163,0.0316018}
 };
  static const float bias2[1] = { -0.0351789 };
  static const float weights2[][1] = { {-0.0802203}
,
{0.123379}
,
{-0.0740482}
,
{-0.106966}
,
{0.289481}
,
{0.0512568}
 };
  always_assert(index < 1);
  float tmp[6];
  for (unsigned int i = 0; i < 6; i++) {
    float sum = 0.f;
    for (unsigned int j = 0; j < 79; j++) {
      sum += weights1[j][i] * vals_in[j];
    }
    sum += bias1[i];
    tmp[i] = sum > 0.f ? sum : 0.f; // RELU
  }
  float sum = 0.f;
  for (unsigned int j = 0; j < 6; j++) {
    sum += weights2[j][index] * tmp[j];
  }
  sum += bias2[index];
  return sum;
}
float specialized_gen_lepton_prior_1_0_15(const Sirikata::Array1d<int16_t, 79> &v,
                                int index) {
  return gen_lepton_prior_1_0_15(v, index);
}
static int assign_gen_lepton_prior_1_0_15() {
  global_gen_lepton_prior.at(1,0,15) = &specialized_gen_lepton_prior_1_0_15;
  return 0;
}
static int initialize_gen_lepton_prior_1_0_15 = assign_gen_lepton_prior_1_0_15();
#include "nn_framework.hh"

template<typename T> float gen_lepton_prior_1_0_16(const T & vals_in, int index) {
  static_assert(T::size0 >= 79,
     "array must be sized to hold at least 79");
  static const float bias1[6] = { 0.0,0.0,0.0,0.0,0.0,0.0 };
  static const float weights1[][6] = { {0.119748,0.108675,-0.014851,0.206157,0.043769,-0.0856018}
,
{0.203217,0.126368,0.0664256,0.0740371,0.069123,0.247521}
,
{0.008082,0.0459041,0.0719442,-0.0357881,-0.167989,-0.0614451}
,
{-0.00149201,-0.135797,-0.140325,0.0214244,0.134188,-0.121591}
,
{-0.053184,0.162978,0.0339113,-0.13653,-0.0698816,0.0976577}
,
{0.101252,-0.190403,0.162957,0.0047805,0.0481689,-0.237247}
,
{-0.125574,-0.0298291,-0.0395137,-0.121544,-0.0968112,0.0158121}
,
{-0.234902,-0.121491,-0.127382,-0.0843223,-0.141171,-0.139595}
,
{-0.0649509,0.104444,0.00209919,0.0745176,-0.0729957,0.0707424}
,
{-0.0463472,0.149017,0.0515918,0.0788749,0.22279,-0.130975}
,
{0.0492714,-0.0208048,0.171767,-0.0904755,-0.0397743,0.00453771}
,
{-0.0465689,-0.0301408,0.0248577,0.0185687,0.206188,0.0342454}
,
{0.0804045,-0.181664,0.199147,-0.161865,0.0223625,-0.0179329}
,
{0.0428285,-0.0985546,-0.0926588,-0.00387906,0.161967,-0.170966}
,
{0.145711,-0.106508,0.213852,0.149038,-0.0591781,0.10498}
,
{0.0596736,0.0397706,-0.107647,-0.126483,-0.0326368,0.205902}
,
{-0.0277339,-0.0279392,-0.067517,-0.0700658,0.0881877,-0.143656}
,
{-0.0237576,0.029646,0.131139,-0.125102,-0.0742793,-0.0826222}
,
{0.0673026,-0.00117347,-0.116991,-0.176831,-0.0966003,0.0863333}
,
{-0.208368,0.0081912,-0.0380424,0.197298,-0.221184,0.0100004}
,
{-0.0152038,0.0773127,-0.0969304,0.0128787,0.063553,-0.0138928}
,
{0.0790599,-0.0837846,0.125846,-0.0231442,0.128241,-0.0611824}
,
{-0.0522098,-0.0467848,0.0473767,0.055125,0.0336391,0.143994}
,
{-0.117164,-0.0561188,-0.041283,0.0796429,0.110258,-0.0507663}
,
{0.0848508,0.161948,-0.048085,0.0505195,-0.132083,0.0453854}
,
{0.106596,0.143409,-0.0537428,0.085301,0.0139656,0.00742886}
,
{0.0644659,0.056438,0.047348,0.131753,0.116695,0.0551441}
,
{0.0543073,0.0643702,-0.0561727,0.0637417,0.111652,-0.139277}
,
{-0.13927,0.0645094,-0.0470263,-0.0181401,0.0987504,0.0361621}
,
{-0.00249222,0.0857519,0.195767,0.0359403,-0.149483,0.0542702}
,
{-0.0208771,0.119007,-0.0761813,-0.0340897,-0.227386,-0.132007}
,
{-0.0100736,0.0776018,-0.102454,-0.0309846,-0.120895,0.120492}
,
{0.079733,0.124934,0.114395,0.0853951,0.0251893,0.12583}
,
{0.0154009,0.187609,-0.0142037,-0.0193389,0.113875,0.110111}
,
{0.140813,0.12839,-0.0728827,0.0424194,0.11858,0.0336331}
,
{-0.0838514,0.16694,-0.027933,-0.075003,-0.211496,-0.0417768}
,
{-0.0667762,0.0175361,-0.0419404,0.0131974,0.242693,0.130764}
,
{0.110131,0.0318072,0.131008,0.155922,-0.0365857,0.107704}
,
{-0.0790213,-0.0666281,0.151499,0.0407012,0.141266,-0.238356}
,
{-0.0826696,-0.149797,0.0432871,-0.11467,0.0154954,0.164743}
,
{-0.136858,0.0143261,0.0872694,0.181911,0.0510481,0.0677018}
,
{0.061222,-0.0251808,-0.120585,0.18681,-0.0612246,-0.0449081}
,
{-0.0564776,-0.0280327,-0.131703,0.111276,-0.00457414,-0.0993889}
,
{0.0628087,0.127903,-0.098024,-0.189634,-0.0515781,0.0983921}
,
{-0.0571609,-0.118779,-0.107858,0.0082276,0.0421608,0.0508312}
,
{0.0763679,0.105696,-0.0238646,-0.194566,-0.127522,0.0189425}
,
{0.0766558,-0.0327823,-0.0784681,0.00991436,0.00358351,0.0477445}
,
{0.0297482,-0.18861,0.0877292,0.00138213,0.0278402,-0.113307}
,
{-0.10128,-0.0699536,-0.00486184,0.0521667,-0.0781171,-0.0169633}
,
{0.148933,0.0965351,-0.0518258,0.231379,-0.0538877,-0.0857459}
,
{0.15422,0.0126353,-0.00439959,-0.123379,-0.0594629,-0.00342238}
,
{0.0472291,-0.0933246,0.0547073,-0.114456,0.0713115,0.0401382}
,
{0.0873708,-0.0737401,0.137215,0.14163,-0.0847879,-0.0292226}
,
{0.0306203,-0.126605,-0.0595884,-0.0110287,-0.137441,-0.249673}
,
{0.0493985,-0.240812,0.048224,0.0389779,0.042699,-0.0484116}
,
{-0.191771,0.24383,0.0344904,-0.0744852,0.13666,-0.13652}
,
{0.114851,-0.0726625,0.191858,0.0332707,-0.0818145,0.0423189}
,
{0.0206352,-0.12725,0.121732,-0.0348364,-0.0567534,0.0505589}
,
{-0.0807464,0.0979327,-0.0931276,-0.00255847,-0.0801165,-0.0425931}
,
{-0.0526385,0.0734405,0.0950828,-0.0679845,0.125174,0.108633}
,
{0.214787,-0.0535476,0.0277943,0.13419,-0.000405843,-0.139866}
,
{-0.195396,-0.212176,-0.188633,0.138651,0.0156,-0.00942138}
,
{0.0709514,0.0285278,-0.159136,0.0280464,-0.061345,-0.00767007}
,
{0.0201346,0.0292829,-0.010025,0.244481,-0.163044,-0.00391158}
,
{-0.0498859,-0.0705652,-0.201245,0.23812,-0.0199831,-0.033774}
,
{0.0212871,-0.123508,0.024604,0.0717468,0.0479505,-0.19579}
,
{0.224249,0.0377776,-0.0416238,0.0782436,0.234603,-0.117883}
,
{-0.00411771,0.0406019,-0.117543,-0.0753744,-0.191369,-0.162062}
,
{-0.181729,-0.039625,-0.209625,-0.248854,-0.0684548,0.160706}
,
{0.131826,-0.035204,0.0355088,-0.14786,-0.155016,0.0442536}
,
{0.0451044,-0.0473099,0.0257956,-0.0250037,0.168537,-0.136407}
,
{-0.100727,0.0365499,0.177671,0.126594,0.113612,-0.0511105}
,
{-0.233701,0.216727,0.137461,0.0149227,0.0795027,0.139043}
,
{0.0680618,-0.11796,0.20798,-0.0262858,-0.0721377,0.087013}
,
{0.0858451,-0.0972168,0.045605,0.0702104,0.018687,-0.056486}
,
{-0.0236669,0.112314,0.0128109,-0.00555664,0.00272069,-0.122359}
,
{0.0825126,0.0704305,0.0124728,0.185298,0.0822677,-0.0134923}
,
{-0.243034,0.112554,-0.106942,-0.0288299,-0.0163879,0.0495161}
,
{-0.0127224,0.0492163,0.206233,0.0770937,-0.246589,-0.0216687}
 };
  static const float bias2[1] = { 0.0 };
  static const float weights2[][1] = { {-0.0725689}
,
{-0.158174}
,
{-0.107223}
,
{0.000532299}
,
{-0.000448929}
,
{0.0572882}
 };
  always_assert(index < 1);
  float tmp[6];
  for (unsigned int i = 0; i < 6; i++) {
    float sum = 0.f;
    for (unsigned int j = 0; j < 79; j++) {
      sum += weights1[j][i] * vals_in[j];
    }
    sum += bias1[i];
    tmp[i] = sum > 0.f ? sum : 0.f; // RELU
  }
  float sum = 0.f;
  for (unsigned int j = 0; j < 6; j++) {
    sum += weights2[j][index] * tmp[j];
  }
  sum += bias2[index];
  return sum;
}
float specialized_gen_lepton_prior_1_0_16(const Sirikata::Array1d<int16_t, 79> &v,
                                int index) {
  return gen_lepton_prior_1_0_16(v, index);
}
static int assign_gen_lepton_prior_1_0_16() {
  global_gen_lepton_prior.at(1,0,16) = &specialized_gen_lepton_prior_1_0_16;
  return 0;
}
static int initialize_gen_lepton_prior_1_0_16 = assign_gen_lepton_prior_1_0_16();
#include "nn_framework.hh"

template<typename T> float gen_lepton_prior_1_0_17(const T & vals_in, int index) {
  static_assert(T::size0 >= 79,
     "array must be sized to hold at least 79");
  static const float bias1[6] = { -0.0124788,-0.217192,-0.116949,0.12606,0.219925,0.439843 };
  static const float weights1[][6] = { {0.0004701,0.118316,0.106539,-0.144764,-0.227832,-0.016704}
,
{-0.130062,0.124046,-0.437028,0.0085988,0.152841,0.174982}
,
{0.0206464,0.165317,0.0407441,-0.212465,0.0300759,0.259402}
,
{-0.228656,-0.0843922,0.6501,0.298873,0.386445,-0.16679}
,
{-0.0542522,-0.0500939,-0.0101757,0.174959,0.257204,0.486307}
,
{-0.141293,-0.166714,-0.187676,0.055466,0.235784,0.327557}
,
{0.00062623,-0.180004,-0.107352,0.185395,0.176775,0.30581}
,
{0.0704773,0.00300415,0.0809128,0.0425504,0.19793,-0.151825}
,
{-0.070985,0.0651304,0.06646,-0.0306321,0.0489813,-0.105314}
,
{0.048224,-0.0573451,0.0902982,0.221227,0.0824424,-0.0360965}
,
{-0.203903,-0.00907272,0.0167191,0.000329932,-0.197888,0.0147834}
,
{-0.0331612,-0.0210393,-0.0415529,0.228239,-0.0648535,0.159465}
,
{0.0960024,-0.0982857,-0.16898,-0.171198,-0.0265461,0.102251}
,
{0.190187,0.10518,-0.224261,-0.128718,-0.228624,-0.192146}
,
{-0.147239,-0.133869,0.0936292,-0.156311,0.106104,0.0786769}
,
{-0.0253177,-0.0659704,0.0106731,-0.010246,-0.000702904,0.132494}
,
{0.0468804,-0.232857,0.188948,0.0133324,0.354097,0.194903}
,
{-0.0268743,-0.0664659,0.164667,-0.109274,0.022272,-0.0468263}
,
{-0.145735,-0.249363,-0.167371,0.0985696,-0.0457484,0.31647}
,
{-0.196085,0.0138898,0.00903273,0.125896,-0.0412563,-0.0857476}
,
{-0.0444544,0.191778,0.0979984,0.250414,0.112091,-0.076999}
,
{-0.0122257,-0.0465541,0.050737,0.0846778,-0.0171961,-0.0901598}
,
{-0.047919,0.0323693,0.0272951,0.234713,0.0646399,0.125789}
,
{-0.128052,0.212253,0.00688797,-0.00614505,0.115833,0.147065}
,
{0.0827891,-0.00122954,0.0630517,-0.144405,-0.108594,-0.0795999}
,
{0.179532,-0.0727499,-0.139362,-0.0794659,0.0229077,0.0916585}
,
{0.014399,0.337461,0.126653,-0.202421,-0.173252,-0.0965524}
,
{-0.0852822,0.237089,-0.11507,-0.0992923,-0.120265,-0.0864529}
,
{-0.0443624,0.0613542,0.124136,0.164777,-0.0769087,-0.0689663}
,
{-0.187613,-0.0645122,0.124647,-0.0430688,0.135611,-0.0278232}
,
{-0.0742088,0.0139564,-0.0225735,-0.0733096,-0.0919964,0.0807557}
,
{0.0159464,-0.12576,0.0373354,-0.103604,0.00922473,-0.0405082}
,
{-0.0054083,0.0137924,0.421053,-0.198868,-0.337635,0.0189261}
,
{-0.0678925,-0.0506674,0.15539,0.179908,-0.106619,-0.175995}
,
{0.0780606,-0.00790867,-0.139285,-0.0310241,0.0249969,0.085277}
,
{-0.144095,-0.0567931,-0.0149798,0.09935,0.0323427,-0.154371}
,
{0.0604014,-0.126146,0.181475,-0.211231,-0.121735,-0.0208277}
,
{-0.00364372,-0.01684,-0.0614994,0.0498104,0.15037,0.0775919}
,
{0.032561,-0.039453,0.0395791,-0.00576746,0.0565641,-0.0162035}
,
{-0.101033,-0.0653465,-0.689315,0.181716,0.179011,0.113011}
,
{-0.172094,-0.087979,-0.347601,0.193467,0.205176,-0.011832}
,
{0.0493918,0.200538,0.299884,-0.00280971,-0.228555,0.025347}
,
{0.0537207,0.106549,0.0430879,-0.0208331,-0.0128585,0.122806}
,
{0.11516,0.0747664,0.0452153,-0.0085636,-0.346239,0.136785}
,
{0.0750245,-0.198631,0.0769152,-0.0616911,-0.259115,-0.0975956}
,
{-0.0556226,0.143527,0.415451,-0.302089,-0.0177118,0.115722}
,
{0.106154,0.348201,0.673093,-0.15173,-0.419191,0.236376}
,
{-0.131119,-0.0232807,-0.184338,-0.106255,0.0433957,0.137115}
,
{0.224213,0.00285143,-0.101649,-0.0900477,-0.155999,0.129764}
,
{-0.0670293,-0.1715,-0.156903,-0.0342626,-0.144206,0.0557676}
,
{-0.00479309,0.188006,-0.0454394,0.081314,-0.127856,0.195675}
,
{0.00969166,-0.114622,-0.121226,-0.00552656,0.12331,-0.00964746}
,
{-0.0849542,-0.0847049,-0.0413492,-0.0870005,0.0280417,0.0383562}
,
{-0.0404227,-0.125354,0.00316172,0.0302079,0.190773,-0.107452}
,
{-0.166969,0.115953,0.166009,0.189599,-0.0927046,-0.13068}
,
{0.0057849,-0.00588797,0.0337046,0.0213449,-0.0191864,-0.0346892}
,
{0.0167182,0.237169,0.151497,0.0343846,-0.0144666,-0.00279391}
,
{0.175,-0.0839242,0.129602,0.0633572,0.0341607,0.00287358}
,
{-0.14377,-0.00537641,0.0347217,-0.107003,-0.0181908,-0.101018}
,
{0.0466548,0.11738,-0.149087,-0.100839,0.268416,-0.00522979}
,
{-0.0959975,-0.0554499,-0.00131378,-0.130816,0.172558,-0.189612}
,
{0.0756482,-0.0560736,-0.0227872,0.163493,-0.117385,0.0088746}
,
{-0.158756,0.0593169,-0.0372154,0.0702713,0.118845,-0.067937}
,
{0.167701,-0.0175882,-0.14248,-0.113201,-0.0549128,-0.0397989}
,
{-0.150276,0.107577,0.0824314,-0.232628,0.18129,0.159875}
,
{-0.00859115,-0.0131422,-0.00373467,-0.220679,0.139524,-0.018424}
,
{0.108605,0.065787,-0.0208017,-0.0597629,-0.212162,-0.0517689}
,
{0.0729179,-0.132398,-0.163396,-0.00385328,-0.0362049,-0.0300001}
,
