#include "nn_framework.hh"

template<typename T> float gen_lepton_prior_0_0_0(const T & vals_in, int index) {
  static_assert(T::size0 >= 79,
     "array must be sized to hold at least 79");
  static const float bias1[6] = { -0.313264,-0.372975,0.565878,0.175552,-0.796468,0.55606 };
  static const float weights1[][6] = { {-0.177312,-0.123108,-1.62641,-0.802981,-0.325604,-1.19534}
,
{-0.165611,-0.231266,0.0729819,-0.125915,0.134539,0.0948866}
,
{-0.418761,-0.494894,0.0413281,-0.021373,-0.228615,-0.0875512}
,
{-0.512261,-0.283008,1.19813,0.693621,-0.622778,0.824932}
,
{-0.415099,-0.367541,0.389518,0.113425,-0.890513,0.522974}
,
{-0.205335,-0.428563,0.539812,0.0250261,-0.694159,0.712179}
,
{-0.344284,-0.162278,0.455054,0.234249,-0.673051,0.443285}
,
{-0.0693575,-0.0660994,0.0762287,0.0359776,-0.0413639,-0.143895}
,
{-0.0717335,-0.07108,0.15539,0.147087,-0.138865,0.0249771}
,
{0.163518,0.0842315,-0.0336718,-0.0183665,-0.00777549,0.23332}
,
{0.0931823,0.229491,-0.0426696,-0.119403,0.0720836,-0.125113}
,
{-0.0223306,-0.00984996,0.113287,0.0571841,0.118595,-0.0842138}
,
{-0.0512254,0.126848,-0.0490025,0.0625923,0.0257042,0.0493768}
,
{-0.0850719,-0.0232304,0.00951024,0.0282842,-0.103034,-0.0123318}
,
{-0.0207352,-0.134864,-0.0471056,-0.0208296,0.0147606,0.0390213}
,
{0.168715,-0.0278472,-0.173022,0.125419,-0.125171,-0.0570362}
,
{0.115559,0.156842,-0.0079318,-0.133077,-0.00288487,-0.0763121}
,
{-0.0561279,-0.0108191,-0.213456,0.202097,-0.134926,0.00481388}
,
{-0.529884,-0.185848,-1.07074,-0.276468,-0.0790701,-0.782254}
,
{-0.144668,0.160786,0.213343,0.207441,0.04651,-0.0290113}
,
{0.12955,-0.0390547,0.33298,0.172417,-0.0178562,0.102811}
,
{0.121344,-0.0379808,0.200613,-0.0249962,0.260952,0.222671}
,
{-0.227018,0.125051,-0.131492,-0.037544,-0.0776203,0.0548434}
,
{-0.0674151,0.0990722,-0.0234852,0.178573,0.105706,0.0787182}
,
{-0.183576,-0.0510358,0.00869563,0.100477,-0.200268,0.0148175}
,
{-0.200441,-0.264647,0.0869028,-0.133187,-0.27878,-0.0606513}
,
{-0.0236293,-0.179113,0.0208618,-0.0167969,0.00854489,0.0175824}
,
{-0.0216589,-0.120464,0.0384439,0.0537262,-0.0147048,-0.0396314}
,
{0.0688493,0.0851645,0.892061,0.708523,-0.349264,0.437099}
,
{-0.0632416,0.0608774,-0.0621002,-0.108482,-0.0862261,0.124099}
,
{0.193207,0.221253,0.143544,-0.0579556,-0.00807884,-0.0841691}
,
{-0.0522743,-0.15469,0.0165212,-0.0018204,-0.239514,0.129245}
,
{0.0850346,-0.0845492,0.0950812,0.0276329,-0.160453,-0.145685}
,
{-0.0820517,0.180098,-0.0770794,0.0257515,0.0133791,0.140924}
,
{-0.0661887,-0.0648129,-0.0179165,0.00939487,0.00298439,-0.0125531}
,
{0.00833799,-0.095115,0.0243942,-0.0756778,-0.017048,-0.00354517}
,
{0.102019,-0.0176013,0.126639,-0.135114,-0.0725343,-0.0974535}
,
{-0.0563187,0.0172655,-0.0229171,-0.0244785,-0.0298052,0.0034795}
,
{0.0565479,0.126751,0.00447875,0.0259813,-0.00734255,0.0477862}
,
{-0.102184,-0.1534,-0.0565159,-0.0372428,-0.101925,-0.0433438}
,
{0.00800748,-0.0625411,0.00877954,-0.0189321,0.0385593,0.0143135}
,
{0.0889492,0.0490965,0.0209264,0.0537402,0.0481698,0.0267108}
,
{-0.0686166,-0.00414484,-0.038839,-0.0331331,0.0226383,0.0556969}
,
{0.112413,-0.116191,0.114131,-0.21841,-0.159769,-0.111046}
,
{-0.0255377,-0.0872608,0.000112784,-0.072834,-0.0258831,0.0197216}
,
{-0.0409865,0.0763454,-0.0164976,0.0180645,0.0274939,0.0184005}
,
{-0.114512,-0.172782,-0.0591576,-0.0609035,0.0102388,0.0364872}
,
{-0.0169112,0.0748529,-0.00354064,0.0477826,0.0740278,0.0272464}
,
{0.0123544,0.206866,0.0257771,0.0434547,-0.0301275,-0.0407006}
,
{-0.0632027,-0.163124,-0.0319854,-0.063308,0.0905604,0.0780048}
,
{-0.0535513,-0.0384526,-0.0240771,-0.00686052,-0.0262685,0.00612931}
,
{0.0175946,-0.159537,0.0065992,-0.0403438,0.00895336,0.0294617}
,
{-0.0311594,0.0282673,-0.0245931,0.029284,0.0341984,0.0235323}
,
{0.087949,0.114338,0.0770051,0.0459019,-9.95131e-05,-0.097543}
,
{-0.0545424,0.0131722,0.025795,-0.0536532,-0.103821,0.00583991}
,
{-0.014902,-0.0654616,0.00346575,0.0574525,0.0839977,-0.0199201}
,
{0.162748,0.253181,0.0990351,-0.0201902,-0.0474037,-0.101788}
,
{-0.497975,6.33481e-05,0.0306302,0.114665,-0.214147,0.369814}
,
{-0.144102,0.0573123,0.0441636,-0.21652,0.00511572,0.0226973}
,
{-0.040015,0.0652491,0.00359116,0.139096,0.101074,-0.0527065}
,
{0.00578691,0.113767,0.003922,-0.0965031,-0.112035,0.0215412}
,
{-0.133928,0.025425,0.0383409,0.0150231,0.386188,0.0571484}
,
{-0.554802,0.0574722,-0.379015,0.158849,-0.802377,0.663458}
,
{0.0953191,-0.0666489,-0.0192508,-0.0801445,-0.0692462,0.0901019}
,
{0.0211616,-0.0656652,0.00276037,-0.00429825,0.0542079,-0.0475302}
,
{-0.0855996,0.116262,0.0474926,-0.0216326,0.0332401,-0.107694}
,
{-0.166166,-0.0314934,0.0393047,0.0522736,0.0291041,-0.179305}
,
{0.165821,-0.699026,0.289439,0.346397,-0.1171,-0.234668}
,
{0.03751,0.144905,-0.0108295,0.0723193,-0.022942,-0.062336}
,
{0.0868758,-0.132138,-0.0105745,0.105566,0.101425,-0.0557018}
,
{0.106181,-0.0692022,-0.0323411,0.0399806,0.00681778,0.100609}
,
{0.116646,0.00300583,-0.0184723,0.106676,0.201339,0.134149}
,
{0.268699,-0.178368,-0.0726724,-0.275964,0.129037,0.158672}
,
{0.0938788,0.226946,0.023435,0.0101031,-0.375909,-0.0892938}
,
{-0.251451,-0.205899,-0.0338252,0.584368,0.0191456,0.132581}
,
{0.486426,-0.327876,0.0498519,0.00561453,0.124207,0.0512655}
,
{-0.061492,0.0844041,0.121044,-0.121358,1.08125,0.0147809}
,
{-0.0408929,-0.569133,0.682886,-0.026608,0.0550665,0.267606}
,
{-0.140373,-0.223371,0.178945,-0.134614,-0.718304,0.314129}
 };
  static const float bias2[1] = { 0.315351 };
  static const float weights2[][1] = { {-0.0191116}
,
{-0.0101386}
,
{0.0405568}
,
{0.0203227}
,
{-0.0240142}
,
{0.0314296}
 };
  always_assert(index < 1);
  float tmp[6];
  for (unsigned int i = 0; i < 6; i++) {
    float sum = 0.f;
    for (unsigned int j = 0; j < 79; j++) {
      sum += weights1[j][i] * vals_in[j];
    }
    sum += bias1[i];
    tmp[i] = sum > 0.f ? sum : 0.f; // RELU
  }
  float sum = 0.f;
  for (unsigned int j = 0; j < 6; j++) {
    sum += weights2[j][index] * tmp[j];
  }
  sum += bias2[index];
  return sum;
}
float specialized_gen_lepton_prior_0_0_0(const Sirikata::Array1d<int16_t, 79> &v,
                                int index) {
  return gen_lepton_prior_0_0_0(v, index);
}
static int assign_gen_lepton_prior_0_0_0() {
  global_gen_lepton_prior.at(0,0,0) = &specialized_gen_lepton_prior_0_0_0;
  return 0;
}
static int initialize_gen_lepton_prior_0_0_0 = assign_gen_lepton_prior_0_0_0();
#include "nn_framework.hh"

template<typename T> float gen_lepton_prior_1_2_0(const T & vals_in, int index) {
  static_assert(T::size0 >= 79,
     "array must be sized to hold at least 79");
  static const float bias1[6] = { 0.855453,-0.220602,0.346705,0.300354,0.320248,0.182329 };
  static const float weights1[][6] = { {0.575654,-0.0832734,-1.00399,1.09611,-0.856181,0.91253}
,
{-0.0895835,-0.204112,-0.233371,0.0992009,0.00162696,0.126826}
,
{-0.131238,0.37503,-0.263945,0.192112,-0.031999,0.141096}
,
{0.906667,-0.768277,1.64158,-0.698158,1.70413,0.276792}
,
{0.882471,-0.312114,0.475985,0.435859,0.286035,0.0930213}
,
{0.922775,0.0573405,0.33316,0.201514,0.350781,0.188887}
,
{0.735747,-0.15695,0.243353,0.413064,0.0265803,0.415282}
,
{-0.0529292,0.0514675,0.0508927,-0.109463,-0.0500189,-0.173467}
,
{0.0531176,-0.0816158,0.676316,-0.0302748,0.407929,-0.0463449}
,
{0.0903822,0.0716964,0.104009,0.141841,0.0525472,0.00611478}
,
{0.164338,-0.0389907,0.0983277,-0.161075,0.0381064,0.00671128}
,
{-0.246843,0.128296,0.101236,-0.0690753,0.0737202,0.0486326}
,
{-0.0596254,-0.0220529,-0.0766639,0.0406642,-0.1282,-0.086214}
,
{-0.0967631,-0.119504,-0.200852,-0.16486,0.0368503,-0.175317}
,
{-0.0533731,-0.102683,0.0299283,-0.0851726,-0.134072,-0.0561359}
,
{-0.0940785,-0.0305709,-0.245758,-0.00842549,0.015186,0.117945}
,
{-0.0203928,-0.174375,0.702856,-0.339589,0.408707,-0.340674}
,
{-0.163281,-0.08005,-0.0277279,0.0103951,-0.0296192,-0.0303523}
,
{1.62509,-0.62367,-0.974854,0.635658,-0.33034,0.467985}
,
{-0.152995,0.0911595,-0.0164901,-0.0808245,-0.0253398,-0.140147}
,
{-0.071325,0.121572,-0.102808,0.0477718,0.248529,-0.00705672}
,
{-0.0782564,-0.287678,-0.20079,-0.171144,0.112359,0.00350353}
,
{-0.135428,0.110697,0.0698938,0.040516,-0.0305859,-0.144385}
,
{-0.106233,-0.000136462,-0.0021131,-0.250129,0.0138167,-0.0598468}
,
{-0.0717312,-0.140211,-0.0895168,0.0256574,0.118869,0.158204}
,
{0.0194713,-0.10953,0.150847,-0.104709,0.00936585,0.219398}
,
{0.0247936,-0.22468,-0.120718,0.0993376,0.18044,0.0769056}
,
{-0.0643896,0.0912852,0.105882,0.0289583,-0.0889631,-0.0234424}
,
{-0.559546,-0.724682,0.415438,-0.703693,0.331549,-0.435781}
,
{0.117049,0.129049,0.00847409,-0.169928,0.0482655,0.0174989}
,
{0.0801355,-0.0267632,0.0971931,-0.11357,-0.165342,0.182141}
,
{0.0934946,-0.108072,-0.00222211,-0.104908,0.146163,-0.0135767}
,
{-0.17489,0.00923413,0.0198997,-0.181985,-0.0569315,0.247114}
,
{0.00228339,0.0164878,0.036546,-0.0585383,0.136988,0.0607134}
,
{0.0136974,-0.0127139,-0.0813042,0.117499,0.0608677,0.0103574}
,
{-0.00954725,-0.0220563,0.0443682,-0.039769,-0.0327378,0.0358028}
,
{0.0275091,-0.196459,-0.0199527,0.193187,0.0187394,-0.0386671}
,
{-0.0205817,0.00835968,0.0864331,0.0716851,-0.0845141,-0.0914664}
,
{-0.107992,-0.118286,-0.000119996,0.0762599,-0.0321084,-0.0559256}
,
{-0.0454366,-0.0845661,0.0384847,-0.0778532,-0.063826,-0.0483267}
,
{-0.0155175,-0.122496,-0.0550452,-0.0689786,0.0157506,-0.00858358}
,
{-0.125602,0.0290116,0.0649227,-0.192487,-0.056276,0.0740948}
,
{-0.0213644,0.0185497,0.0332701,0.000719901,-0.0219668,0.0140679}
,
{0.0583019,0.0189598,-0.0928209,0.0553203,0.0485992,-0.101124}
,
{-0.0570955,0.0181282,-0.0153094,0.126726,-0.00502845,-0.00915552}
,
{-0.00430509,0.0379208,0.0454248,0.019429,-0.0149914,0.0333903}
,
{0.0808535,0.0832978,-0.0344122,-0.0677313,0.0406314,0.041475}
,
{-0.00385098,-0.00454058,-0.0551592,-0.0494115,0.0324037,0.00342209}
,
{0.0290268,0.122996,-0.0250915,-0.0970356,0.0172831,0.0047359}
,
{0.0234095,0.116596,0.112562,0.0122212,-0.0701423,-0.0266323}
,
{0.00517152,0.0425656,0.032737,0.0579699,-0.0169533,0.0102897}
,
{-0.0119252,0.133592,-0.0478556,0.00611474,0.0297371,-0.0774734}
,
{0.0102179,-0.0163124,-0.00880643,0.00438319,0.00846645,0.026583}
,
{0.136304,0.0999238,0.0415855,0.0387036,-0.000803105,-0.0521415}
,
{0.0284775,0.0250914,-0.00870928,-0.0388225,0.0842303,0.0455971}
,
{0.0771538,0.0612145,-0.0817152,-0.0717737,0.112111,-0.00774797}
,
{0.073422,-0.0365115,-0.166899,-0.151268,0.121728,0.0686393}
,
{-0.130123,0.0322256,-0.0360048,0.020946,0.0141657,0.369382}
,
{0.0444105,0.0747482,-0.141006,-0.100101,0.0201061,-0.00209184}
,
{0.0518301,0.11678,0.196798,0.0192468,0.100494,0.185236}
,
{-0.0563349,0.120962,-0.0636086,-0.0286966,-0.0738078,-0.0294249}
,
{0.0454043,0.285917,-0.00043324,-0.0179844,0.298052,0.206735}
,
{-0.284935,-0.467965,-0.131393,0.686648,-0.16477,0.0472844}
,
{0.0298586,0.0410629,0.161148,0.0532275,0.0191968,-0.0690097}
,
{0.00586541,-0.0937441,0.028088,0.103139,-0.000775142,-0.0420116}
,
{-0.00180854,-0.0800315,0.0578892,0.106778,0.00574588,0.0149641}
,
{0.134345,0.380061,0.0845448,0.0166101,0.122129,0.0389726}
,
{-0.120243,0.0616962,0.208974,0.332593,-0.0462035,-0.334481}
,
{-0.0264942,-0.0571047,-0.164412,-0.064407,-0.0296888,0.00294913}
,
{-0.0446646,-0.0519683,-0.0524594,0.105172,-0.140577,-0.187541}
,
{-0.0282328,0.0679511,0.110031,0.00691934,-0.0741383,-0.035134}
,
{0.0152235,0.234259,0.254392,-0.00217987,0.0725531,0.186808}
,
{0.0339914,-0.00274759,-0.684829,0.264204,0.526287,0.282582}
,
{-0.0805756,0.0220039,0.117461,-0.117326,-0.0246192,0.442531}
,
{0.0432203,0.0728891,-0.138624,-0.131966,0.122643,0.389574}
,
{-0.183609,0.162048,0.0998012,-0.0981904,-0.177033,0.268547}
,
{-0.322154,0.24982,-0.0400192,0.403549,0.067247,0.200362}
,
{0.054172,-0.0239219,0.095312,0.0336018,0.163833,0.0185708}
,
{0.542783,-0.0610935,0.731317,-0.906781,-0.286283,0.135044}
 };
  static const float bias2[1] = { 0.348318 };
  static const float weights2[][1] = { {-0.0535717}
,
{-0.00739273}
,
{0.0246705}
,
{-0.034742}
,
{0.0334352}
,
{-0.0154635}
 };
  always_assert(index < 1);
  float tmp[6];
  for (unsigned int i = 0; i < 6; i++) {
    float sum = 0.f;
    for (unsigned int j = 0; j < 79; j++) {
      sum += weights1[j][i] * vals_in[j];
    }
    sum += bias1[i];
    tmp[i] = sum > 0.f ? sum : 0.f; // RELU
  }
  float sum = 0.f;
  for (unsigned int j = 0; j < 6; j++) {
    sum += weights2[j][index] * tmp[j];
  }
  sum += bias2[index];
  return sum;
}
float specialized_gen_lepton_prior_1_2_0(const Sirikata::Array1d<int16_t, 79> &v,
                                int index) {
  return gen_lepton_prior_1_2_0(v, index);
}
static int assign_gen_lepton_prior_1_2_0() {
  global_gen_lepton_prior.at(1,2,0) = &specialized_gen_lepton_prior_1_2_0;
  return 0;
}
static int initialize_gen_lepton_prior_1_2_0 = assign_gen_lepton_prior_1_2_0();
#include "nn_framework.hh"

template<typename T> float gen_lepton_prior_1_2_1(const T & vals_in, int index) {
  static_assert(T::size0 >= 79,
     "array must be sized to hold at least 79");
  static const float bias1[6] = { -0.115827,0.104522,-0.0600129,0.0954921,-0.13022,-0.0143225 };
  static const float weights1[][6] = { {0.0568314,-0.169698,-0.0852526,0.587568,0.191954,-0.608688}
,
{0.11749,-0.0947891,-0.323521,-0.243632,-0.269166,0.253613}
,
{-0.272299,-0.0361256,0.0322724,-0.266705,-0.404649,-0.31765}
,
{0.204792,0.356684,-0.173257,0.583855,0.175486,0.209314}
,
{-0.13252,0.195388,-0.180246,0.139089,0.0534016,0.229191}
,
{0.100071,-0.00041817,-0.0987831,0.11248,0.0498728,-0.0453856}
,
{-0.0510295,0.069807,-0.0411126,0.184922,-0.184998,0.104111}
,
{-0.121956,-0.0282517,0.0596835,-0.0316964,0.260934,-0.103698}
,
{-0.191844,0.381816,0.00195319,-0.313425,0.445602,0.0503981}
,
{0.131777,-0.0573248,-0.0375808,0.206372,-0.137791,0.139239}
,
{0.141663,0.139793,0.0628107,0.0878919,-0.22404,0.0228981}
,
{-0.188324,0.0751016,-0.0729399,0.0294228,0.0714956,0.122293}
,
{-0.116135,0.133646,0.00648352,-0.233604,-0.453829,0.161463}
,
{0.193099,0.181775,0.0497648,-0.0952282,-0.420803,-0.0961741}
,
{0.00190243,-0.0669115,0.03014,0.174285,-0.199112,-0.103848}
,
{0.0302938,-0.17416,-0.0393314,-0.0925404,0.240804,-0.0845075}
,
{-0.0560495,0.314368,0.142406,-0.428211,0.14066,0.509885}
,
{-0.140658,-0.182491,0.111782,-0.160363,-0.444847,0.0637782}
,
{-0.176014,-0.20648,-0.20591,-0.0306516,-0.631885,-0.0670234}
,
{0.0865584,-0.0120947,0.103141,-0.0116833,-0.0816329,-0.119777}
,
{-0.0235503,-0.0686695,-0.0139974,0.150175,-0.21783,0.127094}
,
{0.0741239,-0.0163323,0.001558,0.0291166,0.0103287,0.0396983}
,
{-0.101654,0.113731,0.0723118,-0.0630314,0.0612238,0.143831}
,
{-0.0877279,-0.00750057,0.0329375,0.0480822,-0.180193,0.0402146}
,
{0.137398,-0.123643,0.12709,0.0258337,-0.134368,-0.0462066}
,
{0.132969,0.0627936,-0.0408061,0.238711,0.0807129,0.061946}
,
{-0.263886,-0.253825,-0.191403,-0.0454514,0.0363558,-0.0112353}
,
{0.00305681,-0.280993,-0.00922145,0.128371,-0.0459527,0.0495582}
,
{-0.229361,0.394843,0.416058,-0.124576,0.419972,0.140524}
,
{-0.0335686,0.113078,-0.00657098,0.0444397,0.191885,-0.00676161}
,
{-0.0552575,-0.0915361,-0.0410033,-0.0174408,-0.00473373,0.0846678}
,
{-0.0648748,-0.145273,0.230382,-0.128674,-0.0937763,-0.146366}
,
{-0.196697,0.0274823,-0.0358707,-0.0159548,-0.0320023,0.216919}
,
{0.0315173,-0.106582,0.0238041,0.193275,-0.0771284,-0.104203}
,
{0.056183,0.0025703,-0.17562,-0.0601834,0.0491765,0.081455}
,
{0.109498,-0.00921355,0.139764,-0.00216035,-0.0242665,-0.0350405}
,
{0.345046,0.313929,0.13804,0.014983,0.154893,-0.253794}
,
{0.0422665,-0.0305067,-0.0369298,0.0365736,0.054991,0.0531366}
,
{-0.0300115,0.233162,-0.269196,0.196599,-0.158997,-0.0313082}
,
{-0.109004,-0.109608,-0.0280695,-0.0179219,-0.0128772,0.0985608}
,
{-0.0467722,0.0109776,-0.0129309,0.0222832,-0.0127622,0.00433756}
,
{-0.113121,0.0485221,-0.106361,0.0132665,-0.224237,0.011703}
,
{0.0177161,0.0314307,0.00551286,-0.0378764,0.0888158,-0.0432841}
,
{-0.116108,0.0836095,0.07206,-0.146464,-0.0624083,-0.152587}
,
{0.0985269,0.0206585,-0.0368885,-0.0500856,0.0672315,0.000705378}
,
{-0.0757354,-0.0306211,-0.035494,-0.024349,0.0200717,0.0303793}
,
{-0.0563243,0.0322188,-0.118901,0.28293,0.0556768,0.0439554}
,
{-0.101148,0.0431801,-0.000275585,-0.010309,-0.0469379,-0.0461088}
,
{-0.273772,-0.0397838,-0.052973,-0.252232,0.115669,-0.05252}
,
{-0.0613319,0.000137948,-0.0108561,-0.0357352,0.109806,-0.0126283}
,
{-0.0375586,-0.0202712,-0.00255603,0.0500513,0.0527811,0.0182674}
,
{0.0431662,0.213317,-0.124813,0.0872572,-0.278958,-0.0494528}
,
{0.0401335,0.0363807,0.0271571,-0.00617604,-0.0251921,-0.0406615}
,
{-0.0440646,0.129805,-0.0825322,-0.372904,-0.16112,-0.170201}
,
{-0.00647688,-0.0681037,-0.31049,0.0203659,0.0546948,0.00603862}
,
{-0.147719,0.177027,-0.101136,0.00886162,0.00396043,-0.0723028}
,
{-0.157108,0.235319,0.495531,-0.198709,-0.546199,0.0556242}
,
{0.5894,-1.42419,-1.10607,-0.302312,0.134438,0.544045}
,
{-0.415724,-0.0790406,-0.485079,0.135001,0.2153,0.00289727}
,
{0.231099,0.0900796,0.229913,0.155316,-0.0140813,-0.0215531}
,
{0.0236789,-0.0402454,0.245986,0.119204,-0.0256674,0.0397354}
,
{0.997904,0.634488,-0.365495,0.0902404,0.185511,0.258303}
,
{-0.141072,-0.114824,-0.620132,0.926018,0.0551696,-0.932118}
,
{-0.0149782,0.299132,-0.258625,0.0300397,0.012,0.0246071}
,
{-0.315469,-0.144292,-0.0400804,-0.18455,-0.0697127,-0.16215}
,
{0.297385,0.248578,-0.239698,-0.220561,0.0600533,-0.0499234}
,
{0.0450083,0.192048,0.395051,-0.570197,-0.0569191,0.162041}
,
{0.215378,-0.717855,-0.474152,0.581185,0.635795,-0.162239}
,
{-0.366639,-0.143936,-0.166452,0.346517,-0.012649,0.00747965}
,
{-0.224214,0.0149251,0.0293607,-0.0588097,-0.127167,-0.11952}
,
{0.094827,0.0615543,0.0385548,0.0362525,-0.0593552,0.0734488}
,
{-0.0437437,0.00748715,-0.423956,-0.171827,0.554882,-0.0324808}
,
{-0.417335,0.624502,0.14838,0.19816,-0.806701,0.0619903}
,
{0.0618722,-0.49134,0.233024,-0.165265,0.134682,-0.0339822}
,
{-0.185992,-1.21313,0.948949,-0.139248,-0.687596,0.14091}
,
{-0.974906,0.336581,-0.737937,-0.0360267,0.203187,-0.0612056}
,
{-0.940428,1.05813,1.10551,-1.4199,0.340451,1.20101}
,
{0.013635,0.0404572,-0.115565,0.0115831,0.0451643,0.119257}
,
{0.546802,-0.0631214,0.215636,0.0959283,-0.328342,-0.22513}
 };
  static const float bias2[1] = { 0.0371317 };
  static const float weights2[][1] = { {-0.04046}
,
{0.0665813}
,
{0.0393461}
,
{-0.0440279}
,
{0.114379}
,
{0.0709517}
 };
  always_assert(index < 1);
  float tmp[6];
  for (unsigned int i = 0; i < 6; i++) {
    float sum = 0.f;
    for (unsigned int j = 0; j < 79; j++) {
      sum += weights1[j][i] * vals_in[j];
    }
    sum += bias1[i];
    tmp[i] = sum > 0.f ? sum : 0.f; // RELU
  }
  float sum = 0.f;
  for (unsigned int j = 0; j < 6; j++) {
    sum += weights2[j][index] * tmp[j];
  }
  sum += bias2[index];
  return sum;
}
float specialized_gen_lepton_prior_1_2_1(const Sirikata::Array1d<int16_t, 79> &v,
                                int index) {
  return gen_lepton_prior_1_2_1(v, index);
}
static int assign_gen_lepton_prior_1_2_1() {
  global_gen_lepton_prior.at(1,2,1) = &specialized_gen_lepton_prior_1_2_1;
  return 0;
}
static int initialize_gen_lepton_prior_1_2_1 = assign_gen_lepton_prior_1_2_1();
#include "nn_framework.hh"

template<typename T> float gen_lepton_prior_1_2_2(const T & vals_in, int index) {
  static_assert(T::size0 >= 79,
     "array must be sized to hold at least 79");
  static const float bias1[6] = { -0.0336744,0.208334,0.141141,0.167984,0.116979,-0.0136983 };
  static const float weights1[][6] = { {-0.107421,0.157029,0.226737,-0.44872,0.595133,-0.552375}
,
{-0.42707,0.262128,-0.253387,-0.17771,0.00433446,-0.20978}
,
{0.0552523,0.175976,-0.14032,0.0471562,0.292767,0.0935606}
,
{0.336459,0.794693,-0.291882,1.07378,0.49369,0.989683}
,
{0.0606606,0.266915,0.333916,0.206187,0.109865,0.0944029}
,
{-0.139676,0.359442,0.223804,0.161665,-0.185229,0.130769}
,
{-0.070642,0.141415,-0.0298329,0.152723,0.0788475,0.107746}
,
{-0.00748087,-0.1157,-0.0427455,0.0684512,-0.170181,0.163324}
,
{-0.0884376,0.360443,-0.163126,0.237231,-0.13589,0.0293231}
,
{-0.185308,-0.0719124,0.111775,-0.0172933,0.156323,-0.120057}
,
{-0.0804791,-0.156599,0.0134407,0.138758,-0.181178,-0.0492286}
,
{-0.118454,0.0445503,-0.106529,-0.0809789,-0.193525,-0.0205253}
,
{-0.181512,0.0106131,0.0948155,0.135288,-0.0427905,-0.053858}
,
{-0.0601951,0.156141,0.148083,-0.0425275,0.133904,-0.0340665}
,
{-0.131508,-0.131422,0.10105,-0.0810232,-0.0309817,0.00674607}
,
{-0.0886912,-0.200403,-0.154899,-0.00401475,0.11248,0.0571556}
,
{-0.0364407,0.485645,-0.134657,0.445791,0.0240705,0.553155}
,
{-0.257544,-0.135853,0.370903,-0.0760352,-0.154304,0.276992}
,
{0.0456724,-0.120988,1.18218,-0.56514,0.459835,-0.338378}
,
{0.042547,0.126773,-0.0305673,0.100832,0.0573556,-0.0814052}
,
{0.0572114,-0.0168912,-0.00420017,0.154249,-0.0658707,0.0497472}
,
{-0.124423,-0.0607935,-0.072743,0.109842,-0.245197,-0.0904887}
,
{0.102275,0.00086666,0.100907,-0.10554,-0.10578,-0.011615}
,
{-0.163741,0.0700044,-0.025813,0.0105702,0.00455825,-0.120243}
,
{-0.0103647,-0.113756,0.146134,-0.051547,0.00435674,0.0581988}
,
{0.142036,-0.242509,-0.0535935,0.397563,0.0201639,0.104565}
,
{-0.178418,0.164155,0.0715487,-0.0702852,0.0732403,0.0936082}
,
{0.153445,0.036018,-0.175911,-0.00241553,0.0738631,-0.073733}
,
{-0.860641,0.188081,-0.762482,0.57473,0.207399,0.47283}
,
{0.149146,-0.00795252,-0.165884,0.0884175,-0.039505,0.0308338}
,
{-0.10517,-0.109944,0.232588,0.0475358,0.131067,-0.0861788}
,
{-0.0973275,0.096985,0.192774,-0.0833301,0.102285,0.174559}
,
{0.073295,-0.0789142,0.0253068,-0.0711158,0.0844261,0.264662}
,
{-0.0287118,0.113413,0.106416,-0.0179459,0.110751,0.100059}
,
{-0.0753887,0.0797332,0.0378216,-0.0242585,-0.158476,-0.149568}
,
{0.00335434,-0.0699218,-0.0455158,0.0753106,0.0274886,0.0363274}
,
{0.356545,0.0676456,-0.0687985,-0.134907,-0.0724618,0.0968554}
,
{0.0535084,-0.011317,-0.0403389,-0.0211825,-0.0377381,0.0444102}
,
{-0.0321094,0.11101,0.0168647,-0.0714406,-0.197835,-0.155973}
,
{0.0163972,0.0186908,0.09233,0.0333183,-0.0136031,-0.0641763}
,
{0.0636199,-0.0134297,-0.035852,0.0398089,-0.0125318,-0.0462961}
,
{0.0473148,0.054702,-0.302304,-0.211485,-0.082833,-0.122648}
,
{0.0357489,-0.0143216,0.0571364,0.0595441,-0.00240112,-0.0212798}
,
{-0.211708,0.125696,-0.103491,-0.156567,-0.372079,-0.15166}
,
{-0.0735123,0.0163792,-0.0177089,0.0680291,0.125288,-0.116207}
,
{0.00122256,0.0248434,0.0199622,-0.0770382,0.0159071,0.0755784}
,
{-0.142832,-0.0844016,0.128343,0.00723913,-0.0115976,0.273942}
,
{0.0893321,0.0119547,-0.0116051,-0.00563594,-0.0016085,0.00964945}
,
{0.124972,0.02881,-0.107302,0.0496452,-0.188618,-0.115954}
,
{-0.109338,-0.0033502,0.0351417,0.0342638,0.0215863,-0.027729}
,
{-0.0705647,0.0194913,-0.0112681,-0.0391787,0.03467,-0.0161652}
,
{-0.400924,0.02765,0.0627455,0.164362,-0.0326754,-0.240798}
,
{0.00726942,-0.0566284,0.0193491,0.075275,-0.105584,0.012316}
,
{-0.26773,0.034361,-0.00772845,-0.208007,-0.195291,0.0592306}
,
{-0.211595,0.0500961,-0.254698,0.0796513,0.126606,-0.213273}
,
{-0.00823936,0.00506658,-0.0381315,-0.0933473,0.0150074,0.0367499}
,
{0.0807103,0.315755,-0.0300958,0.130845,0.257309,-0.364571}
,
{0.041266,0.0911421,-0.0770144,-0.0566289,-0.0523226,-0.145458}
,
{0.155346,-0.118951,-0.334232,0.255573,0.287752,0.0889257}
,
{0.166961,0.00973402,-0.0407828,-0.0942929,-0.00391875,0.106669}
,
{0.109541,0.0417694,0.0461132,0.0381671,-0.0464987,0.0824902}
,
{0.0909053,0.346812,-0.848135,-0.435308,0.426506,0.185872}
,
{0.0991697,0.0587961,0.0698514,-0.180638,-0.129513,0.0630048}
,
{-0.120867,0.36617,0.119061,-0.173034,-0.0816595,-0.037154}
,
{0.113527,-0.163232,0.0379153,-0.0278885,0.0409178,0.35437}
,
{-0.234269,-0.252117,0.0578287,0.034674,-0.104065,-0.0818538}
,
{0.566348,-0.223228,-0.00352791,0.183148,-0.280131,-0.0186601}
,
{0.136815,-0.216894,0.00205204,0.0595205,-0.182022,-0.144764}
,
{0.0375674,0.0497741,0.242405,-0.312685,-0.236952,0.0575841}
,
{-0.170274,-0.0330925,0.271191,0.124139,-0.0953331,-0.136333}
,
{0.0938359,0.102175,0.107542,0.110289,0.00690611,-0.0115739}
,
{0.243383,-0.0196212,0.0820428,-0.221024,-0.161565,0.170439}
,
{0.019917,-0.16071,0.0592711,-0.0535527,-0.0930596,-0.0768369}
,
{-0.34324,-0.0469839,-0.295415,-1.06649,-0.186089,0.504571}
,
{-0.165178,-0.570675,-0.674554,0.360769,-0.15183,-0.935727}
,
{-0.107662,0.317022,0.488803,-0.210944,-0.0881633,0.0615312}
,
{-0.99371,0.164579,0.844527,-0.591737,0.371929,0.958407}
,
{0.0157823,0.0602323,-0.100417,0.0451549,0.0876324,-0.271214}
,
{-0.741473,-0.086901,0.16344,0.0344743,1.20705,0.329704}
 };
  static const float bias2[1] = { 0.131218 };
  static const float weights2[][1] = { {-0.0492397}
,
{0.0426698}
,
{-0.031643}
,
{0.0284152}
,
{-0.069753}
,
{0.0339504}
 };
  always_assert(index < 1);
  float tmp[6];
  for (unsigned int i = 0; i < 6; i++) {
    float sum = 0.f;
    for (unsigned int j = 0; j < 79; j++) {
      sum += weights1[j][i] * vals_in[j];
    }
    sum += bias1[i];
    tmp[i] = sum > 0.f ? sum : 0.f; // RELU
  }
  float sum = 0.f;
  for (unsigned int j = 0; j < 6; j++) {
    sum += weights2[j][index] * tmp[j];
  }
  sum += bias2[index];
  return sum;
}
float specialized_gen_lepton_prior_1_2_2(const Sirikata::Array1d<int16_t, 79> &v,
                                int index) {
  return gen_lepton_prior_1_2_2(v, index);
}
static int assign_gen_lepton_prior_1_2_2() {
  global_gen_lepton_prior.at(1,2,2) = &specialized_gen_lepton_prior_1_2_2;
  return 0;
}
static int initialize_gen_lepton_prior_1_2_2 = assign_gen_lepton_prior_1_2_2();
#include "nn_framework.hh"

template<typename T> float gen_lepton_prior_1_2_3(const T & vals_in, int index) {
  static_assert(T::size0 >= 79,
     "array must be sized to hold at least 79");
  static const float bias1[6] = { -0.0235413,0.0409444,-0.230741,0.0260523,-0.171313,-0.164706 };
  static const float weights1[][6] = { {0.121708,-0.0868451,0.0358517,-0.0520211,-0.0984065,0.0418378}
,
{0.307043,0.393503,-0.354698,-0.648554,0.71409,-0.218538}
,
{-0.565322,0.0973453,-0.326727,0.479834,0.238487,0.39461}
,
{0.193351,-0.209852,-0.0284283,1.1409,-1.68906,-0.282836}
,
{-0.0485038,-0.0943515,-0.364391,-0.0231357,-0.143289,-0.167172}
,
{-0.0767018,0.185417,-0.202534,0.304431,-0.0704658,-0.303926}
,
{0.0357653,0.0817339,-0.233382,-0.193749,0.141511,-0.0385579}
,
{-0.169263,-0.0608494,0.139181,-0.305579,0.0770928,0.233843}
,
{-0.241178,0.176604,0.0958871,0.0492523,-0.119211,-0.0674666}
,
{-0.0235938,0.0987959,-0.179723,-0.104577,0.0991076,-0.164661}
,
{-0.166375,0.0435707,0.0442451,-0.0599046,-0.0926807,0.144534}
,
{-0.112313,0.0462776,0.106204,-0.0130327,-0.0652003,-0.010531}
,
{0.0416015,0.0446685,-0.0134627,-0.346042,-0.0677988,-0.0197507}
,
{-0.00341247,0.124868,-0.000706259,-0.219473,-0.0720632,0.190857}
,
{0.0584931,-0.0869703,0.0243067,0.00104051,0.098741,0.0330984}
,
{0.201843,-0.0125655,-0.197403,0.128067,-0.018479,0.00451738}
,
{-0.21668,0.0686595,0.479364,-0.103944,0.0203621,0.15861}
,
{0.0826891,-0.0921932,0.0703048,0.0431897,-0.220604,0.180093}
,
{0.00852256,-0.578814,-0.581686,0.283997,0.154114,-0.269419}
,
{-0.104217,0.0677038,0.0426081,-0.128591,-0.0400926,0.143835}
,
{0.0121322,0.106487,0.029451,-0.0707538,-0.10561,-0.0998236}
,
{-0.0514693,-0.0448218,0.0347148,-0.0138925,-0.0660346,-0.10331}
,
{-0.028072,-0.0714567,-0.220004,0.154524,-0.0914401,0.0464082}
,
{0.0224382,0.0102623,0.00899045,-0.20202,-0.0722525,-0.04631}
,
{-0.145507,0.00118272,0.15328,0.214734,-0.0816459,-0.153183}
,
{-0.011212,-0.0781993,0.157166,0.178571,0.0946629,-0.0735075}
,
{-0.0117039,-0.0726169,0.112692,0.0306146,0.0413775,0.0691334}
,
{-0.0421136,0.186195,-0.0594571,0.0160901,0.246394,-0.0637973}
,
{0.13345,-0.00268385,0.118188,-0.314907,-0.257188,-0.200762}
,
{0.182317,0.171725,-0.0158851,0.015722,-0.0459953,-0.0306575}
,
{-0.185903,-0.0717837,0.0566244,0.22106,-0.0497652,-0.0963262}
,
{0.109155,0.0219114,-0.0271985,-0.129463,-0.0323062,0.0583613}
,
{-0.147022,-0.207737,0.0815168,-0.0300139,0.085648,0.242947}
,
{-0.22884,-0.0321481,-0.0814389,0.0762231,-0.0408895,0.0417799}
,
{0.0278121,-0.00200911,0.0718675,0.14234,0.0377399,-0.127767}
,
{-0.0154241,-0.0891457,0.107457,0.00245844,0.063542,-0.115992}
,
{0.30383,-0.00296954,0.137977,0.0142654,0.00758675,-0.130212}
,
{-0.0841457,0.0814659,-0.104836,-0.146428,-0.0125597,0.0728824}
,
{-0.410612,0.112956,-0.0871869,0.070463,-0.207965,-0.079812}
,
{0.195366,0.0376661,-0.104072,-0.0253027,-0.191839,0.195492}
,
{0.0965617,-0.0399826,0.0045398,0.144131,-0.0962602,0.00718106}
,
{-0.162853,-0.0441659,-0.156862,0.00671948,-0.170866,0.518213}
,
{0.0167978,0.0179529,-0.0202187,-0.0171662,0.0386484,0.0235984}
,
{0.226945,-0.0779189,0.0591613,-0.221936,-0.487187,-0.13995}
,
{-0.154308,0.0635714,-0.120993,-0.144993,-0.00432519,0.135234}
,
{-0.141875,0.0494639,-0.00903972,0.0517497,0.0760814,-0.0837661}
,
{-0.054544,-0.0937006,-0.0344167,-0.12841,0.480789,0.459831}
,
{0.0591883,-0.0249975,0.025501,-0.0984149,0.0347563,-0.00881076}
,
{0.251386,-0.154712,0.157718,-0.0989745,-0.371991,-0.218975}
,
{0.190207,-0.148262,0.154913,0.0416006,0.160928,-0.0173679}
,
{-0.0426288,-0.0384557,0.0220581,-0.00865623,0.0620866,0.0486545}
,
{0.499804,-0.16362,0.113247,-0.288754,-0.0737947,0.177814}
,
{-0.076251,0.0226399,-0.0299239,-0.0237315,0.0692723,0.0191546}
,
{-0.00962652,-0.121444,0.0379795,-0.478321,0.340266,0.253116}
,
{-0.105368,0.053232,0.0266732,0.240564,0.140807,-0.0464435}
,
{-0.183278,-0.0439879,-0.0110555,0.120996,0.11646,0.113666}
,
{0.0350832,-0.0541703,0.318421,0.324376,0.123271,-0.134936}
,
{-0.185636,0.0372824,0.133638,-0.0622007,-0.14167,0.00495382}
,
{-0.130614,0.188856,0.344087,0.194386,-0.174763,0.0772127}
,
{-0.0172077,0.101954,0.0396864,0.0499773,-0.0949227,-0.00788197}
,
{0.0208857,0.00227889,-0.197889,0.131359,0.0219765,-0.066619}
,
{-0.00450185,-0.134576,-0.0668585,-0.0516017,-0.0889023,-0.162645}
,
{-0.118347,-0.0598436,0.0840209,0.211444,0.109648,-0.0407779}
,
{0.142197,-0.0906668,0.332885,0.0611116,-0.127341,0.0236881}
,
{-0.03729,0.140775,0.0245638,-0.041788,-0.155996,-0.117196}
,
{-0.134184,0.0906084,-0.134747,0.2224,-0.078677,0.0592006}
,
{-0.234752,0.189047,0.0430176,0.133778,-0.296239,0.203503}
,
{-0.219514,0.169341,0.147664,0.0362906,-0.134758,0.00602101}
,
{0.118661,0.0540032,-0.164365,-0.121567,0.21761,-0.0209253}
,
{0.247725,0.0483605,0.286376,0.0405457,-0.0248307,-0.0575197}
,
{-0.168886,-0.00848817,0.0168323,-0.0852925,0.265446,0.0355153}
,
{0.285437,0.0863592,-0.199072,0.0388998,-0.0169164,-0.135527}
,
{0.170141,0.168085,0.0707241,-0.00225066,0.180745,-0.123083}
,
{-0.0514465,-0.181377,-0.233561,0.155272,-0.108648,-0.0406361}
,
{0.215275,0.132347,-0.164706,0.245687,0.440375,-0.0812741}
,
{-0.0519546,-0.0680062,0.339356,-0.280193,-0.0530367,0.0361132}
,
{-0.0196047,0.016142,-0.175634,0.343888,0.238163,-0.0259737}
,
{-0.0200811,-0.0361851,-0.080549,0.0473727,0.162675,-0.146079}
,
{0.0458797,-0.0642702,0.0928486,-0.118929,0.0257743,0.073726}
 };
  static const float bias2[1] = { -0.140592 };
  static const float weights2[][1] = { {-0.0758735}
,
{0.0605642}
,
{0.0648157}
,
{-0.196431}
,
{-0.151623}
,
{0.0477525}
 };
  always_assert(index < 1);
  float tmp[6];
  for (unsigned int i = 0; i < 6; i++) {
    float sum = 0.f;
    for (unsigned int j = 0; j < 79; j++) {
      sum += weights1[j][i] * vals_in[j];
    }
    sum += bias1[i];
    tmp[i] = sum > 0.f ? sum : 0.f; // RELU
  }
  float sum = 0.f;
  for (unsigned int j = 0; j < 6; j++) {
    sum += weights2[j][index] * tmp[j];
  }
  sum += bias2[index];
  return sum;
}
float specialized_gen_lepton_prior_1_2_3(const Sirikata::Array1d<int16_t, 79> &v,
                                int index) {
  return gen_lepton_prior_1_2_3(v, index);
}
static int assign_gen_lepton_prior_1_2_3() {
  global_gen_lepton_prior.at(1,2,3) = &specialized_gen_lepton_prior_1_2_3;
  return 0;
}
static int initialize_gen_lepton_prior_1_2_3 = assign_gen_lepton_prior_1_2_3();
#include "nn_framework.hh"

template<typename T> float gen_lepton_prior_1_2_4(const T & vals_in, int index) {
  static_assert(T::size0 >= 79,
     "array must be sized to hold at least 79");
  static const float bias1[6] = { 0.059306,-0.247921,-0.126835,-0.18949,0.0116363,0.0678766 };
  static const float weights1[][6] = { {0.0329003,-0.0362291,-0.118154,-0.286915,0.0112652,0.298742}
,
{-0.0888811,-0.692457,0.157244,-0.262395,0.280319,-0.718967}
,
{-0.197351,0.186629,-0.0410452,-0.492484,0.497611,-0.200274}
,
{-0.545329,-0.946385,-0.166794,0.581694,1.04993,-0.00366942}
,
{0.230663,-0.125683,-0.136916,0.0405611,0.165182,-0.0459478}
,
{0.077643,-0.158283,-0.194429,-0.297906,-0.245672,0.000421002}
,
{0.310298,0.0788334,-0.324969,-0.176182,-0.164437,0.2692}
,
{-0.0631525,0.22713,0.0674539,-0.219957,-0.00986032,0.356762}
,
{0.192565,-0.286489,0.140315,0.0097561,-0.320112,0.303593}
,
{-0.126831,0.0443074,-0.0718159,0.0580502,-0.15249,-0.0844521}
,
{0.139287,0.16056,0.142193,-0.110312,0.114947,-0.24989}
,
{0.0320362,0.0856848,0.188596,0.0770437,-0.0853754,-0.334956}
,
{-0.111607,-0.0439741,0.170986,-0.181076,0.32806,0.0632945}
,
{0.160151,-0.205304,-0.0243648,-0.0720273,-0.457789,0.0803677}
,
{0.124793,0.110373,0.0492571,-0.162191,0.106287,-0.0664341}
,
{-0.0514093,-0.236875,-0.130823,0.128806,-0.0582195,-0.15124}
,
{0.0603556,-0.0676293,0.134938,0.102849,0.201877,-0.177017}
,
{-0.0835613,-0.200193,-0.00988478,0.0473453,-0.061447,0.0920504}
,
{0.136936,-0.327844,-0.210507,0.0532672,-0.0515717,0.0619723}
,
{-0.190527,-0.137316,0.01582,0.101694,-0.0452002,-0.234552}
,
{-0.066444,-0.224838,0.0258167,0.00673867,-0.0657602,0.1123}
,
{0.0699052,-0.125992,0.110653,-0.0514883,0.0594193,-0.0625739}
,
{0.0707701,0.18338,0.130109,0.102898,-0.197168,0.0175108}
,
{0.0889379,-0.0229959,0.0991819,-0.0839366,-0.00539829,-0.169888}
,
{-0.0396815,-0.0469676,-0.0146161,-0.0473727,-0.104119,0.153525}
,
{-0.0703673,0.0819216,0.0321437,0.0254892,0.128586,-0.0604783}
,
{0.0224421,-0.110176,-0.00466942,-0.0183529,0.0420229,-0.0690432}
,
{0.144599,-0.0992744,-0.0628235,0.15324,2.47728e-06,0.111822}
,
{0.166466,0.0792908,-0.0973194,-0.0282052,-0.19648,0.268352}
,
{0.190534,-0.130828,0.183709,-0.140153,-0.141339,0.0783211}
,
{-0.0822277,0.0593964,-0.135218,0.210563,0.00942422,0.0232558}
,
{-0.0492861,-0.0103504,0.216256,-0.111995,-0.0713846,0.114045}
,
{-0.12927,-0.0235975,-0.116375,0.204915,-0.22286,-0.134262}
,
{-0.0377881,-0.0830506,0.214786,0.182074,0.187049,0.180317}
,
{-0.0201899,0.441736,-0.0631099,0.138782,0.110347,0.306251}
,
{-0.026075,-0.0363614,-0.00308748,0.0247203,-0.0892384,-0.00848903}
,
{-0.0802355,-0.0877009,0.0123102,0.164748,-0.0759886,0.327872}
,
{0.0571085,0.235149,0.0423857,-0.0862734,0.0671116,-0.0530013}
,
{0.205371,0.0365421,0.198714,-0.163363,0.156448,0.0610294}
,
{-0.0912789,-0.0516479,0.0244917,0.057556,-0.22783,0.249116}
,
{-0.0632727,-0.0601778,-0.0657768,0.0637385,-0.0497871,-0.0166835}
,
{0.0623399,0.181049,0.0630183,-0.0887014,-0.100068,0.123039}
,
{-0.038279,0.0747992,-0.0788884,0.0510001,0.0464084,0.0339108}
,
{-0.0384712,0.270857,0.021132,-0.171215,0.0834779,0.370423}
,
{-0.0838043,-0.337991,-0.105912,0.128711,-0.0494472,-0.270244}
,
{0.000927802,-0.0357214,-0.0104214,-0.0131086,0.0120734,-0.137135}
,
{0.164031,-0.433976,0.126484,0.0527636,-0.045765,0.335511}
,
{0.0148542,-0.0637988,0.066038,-0.115555,-0.0691982,0.00598578}
,
{0.191517,-0.479455,-0.00786708,0.156489,0.043973,0.291067}
,
{-0.0769512,0.0766699,-0.062835,-0.0118998,0.103506,-0.0893704}
,
{-0.0682298,-0.0836165,-0.0529998,0.04252,-0.0477673,0.00378281}
,
{0.0845212,0.340131,0.0495315,0.0868828,0.135124,0.0782348}
,
{-0.0112837,0.243744,0.0081256,-0.034858,-0.0896896,-0.0223552}
,
{-0.175825,0.182151,-0.0984556,0.00470305,-0.143219,0.073635}
,
{0.0156264,-0.0260341,0.149645,0.0449896,0.179823,0.0980214}
,
{-0.0288814,-0.0163939,-0.0321746,0.00357452,-0.12975,0.101524}
,
{0.128226,0.115538,-0.176158,0.0440154,0.195514,0.0341279}
,
{0.256146,-0.0526891,-0.166692,0.00274575,0.117178,0.0830681}
,
{-0.108281,-0.0243515,-0.126532,-0.0852974,-0.0926154,0.222983}
,
{0.148034,-0.0743181,-0.0268818,0.0194156,0.0546717,-0.116651}
,
{0.277699,0.0328386,-0.134208,-0.0349452,0.109975,0.0577779}
,
{-0.149143,0.00558852,0.153375,0.0627625,-0.0723597,-0.189994}
,
{-0.0291662,0.0151946,0.11692,0.0704957,-0.143087,-0.0841206}
,
{0.00533307,0.0858858,0.207856,0.192446,0.152026,-0.0162403}
,
{-0.151012,0.0752062,-0.0962311,0.0295273,0.064787,0.0392771}
,
{0.0620525,0.0523047,-0.00838749,-0.183433,0.140572,-0.076716}
,
{-0.169651,-0.00166424,-0.0477351,0.182666,0.185854,-0.00589889}
,
{-0.114199,-0.157404,-0.121784,0.0422807,-7.8059e-05,-0.0795874}
,
{-0.0648566,-0.0975986,-0.125581,-0.0218676,0.140283,0.0675738}
,
{0.0429638,0.0345281,0.027163,-0.0651955,-0.0452587,0.0832868}
,
{0.210422,0.195365,0.305836,-0.0924494,0.146755,-0.126558}
,
{-0.143795,0.213878,-0.127676,0.100403,0.147189,-0.116304}
,
{0.0798515,-0.0703814,0.0780219,-0.170557,0.138229,0.149019}
,
{-0.0576221,-0.142262,-0.196886,-0.0235753,-0.056415,-0.076548}
,
{0.0508268,-0.0935941,-0.00222365,-0.124852,-0.296663,0.179227}
,
{-0.239585,0.0725736,0.210423,-0.00683699,0.224061,-0.276523}
,
{0.134077,0.0752208,0.0206072,-0.160268,-0.125254,-0.128752}
,
{-0.0232915,-0.0623701,-0.0363759,-0.149742,-0.0656701,-0.142928}
,
{0.157139,-0.0222856,-0.0715442,0.0272914,-0.127696,-0.014212}
 };
  static const float bias2[1] = { -0.0776727 };
  static const float weights2[][1] = { {-0.0809299}
,
{0.867979}
,
{0.0621656}
,
{0.0581081}
,
{0.0560001}
,
{-0.612137}
 };
  always_assert(index < 1);
  float tmp[6];
  for (unsigned int i = 0; i < 6; i++) {
    float sum = 0.f;
    for (unsigned int j = 0; j < 79; j++) {
      sum += weights1[j][i] * vals_in[j];
    }
    sum += bias1[i];
    tmp[i] = sum > 0.f ? sum : 0.f; // RELU
  }
  float sum = 0.f;
  for (unsigned int j = 0; j < 6; j++) {
    sum += weights2[j][index] * tmp[j];
  }
  sum += bias2[index];
  return sum;
}
float specialized_gen_lepton_prior_1_2_4(const Sirikata::Array1d<int16_t, 79> &v,
                                int index) {
  return gen_lepton_prior_1_2_4(v, index);
}
static int assign_gen_lepton_prior_1_2_4() {
  global_gen_lepton_prior.at(1,2,4) = &specialized_gen_lepton_prior_1_2_4;
  return 0;
}
static int initialize_gen_lepton_prior_1_2_4 = assign_gen_lepton_prior_1_2_4();
#include "nn_framework.hh"

template<typename T> float gen_lepton_prior_1_2_5(const T & vals_in, int index) {
  static_assert(T::size0 >= 79,
     "array must be sized to hold at least 79");
  static const float bias1[6] = { 0.0710458,-0.196221,-0.0192304,0.00286845,0.084611,-0.0261438 };
  static const float weights1[][6] = { {0.126923,-0.104765,-0.00411239,0.11186,-0.065605,0.0172836}
,
{-0.177877,0.169219,0.251897,0.0569267,0.227919,-0.157482}
,
{-0.27655,0.00532412,-0.0233418,0.122357,-0.105704,-0.0543332}
,
{0.442986,-0.211774,0.230986,-0.0467055,-0.67746,0.381351}
,
{0.182727,-0.348131,-0.0637191,0.247582,0.0462604,0.10228}
,
{0.316939,-0.084284,-0.0443811,0.0470364,0.341732,0.0349312}
,
{0.057135,-0.110315,0.0263586,0.0196624,-0.0358432,-0.0111136}
,
{-0.13381,0.385593,-0.235687,0.211168,0.0230903,0.105648}
,
{0.0571515,-0.0844803,-0.123697,-0.0992574,0.327288,-0.32504}
,
{4.46561e-05,-0.0330475,-0.00871638,0.029394,-0.060157,0.0136407}
,
{-0.0919315,0.125606,-0.0355013,-0.0727853,-0.0884146,-0.21239}
,
{-0.202835,0.161107,0.0535405,-0.0269425,-0.0569144,0.111388}
,
{0.112162,-0.0558047,-0.0648367,0.136605,0.00761104,0.0115946}
,
{0.0152163,0.153715,0.226411,0.0860839,0.0460141,0.0261988}
,
{-0.0086394,0.114362,-0.108338,-0.071744,0.133164,0.0748036}
,
{-0.0212313,-0.185364,0.20461,0.0846283,-0.0568687,0.249636}
,
{-0.235798,0.0129079,-0.128707,0.0174003,-0.105848,0.113814}
,
{-0.169331,0.23546,-0.100234,0.170212,0.266265,-0.0942182}
,
{0.51758,-0.141478,0.0752903,0.0610486,0.145943,-0.0285502}
,
{-0.141806,0.0822895,-0.364373,0.0321789,-0.095765,-0.197379}
,
{-0.18053,0.0610648,-0.105385,0.00662584,0.12077,0.0942658}
,
{0.076883,-0.0297754,0.210305,0.177715,0.0901646,0.0247583}
,
{-0.176398,-0.155867,-0.0907121,-0.0210068,-0.124727,-0.0900578}
,
{0.0495223,0.165598,-0.0696741,-0.135838,0.0148967,-0.0752886}
,
{0.0228585,0.0255424,0.152596,-0.0203786,-0.0117443,-0.19536}
,
{0.00333018,-0.0608972,-0.0686037,-0.153601,0.0250385,-0.0688188}
,
{-0.0979604,-0.128951,0.0823237,0.125435,0.0661256,-0.107901}
,
{0.0865667,-0.0608928,0.145326,-0.0113597,-0.116148,-0.14081}
,
{0.174818,-0.112328,0.0126434,0.125961,0.18228,-0.0466118}
,
{0.00795366,-0.146347,-0.213074,0.0397957,0.0064861,0.0258051}
,
{0.0782037,-0.187528,0.0289233,0.149732,-0.000978923,0.0689787}
,
{-0.0750128,0.160892,-0.00620161,-0.0287592,0.114773,-0.179148}
,
{0.0597237,0.0937996,-0.0505331,0.0689385,-0.0877292,-0.107579}
,
{0.0857473,-0.244668,-0.0146694,0.0682234,0.0858331,0.16684}
,
{0.089227,0.123285,0.233044,-0.14117,0.0613356,0.1162}
,
{0.172467,0.0926815,0.0870535,-0.0659117,0.000873191,0.0225775}
,
{-0.325257,-0.377039,0.285305,0.241891,0.0325547,0.296388}
,
{-0.0851628,0.225124,-0.260417,-0.172267,0.0254765,-0.0059828}
,
{-0.00757642,-0.136501,0.0348805,-0.0456742,-0.161788,0.0788452}
,
{-0.0204853,0.197471,-0.0277067,-0.062537,0.142381,0.0517161}
,
{0.123721,0.0540937,-0.0164468,-0.0650622,0.00396021,0.0675392}
,
{-0.0814669,-0.226934,0.00612882,-0.0356321,-0.0909077,-0.123377}
,
{-0.134432,0.0541759,0.00851173,0.0620223,-0.0346711,-0.343465}
,
{-0.387897,-0.0170778,0.101273,0.0907054,0.1627,-0.135907}
,
{-0.0248126,0.0572744,-0.55796,0.178754,0.319498,0.0232089}
,
{0.0176247,0.0888539,-0.0189662,-0.0203487,0.0285912,-0.0574022}
,
{0.154877,0.118304,0.0580258,0.187618,0.417666,0.205739}
,
{0.106347,-0.0560431,0.0127547,0.122175,0.0339293,-0.0773218}
,
{-0.0777536,-0.0702617,-0.195003,0.0408235,-0.0151399,-0.0825877}
,
{0.00525937,0.0142925,-0.17636,-0.149859,-0.0883173,0.00488515}
,
{-0.0356939,0.125001,0.0162953,0.0948186,0.232926,0.0351733}
,
{0.126488,-0.523922,-0.285439,0.282485,-0.257954,-0.204473}
,
{0.176871,0.0129768,-0.0676038,-0.0386631,-0.0110323,0.0862489}
,
{0.701116,-0.161229,0.30964,0.26576,0.127301,-0.058224}
,
{0.0253563,-0.1102,0.0136988,0.0323937,0.102723,0.0785743}
,
{-0.247852,0.169926,0.0357758,0.00338012,-0.0441328,0.201152}
,
{0.175475,-0.0501735,-0.0366943,0.121429,-0.0442036,0.107587}
,
{0.199755,-0.0103392,-0.105072,0.022094,0.0737071,-0.20608}
,
{0.186569,0.140944,-0.197186,-0.103304,-0.0112175,-0.0345974}
,
{0.0466947,0.0355303,-0.112485,0.0561533,0.0937705,0.232508}
,
{0.0878517,0.0532577,0.0249487,0.0110625,0.0338435,0.148163}
,
{0.128535,-0.0880165,-0.111734,0.110997,-0.122239,0.0958565}
,
{0.139121,-0.109019,-0.0162462,-0.129724,-0.230952,0.190273}
,
{0.0836207,-0.239432,-0.0366144,-0.2204,-0.0817707,0.101094}
,
{0.0803779,0.0777957,-0.174482,-0.108154,0.0461742,0.0249078}
,
{0.146822,0.0134579,0.114049,-0.0265249,-0.146266,0.0589493}
,
{0.0238819,-0.24199,0.0493717,-0.183446,0.12623,-0.0247223}
,
{-0.209795,-0.18271,-0.147597,0.126318,-0.0556962,-0.20379}
,
{-0.168442,-0.228604,-0.0338153,-0.122358,0.00267103,-0.0802386}
,
{-0.0960114,-0.0833332,0.0824049,0.0976355,-0.0968062,0.0537783}
,
{0.0855257,-0.0943736,-0.0295816,-0.0474212,0.146028,-0.118326}
,
{0.0235508,-0.00216516,-0.046295,-0.110663,0.10191,-0.0985399}
,
{0.147977,-0.0236299,0.0178822,-0.15439,0.0452974,-0.0887159}
,
{0.171538,0.0468847,-0.191848,0.129992,-0.234325,0.100749}
,
{-0.0126653,-0.0770511,0.0537103,-0.0125866,-0.0853803,0.1113}
,
{0.0465741,0.189053,-0.264582,0.229525,0.058132,-0.15502}
,
{0.24292,-0.172621,-0.0897493,0.0258321,-0.227942,0.190685}
,
{0.0684995,0.010497,0.0817085,0.01447,-0.187072,0.153284}
,
{0.166871,0.211204,0.00460039,-0.0751843,0.105413,0.184662}
 };
  static const float bias2[1] = { -0.140803 };
  static const float weights2[][1] = { {-0.705169}
,
{0.0519983}
,
{-0.934801}
,
{0.0657505}
,
{-0.0604688}
,
{0.102046}
 };
  always_assert(index < 1);
  float tmp[6];
  for (unsigned int i = 0; i < 6; i++) {
    float sum = 0.f;
    for (unsigned int j = 0; j < 79; j++) {
      sum += weights1[j][i] * vals_in[j];
    }
    sum += bias1[i];
    tmp[i] = sum > 0.f ? sum : 0.f; // RELU
  }
  float sum = 0.f;
  for (unsigned int j = 0; j < 6; j++) {
    sum += weights2[j][index] * tmp[j];
  }
  sum += bias2[index];
  return sum;
}
float specialized_gen_lepton_prior_1_2_5(const Sirikata::Array1d<int16_t, 79> &v,
                                int index) {
  return gen_lepton_prior_1_2_5(v, index);
}
static int assign_gen_lepton_prior_1_2_5() {
  global_gen_lepton_prior.at(1,2,5) = &specialized_gen_lepton_prior_1_2_5;
  return 0;
}
static int initialize_gen_lepton_prior_1_2_5 = assign_gen_lepton_prior_1_2_5();
#include "nn_framework.hh"

template<typename T> float gen_lepton_prior_1_0_4(const T & vals_in, int index) {
  static_assert(T::size0 >= 79,
     "array must be sized to hold at least 79");
  static const float bias1[6] = { 0.0477562,-0.148006,0.233381,0.208983,-0.152939,0.229359 };
  static const float weights1[][6] = { {-0.0675966,-0.0804666,0.169646,0.200277,0.018863,0.0107056}
,
{0.0831759,-0.0280591,0.0778777,-0.106736,-0.0146706,0.00547653}
,
{-0.00979965,-0.152954,-0.163309,-0.0170922,0.178379,-0.0199214}
,
{0.215341,0.21534,0.164078,0.527003,-0.139198,0.569294}
,
{0.00875534,-0.217218,0.0852901,0.116994,-0.05256,0.195083}
,
{-0.119068,-0.133726,0.220672,0.190709,-0.192638,0.132448}
,
{0.0673207,-0.0625673,0.150942,0.0868516,-0.0697884,0.250212}
,
{0.0425717,0.0119027,0.180283,-0.0373901,0.00451228,0.022157}
,
{-0.122589,0.0886442,0.231613,0.0370002,0.074788,-0.206986}
,
{0.00918875,0.0495888,-0.17637,0.134549,0.0487015,0.00453637}
,
{-0.0169002,-0.012932,-0.209457,0.00500998,0.2353,0.0164004}
,
{0.0709581,0.0790306,-0.0163165,0.132752,0.0902278,0.0224506}
,
{0.137379,0.0593471,0.0713738,0.155344,-0.122288,0.0499973}
,
{0.0173841,-0.0184141,-0.0172499,0.0244649,-0.080035,-0.0558777}
,
{-0.0417666,-0.0136844,-0.0784192,-0.0177176,0.126455,-0.126932}
,
{0.066315,0.113532,-0.0665524,-0.1914,0.1845,0.1904}
,
{-0.191543,-0.272538,0.192728,0.27381,-0.25724,0.242274}
,
{-0.10705,-0.0711267,-0.201003,0.0284147,0.0725478,0.0499988}
,
{0.237452,-0.0660454,0.0556948,-0.0980723,-0.0460031,0.197602}
,
{-0.028372,0.154352,0.145177,0.0259508,0.152585,0.0335858}
,
{-0.0202217,-0.0245741,-0.00915843,0.0273691,0.0830487,-0.0643461}
,
{0.0463825,0.142105,0.0708093,-0.0607719,0.0113053,0.209214}
,
{0.023854,0.216606,-0.00992584,-0.00889132,-0.165904,0.10012}
,
{0.0605157,0.125214,0.0630066,0.152347,0.0246278,-0.0115028}
,
{-0.0548594,-0.182191,0.178164,0.0930875,0.155106,-0.139795}
,
{0.14827,0.0341371,-0.00993595,0.0378406,0.207869,-0.0509429}
,
{-0.0481693,-0.227381,-0.085223,0.0515337,0.0860732,-0.0941292}
,
{-0.297354,0.103101,-0.044998,0.0099561,-0.152889,0.0764344}
,
{0.018932,0.019239,-0.0232333,0.0705256,0.41539,0.134897}
,
{-0.167353,-0.108814,0.00753795,-0.0546835,-0.0496987,-0.00926884}
,
{-0.0126226,-0.0290843,-0.105112,0.047858,0.0151967,0.0278219}
,
{-0.0750462,-0.0471605,-0.180849,0.0157179,-0.0418481,0.0724775}
,
{-0.0186342,-0.0591545,-0.0989567,0.05752,0.128645,-0.0018903}
,
{0.00278761,-0.0282239,0.0727255,0.138855,0.100195,-0.0735902}
,
{-0.117058,-0.121517,-0.297431,-0.0637926,-0.151434,0.090363}
,
{0.0543605,0.045582,0.164954,0.000854552,-0.0133972,-0.0870418}
,
{0.321426,-0.156445,-0.146622,0.0331682,-0.115116,-0.0348447}
,
{-0.0225374,0.0657151,0.0905051,-0.0671722,0.0295516,0.0795737}
,
{-0.139828,-0.108575,-0.122737,-0.129975,0.0114898,0.0539371}
,
{0.0579905,0.0644595,0.0694464,-0.119328,-0.04354,0.160814}
,
{0.0145044,-0.0995576,-0.100441,0.0318402,-0.029102,-0.0785391}
,
{0.0735786,-0.0924164,-0.0876153,0.0565107,0.0123522,-0.157115}
,
{-0.0189026,0.0411496,0.12845,0.0851344,0.0419119,-0.154097}
,
{0.223082,0.0703898,0.183601,0.186437,0.00132558,-0.153906}
,
{0.118702,0.120513,0.112746,0.101999,-0.0137593,0.0413902}
,
{0.00458856,-0.0869679,-0.0677988,0.000205753,-0.00261367,-0.0643492}
,
{-0.226628,0.0673447,-0.0110808,-0.0136338,0.134745,0.138846}
,
{-0.0530449,-0.0555784,-0.136028,0.0424946,-0.121968,-0.0238676}
,
{-0.114632,-0.0307504,-0.1029,0.0130971,-0.121121,-0.0676566}
,
{0.0977206,0.0864898,0.0676949,0.175207,-0.122868,-0.113644}
,
{-0.046888,-0.0385394,-0.0845746,-0.0434066,-0.0248348,0.0476229}
,
{-0.326228,-0.0539525,0.0719665,-0.28002,-0.171719,-0.0154294}
,
{-0.00725038,0.0149045,-0.0587547,0.0321989,0.0990372,0.0754839}
,
{0.0162689,-0.0926387,-0.021742,-0.0186131,-0.0908807,-0.202192}
,
{-0.44423,0.250262,-0.120647,0.0291948,-0.192698,0.237806}
,
{0.0456059,-0.133987,-0.0814774,0.131851,0.0563184,-0.122862}
,
{-0.216046,-0.219521,0.12116,0.34824,-0.0316254,-0.161841}
,
{0.151646,0.251856,0.133181,0.0294478,-0.00906498,-0.0983226}
,
{0.157709,-0.0107093,0.10138,0.158873,-0.0975291,-0.211616}
,
{-0.339337,0.042015,-0.11601,-0.0643079,-0.0508833,-0.0256095}
,
{-0.147703,0.0204467,-0.0224788,-0.158909,-0.309192,0.092841}
,
{0.521211,-0.510746,0.163965,0.0766117,-0.0699323,-0.130285}
,
{-0.118159,-0.0243582,0.065761,-0.105426,-0.0340719,0.0210617}
,
{-0.572114,-0.123696,-0.279312,0.128139,0.0633476,-0.0335697}
,
{-0.189152,-0.070906,0.024596,-0.129655,-0.0236131,-0.109554}
,
{0.194887,-0.0101216,-0.0408799,0.0965396,-0.00583884,-0.0691506}
,
{-0.00562636,-0.0467658,-0.102116,0.485185,-0.122931,0.0327176}
,
{0.413698,-0.0504446,0.0535061,0.0288981,-0.019755,-0.0260701}
,
{0.257731,-0.334132,-0.131028,-0.0900122,0.139,0.353221}
,
{0.392922,0.0966389,0.22254,-0.140317,0.0150702,-0.10398}
,
{-0.33095,0.0537277,0.0184472,-0.175127,-0.0649373,0.260377}
,
{0.0463921,-0.00366821,0.472514,0.101035,-0.440732,-0.242091}
,
{-0.197267,-0.103207,0.146249,-0.229008,-0.153546,-0.0341976}
,
{-0.39958,0.270593,-0.353387,-0.211356,0.151133,0.0575385}
,
{-0.361797,-0.166313,0.0666166,0.621683,-0.408739,-0.512841}
,
{0.321914,0.155311,-0.170511,0.157307,-0.362691,-0.132293}
,
{-0.0586562,0.860003,-1.01945,-0.894639,0.96583,-0.916781}
,
{0.0129501,-0.33432,-0.17721,0.17032,0.113391,0.572171}
,
{-1.23612,0.0330111,0.364438,0.982026,-0.914351,0.965921}
 };
  static const float bias2[1] = { 0.271839 };
  static const float weights2[][1] = { {-0.0398502}
,
{-0.0969302}
,
{0.0680623}
,
{0.0662469}
,
{-0.0215205}
,
{0.0640192}
 };
  always_assert(index < 1);
  float tmp[6];
  for (unsigned int i = 0; i < 6; i++) {
    float sum = 0.f;
    for (unsigned int j = 0; j < 79; j++) {
      sum += weights1[j][i] * vals_in[j];
    }
    sum += bias1[i];
    tmp[i] = sum > 0.f ? sum : 0.f; // RELU
  }
  float sum = 0.f;
  for (unsigned int j = 0; j < 6; j++) {
    sum += weights2[j][index] * tmp[j];
  }
  sum += bias2[index];
  return sum;
}
float specialized_gen_lepton_prior_1_0_4(const Sirikata::Array1d<int16_t, 79> &v,
                                int index) {
  return gen_lepton_prior_1_0_4(v, index);
}
static int assign_gen_lepton_prior_1_0_4() {
  global_gen_lepton_prior.at(1,0,4) = &specialized_gen_lepton_prior_1_0_4;
  return 0;
}
static int initialize_gen_lepton_prior_1_0_4 = assign_gen_lepton_prior_1_0_4();
#include "nn_framework.hh"

template<typename T> float gen_lepton_prior_1_2_9(const T & vals_in, int index) {
  static_assert(T::size0 >= 79,
     "array must be sized to hold at least 79");
  static const float bias1[6] = { 0.0,0.0,0.0,0.0,0.0,0.0 };
  static const float weights1[][6] = { {-0.216854,-0.0537155,-0.0326295,-0.0433332,0.228833,0.134853}
,
{-0.0215536,-0.0604803,-0.0612039,-0.17339,0.0498686,0.144136}
,
{0.0483223,0.0833312,-0.195364,-0.0917734,-0.0677896,-0.076423}
,
{-0.0104514,0.0183817,0.0817903,0.163099,0.147152,-0.0253933}
,
{0.0396496,0.172229,-0.161416,-0.106104,-0.209832,0.0206005}
,
{0.0154433,0.0699311,0.0742505,0.175543,0.213247,0.137625}
,
{0.173296,0.224206,-0.0403128,0.082539,0.129794,0.00848151}
,
{-0.00699342,-0.0694582,-0.0349445,-0.0459475,0.033661,-0.0543402}
,
{0.0157992,-0.206935,0.0637892,0.165864,-0.0251226,-0.170931}
,
{0.152617,0.0012697,-0.185385,0.161085,-0.205702,0.142594}
,
{-0.185777,-0.0109245,-0.0429033,-0.15021,-0.0344335,-0.187383}
,
{0.102807,0.0924064,-0.230207,0.00315008,-0.100284,0.0339138}
,
{0.052962,-0.124111,-0.0858368,-0.022304,0.13283,-0.235427}
,
{0.0432853,0.175788,0.000993627,-0.0359837,-0.0386554,0.113985}
,
{-0.203564,-0.187132,-0.0643434,-0.00494846,-0.145455,0.12933}
,
{0.00822453,-0.231915,0.120907,0.123505,-0.217817,0.029648}
,
{0.0765102,-0.0427055,-0.202482,0.0245584,0.120653,-0.121744}
,
{-0.0130664,0.16973,-0.0812757,-0.0525117,-0.20365,-0.0738056}
,
{-0.153376,-0.0544474,-0.172022,-0.12701,-0.0302973,0.153091}
,
{0.0731188,0.051741,0.075514,0.190834,0.177492,0.226455}
,
{0.121346,0.0917606,0.0756146,0.103461,-0.0425809,-0.0909192}
,
{-0.165374,-0.0405349,0.190854,0.109176,-0.147406,0.112024}
,
{0.0921261,0.185471,-0.0438096,0.104626,-0.0515082,0.127091}
,
{-0.19569,0.121221,0.0623108,0.0890248,-0.057418,0.152222}
,
{-0.183431,0.0847178,-0.0363197,-0.158301,-0.161008,-0.124406}
,
{0.185087,-0.089467,0.0935993,0.163405,-0.160609,0.0728527}
,
{-0.0529656,-0.0979988,0.0255351,0.137067,0.047985,-0.104729}
,
{-0.0773084,-0.0748437,-0.0982177,0.0190421,-0.0814418,-0.0240023}
,
{0.0247956,-0.165818,-0.171196,-0.0785689,0.000910379,0.0935353}
,
{-0.114022,0.074085,0.162825,0.0379446,-0.0256529,0.0566641}
,
{-0.100058,-0.0898919,0.0446054,-0.117317,0.018005,0.0997386}
,
{-0.0356065,-0.153288,0.0589949,-0.00805401,0.0942615,-0.0396194}
,
{0.126673,-0.112911,-0.0924137,0.217966,-0.0265663,0.045332}
,
{0.131587,-0.0500851,0.052786,-0.201008,0.0485281,0.150633}
,
{0.142924,-0.00994361,0.050665,0.0341588,0.205174,0.149847}
,
{-0.191146,0.0847894,0.0271449,-0.100503,0.0920023,0.0508849}
,
{-0.13448,-0.191861,-0.245072,-0.114093,-0.145726,0.0867902}
,
{0.0195645,0.0408592,0.0141997,0.157488,0.0414794,-0.240676}
,
{0.0337708,0.0620514,-0.130524,0.0908216,0.0546591,0.0813543}
,
{0.129592,0.0617342,-0.100298,0.0533994,-0.00980547,0.095373}
,
{-0.0396858,0.154658,0.0924561,-0.00437577,0.0167172,0.197951}
,
{-0.117038,0.0804752,-0.0780358,-0.200739,0.0598563,0.156226}
,
{-0.210609,-0.210122,-0.17838,0.195468,-0.102592,-0.0108463}
,
{-0.184599,-0.113829,-0.10499,-0.0890287,0.147302,-0.0986305}
,
{0.0824167,0.113378,0.101698,-0.0329481,0.0820832,-0.114198}
,
{-0.121602,-0.0859459,0.169612,-0.239122,0.0385248,-0.204196}
,
{-0.0154493,-0.192395,0.141781,-0.01282,-0.0101703,0.106563}
,
{-0.00381007,0.0749028,-0.0139668,-0.104872,0.190291,0.00790099}
,
{0.031292,0.200208,0.112266,0.0812609,0.0922752,0.0199478}
,
{-0.107735,0.16273,0.12484,0.179513,0.00521512,0.248381}
,
{0.149327,-0.00890258,0.104408,0.00651561,-0.0466767,0.174271}
,
{-0.0533328,0.062763,0.0465285,-0.0465649,0.088833,0.189068}
,
{-0.0432517,0.0149342,-0.193974,-0.14773,0.159999,0.0646351}
,
{-0.00515533,-0.00234497,-0.210538,0.0110728,-0.20206,-0.00734034}
,
{0.0409978,-0.215645,0.0831996,-0.0422174,-0.119644,0.0947279}
,
{-0.165722,-0.23223,0.0107867,0.131153,-0.199403,-0.0599246}
,
{-0.0490044,0.063738,-0.0645909,-0.156128,-0.102636,0.0564984}
,
{-0.0500574,-0.0925286,-0.0974822,-0.177344,0.0148939,-0.22596}
,
{0.0961059,0.118406,-0.15124,0.0179959,-0.015627,0.0213483}
,
{0.072529,0.0159178,0.0828459,-0.0247027,-0.0287399,-0.0209199}
,
{-0.0484513,0.109277,0.0725412,-0.00827848,0.209011,0.143053}
,
{0.124532,0.0717582,-0.0564174,0.0146343,-0.136192,0.0242395}
,
{-0.158862,0.0123301,-0.198285,-0.144738,0.00675455,0.00916667}
,
{-0.0716161,-0.0386158,-0.000112449,0.01687,0.13783,0.160297}
,
{0.152634,-0.100884,0.0785228,-0.177553,-0.0607608,-0.165718}
,
{-0.0515099,-0.0559112,-0.0992231,-0.0568736,-0.0222414,0.117458}
,
{-0.108048,0.0508373,0.137076,-0.182915,-0.0748217,-0.039781}
,
{0.016144,-0.117512,-0.218962,0.140077,-0.225648,0.0958491}
,
{-0.175708,-0.0365735,-0.0445337,0.125014,-0.121055,0.0193998}
,
{0.0231732,0.111073,0.112291,-0.169309,0.0166876,0.0888303}
,
{-0.085141,-0.00936842,0.14107,0.00951388,-0.116092,0.0675491}
,
{0.0634638,-0.0952532,0.0602747,0.0179006,0.0149637,0.0498958}
,
{-0.192519,-0.08301,0.0289745,-0.110967,-0.125867,-0.11383}
,
{-0.114001,0.0436966,-0.111429,0.0892318,-0.00660126,0.098572}
,
{0.0535978,-0.0552756,0.147266,0.0995855,-0.156006,0.0123756}
,
{-0.068659,-0.151813,0.0291816,0.141562,0.213581,0.206418}
,
{0.183939,-0.000350971,0.0148082,0.152284,0.19287,0.0539674}
,
{0.00636896,-0.043309,0.158048,-0.113537,0.0296475,0.0101789}
,
{-0.0620966,0.0811613,0.00944061,0.191761,0.0147545,-0.0699451}
 };
  static const float bias2[1] = { 0.0 };
  static const float weights2[][1] = { {0.0302262}
,
{0.0155813}
,
{-0.0296011}
,
{-0.153016}
,
{-0.146421}
,
{-0.209651}
 };
  always_assert(index < 1);
  float tmp[6];
  for (unsigned int i = 0; i < 6; i++) {
    float sum = 0.f;
    for (unsigned int j = 0; j < 79; j++) {
      sum += weights1[j][i] * vals_in[j];
    }
    sum += bias1[i];
    tmp[i] = sum > 0.f ? sum : 0.f; // RELU
  }
  float sum = 0.f;
  for (unsigned int j = 0; j < 6; j++) {
    sum += weights2[j][index] * tmp[j];
  }
  sum += bias2[index];
  return sum;
}
float specialized_gen_lepton_prior_1_2_9(const Sirikata::Array1d<int16_t, 79> &v,
                                int index) {
  return gen_lepton_prior_1_2_9(v, index);
}
static int assign_gen_lepton_prior_1_2_9() {
  global_gen_lepton_prior.at(1,2,9) = &specialized_gen_lepton_prior_1_2_9;
  return 0;
}
static int initialize_gen_lepton_prior_1_2_9 = assign_gen_lepton_prior_1_2_9();
#include "nn_framework.hh"

template<typename T> float gen_lepton_prior_1_0_5(const T & vals_in, int index) {
  static_assert(T::size0 >= 79,
     "array must be sized to hold at least 79");
  static const float bias1[6] = { 0.312135,0.28994,-0.154073,-0.397441,-0.189834,0.207817 };
  static const float weights1[][6] = { {0.159787,0.149832,0.21549,-0.219634,-0.397661,0.392436}
,
{-0.0780815,-0.0772232,-0.116398,-0.0545033,-0.0626125,0.0686478}
,
{-0.155581,-0.0714665,0.561624,0.227723,-0.0533189,0.0733276}
,
{0.670411,0.152305,0.26687,0.056545,-0.544025,0.376951}
,
{0.371354,0.28595,-0.253788,-0.325771,-0.22296,0.209176}
,
{0.176381,0.0779693,-0.129931,-0.500512,-0.315601,0.0205319}
,
{0.382129,0.111998,-0.229727,-0.682574,-0.146406,0.0982594}
,
{-0.0195011,0.102081,0.0541811,-0.15268,-0.00969388,0.0826447}
,
{-0.00916316,0.13123,0.0952675,-0.0446981,0.0513214,-0.177288}
,
{0.0197133,-0.0438285,-0.139196,-0.0785611,-0.0159132,0.0729682}
,
{0.114785,-0.0174549,0.0211244,-0.00464837,0.0324765,-0.0151794}
,
{0.0828171,0.19427,-0.395524,-0.344224,0.0419669,-0.0774881}
,
{0.245365,0.165668,-0.136483,-0.230848,-0.227512,-0.0897122}
,
{-0.1768,-0.0822577,0.214571,-0.0563096,-0.0739272,-0.0385069}
,
{0.0627152,-0.0207765,-0.0611635,-0.0576385,-0.018637,-0.0964602}
,
{-0.130603,-0.054727,-0.0543154,0.0274698,0.144808,-0.001665}
,
{0.496918,0.104529,0.186375,-0.0421051,-0.197713,0.355745}
,
{0.121194,-0.173532,-0.228691,-0.119865,-0.00928797,0.000850759}
,
{0.208324,0.00336534,0.172835,-0.468376,0.183959,-0.0766522}
,
{0.0189631,0.0801844,0.138087,-0.192127,0.222574,0.00907294}
,
{0.0628426,0.0340551,-0.348745,0.033014,0.169625,0.0615651}
,
{-0.0776369,-0.115821,-0.147512,-0.295315,-0.0891403,0.0865638}
,
{-0.0622117,0.11583,-0.0050484,-0.0970414,0.117695,-0.0568457}
,
{-0.00329122,0.0783424,-0.0789232,-0.1503,0.137007,0.149308}
,
{-0.083956,0.124727,-0.11694,-0.0505104,-0.10607,0.0680575}
,
{0.0904167,-0.192603,0.0103376,-0.00360576,-0.0880572,-0.266449}
,
{0.0518494,0.0720195,0.00157079,0.0627278,0.210901,0.0621466}
,
{0.230867,-0.207826,-0.0251052,-0.103669,-0.0996886,-0.262497}
,
{-0.0133658,0.214886,-0.0891266,0.240427,0.124579,0.269612}
,
{0.150658,-0.0130343,0.00531251,-0.0242142,-0.127927,0.17426}
,
{0.000101113,-0.00922339,0.0684095,0.0507116,0.0341193,0.0777388}
,
{-0.0163092,0.00514735,-0.117143,-0.210544,-0.108019,0.15766}
,
{-0.0876046,-0.158868,0.0412678,-0.102045,-0.144049,-0.0877024}
,
{0.0335836,0.0485874,0.126921,-0.116751,0.115616,-0.19468}
,
{0.00089967,0.0137091,0.110622,-0.0743594,-0.0018584,-0.035005}
,
{-0.0123362,-0.145276,0.1467,0.181447,0.0175106,0.217001}
,
{-0.00830804,-0.0343314,0.489769,-0.134111,-0.0146726,0.048487}
,
{0.187289,-0.136636,0.0389246,-0.0381192,0.00340967,-0.0873048}
,
{0.115377,-0.0303676,0.394247,0.00247563,-0.0154861,-0.097517}
,
{0.188695,0.15275,0.0311955,-0.000601977,0.2426,-0.0366742}
,
{-0.0441527,-0.00990403,-0.0898038,0.113447,-0.109979,-0.133755}
,
{0.0439126,0.0823224,0.156155,0.187431,0.0740119,0.00116734}
,
{0.086573,-0.209439,-0.0837567,0.19805,-0.0688223,-0.0283148}
,
{0.0520764,0.115253,-0.200723,0.0476637,0.258956,0.213081}
,
{0.0658038,-0.0951952,-0.125986,0.16273,-0.0295872,-0.0414508}
,
{-0.05706,0.0437981,-0.00447032,-0.181173,-0.00720923,0.0141083}
,
{0.0315373,-0.0643244,-0.0313656,-0.0737449,0.0944522,0.211117}
,
{0.0671141,0.11059,0.115991,-0.0836347,0.112898,-0.0186722}
,
{0.00868364,-0.0131795,-0.390439,0.122435,-0.0332315,-0.147163}
,
{-0.0227056,0.0566721,0.12259,0.14085,0.00276237,-0.0159612}
,
{0.00696822,-0.0075172,-0.11676,-0.134052,-0.0329963,-0.0715629}
,
{0.0290957,0.109274,0.232276,0.0234219,0.043231,-0.127471}
,
{-0.0467491,0.0259803,-0.151444,-0.0661863,0.0456156,0.0963769}
,
{-0.190998,-0.00366645,-0.270538,0.181889,-0.0712171,0.141448}
,
{0.269008,0.208838,-0.0759788,0.00947815,0.38391,-0.303032}
,
{-0.0371796,0.0467446,0.0151935,0.00676005,-0.0859125,-0.122223}
,
{-0.0579632,0.119983,-0.918893,-0.405513,0.210111,-0.823363}
,
{-0.416402,-1.10981,-0.363144,0.368029,-0.346542,0.310034}
,
{0.0153388,-0.631833,0.339327,-0.181116,0.274285,0.4164}
,
{-0.0489933,0.166434,-0.170231,0.104171,0.209636,0.0384069}
,
{0.0883285,-0.35114,-0.0671405,-0.191323,0.112293,-0.0468775}
,
{0.00670587,0.636673,0.644515,0.532365,-0.241514,0.216706}
,
{0.266868,-0.108693,0.221849,0.730192,-0.555086,0.2168}
,
{-0.123901,0.219316,-0.213602,0.0738901,-0.141861,-0.612823}
,
{0.436663,-0.465916,0.236877,0.361836,0.158621,-0.449722}
,
{-0.042667,0.167134,0.0179342,0.131746,-0.0847443,-0.140548}
,
{-0.0957179,-1.05255,0.259694,0.197949,0.283091,-0.798564}
,
{-0.0151899,-0.561085,-0.297523,0.289064,0.183979,0.0768087}
,
{-0.0334994,-0.220832,-0.0779285,-0.0163137,0.29761,-0.599356}
,
{-0.220541,0.00531381,-0.106324,0.138242,-0.319948,-0.299197}
,
{0.0431406,-0.0787104,0.103591,-0.0517091,0.145808,0.350544}
,
{-0.473658,0.603596,-0.375994,-0.861562,0.60254,-0.903737}
,
{0.668861,0.511812,0.8069,0.100279,1.02518,0.0174687}
,
{-0.140246,1.15884,0.138704,0.112953,0.293856,-0.431909}
,
{0.15618,-1.08861,-0.282936,-0.0491238,-0.979224,1.10614}
,
{0.0521641,-0.251054,0.0498335,-0.0897873,0.27678,0.0899089}
,
{0.123376,0.0904798,0.106133,-0.0549994,0.0425908,0.16525}
,
{-0.25779,-0.407425,0.158456,0.266842,-0.0174744,0.00662312}
,
{-1.35406,-0.751281,-0.10336,-0.0757776,-0.371335,0.150173}
 };
  static const float bias2[1] = { 0.252792 };
  static const float weights2[][1] = { {0.0704775}
,
{0.0608206}
,
{-0.400791}
,
{-0.62439}
,
{-0.0912224}
,
{0.0524985}
 };
  always_assert(index < 1);
  float tmp[6];
  for (unsigned int i = 0; i < 6; i++) {
    float sum = 0.f;
    for (unsigned int j = 0; j < 79; j++) {
      sum += weights1[j][i] * vals_in[j];
    }
    sum += bias1[i];
    tmp[i] = sum > 0.f ? sum : 0.f; // RELU
  }
  float sum = 0.f;
  for (unsigned int j = 0; j < 6; j++) {
    sum += weights2[j][index] * tmp[j];
  }
  sum += bias2[index];
  return sum;
}
float specialized_gen_lepton_prior_1_0_5(const Sirikata::Array1d<int16_t, 79> &v,
                                int index) {
  return gen_lepton_prior_1_0_5(v, index);
}
static int assign_gen_lepton_prior_1_0_5() {
  global_gen_lepton_prior.at(1,0,5) = &specialized_gen_lepton_prior_1_0_5;
  return 0;
}
static int initialize_gen_lepton_prior_1_0_5 = assign_gen_lepton_prior_1_0_5();
#include "nn_framework.hh"

template<typename T> float gen_lepton_prior_1_0_6(const T & vals_in, int index) {
  static_assert(T::size0 >= 79,
     "array must be sized to hold at least 79");
  static const float bias1[6] = { -0.120726,-0.149737,0.255673,0.33137,0.148582,-0.266284 };
  static const float weights1[][6] = { {-0.0952136,-0.0376719,0.0361741,-0.00536994,-0.252327,0.0306943}
,
{-0.0668745,0.132738,-0.0722002,0.0288763,0.116741,0.452075}
,
{0.00419895,0.0538718,-0.0198163,0.142635,0.0529414,-0.720059}
,
{-0.3449,-0.103304,-0.0053338,0.388566,-0.0182052,-0.915644}
,
{-0.214178,-0.0796464,0.276648,0.165024,0.258244,-0.19149}
,
{0.122128,-0.128901,0.354043,0.312981,0.101567,-0.0318815}
,
{-0.0194047,-0.0888921,0.238281,0.423848,-0.0538262,-0.0187567}
,
{-0.201622,-0.0749739,-0.113785,-0.116631,0.17212,0.064212}
,
{-0.214431,0.142207,-0.374965,0.0144316,0.180449,-0.202771}
,
{-0.0768025,0.145038,-0.157371,-0.132059,-0.137714,0.0146179}
,
{0.0542145,-0.0200579,-0.0507368,0.000838032,-0.0747297,-0.0188082}
,
{0.112579,-0.0067546,0.0475936,-0.453448,0.126127,0.0716118}
,
{0.185753,0.0396215,0.23795,0.111675,0.0814392,-0.275721}
,
{-0.168242,0.336494,-0.0498386,0.310867,0.184934,-0.291126}
,
{-0.0203428,0.0702294,-0.100662,-0.0677642,-0.19682,0.0634119}
,
{-0.103164,0.139719,-0.140961,-0.0308919,0.037122,-0.138159}
,
{-0.0758493,-0.384537,0.218453,-0.481087,-0.0577337,0.238096}
,
{0.0882525,-0.0323537,0.0729062,-0.0251444,-0.100887,0.103308}
,
{0.144939,0.0828622,0.317711,0.355764,-0.113209,0.395673}
,
{0.0529746,0.0268171,0.0134182,-0.0750581,-0.000831916,-0.271331}
,
{0.0556404,0.170753,0.0603831,0.00040034,0.132085,-0.0703645}
,
{0.0102475,0.0756508,-0.0342689,0.0565122,0.115502,0.0241672}
,
{0.151852,-0.195773,-0.172877,0.156883,-0.167488,-0.0453105}
,
{-0.0664992,0.00129776,-0.0668118,-0.0444492,0.00611037,-0.0293336}
,
{0.0551457,0.236138,-0.184273,0.0738316,-0.0864228,-0.21461}
,
{0.0489825,0.0210895,-0.119286,0.0748314,-0.141494,-0.165274}
,
{0.0408377,0.0323873,-0.0699757,0.186908,-0.126965,-0.057579}
,
{-0.0654351,-0.062771,-0.0672613,-0.105333,-0.0370889,-0.132227}
,
{0.165063,-0.126072,-0.15455,-0.0680749,0.0954324,0.0254052}
,
{0.181909,-0.0311623,0.0165701,0.150049,-0.0368584,-0.0634485}
,
{0.0561114,0.0527491,0.154842,0.0694139,-0.0237592,-0.602673}
,
{-0.00379211,0.0960096,-0.0337513,-0.166946,0.102316,0.107459}
,
{-0.175883,0.0347646,0.17557,0.18044,-0.0718205,0.0676922}
,
{0.0505047,-0.026017,0.00355144,-0.109152,-0.154087,-0.035343}
,
{-0.0749351,-0.0172603,-0.234031,-0.108614,0.0689737,0.0234677}
,
{0.205943,0.0755526,0.269625,-0.0125059,-0.000395666,0.0586101}
,
{0.147332,-0.308281,-0.268343,-0.0034315,-0.067734,0.700783}
,
{-0.0696359,0.0790489,0.161024,0.0973164,-0.0634006,0.163238}
,
{-0.224572,0.120626,-0.0290902,0.215555,-0.00192007,0.0874152}
,
{-0.0381537,-0.000420224,0.085617,0.0260778,-0.0453005,-0.0762932}
,
{-0.107025,-0.0697916,-0.29311,-0.0304603,0.0623143,0.0529185}
,
{0.0188671,0.0857725,-0.244587,-0.157841,0.224384,-0.411725}
,
{0.0269125,-0.000762246,0.0442453,0.200174,-0.0303989,-0.0476011}
,
{-0.0689481,0.0337962,0.147262,-0.119096,-0.135456,0.0578491}
,
{-0.103455,-0.0174477,-0.0542352,-0.0395005,-0.0240905,-0.179506}
,
{-0.257664,0.0752566,0.0229954,-0.0621675,-0.0656413,0.227526}
,
{0.0892109,-0.0339382,0.312846,0.203913,-0.104897,0.168358}
,
{0.0262384,-0.0914579,-0.146264,-0.0977874,-0.012173,0.0795065}
,
{-0.381893,-0.00498023,-0.280792,-0.160364,-0.0541951,0.45103}
,
{-0.135686,0.0508484,0.19859,-0.0292514,-0.109725,-0.353437}
,
{-0.0412941,0.0363497,0.0225768,-0.0113688,0.000985686,0.04851}
,
{-0.199956,-0.178287,-0.325135,-0.300487,-0.0817118,-0.432775}
,
{-0.0492939,0.00124024,0.143943,0.199293,-0.136207,0.143178}
,
{0.00121141,-0.109568,-0.255432,0.0666667,0.0248002,-0.456364}
,
{0.138216,-0.0942553,-0.0373578,-0.177675,0.208973,-0.192606}
,
{0.0189278,-0.114265,0.161191,-0.146569,-0.0605915,-0.0651331}
,
{0.358942,-0.101751,-0.0691589,-0.113639,0.212869,-0.12796}
,
{0.129653,0.0859438,-0.00691685,0.155413,0.108995,0.0272486}
,
{0.179919,0.0957911,-0.0846413,-0.26526,0.0910937,-0.230329}
,
{-0.110991,-0.13786,0.0815282,-0.0828527,-0.00258299,-0.0797468}
,
{0.149775,0.0163459,0.191466,0.0502554,-0.09259,0.0614536}
,
{-0.0560971,0.0644238,-0.0594715,0.220375,0.0225467,-0.0354234}
,
{-0.0787255,-0.0955681,0.017223,0.103161,-0.0961796,0.0260641}
,
{-0.0962267,0.0389141,-0.0937024,-0.214414,0.116145,0.0898702}
,
{-0.279726,-0.0268014,0.103099,0.0982682,0.194141,0.0945703}
,
{0.00315739,-0.0190929,0.0172783,0.025277,-0.0088447,0.115287}
,
{0.224576,0.106261,0.0401589,0.00560398,0.107725,0.147184}
,
{0.08082,-0.054071,-0.0647647,-0.222942,0.00404956,0.0282575}
,
{-0.251698,0.00638217,-0.0443854,-0.125293,0.0695131,0.248801}
,
{0.167332,0.156122,-0.115797,0.12327,0.0544403,0.0703119}
,
{-0.109856,0.0319374,-0.0127122,0.0425928,-0.0822369,0.1356}
,
{-0.123523,-0.00827993,-0.098819,-0.0218072,0.124546,0.0476001}
,
{0.0794493,-0.0795625,-0.0391014,-0.129357,0.00982776,-0.131608}
,
{-0.0595095,-0.0493549,-0.0543996,-0.137925,0.129245,-0.00037851}
,
{0.143844,0.0211154,0.0710367,0.115832,0.172895,0.145017}
,
{-0.230331,0.0603345,-0.000184684,0.159776,-0.0366453,-0.171848}
,
{-0.152784,-0.0570968,-0.00781664,-0.0423589,0.183964,-0.138355}
,
{-0.116267,-0.0705614,0.17108,0.0526442,-0.032231,-0.0194454}
,
{0.0462873,-0.10522,0.100859,-0.224533,-0.162436,-0.0760487}
 };
  static const float bias2[1] = { 0.190264 };
  static const float weights2[][1] = { {-0.0650517}
,
{-0.128284}
,
{0.0779013}
,
{-0.109859}
,
{0.118962}
,
{0.399026}
 };
  always_assert(index < 1);
  float tmp[6];
  for (unsigned int i = 0; i < 6; i++) {
    float sum = 0.f;
    for (unsigned int j = 0; j < 79; j++) {
      sum += weights1[j][i] * vals_in[j];
    }
    sum += bias1[i];
    tmp[i] = sum > 0.f ? sum : 0.f; // RELU
  }
  float sum = 0.f;
  for (unsigned int j = 0; j < 6; j++) {
    sum += weights2[j][index] * tmp[j];
  }
  sum += bias2[index];
  return sum;
}
float specialized_gen_lepton_prior_1_0_6(const Sirikata::Array1d<int16_t, 79> &v,
                                int index) {
  return gen_lepton_prior_1_0_6(v, index);
}
static int assign_gen_lepton_prior_1_0_6() {
  global_gen_lepton_prior.at(1,0,6) = &specialized_gen_lepton_prior_1_0_6;
  return 0;
}
static int initialize_gen_lepton_prior_1_0_6 = assign_gen_lepton_prior_1_0_6();
#include "nn_framework.hh"

template<typename T> float gen_lepton_prior_1_0_7(const T & vals_in, int index) {
  static_assert(T::size0 >= 79,
     "array must be sized to hold at least 79");
  static const float bias1[6] = { -0.0787262,0.0451947,-0.124337,0.156475,0.154221,0.155411 };
  static const float weights1[][6] = { {0.0363908,0.230668,0.20121,0.00498514,0.191926,0.196035}
,
{-0.0387768,0.0433928,0.39931,-0.0358136,0.0698347,-0.0781211}
,
{0.0650358,-0.384019,0.141522,0.101309,0.0219585,-0.0584072}
,
{-0.107129,0.050252,-0.140211,0.155643,0.427942,0.380514}
,
{0.0291747,-0.0233225,-0.264571,0.250868,-0.0598375,0.207359}
,
{-0.0488618,0.131886,-0.0296262,0.158184,-0.0994888,0.101002}
,
{-0.10609,0.0246125,-0.0729151,0.144167,0.13094,0.166699}
,
{0.0159498,-0.153375,0.0363033,0.0789846,-0.0139706,-0.00240797}
,
{0.100354,-0.145182,-0.319652,0.013969,0.25347,-0.0373537}
,
{-0.0986354,-0.00735057,-0.0107482,-0.0412765,-0.0406441,0.0193692}
,
{-0.00410074,0.0718071,-0.0666623,0.103213,0.130282,0.0698637}
,
{-0.12724,0.0270266,-0.0692621,-0.101463,0.112932,0.108417}
,
{0.0807626,-0.0122047,-0.0817405,-0.113864,0.231719,0.0772032}
,
{0.0672715,0.101473,-0.0943859,-0.0875168,-0.0738754,0.0972045}
,
{-0.110808,0.202059,-0.085655,0.014497,0.0418486,0.0908323}
,
{0.109906,0.0568051,0.000214856,0.03502,0.164967,-0.00388836}
,
{-0.404634,0.0554523,0.0892727,0.357226,0.14463,0.377605}
,
{0.0656371,-0.42057,-0.20654,-0.0165129,-0.158598,0.105822}
,
{0.0154584,0.14073,-0.175333,0.122909,0.164588,0.0817712}
,
{0.0782355,-0.16028,0.160683,-0.0333379,-0.0985777,0.0471118}
,
{-0.00653699,-0.254179,0.0150393,-0.0016105,-0.082201,-0.0500644}
,
{0.194103,0.00485668,-0.181412,0.104722,-0.0470072,-0.0268899}
,
{-0.169055,0.115333,0.147691,-0.0318834,-0.0811016,0.0259754}
,
{0.0614196,-0.0385663,-0.0828187,-0.038258,0.0871046,0.0764681}
,
{0.0932266,0.262416,-0.143262,0.0910684,-0.0957952,-0.316892}
,
{0.0123139,0.0422179,-0.0932466,-0.206377,-0.149899,0.12516}
,
{-0.0528774,0.257447,0.0166452,0.0923298,-0.0248513,0.134596}
,
{0.163236,0.0821075,0.0451484,-0.1349,-0.132816,0.203083}
,
{-0.265637,-0.0731379,0.0165465,-0.07804,0.227879,0.425329}
,
{-0.0452492,0.0907556,-0.0518062,-0.0349311,-0.097862,0.0644039}
,
{0.0872494,-0.165685,-0.0663035,-0.0415761,-0.112471,0.170841}
,
{0.0578805,0.151637,-0.190345,0.140059,-0.16755,0.0783068}
,
{0.0295248,0.262516,-0.121269,-0.111223,0.0883709,0.213258}
,
{0.133687,-0.103399,-0.0979702,-0.170683,0.219627,0.0572168}
,
{-0.224736,0.560297,0.186687,-0.0497183,-0.281355,0.00652804}
,
{-0.152912,0.131877,0.254136,-0.0471186,-0.0466856,-0.0460503}
,
{-0.145111,0.221697,-0.24112,-0.0941486,0.303654,0.0191516}
,
{-0.0107183,0.204193,-0.128249,0.121356,-0.315584,-0.101388}
,
{0.263445,-0.0159015,0.142819,-0.0234622,0.631903,0.0341875}
,
{-0.0888041,-0.343872,0.242361,-0.107518,-0.1552,0.142767}
,
{0.101507,-0.240922,-0.0825414,0.0233763,0.0228032,0.0393034}
,
{-0.0484566,-0.714154,0.197802,-0.0790156,0.273324,-0.0104983}
,
{-0.00681405,-0.0368735,0.247657,-0.0169971,-0.0530506,0.0450338}
,
{0.108951,-0.0367228,-0.044423,0.167227,0.186874,-0.248572}
,
{0.0582733,0.11828,0.188252,0.128503,-0.0971284,-0.111293}
,
{-0.0271725,-0.0248101,0.0576362,0.0176546,-0.171342,0.00503702}
,
{0.106487,0.234655,-0.570954,0.118731,0.0170765,-0.119108}
,
{0.00329494,0.0534233,0.108621,-0.0929802,-0.138056,0.191411}
,
{-0.00102802,0.122824,-0.0115335,0.0407019,-0.178158,-0.0759032}
,
{0.152286,-0.0325285,-0.11187,0.144333,-0.167921,-0.0310322}
,
{-0.0669789,-0.150414,0.0876724,-0.152518,0.105905,0.124605}
,
{-0.0331882,0.451326,0.375109,-0.0868711,-0.420602,0.222547}
,
{-0.0513403,-0.0421762,0.196661,0.0524047,-0.210611,-0.0597048}
,
{-0.0472905,0.115977,-0.194811,-0.0570878,-0.304015,0.110744}
,
{0.0904175,-0.0213079,0.0479791,0.122776,-0.115958,-0.0548524}
,
{0.152744,0.11952,-0.0242103,-0.0158223,-0.0796311,0.156374}
,
{-0.0420273,-0.0661887,-0.0116731,-0.212682,0.0907618,-0.632477}
,
{-0.266917,0.0725829,0.063205,-0.0330393,0.0727759,0.390781}
,
{0.274526,0.016123,-0.0437902,-0.0659742,-0.181012,-0.582239}
,
{0.0795257,0.0577345,-0.154553,0.0484995,-0.0968398,0.424627}
,
{0.208369,0.167849,-0.0661761,0.151612,0.0283346,0.0643646}
,
{0.491811,0.156921,0.178953,-0.0537998,0.0174251,-0.292562}
,
{0.0636037,0.0186565,0.0623256,0.184045,-0.136035,0.0849085}
,
{0.125294,0.0882093,0.0739579,-0.319894,0.0831355,-0.807395}
,
{-0.209297,0.0817605,-0.236143,-0.185203,-0.0792026,-0.00574757}
,
{-0.0604436,0.255692,0.0623866,0.135662,0.0247445,0.181151}
,
{-0.0259757,-0.0131882,0.000167179,-0.331528,0.066424,0.0960998}
,
{0.123079,-0.0537392,0.0419859,0.282994,-0.00300272,0.0989855}
,
{-0.28975,-0.0905215,-0.171676,0.016352,-0.0217124,0.526563}
,
{0.333488,-0.0314287,0.170648,0.091766,-0.0510338,-0.31855}
,
{-0.0454461,0.157426,0.152373,0.140727,-0.0508158,0.0717323}
,
{0.354802,0.199621,-0.255958,0.0766276,0.111189,0.126879}
,
{-0.248589,0.197862,-0.000999737,-0.0324467,0.0581813,-0.395289}
,
{0.053311,-0.18665,-0.150759,-0.294251,0.00831409,0.133593}
,
{-0.0508057,-0.309798,-0.0552549,-0.142706,0.135385,0.672066}
,
{0.200731,-0.0290348,-0.0356115,-0.0555229,-0.0907408,-0.256856}
,
{-0.123526,0.0874385,0.0765182,0.0497827,4.61204e-05,-0.160316}
,
{0.0215688,0.130049,-0.11219,0.159683,-0.00482657,0.317851}
,
{-0.127354,-0.0433099,-0.124986,0.116024,-0.122643,0.0711333}
 };
  static const float bias2[1] = { 0.139051 };
  static const float weights2[][1] = { {-0.0657993}
,
{-0.58868}
,
{0.0887519}
,
{0.130391}
,
{0.0429687}
,
{0.077804}
 };
  always_assert(index < 1);
  float tmp[6];
  for (unsigned int i = 0; i < 6; i++) {
    float sum = 0.f;
    for (unsigned int j = 0; j < 79; j++) {
      sum += weights1[j][i] * vals_in[j];
    }
    sum += bias1[i];
    tmp[i] = sum > 0.f ? sum : 0.f; // RELU
  }
  float sum = 0.f;
  for (unsigned int j = 0; j < 6; j++) {
    sum += weights2[j][index] * tmp[j];
  }
  sum += bias2[index];
  return sum;
}
float specialized_gen_lepton_prior_1_0_7(const Sirikata::Array1d<int16_t, 79> &v,
                                int index) {
  return gen_lepton_prior_1_0_7(v, index);
}
static int assign_gen_lepton_prior_1_0_7() {
  global_gen_lepton_prior.at(1,0,7) = &specialized_gen_lepton_prior_1_0_7;
  return 0;
}
static int initialize_gen_lepton_prior_1_0_7 = assign_gen_lepton_prior_1_0_7();
#include "nn_framework.hh"

template<typename T> float gen_lepton_prior_1_3_0(const T & vals_in, int index) {
  static_assert(T::size0 >= 79,
     "array must be sized to hold at least 79");
  static const float bias1[6] = { -0.082239,-0.118837,0.0219407,0.0416492,-0.141097,-0.0590275 };
  static const float weights1[][6] = { {0.107216,-0.0386461,-0.206346,0.0520534,-0.152389,-0.0847312}
,
{-0.100194,-0.3545,0.14581,0.43193,-0.425037,-0.293594}
,
{-0.281876,0.415929,-0.337481,0.145058,0.117427,0.0340744}
,
{0.565241,-0.533924,0.55354,1.50023,0.517866,0.746749}
,
{0.0808913,0.0447807,0.0678955,-0.00325608,-0.157581,0.138521}
,
{-0.0486833,-0.0541486,-0.180591,-0.126654,-0.217234,-0.373224}
,
{-0.234331,-0.0424383,-0.089591,-0.0178424,-0.24684,-0.260991}
,
{0.0290026,-0.149074,-0.0520245,-0.163883,0.0558241,0.0224071}
,
{0.424163,0.321302,0.599068,-0.0757532,-0.00098282,0.590607}
,
{0.0180752,-0.0185937,0.167038,0.0549374,-0.0602136,0.1957}
,
{0.00695986,0.105545,0.193926,-0.210212,-0.0944981,-0.0812085}
,
{0.181948,-0.0200043,0.164106,0.0346654,0.0802269,0.170981}
,
{-0.101216,-0.0755482,0.0073935,-0.0747381,-0.0235829,-0.234246}
,
{0.064605,-0.156653,0.164696,0.102897,-0.0287346,0.0904881}
,
{-0.112149,-0.0114026,0.00923706,-0.0717094,-0.131913,-0.190636}
,
{-0.0798873,0.185186,0.153796,0.0146581,-0.0107556,0.0694944}
,
{0.277964,0.0910133,0.453274,-0.214586,-0.0862627,0.376934}
,
{0.0459274,0.0199018,-0.0342518,0.10238,-0.119075,-0.178996}
,
{-0.471283,-0.0539531,-1.07059,0.2279,-0.567047,-0.597121}
,
{0.067921,-0.170001,0.17416,-0.285282,-0.0398087,-0.12498}
,
{0.00111081,-0.13186,0.0688942,-0.109865,-0.257591,0.0521263}
,
{-0.11549,0.18561,0.0851728,-0.0375405,-0.0219968,-0.0738829}
,
{0.0511429,-0.0304726,0.237678,0.201854,0.153618,-0.0231777}
,
{0.0172419,0.1174,-0.0210723,-0.163829,0.154755,0.0790779}
,
{-0.152398,-0.128814,-0.199667,-0.0392569,0.039882,-0.117387}
,
{-0.371708,0.16832,0.112745,0.578257,0.325589,0.0187885}
,
{0.152389,0.0279493,-0.0678815,-0.0039029,0.0635314,-0.235071}
,
{0.185984,-0.340409,-0.128323,-0.218386,0.0947878,-0.303755}
,
{0.452346,0.377909,0.840148,0.0736621,-0.258261,0.74267}
,
{0.137198,0.203758,-0.111541,-0.0151841,-0.040449,0.152232}
,
{0.00770569,-0.164173,-0.183817,0.000337896,-0.0392364,0.13862}
,
{-0.0127305,0.144649,0.061952,0.0808904,0.017984,-0.146448}
,
{-0.0160444,-0.152686,0.235874,-0.0430443,-0.10271,0.0216599}
,
{-0.212877,-0.0689253,-0.0734249,0.015626,-0.0467461,0.0922872}
,
{-0.0804233,0.179742,-0.0585929,-0.115986,-0.161176,0.0443784}
,
{-0.0306651,-0.0518561,0.0342355,0.0187649,0.0418971,0.010339}
,
{-0.230949,0.0448895,0.0893746,0.0399638,0.0910875,0.0501841}
,
{0.0643744,-0.0148903,0.0376424,-0.00517264,0.0552381,-0.129656}
,
{0.162873,0.180022,-0.0421395,0.115708,-0.199613,-0.286694}
,
{-0.093567,0.0591159,0.113744,0.245838,0.184661,-0.0200219}
,
{-0.0466674,-0.0430882,0.0489421,0.0252162,0.099058,0.00232546}
,
{-0.220648,-0.0191746,0.0128297,-0.00215324,-0.0389163,0.177115}
,
{-0.0125893,0.00540171,0.0287306,0.0904837,-0.0613206,-0.0762836}
,
{-0.0549463,-0.0421369,0.0108028,-0.140754,-0.0362022,0.0487285}
,
{-0.095576,0.112888,0.16729,0.259162,-0.0180453,-0.26574}
,
{0.0621872,0.0120961,-0.0688552,-0.0599483,-0.098747,0.00620211}
,
{0.0641751,0.123162,-0.191368,0.0802387,-0.407378,0.0458162}
,
{-0.0474004,0.0160149,-0.0383271,0.0288947,-0.0187798,0.126382}
,
{0.0281323,0.0369572,-0.0423264,-0.00185443,-0.0125536,0.0227064}
,
{-0.00331654,-0.0113483,0.0661862,0.0595519,0.00986067,-0.0756903}
,
{-0.00775065,-0.00619925,0.038987,0.105437,0.00843363,-0.0339491}
,
{-0.20265,0.0265219,0.0697928,0.103563,-0.0803345,0.0988884}
,
{0.0124754,-5.38701e-05,-0.0204084,-0.0431117,0.00388262,0.0318225}
,
{0.12115,0.0935504,-0.056423,-0.0332678,0.0179685,0.0027238}
,
{0.271184,-0.137809,-0.12566,0.296088,0.0981397,0.153134}
,
{0.359595,-0.237033,-0.0486913,0.0510441,0.110738,-0.133525}
,
{-0.0353605,-0.208377,-0.100108,0.254857,-0.113723,0.46212}
,
{1.37591,-0.466061,0.058244,-0.62267,-0.952947,0.413796}
,
{0.02319,-0.193977,-0.0726082,0.0314231,-0.402918,-0.0499225}
,
{0.289616,-0.203716,-0.304495,-0.274425,0.0490644,-0.151631}
,
{-0.115219,0.305693,0.0424411,0.0651036,0.0627223,0.127996}
,
{-0.0651969,0.243011,0.104761,0.477847,0.172004,0.339328}
,
{0.485759,-0.954008,-0.287968,0.454203,-0.116235,0.675717}
,
{0.0766663,0.392394,-0.0655561,0.356098,0.465439,0.262176}
,
{0.0951234,-0.0968928,0.20579,0.263265,-0.235909,0.191746}
,
{-0.0201586,0.0184283,0.0895071,0.0389714,0.057712,-0.142466}
,
{0.00431274,-0.101689,-0.0654681,-0.0407085,0.341334,0.517679}
,
{-0.49891,-1.44523,1.14305,0.208162,-0.165921,-0.870026}
,
{0.115405,0.01486,0.0359322,-0.175373,-0.0177787,-0.444977}
,
{-0.0609798,0.172982,0.0648501,0.00879316,0.140157,-0.0387993}
,
{0.258911,-0.0105909,-0.0756021,0.116275,0.0279691,0.0968222}
,
{0.429738,-0.0191994,-0.388057,-0.31782,-0.0371327,-0.0555411}
,
{0.00924187,0.147012,0.968341,-0.137915,-0.430168,0.800915}
,
{-0.0706935,-0.193102,0.36636,-0.054554,-0.249071,-0.496697}
,
{-0.117551,-0.101055,-0.965184,-0.564597,0.0809288,1.61134}
,
{0.0128316,-0.174804,-0.244304,-0.489037,0.176146,0.0938464}
,
{0.560917,0.74068,-0.558566,-0.102573,-0.420204,-0.832671}
,
{-0.0132167,0.0791065,-0.237718,-0.226725,0.237823,0.0526258}
,
{1.1852,-0.561007,-0.480783,0.0749983,0.195237,0.545132}
 };
  static const float bias2[1] = { -0.0105534 };
  static const float weights2[][1] = { {0.0234811}
,
{0.0225175}
,
{0.0367844}
,
{-0.0335413}
,
{-0.0208761}
,
{0.0224676}
 };
  always_assert(index < 1);
  float tmp[6];
  for (unsigned int i = 0; i < 6; i++) {
    float sum = 0.f;
    for (unsigned int j = 0; j < 79; j++) {
      sum += weights1[j][i] * vals_in[j];
    }
    sum += bias1[i];
    tmp[i] = sum > 0.f ? sum : 0.f; // RELU
  }
  float sum = 0.f;
  for (unsigned int j = 0; j < 6; j++) {
    sum += weights2[j][index] * tmp[j];
  }
  sum += bias2[index];
  return sum;
}
float specialized_gen_lepton_prior_1_3_0(const Sirikata::Array1d<int16_t, 79> &v,
                                int index) {
  return gen_lepton_prior_1_3_0(v, index);
}
static int assign_gen_lepton_prior_1_3_0() {
  global_gen_lepton_prior.at(1,3,0) = &specialized_gen_lepton_prior_1_3_0;
  return 0;
}
static int initialize_gen_lepton_prior_1_3_0 = assign_gen_lepton_prior_1_3_0();
#include "nn_framework.hh"

template<typename T> float gen_lepton_prior_1_3_1(const T & vals_in, int index) {
  static_assert(T::size0 >= 79,
     "array must be sized to hold at least 79");
  static const float bias1[6] = { -0.0289982,-0.296919,0.0541517,-0.171841,-0.140367,-0.0586379 };
  static const float weights1[][6] = { {-0.163487,0.230744,0.0455456,-0.0754321,-0.24405,-0.485016}
,
{-0.0391167,0.0912171,-0.079354,-0.156921,-0.127451,0.0096428}
,
{0.186482,-0.617118,-0.26342,-0.113905,0.0877264,0.239435}
,
{-0.0299305,-0.721243,0.706755,-1.52038,0.12925,0.462047}
,
{0.2077,-0.486138,0.0996076,-0.164539,-0.186148,0.132361}
,
{-0.0745367,-0.219948,-0.0722075,-0.098597,-0.0416094,-0.347567}
,
{-0.267267,-0.236291,-0.0299433,-0.0186816,0.0240121,-0.00199335}
,
{-0.00747701,-0.0911507,-0.0306705,-0.0390765,-0.205675,0.0502168}
,
{0.0604669,-0.295866,0.156064,-0.154439,-0.10889,0.0605507}
,
{0.0139649,0.0740464,0.119011,0.0487705,0.109732,0.0966769}
,
{0.0224601,-0.0476515,0.0948837,-0.0498968,-0.0290831,-0.0883629}
,
{0.0181472,0.0608459,0.257593,0.198428,-0.249015,0.066326}
,
{0.145529,-0.400075,-0.110516,-0.0431555,-0.220324,-0.1946}
,
{-0.0453412,-0.286005,-0.110471,-0.0863209,-0.166873,0.0119525}
,
{0.0198956,0.0507589,-0.0835274,0.0303396,-0.0223578,-0.0148859}
,
{0.0433301,-0.0588486,0.128224,-0.0936673,0.106183,0.0729675}
,
{0.0119467,-0.0700517,-0.155855,0.0194791,0.00480995,0.149087}
,
{0.159315,0.0956667,-0.226829,-0.104019,-0.0484571,0.121352}
,
{0.0474206,-0.67872,-0.0660024,0.114276,-0.152915,-0.467774}
,
{-0.0124086,0.166525,-0.0427837,-0.120158,-0.294664,0.300223}
,
{-0.187501,0.091181,0.0507315,-0.00221666,0.0377801,0.0830066}
,
{-0.0117526,-0.00298859,-0.0130612,0.00648705,-0.160117,0.0142681}
,
{0.128733,0.13446,0.204344,0.0878741,-0.203651,-0.104196}
,
{-0.139676,-0.0681405,0.102231,-0.041447,-0.317336,-0.0305632}
,
{-0.0186366,-0.0737944,0.00464069,-0.0700752,-0.123001,-0.233547}
,
{-0.0438091,0.123044,-0.127537,-0.0965785,0.0683975,0.120613}
,
{-0.152771,0.164457,-0.205041,-0.15981,-0.243799,-0.128143}
,
{-0.177609,0.189838,-0.023897,0.197791,-0.0464792,0.0197036}
,
{0.196617,0.498877,0.549958,0.294311,-0.0367875,0.111433}
,
{-0.133145,-0.0186133,-0.0797487,0.142145,-0.182897,0.088734}
,
{0.0260947,-0.0561558,0.0335115,-0.197424,-0.0780622,0.0291823}
,
{-0.198512,-0.159125,0.0943528,-0.101879,0.044325,-0.0877418}
,
{-0.0471508,0.0699319,0.128939,-0.0123312,0.0759308,-0.0562126}
,
{-0.135789,0.0546836,-0.226335,-0.146762,-0.0219176,0.146963}
,
{-0.0984994,-0.038445,-0.156827,-0.102091,0.025526,0.121325}
,
{-0.030533,0.0469488,0.054035,0.0444853,0.0588257,-0.00813215}
,
{-0.0363764,-0.0419259,0.163581,0.066719,0.132913,-0.064717}
,
{-0.0248192,0.0194361,0.135483,-0.0267602,-0.13069,-0.040623}
,
{-0.0480919,-0.0120606,-0.256982,0.178049,-0.142937,0.0358332}
,
{-0.0960231,0.00904316,-0.0494549,-0.0378585,0.10168,0.0683265}
,
{0.0474745,0.027888,-0.0191462,0.0125449,0.164866,0.000174589}
,
{0.0907983,-0.0636662,0.103588,0.047929,0.0989474,-0.145541}
,
{0.0765975,0.0453602,0.0881687,0.0390594,-0.112699,-0.0510607}
,
{0.283865,0.0865091,0.387514,-0.0731009,-0.0975082,-0.164506}
,
{-0.141588,0.10076,0.105552,0.00323755,-0.00702457,0.0245302}
,
{-0.0860431,-0.00702014,0.0696189,-0.0124851,-0.0876753,-0.00350424}
,
{-0.189074,0.0645845,-0.0740503,0.0816539,0.176469,0.180815}
,
{0.0214005,-0.0231149,-0.11518,0.0229321,0.0427525,0.0297444}
,
{0.70253,-0.217421,-0.0426596,-0.124665,-0.179735,-0.116178}
,
{-0.238346,0.0227087,0.0651044,0.0308604,-0.131767,-0.00235173}
,
{0.00814872,-0.0673114,0.0272405,-0.0390232,0.209519,-0.0314859}
,
{0.0404072,0.0439395,0.0877081,-0.0474745,0.00246869,-0.0379677}
,
{0.00905807,-0.0357934,-0.103962,-0.0160712,-0.0921741,0.0237386}
,
{-0.282687,-0.144313,-0.0848123,0.0672451,0.199524,-0.0288442}
,
{0.158125,0.380428,-0.142347,0.166651,0.0245121,0.0752486}
,
{-0.160192,-0.303255,-0.127188,0.0554404,-0.13512,0.142996}
,
{-0.26153,-0.270598,-0.239613,-0.324452,0.0485799,-0.101929}
,
{0.593222,-0.696526,-0.0749122,0.278849,-0.231224,1.79222}
,
{-0.33093,-0.226762,-0.386089,0.35712,-0.108835,-0.163608}
,
{-0.116052,-0.357011,0.0914341,0.0797474,0.0385969,-0.35268}
,
{0.0379961,0.24227,0.0287482,0.0210036,-0.0172623,0.279967}
,
{0.881028,0.105013,-0.0982244,-0.27057,-0.146252,-0.266713}
,
{-0.639186,-0.264233,-0.10369,-0.808108,0.0709304,-1.36941}
,
{0.878678,0.504565,0.0041078,-0.228617,0.166947,0.448215}
,
{-0.254861,0.309805,0.00607479,0.27404,-0.00806837,0.0949712}
,
{-0.0181978,0.142373,0.139188,0.0450221,0.0826731,-0.128396}
,
{0.332886,0.123484,-0.198753,0.354318,-0.126169,0.959391}
,
{0.95344,-0.319393,0.262509,0.81315,-0.277061,1.65273}
,
{0.373924,0.774097,-0.11206,-0.156716,-0.0474289,0.163527}
,
{0.00660165,-0.342182,-0.104985,-0.0310924,0.0398496,-0.301302}
,
{0.105729,-0.104369,-0.0590648,0.0192916,0.102179,0.0954709}
,
{-0.315201,-0.530355,0.128994,0.0846682,-0.227433,0.698845}
,
{0.497404,0.0429875,0.0770526,0.0759664,0.393574,-0.291664}
,
{-0.408132,0.090468,0.0293897,0.139137,0.0427305,-0.967356}
,
{1.09402,0.678587,-0.921564,-1.07447,0.160854,0.313753}
,
{0.332321,0.605447,0.210049,-0.121195,-0.173326,-0.339518}
,
{0.0359991,0.0369254,0.312754,0.198239,0.0685842,0.330153}
,
{-0.10713,0.0189861,-0.109022,0.133555,0.0673168,0.229483}
,
{1.9987,0.0745873,-1.11889,-1.02214,0.0971504,2.10133}
 };
  static const float bias2[1] = { -0.104559 };
  static const float weights2[][1] = { {0.0399422}
,
{-0.0597741}
,
{0.0327564}
,
{0.0540117}
,
{0.271256}
,
{0.0510897}
 };
  always_assert(index < 1);
  float tmp[6];
  for (unsigned int i = 0; i < 6; i++) {
    float sum = 0.f;
    for (unsigned int j = 0; j < 79; j++) {
      sum += weights1[j][i] * vals_in[j];
    }
    sum += bias1[i];
    tmp[i] = sum > 0.f ? sum : 0.f; // RELU
  }
  float sum = 0.f;
  for (unsigned int j = 0; j < 6; j++) {
    sum += weights2[j][index] * tmp[j];
  }
  sum += bias2[index];
  return sum;
}
float specialized_gen_lepton_prior_1_3_1(const Sirikata::Array1d<int16_t, 79> &v,
                                int index) {
  return gen_lepton_prior_1_3_1(v, index);
}
static int assign_gen_lepton_prior_1_3_1() {
  global_gen_lepton_prior.at(1,3,1) = &specialized_gen_lepton_prior_1_3_1;
  return 0;
}
static int initialize_gen_lepton_prior_1_3_1 = assign_gen_lepton_prior_1_3_1();
#include "nn_framework.hh"

template<typename T> float gen_lepton_prior_1_3_2(const T & vals_in, int index) {
  static_assert(T::size0 >= 79,
     "array must be sized to hold at least 79");
  static const float bias1[6] = { -0.199609,-0.129625,0.119848,-0.139783,-0.037552,-0.115353 };
  static const float weights1[][6] = { {0.186288,0.0838002,0.0740157,0.418037,0.150563,0.147437}
,
{-0.0664885,0.531413,-0.048476,0.180258,-0.180685,-0.168156}
,
{0.175623,-0.230324,-0.413175,0.553984,0.13503,-0.0663378}
,
{-0.756808,0.254749,0.976563,0.145539,0.614102,0.09137}
,
{0.0303068,-0.214155,0.0740395,-0.299432,-0.280804,-0.0532436}
,
{-0.273527,-0.0652352,0.177414,-0.299875,-0.210007,-0.15461}
,
{-0.115477,-0.282836,0.214438,-0.298404,-0.167448,-0.227926}
,
{0.0232913,-0.0408426,-0.111309,-0.0267117,0.0678046,0.0208495}
,
{0.315494,-0.0359269,0.00297536,-0.278897,-0.202483,0.183794}
,
{-0.172344,0.0456285,-0.12404,0.011108,0.0117152,0.0293543}
,
{-0.182517,-0.0847483,0.0898756,0.130965,-0.0172264,0.0325465}
,
{0.138122,-0.257814,-0.325258,0.0599776,-0.309637,-0.0120658}
,
{-0.097841,0.138595,0.316613,0.00101562,-0.055111,0.0462032}
,
{-0.0862155,-0.315472,0.0586412,-0.315414,-0.127166,0.0879422}
,
{-0.160753,0.0162087,0.0417137,0.13583,0.184735,0.0899451}
,
{0.115999,-0.23141,-0.130186,0.0737653,-0.00794033,0.191528}
,
{0.509963,0.478045,-0.249658,-0.317105,-0.155018,0.478776}
,
{-0.199752,0.405349,0.333844,-0.0995115,0.0655952,-0.120881}
,
{-0.496274,-0.782732,0.502447,-0.109664,-0.0262666,-0.259999}
,
{0.190782,0.0683123,-0.237926,0.0920628,-0.353931,0.0116324}
,
{0.171207,-0.0484073,-0.0691218,-0.0030813,-0.147742,-0.146969}
,
{-0.00612148,-0.117579,-0.0701893,-0.0661817,-0.239799,0.0657667}
,
{0.221109,0.0023278,0.0183708,-0.200566,0.0509211,-0.0740223}
,
{0.00472629,-0.00968565,-0.00831541,-0.204434,-0.121704,-0.0789401}
,
{0.0864757,0.00846533,0.156643,0.357963,0.091777,-0.125991}
,
{0.0408272,-0.251931,0.409561,0.132253,-0.19333,-0.147447}
,
{0.1272,-0.174563,0.124073,-0.0860433,-0.210807,-0.152548}
,
{-0.0313089,-0.00914638,0.141868,0.16693,-0.0619669,0.0713551}
,
{0.00651521,-0.119275,0.208604,0.0560009,0.0654806,-0.0868496}
,
{-0.0163481,0.12719,0.239699,0.150137,0.0236414,-0.0758567}
,
{-0.0332279,-0.0971414,-0.068243,-0.0776454,0.167282,-0.232119}
,
{0.17754,-0.0536267,-0.0333507,0.0493831,-0.0155704,0.226232}
,
{0.0664368,-0.316479,-0.0549327,0.0130432,-0.0230387,0.0120344}
,
{0.115726,-0.0348362,-0.146415,-0.160353,-0.0186404,0.175399}
,
{-0.0056122,0.00165133,-0.00363654,0.0046102,0.0337976,0.0371084}
,
{0.00410502,-0.00868536,-0.0249734,0.0137525,-0.0629137,-0.0110079}
,
{0.123863,-0.228041,0.243702,-0.0562497,-0.128523,-0.141852}
,
{-0.0110574,-0.0795266,0.0191306,0.0997239,0.0596474,0.108953}
,
{0.048781,0.0872547,0.296603,-0.103316,0.025765,-0.214621}
,
{-0.0321367,0.00848781,0.04282,0.0516585,-0.148681,0.0574133}
,
{0.0223418,0.0439135,0.121637,-0.0333966,-0.0357341,-0.0674815}
,
{0.0945408,-0.238135,-0.219439,0.218498,-0.209843,0.0172417}
,
{-0.01026,0.0572895,0.0103041,-0.0228481,0.0258095,0.00738581}
,
{0.0194855,0.0657449,-0.125332,0.188357,0.139347,-0.0138343}
,
{-0.0743572,0.0191442,-0.089933,0.0803939,-0.0575225,0.118815}
,
{-0.00618305,-0.0328075,-0.0712102,0.0171051,0.025256,0.0460506}
,
{-0.169192,0.0976836,-0.0616945,-0.0980975,-0.213085,0.24306}
,
{0.0119421,-0.0715377,-0.0637962,-0.0885468,0.082407,-0.0276921}
,
{0.113436,0.0335384,-0.238006,-0.355075,0.0149537,-0.401176}
,
{0.0157549,-0.052328,0.0734506,-0.0671605,-0.150201,-0.0660532}
,
{-0.0063622,-0.0102004,-0.0302432,-0.0389139,-0.0234639,-0.00898811}
,
{0.0810736,0.156697,0.665359,-0.206956,0.0840511,-0.245582}
,
{-0.00274589,-0.051169,0.0129873,0.0297055,-0.0145336,0.0381233}
,
{-0.0639849,-0.0954907,-0.295154,0.00385846,0.163758,0.11845}
,
{0.222944,0.055079,0.295754,0.134897,-0.177992,0.244067}
,
{-0.0475467,-0.070898,0.186999,-0.172356,-0.0743813,0.0296445}
,
{0.0926026,-0.105715,-0.0518912,0.100911,-0.151031,-0.0561697}
,
{0.0579589,-0.057654,-0.0253586,-0.0442586,-0.0126906,0.180018}
,
{0.313289,0.114413,-0.0978909,-0.11319,-0.0845444,0.0463791}
,
{-0.0814179,-0.078699,0.0434412,-0.212365,-0.139626,0.0118037}
,
{0.0794966,0.157806,-0.0478803,-0.251977,0.299373,0.0329288}
,
{-0.420814,-0.0188958,0.02105,0.11118,-0.107098,-0.135049}
,
{-0.0288852,-0.0873601,0.0013963,-0.0267868,0.102172,-0.0712022}
,
{-0.143324,0.0910759,0.0581297,0.0276618,0.141785,-0.118876}
,
{0.0660875,-0.200108,-0.111922,0.131413,-0.168048,0.12984}
,
{-0.0314523,-0.0603056,0.336024,-0.0547698,0.0109475,-0.0637556}
,
{-0.0164195,-0.0729047,0.0319004,0.0783806,0.027217,0.0961792}
,
{-0.106247,0.000535609,0.11915,-0.0563431,-0.136489,-0.179863}
,
{-0.321621,0.0120815,-0.120451,0.0228753,0.281286,-0.0651284}
,
{-0.0805992,0.0494029,-0.0998805,0.100121,0.245865,-0.176026}
,
{-0.0362374,0.161082,0.223392,0.021386,-0.169827,-0.0351909}
,
{0.402813,0.0885979,-0.186607,-0.00452888,-0.0723187,0.220176}
,
{-0.056434,0.019826,0.00493797,-0.0261898,-0.155559,0.0140353}
,
{-0.0664877,-0.138861,0.237893,0.0752901,0.0874367,-0.0593392}
,
{-0.491543,-0.101337,0.171765,-0.0564694,-0.0424727,-0.15167}
,
{-0.175654,0.0689738,-0.219462,-0.0221719,-0.0787075,-0.103669}
,
{-0.186064,-0.149447,0.249528,0.118175,-0.193552,-0.200059}
,
{0.336744,-0.04043,0.0550395,0.203128,-0.280185,0.0783805}
,
{-0.0126351,-0.0798534,-0.142903,0.00831309,0.00826784,-0.0571012}
 };
  static const float bias2[1] = { -0.10598 };
  static const float weights2[][1] = { {0.0527857}
,
{0.0399226}
,
{-0.0555364}
,
{-0.0490256}
,
{-0.169716}
,
{0.0386351}
 };
  always_assert(index < 1);
  float tmp[6];
  for (unsigned int i = 0; i < 6; i++) {
    float sum = 0.f;
    for (unsigned int j = 0; j < 79; j++) {
      sum += weights1[j][i] * vals_in[j];
    }
    sum += bias1[i];
    tmp[i] = sum > 0.f ? sum : 0.f; // RELU
  }
  float sum = 0.f;
  for (unsigned int j = 0; j < 6; j++) {
    sum += weights2[j][index] * tmp[j];
  }
  sum += bias2[index];
  return sum;
}
float specialized_gen_lepton_prior_1_3_2(const Sirikata::Array1d<int16_t, 79> &v,
                                int index) {
  return gen_lepton_prior_1_3_2(v, index);
}
static int assign_gen_lepton_prior_1_3_2() {
  global_gen_lepton_prior.at(1,3,2) = &specialized_gen_lepton_prior_1_3_2;
  return 0;
}
static int initialize_gen_lepton_prior_1_3_2 = assign_gen_lepton_prior_1_3_2();
#include "nn_framework.hh"

template<typename T> float gen_lepton_prior_1_0_8(const T & vals_in, int index) {
  static_assert(T::size0 >= 79,
     "array must be sized to hold at least 79");
  static const float bias1[6] = { 0.00550033,0.0,0.00600206,-0.0358471,0.0374794,0.0 };
  static const float weights1[][6] = { {0.055478,-0.0962846,-0.0963541,-0.0536873,-0.0863517,0.0744482}
,
{-0.131251,-0.248741,-0.149765,-0.233154,0.0519923,-0.0735904}
,
{-0.212727,0.0859568,0.00513473,0.131448,0.0366566,0.0696213}
,
{-0.00191038,0.045603,-0.0197971,0.143247,0.18583,0.134094}
,
{0.0149023,-0.0038232,0.0124087,0.0860515,0.258193,-0.00084776}
,
{0.0151755,-0.0952935,-0.107529,0.163574,0.121317,-0.0208446}
,
{0.0442809,-0.0362886,-0.151016,-0.134184,0.160905,0.0179758}
,
{0.0405982,-0.0215504,0.144639,-0.0878501,0.155846,-0.0351424}
,
{-0.00282359,0.000478555,0.0431725,0.0155056,0.118789,-0.164823}
,
{0.103656,0.0169921,-0.00928026,0.0951171,-0.032455,-0.0509427}
,
{-0.0944232,0.111129,0.150899,0.197922,0.0918301,-0.162729}
,
{0.117525,0.0973639,-0.158496,-0.128183,0.141801,0.0222065}
,
{0.0200725,0.151493,0.0814647,-0.10989,0.159987,-0.15156}
,
{-0.0403203,-0.153848,0.0624288,0.0195463,0.0924953,0.0782698}
,
{0.0769515,-0.000309229,0.180334,-0.0494851,0.153276,-0.121247}
,
{0.00614127,-0.161795,0.0652039,0.144494,0.145434,-0.110689}
,
{0.109412,-0.00721179,0.0461226,-0.0393402,0.0347256,0.092568}
,
{-0.0139241,0.114514,-0.00545275,0.11746,0.0409262,0.186444}
,
{0.0718523,-0.071504,0.080351,-0.126628,-0.0149033,-0.212702}
,
{-0.0645241,0.0681344,-0.0919406,-0.000655359,0.0997091,-0.0562219}
,
{0.00968758,0.00122556,-0.066761,-0.0441929,-0.0411371,-0.0289281}
,
{-0.17072,-0.176784,0.158155,-0.216723,-0.0622428,-0.0321651}
,
{0.100395,0.0618708,0.101817,-0.00196027,0.106752,-0.0995808}
,
{-0.139515,0.0284945,-0.113959,-0.0274466,0.16898,-0.159958}
,
{-0.010662,0.0363225,-0.196762,-0.112962,0.00166189,0.0142758}
,
{0.041724,-0.070005,-0.0479368,-0.125343,0.109241,0.14061}
,
{-0.134477,0.0733903,-0.138894,0.0398576,-0.146085,-0.078482}
,
{0.131987,0.0539672,-0.0888152,-0.112545,0.0502031,-0.0957621}
,
{-0.0392211,0.0252726,0.0431485,0.216078,0.0410341,0.0295552}
,
{-0.121015,-0.0403573,0.0425891,-0.0116145,-0.0366729,0.128116}
,
{-0.062721,-0.0133631,-0.0953006,-0.149252,-0.01338,-0.0141814}
,
{-0.123846,0.0148482,0.0467091,0.0504332,0.00422232,0.0223569}
,
{-0.0783447,0.0040751,-0.15329,0.0723963,0.146941,-0.204198}
,
{0.0426762,0.209211,-0.237617,0.0341048,0.00615187,-0.234265}
,
{0.220424,-0.0689511,-0.134351,-0.0654127,0.13258,-0.0106673}
,
{-0.110091,0.123596,0.0329449,0.0231696,0.120548,-0.0277802}
,
{-0.00774223,-0.0042366,-0.106426,0.00877068,0.0213637,-0.0366821}
,
{-0.226,-0.162056,-0.107678,-0.212537,-0.0378648,0.163348}
,
{0.00789881,0.103221,-0.106002,-0.0565078,0.0382801,-0.123925}
,
{-0.0136987,-0.13354,-0.0627756,-0.230741,0.0153575,0.0427244}
,
{0.0251645,0.02743,-0.238657,-0.227833,-0.00570573,0.0583796}
,
{0.0320187,-0.225844,-0.0285177,0.191639,-0.0761902,0.0150484}
,
{0.118198,0.132476,-0.00835756,0.206137,0.140048,0.085011}
,
{0.130554,0.127661,-0.0573091,0.174745,-0.0121635,0.0767981}
,
{0.22826,-0.0780506,0.103566,0.0272801,0.11189,0.144945}
,
{-0.198604,0.0541384,0.171533,0.116384,0.187179,-0.00208595}
,
{-0.0303187,0.0402706,0.0713631,0.0527243,-0.0838659,-0.0875496}
,
{0.034242,-0.0567808,-0.213086,0.058666,-0.165647,0.0161731}
,
{0.0422038,0.15669,-0.131923,-0.133741,0.0231499,-0.0794785}
,
{0.0220138,-0.120473,0.0654012,0.0774251,-0.152292,0.0750116}
,
{-0.093681,-0.00299316,-0.0228897,0.00552819,-0.00786074,-0.0718511}
,
{0.114797,-0.0638926,0.017638,0.228333,0.00622618,0.00778906}
,
{0.0592151,-0.203471,0.137422,-0.102053,-0.0383817,0.110252}
,
{-0.062964,-0.0106009,-0.0665352,-0.0171871,0.234605,-0.215613}
,
{-0.0487326,0.0495148,0.162759,-0.0769148,0.0437106,-0.0120665}
,
{-0.167216,-0.0161461,0.165394,-0.0530808,0.121079,0.0761704}
,
{0.0218309,0.149841,0.0796163,0.113064,-0.153714,-0.115159}
,
{-0.157902,0.030194,0.0961178,-0.148715,-0.0378557,0.0165161}
,
{-0.0151006,0.0279242,0.135269,0.0229308,0.0111599,0.00574469}
,
{0.0116096,-0.180345,0.0801319,0.0527631,0.0185071,-0.0857893}
,
{0.00899273,0.121833,-0.0858284,-0.160259,-0.050327,0.17671}
,
{-0.0275653,0.179391,-0.0394817,-0.105845,0.193001,-0.0244178}
,
{0.0497474,-0.0596379,0.0721223,0.020096,-0.126537,0.0491035}
,
{0.126972,-0.0779899,0.0525204,-0.0507751,0.0218922,0.0322676}
,
{0.0449849,0.108079,0.121225,-0.0819169,0.179045,0.11435}
,
{0.0352976,-0.163171,-0.00373137,0.0229434,0.126888,0.136006}
,
{0.105501,0.10411,0.151362,0.0392201,0.0455752,-0.0785012}
,
{0.118637,-0.0610901,-0.098954,0.0253875,-0.0486111,-0.0651824}
,
{-0.119452,-0.0411292,0.144235,-0.164127,-0.0873962,0.151808}
,
{0.179122,-0.0677645,-0.0564964,0.0666961,0.0293597,0.10456}
,
{0.0292565,-0.0493165,0.0203016,-0.0959097,-0.0404793,-0.0996223}
,
