#include "nn_framework.hh"
template<typename T, uint32_t ms> float gen_lepton_prior_0_0_0(const Sirikata::Array1d<T, ms>& vals_in, int index) {
  static_assert(ms >= 110,
     "array must be sized to hold at least 110");
  static const float bias1[8] = { 0.246597,-0.150345,-0.0884792,0.311132,-0.100319,0.244368,0.168207,-0.0993849 };
  static const float weights1[][8] = { {0.0110302,-0.327772,0.0055279,0.27785,-0.0561367,0.330259,0.204643,-0.0802171}
,
{0.00705004,0.0513587,-0.182171,0.311836,-0.0280715,0.262184,0.310084,-0.163462}
,
{-0.0258563,-0.129468,-0.114993,0.34411,0.00866331,0.436318,0.296216,-0.0862735}
,
{0.122714,-0.193712,-0.119993,0.24002,0.045099,0.230958,0.141105,-0.134107}
,
{0.229531,-0.32777,-0.243158,0.108286,-0.278755,0.154308,0.0395742,-0.0198293}
,
{0.228944,0.0632999,-0.0273684,0.443988,-0.130902,0.126323,0.0702582,0.00355159}
,
{0.302499,-0.020791,-0.04702,0.279332,-0.0344011,0.417598,0.104342,-0.313196}
,
{-0.15692,0.0790243,-0.0753636,-0.106813,0.0801399,-0.0614301,0.125584,0.0274941}
,
{-0.158941,0.0776292,-0.146679,-0.00623564,0.0494681,0.0668702,0.103804,-0.0112097}
,
{-0.247371,0.175916,0.0924202,-0.108055,-0.0592313,-0.235659,-0.0444719,0.0822609}
,
{0.00532447,0.0299391,0.0795453,0.167853,-0.237884,-3.40267e-05,0.0400096,-0.103145}
,
{0.145314,0.218428,-0.164537,-0.174297,0.0067367,-0.0277262,0.149725,0.0702428}
,
{0.00580968,0.132025,-0.0267087,0.0122188,0.0779531,-0.0324555,0.129224,0.0355249}
,
{0.174485,0.118134,-0.216637,-0.11059,0.201681,0.208412,-0.191948,-0.0522022}
,
{-0.104497,0.12108,0.0809153,-0.0988485,0.0434793,0.00358245,-0.183527,-0.0183427}
,
{-0.0647417,-0.117469,-0.03711,-0.102281,0.112519,-0.0347075,-0.0741842,0.0236491}
,
{0.0562525,-0.0157078,-0.169469,0.0521154,-0.195268,-0.125757,0.0707441,0.197803}
,
{-0.350276,0.102453,-0.041018,0.00121556,-0.251286,-0.106223,0.0915719,-0.22823}
,
{0.124614,-0.142159,0.0271889,-0.0497013,-0.201358,-0.0469208,-0.112831,-0.0456684}
,
{0.0286402,-0.00892273,-0.099884,0.144813,0.0436568,0.338866,0.111699,0.00729726}
,
{0.09146,0.0082463,0.0532176,0.230518,-0.152036,0.216436,-0.0350615,-0.00140645}
,
{-0.0273477,0.0272921,-0.0874682,0.123368,0.0537077,0.00970445,-0.00979411,-0.12936}
,
{-0.0106418,-0.00384666,-0.159186,0.0196438,-0.0923225,0.0923841,-0.198106,-0.0309667}
,
{0.00261988,0.165679,-0.215624,0.0338857,-0.0851406,0.202455,0.0341099,-0.0456524}
,
{0.155359,0.124183,-0.118528,0.0483771,0.243835,-0.0164371,0.0447348,-0.0695511}
,
{-0.0568641,-0.127622,0.173042,-0.139015,0.0964754,0.0784591,0.0367798,-0.208553}
,
{-0.00475273,-0.193799,-0.105753,-0.0741622,0.0927257,0.0419426,0.0129225,0.0969534}
,
{0.119171,-0.0901629,0.0766147,0.285866,-0.139246,0.0832516,0.247988,-0.0984273}
,
{-0.147946,-0.0191114,0.0553286,-0.221615,-0.19411,-0.240608,0.00125095,-0.0573303}
,
{-0.0557347,0.0917736,-0.105438,-0.200855,-0.216958,-0.0535187,-0.037914,0.0611915}
,
{0.0107354,0.104502,-0.00898946,0.0815608,-0.0283953,-0.0121435,-0.206032,-0.0155996}
,
{-0.00252766,0.0346083,-0.0461009,-0.0263976,0.01628,0.0107081,0.175393,-0.0673127}
,
{0.0465256,0.15203,0.239113,-0.0493706,0.0272741,-0.0661885,-0.0994548,-0.0835681}
,
{-0.0303899,-0.00137675,0.0330778,0.148326,0.0142926,0.0927178,-0.0519469,-0.0792231}
,
{0.0795151,0.0925913,-0.00340371,0.0626649,0.030992,0.00400893,-0.0417239,0.0531265}
,
{0.0415933,0.0233787,-0.00985215,-0.0777567,0.0331416,0.112772,-0.0388124,0.0149847}
,
{-0.133388,-0.142039,0.00869912,0.167496,0.00313148,-0.121487,0.0665993,-0.15514}
,
{0.00307891,-0.0208024,0.183432,0.197782,-0.00641275,-0.156223,-0.0644234,-0.0262038}
,
{0.0532884,0.0970977,-0.0998012,-0.0344631,-0.06673,0.148839,-0.163424,-0.0386566}
,
{-0.105087,-0.139396,-0.0554827,-0.204723,-0.102171,0.126519,-0.100633,-0.240346}
,
{-0.00450125,-0.0455925,0.15761,-0.106214,-0.190515,0.145356,-0.120145,-0.030952}
,
{0.0627735,0.0742063,-0.0371353,0.0848004,-0.0484935,-0.0466379,-0.0173267,-0.0991672}
,
{-0.066693,-0.0736965,-0.0731797,-0.0520452,-0.188269,-0.0873999,0.0639783,-0.00974542}
,
{0.00306697,-0.00221838,-0.084234,0.112332,0.121391,0.104773,0.0621365,0.0496043}
,
{0.160046,0.183412,0.0147867,-0.00713444,-0.184027,-0.168029,0.0689989,0.101921}
,
{-0.0360796,-0.0737386,0.0745326,-0.0192034,0.0515112,-0.083955,-0.0712451,-0.0127931}
,
{0.139388,0.14299,-0.0671396,-0.0610525,0.0601488,-0.0393444,-0.0336748,-0.158263}
,
{-0.0202908,-0.0525132,0.063102,0.0637485,-0.0645653,0.029805,-0.241074,-0.0858512}
,
{-0.152023,-0.130442,-0.0949842,0.201985,-0.0935551,-0.0843286,0.0624961,0.164657}
,
{-0.0261735,-0.0167955,0.0346949,0.0805054,0.10573,0.00398187,0.123001,0.220058}
,
{-0.0705976,-0.0257258,0.24245,-0.102056,-0.0703621,0.211164,-0.0498478,0.0169655}
,
{0.0205834,0.0321627,-0.0727487,0.0436229,-0.0113217,-0.0186738,-0.0299659,-0.0357622}
,
{-0.0325128,0.0126731,-0.0416987,-0.0715355,0.137251,0.166978,-0.0609037,-0.0496087}
,
{-0.0358963,0.0138765,-0.00387806,0.0999642,-0.0243884,-0.0210648,-0.181395,0.215251}
,
{-0.0573036,0.0545779,-0.115941,0.174628,0.0121489,-0.112119,0.00436947,0.122002}
,
{-0.0734909,-0.0832363,0.132468,-0.119061,-0.149685,0.0728025,-0.110117,-0.0272053}
,
{0.0143018,-0.0305854,-0.117741,-0.132793,0.123379,0.0512554,0.225121,-0.097369}
,
{-0.278082,-0.0573817,0.0554765,0.142613,-0.0944706,0.223578,0.217043,-0.157209}
,
{0.18444,0.0746011,-0.0386767,0.118202,-0.024021,-0.246955,-0.0509007,0.0844571}
,
{-0.0470701,-0.123364,-0.0062904,0.031046,-0.0567034,-0.031291,0.0326677,-0.0374176}
,
{0.24856,-0.0994418,-0.0750104,0.00918321,0.0751201,-0.103783,-0.0660504,0.144258}
,
{0.00179588,-0.165464,0.092274,-0.0555181,0.197635,-0.132318,0.197403,0.106841}
,
{0.0637582,-0.00540114,-0.23682,-0.106705,-0.0778054,-0.173607,0.0246652,-0.0988962}
,
{0.0387797,-0.17382,-0.159435,-0.104329,-0.0093278,0.126587,0.143393,-0.0639653}
,
{-0.0495639,-0.00630377,0.105039,0.0913465,0.0221147,-0.104694,0.155332,0.0945297}
,
{0.0438648,-0.176345,-0.0190938,-0.128334,-0.0524025,-0.0255094,-0.0334918,-0.0270244}
,
{0.0691436,0.0362309,0.0286975,0.187396,-0.139121,0.0788703,-0.0622666,0.0432114}
,
{0.0611746,-0.0396232,0.0162109,-0.154156,0.119522,0.0110148,0.0546118,0.171665}
,
{0.0438427,0.0840706,-0.0450123,-0.0799927,0.0872168,0.0506789,0.0203993,0.0327269}
,
{0.0410067,0.0218722,-0.102579,-0.097165,-0.0157271,-0.0473822,-0.0286083,-0.0495625}
,
{-0.187027,-0.137085,0.176965,0.0618489,0.0459011,-0.0696209,-0.12376,0.0835797}
,
{0.0682199,-0.060188,-0.0732288,-0.0380499,-0.116272,-0.050465,-0.0563622,-0.0622051}
,
{0.168175,0.121237,-0.160605,0.0577946,-0.0989467,0.0320538,-0.0670654,0.0687847}
,
{0.230454,0.0222676,0.034351,-0.324122,0.0220716,-0.2342,-0.018338,-0.0817375}
,
{0.084733,-0.0113236,0.125463,-0.21961,0.0031799,0.0346326,-0.304226,0.0214621}
,
{-0.0216376,-0.0602635,0.00187642,0.0117693,0.138357,0.212698,0.198107,-0.108312}
,
{0.00505819,-0.135629,0.0705012,0.0843365,-0.0223034,0.138187,0.00242339,-0.192771}
,
{0.0404451,-0.105908,-0.147033,0.131262,0.0587519,0.123191,-0.112322,0.132072}
,
{0.0359695,-0.0206842,-0.142586,0.083221,-0.0513054,0.299012,0.0191839,-0.118994}
,
{0.431527,-0.353251,-0.114859,0.503492,-0.202222,0.326129,0.454116,-0.00425714}
,
{0.363972,-0.119471,-0.262256,0.376711,-0.214948,0.0658018,0.1333,0.0670067}
,
{-0.142242,-0.098348,-0.103895,-0.0599615,-0.205409,0.103684,-0.0934931,0.109502}
,
{-0.00427204,0.230188,0.0658334,0.0308881,-0.209685,0.0379571,0.267707,0.0297203}
,
{0.153353,0.240807,0.090049,0.00898286,0.055031,0.0773101,-0.140173,0.0506317}
,
{-0.562272,0.0530757,0.00128286,-0.402911,0.170298,-0.293647,-0.591845,0.166254}
,
{-0.188906,0.106264,0.19354,0.130881,0.00324528,-0.0432441,-0.438156,0.0158326}
,
{0.0214572,-0.220901,0.0763997,-0.0109223,-0.087409,0.327109,0.30153,-0.0420192}
,
{0.154722,0.107085,0.0807451,0.0269129,-0.148229,-0.02506,0.127022,0.169297}
,
{-0.396811,0.184492,-0.0195046,-0.107602,0.0445387,0.108428,0.136637,0.116185}
,
{-0.00448097,0.124044,-0.135839,0.154097,-0.0875645,0.339006,-0.0759842,-0.160158}
,
{0.233269,-0.332949,-0.0219946,0.201292,-0.0723043,0.363505,0.088681,-0.0869551}
,
{-0.0840798,0.0889438,0.0287119,-0.0581711,0.166905,-0.176357,-0.0072079,-0.0193466}
,
{-0.0908594,-0.0407964,0.0828548,0.0494701,-0.0546346,0.0728354,-0.183591,-0.11556}
,
{0.122769,0.0156071,-0.218612,-0.0906783,0.133523,-0.00276875,-0.111695,0.0647815}
,
{0.00911477,-0.145839,0.116223,-0.0599035,-0.190169,0.0659248,0.0294314,-0.00978785}
,
{0.0498859,0.0130745,0.0103118,0.183498,-0.0150307,-0.058318,0.119932,-0.0726085}
,
{-0.327222,0.435444,0.0935133,0.0301777,0.0453414,0.0700273,0.171741,-0.0276894}
,
{-0.195554,0.222448,-0.124769,-0.31656,0.00627027,-0.155524,-0.333762,-0.0364401}
,
{-0.233108,-0.0488793,0.0677763,-0.107467,0.155241,0.0536954,-0.0152192,-0.244228}
,
{0.272668,0.00668639,-0.0296974,0.137329,-0.0514629,-0.0294487,0.363353,-0.0441063}
,
{0.0252023,-0.219509,0.218641,0.108384,0.00204837,0.0767394,0.222631,0.00623825}
,
{-0.108373,-0.191299,0.0941846,0.141815,-0.0255799,0.0608252,0.0884164,0.0334682}
,
{0.167665,-0.285715,-0.0273213,-0.104971,0.0365639,0.236145,0.0208393,-0.103581}
,
{0.0473448,0.0866145,-0.375869,-0.0671394,0.103229,0.00390741,-0.173513,0.00754448}
,
{0.163767,0.0482313,-0.185379,-0.0471591,-0.0565839,-0.10271,-0.0950572,0.0934505}
,
{-0.149073,-0.0372643,0.149797,-0.212531,-0.127047,-0.00511426,-0.0998401,0.198482}
,
{-0.0491159,-0.129712,0.00289019,-0.0823479,0.125474,-0.0600633,0.00318368,0.00984681}
,
{0.229475,0.204006,-0.0666187,-0.00656607,0.0519698,0.0526531,-0.0155257,0.00802852}
,
{-0.0221511,0.0772756,-0.0512124,0.086056,0.112426,-0.0397854,0.0668839,0.157041}
,
{-0.0740153,-0.0949278,-0.0684073,0.0221371,0.122322,0.00274873,0.0851926,-0.200117}
 };
  static const float bias2[64] = { 0.377909 };
  static const float weights2[][64] = { {0.0505699}
,
{-0.0431233}
,
{-0.00976767}
,
{0.00524969}
,
{-0.00428942}
,
{0.00680896}
,
{0.00656073}
,
{-0.00167712}
 };

  float tmp[8];
  for (unsigned int i = 0; i < 8; i++) {
    float sum = 0.f;
    for (unsigned int j = 0; j < 110; j++) {
      sum += weights1[j][i] * vals_in[j];
    }
    sum += bias1[i];
    tmp[i] = sum > 0.f ? sum : 0.f; // RELU
  }
  float sum = 0.f;
  for (unsigned int j = 0; j < 8; j++) {
    sum += weights2[j][index] * tmp[j];
  }
  sum += bias2[index];
  return sum;
}
float specialized_gen_lepton_prior_0_0_0(const Sirikata::Array1d<int16_t, 110> &v,
                                int index) {
  return gen_lepton_prior_0_0_0(v, index);
}
static int assign_gen_lepton_prior_0_0_0() {
  global_gen_lepton_prior.at(0,0,0) = &specialized_gen_lepton_prior_0_0_0;
  return 0;
}
static int initialize_gen_lepton_prior_0_0_0 = assign_gen_lepton_prior_0_0_0();

template<typename T, uint32_t ms> float gen_lepton_prior_0_1_0(const Sirikata::Array1d<T, ms>& vals_in, int index) {
  static_assert(ms >= 110,
     "array must be sized to hold at least 110");
  static const float bias1[8] = { -0.229791,-0.132542,0.0926553,0.236458,0.0296712,-0.158936,0.051488,0.135895 };
  static const float weights1[][8] = { {-0.100736,0.0441817,0.226926,0.161347,0.161494,-0.156258,0.0261162,0.247029}
,
{-0.287405,-0.154229,0.240171,0.0503728,-0.127969,-0.0462716,-0.0908201,0.0188567}
,
{-0.135475,-0.317684,0.122356,0.0875747,-0.0416301,0.0532646,0.0309768,0.278677}
,
{-0.32105,-0.0756743,0.226168,0.356931,0.0999865,-0.0556012,0.316949,-0.0551165}
,
{-0.18789,0.0453933,0.106707,0.412185,-0.0815325,-0.170298,0.124878,0.0577547}
,
{-0.171476,0.00607835,0.25156,0.229296,0.0384689,-0.173476,-0.0693585,0.210339}
,
{-0.0781892,-0.0312526,0.145785,0.2249,0.0654361,-0.271815,-0.0428365,0.22123}
,
{0.150807,-0.132052,0.00689906,0.140217,0.210363,-0.0586892,-0.00197579,-0.233621}
,
{0.133512,-0.109489,0.0104175,0.0463937,0.0313039,-0.0917006,0.177182,0.0587654}
,
{0.0353341,0.156343,-0.10286,0.228152,-0.0327767,0.0336089,0.00391604,-0.0736274}
,
{-0.0227731,-0.0592981,-0.114325,0.0890696,-0.17203,0.0132806,-0.0685451,-0.170124}
,
{-0.106348,0.0440241,-0.0387339,0.0302518,-0.132386,-0.0313798,0.00205658,-0.113703}
,
{0.0831913,-0.0773996,0.0235065,0.142624,0.0106124,-0.159901,-0.0580697,0.120367}
,
{0.0558447,-0.0672057,0.22674,-0.10258,-0.0375004,0.0225903,-0.162363,0.0497015}
,
{-0.0827917,0.104793,0.137238,0.0564439,0.184719,-0.1048,-0.202927,-0.0481016}
,
{-0.0754419,-0.0322435,0.184742,0.00575105,0.115989,-0.0896671,0.0509823,0.00546395}
,
{-0.0487516,0.0782444,0.0126758,-0.146851,-0.180052,0.108444,-0.0283641,-0.227224}
,
{0.147604,0.0329724,-0.208524,-0.340715,-0.12086,0.109746,-0.193105,-0.34552}
,
{0.131978,-0.00390435,0.0482949,0.0452186,0.10793,-0.21608,0.0356893,-0.0601084}
,
{-0.0105391,-0.0432691,0.265282,-0.129115,0.0400192,-0.0359379,0.0298499,0.118488}
,
{-0.0512574,-0.0105546,0.0119922,0.145204,0.0170935,0.0514192,0.00896577,0.142927}
,
{0.0657589,-0.163016,-0.0821297,-0.0710158,-0.0147238,-0.119175,0.00443366,-0.192252}
,
{0.0564996,-0.132566,-0.0308239,-0.0271616,-0.0753551,0.0385552,0.0996753,0.0555056}
,
{-0.213456,-0.0581793,0.069717,-0.0118661,0.09065,-0.133668,-0.0886518,0.188094}
,
{-0.0512327,-0.125665,0.0398131,-0.0246882,-0.0621875,0.0595767,-0.0426528,0.035189}
,
{-0.0739792,0.0693805,-0.14473,-0.182139,0.010515,0.200949,-0.0685456,-0.175292}
,
{0.00641593,-0.120097,0.123576,0.0594649,0.0819266,-0.0163946,0.00216885,0.171167}
,
{-0.320865,-0.0885395,-0.0379851,0.256088,0.353407,-0.263088,-0.0131357,0.00280812}
,
{0.102876,-0.080093,0.113557,-0.00426484,-0.0374565,-0.0743085,-0.103954,0.0859575}
,
{0.103797,0.0272301,-0.174459,0.0696975,-0.154893,-0.0825183,0.147485,0.0466693}
,
{-0.0632561,0.0349989,0.058905,-0.111648,-0.102343,-0.184831,-0.120554,-0.0496674}
,
{-0.097229,0.127147,-0.183875,0.109508,0.0287333,-0.0203984,0.0216507,-0.00768246}
,
{-0.0246506,-0.161473,0.0871421,0.00912079,-0.18694,-0.189704,0.116554,0.127979}
,
{-0.108459,0.000707013,-0.149142,-0.0565825,-0.176279,0.170926,0.179675,-0.100004}
,
{-0.0015971,-0.0217667,-0.159939,-0.00517709,0.0570937,0.00150394,0.00227728,0.0209324}
,
{-0.122091,-0.0699766,-0.136506,-0.00270451,-0.0799821,-0.070592,-0.0682928,-0.206697}
,
{0.0790612,0.000984596,-0.0640687,0.22038,-0.0210271,-0.0772035,-0.0809047,-0.0205925}
,
{0.122311,-0.0333638,-0.0195308,0.172489,-0.0977,0.00850988,0.0104291,0.0834252}
,
{-0.119519,-0.0582016,0.126469,-0.130936,0.0651207,0.130109,0.128989,-0.0819667}
,
{0.0411158,0.0147034,-0.0479364,-0.0562837,0.0501413,-0.161901,-0.154071,0.0813471}
,
{-0.0368173,0.0712046,0.0791647,-0.209178,0.089658,-0.0292448,0.00937285,0.0558043}
,
{0.00575118,-0.0297748,0.0788733,0.100706,0.164668,0.0762977,0.0623127,-0.093519}
,
{-0.0267446,-0.135142,-0.198913,0.0667863,-0.0088314,0.040497,0.0411981,-0.103916}
,
{-0.0384703,-0.0733197,-0.256163,0.0093003,-0.0911839,-0.147434,-0.118605,-0.0488203}
,
{0.147966,-0.0190471,0.0401867,0.207812,-0.121109,-0.0187585,-0.0338763,0.0985436}
,
{-0.0404735,0.00468181,0.144156,0.00686406,0.173132,-0.181634,-0.1955,-0.121218}
,
{0.138805,-0.117263,-0.159782,0.100069,0.0527759,-0.183527,-0.200278,0.141409}
,
{0.0185761,0.04716,-0.121794,-0.0655603,0.0943275,-0.0346199,-0.0280294,0.0624518}
,
{0.0167878,-0.0572878,-0.0905423,0.0164821,-0.0786744,-0.0385933,-0.0489486,0.0678559}
,
{-0.0304934,-0.043819,-0.0552262,0.0164535,-0.104133,0.00790396,0.0155376,-0.0398063}
,
{0.0190383,-0.0156011,0.189877,-0.028476,-0.0809051,0.0657633,0.052917,0.0312518}
,
{0.146188,-0.104462,0.0643509,0.22361,-0.0657921,-0.111159,-0.139408,0.0610827}
,
{0.0121473,0.05285,-0.143365,0.0136099,0.161713,0.0393037,0.0572815,0.05496}
,
{-0.0122108,-0.0147425,-0.120901,0.164744,0.103994,-0.151966,-0.132356,0.0591496}
,
{-0.110689,0.0259609,0.00233279,0.215205,-0.137734,0.026225,-0.0311979,-0.101536}
,
{-0.0945114,-0.0925436,0.0220747,-0.197379,0.0367187,0.113152,0.155555,0.105237}
,
{0.0390117,0.0959196,0.0980771,0.0231989,-0.160057,-0.132201,-0.102286,0.180776}
,
{-0.0837921,-0.0162521,-0.0218258,-0.0390591,-0.116955,0.11314,-0.105202,0.0682902}
,
{0.0568722,-0.0594055,-0.1689,-0.000411145,-0.133689,0.0889199,-0.0230508,-0.0528442}
,
{-0.0894088,0.0101127,-0.0888567,-0.074348,-0.0919498,-0.000620548,0.000383011,0.103095}
,
{-0.0969138,-0.168727,0.0696778,-0.0486114,-0.0105026,0.0843692,0.186587,0.0624791}
,
{0.116096,-0.107038,0.21384,-0.108285,0.120818,-0.0248342,-0.14179,-0.236091}
,
{0.0167985,-0.170143,0.0368295,-0.0370306,0.133429,-0.208475,0.0785121,0.00492279}
,
{0.0390603,0.144935,0.0917434,-0.0299616,-0.050017,0.14985,0.0562341,-0.0710821}
,
{0.103454,-0.0974624,-0.135961,-0.0127711,-0.0350217,-0.164573,0.0918027,0.092588}
,
{0.0845677,0.0779017,0.194887,0.245849,-0.0658514,0.0973754,0.0392481,0.120431}
,
{0.0457436,0.0859432,-0.0163517,-0.121538,-0.0886058,-0.0771893,0.131699,-0.0663207}
,
{-0.197471,-0.247483,-0.0875638,-0.0470603,-0.0973928,-0.143079,0.184421,0.0666135}
,
{0.0715507,-0.0110713,-0.101005,-0.146875,0.173347,0.0176857,-0.103173,0.0151479}
,
{0.18323,-0.0433693,-0.0444697,0.110041,0.116664,0.113347,-0.175886,0.0148464}
,
{-0.0457922,0.226382,0.164231,-0.0723325,0.0414554,-0.0955593,0.117168,0.142074}
,
{0.211625,-0.120261,-0.146831,0.0593738,0.0357124,-0.182989,-0.0541115,0.0588996}
,
{0.0301601,-0.18593,0.0520648,-0.101617,0.0961209,0.204137,0.0947367,-0.0253216}
,
{-0.0391442,-0.0495455,-0.219176,0.221924,0.130273,-0.0660279,-0.0922932,0.0271456}
,
{-0.0250816,-0.0621355,0.166023,-0.247214,0.10359,0.0968231,0.04785,0.14635}
,
{0.0150703,0.137251,-0.117779,-0.204511,-0.02399,0.113905,-0.00557362,0.210686}
,
{-0.189949,-0.171388,-0.0174306,-0.298989,-0.0899899,0.0502288,-0.195061,-0.0567789}
,
{-0.0039437,-0.156582,0.00106929,-0.0957792,0.143228,0.0764631,0.0310128,-0.100546}
,
{0.019455,0.136938,-0.320436,-0.849588,-0.327216,0.27114,-0.444358,-0.683586}
,
{-0.324824,-0.273255,0.0584191,0.487361,0.00954679,-0.320854,0.339955,0.448299}
,
{-0.339804,-0.341839,0.219527,0.820816,0.333557,-0.412985,0.492466,0.680626}
,
{-0.0730079,0.0325814,-0.030313,0.51038,-0.000720168,-0.108904,0.113571,0.350256}
,
{0.00581089,0.0362474,-0.0106417,0.160052,0.0254522,0.0880906,0.237102,0.0773748}
,
{-0.0463609,-0.192826,0.29209,-0.138268,0.268527,-0.452723,0.009709,0.0360134}
,
{0.284779,0.148773,-0.0084249,-0.577878,-0.164305,0.0153325,-0.201325,-0.272832}
,
{0.331829,0.478562,-0.146355,-0.719039,-0.478331,0.551033,-0.339001,-0.637377}
,
{0.817197,0.20421,-0.213648,-0.765054,-0.309406,0.543354,-0.601292,-0.519267}
,
{0.0665432,0.0574999,0.0657899,0.126442,0.0952682,-0.256258,0.321945,0.240703}
,
{-0.330415,-0.220679,0.389267,0.67226,0.368111,-0.0351319,0.382584,0.426128}
,
{-0.238603,-0.221125,0.0771134,0.73693,0.125939,-0.0915373,0.448152,0.3335}
,
{-0.0718256,-0.218414,0.0352804,0.482361,0.198692,0.192697,-0.0629511,0.153174}
,
{0.0240979,-0.00938163,2.77086e-05,-0.0209832,0.00743687,-0.273923,0.0642764,0.0307515}
,
{-0.065604,0.0978008,0.182548,0.123604,0.0643229,-0.0226247,0.151386,0.0398826}
,
{0.0969951,0.248836,-0.0567655,-0.249471,-0.0528392,-0.0854486,-0.0206877,-0.0292379}
,
{-0.0582284,0.0346191,0.0221314,-0.149844,0.0426801,0.0851207,0.0209634,-0.0200623}
,
{0.0264115,0.111456,0.0288411,0.0275113,0.0597248,-0.0217041,-0.00742112,-0.195996}
,
{-0.0612111,-0.0835049,-0.0700552,0.168218,0.0768409,0.0318415,-0.116369,-0.236675}
,
{-0.10034,0.237539,-0.117703,-0.0984282,-0.114296,0.106712,-0.0449895,-0.154845}
,
{0.0775204,-0.027697,0.0797203,0.195505,0.0653178,-0.0786638,-0.0175897,0.104403}
,
{-0.0628636,0.133448,-0.0128147,-0.354835,-0.13419,0.0898753,-0.182697,-0.309477}
,
{-0.0556364,-0.228513,0.252993,-0.211655,0.0556602,0.0438026,0.0230636,0.0353385}
,
{-0.0115505,-0.065758,0.178444,0.0128997,0.0820925,-0.152311,0.428366,-0.0160527}
,
{-0.0637175,-0.168063,0.0149409,0.154756,-0.145947,-0.123119,0.123838,-0.0381814}
,
{0.156232,-0.101277,0.0758328,0.125903,-0.0918258,-0.144633,0.110223,0.0808623}
,
{0.00226662,-0.117945,-0.103983,0.144487,-0.04473,0.0437767,-0.0302028,-0.0232167}
,
{-0.0581802,-0.0487358,0.147142,-0.15821,-0.0221036,0.0670178,-0.00136325,-0.132819}
,
{-0.0405773,-0.0483697,0.188558,-0.035132,-0.0896497,0.0703877,0.0774978,-0.0259204}
,
{0.13055,-0.0268686,0.105051,0.0608486,-0.0111405,-0.154348,0.0755188,-0.0166834}
,
{-0.0777591,-0.0556033,0.0285888,-0.0574663,-0.0586578,-0.175588,0.0312098,-0.0732496}
,
{0.205469,-0.0107193,-0.320064,-0.440987,-0.204981,0.308135,-0.304348,-0.34519}
 };
  static const float bias2[64] = { 0.228623 };
  static const float weights2[][64] = { {-0.055773}
,
{-0.025884}
,
{0.00712225}
,
{0.0264471}
,
{0.0052902}
,
{-0.0862653}
,
{0.0853184}
,
{0.030446}
 };

  float tmp[8];
  for (unsigned int i = 0; i < 8; i++) {
    float sum = 0.f;
    for (unsigned int j = 0; j < 110; j++) {
      sum += weights1[j][i] * vals_in[j];
    }
    sum += bias1[i];
    tmp[i] = sum > 0.f ? sum : 0.f; // RELU
  }
  float sum = 0.f;
  for (unsigned int j = 0; j < 8; j++) {
    sum += weights2[j][index] * tmp[j];
  }
  sum += bias2[index];
  return sum;
}
float specialized_gen_lepton_prior_0_1_0(const Sirikata::Array1d<int16_t, 110> &v,
                                int index) {
  return gen_lepton_prior_0_1_0(v, index);
}
static int assign_gen_lepton_prior_0_1_0() {
  global_gen_lepton_prior.at(0,1,0) = &specialized_gen_lepton_prior_0_1_0;
  return 0;
}
static int initialize_gen_lepton_prior_0_1_0 = assign_gen_lepton_prior_0_1_0();

template<typename T, uint32_t ms> float gen_lepton_prior_0_2_0(const Sirikata::Array1d<T, ms>& vals_in, int index) {
  static_assert(ms >= 110,
     "array must be sized to hold at least 110");
  static const float bias1[8] = { 0.152642,0.0607927,0.185022,-0.200158,-0.118839,0.147013,0.102169,0.0610359 };
  static const float weights1[][8] = { {0.0694951,-0.101405,0.424409,-0.109514,0.0246396,-0.230046,0.241606,0.0635591}
,
{0.17056,-0.0139388,-0.015773,-0.171437,0.0886773,0.201646,0.100221,-0.0629954}
,
{0.106559,0.130273,0.111188,0.0849768,0.0859037,0.050342,0.113678,0.252876}
,
{0.318926,0.311695,-0.178863,-0.102568,-0.0698176,0.086837,-0.131052,-0.147228}
,
{0.076761,0.196483,0.108248,0.0139803,-0.190519,0.318293,0.00220922,0.259666}
,
{-0.0686559,0.0263144,0.40653,0.0663757,-0.237714,-0.169585,0.0770161,0.117123}
,
{-0.0608468,0.0947595,0.352824,-0.202288,0.116642,-0.00108549,0.184748,0.23053}
,
{-0.187626,0.127119,0.083015,0.0133988,-0.0342668,0.0672321,-0.0121258,-0.196388}
,
{-0.0864722,0.00450318,0.00144004,-0.209357,-0.230616,0.102546,-0.183067,-0.0596022}
,
{0.0904226,-0.212547,-0.245544,-0.0809996,-0.0285734,-0.021238,0.0940853,0.152618}
,
{0.0726775,-0.0691206,0.0778285,-0.178222,-0.236002,0.142679,0.00751781,-0.0844745}
,
{-0.11012,0.146932,-0.0224574,-0.185358,-0.0395458,0.0788359,0.0469823,-0.0223}
,
{-0.211766,0.034437,0.0546358,0.0603634,-0.0971344,-0.165611,-0.116159,-0.186093}
,
{0.000595107,-0.0758627,0.0574621,-0.00425381,0.0485688,0.0537928,0.156782,-0.0532576}
,
{-0.0962462,0.000573864,0.114528,-0.098379,0.00938818,0.0420218,-0.0724365,0.0316774}
,
{-0.200334,-0.0162616,-0.015094,-0.190705,-0.0361676,-0.125946,0.0609148,0.0730441}
,
{-0.163686,-0.139865,0.115142,-0.0516752,-0.0474578,-0.107022,-0.131154,-0.0338291}
,
{-0.511211,-0.611041,0.593808,0.098285,0.0725546,-0.585131,0.634215,0.321318}
,
{-0.103404,-0.0741633,-0.0121503,-0.0350814,-0.214085,0.1087,0.0265385,0.019765}
,
{0.0478623,0.245211,0.0133788,-0.160143,-0.125574,0.254722,-0.0151942,0.00220104}
,
{-0.122659,0.300059,0.185958,-0.294923,-0.0244394,0.0811564,0.010903,-0.00568562}
,
{0.150422,0.0276185,-0.202263,-0.0789881,0.102694,0.190235,-0.0432164,0.141115}
,
{0.244512,0.0574561,0.104636,-0.0849065,-0.179099,0.119358,0.0404143,0.187457}
,
{0.0258408,0.0959391,-0.134648,-0.0867172,0.0305896,0.389417,-0.192847,-0.0407776}
,
{0.0295832,-0.0900966,-0.0518604,-0.180064,0.108343,0.117215,0.0814565,-0.114093}
,
{0.194592,-0.0933613,-0.0868303,0.0863318,-0.0907661,-0.166053,0.00460167,-0.0749574}
,
{-0.0108961,-0.186517,0.0289733,0.153462,0.196037,0.0358657,-0.00507185,0.0231491}
,
{0.154244,-0.00860323,0.211344,0.0690647,-0.0411723,0.0359504,0.118999,-0.0507928}
,
{-0.0762143,-0.0188952,-0.132121,-0.0776145,-0.047577,-0.0621988,-0.0662074,-0.00545521}
,
{-0.0390571,0.00287465,0.0909189,-0.128817,0.209145,0.134963,-0.161344,-0.0353452}
,
{0.0871491,0.111774,-0.0351214,0.097968,0.0206469,0.0568627,0.0171828,0.00851931}
,
{-0.136289,0.194119,0.010764,0.033523,0.0557353,0.101362,0.0353882,-0.018203}
,
{-0.0945441,-0.00132573,0.0829508,0.0791197,-0.0269486,0.150745,-0.103469,-0.028437}
,
{-0.0550726,-0.0304521,0.00990847,0.125397,-0.0355921,0.0544832,-0.0525225,-0.0228843}
,
{0.109689,0.128346,0.0579999,-0.164178,0.165371,-0.173383,0.0731449,0.0534462}
,
{0.0741136,0.123116,0.131253,0.11562,0.113754,0.0150949,0.0189653,0.0204562}
,
{-0.0299752,-0.0744913,-0.051044,0.14215,-0.0878852,0.101498,-0.038217,0.0516871}
,
{0.161746,-0.118045,-0.206886,0.095053,0.0829587,-0.0399914,0.0536922,0.00342537}
,
{-0.0230243,0.191956,0.128867,-0.0353195,0.00616921,0.00771787,0.0957857,0.128616}
,
{0.0103793,-0.04509,0.0184546,0.0755023,-0.0361896,0.13913,0.00110671,-0.015821}
,
{0.0288206,0.145946,0.0477778,-0.220982,0.13992,-0.180891,0.0303816,0.124145}
,
{0.206898,0.0448011,0.026333,-0.038338,0.0952079,-0.0657128,0.129712,0.0345116}
,
{0.240897,0.0304417,0.0149477,0.163962,0.178594,-0.00257986,0.155516,-0.0124265}
,
{0.150905,0.0714872,0.0229541,-0.0450372,0.0692577,-0.057127,0.127389,0.0234418}
,
{0.10984,0.00217334,0.00312346,-0.0249578,-0.0231388,-0.0367804,0.0460857,0.169239}
,
{-0.126951,0.0771967,0.169444,0.140156,-0.162347,-0.0315613,-0.116006,0.0134825}
,
{-0.0341028,-0.00992489,-0.0311823,-0.0458752,0.0191915,-0.00130953,-0.0141807,-0.0508157}
,
{-0.0232102,0.0186743,-0.0253556,-0.0462196,0.111998,-0.0617356,-0.0199215,-0.0459272}
,
{-0.00788051,0.0575787,0.0456262,-0.0704109,-0.0353717,0.0279861,0.00656717,0.203827}
,
{0.0214698,0.00745459,-0.0931879,-0.0517104,0.0563137,-0.123977,0.0521779,-0.0848244}
,
{0.145759,0.0128137,0.0551344,-0.127912,-0.130088,0.0132576,0.185315,0.0286826}
,
{-0.139677,0.0337461,0.0274632,-0.0152842,0.047397,-0.0478882,-0.0756397,-0.176367}
,
{-0.103839,-0.0258347,-0.0768743,0.11408,0.0333154,0.0240652,-0.066728,-0.10448}
,
{-0.00770622,-0.0605134,0.142663,0.0477222,-0.0338144,0.16045,-0.0846349,0.0795014}
,
{0.186404,0.0575776,0.0138664,0.121331,0.138557,0.130275,0.0457329,-0.0813414}
,
{-0.0841539,0.00818615,0.197129,-0.154462,-0.0720268,0.253821,-0.0790027,0.0301074}
,
{0.0938226,-0.21088,0.0762904,-0.0922086,0.177778,0.153939,0.00748788,0.238473}
,
{-0.0544066,0.0306538,-0.0967727,-0.189787,-0.0062163,0.0149613,-0.188811,0.12305}
,
{-0.0849708,-0.161776,0.228892,-0.081329,0.0182686,-0.0366442,-0.0986015,0.101332}
,
{0.115331,0.0210281,-0.0224248,-0.00556518,-0.164442,-0.129629,-0.227806,-0.101596}
,
{-0.14914,0.134436,0.114061,-0.0782822,-0.159615,-0.180283,-0.157503,-0.0916782}
,
{-0.0201342,-0.0593212,-0.0598912,0.0292597,-0.216193,0.0174426,0.0365567,0.103854}
,
{0.0585536,0.0257728,0.0948223,-0.219032,-0.114156,0.0941725,-0.0409147,0.118789}
,
{-0.0496333,-0.0715317,0.113421,-0.0711794,0.0172266,-0.0418522,-0.0330762,0.043433}
,
{0.0934669,-0.0474156,-0.00694675,-0.145051,-0.0192363,-0.113502,-0.0709449,-0.0163459}
,
{-0.00464835,0.208175,-0.00595862,0.045635,0.0407352,-0.136339,0.18837,0.12333}
,
{0.101674,0.0837205,-0.215154,-0.0416477,-0.0529495,-0.106424,0.141262,-0.073964}
,
{-0.0415075,0.0237832,-0.0635984,0.0497927,-0.0809382,0.0856109,-0.0425085,0.0293843}
,
{0.152833,0.0370839,-0.0485225,0.0420315,-0.0508928,-0.0206907,-0.150974,-0.0180362}
,
{-0.0324879,0.0211265,0.0381867,0.00590787,-0.101628,-0.154828,0.111069,0.103617}
,
{-0.079341,0.0339815,-0.0308675,0.121724,0.117337,0.0871541,0.0557759,-0.104141}
,
{-0.0244064,0.199651,0.00355276,-0.0326915,0.151024,-0.150647,0.118064,0.0906142}
,
{-0.0900632,0.228839,-0.129574,0.0787075,0.045724,-0.227349,-0.0328222,0.218754}
,
{-0.0176874,-0.0819553,0.0333154,-0.136148,0.053235,0.0568552,-0.0190112,0.119378}
,
{-0.0340119,0.0488892,-0.149174,-0.0579403,0.267327,-0.0974074,-0.0296038,0.104145}
,
{-0.000433429,0.118341,-0.0970359,0.0637931,0.148539,0.0405594,0.174919,-0.163843}
,
{-0.102561,0.0413344,-0.190001,0.0571429,0.16426,-0.0426032,-0.0463616,0.139022}
,
{0.125155,-0.213501,0.0250169,0.037868,-0.0350592,-0.113886,0.113595,0.0436454}
,
{-0.565079,-0.576602,1.18553,0.304726,0.610471,-0.861119,0.869081,0.527455}
,
{-0.0952317,-0.504602,0.893218,-0.0206635,-0.15005,-0.629998,0.449647,0.468995}
,
{0.37551,0.312498,-0.53261,-0.00967498,-0.0114431,0.0902876,-0.282759,-0.202046}
,
{0.196995,0.420325,-0.302554,-0.18265,-0.332731,0.391469,-0.255361,-0.175192}
,
{0.517169,0.629697,-0.586556,-0.0386105,-0.142336,0.754563,-0.639218,-0.261553}
,
{0.496098,0.404464,-0.419886,-0.143034,-0.0608252,0.538958,-0.353191,-0.282493}
,
{0.325486,0.0823754,-0.337856,-0.221328,-0.0552356,0.256084,-0.410583,-0.17115}
,
{0.0288762,-0.0866577,0.4662,-0.131477,-0.00426715,-0.107096,0.371375,0.0239418}
,
{-0.139648,-0.130729,0.182673,0.223848,0.329152,-0.268002,0.0538531,0.00819944}
,
{-0.642274,-0.850055,0.633584,0.0208345,0.321532,-0.55705,0.55296,0.513481}
,
{-0.126066,-0.0736559,-0.0267023,-0.153468,-0.12704,-0.0945595,-0.00469995,0.081379}
,
{-0.081685,0.289015,-0.652788,-0.263192,-0.450461,0.289559,-0.0609974,-0.166332}
,
{0.323408,0.604109,-0.808743,-0.172515,-0.422774,0.343686,-0.155705,-0.0316827}
,
{0.116924,-0.120687,0.021458,0.23624,0.130266,0.147992,-0.0459252,0.0303904}
,
{-0.0527289,-0.0387667,-0.0136322,0.243131,0.0959211,-0.103784,-0.0443938,-0.0126744}
,
{-0.0237453,0.0743017,-0.0383818,-0.0158171,-0.0470241,-0.0956993,0.108553,-0.173702}
,
{0.190723,-0.0796014,-0.0439606,0.0653218,0.126163,0.198996,0.0229085,-0.085414}
,
{-0.0818176,0.0717461,-0.147756,0.167338,0.101546,0.154684,-0.0385846,0.0523798}
,
{-0.01722,-0.0489139,0.106604,-0.0302809,0.196571,0.16428,0.0340574,0.0495479}
,
{0.0398394,-0.0581995,0.151796,0.00929028,-0.232192,0.0247763,-0.0188458,-0.0796104}
,
{0.0599585,0.134689,0.0306422,-0.220382,-0.12714,-0.0168141,0.0395297,-0.140125}
,
{0.214682,-0.0250822,-0.00869451,0.0921566,0.118824,-0.127705,0.214487,0.0833767}
,
{0.0803353,-0.33114,0.410599,0.0643702,0.046004,-0.259957,-0.069725,0.0277478}
,
{-0.23519,-0.499339,0.851721,0.480369,0.277044,-0.764915,0.49427,0.303637}
,
{-0.423238,-0.589558,0.574707,0.037374,0.139519,-0.641817,0.340621,0.40276}
,
{-0.258472,-0.0168234,0.258369,0.0106637,0.0527427,-0.107159,0.134401,-0.0428203}
,
{-0.139788,-0.142941,0.047758,-0.00451008,-0.0137102,-0.103772,0.116997,0.224746}
,
{0.167367,0.0925188,0.0855099,-0.00701595,0.0261436,-0.0139159,-0.0346792,0.0461411}
,
{-0.0506144,0.0671746,-0.0445873,0.0868734,-0.0534448,0.137727,0.0170399,0.0320697}
,
{0.170683,-0.172339,-0.0430768,-0.0737034,0.0148087,0.000399029,-0.0641958,-0.141642}
,
{0.0403906,-0.149417,0.0879422,0.170081,-0.0143224,0.0128509,0.0332884,-0.132379}
,
{-0.0826686,-0.222351,0.459916,0.142524,0.198616,-0.181096,0.00510284,0.323026}
 };
  static const float bias2[64] = { 0.13776 };
  static const float weights2[][64] = { {0.0410054}
,
{0.048712}
,
{-0.0299475}
,
{-0.0278711}
,
{-0.0265104}
,
{0.0282092}
,
{-0.0519432}
,
{-0.0136635}
 };

  float tmp[8];
  for (unsigned int i = 0; i < 8; i++) {
    float sum = 0.f;
    for (unsigned int j = 0; j < 110; j++) {
      sum += weights1[j][i] * vals_in[j];
    }
    sum += bias1[i];
    tmp[i] = sum > 0.f ? sum : 0.f; // RELU
  }
  float sum = 0.f;
  for (unsigned int j = 0; j < 8; j++) {
    sum += weights2[j][index] * tmp[j];
  }
  sum += bias2[index];
  return sum;
}
float specialized_gen_lepton_prior_0_2_0(const Sirikata::Array1d<int16_t, 110> &v,
                                int index) {
  return gen_lepton_prior_0_2_0(v, index);
}
static int assign_gen_lepton_prior_0_2_0() {
  global_gen_lepton_prior.at(0,2,0) = &specialized_gen_lepton_prior_0_2_0;
  return 0;
}
static int initialize_gen_lepton_prior_0_2_0 = assign_gen_lepton_prior_0_2_0();

template<typename T, uint32_t ms> float gen_lepton_prior_0_3_0(const Sirikata::Array1d<T, ms>& vals_in, int index) {
  static_assert(ms >= 110,
     "array must be sized to hold at least 110");
  static const float bias1[8] = { -0.023119,0.224558,0.0437741,0.0269735,0.00963735,0.0134197,-0.0203456,0.0877647 };
  static const float weights1[][8] = { {-0.0884964,-0.654259,0.176467,-0.297193,-0.00777484,0.254451,-0.0126071,0.255557}
,
{0.179751,0.0812436,-0.120235,-0.0472837,-0.0268437,-0.146601,0.206945,0.0376636}
,
{-0.0467145,0.0109985,0.200278,0.119843,0.0147658,0.166338,-0.0125153,0.158523}
,
{-0.00899324,0.695758,-0.211697,0.374731,0.3121,-0.353935,0.248584,-0.225731}
,
{-0.172619,0.336362,0.00217211,-0.0242775,0.0368966,0.0569782,-0.033456,0.0963817}
,
{-0.112314,-0.00518676,0.0269441,0.0843511,-0.0182106,0.16609,0.0480327,0.0327895}
,
{-0.03646,0.120683,-0.0638355,0.0487527,0.14182,0.179565,0.00159422,0.0624183}
,
{-0.184557,0.148762,-0.200171,0.000967479,-0.0249516,-0.035545,-0.188133,0.205055}
,
{0.164608,-0.0372956,0.0268207,-0.106167,-0.136616,-0.14892,-0.19597,0.169859}
,
{-0.17489,-0.231427,0.0603939,0.0975682,-0.0738503,0.0394406,-0.130013,-0.0284257}
,
{0.0198033,0.144119,-0.0569818,-0.143315,-0.15686,0.142849,-0.0377583,0.0379558}
,
{-0.0457386,0.0518788,-0.0782596,-0.125845,0.171076,0.00394633,0.176944,0.0086814}
,
{-0.171965,-0.00481928,0.179056,-0.10827,-0.175687,-0.0418241,0.0241672,0.204712}
,
{-0.0927332,0.00198307,-0.0408424,-0.104908,0.0478049,0.0614958,0.116712,-0.243063}
,
{0.0309804,0.232894,-0.0819981,0.0818887,0.177949,-0.0867852,-0.0766018,0.218396}
,
{-0.0598424,0.110467,0.0429929,-0.155369,-0.0254074,-0.110785,0.0677327,-0.0526388}
,
{-0.0753803,0.185797,-0.141776,-0.119469,0.0217079,-0.151867,-0.187825,-0.0196285}
,
{-0.361641,-1.09155,0.635707,-0.67545,-0.810967,1.20731,-0.467192,0.813808}
,
{-0.181834,0.166807,0.0266355,0.054547,-0.0164963,0.214033,0.140827,0.177894}
,
{0.0129351,0.172325,-0.135921,-0.184454,0.0212518,0.351661,0.0531164,-0.0495277}
,
{-0.211115,0.0177398,0.0479382,0.0584477,-0.00165365,0.0804002,-0.00228844,-0.114166}
,
{-0.0999161,0.0586253,0.0890824,0.0504975,0.200283,0.00756703,0.10357,0.114192}
,
{0.0995072,0.0859907,0.00563065,0.0520398,0.173164,0.100643,0.0675972,0.20687}
,
{-0.00380332,0.20504,-0.291468,-0.0939661,0.0745498,0.180434,0.281807,-0.168546}
,
{-0.0311081,-0.0495428,0.0316722,-0.192327,0.208041,-0.0156155,-0.0383848,-0.105181}
,
{-0.0376508,0.0026049,0.173865,-0.0132528,-0.150595,0.118407,0.0979787,0.108201}
,
{-0.145033,-0.0717417,-0.0447474,-0.171511,-0.154924,0.129067,0.143905,-0.147541}
,
{-0.101158,-0.102683,0.0854285,-0.0137015,0.0141775,0.0316979,0.0465811,-0.132535}
,
{-0.0135467,0.0448753,-0.0402311,-0.0750351,-0.212592,0.0346616,-0.070656,-0.0582974}
,
{0.139531,0.0727489,-0.0891225,0.119894,0.103768,-0.189596,0.0592427,-0.0471837}
,
{-0.00975818,0.120978,-0.0447976,-0.154269,-0.0207022,-0.120217,0.115059,0.0159445}
,
{0.142921,-0.121405,0.0185381,-0.051941,0.228068,-0.00221586,-0.0284928,0.154069}
,
{0.0814984,0.00665547,0.057313,0.0341752,0.0174021,-0.0689163,0.0465578,0.151151}
,
{-0.00909825,0.00941585,0.129143,0.0294179,0.209977,0.0771136,0.165039,-0.0533764}
,
{0.0876238,0.000870085,0.190136,0.153916,0.124886,-0.00176442,0.0281321,0.065465}
,
{0.087664,0.000904144,0.0902315,-0.00510725,0.0896368,0.0246935,0.023888,0.00876914}
,
{0.0359295,-0.0168624,0.0459459,0.0213989,0.0807532,-0.0962804,0.039862,-0.0438295}
,
{-0.0151181,0.00382243,0.0532377,0.0204606,0.158777,-0.0349992,-0.150229,0.108738}
,
{0.0715385,-0.0386367,0.00840146,-0.0243953,-0.0422226,-0.187193,0.165448,0.122309}
,
{0.00420113,0.0138626,-0.152084,-0.12396,-0.104621,0.0394782,-0.0814324,-0.0409773}
,
{-0.102717,-0.0010577,0.0824156,0.00711462,-0.167455,-0.0997086,-0.0224434,0.12581}
,
{0.0635112,-0.00275889,-0.00879993,-0.00512767,0.0270195,-0.00941131,0.0694209,0.134581}
,
{-0.171663,0.0013276,-0.101587,-0.0903123,-0.0388509,0.0540515,0.101327,0.145401}
,
{0.0903979,-0.011752,0.0536133,0.0166637,-0.0641733,-0.124275,0.049987,-0.0248637}
,
{0.0242328,0.00391401,-0.0189186,-0.0176304,0.0543004,0.0447162,0.0467181,0.0784834}
,
{-0.0464381,0.0410796,0.0962165,0.0252129,-0.210872,0.228764,0.178698,0.122561}
,
{0.135999,-0.0087818,0.0386868,0.0477434,0.0430102,-0.0678756,0.00311913,0.128802}
,
{-0.108553,-0.0143332,0.0194153,0.0324033,-0.221718,-0.0756311,0.124585,-0.0777907}
,
{0.134204,-0.00248713,-0.131564,-0.110531,-0.160619,0.0436743,0.0295681,0.0225114}
,
{0.0454851,-0.0219633,-0.142183,-0.132758,0.114899,-0.114482,0.0334105,0.104603}
,
{0.174682,0.00777928,-0.109036,-0.0495691,0.0602791,0.168412,-0.163303,-0.164298}
,
{0.0635038,-0.00481871,-0.102502,-0.0747623,-0.0930826,-0.00246221,0.0214309,-0.0440135}
,
{0.0790866,0.0159605,-0.0513854,-0.0332553,0.00987218,0.0653225,-0.117403,0.104224}
,
{-0.138893,-0.0925986,-0.083556,-0.0275964,0.114518,-0.24185,0.170789,-0.233631}
,
{-0.118086,-0.0708299,0.0475292,-0.0351241,-0.133102,-0.212992,-0.0272692,0.371908}
,
{0.0213361,0.156267,-0.0635876,0.361202,-0.0098997,-0.00410038,0.135302,0.027768}
,
{-0.155902,-0.0449828,0.164458,-0.146685,-0.117622,-0.101496,0.077216,0.194812}
,
{-0.0795689,0.0316227,-0.0523243,0.193369,0.0351101,-0.0358668,0.104359,-0.035524}
,
{-0.0595431,0.139918,0.180628,-0.0630098,-0.0845765,0.000365668,0.073448,-0.143854}
,
{-0.082543,0.107883,0.0693719,-0.0909178,-0.0740992,0.0455276,-0.0342242,0.149716}
,
{0.133046,0.0848693,-0.012012,0.112729,0.0180194,0.0187561,0.0385669,-0.0681854}
,
{0.0348415,0.0352627,0.0442178,-0.142003,0.0844778,-0.0562438,0.0852663,0.0925329}
,
{0.168813,0.217424,-0.0386746,0.00806734,0.138811,-0.163649,-0.0411502,-0.0484828}
,
{0.0103668,-0.0364985,0.0803103,-0.020866,-0.0399826,0.134876,0.0164201,0.172152}
,
{-0.136998,0.0778163,-0.015047,0.0721855,0.0465187,0.124695,0.0245703,0.0906697}
,
{0.0108945,-0.0265822,0.161347,-0.0817495,0.0283191,-0.0238793,0.0302137,0.236551}
,
{0.0202802,0.073965,0.130703,-0.115633,0.216097,-0.0400655,0.0322855,-0.0400753}
,
{0.136405,-0.160695,0.104976,0.0755197,-0.147592,-0.154965,-0.00258201,-0.054415}
,
{-0.143539,-0.180208,-0.100399,0.11209,0.0515022,-0.0343935,0.166041,0.041709}
,
{0.107689,0.0839722,-0.0916207,-0.0516332,0.025562,0.00889804,0.064918,-0.0781999}
,
{-0.1172,-0.131209,-0.078198,-0.123455,-0.149613,0.00847851,0.138249,-0.16964}
,
{-0.243847,-0.120439,0.214222,0.0312298,0.148543,0.0240231,0.121402,-0.202636}
,
{0.00227936,-0.060122,-0.0377324,0.000771273,-0.0374391,-0.0083553,-0.0187663,-0.00172037}
,
{0.0748395,-0.00891601,-0.106414,0.0116546,-0.158721,0.0907954,-0.116684,0.113411}
,
{0.113407,-0.0211619,-0.0412534,0.0381391,0.0373585,0.0263427,-0.0518529,0.268351}
,
{0.0153441,0.0342056,-0.0572874,-0.0101391,-0.0848226,-0.0207967,0.122542,0.143002}
,
{-0.00340897,0.415759,0.11305,0.0687953,-0.0269956,-0.241856,0.128074,-0.099332}
,
{-0.107295,-0.0829265,-0.0494933,0.0100526,-0.0929817,-0.0817696,0.0720634,0.0408409}
,
{-0.277143,-0.437622,0.182355,-0.145745,-0.0591316,0.160306,0.0503208,0.405712}
,
{-0.140264,-0.625587,0.1167,-0.123872,-0.203695,-0.0512338,-0.110058,0.234511}
,
{-0.172689,-0.537838,0.018941,0.0457275,-0.402492,0.227196,-0.206414,0.35014}
,
{0.107837,-0.0897387,0.185015,0.0379844,-0.0759415,0.262355,-0.153278,-0.0108765}
,
{0.0532933,1.05592,-0.3669,0.228286,0.278948,-0.700727,0.34172,-0.391958}
,
{0.427223,1.27971,-0.653311,0.655976,0.727271,-1.11517,0.67018,-0.55658}
,
{0.43474,0.830236,-0.393312,0.529227,0.608502,-0.942479,0.241099,-0.526326}
,
{-0.0324559,-0.0956002,0.219804,-0.309624,-0.193571,0.388755,0.0431962,-0.0825531}
,
{0.0791927,-0.140279,-0.152631,-0.115778,0.115275,-0.164955,0.066739,-0.147126}
,
{0.0507388,-0.144783,0.0818712,-0.222726,-0.0567221,-0.0661898,0.0142336,0.209477}
,
{-0.342082,-0.849232,0.212096,-0.391894,-0.423588,1.04041,-0.319433,0.67028}
,
{-0.220642,-1.11682,0.748191,-0.529542,-0.658978,1.1035,-0.332287,0.809909}
,
{-0.268638,-1.11751,0.436838,-0.567398,-0.714417,0.854839,-0.369557,0.457017}
,
{-0.0048056,-0.114622,-0.0789973,-0.0078517,0.0323946,0.215536,0.0336524,0.005743}
,
{-0.202097,0.0536403,-0.018628,-0.12889,-0.0583234,-0.0659687,-0.0326975,-0.109854}
,
{-0.0558119,-0.109961,-0.084018,0.0371063,-0.232234,0.0249298,-0.13064,0.00548359}
,
{0.0041571,0.0381163,-0.111012,-0.121436,-0.0248572,-0.0924354,-0.121321,0.0686682}
,
{0.10759,0.116585,-0.114395,0.00228514,0.0847628,-0.101499,-0.0294887,0.00708375}
,
{-0.113816,-0.135309,0.0694571,0.05886,-0.0224014,-0.127248,-0.00674431,0.0890703}
,
{-0.00854334,-0.157775,0.0540381,0.177372,0.184159,-0.135133,0.0418834,-0.1337}
,
{-0.022056,-0.0968853,0.163402,0.0510641,0.112103,-0.020901,0.0265301,-0.0146379}
,
{-0.0102484,-0.104117,0.0456573,0.0827798,-0.00187547,-0.0437005,0.0830133,0.0504261}
,
{0.0398294,-0.0889908,0.0596219,0.0323896,0.0639093,0.235651,-0.233798,0.102532}
,
{-0.0729562,0.102376,0.12838,-7.46133e-05,0.0777296,-0.0762558,0.0486043,-0.0440946}
,
{-0.00474058,-0.597461,0.179197,-0.102758,-0.284155,0.417907,-0.139087,0.0760197}
,
{-0.0193463,-0.361881,-0.0205421,-0.167703,-0.326399,0.391088,-0.0115103,0.0631573}
,
{-0.052471,0.0426892,-0.127345,-0.0685405,0.19085,0.0612183,-0.148545,-0.014144}
,
{-0.19969,-0.0123719,-0.0477098,-0.176948,-0.12126,0.159791,0.0922815,0.0525329}
,
{0.115178,0.119651,-0.00512703,-0.10095,-0.0963585,-0.226858,0.127729,0.126091}
,
{-0.115779,0.135036,-0.0630303,-0.185834,0.0732816,-0.113207,0.122888,-0.0349668}
,
{-0.0368704,0.0288275,-0.0231858,0.0209034,0.225135,-0.154441,-0.0713985,-0.132774}
,
{0.129949,0.102435,0.0764364,-0.0448407,0.0134972,0.0720832,0.183021,-0.0312903}
 };
  static const float bias2[64] = { 0.00289832 };
  static const float weights2[][64] = { {0.0101408}
,
{0.173053}
,
{-0.0504015}
,
{0.0513643}
,
{0.00920393}
,
{-0.0301717}
,
{0.0180429}
,
{-0.0148543}
 };

  float tmp[8];
  for (unsigned int i = 0; i < 8; i++) {
    float sum = 0.f;
    for (unsigned int j = 0; j < 110; j++) {
      sum += weights1[j][i] * vals_in[j];
    }
    sum += bias1[i];
    tmp[i] = sum > 0.f ? sum : 0.f; // RELU
  }
  float sum = 0.f;
  for (unsigned int j = 0; j < 8; j++) {
    sum += weights2[j][index] * tmp[j];
  }
  sum += bias2[index];
  return sum;
}
float specialized_gen_lepton_prior_0_3_0(const Sirikata::Array1d<int16_t, 110> &v,
                                int index) {
  return gen_lepton_prior_0_3_0(v, index);
}
static int assign_gen_lepton_prior_0_3_0() {
  global_gen_lepton_prior.at(0,3,0) = &specialized_gen_lepton_prior_0_3_0;
  return 0;
}
static int initialize_gen_lepton_prior_0_3_0 = assign_gen_lepton_prior_0_3_0();

template<typename T, uint32_t ms> float gen_lepton_prior_0_4_0(const Sirikata::Array1d<T, ms>& vals_in, int index) {
  static_assert(ms >= 110,
     "array must be sized to hold at least 110");
  static const float bias1[8] = { -0.0654446,0.00766694,-0.073821,-0.0737968,-0.128184,0.0692072,0.0737541,0.0862941 };
  static const float weights1[][8] = { {-0.305873,-0.0268744,-0.30749,-0.240159,-0.052578,0.218083,0.341613,0.0596687}
,
{0.117308,0.189083,-0.00694881,-0.140609,-0.222603,0.174255,0.276155,0.271857}
,
{-0.0242249,0.167633,0.0287722,-0.019176,-0.227315,0.0236814,-0.129171,-0.131499}
,
{-0.0605002,0.0457238,0.184288,0.0838798,0.0553569,-0.0718278,-0.0279904,0.0740592}
,
{-0.0932569,-0.141247,0.0908631,-0.112318,-0.137893,0.166514,0.033254,0.155272}
,
{-0.159091,-0.119795,-0.1135,-0.0720981,-0.243304,0.0803927,-0.0694596,-0.0414497}
,
{0.086888,-0.199582,-0.0538933,-0.132387,-0.0682752,0.112854,0.100547,-0.0170999}
,
{-0.208306,-0.142818,0.0587502,0.0526283,-0.198758,0.0896966,-0.0102486,0.052361}
,
{0.178646,-0.000284335,-0.160713,0.00615834,-0.158914,-0.203638,0.00358331,-0.117886}
,
{-0.176681,-0.238361,0.00720049,-0.246704,0.00360435,-0.0750919,-0.14636,0.0248813}
,
{-0.0302487,0.101352,0.053091,0.100871,0.0203422,-0.0608483,-0.0698713,-0.00548015}
,
{0.0319474,0.156947,0.0685198,0.0130103,0.127683,0.116311,-0.0473661,0.0506545}
,
{-0.00147625,-0.134473,-0.12674,-0.0133456,-0.0318373,0.16795,0.149517,-0.0998915}
,
{-0.176754,0.15947,-0.0821932,-0.0321101,-0.152825,0.112747,0.0417605,0.146039}
,
{0.0874435,0.0889861,0.20874,0.128003,-0.083991,0.0628073,0.158283,-0.0634365}
,
{0.0258215,0.184702,-0.107808,0.0822794,-0.0402506,-0.0795645,-0.0384894,0.216127}
,
{0.0148749,-0.0277262,-0.0782179,0.184544,-0.228991,0.246008,-0.179073,0.0772756}
,
{0.0590732,-0.322306,-0.217574,-0.108471,-0.399387,0.31393,-0.00990322,0.199846}
,
{0.00457004,0.106996,0.0860511,0.0335961,0.0156234,-0.140954,-0.138619,0.196431}
,
{0.104408,0.107261,0.258606,0.167688,0.217023,-0.0800271,-0.120146,-0.00592859}
,
{0.143355,0.104083,-0.0248142,0.0937766,-0.0369901,-0.24969,-0.14007,-0.140245}
,
{-0.00522705,0.0391962,-0.176637,-0.0233625,0.100995,-0.0904458,0.0848297,-0.0194096}
,
{-0.10309,-0.0374373,0.0794007,-0.136627,0.0346033,-0.134204,0.0402599,-0.0320789}
,
{-0.0632769,-0.178611,0.00601552,-0.0238065,-0.131698,0.0267469,-0.104687,-0.0140321}
,
{0.212284,0.124759,-0.190657,0.0436411,0.15457,-0.0572502,0.202497,0.0559795}
,
{-0.035539,-0.151868,0.0408913,-0.0538676,0.203999,-0.0298687,-0.0615303,0.0840845}
,
{-0.0531204,-0.153004,-0.154404,-0.0341942,0.0855661,-0.159212,-0.133426,0.120457}
,
{0.00345191,-0.00349696,-0.0113709,-0.0534881,0.0482181,0.0642032,0.0192333,0.0143337}
,
{0.236015,-0.0275984,-0.0723491,0.0541038,-0.0331349,0.0960599,-0.0117185,0.0152099}
,
{0.0500098,0.00574435,0.0313963,-0.00520892,0.239977,0.225524,0.0574354,-0.117343}
,
{-0.141237,0.195878,-0.0353642,-0.0741336,0.0801399,-0.138483,-0.112064,-0.0859771}
,
{-0.0412355,0.207964,-0.0590154,0.0454344,-0.0332726,0.049523,0.207911,-0.186621}
,
{-0.0595929,-0.00313753,-0.082611,0.0313594,-0.00611049,-0.0351866,0.114193,0.0291496}
,
{-0.0653151,-0.213148,-0.0574747,-0.0479134,0.116842,-0.0195732,-0.0496605,-0.0615613}
,
{-0.0378462,-0.0385217,0.0927868,0.126829,-0.198173,-0.0890356,0.149278,-0.179142}
,
{-0.133256,-0.175919,0.00421873,0.124406,0.0165005,-0.0636139,-0.235096,0.0995752}
,
{0.0411304,0.101819,-0.0227946,-0.00786207,0.0102857,0.0304742,0.0275636,0.0556886}
,
{0.18672,0.117945,-0.0203535,0.138594,-0.0621612,0.044621,0.239028,-0.0898481}
,
{-0.0819073,0.0879296,0.0388446,0.0135559,-0.0645303,-0.0142208,0.0515104,-0.0753838}
,
{-0.0493291,0.0510202,-0.127882,0.0943891,0.0487534,0.200472,-0.142917,0.0609431}
,
{-0.285728,-0.0141256,0.0278788,-0.185043,-0.044942,-0.0398089,0.0421337,-0.00828451}
,
{0.211458,0.01463,-0.0379662,-0.0772734,0.0243166,0.0697236,0.0016656,0.0282736}
,
{0.0499075,0.123141,0.0349908,-0.0966396,-0.00826043,-0.184924,0.0950412,0.0085523}
,
{0.151166,-0.0661157,-0.0690987,-0.110566,-0.0363715,0.0194821,-0.0437978,-0.105541}
,
{-0.174972,0.024949,0.0605477,-0.0464639,0.0115964,-0.179445,-0.0581762,0.0547889}
,
{-0.103545,-0.11387,0.0585478,-0.0866799,0.0149297,-0.182183,-0.0480402,0.00425028}
,
{-0.0283241,0.103571,-0.0138795,0.0213801,0.0214108,0.0152404,-0.0354915,0.0658162}
,
{0.138623,-0.034221,-0.0523351,0.0469364,0.0474383,0.168265,0.0593923,0.0354062}
,
{-0.0615866,-0.0787247,0.0312313,-0.0992103,0.0847851,0.0711994,-0.0939676,0.0533499}
,
{0.164562,0.126759,0.0254176,-0.0525906,-0.00421499,0.0224649,0.0720208,0.0550373}
,
{-0.0430114,-0.123782,0.0986935,-0.199385,-0.0146872,-0.127497,0.0182192,-0.0946369}
,
{-0.016686,-0.239209,-0.0425158,0.142563,-0.00251403,0.149655,-0.0818744,-0.111875}
,
{0.154432,0.0839761,-0.0626108,-0.0453137,-0.0420671,-0.102644,0.00833093,0.00215231}
,
{0.0462405,-0.195926,-0.10724,-0.13495,0.0328123,0.111435,-0.0702941,0.0924676}
,
{-0.0875486,-0.0650687,0.161101,-0.325565,0.00736432,-0.0521881,0.113505,0.0316765}
,
{0.129181,0.00308925,0.0181495,-0.1211,0.141902,0.0465934,-0.109864,-0.209529}
,
{0.15004,-0.157529,0.0659584,0.0136106,-0.0582948,0.18106,-0.0556178,0.0848293}
,
{-0.225388,0.305818,-0.058629,-0.000946495,-0.129222,-0.0741457,0.0518468,-0.0732526}
,
{-0.00120586,-0.125069,0.0441078,-0.0124884,-0.105605,-0.0621751,-0.112384,-0.0222659}
,
{0.0664529,0.163361,-0.131523,0.0162852,0.0426484,-0.0901117,0.0736005,0.131952}
,
{0.0431355,0.203778,0.0500662,-0.135877,-0.0256369,-0.0386865,-0.166296,0.00781103}
,
{-0.015003,-0.154127,-0.222836,0.195871,-0.0567292,0.21162,-0.0518624,0.0932142}
,
{0.0847603,0.081964,0.0129033,0.176791,0.0668492,0.0279101,0.0164303,-0.071473}
,
{0.175597,-0.0438028,-0.0652052,0.0112907,-0.0947187,0.041884,-0.200309,0.0357682}
,
{-0.0478046,0.162081,-0.0953213,0.195572,-0.129639,0.0354188,-0.121042,0.0565171}
,
{-0.0891024,-0.0319335,0.0611374,0.000943497,-0.112521,-0.0373587,0.0241293,-0.00532725}
,
{0.0612856,0.0493355,0.160019,0.0306082,0.170521,0.102259,-0.0210202,0.104365}
,
{-0.023028,-0.0531824,0.0272604,-0.0652295,-0.137141,-0.11189,-0.23171,0.0672606}
,
{0.0986482,0.158106,0.00379477,0.143072,0.121272,0.041689,0.0814325,-0.130779}
,
{-0.233797,-0.0049623,0.00111754,-0.115023,0.0186113,-0.0559657,-0.0465928,-0.0725728}
,
{0.0330371,-0.126473,-0.0759573,0.0111268,0.194046,-0.0208209,0.18483,-0.0617397}
,
{-0.141412,-0.173003,-0.0466621,0.0818565,0.00889111,-0.140441,-0.22427,-0.214125}
,
{-0.046381,0.100029,-0.159508,-0.0499685,0.168706,0.067428,0.0121031,0.187274}
,
{0.130536,0.0141501,-0.127311,0.13068,0.0344174,0.0785368,-0.0875544,0.0518224}
,
{-0.0528758,0.112517,-0.129413,-0.00701398,-0.172163,0.179198,-0.259935,-0.237882}
,
{0.0912123,-0.11151,-0.128003,0.0335835,0.161742,-0.1749,0.0607847,-0.0158134}
,
{-0.0990178,-0.0629715,0.0716595,-0.287349,-0.195281,-0.0101257,0.21875,0.0152195}
,
{-0.0779224,-0.238875,-0.00581744,-0.082572,0.0727978,-0.083082,0.112523,0.0818633}
,
{0.0118028,0.094771,-0.0896753,-0.00312876,0.0548858,-0.0139083,0.108113,-0.0686076}
,
{-0.123673,-0.0230659,-0.125952,-0.365416,-0.186759,0.185217,0.157324,0.377454}
,
{-0.0517502,-0.218061,-0.190105,-0.297847,-0.465877,0.197541,0.314909,0.337852}
,
{-0.261047,-0.36881,-0.0426082,-0.351978,-0.328635,0.107483,0.40364,0.313676}
,
{-0.21717,-0.242307,-0.225496,-0.338082,-0.530239,0.110145,0.193586,0.166649}
,
{0.169607,-0.30514,-0.143398,-0.0363144,0.105055,-0.00976866,-0.14913,0.0583102}
,
{0.157291,0.00700514,0.507754,0.364851,0.324002,-0.202329,-0.362219,-0.314282}
,
{0.0407487,0.114924,0.26361,0.141734,0.0780289,0.046906,-0.328549,-0.321749}
,
{-0.0829903,0.204093,-0.0017294,-0.121277,0.145965,0.040334,-0.0775937,-0.163959}
,
{0.159747,0.104103,0.03884,0.123185,-0.00187255,0.182293,-0.0235659,-0.0953255}
,
{0.0624547,-0.0538168,0.137704,-0.129629,-0.0738931,-0.0450183,-0.0392352,-0.021349}
,
{-0.0154282,0.0223763,0.00245657,-0.0647397,-0.0594405,-0.0103885,-0.0816831,0.137746}
,
{-0.0396291,-0.184007,-0.146885,-0.203623,-0.222054,0.225805,0.215985,-0.0124575}
,
{-0.0391905,-0.270406,0.0243123,-0.179176,-0.354837,-0.0826214,-0.0537245,0.182576}
,
{-0.111113,-0.0270157,0.19086,0.0977068,-0.043666,0.207108,0.0560098,-0.167134}
,
{-0.212928,0.011691,0.216603,-0.134585,-0.11937,-0.00129543,-0.123971,0.114706}
,
{-0.0613321,0.031198,0.101518,0.05742,-0.135889,0.0510259,0.0245419,-0.058224}
,
{0.0923422,0.098952,0.244423,0.0119659,0.137354,0.0219784,-0.134682,-0.0549004}
,
{-0.174277,0.132812,-0.081067,0.0689071,0.0485069,-0.151161,-0.00362215,0.0660477}
,
{-0.0697956,0.0277675,0.0992547,0.00332722,-0.0570508,-0.058806,-0.173101,0.037424}
,
{0.0917855,-0.080873,-0.0100994,0.0523858,0.044905,0.147278,0.0851403,-0.0282197}
,
{-0.0132748,0.102498,0.0689568,0.0719653,-0.110226,-0.116493,-0.101841,-0.168266}
,
{0.218043,0.0129946,-0.0159061,0.0937376,0.0600868,0.0257017,-0.160162,-0.10306}
,
{0.107336,0.0935186,-0.159829,-0.00734619,0.0776024,-0.172018,0.173524,-0.084487}
,
{-0.206734,-0.0851087,-0.0864314,0.0352015,-0.00221329,-0.190056,-0.0640897,0.106877}
,
{0.146295,0.222209,0.203004,0.0905293,-0.103714,-0.174746,0.0833952,-0.0825511}
,
{-0.0984981,-0.160361,0.10815,-0.0573546,-0.0682117,-0.0275259,-0.108093,0.156465}
,
{-0.120345,-0.0125269,0.159683,0.0346169,-0.116215,-0.0919604,0.045484,0.174788}
,
{-0.0620309,-0.101742,-0.0406806,-0.102361,0.0885179,0.0808917,0.0796466,0.0123458}
,
{-0.135498,-0.0813302,-0.046872,0.131346,-0.0827919,-0.190756,0.0707496,0.115189}
,
{0.0632751,0.0681247,-0.12251,0.0576777,-0.0647454,0.057074,0.0168015,-0.078209}
,
{-0.157473,-0.141021,0.0964326,-0.117663,0.0954662,0.117137,-0.0796882,0.175757}
 };
  static const float bias2[64] = { -0.103995 };
  static const float weights2[][64] = { {0.0149516}
,
{0.00958634}
,
{0.0393663}
,
{0.0161114}
,
{0.0445533}
,
{-0.0105945}
,
{-0.0179028}
,
{-0.0299266}
 };

  float tmp[8];
  for (unsigned int i = 0; i < 8; i++) {
    float sum = 0.f;
    for (unsigned int j = 0; j < 110; j++) {
      sum += weights1[j][i] * vals_in[j];
    }
    sum += bias1[i];
    tmp[i] = sum > 0.f ? sum : 0.f; // RELU
  }
  float sum = 0.f;
  for (unsigned int j = 0; j < 8; j++) {
    sum += weights2[j][index] * tmp[j];
  }
  sum += bias2[index];
  return sum;
}
float specialized_gen_lepton_prior_0_4_0(const Sirikata::Array1d<int16_t, 110> &v,
                                int index) {
  return gen_lepton_prior_0_4_0(v, index);
}
static int assign_gen_lepton_prior_0_4_0() {
  global_gen_lepton_prior.at(0,4,0) = &specialized_gen_lepton_prior_0_4_0;
  return 0;
}
static int initialize_gen_lepton_prior_0_4_0 = assign_gen_lepton_prior_0_4_0();

template<typename T, uint32_t ms> float gen_lepton_prior_0_5_0(const Sirikata::Array1d<T, ms>& vals_in, int index) {
  static_assert(ms >= 110,
     "array must be sized to hold at least 110");
  static const float bias1[8] = { 0.0462677,0.0570706,-0.0438916,0.0623304,-0.0415648,0.0485,-0.0331584,0.057097 };
  static const float weights1[][8] = { {0.0923092,-0.105807,-0.207928,-0.0361541,-0.177661,-0.0685878,-0.00753845,-0.0746133}
,
{-0.0168816,0.301328,-0.173258,0.0452536,-0.124615,0.0130084,0.0382872,-0.0806215}
,
{0.000732151,0.114077,-0.258882,0.210057,-0.0378828,0.192266,-0.0421338,0.0661121}
,
{-0.0296438,-0.0577514,0.184983,0.00595138,-0.12749,0.0257608,-0.153335,0.0862746}
,
{-0.0120809,-0.00457054,-0.0394957,0.0542648,0.0717779,0.111268,0.0678363,0.0851645}
,
{0.00339957,0.0637226,-0.0775673,-0.0753858,0.00680244,0.0977123,0.0120636,0.265262}
,
{-0.143986,0.147065,0.02362,0.152608,-0.0735769,-0.0763019,0.0622053,0.16687}
,
{0.0446715,-0.055149,0.0723474,-0.101604,0.130339,0.129414,-0.0912361,0.115942}
,
{0.0115882,-0.000606526,0.0947799,-0.0640044,-0.000696894,0.0706537,-0.146232,-0.0159981}
,
{0.102315,-0.0504392,0.0296569,-0.107875,-0.132638,-0.237687,0.0051033,-0.0414482}
,
{0.114509,-0.136209,-0.0798114,-0.00304231,-0.107236,0.162529,0.0116596,0.213096}
,
{-0.206825,-0.19015,-0.0144876,0.171513,0.091471,-0.188994,-0.125605,-0.0434743}
,
{-0.221268,0.133234,0.150874,-0.0532472,-0.10824,0.0527566,0.0894033,-0.0670954}
,
{-0.0909139,0.101136,-0.0580654,0.0408923,-0.0381558,0.0978503,-0.0425991,0.0303695}
,
{0.0238982,-0.0474168,-0.0147533,0.0717427,-0.12824,0.12756,0.0624316,0.0864495}
,
{-0.0283035,0.096299,0.0273387,0.207211,0.00963394,0.0376887,-0.0228528,-0.0342995}
,
{0.105099,-0.0333168,-0.136899,-0.0432681,0.162031,-0.0238641,-0.0828358,-0.137631}
,
{-0.117465,-0.0342407,0.191982,0.000852298,-0.0860084,-0.0742641,-0.0250728,-0.0785185}
,
{-0.0386647,-0.0644921,-0.12026,-0.0173663,0.16675,0.194437,0.0243308,0.0443808}
,
{-0.0754682,-0.0812218,-0.0658141,0.151531,-0.19917,-0.142191,-0.0744737,0.116259}
,
{-0.149506,-0.0730168,-0.110299,0.0435069,-0.147356,0.152017,-0.100311,0.054806}
,
{0.0355953,0.00430364,0.0513286,-0.0250482,0.195807,0.101005,0.0937235,-0.248986}
,
{0.215343,-0.148493,0.0590302,-0.121285,-0.093179,0.148246,-0.0854435,-0.107869}
,
{-0.0759099,0.108151,-0.177467,0.0065665,-0.204554,0.0204652,-0.133741,0.113863}
,
{-0.0151449,-0.0950368,-0.214155,0.0579892,-0.189739,0.115027,-0.124433,0.157927}
,
{-0.074091,0.118486,0.00446097,-0.142123,0.0560882,0.0149387,-0.0754296,0.0229383}
,
{0.085065,-0.00950062,-0.0335603,0.0492006,-0.085205,0.078532,-0.155039,-0.201282}
,
{0.106297,0.163412,-0.0614613,-0.107019,-0.00230158,-0.0945461,0.00827336,-0.146815}
,
{0.113278,-0.121583,-0.109761,0.149832,-0.0359825,-0.127863,0.216594,0.100991}
,
{-0.0900486,0.103322,0.0324008,-0.124118,-0.0277589,0.0597819,-0.0712088,0.213884}
,
{-0.0923438,0.00730306,-0.0105415,-0.0202941,-0.0446823,0.0293359,0.226131,0.104849}
,
{-0.180698,-0.0772497,-0.0321261,0.0422126,0.0754832,-0.132544,-0.0854681,-0.0403645}
,
{0.00823634,-0.236104,0.0597126,0.032857,0.105376,-0.0302867,-0.0769968,-0.144306}
,
{-0.236116,-0.0816597,-0.20031,0.0234209,0.0845395,-0.0541864,0.132924,0.125772}
,
{-0.00330019,0.248012,-0.145174,-0.0803081,-0.0322472,-0.0995337,0.0901767,-0.0504676}
,
{-0.0315002,-0.0922901,-0.050943,-0.148428,0.15694,-0.039436,-0.12083,-0.0168032}
,
{0.0918377,-0.256367,0.00509145,-0.0383024,-0.0671219,-0.107954,-0.0294565,-0.0994435}
,
{0.0248594,0.103753,0.0454036,-0.0887442,-0.0933608,0.152491,0.186346,-0.0388549}
,
{-0.0603211,0.143411,-0.0694264,0.241678,-0.0401398,-0.014965,-0.170374,-0.0460295}
,
{-0.173586,0.18551,0.00772443,0.0176414,-0.0513195,0.0106556,0.0125392,0.11857}
,
{0.0167969,-0.0677725,-0.0163212,0.023462,0.22102,0.0317503,0.0555212,0.0964429}
,
{-0.0445918,0.157089,0.0394014,0.102067,-0.0237976,-0.145223,-0.0427231,0.0930351}
,
{-0.107419,-0.143592,0.181298,0.044255,-0.0455153,0.135818,0.153017,0.18287}
,
{0.00752429,0.193684,-0.188127,0.0945469,-0.146892,0.00105891,-0.0961783,-0.19285}
,
{0.0559403,-0.134259,-0.0185679,0.0499453,0.165877,-0.0776834,-0.0493909,-0.104349}
,
{-0.0382808,-0.162944,0.0737951,-0.198874,-0.0554421,-0.129703,0.013346,-0.0856919}
,
{0.233425,-0.145149,-0.0569193,-0.151514,-0.0380838,-0.188719,-0.0803472,0.0699933}
,
{-0.100566,0.040035,0.111006,0.117952,-0.183506,-0.158326,-0.0676215,0.0263137}
,
{-0.0157513,-0.157077,-0.0588134,-0.0307481,-0.157691,0.123121,-0.0127034,0.214238}
,
{0.0662358,0.0440718,-0.120672,-0.0964068,0.0891016,-0.13386,0.121377,0.137506}
,
{0.0313908,0.162722,0.0208757,0.182506,-0.0455492,0.0203099,-0.0704451,-0.180413}
,
{0.102498,0.0245543,0.0520037,-0.11339,0.0671075,0.0384219,-0.0636918,-0.0292235}
,
{0.105718,-0.199075,-0.0312283,0.0724948,0.137203,-0.243091,-0.0387818,-0.0289022}
,
{-0.0379541,0.0977679,0.072546,-0.118054,0.0774827,-0.00429213,-0.061781,-0.0792373}
,
{-0.0622531,0.0286709,-0.0315469,0.0239716,0.140286,-0.146215,0.0311694,0.078772}
,
{0.00325535,-0.085092,0.0393141,0.0864925,0.157636,0.145612,-0.0298948,0.0101043}
,
{0.0341756,0.0871208,0.00828583,-0.0667317,0.01655,-0.0242599,0.0213326,0.071525}
,
{0.217063,0.00440756,-0.0377338,0.0198858,0.164979,0.0832194,-0.0485801,0.0275324}
,
{-0.00898564,-0.186676,-0.0156229,0.111156,0.074722,-0.0777313,0.0747423,-0.165572}
,
{-0.174768,0.103297,0.162423,-0.246035,-0.181224,0.188276,0.104304,-0.114064}
,
{0.0524696,-0.00352828,0.052079,0.0377871,0.106447,-0.00453364,0.0609203,-0.168649}
,
{-0.0234056,-0.153016,-0.108055,0.0222324,0.0170991,0.0651104,0.109915,0.0490309}
,
{-0.0982781,0.0698045,0.0874208,-0.0419911,-0.167547,-0.000856136,-0.104358,-0.212298}
,
{0.0637944,-0.0333349,0.186951,0.0252888,0.0524603,-0.137796,0.0923621,-0.200033}
,
{-0.161962,-0.073117,-0.157523,0.0429237,-0.0125311,-0.100737,-0.0299659,0.151087}
,
{0.207547,0.179757,0.103917,0.00553583,-0.112847,-0.0619107,0.108927,0.016011}
,
{0.179802,-0.0949199,0.0732448,0.0490038,0.0679537,0.0352973,-0.0381978,0.100059}
,
{0.0952987,0.129096,0.0381205,0.0160666,0.0349768,-0.152133,-0.00900277,-0.0108456}
,
{-0.0981277,-0.20617,0.106738,0.0942464,-0.163129,0.0440484,0.0754919,-0.10094}
,
{-0.20569,0.0213065,0.236979,-0.0380552,0.0368442,-0.214963,0.103788,-0.0194698}
,
{-0.085339,0.108063,-0.0190858,-0.179394,0.24341,0.137838,0.0791432,0.0849019}
,
{0.135496,0.0435585,0.0161756,-0.0980924,-0.0530126,0.102498,-0.0431395,-0.177934}
,
{0.0562121,-0.0113926,0.0212665,-0.0442157,0.214317,-0.0676953,-0.00897985,0.0907961}
,
{0.0539131,0.101265,-0.000771406,0.0301114,0.0436866,-0.0613373,0.0655788,0.153663}
,
{0.21477,-0.278956,-0.0642852,-0.0546836,-0.0708873,0.0843722,-0.147992,-0.143618}
,
{0.103064,0.0259766,-0.0676083,0.0703294,0.0151134,0.109928,-0.127833,0.0174345}
,
{0.0572714,-0.0799728,0.117821,0.00455502,0.11664,-0.0244495,-0.109698,0.0162992}
,
{0.0284454,0.0437245,-0.0666703,-0.194346,0.0973736,0.0483781,0.173543,-0.233069}
,
{0.209533,0.159298,-0.16298,-0.0523974,0.100129,-0.110568,-0.0625859,0.228441}
,
{0.128217,-0.111842,-0.0792813,0.0590439,-0.175669,0.139748,0.099966,0.0243517}
,
{-0.0270496,-0.176706,-0.193744,-0.136943,0.0421247,-0.0110543,0.0235137,0.0355756}
,
{-0.0285722,0.0971771,-0.175021,-0.157004,-0.0988092,0.054806,-0.0246044,0.0441868}
,
{0.113076,0.0151635,-0.00176253,0.0527575,0.0661471,0.256373,-0.076042,0.127277}
,
{-0.0106076,0.0339222,-0.0378933,-0.0555766,-0.0988686,0.0944094,-0.0544696,0.189521}
,
{-0.0584037,-0.0464662,0.0415081,0.0289249,-0.144439,0.0168563,0.0576268,0.10091}
,
{0.059249,-0.0536977,-0.166303,0.0688106,0.117777,0.0976993,-0.0126116,-0.150517}
,
{-0.0848739,0.00406068,0.0323682,0.201866,0.0734188,0.0393963,0.104271,0.1123}
,
{0.126608,-0.0934459,0.0278663,-0.0339377,-0.180416,-0.207044,0.0522243,-0.0523598}
,
{-0.0598535,0.0830329,0.0307267,0.22996,-0.048281,-0.0289422,-0.0668638,-0.0946148}
,
{0.0168182,-0.0759708,0.0465562,-0.163882,-0.0139146,-0.0574693,-0.0943861,-0.0127958}
,
{0.0382614,-0.0231977,-0.0843567,-0.170814,0.0646209,-0.0500141,0.099259,-0.0875571}
,
{-0.00447058,-0.086543,-0.152888,-0.211883,0.00872004,0.0799116,-0.0243542,0.194803}
,
{0.0561008,-0.0261333,-0.0388349,-0.108217,0.0356305,-0.0549978,0.0325322,0.126781}
,
{-0.0316072,-0.0277263,0.1076,-0.0313267,0.181134,-0.0425715,0.21058,-0.0511412}
,
{0.15502,-0.0100483,-0.163996,0.0462271,0.0992627,0.0952346,-0.0638779,-0.0090844}
,
{0.0264127,-0.0791466,-0.0743658,-0.0982239,0.057462,-0.0261191,-0.121158,0.048114}
,
{0.0734948,-0.131267,-0.101008,0.130648,-0.202289,0.177019,-0.0712846,0.0160946}
,
{0.114554,0.0483331,-0.144682,-0.147971,0.17449,0.0302976,0.227084,-0.151683}
,
{0.107137,-0.0481574,-0.0428802,0.100182,0.0976239,0.178803,-0.0683386,-0.114186}
,
{-0.132164,0.11113,-0.0799448,-0.127068,0.0871642,0.133207,0.0268456,0.0101879}
,
{0.0485132,-0.0121883,-0.125743,-0.00364081,0.0494465,-0.213079,-0.195165,-0.124624}
,
{0.0105379,0.138034,-0.100814,-0.114677,0.206802,0.078454,-0.130387,-0.194262}
,
{-0.10375,-0.051545,0.027006,-0.092634,-0.0956845,0.0990928,-0.0597123,-0.16699}
,
{-0.0347344,-0.0646577,-0.101128,0.176698,-0.0143398,0.16051,-0.0405579,-0.243651}
,
{0.167304,-0.0813495,0.066323,-0.0573473,0.0693861,-0.0191591,0.166454,-0.0448386}
,
{-0.110417,-0.229985,0.00486693,-0.0532681,0.0769122,0.159265,0.00860785,-0.201245}
,
{0.100288,-0.070807,0.0502586,-0.111667,0.0644942,0.125162,0.0661118,0.0970595}
,
{0.0325729,-6.03858e-05,0.173944,-0.0524732,0.0729972,0.0201531,-0.0329407,0.216068}
,
{0.0970714,-0.04361,0.0467594,0.0680588,0.181765,0.0765631,0.241865,-0.158362}
,
{0.140909,0.136898,-0.0703796,-0.182004,0.212701,0.108474,0.000693032,0.0527123}
 };
  static const float bias2[64] = { -0.0495702 };
  static const float weights2[][64] = { {-0.144072}
,
{-0.0580634}
,
{0.0660921}
,
{-0.0600152}
,
{0.0232504}
,
{-0.134981}
,
{0.00626448}
,
{-0.0889837}
 };

  float tmp[8];
  for (unsigned int i = 0; i < 8; i++) {
    float sum = 0.f;
    for (unsigned int j = 0; j < 110; j++) {
      sum += weights1[j][i] * vals_in[j];
    }
    sum += bias1[i];
    tmp[i] = sum > 0.f ? sum : 0.f; // RELU
  }
  float sum = 0.f;
  for (unsigned int j = 0; j < 8; j++) {
    sum += weights2[j][index] * tmp[j];
  }
  sum += bias2[index];
  return sum;
}
float specialized_gen_lepton_prior_0_5_0(const Sirikata::Array1d<int16_t, 110> &v,
                                int index) {
  return gen_lepton_prior_0_5_0(v, index);
}
static int assign_gen_lepton_prior_0_5_0() {
  global_gen_lepton_prior.at(0,5,0) = &specialized_gen_lepton_prior_0_5_0;
  return 0;
}
static int initialize_gen_lepton_prior_0_5_0 = assign_gen_lepton_prior_0_5_0();

template<typename T, uint32_t ms> float gen_lepton_prior_1_0_0(const Sirikata::Array1d<T, ms>& vals_in, int index) {
  static_assert(ms >= 110,
     "array must be sized to hold at least 110");
  static const float bias1[8] = { -0.0587144,0.179901,0.129062,-0.0609062,-0.05993,0.0682698,0.234929,0.225324 };
  static const float weights1[][8] = { {-0.106849,0.0793368,0.190364,-0.0120204,-0.0673466,0.00481737,0.272278,0.0939267}
,
{0.0272564,0.198753,0.208995,-0.107504,0.0763804,0.18183,0.113504,0.0756635}
,
{-0.132581,0.0883614,0.0935038,0.0688216,-0.000797682,0.0785436,0.108497,0.0265651}
,
{0.0812183,0.0763015,0.221542,0.0167605,-0.0841861,-0.014454,0.386026,0.167368}
,
{0.0681172,0.120658,-0.0136315,-0.0316723,-0.223752,0.159065,0.116008,0.219117}
,
{-0.192072,0.188766,-0.0827579,0.136683,-0.158056,0.175624,0.21491,0.17915}
,
{-0.166785,0.400282,-0.0329212,-0.109605,0.149465,-0.132712,0.22769,0.214673}
,
{-0.0167511,0.250408,0.124111,-0.146246,-0.0826405,0.152925,0.0206812,-0.00674844}
,
{0.151804,0.165671,0.171083,-0.0491199,-0.0600999,-0.0439369,-0.0683229,0.0150835}
,
{-0.139136,-0.118963,0.0736148,0.103613,0.0883202,0.102172,-0.115908,0.0701164}
,
{-0.0252418,-0.00534222,0.187191,-0.0511587,0.0850111,0.0628045,0.165105,0.167465}
,
{0.0664129,-0.0462034,0.0616033,-0.325504,-0.190362,-0.141063,0.0998534,0.213782}
,
{0.0139103,-0.233245,0.201984,0.0130849,0.138381,0.119582,0.0048273,0.0154069}
,
{-0.121737,0.119054,-0.124028,0.010775,-0.0725086,0.149027,-0.091786,0.0854114}
,
{0.0440593,0.166173,0.0534927,-0.019875,-0.0126616,-0.00845325,0.00321575,0.108484}
,
{-0.0909092,-0.0712325,-0.00295009,-0.130485,-0.0210446,-0.0119113,0.121818,-0.0858057}
,
{-0.297937,0.158057,-0.10497,0.00934927,-0.0641456,0.165027,0.285187,0.202306}
,
{-0.0122937,0.102358,0.0654155,-0.100778,0.0296581,0.0421396,0.100934,0.2367}
,
{0.0849821,0.308304,0.222432,-0.04277,-0.0547659,0.00858567,0.245005,0.125268}
,
{-0.106261,-0.0968571,0.174496,-0.0805795,-0.155662,0.183392,-0.0740211,-0.283906}
,
{-0.215351,0.0653585,-0.0256146,-0.198156,0.0366463,-0.0228351,-0.0596449,0.0542859}
,
{0.0119579,0.0679158,0.0698499,-0.0716064,-0.178947,-0.064095,0.0388424,-0.0141843}
,
{-0.043363,-0.0592509,0.0220409,-0.0448396,-0.130085,0.0919067,0.0907491,-0.242638}
,
{-0.0336007,-0.113408,-0.143911,-0.0704707,-0.185694,0.0541527,0.170375,-0.155717}
,
{0.053416,-0.142921,0.0833562,0.0802561,0.0116074,-0.244703,0.0802199,-0.0626816}
,
{-0.0576242,0.0897061,-0.112929,-0.135228,0.113632,-0.112869,-0.112917,-0.00790708}
,
{0.00235834,0.105445,0.0290132,0.0775613,-0.0812842,0.244932,-0.190301,0.0150132}
,
{0.022262,-0.0355219,0.0933506,0.0476224,0.104442,0.172407,-0.0504601,0.00337171}
,
{0.00618597,0.00247733,-0.0309087,-0.124619,0.138369,-0.197258,-0.0931357,-0.162508}
,
{-0.156429,0.0575751,-0.00693147,-0.0182698,-0.036135,0.195347,0.148839,-0.043296}
,
{0.0822084,-0.0479695,-0.163865,-0.129063,-0.0799762,0.0504937,0.0130593,-0.0288682}
,
{0.0534571,0.00786187,-7.68268e-05,0.103637,0.0580928,0.0479184,0.149559,-0.099942}
,
{-0.0455972,-0.0415036,-0.0794825,0.0388827,0.17851,0.0234192,0.0358785,-0.0697329}
,
{0.0259903,-0.192477,0.0649778,0.131703,0.0733677,-0.0138225,-0.0032036,0.178497}
,
{-0.172175,-0.140858,-0.0469119,-0.12686,-0.0469717,0.10662,-0.200626,-0.023019}
,
{-0.0625255,-0.0403311,-0.0315882,0.0227971,-0.14722,-0.0229336,-0.0234882,-0.140349}
,
{-0.13026,-0.0663451,0.0563477,-0.161733,-0.0253688,0.100992,-0.140466,-0.0411241}
,
{-0.108933,0.0978053,-0.0988579,0.0164577,-0.0875014,0.157928,-0.0958923,-0.0314004}
,
{-0.0660112,0.0287156,0.103602,0.0540817,0.00622107,-0.0723404,0.0563333,-0.0454656}
,
{-0.0425683,-0.00949628,-0.213731,0.0830333,-0.0801319,0.219464,-0.114278,0.0360411}
,
{-0.000853107,-0.200881,-0.03744,-0.115486,0.0401329,0.00538,0.000598693,-0.203536}
,
{-0.127023,-0.0683274,-0.10293,0.0567934,-0.0265805,0.212032,-0.087267,-0.0629638}
,
{0.00248658,-0.135485,0.0508887,0.00741304,-0.0263219,-0.108897,0.23352,0.00711318}
,
{-0.0380025,-0.0842062,-0.0554648,0.113072,0.0122177,-0.137461,-0.0112863,0.0929695}
,
{0.185901,0.242634,-0.166009,-0.0424619,0.0930976,-0.123534,-0.0535031,-0.0011411}
,
{0.0810908,-0.0931865,0.0766813,0.13506,0.204129,-0.0454132,-0.107326,-0.0343224}
,
{0.0648265,0.0544815,0.0830223,-0.0749711,-0.0795781,0.0443984,-0.0807786,-0.0362579}
,
{-0.085147,0.034996,0.00461258,-0.0599692,-0.0409613,-0.0618633,0.0648976,0.0123249}
,
{-0.051632,-0.00314059,-0.127239,-0.0216663,0.109868,0.128127,-0.0531134,0.115766}
,
{0.032563,0.166916,0.131715,0.0857553,0.148043,-0.012233,-0.163112,0.155664}
,
{0.138118,0.102937,-0.0586627,-0.00660329,0.0117364,-0.0852987,-0.212305,-0.0371772}
,
{-0.0467113,-0.0482635,-0.0866484,0.0723961,-0.0437039,0.0258899,0.0159206,0.0117258}
,
{-0.0107289,0.167293,-0.0985044,-0.0390008,-0.0905493,0.161817,-0.104884,-0.0379496}
,
{0.0469637,0.106001,-0.148191,-0.0181096,-0.0757112,-0.0112873,-0.0140011,0.0132569}
,
{-0.00677389,-0.16065,0.0840877,0.203311,-0.0425614,0.0474754,0.0460591,0.184726}
,
{0.189292,-0.0141759,0.0780573,-0.0583382,-0.210799,0.144264,0.0542462,0.0973547}
,
{0.00969539,0.0302843,-0.0795674,-0.139178,-0.0135636,-0.144496,0.0792625,-0.0384504}
,
{-0.0752666,0.065698,-0.199283,-0.0823239,0.148716,-0.0280218,0.0613053,0.0456929}
,
{0.0792323,0.189039,0.0238949,0.0715335,0.0268624,0.236877,0.119261,-0.0529004}
,
{0.0926758,-0.0607849,-0.104303,0.0608022,0.191559,-0.0553728,-0.125958,0.0304477}
,
{-0.0842908,-0.0661811,0.0221679,-0.0321647,0.0248026,-0.0544641,-0.0934399,-0.0980453}
,
{0.0917875,0.136964,-0.0118472,0.00576736,0.164753,0.0208871,-0.0918758,-0.239198}
,
{-0.107156,0.182882,-0.18518,0.0116299,-0.0525869,-0.221018,-0.00588654,-0.0873917}
,
{0.0154698,-0.0639849,-0.114547,-0.0131547,0.146439,-0.216397,-0.122864,0.233533}
,
{0.149206,-0.12949,0.156678,0.160724,0.168313,-0.00913962,-0.198936,0.0349038}
,
{-0.00791034,-0.127358,-0.183822,-0.107984,-0.137863,-0.0665183,-0.0082499,-0.143135}
,
{0.0227237,0.205352,-0.135038,-0.0992214,0.179827,0.0546139,-0.0643088,0.0442354}
,
{-0.155265,-0.15745,0.040111,-0.0310759,-0.0062877,0.0519576,-0.218341,-0.040248}
,
{0.0119443,0.120885,0.0259962,-0.0219068,0.0599333,-0.135194,0.0260648,-0.0369143}
,
{-0.0174603,0.214845,-0.0584399,0.197157,0.193868,-0.0341803,0.00208731,-0.00625561}
,
{0.0260267,0.108212,-0.0814366,-0.0918834,0.0717643,0.153224,-0.0464032,-0.0997765}
,
{-0.0797489,-0.0968384,0.074516,0.071999,0.0232183,-0.00925572,-0.116196,0.111458}
,
{0.0123497,-0.0962185,0.0281517,-0.205974,0.0927594,-0.0358365,-0.0169651,0.0985642}
,
{-0.0302142,-0.0072141,-0.109568,0.0403421,0.0869438,-0.28487,0.237309,0.278568}
,
{-0.141199,0.110043,-0.11437,-0.0385821,-0.000632708,0.0218375,-0.0952628,-0.0491534}
,
{0.0999285,0.175561,0.0418319,0.102363,0.235496,0.0568277,-0.157144,0.0942601}
,
{0.186984,0.0499853,-0.185809,0.152195,-0.0576159,-0.104821,-0.0803947,-0.00639433}
,
{-0.0914735,-0.130484,0.191727,0.00508274,0.0617484,0.0304584,0.210987,0.0534277}
,
{-0.189248,-0.0267728,0.0568202,0.0767817,-0.101291,0.00686207,-0.0245338,0.167326}
,
{0.0920702,0.429762,0.166839,-0.0916212,0.00350102,-0.0874846,0.327796,0.379351}
,
{-0.038894,0.313831,0.241637,-0.0452085,-0.118564,0.328962,0.45183,0.404539}
,
{-0.223358,0.138414,-0.14671,-0.114611,-0.0407567,0.162267,-0.0863481,-0.0639504}
,
{-0.0275566,0.0523211,-0.00262636,0.110748,0.0369289,-0.0815541,0.186755,0.0711449}
,
{-0.172869,0.0942021,-0.0952048,0.0376544,-0.117318,0.164566,-0.0629,0.078012}
,
{-0.167815,-0.0694212,-0.0331762,-0.0870069,0.0254107,-0.256822,-0.089655,-0.271563}
,
{-0.147169,0.0426402,0.296876,-0.161453,-0.118738,0.0517322,-0.0341812,-0.0494631}
,
{0.101608,0.214389,0.17188,-0.0419627,-0.13704,0.151977,0.329363,0.429353}
,
{0.0143657,0.0487454,0.219644,-0.204586,-0.026133,0.188004,0.0351235,0.0246102}
,
{-0.0801855,0.162325,0.273865,-0.0123296,-0.0597611,0.181445,-0.000698736,0.0665578}
,
{0.388367,-0.17339,-0.14308,0.0138158,0.0335775,-0.279653,-0.259243,-0.166807}
,
{0.0263561,0.0763873,0.194511,0.147308,-0.0758554,0.178296,-0.0202133,-0.172501}
,
{0.0691621,0.145455,0.0286495,-0.0103559,0.0282955,0.0765563,0.23288,0.077677}
,
{0.0477831,0.0652236,0.0797471,0.078222,0.00651334,-0.0209614,0.26891,0.0334045}
,
{0.120379,-0.0883389,0.029741,-0.15678,0.170307,0.254387,0.0949841,0.0167399}
,
{0.119407,-0.0776657,-0.0175238,0.107592,0.061824,0.0871988,-0.175383,-0.188212}
,
{0.00862429,0.206095,0.127532,-0.0421506,0.0430813,0.035753,0.0655942,-0.22673}
,
{-0.207056,0.159476,-0.088197,-0.101542,0.11394,0.149051,0.194349,0.22356}
,
{0.176552,0.0343989,0.0950781,-0.243855,0.0211159,0.0692594,0.266975,-0.0323994}
,
{-0.0477984,0.0551392,0.00465125,0.0326877,0.110892,-0.041523,0.171823,0.0103645}
,
{0.21088,-0.0830039,0.0320097,0.131449,-0.211333,-0.0517433,-0.050266,-0.0558228}
,
{-0.232936,-0.0106713,0.0392718,0.0245737,-0.201947,0.139134,-0.163548,0.0163651}
,
{0.0542039,0.0706239,-0.0359587,-0.0988238,0.109204,-0.0524653,-0.0511256,0.0518941}
,
{0.15257,0.340412,0.210838,0.0193006,0.0133577,-0.136429,0.0928459,0.28341}
,
{-0.104168,-0.046385,0.000764458,-0.0142418,0.0282991,0.00917538,-0.0145143,-0.0181358}
,
{-0.0367353,0.172464,0.220838,-0.23914,-0.018889,0.0223224,0.0934606,0.0901532}
,
{0.0696932,0.260517,0.249034,-0.262466,-0.0568791,-0.0128004,0.0044968,0.00681878}
,
{0.00194126,-0.108803,-0.0135946,0.117896,-0.0315678,-0.131789,0.132759,-0.105872}
,
{-0.101524,-0.0336776,-0.116929,-0.0146397,0.155637,-0.219466,-0.0920244,0.0599326}
,
{0.0104015,0.181698,0.0202873,0.045174,0.171094,-0.0795486,0.126961,0.157722}
,
{0.0757703,0.0938788,-0.0733704,0.0876369,-0.206181,0.0669981,-0.0238281,0.0591207}
 };
  static const float bias2[64] = { 0.0858418 };
  static const float weights2[][64] = { {-0.113113}
,
{0.0977303}
,
{0.0922427}
,
{-0.0593662}
,
{-0.0632445}
,
{0.148877}
,
{0.0943757}
,
{0.0690108}
 };

  float tmp[8];
  for (unsigned int i = 0; i < 8; i++) {
    float sum = 0.f;
    for (unsigned int j = 0; j < 110; j++) {
      sum += weights1[j][i] * vals_in[j];
    }
    sum += bias1[i];
    tmp[i] = sum > 0.f ? sum : 0.f; // RELU
  }
  float sum = 0.f;
  for (unsigned int j = 0; j < 8; j++) {
    sum += weights2[j][index] * tmp[j];
  }
  sum += bias2[index];
  return sum;
}
float specialized_gen_lepton_prior_1_0_0(const Sirikata::Array1d<int16_t, 110> &v,
                                int index) {
  return gen_lepton_prior_1_0_0(v, index);
}
static int assign_gen_lepton_prior_1_0_0() {
  global_gen_lepton_prior.at(1,0,0) = &specialized_gen_lepton_prior_1_0_0;
  return 0;
}
static int initialize_gen_lepton_prior_1_0_0 = assign_gen_lepton_prior_1_0_0();

template<typename T, uint32_t ms> float gen_lepton_prior_1_0_1(const Sirikata::Array1d<T, ms>& vals_in, int index) {
  static_assert(ms >= 110,
     "array must be sized to hold at least 110");
  static const float bias1[8] = { 0.13257,-0.027355,0.0987693,-0.0311237,0.0725202,-0.0238027,-0.0411738,-0.0614946 };
  static const float weights1[][8] = { {0.15539,0.0273887,-0.0745023,-0.046577,0.0554745,-0.32058,0.0897555,-0.144449}
,
{0.0790633,-0.0771576,0.00530843,0.0178639,-0.0662114,0.0541723,-0.0460624,0.0142323}
,
{-0.041537,0.0323112,0.157711,0.116122,0.0665552,-0.047775,0.00529509,-0.110381}
,
{0.217963,-0.102909,0.209493,-0.0558556,0.174001,-0.178601,0.0284994,0.101704}
,
{0.286287,-0.0522672,0.144567,0.140244,-0.119383,-0.140437,-0.0781079,0.00413052}
,
{0.200526,0.0966775,0.178037,0.0748871,0.0801586,0.0467301,0.0722217,0.0168877}
,
{0.25937,0.137788,0.0931456,-0.0867099,0.0698121,0.00457834,0.0497586,-0.0596897}
,
{-0.143268,0.143533,0.150176,0.0369615,0.146984,0.0775235,-0.0242915,0.103127}
,
{-0.0182029,-0.0426666,-0.0751483,-0.199769,0.169482,0.112587,-0.273941,0.0897984}
,
{0.138783,0.205784,0.0400724,0.102519,-0.00894041,-0.247476,0.121303,0.238049}
,
{0.0826196,-0.161266,-0.0463377,0.124585,0.158538,0.0658633,-0.0670584,-0.0615}
,
{0.0924697,-0.185884,0.0194939,-0.0523879,0.0980598,-0.187324,-0.188437,-0.115733}
,
{-0.0637273,0.209538,-0.00145689,0.208852,-0.0943406,-0.082756,0.0793617,-0.1205}
,
{0.142875,-0.0199561,-0.0575052,0.00207972,0.0661256,0.0972164,0.00230634,-0.0948667}
,
{-0.0715476,-0.0889757,0.143458,-0.160648,0.0508641,-0.0745324,-0.120034,-0.0762796}
,
{-0.0175713,-0.0931819,0.181715,-0.0333867,-0.0959863,-0.141381,-0.100992,-0.0283746}
,
{0.276248,0.0536439,0.267073,-0.0704155,0.0720399,-0.126904,-0.0851661,0.0178376}
,
{-0.137857,0.101115,0.110031,-0.0222176,0.226662,-0.118323,-0.00332623,-0.0946403}
,
{-0.0177672,0.155649,0.206325,0.0661443,0.052147,-0.0934356,0.0206371,0.0404465}
,
{0.00541752,-0.0503928,-0.100156,0.105768,0.201231,-0.0552929,0.0749873,0.0314681}
,
{-0.0805392,-0.11474,0.143482,0.222487,0.0456745,0.187902,0.134993,-0.0790506}
,
{0.0465885,-0.197307,0.0476632,-0.086676,-0.0971164,-0.121448,0.0241498,0.0224626}
,
{0.011093,0.0938088,-0.0935428,-0.0137205,0.117174,0.0546418,-0.111794,0.0334674}
,
{-0.120806,-0.190614,0.151598,0.074867,-0.0250808,0.134753,0.110576,0.265428}
,
{0.145493,-0.0497464,0.0452057,-0.00978024,0.0600127,0.0400122,0.0140422,-0.0343645}
,
{-0.118219,0.0964375,-0.107761,0.0816209,0.00660783,-0.0640863,0.171806,0.0409832}
,
{0.136624,-0.0196136,0.0434015,0.0969462,0.112031,-0.0494339,0.129667,0.00465038}
,
{0.1994,0.0280946,-0.0714983,-0.0747559,0.1128,-0.0986871,-0.0073919,0.0514492}
,
{-0.185699,0.00822317,0.107373,0.111381,0.0900806,0.01633,-0.00722865,0.168143}
,
{0.0198897,-0.0528688,0.0187713,0.0471872,0.0438113,0.102229,-0.0411088,-0.086041}
,
{0.0300089,-0.0495227,0.054454,0.0870328,0.0482755,-0.00907089,0.221584,0.149759}
,
{0.0985427,0.0730736,0.0539049,0.178734,0.00879654,0.122096,-0.168024,-0.00912824}
,
{0.0847387,-0.0626519,-0.133601,0.0911664,0.167135,-0.187598,-0.0892928,0.0888228}
,
{0.20177,-0.02265,-0.0351893,0.12515,-0.0278418,-0.0292446,-0.00831153,-0.118191}
,
{-0.100421,0.0557665,0.00695851,-0.125382,0.00227423,-0.0471435,0.0943082,-0.0686144}
,
{0.0822834,0.0423304,0.0442414,0.0107187,-0.200202,-0.0201103,-0.202144,0.0835538}
,
{-0.166868,0.056964,0.0133103,0.0280195,0.136202,0.0383609,-0.0408458,0.0497396}
,
{-0.0270296,-0.103949,-0.117076,0.100545,-0.0695106,-0.143695,0.0929414,0.209664}
,
{-0.0277584,0.125094,-0.00596555,-0.0247234,-0.00303297,0.0274737,0.0926809,-0.0455939}
,
{-0.008876,0.0447597,-0.0197733,-0.0847578,-0.0185733,-0.0854898,0.0131812,-0.0843632}
,
{0.0382696,0.147642,0.190224,0.0785359,-0.0720302,-0.127283,-0.172272,-0.172132}
,
{0.091708,-0.0265395,-0.0546769,0.10058,0.0626375,-0.0185729,-0.0285709,-0.00934615}
,
{0.0353185,-0.0305495,0.0392505,0.120009,-0.193878,-0.111763,-0.0619363,-0.132659}
,
{0.0343716,0.179371,-0.0915578,-0.0147724,-0.125245,-0.123694,-0.119471,-0.0313982}
,
{-0.108994,-0.00361199,0.166256,0.0121163,-0.185145,-0.0949263,0.0747658,0.16727}
,
{-0.0118138,0.119795,0.0309482,-0.116314,0.129981,0.210777,0.0260853,-0.0831801}
,
{0.0226596,-0.115005,0.0141066,-0.03077,-0.03864,-0.0112289,0.0919116,0.0813957}
,
{-0.0843191,0.141271,0.0235751,-0.0789984,0.144924,0.179541,0.155161,-0.0946061}
,
{0.021858,-0.0431463,-0.0785104,0.0481629,0.08825,0.0426566,0.00672039,-0.112388}
,
{0.0574284,-0.058788,0.0161577,-0.0144303,-0.023631,0.0264958,0.124448,0.0820414}
,
{-0.0224815,0.0261028,-0.0502757,0.139887,0.00169091,-0.119811,-0.0859624,-0.133335}
,
{-0.013928,-0.0347581,-0.034608,0.0456389,0.136861,-0.00295263,-0.183037,0.158128}
,
{0.0775526,-0.180159,-0.115909,0.0681136,0.236656,-0.135204,0.0402179,0.124769}
,
{0.0637611,-0.0293015,0.274761,-0.0593277,0.0715912,0.108746,-0.0987057,-0.138833}
,
{-0.2203,0.0493518,-0.0946961,-0.164967,-0.0741302,0.04107,0.0983739,0.053645}
,
{-0.247054,0.025949,0.220365,-0.0538588,0.108014,0.0120423,0.0693757,0.036323}
,
{0.126927,-0.128193,-0.0211016,0.0502836,-0.133589,-0.0713759,0.0442618,-0.0127814}
,
{-0.248996,0.179031,0.0406811,0.0239721,-0.0931355,0.0623605,0.132173,0.181926}
,
{0.0632283,0.16301,-0.1092,-0.0408205,0.0783755,-0.0309035,-0.0699836,-0.170808}
,
{-0.108788,0.191377,-0.160204,0.0807668,0.12327,0.00415295,0.0273062,-0.189281}
,
{-0.13257,-0.109317,0.196004,-0.0949564,-0.0131481,0.0398666,-0.00911109,-0.0866546}
,
{0.0641297,-0.214756,-0.241963,-0.170935,-0.193589,-0.0100466,-0.0531702,-0.110774}
,
{-0.151161,0.0120177,-0.0126783,0.111063,-0.001906,-0.0589222,0.0817704,-0.204026}
,
{0.00805269,-0.0116384,-0.0981492,0.220043,0.0405115,-0.0665985,0.00907317,0.0474991}
,
{-0.0477639,-0.121355,0.000927479,0.0491981,0.161128,-0.0928972,-0.178157,0.0526177}
,
{-0.127268,0.0814867,-0.159922,-0.0816747,0.0799397,0.098256,0.010151,0.238552}
,
{-0.130802,-0.0845883,-0.208495,0.0805828,-0.0260238,0.147042,0.0339542,-0.159851}
,
{0.17408,0.108402,-0.0177389,-0.129153,8.79217e-05,0.0546731,0.0518728,0.0370709}
,
{0.145929,0.0881032,0.0132219,0.0786661,0.0544001,0.209544,-0.104147,0.151978}
,
{-0.14371,0.022738,0.0170137,-0.0834576,0.126359,-0.0205564,-0.0456269,-0.160337}
,
{-0.0541495,0.074151,0.0741024,-0.0997489,-0.13926,0.0122393,-0.0142842,-0.0120756}
,
{0.173226,-0.155514,0.091562,0.108474,0.0631883,-0.182337,0.0173909,0.217114}
,
{-0.0546389,0.103448,-0.0481112,0.103871,-0.0239977,0.111687,-0.0183902,-0.0212293}
,
{0.023577,-0.191379,-0.0667529,0.0480645,0.0769711,0.0398633,0.0681625,0.0826696}
,
{0.00740147,0.0741551,-0.00392569,0.0295246,-0.00143648,-0.156109,0.023219,0.0123906}
,
{0.0445839,0.165981,-0.154055,-0.0647379,0.176615,0.11206,0.0400205,-0.0404582}
,
{0.115789,0.00986422,0.232647,0.0357158,-0.0635208,-0.122198,-0.233165,-0.225227}
,
{-0.270636,0.236944,-0.0232098,0.348684,-0.00827137,0.13179,-0.216498,0.21884}
,
{0.0974398,-0.124786,-0.0838102,0.134962,-0.0175318,0.0784056,0.16693,0.0518742}
,
{0.0927771,0.0691018,0.199487,0.193706,-0.0829257,-0.00293777,-2.90367e-06,0.0981118}
,
{0.307686,0.0553887,0.298226,0.0115954,0.224107,-0.137185,-0.0974828,-0.149181}
,
{0.425112,-0.26783,0.291029,-0.260561,0.0692921,0.11533,0.0313576,-0.187761}
,
{-0.196725,-0.222978,0.159635,0.0187128,0.15753,0.305386,0.0161864,0.110044}
,
{-0.13057,0.0810399,0.0295226,0.0100465,0.0132817,0.00523773,-0.244714,0.0404104}
,
{-0.0198055,-0.0314831,-0.143045,0.0882293,-0.162456,0.121315,0.0140372,0.0713332}
,
{0.0980233,0.0219653,0.107968,-0.098914,0.275186,-0.242766,0.226713,-0.178759}
,
{0.323166,-0.22082,0.369664,-0.238398,0.220544,-0.0969453,-0.151134,-0.200794}
,
{0.243696,-0.00721595,0.189256,-0.0396761,0.0370932,-0.0845601,-0.00963144,-0.0762523}
,
{0.0689632,-0.0525999,0.0151562,-0.119497,-0.0737157,0.192654,0.158966,-0.137477}
,
{-0.0802355,0.0354262,-0.166484,-0.0965404,-0.318879,-0.00978366,-0.185843,0.179228}
,
{0.236244,-0.0819141,0.143,-0.256095,0.245354,-0.00254739,-0.00126575,-0.0763648}
,
{0.0654089,0.04839,0.167994,0.0167936,0.342846,-0.0430575,0.0835601,-0.183954}
,
{-0.128662,-0.222936,-0.176483,0.186152,-0.18288,-0.0574498,0.187569,0.103215}
,
{0.0411414,0.0532091,-0.0891549,0.0433554,0.0616764,-0.119728,-0.133322,-0.126674}
,
{-0.151691,-0.204952,-0.236995,-0.129183,0.0242991,0.108718,-0.0618776,0.0351272}
,
{-0.125526,0.213009,0.22053,0.19725,-0.0547163,-0.00719019,-0.0589918,-0.075653}
,
{0.338651,-0.13388,0.206753,-0.0346589,0.320731,-0.276176,-0.0704031,-0.223831}
,
{0.183573,0.0817809,-0.0583045,0.106873,-0.0773958,-0.029364,0.184586,-0.267619}
,
{0.185805,0.0354658,-0.0688284,0.0347788,0.00521207,-0.0752643,0.00933651,0.020185}
,
{0.192046,-0.137518,0.0896707,-0.158041,0.255245,-0.161401,0.130047,0.00654351}
,
{-0.0752725,0.0413238,0.195724,-0.0358461,-0.0393096,-0.182777,0.18754,-0.0603243}
,
{-0.100136,-0.0540349,-0.153809,-0.0170497,-0.0719353,-0.200162,-0.0444841,0.166276}
,
{-0.18759,-0.0402734,-0.0757942,0.255403,-0.0647775,0.16491,0.12121,0.0406614}
,
{0.34958,-0.138622,0.0010532,-0.0156605,0.238702,-0.139672,-0.116369,-0.127801}
,
{0.0316596,0.0106192,-0.0495165,-0.0366776,0.109161,0.00976367,-0.0119008,0.211537}
,
{0.181153,-0.200081,0.265738,0.136083,0.0822085,-0.025791,-0.0666642,-0.0366307}
,
{0.0949853,-0.0782518,0.00836208,-0.0249172,-0.119148,0.026106,-0.00622967,-0.151669}
,
{0.104339,0.0710651,0.0242092,-0.0660104,-0.0439504,-0.0570926,-0.0767496,-0.0823131}
,
{0.133082,-0.10517,-0.119228,0.0139086,-0.114653,-0.131915,-0.0551795,0.102292}
,
{0.132894,-0.160571,0.0138274,0.170035,0.235949,-0.0228859,0.189011,-0.137431}
 };
  static const float bias2[64] = { 0.0677302 };
  static const float weights2[][64] = { {0.171148}
,
{-0.00527586}
,
{0.189483}
,
{-0.117144}
,
{0.123737}
,
{-0.142139}
,
{-0.0245592}
,
{-0.0445396}
 };

  float tmp[8];
  for (unsigned int i = 0; i < 8; i++) {
    float sum = 0.f;
    for (unsigned int j = 0; j < 110; j++) {
      sum += weights1[j][i] * vals_in[j];
    }
    sum += bias1[i];
    tmp[i] = sum > 0.f ? sum : 0.f; // RELU
  }
  float sum = 0.f;
  for (unsigned int j = 0; j < 8; j++) {
    sum += weights2[j][index] * tmp[j];
  }
  sum += bias2[index];
  return sum;
}
float specialized_gen_lepton_prior_1_0_1(const Sirikata::Array1d<int16_t, 110> &v,
                                int index) {
  return gen_lepton_prior_1_0_1(v, index);
}
static int assign_gen_lepton_prior_1_0_1() {
  global_gen_lepton_prior.at(1,0,1) = &specialized_gen_lepton_prior_1_0_1;
  return 0;
}
static int initialize_gen_lepton_prior_1_0_1 = assign_gen_lepton_prior_1_0_1();

template<typename T, uint32_t ms> float gen_lepton_prior_1_0_2(const Sirikata::Array1d<T, ms>& vals_in, int index) {
  static_assert(ms >= 110,
     "array must be sized to hold at least 110");
  static const float bias1[8] = { 0.109951,-0.0487947,0.13474,0.101259,-0.0393066,-0.0320152,-0.0423859,0.107653 };
  static const float weights1[][8] = { {0.270462,-0.00251583,0.114147,0.0979179,-0.221802,-0.267525,-0.132875,0.0266109}
,
{0.114341,-0.0196094,-0.0109524,0.198558,-0.279781,-0.0447514,-0.0368105,-0.0983789}
,
{0.174465,0.0323518,-0.228148,0.179213,-0.123653,-0.166723,-0.118319,-0.160985}
,
{0.246304,0.106445,0.207669,0.133945,-0.113803,0.0294676,-0.211181,0.0179039}
,
{-0.151314,-0.0527178,0.027497,0.282156,0.087151,0.00264369,-0.148342,-0.0205741}
,
{0.0123314,-0.0898307,0.235628,-0.0459573,-0.186109,-0.0539055,0.0528629,-0.0998043}
,
{0.0720098,-0.0341883,0.194027,0.266292,0.120342,-0.00128418,0.132915,0.0766239}
,
{0.128021,-0.148562,0.0776422,-0.0939414,-0.0797313,0.0957351,0.0347259,0.175022}
,
{0.0835484,-0.026247,0.187659,-0.0668323,-0.0560559,-0.121592,0.0015864,0.109544}
,
{-0.00616844,-0.220342,0.0188664,-0.0668681,-0.182475,-0.0734065,0.074407,0.172759}
,
{0.0517619,0.189673,-0.0340785,0.0186296,0.0777627,-0.188313,-0.110786,-0.100357}
,
{0.0765679,-0.0556834,0.0700623,0.108253,0.123332,-0.0375635,0.0161809,0.0599239}
,
{-0.258755,-0.104153,-0.0812965,0.144249,-0.0425332,0.0664516,-0.0607042,-0.0424879}
,
{-0.23829,0.057322,0.0636869,-0.0503832,-0.0496589,-0.0235011,-0.262181,-0.0074507}
,
{0.173823,0.00503596,-0.105412,-0.0541336,0.0641953,-0.107258,-0.0700975,-0.0700106}
,
{0.00398413,0.0639143,0.0810265,-0.0597009,-0.0441206,0.031443,0.0555887,-0.026585}
,
{0.103214,0.020125,0.137985,0.0655332,0.109022,-0.143143,0.00756715,0.14929}
,
{0.0482484,0.0977909,0.00976696,-0.0631679,-0.143946,-0.0217071,-0.0270418,0.0902236}
,
{-0.191353,0.0362885,0.101712,0.271025,-0.120768,-0.00476063,-0.185245,-0.0823559}
,
{-0.101015,-0.119955,-0.00104953,0.0655636,-0.120632,-0.211583,0.0490418,0.0630561}
,
{0.0748705,-0.159678,0.096217,0.0419099,0.156124,-0.0583904,-0.0673709,-0.157737}
,
{0.0809562,0.223474,0.120004,0.128768,0.00902336,-0.00761646,-0.0300469,0.10188}
,
{-0.0638812,-0.0478029,0.0625372,0.0277163,-0.157036,-0.0411795,-0.0800685,-0.00534462}
,
{-0.00269324,0.113078,0.125143,0.0479893,-0.00118053,0.0223175,0.0873003,-0.0436076}
,
{0.199672,-0.148632,0.0183732,0.12373,0.248313,-0.0230361,0.0902639,-0.110915}
,
{0.179999,0.097827,-0.0203259,0.109107,0.0705591,-0.149068,0.0321555,-0.238478}
,
{0.0347568,-0.131579,-0.182175,0.0769147,0.174502,-0.06333,0.117238,-0.211925}
,
{0.158699,0.00675485,-0.0917035,0.120112,-0.017829,-0.11091,-0.122835,0.270042}
,
{0.0655889,0.034576,-0.154488,-0.00355521,-0.115865,0.084611,-0.105816,-0.0506068}
,
{-0.129652,0.100388,-0.110348,-0.00118841,-0.107089,-0.204653,-0.157194,-0.0792309}
,
{-0.0946369,0.111086,0.119301,-0.183263,-0.126309,-0.224897,0.15073,0.0535514}
,
{-0.0409999,0.112824,0.17416,-0.117559,-0.160254,-0.0209057,0.0310404,0.286218}
,
{-0.095841,0.0858323,-0.00686539,-0.0397555,-0.03845,0.0529015,0.197656,0.246213}
,
{0.1782,-0.159964,0.0139097,-0.0991777,0.0739022,-0.0513635,0.143033,-0.133811}
,
{-0.0577916,0.0950508,-0.00583408,0.0896936,-0.026853,-0.0348233,0.00544475,-0.063427}
,
{-0.0244848,-0.027656,-0.118954,-0.152485,-0.106292,0.112945,-0.0743105,0.170103}
,
{-0.0869166,-0.127483,0.0935593,-0.0911863,-0.116877,0.0262377,0.000927224,-0.133542}
,
{0.085695,-0.007978,0.200985,-0.0781605,0.0243505,0.237638,-0.0564666,-0.0470993}
,
{-0.0157999,0.0561543,0.124154,0.00978563,0.0102213,0.127341,0.0359883,0.132197}
,
{0.0872549,-0.0632696,0.119313,0.00396265,0.034839,0.0694813,0.111288,0.134977}
,
{-0.233832,-0.152328,0.118617,-0.0345596,-0.14174,0.00984394,-0.0243435,-0.0685537}
,
{0.017901,0.00607772,-0.0943588,0.0183657,-0.0563512,0.000663886,-0.0648014,0.14776}
,
{0.0211505,-0.195066,0.056209,-0.139958,0.170585,0.159886,0.0264584,-0.141988}
,
{-0.0067911,-0.130941,0.114907,0.158387,-0.145985,-0.0309227,0.112826,-0.145787}
,
{0.274385,-0.0954778,-0.153622,-0.167375,0.0868957,-0.00891229,-0.050703,0.250798}
,
{-0.051645,0.187972,0.014443,0.0311651,0.047171,0.0252746,0.110772,0.136036}
,
{-0.13525,0.027204,0.0669658,0.0264071,0.00482876,-0.011155,-0.172528,0.12463}
,
{0.0150305,-0.0353822,-0.0455154,0.03771,-0.152359,0.00375839,-0.0647895,-0.148559}
,
{-0.165534,0.0758238,-0.135533,-0.0290147,-0.124531,0.108425,-0.151505,-0.0890496}
,
{-0.0702452,-0.0522682,0.0861691,-0.110853,-0.0690724,-0.0299537,-0.0149217,0.0113569}
,
{0.144897,-0.0690334,0.0395896,-0.110585,-0.0223554,-0.0834443,0.106516,0.070627}
,
{-0.20191,-0.0327985,0.0835414,-0.177546,-0.14658,-0.162788,-0.187423,0.142967}
,
{-0.177653,-0.0156943,0.214135,0.00416178,0.017685,0.0275303,-0.0553714,0.275166}
,
{-0.210847,0.0070453,-0.116097,0.188164,-0.183036,0.138544,0.201014,0.033631}
,
{-0.0354269,0.0912689,0.0369149,0.140958,0.130171,0.0457425,-0.158532,-0.17391}
,
{0.0671788,0.194757,-0.0234408,-0.0273518,0.0775096,-0.0787833,-0.0148354,0.128827}
,
{0.102438,-0.0270303,0.228625,0.221943,0.00938655,-0.0139313,0.0528268,-0.00480532}
,
{-0.0901189,-0.140567,0.130139,-0.0671797,-0.192971,-0.152506,0.247124,-0.107669}
,
{0.0773499,0.0539316,0.16587,0.140928,0.0950413,0.0784405,-0.197742,0.172058}
,
{-0.0401773,0.0908949,0.126737,0.00454329,0.0565816,-0.070191,0.000562336,0.103668}
,
{0.00437767,0.0300984,-0.0201801,-0.0604912,0.0367956,0.0145731,0.0058079,0.0375156}
,
{-0.102091,-0.154032,-0.215413,-0.059392,0.0309407,0.117541,-0.0680699,0.00608727}
,
{-0.12858,-0.10469,-0.147394,0.165461,-0.037421,0.0828665,-0.190237,0.0236553}
,
{-0.0138522,-0.0836174,0.0862262,0.0776974,0.201957,-0.0517272,-0.180889,0.0224095}
,
{0.0570496,0.11745,0.00647898,0.1053,0.0567758,0.0252365,0.15018,-0.187294}
,
{-0.248369,-0.133483,0.0789663,-0.211675,-0.068215,0.126613,0.126175,0.172178}
,
{0.228604,-0.076376,-0.0519615,0.162459,-0.106855,-0.202138,0.0829253,-0.192936}
,
{0.18222,-0.0917413,-0.012907,0.0934276,-0.153068,-0.0188004,0.0285762,0.113052}
,
{0.111433,0.174937,-0.0468071,0.0721362,0.0892094,-0.0859381,-0.0673084,-0.123946}
,
{-0.018426,-0.00585942,0.134241,0.134674,0.211901,0.0158601,0.138663,0.137319}
,
{0.0083223,-0.107847,0.0173923,-0.00567973,0.136647,0.136819,0.0287841,0.0645993}
,
{0.0911966,0.00202613,-0.244521,-0.111046,-0.0962007,-0.101344,0.0342995,-0.0839612}
,
{0.110784,0.000342295,0.165187,0.130249,-0.145443,0.125485,0.122149,0.0476218}
,
{0.0293065,0.166065,0.0045117,-0.107045,-0.0837829,0.0702749,-0.15478,0.290345}
,
{0.177792,-0.104732,0.256483,-0.24387,0.109598,-0.111893,0.0112493,-0.172437}
,
{0.0866411,-0.133991,-0.00945336,-0.183018,-0.195314,-0.0329882,0.12085,-0.0817052}
,
{0.0511116,-0.162927,-0.00237876,0.105888,-0.0251937,-0.00845756,0.063261,0.0502952}
,
{0.0910731,-0.044493,0.0792354,0.147632,-0.0795298,-0.0277664,-0.141561,-0.195458}
,
{-0.0947771,0.0460006,0.0819392,-0.0741343,0.0930464,0.0393279,0.0616823,0.148925}
,
{0.226873,0.0794846,0.192676,0.24055,-0.0434566,0.0594861,0.13189,0.316731}
,
{0.0674799,0.0720697,0.121777,-0.104801,-0.00413853,0.0191159,0.0732745,-0.329853}
,
{0.115672,0.19138,0.0483888,0.226423,-0.0474858,0.150992,0.0620389,0.339195}
,
{0.0042189,0.0208118,-0.0901161,-0.0495121,-0.0268198,0.105099,-0.00475799,0.0884614}
,
{-0.136531,0.0478235,-0.210797,0.0754971,0.0293443,0.00633246,-0.109524,0.113101}
,
{0.0379825,-0.0268804,0.0396341,-0.018073,-0.0953765,-0.0120352,0.0515244,0.242114}
,
{0.298614,-0.145349,-0.145648,-0.0551713,-0.115068,0.0191833,0.0755518,0.282257}
,
{0.000433637,-0.220891,0.296354,0.237678,-0.150783,0.0690322,-0.0106316,0.0915116}
,
{0.038883,0.0132066,0.225899,0.0225667,-0.102171,-0.0238212,-0.0784588,0.182304}
,
{0.0921578,-0.200359,-0.0388442,0.202023,0.195684,0.0728713,-0.242205,0.199468}
,
{0.315011,-0.0601398,-0.189859,-0.039508,-0.149054,0.204079,-0.239224,0.0119789}
,
{0.320002,-0.235283,-0.0866267,-0.164279,-0.10341,-0.000967563,-0.0518466,-0.324705}
,
{0.209442,0.0491543,-0.0908162,-0.147703,0.0544396,-0.0150586,0.14131,0.090058}
,
{0.12029,-0.0738849,0.0762243,0.0486632,-0.0584251,-0.252181,0.128238,0.169892}
,
{0.163783,-0.183081,-0.0600304,0.108541,-0.00284038,0.0668868,0.0259182,-0.20278}
,
{-0.0572262,-0.0149254,-0.0156721,0.159831,-0.0167292,-0.171321,0.0862795,0.266037}
,
{-0.0485213,-0.0585536,-0.00288925,0.214023,0.202295,0.179072,-0.127574,-0.0738529}
,
{0.429867,0.0955512,0.0551003,0.0657129,-0.0429448,-0.0336145,-0.183038,0.326116}
,
{0.130714,-0.155168,0.0710025,0.109388,0.0032968,-0.101819,-0.146045,0.0238976}
,
{-0.0172245,0.0784124,0.232772,0.0237306,0.119397,0.00664584,-0.00342414,0.0933756}
,
{0.0803522,-0.0237399,0.0183569,0.18752,-0.0329575,-0.0831716,0.0389288,0.00225267}
,
{-0.143365,0.12301,0.141005,-0.00810118,0.00659653,0.089409,0.0103127,0.153568}
,
{0.03102,-0.141398,0.0759974,0.234017,0.184179,-0.0125411,-0.0454633,0.00899162}
,
{-0.00833852,-0.0237235,0.135331,-0.166151,-0.15272,0.197825,0.0142415,0.0120325}
,
{0.257853,0.0652307,-0.0302481,0.105479,-0.0350403,-0.104002,0.0241717,0.0468382}
,
{-0.00213072,-0.0505023,0.218472,-0.0336515,0.110729,-0.141368,0.166414,-0.0889024}
,
{-0.116062,-0.143377,-0.0352349,0.162763,-0.124381,-0.211055,-0.0343393,0.039788}
,
{-0.0937147,0.0162262,0.171528,0.0613549,-0.109544,-0.0389908,-0.117742,-0.0147512}
,
{0.0666783,-0.0429055,-0.048859,0.0918862,-0.0687208,0.0739011,-0.136518,0.185048}
,
{-0.0397484,0.130509,0.140996,0.164686,0.158059,-0.00605021,-0.0243613,-0.0584173}
,
{-0.148963,-0.114222,0.255591,0.144121,-0.0782678,0.122267,-0.0463213,0.219018}
 };
  static const float bias2[64] = { 0.0798396 };
  static const float weights2[][64] = { {0.298911}
,
{-0.171515}
,
{0.121257}
,
{0.210656}
,
{-0.126112}
,
{-0.130401}
,
{-0.074806}
,
{0.158457}
 };

  float tmp[8];
  for (unsigned int i = 0; i < 8; i++) {
    float sum = 0.f;
    for (unsigned int j = 0; j < 110; j++) {
      sum += weights1[j][i] * vals_in[j];
    }
    sum += bias1[i];
    tmp[i] = sum > 0.f ? sum : 0.f; // RELU
  }
  float sum = 0.f;
  for (unsigned int j = 0; j < 8; j++) {
    sum += weights2[j][index] * tmp[j];
  }
  sum += bias2[index];
  return sum;
}
float specialized_gen_lepton_prior_1_0_2(const Sirikata::Array1d<int16_t, 110> &v,
                                int index) {
  return gen_lepton_prior_1_0_2(v, index);
}
static int assign_gen_lepton_prior_1_0_2() {
  global_gen_lepton_prior.at(1,0,2) = &specialized_gen_lepton_prior_1_0_2;
  return 0;
}
static int initialize_gen_lepton_prior_1_0_2 = assign_gen_lepton_prior_1_0_2();

template<typename T, uint32_t ms> float gen_lepton_prior_1_0_3(const Sirikata::Array1d<T, ms>& vals_in, int index) {
  static_assert(ms >= 110,
     "array must be sized to hold at least 110");
  static const float bias1[8] = { -0.027861,0.108251,-0.00121175,0.118777,0.052127,0.000743072,-0.0508325,0.000800551 };
  static const float weights1[][8] = { {-0.235963,-0.291733,-0.152809,-0.195732,-0.217022,-0.104746,0.0741037,0.402542}
,
{0.164346,0.217377,-0.112463,-0.0385175,-0.0754814,-0.204073,-0.0538885,0.17192}
,
{-0.102347,0.033294,0.00633015,0.0361228,0.178311,-0.0927267,0.0721327,-0.00972979}
,
{0.00520318,0.211138,0.334692,0.323811,0.283066,-0.187782,-0.230629,0.0205599}
,
{0.134298,0.0847262,0.0910799,0.27986,-0.0389189,0.216326,-0.258317,0.0277863}
,
{-0.198213,0.0839173,0.0870856,0.184709,-0.139815,0.0906513,-0.0836882,-0.257315}
,
{0.0673286,0.205402,-0.128407,0.0282293,0.10034,-0.116691,0.0595547,-0.0407208}
,
{-0.0127356,-0.0169353,0.011072,0.0680965,0.0576392,-0.186728,0.00029688,-0.101023}
,
{-0.183339,0.132229,0.188145,0.10989,0.118409,0.0138209,0.168905,-0.108307}
,
{0.0173476,0.00114677,-0.00710085,0.245413,0.0176257,0.243905,-0.0587044,-0.0124381}
,
{-0.0628958,-0.00694134,0.0208876,-0.0860186,0.00147287,-0.0820137,0.0730106,-0.182491}
,
{-0.175275,0.164718,0.0364853,0.0798645,-0.0254251,-0.0585474,-0.190603,0.149332}
,
{-0.17585,0.120637,0.0448331,0.120729,0.0448781,-0.191647,-0.0920953,0.0783817}
,
{0.0987735,0.210971,0.133759,0.0955275,0.0618205,-0.102791,0.00485905,-0.0175506}
,
{-0.215047,-0.0265991,-0.0413084,0.102494,-0.0095925,0.0134061,0.130821,0.0888161}
,
{0.129937,-0.00570237,0.00693849,0.0965842,-0.0423421,0.0604574,0.0825241,-0.0431719}
,
{-0.0716524,0.0640016,-0.140891,0.0937038,0.103934,-0.150231,0.127107,-0.188047}
,
{0.0368137,-0.0328044,0.037457,-0.0322951,0.219128,-0.0194619,0.0870851,0.117871}
,
{-0.232708,0.112897,-0.000508812,-0.0108466,-0.0190698,-0.0825193,0.191247,-0.0995977}
,
{-0.127301,0.00830111,-0.145094,0.0464688,0.0536159,-0.072786,0.0492191,0.0273544}
,
{0.182923,0.0370231,0.0590347,-0.0286683,0.0209102,-0.00565771,-0.0327101,-0.112432}
,
{0.125687,0.0117286,-0.071678,-0.0154263,-0.121191,-0.0464426,0.125665,0.0899157}
,
{0.0964269,-0.0386056,-0.17421,0.0219593,-0.0314306,0.0389339,-0.0595557,-0.00689375}
,
{-0.124434,0.114992,0.19246,0.117683,-0.0179404,0.0310471,-0.0520318,0.0340746}
,
{-0.0706738,0.0195249,-0.237769,-0.167219,0.146871,0.0336129,0.106694,-0.0156695}
,
{-0.0586849,-0.0634115,-0.0504732,0.0431429,-0.0448009,0.231232,-0.112153,0.0962834}
,
{0.126923,0.170591,0.179278,-0.0523011,0.199269,0.0723371,-0.0285954,-0.101606}
,
{-0.03399,-0.0608682,-0.12729,-0.111375,-0.163615,-0.00484952,-0.302676,0.268795}
,
{-0.078529,-0.0876652,0.0634665,0.177457,0.00505598,0.135431,0.0963081,-0.0355035}
,
{-0.135135,-0.0687663,-0.126815,0.0252668,0.00415605,-0.0322758,0.0227519,0.062944}
,
{-0.082202,0.0149983,-0.159373,0.0682115,-0.0909763,-0.186295,0.186153,-0.00110585}
,
{-0.0487459,0.0176289,-0.032873,0.0930156,-0.0832856,-9.73107e-05,0.0374599,-0.0379649}
,
{0.0469747,0.0213507,-0.103792,-0.022149,0.0856279,-0.138889,0.064635,0.118281}
,
{-0.113609,-0.111812,0.0834925,0.168624,-0.0251577,-0.0830576,0.213186,-0.0219877}
,
{-0.0846698,-0.0847444,-0.0171365,0.089589,0.119565,-0.0232863,0.115464,0.148463}
,
{0.0768063,0.0631653,0.190898,0.180766,0.101379,0.102305,0.0628852,-0.0963628}
,
{-0.045218,0.0862974,0.134441,-0.115496,-0.0687591,0.0822039,-0.20035,-0.00461647}
,
{-0.0418066,-0.00816276,-0.0661624,0.0348116,0.0581633,0.181052,0.185979,0.0550391}
,
{-0.102255,-0.12569,-0.100168,0.0683196,0.0390633,0.173143,0.126228,0.0383308}
,
{0.067411,0.0146154,-0.0556782,-0.0496044,-0.039797,0.0112286,-0.202344,-0.0526862}
,
{0.116596,-0.120858,0.151499,0.0813525,0.0511035,-0.108387,0.00684136,0.260474}
,
{0.131145,-0.102825,-0.234364,0.0833782,0.0915248,-0.146332,-0.0496866,0.0271609}
,
{-0.0287857,-0.0316862,0.0563967,-0.116543,0.156398,0.0384128,0.0840742,0.170833}
,
{-0.0693224,-0.0444182,-0.104173,-0.0197686,0.0197531,-0.154074,-0.0446708,-0.102572}
,
{-0.0516543,-0.0068707,-0.00877522,-0.0729331,0.0280552,-0.0954793,0.103473,-0.119142}
,
{0.083555,-0.00624754,-0.0882218,-0.218462,0.0640289,-0.0726991,-0.301958,0.0144025}
,
{-0.0733413,-0.0910504,-0.221613,0.0798671,0.106014,0.0739496,0.0112597,0.0743708}
,
{-0.186138,-0.00837234,0.16507,0.167214,-0.0945442,0.142123,-0.270591,0.152307}
,
{-0.0510868,-0.0657556,-0.0416424,0.171851,-0.0279259,-0.0843105,0.03981,-0.179281}
,
{0.12436,0.0020627,-0.0812767,0.0653712,0.0162478,0.104761,0.128097,0.00536205}
,
